//Numpy array shape [3, 3, 16]
//Min -0.317408949137
//Max 0.320285588503
//Number of zeros 0

#ifndef W2_H_
#define W2_H_

[[intel::fpga_register]] static constexpr w2_t w2 = {{0.2721491158, 0.1120030284, 0.2975874841, 0.1925033629, -0.2719783485, 0.0611295998, 0.3010531366, 0.0225591958, -0.1915004551, 0.0529299378, -0.3174089491, 0.2348460853, 0.1411879361, 0.1539760232, 0.1633572578, 0.1572935581, -0.0175488889, 0.2142005861, 0.2213279903, -0.0708104968, 0.2591894567, -0.1635474116, -0.1243318915, 0.1566981673, 0.0748313963, 0.0463667512, 0.3128675520, -0.2340949923, -0.3018665314, 0.2633229792, -0.0223321021, -0.2938518822, -0.2701110244, 0.0027569532, -0.0780305862, 0.1556222737, -0.0560504496, 0.1507030725, -0.2250053734, 0.1448600292, -0.2860894799, 0.1430656612, 0.1666711569, 0.2437812388, 0.2400395572, 0.2369101346, -0.2178455591, 0.2800941765, 0.0934871435, -0.0337085128, -0.0651004612, -0.2710400522, 0.0647997856, 0.2162704170, 0.0423915684, -0.2722964883, -0.1002260745, -0.1880082637, 0.0265436769, -0.0003682077, 0.2159810960, 0.0624481738, 0.2964371145, -0.1731568426, 0.2575533688, 0.0511295497, 0.1696271300, -0.1110358834, 0.0624302924, 0.1525878608, 0.1345397234, 0.2646106184, -0.1654945463, 0.3127028644, -0.1558642238, -0.2077567726, -0.3158109784, -0.1483247578, -0.3073885441, -0.2536734045, 0.0453060865, -0.0985768288, 0.0608274639, -0.1977765858, -0.2744244635, -0.1361253858, -0.0631321967, -0.1765159070, -0.1688959897, 0.0943422914, 0.1467635334, 0.3186332285, 0.0203986466, 0.0150069892, -0.0386012495, 0.0013770461, 0.0381894410, -0.2739712596, 0.2076660097, -0.1166827381, -0.2227296531, -0.2550472617, -0.0430622101, 0.3202855885, 0.1054929793, 0.1698584259, 0.2272857726, 0.0551786721, 0.2508667409, -0.3156711459, -0.0123612881, -0.0774096698, 0.2894764245, 0.1161302030, -0.0105986893, -0.0462072492, -0.2239604890, -0.1216030270, -0.0636019707, -0.1697126925, 0.1371842623, -0.0039067268, 0.0983218849, -0.1370708048, 0.1230735779, 0.0678831637, 0.3007595837, -0.1691739261, -0.1884397417, 0.2406590879, 0.2553600967, 0.3133266866, -0.0907927006, 0.2393009365, -0.1021840423, 0.2089035809, -0.2455946207, 0.0365849733, -0.0847446769, -0.0550409853, 0.1921527088, -0.1760359257, 0.2485636175, -0.0300437510}};

#endif
