//Numpy array shape [16, 48]
//Min -0.305121511221
//Max 0.304835945368
//Number of zeros 0

#ifndef W5_H_
#define W5_H_

[[intel::fpga_register]] static constexpr w5_t w5 = {{-0.0957540870, -0.1786710918, -0.1225129962, -0.1748838276, -0.0367935598, -0.2090385705, 0.0121883750, -0.0158210397, -0.2734479308, -0.1441096812, -0.0417459011, 0.1682204902, -0.2064139098, 0.2620633543, -0.2332902849, 0.2262140214, 0.0121737719, 0.0402791202, -0.0880363286, 0.1709186733, -0.2921450138, -0.0885822177, -0.0375865698, -0.1076060683, 0.2454728186, 0.2882970870, -0.2365140617, -0.1874009967, 0.0170749724, -0.2449056804, -0.1016889513, 0.2042990625, -0.1523622274, -0.0830206126, 0.2447684109, -0.3051215112, 0.1309891641, -0.1935612261, 0.3048359454, 0.2427431643, 0.2855844200, 0.0319458842, -0.1084576994, 0.1020984054, 0.2393015921, -0.0069911182, 0.0538879335, -0.1178320497, -0.1063210517, 0.1396239400, -0.0878691524, 0.2870765030, -0.2454998344, -0.2131303251, -0.2328168750, 0.2064369619, 0.2785877287, 0.1839340031, 0.1899506152, -0.1814499348, -0.0377810299, 0.2550275028, 0.1341243088, 0.1358249187, 0.0410366356, 0.2350525558, -0.2157478333, 0.0338169038, -0.0233859122, -0.2900588810, -0.0271643698, -0.0157869458, 0.0179312527, -0.0271403491, 0.2239606678, 0.1408259571, 0.2510661185, 0.1318759024, 0.2305223048, 0.2738133371, 0.2031264007, 0.1176925600, -0.1284445673, -0.2800814807, 0.0559116602, -0.2532607913, 0.0443299711, 0.1734730899, 0.0843577683, -0.2290310562, 0.1888023317, 0.2357037961, -0.2735228240, -0.0131244659, -0.0891703069, 0.1744264066, 0.1303614974, -0.0647999793, -0.2773436606, 0.0607791841, 0.0985980928, -0.2711963058, 0.1056453586, 0.1082117558, 0.0251046419, 0.0110730827, -0.1336097270, 0.2752086818, 0.1553741693, 0.0072273314, 0.0363841653, 0.1641929746, 0.2763786018, -0.2280068696, 0.0085223615, -0.1313932091, 0.0797820091, -0.1352569759, -0.0599444956, -0.1325140595, 0.0799818933, 0.0371045470, -0.0300962031, -0.1585493833, 0.0519957542, -0.3047170341, 0.2269826233, 0.2364145815, -0.0210191011, -0.1900563240, -0.1116473824, -0.1180512011, 0.0534045398, 0.2804082334, 0.0388694704, -0.1247760057, 0.2659815252, 0.2571187913, 0.1121876538, 0.0687912703, -0.2665891647, 0.1219859421, 0.2352534235, -0.0845374763, -0.2517122328, 0.2833394110, 0.2778324783, 0.0577197373, -0.0970533490, 0.0518180728, -0.2352508605, -0.2826747298, -0.1471316069, -0.1711437255, -0.0548018217, 0.3013991416, 0.2157913148, -0.0882506520, -0.2217102945, 0.1689807177, -0.0494507551, -0.2610870302, -0.0460497141, -0.0183368325, -0.1856741905, 0.2230372131, -0.0844138861, 0.1719007492, 0.0067321658, -0.1683727056, -0.2503406405, 0.1477377117, 0.1713007390, 0.1621334255, 0.2044443786, 0.0836120546, 0.2729353607, 0.1718145311, -0.0330131650, 0.1708154380, -0.3024372756, 0.2987279594, 0.2449795306, 0.2839834392, -0.0103211701, 0.0976969898, 0.0249982178, 0.1433850825, 0.1649523377, 0.1641670763, -0.0093300343, 0.2939693630, -0.0804477781, -0.1817337573, 0.1640811563, -0.2271199822, -0.2557849288, 0.0851541162, 0.1254642606, -0.2898992300, -0.1202061027, 0.2371712029, 0.1571473479, -0.1863666624, 0.2597520053, -0.2349426448, -0.1595542431, -0.2793768644, 0.2938864529, -0.2579558194, 0.2135259807, 0.2853718102, 0.2012979686, 0.1474230289, 0.0987417698, -0.0223480761, -0.2265075147, 0.2245539725, 0.0534923375, 0.0053358972, 0.0888061821, 0.1032357514, 0.2160904109, -0.2950556278, 0.1253234446, 0.1640852988, -0.1170521230, -0.0121774375, -0.0248105228, 0.0912852883, -0.2070358098, 0.2920515239, -0.2576497495, 0.1770929694, -0.2796525955, -0.0275373757, -0.1964818239, 0.0464433432, -0.1234144717, -0.1590733081, -0.2822022736, -0.2233815491, 0.1222441196, -0.1202271283, 0.0863727033, -0.1938493550, -0.2211446017, 0.2842244804, 0.1199462116, 0.2074454725, 0.0031914413, -0.0387836397, -0.1029642671, -0.0500055552, -0.0161096156, -0.2522909939, -0.2603768110, 0.1442869306, 0.0152577460, -0.2815303206, 0.0012825429, -0.1508225054, 0.1919020712, 0.0085525811, 0.1348335743, -0.2436453253, 0.0123289824, 0.0258152485, -0.0130259991, -0.0888702124, 0.1536082029, 0.0968185663, -0.2058611512, 0.0883045197, -0.0443326831, -0.0646549910, -0.2489735633, 0.2822651565, 0.1837725937, -0.0431664884, -0.0023625791, 0.3017073572, -0.0053498447, -0.2781880498, 0.1273951828, 0.1346082091, 0.0520178974, -0.2747718692, 0.1313349605, -0.2914080024, 0.0358709097, 0.2390973270, -0.2290412784, 0.1974894106, 0.1804572046, 0.1340350211, -0.0430172980, -0.2748423815, -0.2341613173, 0.1733106673, -0.2607257664, 0.2255412638, 0.1199439466, 0.0817149282, -0.1049383432, 0.1581435204, -0.1785413772, -0.1931373775, 0.0481697321, -0.0367720127, 0.0915412903, -0.0042124987, -0.2805938721, 0.1787504554, -0.2087597847, 0.1266821921, 0.2612812221, -0.1249361038, -0.1930850446, 0.3046772182, 0.2953764498, 0.0387007594, -0.3023417294, 0.0443004072, 0.0797638297, 0.1648756266, 0.2253972590, 0.2999441326, 0.2577109039, -0.2169435769, -0.1057363153, 0.2428108752, 0.2639593184, 0.0720959306, -0.0195307732, 0.2554273903, -0.2777886093, -0.0827232748, 0.2279196084, 0.0852985978, -0.2437072992, -0.2295460105, -0.0434323549, -0.0250245631, -0.0833170563, -0.1966064423, -0.0177187622, 0.2378923595, 0.0963487327, -0.1848889142, 0.2674247324, -0.0096424818, -0.2094304264, 0.2745405734, -0.1125798821, -0.1986395717, 0.2004753053, 0.0687673986, 0.1577440500, -0.1346927583, -0.0449679196, 0.0875824690, 0.0362640023, -0.2828381956, 0.1125262380, 0.0059540570, -0.3030222356, -0.0282751918, -0.0191195607, 0.1809556484, -0.1714334637, 0.0292543471, -0.0142618716, -0.0785197616, -0.3050699830, 0.0257987380, -0.0896033496, 0.2536642849, 0.1167246401, -0.1224313080, -0.1355435103, -0.1100657582, -0.2326132655, 0.1674087942, -0.1511353850, 0.0407079160, -0.0809175372, 0.0630691946, -0.2451916933, 0.2691964209, 0.0126049221, -0.2472289950, -0.2413546443, 0.0104413331, -0.2079069912, -0.1505813897, -0.2778878212, 0.2863546312, -0.1168252379, 0.1345222890, 0.0649545193, 0.1676082313, 0.1682592630, -0.2101311684, -0.0160714984, -0.2743803561, -0.1893430352, 0.1494002342, -0.0142909288, -0.1026134193, -0.1172416210, 0.1030861735, -0.2409174442, -0.1820483953, 0.0184797943, -0.0560721159, -0.0406937599, 0.2371384203, -0.2514563799, 0.0685940385, -0.1189238429, -0.0457404256, -0.0870860815, 0.0192283988, 0.0185717642, 0.2286249697, -0.2714893222, 0.1399271190, 0.2180654705, 0.0264961720, -0.0100562572, -0.2947541475, 0.0877238214, 0.3006532490, -0.1031662524, 0.1851128936, -0.1404484808, -0.1188224554, 0.1181060970, -0.0429564118, 0.2202787697, 0.0296148956, 0.1946252286, -0.1813943088, 0.1668391824, -0.2017150819, 0.2887335718, -0.0912555754, -0.3047698140, 0.0838204026, -0.1506802291, -0.2351767570, -0.0300853252, 0.1598355770, 0.0983365476, -0.0320359766, -0.2100166380, 0.0326748788, 0.1690061390, 0.2280972898, 0.2774391472, -0.2529839277, 0.2020932138, -0.1295772493, -0.2832073569, -0.2741674185, 0.0799648762, -0.1526899338, -0.3027366698, -0.2555032372, -0.1201357245, 0.2377267182, -0.0538866222, -0.2979015410, 0.1678235233, -0.2595737278, -0.1759612411, -0.2171326429, -0.2064301074, -0.2314347625, 0.1355530620, -0.2144949138, 0.0636873841, 0.1043951511, 0.0433130264, 0.1435631216, 0.0819422305, -0.1264940053, -0.0285975635, -0.2417833060, 0.2396283448, 0.1235182881, 0.0675075054, -0.0616245270, 0.0700041950, -0.1349715441, 0.0694187284, -0.1972467303, -0.2536223829, -0.1053536385, 0.1520894170, 0.2217817605, -0.1648772955, 0.2616652548, -0.2752550542, -0.0202346444, 0.2251180112, -0.2192311883, 0.0654663146, -0.2595106661, 0.0306426883, 0.0831022859, -0.1734494418, -0.0078531802, -0.0444762111, 0.0410076678, 0.0087758303, 0.2312094271, 0.0826787353, -0.0831882209, -0.2008190155, 0.1004112065, -0.0766416043, 0.0585473478, -0.0640085042, 0.2299764454, -0.2848275900, -0.0305941403, 0.0838814974, -0.0617335141, -0.0837332308, -0.1117124259, 0.0506292582, -0.0747338086, 0.0315285325, 0.0787419081, -0.2262363136, -0.2498369366, 0.1524681449, 0.0257642865, 0.2231300175, 0.0398713350, -0.1823019981, 0.1921992600, -0.2315484881, 0.1822822988, -0.2574511170, -0.1626044959, -0.2786495686, 0.2955854833, -0.0851554275, 0.0378141701, -0.1950703561, 0.0721098781, -0.2636268735, -0.1311079264, 0.1972536743, 0.2606835663, -0.1455365419, 0.3010350764, 0.0526719689, -0.2796782255, 0.2989507020, 0.0453276932, -0.1595414728, 0.3043134511, -0.0767686218, 0.2123664320, -0.1188347936, 0.2627992928, 0.2991171777, 0.1331885755, -0.0347396135, 0.1929489076, 0.1059276462, -0.2621151805, -0.0880683661, 0.2533939779, 0.1368656158, 0.1944063008, -0.1693286449, 0.0473992825, -0.1564326733, 0.0476903319, -0.2920540571, 0.1906802654, -0.1161721647, 0.2627669275, 0.2328401506, 0.0712206662, 0.1430182457, -0.2670180500, -0.0117668808, -0.1581494957, -0.1288022697, 0.1611111164, 0.2079016864, 0.1682617366, -0.2656165659, 0.1262920797, 0.2913648188, -0.2735901177, -0.0866985172, 0.2670917809, 0.2047868073, 0.0832345784, 0.0510066748, -0.0696380138, -0.2883131504, 0.1204929948, 0.0324797332, 0.0972181857, 0.0751644373, 0.2834598720, 0.1273786128, -0.1954859495, 0.3020499647, 0.1807232201, 0.2164832056, 0.2651408017, 0.1417884827, 0.1226049662, -0.2746855617, -0.2539930642, 0.1252605021, 0.1706415415, 0.1110792160, -0.0273221731, -0.1494052708, 0.1410659254, -0.1617179066, -0.3039762974, -0.0625663102, 0.0473489761, 0.1065270603, 0.1812476516, 0.2966128290, 0.1479976773, 0.2740087807, 0.1391782761, 0.0975909233, -0.1429118067, 0.2429104149, -0.1550130993, -0.2394407094, 0.1781683564, -0.1425273865, -0.1576457918, 0.1931105256, -0.2807316184, -0.0864847004, -0.1260771751, -0.0451649725, 0.1132576168, -0.1024524570, 0.2926193178, -0.1835034490, 0.0531007648, 0.1859271228, -0.1752340943, 0.0699900985, 0.0643313825, 0.0326927602, 0.0052105486, 0.2673248351, -0.0716007054, -0.0641731173, 0.0786758959, 0.1954022944, 0.2828214467, -0.0227433741, 0.0439979732, -0.2511102855, 0.1575988531, -0.0096659064, 0.2870413959, 0.2610817850, 0.1162304282, -0.2108082473, 0.2275104821, -0.2805860639, -0.1223133355, -0.2519334257, -0.0637276769, -0.1080016643, 0.1472140849, 0.1894063354, 0.1297018528, -0.1159736812, 0.1022917032, -0.0889927000, -0.0513595641, -0.1436623335, -0.0558941960, -0.0945194960, -0.0105142593, 0.0927944183, -0.0914315730, 0.1037985086, -0.2358585894, -0.1904885620, 0.0233379006, -0.1378680617, 0.1109377444, -0.2582877576, -0.0146794617, 0.0167759359, 0.0923493505, 0.2251325548, -0.0651747584, 0.0033345819, -0.2010876536, -0.2887416780, -0.2786586881, 0.2419928610, -0.2934811413, 0.2163579166, -0.2888777256, -0.0015547574, 0.2447507679, 0.0689050257, -0.3042926788, 0.1179451942, -0.0981898159, 0.0657061338, -0.2970330715, -0.1962845027, 0.0215615034, 0.3037187159, -0.1353760362, -0.2907634079, -0.2610559464, -0.0521436036, -0.1424659938, 0.1288233101, -0.1254936010, 0.1768683493, 0.0503796935, -0.1393961757, -0.0268175304, 0.1820115149, -0.1602757722, 0.2781703174, -0.0598333180, 0.2355567515, -0.0454295874, 0.0517444313, -0.1570165306, 0.2190867364, -0.0620190203, -0.1185994297, -0.0551766753, -0.1736729741, -0.2640488148, -0.2598193288, 0.0730578005, 0.0529475510, -0.1683696359, 0.0839858055, -0.0046424568, 0.2746180594, -0.0948139131, -0.1089473814, -0.0830746293, 0.0064594448, 0.0948814452, -0.0724041462, -0.2663766444}};

#endif
