//Numpy array shape [16, 48]
//Min -0.459210455418
//Max 0.433692067862
//Number of zeros 0

#ifndef WR5_H_
#define WR5_H_

[[intel::fpga_register]] static constexpr wr5_t wr5 = {{-0.0030276775, -0.1386267692, 0.1113763601, 0.0019147965, -0.0311404467, -0.1529368162, -0.1207007244, -0.0671447441, -0.1871142983, -0.3798266351, 0.1900269836, 0.0838207826, -0.1068072468, 0.1705504805, -0.0300519243, -0.3354733586, 0.1972821504, -0.1332639456, -0.0529089272, 0.0764461160, -0.1182585657, -0.2650533915, 0.0842505544, 0.0571608767, 0.0895432979, 0.2600768209, -0.2149634361, -0.1078587323, 0.0425746813, -0.0148026962, 0.0873583257, -0.1575906575, 0.0720325038, 0.1864627004, 0.1024962813, 0.0067093219, -0.0489802770, -0.1437645853, 0.1155490950, 0.0135896802, 0.0429172665, 0.1330852211, 0.2161716372, -0.3031964302, -0.0065274816, 0.0080982922, 0.0728568733, -0.1533354819, -0.0684732869, 0.1258984804, 0.1876499802, 0.1952903420, -0.1014215201, -0.1126714423, 0.1204349622, -0.2049691826, 0.1200751886, -0.0108377542, -0.0603228882, 0.1074748263, -0.0539604053, 0.2546361089, -0.0919217020, 0.0085129142, -0.0048068934, 0.0969156250, -0.0967504531, -0.1715491116, -0.0651590675, 0.2089693993, -0.1058330610, 0.0843064487, -0.0494154319, 0.0795843825, -0.1563695371, -0.0993721932, -0.1975462586, -0.1478274018, 0.1477799267, 0.2038318217, 0.2308906466, 0.1256480813, 0.2038670927, -0.0227966346, 0.2224603593, -0.0703519359, 0.0255260430, 0.1439777613, -0.0965939015, 0.2486148477, -0.0245258212, 0.2254200727, -0.1139109060, 0.0816201121, -0.1415729076, 0.1389651597, -0.1534802467, 0.0597533323, -0.2253304720, -0.0854532272, 0.3774486184, 0.0603337511, -0.0376117341, 0.0700061545, -0.0637582690, -0.2061752975, -0.0473825186, -0.1716436893, -0.1642845869, 0.1958423853, -0.0346027501, 0.1783852726, -0.0633677319, -0.2049340308, 0.0549523830, -0.2204059511, -0.0613046475, 0.1910071969, 0.1605169922, -0.1554223448, -0.0646193847, -0.0095492192, 0.2834304273, 0.1156424806, -0.0291061066, -0.0565516278, 0.2479157895, -0.1820487827, 0.1455351263, -0.0750789940, 0.0631327853, -0.0231537819, -0.1208002418, -0.0334498174, 0.0016424116, 0.1080057025, 0.0167583060, 0.1491155028, 0.1395314634, -0.0356463045, -0.2504769862, 0.1189145446, 0.1491354555, -0.0132626221, -0.1299103498, 0.0262219775, 0.2424135655, 0.0850652158, 0.0743837059, -0.3561642766, -0.0653959066, -0.0525328107, -0.0286502615, -0.0645788833, -0.0614586323, 0.0242691487, 0.0735555440, -0.0546010137, 0.2574424744, 0.2228344679, 0.1718294621, -0.1502400190, -0.1109921932, -0.0055640615, -0.0332184918, 0.0479232110, -0.1810363531, -0.0120542375, 0.0060323328, 0.0767284185, 0.0706382990, 0.0382160991, 0.3540235758, 0.0058549978, 0.0931130946, -0.1312831044, 0.2475655675, -0.1707897782, 0.0458876193, -0.2105460018, 0.0578512140, 0.1518244743, 0.3004875481, -0.1462723911, 0.1070975661, -0.1569730043, -0.1291219890, 0.0626230165, 0.1033826098, 0.0181891881, 0.0742523819, 0.0251637846, -0.1900964081, 0.1285390556, -0.1404468417, 0.0395733304, -0.1576319933, -0.0327303559, 0.2256397903, 0.0969380587, 0.0196228810, 0.1940022111, -0.0297628641, 0.2863359749, -0.0577746481, 0.2780281305, 0.1579780877, -0.1245302856, 0.0501822643, 0.1288028508, -0.1139901876, -0.0008224171, 0.1154135615, 0.0312469136, -0.2025523186, 0.1883777529, -0.1405709833, 0.0143507225, -0.0345982760, -0.0209876187, -0.3312580884, -0.1831901520, 0.1147938818, -0.1711178124, 0.0595153607, 0.2182850838, 0.1146114543, 0.1731470227, -0.0740931034, -0.0600400269, 0.1035643443, 0.1593612880, -0.1592228711, -0.2903412580, 0.0326212272, 0.0166481398, 0.2432163507, 0.0752765685, -0.0656677857, -0.0019682106, -0.0925976932, -0.0729683638, 0.0312732533, 0.2184424251, -0.0809844136, 0.0100720134, 0.0940852240, 0.0091634179, 0.0413969420, -0.0534449778, 0.1893112212, 0.0273337308, 0.0621800013, -0.3294088840, -0.0989454091, 0.0850399286, 0.0881274566, -0.1275464147, -0.0038099671, 0.1350932866, 0.2478678674, -0.3169935644, 0.0301687606, -0.2155915350, -0.1145938858, 0.1266976148, 0.0942244604, -0.2304056883, -0.0872763321, 0.2281889170, 0.1335887760, 0.2154301107, 0.0380116329, 0.0456005782, -0.0713656545, -0.0890522748, -0.0411657430, -0.1447826624, 0.0857973099, -0.0834364220, -0.1090412065, -0.0100819264, -0.1823024601, -0.0899863839, -0.0266240984, 0.0788398534, 0.0489604622, 0.0418474153, -0.1444781572, -0.0580357611, 0.0219842792, -0.0596600212, 0.1479070634, 0.1159267351, -0.0844121575, 0.2200975418, -0.0911942571, 0.0434893332, -0.0099137779, 0.1560146660, 0.1500588059, 0.0022560619, 0.1886616200, 0.1127353385, 0.0261585731, -0.3591952920, -0.0490807071, -0.0098842792, -0.1874250919, 0.0480127707, 0.0597797520, 0.0859115645, 0.1955038905, -0.2707646191, -0.0663529560, -0.1588087976, -0.0075604776, 0.0343577266, -0.0305336397, 0.0196474716, 0.1591925919, -0.1015555710, 0.0318722576, 0.0417257473, -0.0606484711, -0.1299525201, 0.1699754000, 0.1267262846, -0.0665769726, -0.2284378707, 0.1208920628, 0.0161369480, -0.0600140989, 0.0275168456, 0.1983740330, 0.0868675932, -0.0469728746, -0.0084530916, 0.1513517499, -0.0072082113, -0.0607000627, 0.2798721492, -0.0540006347, 0.0751808360, -0.1355443150, 0.1317162812, 0.1957792342, -0.3409559429, -0.1338667125, 0.2021270245, -0.1404337585, 0.0406865627, 0.1480606496, 0.0632941052, 0.2177551985, -0.1206068173, 0.2529245019, 0.0461239256, -0.0309595428, -0.2735360265, 0.0804046169, -0.1532099843, -0.0728247166, 0.1266412586, -0.2335303277, -0.0350387767, -0.0277130269, -0.1063989624, 0.2794881761, 0.0671712160, 0.0558976494, -0.2365010977, 0.2173251659, 0.0701771379, 0.2080210894, 0.1264597625, -0.0387161262, -0.0017540157, -0.0693241805, -0.0313692391, 0.1883870214, 0.0307967626, -0.1006497890, 0.0654739439, -0.2462896258, 0.2352668494, -0.2400183678, 0.0748048127, 0.0746199042, 0.0884878859, 0.0454175025, -0.0525617152, 0.0649076700, 0.1048976332, 0.1780875623, -0.0024858061, 0.1505079567, 0.0359664522, -0.0884065777, -0.1794371754, 0.2042090148, 0.0575180724, -0.0478894562, -0.0054964707, -0.1090085134, 0.0073974300, -0.1756665558, -0.2020493001, -0.0659172907, 0.1808803082, 0.1226149127, -0.2410292923, 0.3449723721, -0.0994078517, -0.1010912359, 0.0843989998, 0.0830380917, 0.2741321921, -0.1411507726, -0.0149782589, -0.0175844245, -0.0269428734, -0.0571331829, -0.1519080251, -0.0368749909, -0.2635065317, -0.2167122960, -0.1447912306, 0.0371189713, -0.0404994637, 0.1667601913, -0.2778869271, 0.1542975903, 0.1261544973, -0.4010925293, -0.1964254528, -0.1690142453, -0.3646949828, -0.0274328366, 0.0800340176, 0.1944908202, -0.0608234704, 0.1406771243, 0.3298130333, -0.1310192645, -0.0655624866, -0.2357808053, 0.0678137094, -0.0540679656, 0.0539819449, -0.0768034384, 0.0236699190, -0.0588663109, 0.1188359112, -0.1819151789, -0.0321169943, -0.0430671088, -0.1120931581, 0.0097836973, 0.0513509214, 0.0305214282, 0.2096629590, 0.0338137671, 0.0484852642, 0.0549125299, 0.1532321274, -0.0033085453, 0.0401448272, -0.1075306758, 0.0165677480, -0.1690823138, 0.0091982782, 0.1020187736, -0.1331419796, 0.0486022606, 0.1243519336, 0.0392322652, -0.0993107110, -0.1130278260, 0.3953396082, -0.0568749495, 0.0392433479, 0.2010245472, 0.1304998994, 0.1788374037, -0.0220487863, -0.1119204536, 0.1732408553, 0.4336920679, 0.0035919547, 0.1561809927, -0.0078626145, -0.0916011855, 0.0890430808, -0.0075987042, -0.1011985242, -0.0168047789, -0.0394352302, 0.0840142369, 0.0036564230, -0.1624943316, 0.0882317424, -0.0966988131, -0.0357406996, 0.3058688939, -0.1641413569, 0.0488114543, -0.1283888072, -0.1551637650, -0.2057884336, 0.0671213046, 0.2070721090, 0.0523488224, -0.2380814254, 0.0062749032, 0.2982454300, -0.0234797783, -0.0753867477, -0.0401167125, 0.0973002017, -0.1983083785, 0.0504681915, -0.0804118067, 0.0332347006, 0.0321915001, -0.0323151872, -0.1568294168, 0.0534226373, -0.1234589219, -0.2199369967, -0.1450571865, -0.0614330843, 0.1260299832, -0.0509852543, 0.2773606479, -0.1020569876, 0.2189547420, 0.0307868123, -0.0504746586, -0.0994996950, -0.0889275149, 0.0424348488, -0.1924597770, 0.0789790750, -0.0476123802, -0.0046672560, 0.1197994277, -0.1268142313, -0.2458935678, -0.0100412555, -0.3418857157, -0.1546358466, 0.0282154121, 0.1400750577, -0.1317239851, 0.0540804639, -0.1040511578, 0.1481712461, -0.0002047729, -0.0660188198, 0.0077901003, 0.0075103035, -0.1411268711, -0.2305763662, 0.0406300910, 0.0221416801, 0.0486073904, -0.0799482763, -0.1069681197, 0.0274368189, -0.0084041879, -0.0331331417, 0.0944395363, 0.1409779787, -0.0771441460, 0.0611258186, -0.0045169224, -0.0552985221, 0.2716505527, -0.1913561076, 0.0742719918, 0.0202313699, -0.1837525666, -0.0419283323, 0.1415941417, 0.0006967767, -0.0786115304, 0.1027357280, 0.1347908229, 0.1524066329, -0.3792002499, -0.0563840829, -0.0173483714, 0.2111745179, 0.1132638529, -0.2557023466, -0.0944545195, -0.2172841132, -0.0463933349, 0.2206846178, -0.1103020683, -0.2333169729, -0.0602904372, -0.1854951829, 0.1344235092, 0.0326717794, 0.0288303196, 0.0191966258, -0.3568694592, 0.0544279106, 0.0154585652, -0.1204864234, -0.0845259130, -0.0088459738, 0.3205841184, -0.0204725992, -0.1614265442, 0.0158327073, -0.0092430189, 0.0598407909, 0.0396249481, -0.0469541810, -0.0327438079, 0.1377965510, 0.0776892677, 0.2726190686, 0.3036513031, -0.1359366775, -0.0603351295, -0.0047902633, 0.2507135272, 0.0154320132, 0.0564048663, 0.1066303849, 0.0884972438, -0.0304475874, -0.0863099247, -0.3123687804, 0.0594185144, -0.0404185541, 0.2191004008, 0.0673579723, 0.0450662747, 0.0102542294, -0.2113616616, 0.1973584890, 0.0048383176, -0.1356173754, -0.1816738546, -0.0390514657, 0.2929676175, 0.2338454276, -0.0345165879, 0.2393872291, 0.1386457980, 0.2794911861, -0.1974153668, 0.1247065663, 0.0601421446, 0.1364415139, 0.0900731757, -0.0223194622, 0.0460285693, -0.3900492489, -0.1369171739, -0.0706800818, 0.0691064149, -0.0152972098, -0.0083488403, -0.1849484146, -0.1474102587, 0.0072205737, 0.1267076135, 0.1750290096, -0.0717594624, -0.0760674030, -0.0303574465, 0.0623399690, -0.0041473201, -0.3053119183, 0.1259011775, 0.0805737674, -0.0409354270, 0.0141579909, 0.0116406754, 0.0473727360, 0.0384325758, -0.0363673642, 0.0117446873, 0.0599706061, 0.0335066132, 0.2708163857, -0.0995941907, 0.1676509380, 0.0213299897, -0.1411546469, 0.0574197359, -0.0002716468, -0.4592104554, 0.0870568156, -0.0030151028, 0.0443841927, 0.2037520260, 0.1136105433, 0.2401980460, -0.0131772570, -0.0992345512, 0.2959997654, 0.3234476149, 0.1560738981, 0.0082021914, 0.0161467828, -0.0729656890, -0.0292652622, 0.0435798876, 0.2199766189, 0.0239601545, -0.1750175059, 0.0377393104, -0.1246148944, 0.2191770226, 0.2407018542, -0.1789908558, 0.2683787644, -0.0127451159, 0.1681592017, 0.1497306377, 0.0402354598, 0.2494506687, -0.1203486323, 0.1232872158, -0.1917949766, -0.0352194309, 0.2292933315, 0.0007727616, 0.0528341755, -0.1510675251, 0.0241738372, 0.0097720427, -0.1196383312, 0.2483214438, -0.0898872465, -0.1475601792, -0.0107130492, 0.3300020695, 0.0217292681, 0.1642176360, 0.0663358644, 0.3010305166, 0.0700345039, 0.4085004926, 0.0867234692, 0.0634373873, -0.0746193156, -0.2132910192, -0.0648909435, 0.0729431808, -0.1807889193, -0.1042268947, -0.2693890035, -0.0926620960, 0.0191274602, 0.1788650304, -0.0102741625, -0.1354724616, -0.1270424426, 0.0501235537, 0.1221777201}};

#endif
