//Numpy array shape (11, 15)
//Min -16.581796646118
//Max 16.673074722290
//Number of zeros 0

static weight_default_t w1[165] = {0.079420223832, -0.144171625376, 0.055765062571, -0.036314070225, 0.042706072330, 0.020226083696, -0.096534252167, 0.053859509528, 0.038890030235, -0.025456657633, -0.019970366731, 0.009722582996, 0.145505741239, 0.045501314104, 0.048578936607, 0.001752431039, 0.124616391957, 0.001821232960, -0.117614567280, -0.049820758402, -0.070022642612, 0.029892658815, 0.052262902260, 0.025457611308, -0.072247393429, -0.350391477346, -0.033168371767, 0.162930607796, 0.003783347784, 0.153563901782, -2.095400810242, -2.115545988083, -0.471510052681, 16.673074722290, 1.395824551582, -0.663081467152, 1.707745313644, 0.254248589277, 0.322812914848, 1.242258667946, 9.831541061401, -16.581796646118, -2.700805664062, -2.330485582352, -3.460195302963, 0.040116149932, 0.026415655389, 0.019905328751, -0.028694098815, 0.010224848986, 0.029892891645, -0.017828943208, -0.037684306502, -0.025765731931, -0.018025290221, -0.010701019317, 0.012136655860, -0.019642559811, -0.006749768741, -0.003243467771, 0.006205403246, 0.000536680163, -0.002765064593, 0.005155584775, 0.001690885518, 0.001972998492, -0.000740061398, 0.002460332820, -0.011137182824, -0.011690308340, 0.000337352656, -0.012173222378, 0.000308828545, -0.003220887855, -0.001842115074, -0.010025241412, -0.009997279383, -0.001270471956, -0.066095665097, 0.000261036505, -0.015167141333, 0.009155232459, 0.002289984375, 0.010916922241, 0.008307670243, 0.002856325125, 0.088610015810, 0.008017130196, 0.008048870601, 0.001057073125, -0.001500224927, 0.003810766386, 0.000161149015, 0.067894145846, -0.006137861870, 0.001802586019, 0.001708861091, 0.002303823596, 0.002039074898, -0.004848975688, -0.000090674286, -0.159228771925, -0.002777094487, -0.001578760217, -0.000579414773, 0.002453709720, -0.009198226035, 0.002435235539, -0.038109358400, 0.004824332893, -0.001746350317, -0.003054074477, 0.000811147038, -0.004333972000, 0.007478966843, -0.001484909910, 0.004198277369, 0.007673490327, 0.003473558696, 0.001866120379, 0.000513886684, 0.005950304214, -0.004039218649, -0.063983194530, 0.000241362155, 0.006331614219, 0.002715331968, -0.000831127283, 0.002692150418, 0.001845349558, 0.001377347508, -0.006342775654, -0.007064241916, 0.000305583701, 0.000844049733, -0.005909127649, -0.010718531907, -0.003629689803, -0.049643617123, 0.002549957717, -0.014278921299, 0.007123919204, 0.003034914145, 0.001508273184, 0.010606188327, 0.003150070785, 0.006749774329, -0.001987670548, 0.000373936346, -0.005159594584, -0.003107539378, 0.005442132242, -0.010622681119, -0.002994379727, 0.001466876362, 0.001113784034, -0.025835249573, 0.004652371630, 0.011841603555, 0.011910608970, 0.001089902362, -0.003570646979, 0.010813046247, -0.000522200309, 0.010918452404};
