//Numpy array shape (15, 5)
//Min -0.084052935243
//Max 0.061809524894
//Number of zeros 0

static weight_default_t w2[75] = {0.004231097177, -0.045289453119, 0.029421867803, -0.060478512198, -0.012734195217, 0.000640827813, -0.002019844949, 0.016592757776, 0.025922413915, -0.007288293447, -0.005055133719, 0.005570700858, -0.033849861473, 0.037301316857, -0.009913993068, 0.013055194169, -0.001292647677, -0.019066063687, -0.011311750859, 0.006837884896, -0.010315339081, 0.024365168065, -0.083237491548, -0.059931393713, 0.031276252121, -0.000645138207, 0.006471987348, 0.004568262957, 0.014962377958, -0.001351999934, -0.000254435610, 0.001795167103, 0.005142046604, 0.006976433098, -0.009509117343, 0.008587189019, -0.035598758608, 0.061809524894, 0.048294778913, -0.024430176243, 0.004964664578, 0.013313588686, 0.044317074120, 0.032209798694, -0.003805209650, 0.005382156000, -0.024651018903, 0.032332386822, -0.047007739544, 0.012696481310, -0.003473264398, -0.010689839721, -0.033026542515, 0.050638437271, -0.007914720103, -0.084052935243, -0.002429692773, 0.000548720243, -0.000115715797, -0.000116366384, 0.000677943230, 0.004500144161, -0.000521806302, -0.002640096005, -0.007590124849, -0.000661515107, -0.022301230580, -0.007120033260, 0.036603309214, -0.020428901538, 0.005319189746, -0.009137013927, 0.041034560651, -0.039500474930, -0.000832144229};
