//Numpy array shape [10, 32]
//Min -1.743828415871
//Max 1.145897507668
//Number of zeros 0

#ifndef W2_H_
#define W2_H_

hls_init_on_powerup static const model_default_t w2[320] = {0.234676, 0.489354, -1.324574, -0.966767, 0.049587, 0.024233, -0.042766, 0.563037, 1.004028, -0.420745, -0.187853, 0.928901, -0.722840, -0.729798, 0.314984, -0.345189, 0.609584, 0.311345, 0.347476, -0.518415, 0.033069, -0.075194, -1.127129, 0.073764, -0.218962, -0.414331, -0.343650, 0.726380, 0.157677, -0.036064, -0.048654, 0.106781, 0.196976, -0.127706, 0.676616, 0.645315, -0.162534, -0.195196, 0.192311, 0.750933, -0.374889, 0.174838, -0.415619, -0.171641, 0.227464, -0.635902, 0.308344, 0.221615, -0.070800, 0.300620, 0.646579, 0.045112, 0.764006, 0.735567, -0.367298, 0.005712, -0.035499, -0.437257, -0.120615, 0.240048, 0.050021, -0.012012, -0.327711, 0.479099, 0.173085, -0.137036, 0.491338, -0.244204, 0.594285, -0.460040, 0.312999, 0.267485, -0.351867, -0.102479, 0.344425, -0.183067, 0.222807, -0.250457, 0.548872, -0.958483, 0.338659, 0.217413, 0.025160, 0.162729, 0.668826, 0.134018, 0.253832, -0.213483, -0.022265, 0.692691, -0.119601, -0.053802, -1.401869, -0.255529, -0.372663, 0.144888, 0.403755, 0.117763, 0.393787, -0.611054, -0.104635, 0.521337, -0.407659, 0.022136, -0.011613, 0.133192, 0.604833, 0.547710, 0.529786, -0.449599, -0.004239, 0.741704, -0.779374, -0.524797, -0.292391, 0.298064, 0.588151, 0.181153, -1.285791, -1.070303, 0.065623, 0.204760, -0.185360, -0.767900, 0.367831, -0.033485, 0.229588, -0.053818, 1.145898, -0.131234, 0.195938, 0.189867, -0.352795, -0.140883, 0.287977, -0.182289, -0.081055, 0.089799, -1.743828, 0.190461, 0.026970, 0.694896, -0.397955, 0.375978, 0.135833, -0.306749, 0.284042, -0.002003, -0.706892, -0.322590, 0.259251, -0.047085, 0.299936, 0.485591, -0.355937, -0.284887, -0.406627, 0.177981, -0.184474, -0.353188, -0.039084, -0.061242, 0.593553, 0.458020, -0.253561, 0.560054, -0.606817, -0.309783, -0.044824, 0.521010, -0.108745, -0.344885, 0.220675, -0.602276, 0.233804, 0.515448, -0.705692, 0.010215, 0.671503, 0.536341, -0.310758, -0.239265, -0.904332, -0.516408, -0.724584, -0.298682, 0.582501, 0.121304, 0.069877, -0.099616, 0.134187, 0.199159, 0.403410, -0.306464, 0.186697, 0.567100, 0.618874, 0.610187, -0.269539, -0.382841, 0.314697, -0.159427, 0.652492, 0.298553, 0.210219, 0.125332, -0.395379, -0.411055, 0.270589, 0.457480, 0.061357, 0.243168, 0.303935, -0.566630, 0.180474, 0.093314, 0.158398, 0.432353, 0.865522, 0.845485, -0.609105, 0.560335, -0.231007, 0.140782, -0.336946, 0.343518, -0.016897, 0.180403, 0.242371, 0.347666, 0.213281, -0.056680, 0.679653, -0.266979, -0.186317, 0.420113, 0.161946, -0.382205, -0.124272, 0.889369, 0.030744, -0.301117, -0.686998, -0.312021, 0.112369, -0.228969, 0.245297, 0.292676, 0.317043, -0.474472, 0.111725, 0.140385, 0.537299, 0.359631, -0.380495, 0.365391, 0.623395, -0.388702, -0.462659, 0.810461, 0.337701, 0.963310, 0.446480, -0.027557, -0.233079, -0.132164, -0.177326, 0.166286, -0.605654, 0.048744, -0.505675, -0.004076, 0.404607, 0.680079, -0.082142, -0.218203, 0.010201, -0.467143, -0.571904, 0.090990, 0.460756, 0.017683, -0.153588, -0.046209, -0.487959, -0.268777, 0.758728, 0.623594, 0.336246, -0.025779, 0.144930, -0.594015, -0.057899, -0.571489, 0.352731, -0.322142, -0.470305, -0.276711, 0.932779, 0.211925, 0.590392, -0.424666, -0.154583, -0.154890, 0.499090, -0.496081, -0.167916, -0.290422, 0.460756, -0.161311, -0.139502, 0.201693, -0.005196, 0.298663, -0.203296, 0.144607, -0.999514, -0.485341, -1.125282, 0.041191};

#endif
