//Numpy array shape (6, 64)
//Min -0.958361268044
//Max 1.00784921646
//Number of zeros 0

weight_default_t w1[384] = {0.473617911339, 0.28395652771, 0.558033168316, -0.0984228104353, -0.937673509121, 0.357793241739, -0.0916957333684, 0.320666700602, 0.476631075144, -0.191829770803, -0.387881070375, -0.545298457146, -0.0215824320912, -0.0513519532979, 0.182988658547, 0.131987243891, -0.262597590685, -0.394053608179, 0.0344935208559, 0.219766393304, 0.566239774227, 0.0647018328309, -0.357189267874, 0.0948459580541, 0.142096966505, 0.0919724777341, 0.383228063583, -0.568174660206, 0.173128634691, 0.23069010675, 0.759343206882, -0.37883707881, 0.448899060488, 0.765066921711, -0.481773972511, -0.0811275318265, -0.180353090167, 0.381701439619, -0.24019742012, 0.309427291155, 0.240551590919, 0.140408828855, 0.493354052305, 0.288055330515, 0.624364078045, 0.0165525544435, 0.723255395889, -0.765109181404, 0.376593232155, -0.546733677387, -0.32019340992, -0.376216709614, -0.140788972378, 0.0100398194045, 0.324519455433, -0.208709344268, -0.540528297424, 0.206851571798, 0.396969556808, -0.163390338421, -0.183000639081, -0.775968313217, -0.253528296947, -0.0520060546696, -0.526611983776, 0.311874181032, -0.123529009521, -0.141078859568, -0.431440412998, 0.692281365395, -0.388795286417, 0.152577787638, 0.131633892655, 0.0446550622582, -0.167303040624, -0.18856716156, 0.414512783289, -0.429590553045, 0.365054249763, 0.195699006319, 0.210169717669, 0.0947545915842, 0.350781142712, 0.0155639983714, 0.298727840185, -0.13332042098, -0.096116527915, 0.199572727084, -0.267541617155, 0.848215520382, 0.375504493713, -0.0939483493567, -0.0485481768847, 0.232516124845, -0.116950839758, -0.228192806244, -0.57349050045, -0.591598570347, 0.108303062618, -0.433113515377, 0.0762635692954, 0.97720760107, 0.370319992304, -0.0833441019058, 0.662001430988, 0.701182425022, 0.0127201657742, 0.0664271265268, -0.10314335674, -0.246705725789, 0.401641100645, 0.657772958279, -0.116263784468, -0.30219578743, -0.754160642624, -0.485103666782, -0.115117140114, -0.606561124325, 0.530923187733, -0.463786154985, -0.443674683571, 0.954751133919, 0.00222227862105, 0.334787219763, -8.74834659044e-05, 0.0302235092968, -0.0557991154492, 0.868677794933, 0.478888243437, 0.0259988438338, -0.354919821024, 0.199989825487, 0.450364410877, -0.431185305119, 0.425429046154, 0.382014393806, 0.44912737608, -0.365134596825, 0.528275072575, -0.303293794394, 0.338510721922, -0.291202425957, -0.038387671113, -0.558547019958, -0.406676292419, 0.278494954109, -0.555599272251, 0.224202722311, 0.21119864285, 0.101067148149, -0.321384847164, -0.266409397125, 0.066299572587, -0.377947539091, 0.0848107263446, -0.408150911331, -0.267197906971, 0.147216469049, 0.487329632044, 0.00792054180056, 0.339034765959, -0.764766156673, -0.64519661665, 0.494295299053, -0.595785975456, 0.0598701536655, 0.0103225186467, -0.34029340744, -0.0167372319847, 0.382362902164, 0.677489161491, 0.362292706966, 0.000196822817088, -0.810851931572, -0.506399691105, -0.375025361776, 0.650182843208, 0.808642029762, -0.168745845556, 0.713149249554, 0.0704640224576, -0.000175362205482, 0.390480011702, 0.521275758743, -0.10452246666, 0.569698095322, 0.319960266352, -0.614486336708, -0.0114725157619, -0.359973758459, -0.782751739025, 0.1011409536, -0.528288722038, 0.552187085152, -0.565746307373, -0.462556004524, 0.101397275925, 0.211384817958, 0.138205885887, -0.0266058072448, 0.431714862585, 0.00838056579232, 0.531405627728, 0.508546948433, 0.0199803337455, -0.0259784329683, 0.0967528745532, -0.590684354305, 0.0118975155056, -0.287478029728, 0.169145137072, 0.431669056416, -0.12593357265, -0.178696975112, -0.535474717617, 0.000125621329062, 0.292851537466, 0.269572407007, -0.396705716848, 0.299074023962, 0.340807974339, -0.300410062075, 0.4530839324, -0.607293784618, 0.263362556696, 0.113492675126, 0.535670101643, -0.61789304018, -0.235324785113, -0.299774736166, -0.76561743021, -0.645405888557, -0.226648643613, -0.233438938856, 0.370075643063, -0.0395078919828, -0.137782514095, 0.205379962921, -0.298052996397, -0.00395970791578, -0.0871059074998, 0.479775160551, -0.218809053302, 0.401810914278, -0.651636660099, 0.227488383651, -0.313460439444, -0.525868296623, 0.405606746674, -0.173689872026, 0.105636112392, -0.387696892023, 0.215343534946, -0.382852464914, 0.0914314910769, -0.110011160374, 0.317360371351, 0.00541988108307, -0.348301112652, -0.435989916325, 0.201670899987, -0.196559280157, 0.234749898314, -0.000685902195983, -0.187843367457, 0.0524176582694, 0.0192781519145, -0.633917510509, 0.57884657383, -0.460409939289, -0.844035565853, -0.221712365746, 0.152361959219, -0.00390020338818, 0.121318109334, 0.341165930033, 1.00784921646, 0.437145411968, -0.226971447468, -0.579588890076, -0.0804640650749, -0.30551803112, -0.304774880409, -0.219580233097, 0.125102803111, 0.436150997877, -0.292854398489, -0.52758038044, -0.733679533005, 0.191481441259, 0.0754054114223, 0.65418612957, 0.455166310072, 0.136950880289, -0.163713097572, -0.69976913929, 0.59930819273, -0.199759051204, -0.570327579975, -0.958361268044, -0.619680821896, 0.0762456282973, -0.343827277422, -0.28741106391, 0.531216800213, 0.376750946045, 0.534288942814, 0.210933044553, 0.552221655846, 0.391949832439, 0.414592802525, 0.467681318521, -0.390565246344, 0.587971448898, -0.0318186320364, -0.483417451382, 0.286696344614, 0.091861449182, 0.43169888854, 0.325701713562, 0.265641778708, -0.423401355743, -0.382473945618, 0.0752607807517, 0.139490261674, 0.171263456345, -0.0380685925484, 0.0880014821887, -0.115829594433, 0.00713855586946, -0.353914171457, 0.162912115455, -0.23917388916, 0.02265628241, 0.106806382537, -0.156405374408, -0.137617647648, 0.179668232799, -0.084718093276, -0.25306597352, -0.120019428432, 0.0272680800408, -0.178953334689, -0.163674980402, 0.00624951580539, -0.407307267189, 0.35332891345, -0.101024538279, -0.00663211988285, 0.212031826377, -0.101691775024, -0.147298544645, -0.48338881135, -0.300842732191, 0.17753842473, 0.442609250546, 0.452644824982, -0.281881839037, 0.0516509078443, 0.133395195007, 0.00499836914241, -0.474329173565, -0.113074347377, 0.114789903164, 0.601501166821, 0.121885001659, 0.202458590269, 0.147809132934, 0.441330134869, -0.0214391164482, 0.185885354877, -0.0216325260699, -0.327426165342, 0.0895421877503, -0.610984325409, -0.0921058654785, -0.451165318489, -0.199588850141, -0.0546593852341, -0.465988993645, 0.0079892128706, -0.229021221399, -0.1368637532, -0.487521857023};
