//Numpy array shape (320, 5)
//Min -0.356805980206
//Max 0.228028520942
//Number of zeros 0

weight_default_t w2[1600] = {-0.139718070626, 0.0153476502746, 0.00480680633336, -0.0339750647545, 0.0135307013988, 0.143287271261, -0.124277487397, -0.0673152282834, -0.0858248174191, -0.0182625502348, 0.0486264564097, 0.0124977091327, -0.0694498047233, 0.0357286632061, -0.0490339510143, 0.0319787375629, -0.0687065720558, -0.0785754621029, -0.0700060278177, 0.108831435442, 0.0274261794984, -0.141722008586, 0.0851420387626, 0.0906608477235, 0.0495702438056, -0.0484418869019, 0.0770064741373, 0.0570678412914, 0.0123265786096, -0.0510018095374, 0.0833647102118, -0.204911604524, -0.118247546256, -0.0720297545195, -0.0990411639214, 0.0462142974138, 0.0775806605816, -0.0188500098884, 0.0544783324003, -0.0978935658932, 0.133607804775, -0.0344699323177, -0.139036133885, 0.0404578521848, -0.0958540812135, -0.0129487477243, -0.175734326243, -0.00597068015486, -0.0759499371052, 0.0469006560743, -0.0842196270823, 0.0534289367497, -0.0370083898306, -0.0147373899817, -0.185599431396, 0.0108646629378, -0.0244294200093, 0.117605775595, 0.104678831995, -0.00521636940539, -0.102297976613, -0.0804862454534, 0.0665917173028, 0.0508844964206, -0.0531656779349, -0.0402418375015, -0.0452160015702, -0.157627955079, 0.0657811835408, 0.0807138904929, -0.0337233431637, 0.0406250655651, 0.0672510638833, 0.0455899648368, 0.0299411993474, -0.0734628215432, 0.130581319332, 0.105194590986, 0.0180369764566, 0.0948664173484, -0.0913446620107, 0.0628495439887, 0.0656137317419, 0.0412090681493, -0.0900910571218, 0.0615511573851, -0.0371129736304, -0.0581454075873, -0.00839550979435, -0.0327442288399, -0.00700384005904, 0.0230290368199, -0.00997125264257, -0.0446318164468, 0.0180716961622, -0.00883123930544, -0.00168156740256, -0.143473923206, -0.134205982089, 0.083655372262, 0.131431460381, -0.0505627505481, 0.0377773307264, -0.128409907222, 0.033441439271, 0.0683823004365, 0.0760144665837, -0.0952465087175, 0.0217289216816, -0.0142213180661, 0.0659064799547, -0.173798084259, -0.120001405478, 0.0314267016947, -0.0681098178029, -0.000952355447225, -0.0629735887051, -0.00280383066274, -0.0556970722973, -0.123714074492, -0.0991911590099, 0.156161934137, 0.163421466947, -0.078446611762, -0.0533868856728, 0.0320816338062, -0.00867099873722, -0.176456421614, -0.203280612826, 0.00749059347436, 0.00576810911298, 0.0437077097595, 0.0354710780084, 0.150305137038, -0.00884498935193, 0.0218570791185, 0.00176472985186, 0.0361977815628, 0.0507110841572, -0.234400317073, -0.0211409088224, -0.109857678413, 0.131181105971, 0.0853941068053, -0.0190658122301, 0.00791615992785, 0.0269167684019, -0.0632777959108, -0.107445195317, 0.031416784972, -0.153448656201, 0.0980895534158, -0.0558114275336, 0.199430003762, 0.0197920035571, 0.0560569725931, 0.0466400161386, -0.356805980206, -0.0638415962458, -0.0631524771452, 0.125901296735, -0.113142706454, -0.082082696259, 0.00534446584061, 0.00593965547159, 0.080318197608, -0.0543891824782, -0.11563231051, 0.0419063046575, -0.0316719263792, 0.0640944465995, 0.0747050568461, -0.00522920582443, -0.025506881997, -0.0547769702971, -0.0236218310893, -0.00204451545142, -0.149944931269, -0.0162529461086, 0.0940654873848, 0.0962503328919, -0.0661136433482, -0.0557654313743, -0.138517841697, -0.0598884709179, -0.0186949521303, 0.143008708954, -0.0652545392513, -0.114910580218, 0.0128952749074, 0.063045360148, -0.116878993809, -0.01031686645, 0.0138983987272, -0.163377270103, 0.0143648879603, -0.131795480847, 0.136571958661, -0.0441288948059, -0.0859736800194, -0.130358308554, 0.0904870927334, -0.142284393311, -0.119207799435, 0.0425259023905, 0.107368506491, -0.00689501827583, 0.0133735351264, 0.0034081756603, -0.0167932547629, -0.0409846305847, 0.0271802637726, 0.0526564642787, 0.00759223895147, -0.0268423333764, -0.0375808440149, 0.0487761870027, 0.0435388684273, 0.0130528844893, -0.193748623133, -0.0666882172227, -0.122964940965, 0.119007252157, 0.056649453938, 0.0561464652419, -0.044900611043, 0.0981437340379, -0.174817085266, -0.0929329991341, 0.0400970205665, -0.0397761464119, -0.0655789598823, 0.127071261406, 0.0897705256939, -0.00609830860049, -0.0468973889947, 0.0964829400182, -0.0322330668569, 0.106609024107, -0.000710303022061, -0.0184167083353, -0.0509123317897, 0.00702005531639, -0.0623495951295, 0.121203504503, -0.0479281581938, 0.00674495985731, 0.0375317409635, -0.0692927986383, 0.021513717249, -0.00257131410763, -0.121180437505, 0.100054144859, 0.103073790669, -0.100592695177, -0.01517757494, -0.0331554375589, -0.0497315526009, -0.174202978611, 0.0432370975614, -0.0365917049348, -0.0238442979753, 0.0677370205522, -0.0706361457705, -0.043919056654, 0.0634492486715, -0.0976357236505, -0.0586548782885, 0.0321931503713, -0.0175625700504, 0.0974486842752, 0.0783630758524, -0.143548250198, -0.0668745264411, -0.0467600300908, -0.0124653736129, 0.0288497842848, -0.0267268214375, -0.012260902673, -0.194698229432, -0.0834892764688, -0.0254151299596, 0.0984879955649, -0.135278642178, 0.0951939225197, -0.0457906350493, -0.0271615441889, -0.0242077633739, 0.0360863022506, -0.0332174897194, -0.0679930523038, 0.103810057044, 0.0976893305779, 0.0575763359666, -0.067055337131, -0.046469386667, 0.0984412431717, -0.0961092486978, 0.0701616182923, -0.066658616066, 0.0709398910403, -0.0283047650009, 0.0497814230621, 0.0238189604133, 0.120926171541, 0.0355062521994, -0.047752674669, 0.038174405694, -0.0464008264244, -0.0819933563471, -0.0257954243571, 0.0406608060002, 0.0641571730375, 0.0423486083746, -0.08979845047, -0.00875749904662, -0.0412546619773, 0.0282206125557, -0.0403085686266, -0.0812725201249, -0.0294518694282, -0.0792131647468, 0.0521423257887, -0.110762014985, 0.020661842078, -0.0120024802163, 0.0270451903343, -0.0250956080854, 0.0265988167375, -0.0682400688529, 0.0568351261318, -0.0780764520168, -0.0397545844316, 0.00689553609118, -0.0199872013181, -0.0329705774784, -0.0704292356968, -0.0795834064484, -0.0814151018858, -0.00876482669264, -0.0409703738987, -0.0422000624239, -0.00635471893474, -0.17419847846, -0.0176119003445, 0.0397543162107, 0.0946345105767, -0.00379072269425, 0.0110034765676, 0.105361275375, 0.00227319938131, 0.0315722189844, 0.0499640591443, 0.0667934939265, 0.00799814239144, -0.0411599203944, -0.149114355445, 0.0709468945861, 0.0822182893753, -0.0959186926484, -0.0706237182021, 0.051581505686, -0.0840069651604, -0.119135461748, 0.0990293771029, 0.0851780250669, -0.117999911308, 0.0210225880146, 0.0154044525698, 0.153253212571, -0.0182402972132, 0.0633103102446, 0.0274849571288, -0.0946597978473, 0.0627771019936, -0.035245295614, 0.0955085083842, 0.10269369185, 0.129327073693, -0.104995824397, -0.0303206350654, 0.00454920995981, 0.0734527558088, 0.0368574038148, -0.0152938906103, -0.0903921872377, -0.07262711972, -0.014922330156, -0.0840351656079, 0.0850068479776, -0.0406982600689, -0.0690595507622, 0.0976724028587, 0.16495461762, 0.0515055246651, 0.0389064736664, 0.0216656029224, -0.106927134097, 0.0155781777576, -0.0494926869869, -0.0433370433748, -0.053769569844, 0.0499116405845, 0.0531410165131, -0.0706027001143, -0.0176788493991, -0.00812307558954, -0.06673271209, 0.144094884396, 0.0453534424305, -0.0518851578236, -0.0965114235878, 0.049191404134, -0.0208507739007, 0.0341492705047, 0.0781936943531, 0.0498414337635, -0.062879703939, -0.118941441178, 0.126028805971, 0.0962131470442, -0.00739700021222, -0.169889360666, -0.0111477505416, -0.0312425643206, -0.0774178132415, 0.0409526154399, -0.0343701764941, -0.01937347278, 0.0359470769763, 0.0169841255993, 0.0941112712026, -0.0334054119885, 0.00121178093832, -0.130203202367, 0.0021196550224, 0.00402019405738, 0.0545794181526, 0.0401308760047, -0.194543778896, -0.0464220419526, -0.13893263042, 0.0365888699889, 0.0928973183036, 0.19814312458, -0.000851723307278, -0.0300885830075, 0.0587059147656, 0.0138528617099, 0.00731790997088, -0.0397301279008, -0.0294586457312, 0.0313963741064, 0.092098005116, -0.0273711774498, 0.025726750493, 0.039451893419, 0.0456938520074, 0.0536130778491, -0.0902826935053, -0.0246227532625, -0.0651443451643, 0.155391529202, -0.0711978003383, -0.0193775780499, -0.0758597105742, -0.0651867315173, -0.12843477726, 0.0827789381146, 0.172740325332, -0.0847493484616, -0.0653001964092, 0.0871628299356, 0.0195028167218, 0.075786948204, 0.117738299072, 0.0332693122327, -0.0278936289251, -0.105487920344, -0.119979999959, 0.0599526427686, 0.0615087002516, 0.020664812997, 0.123246721923, 0.0157157406211, 0.08946505934, 0.00170744233765, -0.0231029745191, 0.0972554683685, 0.0742707923055, 0.0786523073912, -0.0235908832401, 0.0404217988253, 0.0515474118292, -0.0677013471723, 0.0380473919213, -0.0384276248515, 0.00535323517397, -0.00255766301416, -0.00399009045213, 0.0210498478264, -0.189210861921, -0.0916967019439, -0.0614980719984, -0.0171669367701, -0.0602122545242, -0.0145954210311, -0.0701529979706, -0.0267113670707, 0.0651597678661, 0.0714124515653, -0.0357335470617, 0.0194005742669, -0.0176716763526, -0.0760784894228, 0.0595505461097, 0.004478527233, 0.0613205358386, 0.0621634870768, -0.130838796496, 0.0682907402515, -0.00418480532244, 0.0267348326743, -0.105639874935, 0.0382764600217, 0.0511096455157, 0.0185379888862, 0.0665192976594, 0.0231110155582, 0.104828342795, -0.0072613270022, 0.00485875178128, 0.0608706101775, 0.0797285810113, 0.0863325968385, 0.0691395848989, 0.139381989837, 0.137882992625, -0.0301243104041, -0.0708048269153, 0.0830519795418, -0.0632378682494, 0.0542844571173, -0.0767403692007, -0.0908972918987, -0.129054635763, 0.0889034494758, -0.0735711604357, -0.103975735605, 0.0488871410489, -0.0729609206319, -0.145626917481, -0.0185968074948, -0.0100226113573, -0.080821543932, -0.015849173069, 0.0596605837345, -0.0608797073364, -0.0519554205239, 0.124311707914, 0.0577674657106, 0.0115421228111, 0.0131058255211, 0.0604739077389, -0.0618739388883, -0.0208271052688, 0.136258080602, 0.0399679914117, 0.054047357291, -0.0107559170574, 0.0884632095695, 0.0210786834359, -0.0766992941499, 0.0652370378375, 0.0268431995064, 0.0729389637709, 0.124897643924, 0.00364249455743, -0.111415065825, -0.0497898869216, -0.00381732918322, -0.0892304927111, -0.0890873223543, -0.026500524953, 0.0197415445, 0.0488530695438, 0.0889984667301, -0.0428773984313, 0.00342256389558, 0.00845410209149, 0.0233147535473, 0.00556213408709, -0.0194937177002, 0.0304145980626, -0.104588493705, -0.0376403853297, -0.083935238421, 0.163062155247, 0.103744156659, -0.162022352219, -0.0866167843342, 0.0261738151312, 0.0892812609673, -0.0020695370622, 0.124757908285, 0.133496627212, 0.0234607700258, -0.0783686712384, -0.0244955271482, -0.160336643457, 0.0261194780469, 0.0396589636803, 0.0292912237346, 0.011151750572, 0.0455422252417, 0.046739321202, 0.0754919424653, 0.020388789475, 0.0404957011342, -0.07195058465, 0.063549913466, 0.000925544300117, 0.164767280221, -0.048714004457, -0.0432054027915, 0.00165362795815, 0.0100975483656, 0.0251807179302, -0.0200893487781, -0.0411591418087, -0.100310124457, -0.0589518882334, 0.0967582985759, 0.168430060148, -0.0465083345771, 0.0112248901278, -0.0594195611775, 0.0747035443783, 0.0360242091119, 0.0318923331797, 0.0579507984221, -0.00979112274945, 0.028292613104, -0.0332477167249, 0.0638893023133, -0.0499572940171, -0.0447308011353, -0.0739449560642, 0.103961154819, -0.00926434993744, 0.129351824522, -0.0760463029146, 0.0347105562687, 0.0203614644706, 0.0251468196511, 0.0710476711392, -0.0192139651626, 0.00700594764203, -0.000863490160555, 0.0904604941607, 0.036064632237, -0.0685350894928, -0.0410744920373, -0.144766822457, 0.00537624815479, -0.0810907259583, 0.0862377136946, -0.0589485019445, -0.0661986544728, 0.0803356394172, -0.0587280243635, -0.0914162248373, 0.0399970896542, 0.0920144319534, 0.0111866164953, 0.0754936784506, -0.124321170151, 0.11204559356, 0.0974472910166, -0.0423737280071, 0.0668534934521, -0.018841817975, 0.0596352815628, 0.0864870548248, -0.00212880084291, 0.0178863815963, -0.0183468945324, -0.0452165156603, 0.0895439609885, -0.0923574864864, 0.00148906372488, 0.0450852140784, 0.0410619042814, 0.109136499465, -0.0255157016218, -0.0578320361674, -0.0514001958072, -0.0514711849391, -0.0733341276646, 0.0129180988297, 0.105056636035, -0.0384686440229, 0.179876387119, 0.0196276754141, 0.0195126775652, 0.0459475442767, 0.119703643024, -0.129184558988, -0.0621046572924, 0.0315799713135, -0.0641828924417, 0.107652060688, 0.0901262909174, 0.0913121849298, -0.00194821378682, -0.0454487428069, 0.000348956469679, 0.022670686245, 0.00695804413408, -0.0739020183682, -0.0785397514701, 0.0131182279438, 0.000905291177332, 0.000905572727788, 0.000300992192933, 0.0344445593655, -0.0690897107124, -0.0683509036899, -0.00346553954296, -0.016152985394, 0.116299457848, -0.0983939617872, 0.0238280910999, -0.00982166081667, -0.0642128884792, 0.0399377532303, 0.0918269604445, 0.014138603583, -0.00889558997005, 0.0357014238834, 0.0931588187814, -0.11182487011, -0.00313054956496, 0.00434058625251, 0.00199209828861, -0.0368961133063, 0.0307133458555, -0.0664358362556, 0.0902327671647, 0.117911845446, -0.00259103463031, 0.050395257771, -0.060304440558, 0.0824604034424, -0.112809605896, 0.123327977955, -0.0703223571181, -0.028464820236, 0.000882370164618, -0.150721341372, 0.00985488388687, 0.0254707355052, -0.0792855173349, -0.00509423715994, -0.0450881570578, 0.118598654866, -0.0393205471337, -0.0285494234413, -0.0765218213201, 0.0110885221511, -0.00188611075282, 0.0557700358331, 0.0675301328301, 0.0061305668205, 0.0160612072796, 0.0398540794849, 0.202880233526, 0.0404217392206, 0.0596292726696, -0.0910406783223, -0.0473688952625, -0.091177880764, 0.0390216596425, 0.030393043533, -0.0586587749422, -0.068735010922, -0.0233901832253, 0.0164008438587, -0.0634038895369, 0.073831692338, -0.109104208648, 0.0202563218772, 0.127370506525, 0.0788636952639, 0.0389788560569, 0.00261349068023, 0.0506976917386, 0.0102446814999, -0.0420529581606, 0.0419093631208, 0.00212231115438, -0.0533657595515, -0.0967660695314, 0.0741065070033, -0.0506247468293, -0.0942131429911, -0.115336060524, 0.018341338262, -0.0270644295961, 0.0181407146156, -0.0497351773083, -0.0134004475549, -0.0273334886879, 0.0237118341029, -0.075681194663, 0.0589391179383, 0.0928478240967, -0.0457914620638, -0.156673207879, 0.0508379563689, 0.0498545840383, -0.0143559034914, 0.00897371862084, -0.019850127399, -0.0511267594993, -0.0612136758864, 0.040638782084, -0.0261991899461, -0.0931222289801, 0.0692636221647, -0.0167970824987, 0.0585343837738, -0.0305342916399, 0.0151694063097, -0.116419926286, 0.120323888958, -0.0151025727391, -0.0239337515086, 0.0961549729109, -0.115533746779, -0.146188855171, 0.0191913004965, -0.0971492826939, -0.000541945337318, 0.226776897907, 0.0364876575768, 0.0146682597697, 0.00625993916765, -0.00336617254652, -0.114752680063, -0.0565748028457, 0.0184906944633, -0.0172052849084, 0.0274739097804, -0.119913302362, -0.0980055704713, 0.0344391055405, 0.0817289426923, 0.0684404373169, -0.0069279926829, 0.115162923932, 0.0253116507083, 0.0977397710085, 0.0706237480044, -0.156184628606, 0.0148790050298, -0.0339672155678, -0.0493441186845, -0.0460274890065, 0.023265587166, 0.0468021780252, -0.0897553116083, 0.10116507858, 0.0949140489101, -0.00320427305996, -0.00483157485723, -0.0560477636755, -0.103159353137, 0.00760291377082, 0.00557879218832, 0.0869792848825, -0.0540366247296, 0.0179316680878, 0.113328404725, -0.0366682931781, -0.00452029379085, 0.0312095563859, -0.0140993241221, 0.0649426579475, 0.0571787208319, 0.0225974880159, 0.0499248839915, 0.00406856462359, 0.101342596114, -0.130837768316, 0.0638822764158, 0.0264594722539, -0.0736930370331, -0.0275980755687, -0.00985177699476, 0.136694669724, -0.0447204150259, -0.054380800575, -0.0666952133179, 0.0415854565799, 0.0366054847836, 0.13035941124, 0.0616724267602, -0.0563956797123, -0.00363042182289, -0.00576994009316, -0.0112090939656, 0.0504009909928, -0.0832289382815, -0.0825156345963, 0.109621077776, -0.0259190686047, 0.0857405290008, 0.0217987876385, -0.0727388933301, -0.0155794033781, 0.0020861083176, -0.0274155605584, -0.0159689579159, 0.043716866523, 0.0469162911177, -0.0654747411609, -0.0709157884121, -0.023530298844, -0.0614566616714, 0.0410575792193, 0.0852809026837, 0.0163419507444, 0.00199125870131, -0.0818560048938, -0.0262926332653, 0.0973202884197, 0.13867200911, 0.0986159592867, -0.0746616125107, 0.00333142699674, -0.020595960319, 0.181238308549, 0.023682795465, -0.15900875628, -0.0518225878477, -0.000935141928494, 0.0591343380511, -0.0430624857545, 0.113023042679, 0.00088243780192, -0.0692069903016, 0.0303637199104, -0.0710936188698, -0.0390615910292, 0.0426318384707, 0.046315677464, -0.0635787695646, -0.0418344624341, 0.0371794886887, 0.0524166412652, 0.0540215522051, 0.0637633129954, -0.0781536772847, 0.0475271753967, 0.0596584901214, -0.196216747165, -0.0150061352178, 0.0545916445553, 0.0153882652521, 0.0746216475964, -0.0249261464924, -0.00732690887526, -0.00375439506024, -0.0965534374118, -0.0558302439749, -0.0515753626823, -0.031144104898, -0.000204922020203, 0.0640005394816, -0.00835216324776, -0.0815387070179, 0.0386648066342, -0.0430505685508, -0.0747211128473, 0.0422671884298, -0.0239978414029, 0.118878282607, 0.0162853244692, 0.15431560576, 0.0381155945361, 0.0264030024409, 0.028348384425, -0.105371788144, 0.0529218874872, 0.0746444836259, -0.051788892597, 0.191457554698, 0.0466801151633, -0.133088037372, -0.072367079556, 0.0104530667886, 0.0171624012291, -0.083192422986, 0.0815745815635, 0.112808339298, -0.11992072314, -0.113936848938, -0.00208755442873, 0.0754055902362, -0.0859053358436, 0.120956815779, 0.0610989183187, 0.0586657896638, 0.00722304638475, -0.103180080652, 0.0211209338158, 0.0633296966553, -0.00762859731913, 0.00392880244181, -0.00528115825728, -0.0733857229352, 0.0501714237034, 0.0715250074863, -0.0524896644056, -0.0503218956292, 0.11836502701, -0.0538567826152, 0.0692023709416, 0.0989368185401, -0.0528220124543, -0.0324206463993, -0.0592032708228, 0.041649132967, 0.0869694054127, -0.0918558910489, -0.0380517989397, 0.00718861818314, 0.0662690997124, 0.0408394522965, 0.0515838935971, 0.0946984440088, -0.0426513180137, 0.0525344386697, 0.00696130329743, -0.0777528807521, -0.0648833140731, 0.042649473995, 0.0714219287038, 0.0858429893851, 0.0554146803916, 0.0303437002003, 0.00163611152675, 0.068137831986, -0.0366277210414, 0.00718723749742, 0.0281012076885, -0.0255624614656, -0.0499678514898, 0.0903385058045, 0.110096588731, -0.106536008418, -0.0016706896713, 0.0580840446055, 0.0258938036859, -0.102310091257, -0.0327182151377, -0.0528606288135, -0.00721061881632, 0.147531092167, -0.00143366877455, 0.144500806928, -0.0264288596809, 0.0025474820286, -0.0577674396336, 0.0746860727668, -0.0265802834183, -0.0351790636778, 0.0495561026037, -0.125861361623, -0.146156698465, 0.142686963081, 0.11242607981, -0.0254805777222, 0.168144986033, 0.046301137656, -0.133160367608, -0.0690745562315, 0.0670677796006, -0.065357580781, -0.0865993499756, -0.0411495566368, -0.0758361816406, 0.0215336401016, 0.00903808884323, -0.0633002892137, 0.0633520111442, 0.05180080235, -0.0185866374522, -0.00846149493009, 0.0761776939034, -0.0767823010683, -0.049145322293, 0.0199113320559, -0.0978781282902, -0.0632966905832, 0.073831550777, -0.0115237710997, -0.0156311392784, 0.0882515758276, -0.0316614471376, -0.137846529484, 0.0709414407611, -0.0372776016593, -0.0423744171858, -0.0674257576466, -0.0285244062543, -0.0486413240433, -0.0745916739106, 0.0310865715146, -0.0298376772553, 0.00155217701104, 0.0245596319437, -0.0296623092145, 0.0772041007876, -0.0331384502351, 0.0794765353203, -0.0786416903138, 0.00318780401722, 0.0826021581888, 0.0250474121422, -0.0849618539214, -0.0298490673304, -0.0148888453841, -0.0141521031037, 0.103790931404, -0.0141673898324, 0.034785374999, -0.0126683544368, 0.0781537741423, 0.0829353258014, 0.00307460967451, -0.0632788315415, -0.049624491483, -0.0448609106243, -0.135466068983, 0.00606330530718, -0.0287057142705, -0.075709477067, 0.00313080055639, -0.00724154384807, 0.108227439225, 0.120426654816, 0.0681000128388, 0.0256249569356, 0.142837107182, 0.0308301672339, 0.0635640695691, -0.0420438498259, -0.204368382692, -0.138526260853, 0.178040504456, 0.010541123338, -0.0800350308418, 0.109963692725, 0.0874269753695, -0.0683040320873, -0.0270825829357, -0.0730232223868, 0.151333451271, 0.00329763861373, 0.0452875308692, 0.0061021395959, 0.0540068373084, -0.0525824651122, 0.0351026952267, 0.0797303915024, -0.00551148178056, -0.0263579506427, -0.0354212187231, 0.0579511411488, -0.117356166244, 0.024040479213, -0.0201788190752, -0.180896669626, -0.103086985648, 0.0234834179282, 0.0308078527451, -0.00132126640528, 0.0965159535408, -0.0503592938185, -0.11432890594, 0.0119654620066, -0.0171582251787, -0.157357558608, 0.0231124404818, -0.0517463386059, -0.078851364553, -0.0544014833868, 0.00864040199667, -0.0768676027656, -0.0516335368156, 0.0789753720164, 0.00240896316245, 0.092447951436, 0.0176407620311, -0.0129347722977, 0.123337343335, 0.0202912464738, -0.0347062535584, 0.0148955034092, 0.0340489856899, 0.115794107318, 0.0651821568608, -0.0328080803156, 0.044244132936, 0.037703383714, -0.0132685368881, 0.0717970877886, -0.0218896381557, 0.0642678663135, -0.125621721148, -0.110967949033, -0.0485920123756, -0.0687158033252, -0.0797214731574, -0.0897538363934, -0.116361342371, 0.019474811852, 0.0529083870351, -0.0490238666534, -0.0858874991536, 0.00274898880161, 0.00354707078077, -0.159808978438, 0.114623844624, -0.0395890772343, 0.074031688273, 0.10781236738, -0.139948025346, -0.101782053709, 0.0485039688647, 0.0198846012354, -0.0752292573452, 0.0477329567075, 0.16272726655, -0.0777068883181, -0.00889966916293, 0.0301493220031, -0.0309531930834, -0.0151573587209, 0.0464597456157, 0.039285775274, 0.0816246941686, -0.0772735625505, 0.000681231729686, 0.0301315169781, 0.000624408363365, 0.0851477608085, -0.0160937123001, 0.110140748322, 0.019909510389, 0.0209325626493, 0.0321019850671, -0.0543991737068, -0.0414115041494, 0.0865821316838, -0.0515730418265, -0.0698422044516, 0.100655272603, -0.0139836166054, 0.0383923128247, 0.0771434605122, 0.0408592559397, 0.0645899102092, -0.0320832245052, -0.0391923673451, 0.0517711006105, -0.07465133816, -0.0624933391809, 0.0492506623268, -0.0233720336109, 0.0297809280455, 0.0748236104846, -0.00191276683472, 0.0218875128776, -0.0187683794647, 0.094092912972, -0.0769114941359, 0.0135816028342, 0.062098659575, -0.0633314624429, -0.0844556838274, -0.0857521742582, -0.0581139996648, 0.0290196500719, 0.0608196295798, -0.0683751776814, -0.0535675063729, 0.0439692288637, 0.0462348237634, -0.104549460113, -0.0491406656802, -0.0313016697764, -0.0018607712118, -0.121428847313, -0.0193746015429, 0.00194384844508, -0.0192780029029, 0.184163451195, 0.0511352568865, 0.039386946708, 0.0266260635108, 0.0157863125205, 0.0221700686961, 0.172056749463, -0.12323115766, -0.0435022450984, -0.0588940568268, -0.19564512372, -0.0875042527914, -0.0196500066668, 0.0491729751229, -0.0185459218919, 0.101284995675, 0.0436091795564, 0.123491354287, -0.0444423817098, 0.139103516936, -0.0432711280882, 0.0768932327628, 0.118221275508, -0.0337122529745, 0.0680289417505, 0.0183974541724, 0.0486796088517, 0.0742753744125, -0.0117404116318, 0.0141558172181, -0.0374628454447, 0.147543117404, -0.0527268126607, 0.0234788935632, -0.0153328906745, 0.00611836928874, -0.0895902439952, -0.0557848475873, -0.107864692807, 0.00356076611206, 0.0861849486828, -0.00640613865107, -0.0353482812643, 0.141685590148, 0.180942282081, -0.0502045117319, 0.0786140486598, 0.00454849144444, -0.102593354881, -0.0661522820592, -0.0338509120047, 0.0579685233533, 0.0537460148335, 0.0723075643182, 0.0344073586166, -0.130906879902, -0.119425736368, -0.0390330590308, 0.0090605141595, 0.11938291043, 0.016547171399, 0.0300929509103, 0.102618679404, -0.110021457076, 0.0648708418012, -0.0137766562402, 0.0517733059824, 0.0164362769574, -0.0275419894606, -0.092316582799, -0.0570204779506, 0.043841958046, 0.0503024049103, -0.109018094838, -0.0102042043582, -0.00949691236019, -0.0561676174402, -0.0559443607926, 0.00313835870475, -0.0318685434759, 0.0811385810375, 0.0859717205167, 0.0542840287089, -0.0586894117296, -0.0803250074387, -0.0847691819072, 0.0697881877422, -0.155287712812, -0.0794656872749, 0.0577594824135, -0.170474112034, -0.0933515578508, 0.101582579315, 0.0228669010103, -0.0221611894667, 0.149485290051, -0.0433733835816, 0.0464357919991, 0.0180256571621, -0.0410966910422, 0.0114534432068, -0.0262453574687, 0.0354853570461, 0.0402786359191, -0.00866866111755, 0.00269140582532, -0.0253445245326, 0.0908312350512, 0.0230477787554, -0.153618901968, -0.116031751037, 0.0386796295643, -0.103118419647, 0.0752687454224, -0.0163721274585, -0.0114185074344, 0.00142206461169, 0.00507933041081, 0.0356469713151, -0.00799968186766, 0.0429237522185, -0.039862524718, -0.048661634326, 0.138258382678, -0.00891750119627, 0.0753281712532, 0.104303836823, 0.039374910295, 0.00858062878251, -0.0856571346521, 0.0123073002324, -0.0192774683237, 0.00874865241349, -0.0277205500752, 0.0770726278424, -0.000966900959611, -0.043997939676, 0.125942185521, -0.00682746386155, 0.0391016863286, -0.00370474020019, 0.104632690549, -0.0598856955767, 0.0925827845931, -0.109974436462, 0.0501529462636, -0.0166092570871, -0.0588693916798, -0.15538276732, -0.0932163894176, 0.0176934562624, 0.142298325896, 0.00385826034471, -0.03945383057, -0.0889930725098, -0.0264901723713, 0.00665892846882, 0.0432403162122, -0.0644281432033, -0.012314918451, 0.194050431252, 0.0446212626994, 0.0643762275577, -0.0915392786264, -0.0646546110511, -0.0769407004118, 0.0850571617484, -0.0787624195218, 0.0781286209822, -0.0675946697593, -0.187974438071, -0.100040793419, 0.075476936996, 0.0433464646339, 0.0171913523227, 0.102044045925, 0.0182453021407, -0.00275567523204, -0.050691600889, -0.0386799424887, 0.00413765152916, -0.0644750520587, 0.00211952114478, 0.0334657542408, -0.0750074535608, -0.0650614947081, -0.00543511472642, 0.0511536821723, -0.0322842672467, -0.0199746862054, -0.197990074754, 0.138602301478, 0.000833488360513, 0.0251843351871, -0.0408891066909, -0.129659488797, -0.0245876628906, 0.104294829071, -0.0236526876688, -0.0896857753396, 0.0525754876435, -0.0888306051493, -0.0537639483809, 0.0859140232205, 0.0517546869814, -0.0576947592199, 0.000354960124241, -0.00845740549266, 0.0465280786157, 0.066229827702, 0.0299257338047, 0.0921402126551, 0.0671728923917, 0.0643266737461, 0.0214814953506, -0.123673781753, -0.0630360096693, -0.0169217642397, -0.056300252676, 0.0439152270555, -0.0460946373641, 0.0709391459823, -0.101385131478, -0.0836042165756, 0.0678509175777, -0.047998689115, 0.1147127226, 0.0284416023642, -0.0745006427169, -0.10441429168, 0.0132286828011, 0.107763297856, -0.100111223757, -0.146016299725, -0.066541813314, 0.0700571984053, -0.104323066771, 0.026888590306, -0.0883532762527, -0.123763591051, 0.134882256389, 0.0138098374009, -0.0280572529882, -0.127651900053, -0.101703487337, -0.094418078661, 0.228028520942, -0.258566021919, 0.0837905034423, -0.0727316588163, -0.334500610828, -0.00780697306618, -0.0222868807614, -0.0231538973749, -0.109458103776, 0.213432639837, 0.0253563784063, -0.0806851163507, -0.0447821542621, -0.11742027849, -0.068435780704, -0.120311677456, 0.0659490451217, 0.0474608838558, 0.0650350302458, 0.0109910992905, 0.0152524625883, 0.0225855000317, -0.143569529057, -0.0775178447366, -0.176265373826, 0.0862207263708, -0.12472371757, 0.0331449359655, -0.0650095716119, -0.0840987637639, -0.0656675994396, 0.0993765220046, -0.0319271571934, -0.0518389604986, 0.0840241387486, -0.138581514359, -0.0534642860293, 0.00990878976882, -0.00111423991621, 0.0403390973806, -0.00187684607226, -0.0227103773504, -0.117356583476, -0.113205187023, 0.032499961555};
