//Numpy array shape (16, 64)
//Min -0.276446521282
//Max 0.337348461151
//Number of zeros 0

weight_default_t wr1[1024] = {-0.0426847338676, 1.03707207018e-05, -0.000151910440763, -0.056393597275, 0.0209529586136, -0.000598876154982, 7.24724814063e-05, -3.25270411849e-06, -0.000238297041506, 0.000106113584479, 0.00254557211883, 0.0623690001667, 0.00205890228972, -0.00443163746968, 0.00660809315741, 5.66154776607e-05, 0.184776574373, 0.0991226956248, -0.000140974138048, -0.0280908774585, 0.0719417855144, 0.0378557741642, -2.92125441774e-05, -0.152385339141, -1.14331851364e-06, -5.04412964801e-05, -0.0666581243277, 0.128639951348, -0.000170086976141, -0.0122181801125, 0.0259112063795, 5.98742772127e-05, 0.230157524347, -4.54284709122e-05, -0.181894153357, 0.263016194105, -0.0110063189641, 0.00366322556511, 0.00158146093599, 0.00359816593118, 0.110252946615, -0.0132162338123, -0.0504330545664, 9.74378599494e-06, 0.00114057178143, -0.0116729559377, 0.203786343336, 7.43264390621e-05, 0.0548338890076, -0.117613628507, -0.00010664187721, 0.254422187805, 0.00554669555277, -0.0184083711356, 0.199523732066, 2.09393983823e-05, -0.00198897765949, 0.00825946871191, 0.147870242596, 0.0703539326787, 0.000197036570171, 0.0258016679436, -0.0369939878583, -0.179975777864, -0.0252628754824, -1.26383747556e-06, -9.53735579969e-05, -2.75681868516e-05, 0.0172815229744, 5.77174650971e-05, -8.06564203231e-05, -5.01587455801e-05, 3.51472153852e-05, 2.50019220402e-05, 7.57504967623e-05, -1.25767446661e-05, 1.73602693394e-05, 0.000268395990133, 8.85387999006e-06, 5.00014793943e-05, -0.08535220474, 9.3844573712e-05, 0.00883919466287, -0.005797048565, 0.00506916316226, 4.67776699224e-05, -7.73781503085e-05, -1.46059292092e-05, 3.90535824408e-05, -3.12245574605e-05, -0.000135351845529, -2.4603885322e-05, 9.22514736885e-05, 0.0237358789891, -3.03333381453e-05, 7.12277906132e-05, -0.0527085550129, 0.000106819155917, 0.0276075340807, -0.0234805643559, 0.0585590563715, 0.0666894987226, -0.115209072828, -4.42049786216e-05, 3.82109865313e-05, 9.55998693826e-05, -1.87730547623e-05, -0.07586658746, -1.55496090883e-05, -0.0130468951538, 0.118694737554, -0.106318585575, -1.60145973496e-05, 3.72065369447e-05, -0.000129570937133, -8.4341972979e-06, 0.00483808480203, 7.31986292521e-05, -2.09489226108e-05, -3.01781183225e-05, 9.39344390645e-05, 2.77720646409e-05, -0.000104601480416, -8.42529843794e-05, 5.94976700086e-06, 8.75213736435e-05, -0.000745187688153, -1.1611091395e-06, 0.0600550174713, 5.4803371313e-05, 0.265664368868, 0.000119912780065, 0.0029543384444, -6.21577783022e-07, 0.0200391113758, -0.000195136191905, 0.000174750079168, -0.000200266076718, 0.0412830784917, 0.0291741956025, -0.000112938228995, -0.0434136874974, -0.000145526850247, 1.94976892089e-05, -4.35229267168e-05, 0.000160426221555, -0.0096674868837, 0.000255549413851, 0.00965228676796, -0.0284977480769, -0.0201875027269, 0.0199583061039, 0.000136521208333, -3.07116060867e-05, -0.023648776114, 8.69712384883e-05, -2.46267773036e-05, 0.0896533355117, 8.61912951677e-07, 0.000631616974715, 4.04698766943e-05, 0.000121083314298, 0.184122160077, -0.093753144145, 0.126826941967, -0.00961704365909, -0.0237246640027, 0.0163605101407, -0.0111500630155, -7.22764707461e-06, 0.227128356695, -0.0113856522366, 0.0594512820244, 0.0873951092362, 2.29942561418e-05, 0.161595657468, 0.000174204134964, 9.59784229053e-05, -0.000115073504276, -2.50515222433e-05, -0.0807432830334, -3.87422733183e-06, -0.0619856864214, 0.0145893814042, 0.000163718970725, -0.00013024850341, 0.108371712267, 0.00516520813107, -8.16595638753e-05, 0.035925347358, -0.000221464011702, -0.000924470543396, 0.00160620070528, -8.72125674505e-05, -0.000189462472918, 0.0275000762194, 0.0150425909087, -2.99613820971e-05, 2.30283403653e-05, -0.0970782712102, -8.38845662656e-05, 0.0432627052069, 0.000103339392808, 0.0514388233423, 5.21023284819e-05, 0.0480056405067, -0.000164556520758, 9.26479115151e-05, 1.53681066877e-05, -3.67208740499e-05, -0.000135725407745, 0.0252878535539, -0.0581960119307, 0.104978479445, 5.81324129598e-05, 0.141654223204, 1.05715371319e-05, 8.07979595265e-05, -2.62841331278e-05, 0.308274537325, -3.98262709496e-05, 0.04357175529, -0.0112857604399, 0.000121217221022, 0.269317001104, -9.4720388006e-05, 0.000206731609069, 0.032692361623, 0.106623157859, 0.0727078914642, 0.00869886949658, 0.00288263265975, -0.110912419856, -7.37692025723e-05, -0.0418819896877, -0.0263369586319, -0.000619603611995, 0.0671314224601, 0.0372264944017, 0.0728971138597, 0.314284056425, -0.000166528741829, -0.000111896792077, 0.175714150071, -0.00317964656278, 3.4355725802e-05, 0.000111667162855, 5.72660937905e-05, -0.00018926159828, 0.00246629188769, 0.000130310014356, -1.37024517244e-05, 3.75402451027e-05, 0.211047202349, -0.00846868380904, -0.0156302172691, 0.116857238114, -5.12363840244e-08, -0.000167499587405, 0.0508393011987, 0.0186593513936, 0.000202751922188, -0.000105303421151, -0.000132497734739, 0.000175648427103, -9.00947707123e-05, 9.69529210124e-05, 0.10410643369, -0.000103441911051, -0.114768058062, -5.84831577726e-05, 0.000112781192001, 0.0506205707788, 9.72478155745e-05, 0.124739319086, 0.0301743987948, -0.0245898794383, 0.000117517636681, 0.129769057035, -0.0001390427351, 0.00172165548429, -4.94526684633e-05, 2.32216025324e-05, 0.0474913455546, 0.000106774888991, -0.000186596560525, 1.79443413799e-05, 8.03737493698e-05, 0.0422504320741, 5.95936508034e-05, 0.110308453441, 0.0975101068616, 0.104274384677, 9.0022731456e-06, 0.21559856832, 0.0272900890559, 0.00282730348408, 9.21941245906e-05, 6.24279127805e-05, 0.0306887980551, 0.00375600927509, -0.155790135264, 0.0431522093713, 9.23278130358e-05, 0.0572845265269, 0.000135018723086, -0.000233839149587, 1.92520565179e-05, -0.00097041396657, 3.10770483338e-05, -8.10125347925e-05, 4.52354324807e-05, 0.000703214085661, -0.000111973167805, 0.000139241077704, 0.0571482814848, -9.16390054044e-05, 8.23270020192e-05, 0.00100089027546, 0.000104152233689, 0.00487430766225, 0.000153435059474, -0.000170048049768, -0.113169156015, 0.0294371023774, 0.000102945901745, -9.29506495595e-05, -9.06511631911e-05, 0.000104967286461, -4.54920746051e-06, 8.96657729754e-05, 0.0103806974366, -1.34619549499e-05, 0.195051655173, 7.35688809073e-05, 6.34689931758e-05, -4.63874894194e-05, 0.000106710125692, 4.59373404738e-06, 0.0689771845937, -0.00013900671911, -0.0649502873421, -6.35182877886e-05, -0.0400843732059, 0.000517785781994, -1.79628059414e-05, -7.83260766184e-05, 0.000182076837518, -2.12228187593e-05, 0.100117698312, 2.69295251201e-05, 6.64493654767e-06, 6.57297459838e-06, 0.000102810656244, 2.59362786892e-05, 2.57985775534e-05, 0.152366131544, 0.000131366279675, 2.63037327386e-06, -9.86840241239e-05, 0.0580154545605, 7.78286630521e-05, 4.3963373173e-05, 6.1128019297e-05, -0.0299813449383, 0.0487561561167, 0.0218537785113, 0.0429162830114, -4.0176382754e-05, 0.000162271622685, -0.000143818062497, -5.16697873536e-05, -0.000143204044434, -0.0338114239275, -6.80302691762e-05, -8.66740156198e-05, 7.95072701294e-05, -3.07246991724e-05, 7.81658454798e-05, 0.0761904865503, -2.65642320301e-05, 0.152629211545, -1.0453422874e-05, -7.36769288778e-06, 0.296338498592, 9.74223949015e-05, -7.85259690019e-05, 0.0935437008739, 9.32962575462e-06, 3.56906894012e-05, -1.48639646795e-05, -3.534483767e-05, -3.21515108226e-06, 9.44266212173e-05, 1.6336731278e-05, 0.00836244318634, 0.000146619000589, 0.00010228852625, 1.06178340502e-05, 6.42562590656e-05, 0.000107892439701, 0.000139306721394, -0.000224766496103, -0.040617775172, -0.000187635727343, 0.000178870934178, 1.38039868034e-05, -5.8111781982e-05, 0.000181637980859, -6.94649315847e-06, -2.17442193389e-05, 0.0100806877017, 4.34533139924e-05, 0.0014330187114, 0.00573379686102, 1.98767156689e-05, 0.127706319094, 3.54732947017e-05, -0.000139702911838, 0.0650964528322, 2.98618615489e-05, 3.89154265577e-05, 0.053355909884, 0.213400065899, 2.27003656619e-05, 0.317315340042, -6.67015992803e-05, 0.185459300876, 5.87486065342e-05, 3.51183407474e-05, 0.0431531853974, 8.73018725542e-05, 0.000128768675495, 3.28774913214e-05, -0.000120176955534, 0.00020092309569, -8.95812408999e-05, 5.45435359527e-05, 0.0137855755165, -1.99775677174e-05, 0.0001206599336, -5.47213494428e-06, 2.51056335401e-05, 0.253420591354, 4.79111113236e-05, 0.000100543627923, 0.0981446355581, 1.33884814204e-05, 1.42197413879e-05, 7.55123837735e-05, -9.93251305772e-05, 7.58715905249e-05, -0.000119156007713, 8.98107537068e-05, 0.000163008662639, 0.0133681558073, 7.64540818636e-05, 0.000208804442082, 9.35294665396e-05, 0.000134321424412, 9.03721156646e-05, 0.000158430906595, 4.53445973108e-05, -2.52790832747e-05, 3.80423480237e-05, 0.000149748826516, 0.000140382180689, 0.00134766066913, -6.16978795733e-05, 0.000117945157399, 5.38450294698e-05, 0.0167632251978, 1.08227013698e-05, 0.00015861877182, 5.41301415069e-05, 0.000159393894137, 7.03834011802e-05, 0.00483691785485, -8.52955199662e-05, 0.000215977968764, 0.0627850219607, 2.51474330071e-06, 0.00660412851721, -0.00153584219515, 0.00230180402286, 8.24410453788e-05, 0.0350229591131, 0.28351521492, 8.85636763996e-05, 0.000204645504709, -0.000114010043035, -0.0705133229494, 8.15589446574e-05, -0.0112802311778, 0.0625418350101, 0.177816584706, 1.43063789437e-05, 8.81263476913e-05, -0.000110679873615, 0.000146669932292, -9.41858743317e-05, 4.04666461691e-05, 0.0132388910279, 0.00527266319841, 0.000143991521327, 0.000110715154733, 6.54079849483e-05, -4.12281588069e-06, -3.12810625474e-05, 6.3395309553e-05, -0.000118169176858, 2.0308774765e-05, 0.00357288471423, 1.22117980936e-05, -3.51328890247e-05, 5.98074257141e-06, -0.000130359621835, 6.98736694176e-05, -6.21123690507e-05, -7.54683351261e-05, 3.13886921504e-05, -1.52419306687e-05, 9.0377900051e-05, 7.12690525688e-05, 2.21472964768e-05, 0.000148499588249, 5.28111013409e-05, 7.64210126363e-05, -1.0786175153e-05, 9.15072814678e-05, -0.000208991390537, 0.143375337124, -0.000146549020428, 0.000143800309161, -1.14241411211e-05, -0.000106057021185, 9.0452733275e-05, -3.23574931826e-05, -1.04931204987e-05, 2.56740422628e-05, -2.73401037703e-05, 0.000437193521066, -3.63427716366e-06, 8.04988812888e-05, 6.94933532941e-06, 8.39228960103e-07, -0.00017799095076, 2.31176727539e-05, -8.95952107385e-05, 0.000131367254653, 0.129200637341, -0.000108471693238, 6.6481239628e-05, 1.24516918731e-05, 3.32431445713e-05, 0.0347756817937, -2.17219239858e-05, 0.0594154149294, 4.37827802671e-05, 5.17907174071e-05, 7.8190023487e-06, 1.40786623888e-05, -0.000136825299705, 8.63548211782e-06, -0.000142380056786, 4.611033728e-05, -7.45716170059e-05, -6.90473825671e-05, 5.44430295122e-05, -2.75016518572e-05, 6.76476047374e-05, 7.34009954613e-05, 4.53223256045e-05, 0.000119524418551, -4.86111530336e-05, 2.49002387136e-05, 0.0120025966316, -3.67069296772e-05, -6.08229056525e-05, 0.142786964774, 0.0106637878343, -1.40805314004e-05, 0.180359557271, -6.92078174325e-05, 2.77696562989e-06, 0.000177244626684, 4.99121524626e-05, 3.57747630915e-05, 4.41178963229e-05, -0.000117856674478, 6.28921043244e-06, 1.57133181347e-05, 0.000166141559021, 8.72778327903e-05, -0.00012543585035, 7.80745685915e-05, -0.000155590154463, 3.51667076757e-05, 0.0972711667418, 4.44880934083e-05, 0.000203658928513, 5.89010560361e-05, -0.000221859867452, 0.0660907998681, 9.12376053748e-05, 0.0012312582694, -0.00559498323128, -8.53229630593e-06, 0.00586392637342, 1.69482682395e-05, -0.000109430737211, 0.000187748344615, 0.048323251307, -0.000135052701808, 7.18805385986e-05, 0.0866324901581, -5.15995488968e-05, 0.0170660372823, -7.62340205256e-05, -0.000199432310183, 0.000135280133691, 0.0520124398172, -7.96537860879e-05, 0.0476496368647, -1.65890960488e-05, 5.17757507623e-05, -3.07135269395e-05, 0.000129506079247, -6.21547660558e-05, 5.9115824115e-05, -2.82517612504e-05, 0.0794792026281, 6.46469925414e-05, 7.82057759352e-05, 5.84948247706e-05, 0.000221289505134, -3.09937167913e-05, 6.59253419144e-05, -0.0243209321052, -2.1325169655e-05, 0.0989422872663, 2.9852051739e-05, -0.000187041019672, -0.113348662853, 0.0327997654676, 6.75755727571e-05, 1.97402187041e-06, -0.00663945171982, 2.46609070018e-05, 0.00015366844309, -9.01653256733e-05, -4.66722740384e-05, 0.000129663632833, 0.00816328078508, 0.0654539614916, 5.88222028455e-05, -0.0708199441433, 1.28119718283e-05, -0.0909646749496, 9.52901100391e-05, 0.0407712757587, 0.000113900314318, -1.78792870429e-05, -6.86684943503e-05, 7.85780066508e-05, 0.016679527238, -0.00520295184106, 0.150205656886, 4.42448290414e-05, 0.067242950201, -0.0193440336734, 8.14126469777e-05, -0.00182025344111, 9.69880638877e-05, 0.00281739025377, 0.1854057163, 0.0242970939726, 0.0597012788057, 0.153381496668, -0.165324375033, -3.55550655513e-05, -4.84363408759e-05, -0.0324592031538, -0.0565863922238, 0.0114460298792, 0.00646484270692, 0.0503648519516, -0.00146664970089, -2.46678100666e-05, -5.83350592933e-05, 0.00844165869057, 3.10619798256e-05, 0.00286891777068, 7.61827832321e-05, -0.119991354644, -6.92123940098e-05, 3.89461238228e-05, 0.00334379007109, -0.0593540407717, 0.279559880495, 2.59675107372e-05, 0.0052518537268, -0.0290620401502, -3.32032504957e-06, 0.134787559509, 0.000138999588671, -0.0358594693244, 0.301699370146, 0.0150423701853, -3.85099338018e-05, 0.188001647592, -0.00361741078086, -8.14632658148e-05, 0.0474757738411, -4.43132012151e-06, 0.187091886997, 0.000179244219908, -3.98855117965e-05, -0.000111110610305, -4.35849760834e-05, 0.153393000364, 0.000113766371214, -0.242206722498, 0.108202233911, 0.0216706134379, 0.000980469281785, 0.0927584245801, -0.0272874180228, 0.0559367612004, 0.000183578609722, 0.161342948675, 0.337348461151, 0.000102311867522, 0.000853609235492, -0.0352758094668, 0.000103511811176, 0.266268879175, 1.53631772264e-05, -0.149351939559, 0.17588981986, -0.140214905143, 1.76478533831e-05, 0.0929505899549, -0.000202827810426, 0.0487887486815, 0.0381237566471, 0.0010210336186, -0.000693856214639, -0.018899846822, -0.0843296125531, 0.0402775369585, 6.63558603264e-05, 0.213361784816, -0.000203573741601, -0.042381670326, 0.000179206312168, 0.00660072313622, -2.6642688681e-05, 0.000139092691825, -0.0546608492732, -3.54933436029e-05, 0.000139426803798, 0.0729971006513, 0.189514711499, 0.0751693695784, 0.01185944397, -0.0464443825185, -5.6762528402e-06, -3.71559108316e-05, 2.16339321923e-06, -4.48777136626e-05, 1.20579061331e-05, -0.000103376776678, 9.81414923444e-05, -8.48651834531e-05, 0.000146552978549, 3.24326501868e-05, -5.29040189576e-05, 5.10425597895e-05, -9.20839665923e-05, 5.87459144299e-05, 9.99782496365e-05, 2.51736655628e-05, 8.45029717311e-05, -0.000208411205676, 6.08293594269e-05, -0.000135608352139, 4.0855476982e-05, -2.34462240769e-05, 7.10861277184e-05, -3.92575420847e-05, 0.000144115139847, 0.000112433895993, -5.06202195538e-06, -0.000180538452696, -8.02900285635e-06, 0.00012063763279, 7.81580456533e-05, -2.28863482334e-05, 1.50565347212e-05, -0.000208351877518, 3.85780040233e-05, -4.60574374301e-05, -2.02724277187e-05, 6.21238432359e-05, 1.97677982214e-05, 5.74208861508e-05, 0.262836545706, -3.16158257192e-05, 0.000186891978956, -0.000142561053508, -0.0271563753486, 0.000178927351953, -0.000565231952351, 0.0648295134306, -6.51122718409e-06, -4.69647347927e-05, 0.000138294039061, -4.0665778215e-05, -2.69986740022e-05, -1.54766967171e-05, 6.79957302054e-05, -2.4616931114e-05, 9.77785675786e-05, 4.37740854977e-05, -5.5428041378e-05, -4.99968264194e-05, -1.7066278815e-05, 3.59805380867e-06, 6.56339470879e-05, -8.8080909336e-05, -4.02346740884e-05, 0.00788829941303, 0.00017011424643, -0.000191685801838, 0.000105481689388, 0.101354539394, 0.00016611351748, -0.000151989515871, -0.000352258764906, 0.0205782800913, -0.000172252941411, 0.0617383942008, 0.0688888803124, -0.000147380924318, -0.00353964185342, -8.76796693774e-05, 0.000651712354738, -1.9721357603e-05, 8.05847812444e-05, 0.0546321123838, -0.193407163024, 0.0611428320408, 0.0585055425763, -0.00895979627967, -0.000285456277197, 0.0245424434543, -8.71050579008e-05, 0.000207471704925, 0.0227112472057, -0.000141096737934, 0.127629667521, 1.49756842802e-05, 0.00295183435082, -0.136405989528, 0.000113560898171, 0.160723909736, -0.0155293056741, 0.0213369429111, 0.064596042037, -0.00344952498563, -0.0963284224272, 0.00475729908794, -0.26439255476, 0.000116922536108, 0.00611940165982, -0.058047272265, 0.216557964683, 0.0655628889799, 0.000144048142829, 0.000259616237599, 5.81917265663e-05, 0.196752488613, 0.000144341232954, -0.028386592865, 0.0412069484591, -0.00015595536388, -0.000197072527953, 0.0195621363819, -3.84186132578e-05, 0.00840207096189, 0.0374913699925, -0.000166110854479, 0.251964062452, 0.0749851763248, 4.80273884023e-05, 0.0316158719361, 0.000239942557528, -0.000195556742256, -0.048904530704, -0.000109039036033, 8.97838181118e-05, 2.04358366318e-05, 6.02697618888e-05, 2.47290772677e-05, 0.000156542722834, 4.08267369494e-05, 5.22553236806e-05, 3.18876409438e-05, 0.00244294386357, 0.106538392603, 0.00018974696286, -0.0527850016952, 7.68855898059e-05, 0.137967050076, -0.00424616038799, 0.0138172497973, 0.0783387720585, -0.0675993561745, 0.0077138771303, 8.45350077725e-05, 0.000144075253047, 0.0222296826541, 0.00294149713591, 5.40392684343e-05, 0.0698554888368, 0.0147214084864, 0.00122115644626, -0.0900289267302, 5.30871038791e-05, 0.131674468517, -0.110522516072, 0.000525008013938, 0.000190083970665, -0.276446521282, 0.0253030639142, 6.12148578512e-05, 0.000128363026306, 3.33006719302e-05, -0.0918504595757, -3.71865608031e-05, 0.0485011413693, 0.207916349173, 0.0133953327313, -0.00999857019633, -0.000107574851427, 0.0957872793078, 4.73709078506e-05, 0.00637992611155, 0.0208297893405, -7.58641690481e-05, 0.138050720096, 5.98868282395e-05, 8.7182772404e-05, -5.42521956959e-06, 6.14388263784e-05, 5.77063983656e-05, 0.0185706485063, 4.22940938734e-05, 0.000218395463889, 0.0121249519289, 0.000154734487296, 0.00450325105339, 0.000194213702343, -0.000126589409774, 0.000125240650959, -3.49903421011e-05, -4.72413339594e-05, 0.000129545238451, -2.7633866921e-05, 9.55641153269e-05, 0.0773596167564, -6.30876456853e-07, 0.000162231648574, 2.17378692469e-05, 8.3450882812e-05, -4.55327608506e-07, 0.000234090693993, -0.0666026845574, 0.00918611697853, -0.000120638309454, 0.0585534535348, 0.0356076024473, 0.00135339691769, 0.000209410252864, 6.78262949805e-05, 0.000285835907562, 0.115047119558, -8.23142472655e-05, 0.168229028583, -9.43974282563e-06, 0.000901052553672, -0.0147839523852, 7.6873729995e-05, 0.0592251047492, 0.106037430465, 0.0111664589494, 6.62765378365e-05, 0.0610918067396, 0.155920311809, 0.0407253652811, 0.112094633281, 3.74270166503e-05, -0.000580110761803, 3.05249486701e-05, 0.0530421100557, 2.25896437769e-05, 0.00203619198874, 6.28900015727e-05, 8.24139278848e-05, 0.00641858903691, 0.000232742837397, -0.0137993330136, -6.55291478324e-06, -6.11371615378e-06, 0.0354097373784, 0.000127976367367, -3.07139198412e-05, 0.000192196239368, 0.00435340218246, -0.000104966413346, 0.231894031167, -5.0111735618e-05, 8.47845876706e-05};
