//Numpy array shape [32, 32]
//Min -1.000000000000
//Max 1.000000000000
//Number of zeros 536

#ifndef W10_H_
#define W10_H_

hls_init_on_powerup static const weight10_t w10[1024] = {0.000000, 0.000000, 0.000000, 1.000000, 0.000000, 0.000000, 1.000000, 0.000000, 0.000000, 0.000000, 0.000000, 1.000000, -1.000000, 0.000000, -1.000000, -1.000000, 0.000000, 0.000000, 0.000000, 0.000000, 0.000000, 0.000000, 1.000000, 0.000000, 0.000000, 0.000000, -1.000000, 0.000000, 1.000000, 0.000000, 1.000000, 0.000000, 0.000000, 1.000000, -1.000000, 0.000000, -1.000000, 0.000000, 0.000000, -1.000000, 1.000000, 1.000000, 0.000000, 0.000000, 0.000000, 0.000000, 1.000000, 0.000000, 1.000000, -1.000000, 0.000000, 1.000000, 0.000000, -1.000000, 0.000000, 0.000000, 0.000000, 0.000000, 1.000000, 0.000000, 1.000000, 1.000000, 0.000000, 1.000000, 1.000000, 0.000000, 0.000000, -1.000000, 0.000000, -1.000000, 1.000000, 0.000000, 0.000000, 0.000000, 1.000000, 0.000000, 0.000000, 1.000000, 0.000000, 1.000000, -1.000000, 0.000000, 1.000000, 0.000000, -1.000000, -1.000000, -1.000000, 0.000000, 0.000000, -1.000000, 1.000000, 0.000000, -1.000000, 1.000000, -1.000000, 1.000000, -1.000000, -1.000000, 0.000000, 1.000000, 1.000000, -1.000000, 0.000000, -1.000000, 0.000000, 1.000000, 1.000000, 1.000000, 1.000000, 0.000000, 0.000000, -1.000000, 1.000000, 0.000000, 0.000000, 0.000000, 1.000000, -1.000000, 0.000000, -1.000000, 0.000000, 0.000000, -1.000000, 0.000000, 0.000000, 1.000000, 0.000000, 1.000000, -1.000000, -1.000000, 0.000000, -1.000000, -1.000000, 1.000000, 0.000000, 0.000000, 1.000000, 0.000000, 1.000000, 1.000000, -1.000000, -1.000000, 1.000000, 0.000000, 1.000000, 0.000000, -1.000000, 0.000000, 0.000000, 0.000000, 1.000000, 0.000000, 1.000000, 0.000000, 0.000000, 0.000000, 0.000000, 1.000000, 1.000000, 0.000000, -1.000000, 0.000000, 0.000000, 0.000000, 0.000000, 0.000000, 0.000000, 0.000000, 0.000000, -1.000000, 0.000000, 0.000000, -1.000000, -1.000000, -1.000000, 0.000000, 1.000000, 0.000000, 0.000000, 0.000000, 0.000000, 1.000000, 0.000000, 0.000000, 1.000000, 0.000000, 1.000000, 0.000000, -1.000000, 0.000000, -1.000000, -1.000000, -1.000000, -1.000000, 0.000000, 0.000000, -1.000000, 0.000000, -1.000000, 0.000000, 0.000000, 0.000000, 1.000000, 1.000000, -1.000000, 0.000000, 0.000000, 0.000000, 1.000000, 0.000000, 0.000000, 0.000000, 1.000000, 1.000000, 0.000000, 0.000000, 0.000000, 0.000000, 0.000000, 1.000000, 0.000000, -1.000000, -1.000000, -1.000000, 0.000000, -1.000000, 1.000000, -1.000000, -1.000000, -1.000000, -1.000000, 0.000000, -1.000000, 0.000000, -1.000000, 0.000000, 0.000000, -1.000000, -1.000000, 0.000000, 0.000000, -1.000000, 0.000000, 1.000000, 0.000000, 0.000000, 0.000000, 0.000000, 0.000000, -1.000000, 0.000000, 1.000000, -1.000000, 0.000000, 0.000000, 0.000000, 0.000000, 1.000000, 1.000000, -1.000000, 0.000000, 1.000000, 1.000000, 0.000000, 0.000000, 0.000000, -1.000000, -1.000000, 0.000000, 0.000000, -1.000000, 0.000000, 0.000000, 0.000000, 0.000000, 0.000000, 0.000000, -1.000000, 0.000000, 0.000000, 0.000000, -1.000000, 0.000000, 0.000000, 1.000000, 0.000000, 1.000000, 1.000000, 0.000000, 1.000000, 0.000000, 1.000000, -1.000000, 0.000000, 0.000000, 1.000000, -1.000000, 1.000000, 0.000000, -1.000000, 0.000000, 0.000000, -1.000000, 0.000000, 0.000000, -1.000000, 1.000000, 0.000000, 1.000000, 0.000000, 0.000000, -1.000000, 0.000000, -1.000000, 1.000000, 0.000000, 0.000000, -1.000000, 0.000000, 1.000000, 0.000000, 1.000000, 1.000000, 0.000000, 0.000000, -1.000000, 1.000000, 0.000000, 0.000000, 0.000000, -1.000000, -1.000000, 0.000000, 1.000000, 1.000000, 1.000000, 0.000000, 1.000000, 0.000000, 0.000000, 0.000000, -1.000000, -1.000000, 1.000000, -1.000000, 0.000000, 1.000000, -1.000000, 0.000000, 0.000000, 0.000000, 1.000000, -1.000000, 0.000000, 0.000000, 1.000000, 0.000000, 0.000000, 0.000000, -1.000000, 1.000000, 1.000000, 0.000000, -1.000000, 1.000000, -1.000000, 0.000000, -1.000000, 0.000000, -1.000000, 0.000000, 0.000000, 0.000000, -1.000000, 1.000000, -1.000000, 0.000000, 0.000000, -1.000000, 1.000000, 0.000000, 0.000000, 1.000000, 0.000000, -1.000000, 0.000000, -1.000000, 0.000000, 0.000000, 0.000000, 0.000000, 0.000000, -1.000000, 0.000000, 1.000000, -1.000000, 0.000000, -1.000000, 1.000000, 0.000000, 1.000000, 0.000000, -1.000000, 0.000000, 0.000000, -1.000000, 1.000000, 0.000000, 0.000000, 1.000000, 0.000000, 1.000000, -1.000000, 0.000000, -1.000000, -1.000000, 1.000000, 1.000000, 0.000000, 1.000000, 0.000000, 1.000000, 0.000000, 0.000000, 0.000000, 1.000000, 0.000000, -1.000000, 0.000000, -1.000000, 0.000000, -1.000000, 0.000000, -1.000000, 1.000000, 0.000000, 1.000000, 0.000000, 0.000000, 0.000000, 1.000000, 0.000000, -1.000000, 0.000000, 0.000000, -1.000000, 0.000000, -1.000000, 0.000000, 1.000000, 0.000000, 1.000000, 1.000000, 0.000000, 0.000000, -1.000000, 0.000000, 0.000000, -1.000000, 0.000000, 1.000000, -1.000000, -1.000000, 0.000000, 1.000000, -1.000000, 1.000000, 0.000000, 0.000000, 0.000000, 1.000000, -1.000000, 0.000000, 0.000000, 0.000000, 1.000000, 1.000000, 0.000000, 0.000000, 0.000000, 0.000000, 1.000000, 0.000000, 0.000000, 0.000000, -1.000000, 0.000000, 0.000000, 0.000000, 0.000000, -1.000000, -1.000000, 0.000000, 0.000000, 0.000000, 1.000000, 0.000000, 0.000000, 1.000000, 1.000000, 1.000000, 0.000000, 1.000000, 0.000000, 0.000000, -1.000000, -1.000000, 1.000000, 1.000000, 0.000000, 0.000000, 1.000000, 0.000000, 1.000000, 0.000000, -1.000000, 1.000000, 1.000000, 1.000000, -1.000000, 0.000000, 0.000000, 1.000000, 1.000000, 0.000000, 1.000000, -1.000000, 0.000000, 1.000000, 1.000000, 0.000000, 0.000000, 0.000000, 1.000000, -1.000000, 0.000000, 0.000000, 0.000000, 0.000000, -1.000000, 0.000000, 0.000000, 0.000000, 0.000000, -1.000000, 1.000000, -1.000000, 1.000000, 0.000000, 1.000000, 1.000000, 0.000000, 0.000000, 1.000000, 0.000000, 1.000000, -1.000000, 0.000000, 0.000000, 0.000000, 0.000000, -1.000000, -1.000000, 0.000000, -1.000000, 0.000000, -1.000000, -1.000000, 1.000000, 0.000000, 0.000000, 0.000000, 1.000000, 1.000000, 1.000000, 0.000000, 0.000000, 0.000000, 0.000000, 0.000000, 0.000000, 1.000000, 0.000000, -1.000000, 1.000000, -1.000000, 0.000000, 0.000000, 0.000000, 0.000000, 0.000000, 1.000000, 0.000000, 0.000000, -1.000000, -1.000000, -1.000000, 0.000000, 0.000000, 1.000000, 0.000000, 1.000000, 0.000000, 0.000000, 0.000000, 0.000000, -1.000000, 0.000000, 0.000000, -1.000000, 0.000000, 1.000000, 1.000000, 1.000000, 0.000000, 0.000000, 1.000000, -1.000000, 1.000000, 1.000000, 0.000000, 1.000000, -1.000000, -1.000000, 1.000000, 0.000000, -1.000000, 0.000000, 0.000000, 1.000000, 1.000000, -1.000000, 0.000000, 0.000000, 0.000000, 0.000000, 0.000000, 0.000000, 0.000000, 1.000000, 1.000000, 0.000000, 0.000000, -1.000000, -1.000000, 1.000000, 1.000000, 0.000000, 1.000000, 0.000000, 0.000000, 0.000000, 0.000000, 1.000000, 0.000000, 0.000000, 0.000000, -1.000000, -1.000000, 1.000000, 1.000000, 1.000000, 0.000000, 1.000000, 1.000000, 0.000000, 1.000000, 1.000000, 1.000000, 0.000000, 0.000000, 0.000000, -1.000000, -1.000000, 0.000000, 0.000000, 0.000000, 0.000000, -1.000000, 1.000000, -1.000000, 1.000000, 0.000000, 0.000000, 0.000000, 0.000000, 0.000000, -1.000000, 0.000000, -1.000000, 0.000000, -1.000000, 0.000000, 0.000000, 0.000000, -1.000000, -1.000000, 0.000000, 0.000000, 0.000000, 0.000000, -1.000000, 1.000000, -1.000000, 1.000000, 1.000000, -1.000000, 0.000000, 0.000000, 0.000000, 0.000000, 0.000000, 0.000000, 0.000000, 1.000000, 0.000000, 0.000000, 0.000000, 0.000000, -1.000000, 1.000000, 0.000000, -1.000000, 1.000000, 0.000000, 0.000000, -1.000000, 1.000000, 0.000000, 1.000000, 1.000000, 0.000000, 0.000000, 0.000000, -1.000000, 1.000000, -1.000000, -1.000000, 0.000000, 1.000000, 1.000000, 0.000000, 0.000000, 0.000000, 1.000000, 0.000000, -1.000000, 1.000000, -1.000000, -1.000000, -1.000000, -1.000000, 0.000000, 0.000000, -1.000000, 0.000000, 0.000000, 1.000000, 0.000000, -1.000000, 0.000000, 0.000000, -1.000000, 0.000000, 1.000000, 0.000000, 0.000000, 0.000000, 1.000000, -1.000000, 0.000000, -1.000000, 0.000000, 1.000000, 0.000000, -1.000000, 0.000000, -1.000000, 0.000000, 1.000000, 0.000000, 1.000000, 0.000000, 0.000000, 0.000000, 1.000000, 0.000000, 0.000000, -1.000000, 1.000000, -1.000000, 0.000000, 0.000000, 1.000000, 1.000000, -1.000000, -1.000000, 0.000000, -1.000000, 0.000000, -1.000000, 0.000000, 0.000000, 0.000000, -1.000000, 0.000000, 0.000000, 1.000000, 0.000000, 0.000000, 0.000000, -1.000000, 0.000000, 0.000000, 0.000000, 1.000000, -1.000000, 0.000000, 0.000000, 1.000000, 1.000000, -1.000000, 0.000000, 1.000000, 0.000000, 0.000000, 0.000000, 1.000000, -1.000000, 0.000000, -1.000000, 1.000000, -1.000000, 0.000000, 0.000000, 1.000000, 0.000000, 0.000000, -1.000000, 1.000000, 0.000000, -1.000000, 0.000000, 0.000000, 0.000000, 1.000000, 1.000000, 1.000000, -1.000000, -1.000000, 0.000000, -1.000000, 0.000000, 1.000000, 1.000000, -1.000000, 0.000000, 0.000000, 0.000000, 0.000000, 0.000000, 0.000000, 1.000000, 0.000000, 0.000000, 1.000000, 0.000000, 0.000000, 0.000000, 0.000000, 1.000000, 0.000000, 1.000000, 0.000000, -1.000000, -1.000000, 1.000000, 0.000000, 0.000000, 1.000000, 1.000000, 0.000000, 0.000000, 0.000000, 0.000000, 1.000000, 0.000000, -1.000000, 0.000000, 0.000000, 1.000000, -1.000000, 1.000000, 0.000000, 0.000000, 0.000000, 0.000000, -1.000000, 0.000000, 1.000000, 0.000000, 0.000000, 0.000000, 1.000000, -1.000000, -1.000000, 0.000000, 1.000000, -1.000000, -1.000000, 0.000000, 1.000000, 0.000000, 1.000000, 0.000000, -1.000000, -1.000000, 0.000000, 0.000000, 0.000000, 0.000000, 1.000000, 0.000000, 0.000000, -1.000000, 0.000000, 0.000000, -1.000000, 1.000000, 1.000000, 1.000000, 0.000000, 0.000000, 0.000000, 0.000000, 1.000000, -1.000000, 0.000000, 0.000000, -1.000000, 0.000000, 0.000000, 0.000000, 0.000000, 0.000000, 0.000000, 1.000000, 1.000000, 1.000000, -1.000000, 1.000000, -1.000000, -1.000000, -1.000000, 1.000000, 0.000000, 0.000000, 0.000000, 1.000000, 1.000000, -1.000000, 1.000000, -1.000000, 1.000000, 0.000000, 0.000000, -1.000000, 1.000000, -1.000000, 1.000000, 1.000000, 1.000000, -1.000000, 0.000000, 1.000000, 0.000000, -1.000000, 0.000000, 0.000000, 1.000000, 0.000000, 0.000000, 1.000000, 1.000000, 1.000000, -1.000000, 0.000000, 1.000000, 0.000000, 0.000000, 0.000000, 0.000000, -1.000000, -1.000000, 1.000000, 0.000000, 0.000000, 0.000000, -1.000000, 0.000000, -1.000000, 0.000000, 0.000000, 0.000000, -1.000000, 0.000000, 0.000000, -1.000000, -1.000000, 0.000000, -1.000000, -1.000000, 0.000000, -1.000000, 0.000000, 0.000000, 0.000000, 0.000000, 1.000000, 0.000000, 0.000000, -1.000000, -1.000000, -1.000000};

#endif
