//Numpy array shape [32, 5]
//Min -1.000000000000
//Max 1.000000000000
//Number of zeros 86

#ifndef W14_H_
#define W14_H_

hls_init_on_powerup static const weight14_t w14[160] = {0.000000, 1.000000, 0.000000, 1.000000, 1.000000, 1.000000, 0.000000, -1.000000, 1.000000, -1.000000, -1.000000, 0.000000, 0.000000, 0.000000, 0.000000, -1.000000, 1.000000, 1.000000, 1.000000, 1.000000, 0.000000, 0.000000, 1.000000, 1.000000, 0.000000, -1.000000, 0.000000, 0.000000, -1.000000, -1.000000, -1.000000, -1.000000, 1.000000, -1.000000, -1.000000, 0.000000, 0.000000, 0.000000, 0.000000, 0.000000, 0.000000, 0.000000, 0.000000, 0.000000, -1.000000, 0.000000, -1.000000, 0.000000, 0.000000, -1.000000, 0.000000, 0.000000, -1.000000, 1.000000, -1.000000, 1.000000, 0.000000, -1.000000, 1.000000, 0.000000, 0.000000, 1.000000, 0.000000, 0.000000, 0.000000, 1.000000, 1.000000, 1.000000, 0.000000, -1.000000, 0.000000, 0.000000, 0.000000, 0.000000, 1.000000, 1.000000, 0.000000, 1.000000, 1.000000, 0.000000, 0.000000, 0.000000, -1.000000, -1.000000, 0.000000, 0.000000, 1.000000, -1.000000, -1.000000, 1.000000, 0.000000, 0.000000, 0.000000, 0.000000, 0.000000, 0.000000, -1.000000, 0.000000, 0.000000, -1.000000, 0.000000, 0.000000, 0.000000, 0.000000, 0.000000, 1.000000, 0.000000, -1.000000, 0.000000, -1.000000, 0.000000, 1.000000, 0.000000, 0.000000, 0.000000, 0.000000, 0.000000, 0.000000, 0.000000, 0.000000, 1.000000, 0.000000, 0.000000, 1.000000, -1.000000, 1.000000, 0.000000, -1.000000, 0.000000, 0.000000, 0.000000, -1.000000, 1.000000, 0.000000, 1.000000, 1.000000, -1.000000, -1.000000, 0.000000, 0.000000, 1.000000, 0.000000, -1.000000, 0.000000, -1.000000, 0.000000, 0.000000, 0.000000, 0.000000, 0.000000, 0.000000, 0.000000, -1.000000, 1.000000, 0.000000, -1.000000, 1.000000, -1.000000, 1.000000, 1.000000};

#endif
