//Numpy array shape (10, 32)
//Min -0.780374884605
//Max 0.646854102612

weight_default_t w1[10][32] = {0, 0.33286473155, 0, -0.200682103634, 0, 0, 0, 0, 0.542743623257, 0.0105694588274, 0, -0.439520865679, 0, 0.0439695045352, -0.0137981586158, 0, -0.341242134571, -0.235930711031, 0, 0, 0, 0, -0.577979207039, 0, 0.152280181646, 0, 0, 0, 0.16480627656, 0.0976520776749, 0, 0, 0, 0, 0, -0.158862888813, 0, 0, 0.0195394605398, 0, 0, 0.303764522076, 0, 0.257050514221, 0, 0.062592022121, 0.588592231274, -0.287731796503, 0.386802703142, -0.375764399767, -0.427033543587, 0, -0.000206599419471, 0, 0, -0.295301884413, 0, 0, 0.480021834373, -0.268138796091, 0, -0.652442574501, 0, 0, 0, 0.438910186291, -0.306240767241, -0.323651224375, -0.392225533724, 0.3572678864, -0.397361218929, 0.394868463278, 0.0780302062631, 0, -0.487095057964, -0.327191382647, 0.644771695137, 0, 0, 0.0155806466937, 0, 0.0641430318356, 0.065486446023, 0.166196450591, 0.264521747828, 0, -0.299565404654, 0, -0.574795842171, 0.574057936668, 0, 0.0988429412246, 0, 0, 0.20612552762, 0, 0, 0, 0, 0, 0, 0, 0.188863113523, 0, 0, 0, -0.0320322774351, 0, 0.171757608652, 0.0327457301319, 0, 0.285122692585, 0, 0, -0.618405401707, 0, -0.120579503477, -0.585806488991, 0, 0, 0, 0.646854102612, -0.12144652009, 0.427223861217, 0.0946889296174, -0.24024116993, 0.213585242629, 0, 0, 0, 0, 0, 0.373969048262, -0.294965475798, 0.268711477518, 0, 0, -0.448332995176, 0.300760626793, 0, 0, 0, 0.278144806623, -0.307702571154, 0, 0.323285609484, 0, 0.137764915824, 0, 0, -0.541784107685, 0, 0, 0, 0, -0.307861149311, -0.0440296866, 0.0679265484214, 0.642297625542, 0, 0.15372492373, -0.456968694925, -0.619609177113, 0.108014553785, -0.332670778036, -0.0228065475821, 0, -0.451573699713, 0, 0.278278380632, 0, 0.149607345462, 0, -0.412107855082, -0.564781546593, 0, 0.397280603647, 0, -0.187055394053, 0, 0.26713809371, 0.0772454589605, 0, 0.377275258303, -0.12519736588, 0, 0, 0, 0, -0.592884480953, -0.710084378719, 0.322846531868, 0, 0, 0, 0, 0, 0.319222390652, 0, -0.115412861109, 0.402388989925, 0, 0, 0, 0, 0.0807521864772, -0.372333705425, 0, -0.115229815245, -0.240981906652, -0.0264383982867, 0, -0.0810084193945, 0, -0.770044803619, 0, 0.46504843235, 0, -0.22361548245, 0, 0.330072641373, -0.321361631155, 0, -0.356280982494, 0.324613630772, 0.115001045167, 0.367018848658, -0.571761250496, 0.151520609856, 0, -0.363941133022, -0.679587125778, 0, 0, 0, 0, -0.170083731413, 0, -0.557738721371, 0.328040361404, 0, 0, 0, 0.48392868042, -0.215632915497, 0, 0, 0, 0, -0.302800446749, 0, 0, 0.119063258171, -0.35147562623, 0, 0.0605220645666, 0.423658758402, -0.248717084527, -0.346449553967, 0, 0.0550600588322, 0, 0.205968305469, -0.035626064986, 0, 0.0827094018459, 0.390530824661, -0.024772150442, 0, -0.276159733534, 0, 0, 0.307958126068, 0.169523924589, 0, 0, 0.493517488241, 0.306565761566, 0, 0, -0.220428451896, -0.706516087055, -0.128503292799, 0, 0.201777845621, 0.0973702296615, -0.327868074179, 0, 0, 0, -0.0659094750881, 0, 0, 0, 0, -0.655940413475, 0, 0, -0.195686161518, 0, 0, 0.115053512156, 0, -0.0618994273245, 0, 0.459005326033, 0.110334888101, -0.151589557528, 0.399537920952, 0, 0, 0, 0, 0, 0, 0, 0, 0, 0, 0};