//Numpy array shape (10, 32)
//Min -0.780374884605
//Max 0.646854102612

weight_default_t w1[10][32] = {0.469886034727, 0, 0.49105873704, -0.200682103634, -0.442451655865, 0.349089324474, -0.00461332546547, 0, 0.542743623257, 0.0105694588274, 0, -0.439520865679, 0.0936330631375, 0.0439695045352, 0, 0.295308321714, -0.341242134571, 0, -0.158450946212, 0, 0.281340658665, 0, -0.577979207039, 0.331360459328, 0.152280181646, 0.411959022284, 0, 0, 0.16480627656, 0, 0, -0.1764690727, 0, 0, 0, -0.158862888813, 0.300285577774, 0, 0, 0, 0.326164513826, 0.303764522076, 0, 0.257050514221, 0, 0.062592022121, 0.588592231274, 0, 0.386802703142, 0, -0.427033543587, 0, -0.000206599419471, 0.24760761857, 0, 0, -0.65853947401, 0, 0.480021834373, -0.268138796091, 0, -0.652442574501, 0, 0, 0, 0.438910186291, 0, 0, 0, 0.3572678864, -0.397361218929, 0.394868463278, 0.0780302062631, 0, 0, 0, 0.644771695137, -0.34697213769, 0.591501116753, 0, 0.264412999153, 0, 0, 0, 0, 0.063338264823, 0, 0.148377254605, 0, 0.574057936668, 0, 0.0988429412246, 0.0118086850271, 0.365797281265, 0.20612552762, 0, 0, -0.338402450085, -0.10554137826, -0.458934038877, 0.113407559693, 0, 0, 0.0728542357683, 0, 0, -0.0320322774351, 0.0706231668591, 0, 0, 0, 0.285122692585, 0, 0, 0, -0.498597204685, 0, 0, 0, -0.519743859768, 0, 0.646854102612, 0, 0, 0.0946889296174, 0, 0.213585242629, 0.426330417395, 0, 0.307132989168, -0.408271700144, 0, 0, 0, 0, 0.340486526489, 0.580298185349, 0, 0, 0, 0.379427969456, 0.0594677887857, 0.278144806623, -0.307702571154, -0.164764538407, 0.323285609484, 0, 0.137764915824, 0.183085903525, -0.0766139179468, -0.541784107685, -0.363497048616, 0, -0.424634546041, 0.0934605523944, -0.307861149311, 0, 0, 0.642297625542, 0, 0.15372492373, -0.456968694925, -0.619609177113, 0.108014553785, -0.332670778036, 0, 0.110137924552, 0, 0, 0.278278380632, 0.326373547316, 0.149607345462, -0.108291178942, 0, 0, 0, 0, 0, -0.187055394053, 0, 0.26713809371, 0.0772454589605, 0, 0, -0.12519736588, 0, 0, -0.431639403105, -0.0420404225588, -0.592884480953, 0, 0.322846531868, 0, 0, 0, 0, 0.413495451212, 0.319222390652, 0, -0.115412861109, 0.402388989925, 0.162365406752, 0, 0, -0.00471964431927, 0.0807521864772, -0.372333705425, -0.172515034676, -0.115229815245, -0.240981906652, 0, 0, 0, 0.0773022249341, 0, 0, 0, 0, 0, 0.403856545687, 0.330072641373, -0.321361631155, 0.00806753803045, 0, 0.324613630772, 0, 0, 0, 0, 0, -0.363941133022, -0.679587125778, -0.0962254032493, 0, 0.2845274508, -0.124097146094, 0, 0, -0.557738721371, 0, -0.0466306358576, 0.306923151016, 0, 0, -0.215632915497, 0.450591593981, -0.351363986731, -0.421781778336, 0.496215313673, 0, 0, -0.43370205164, 0, -0.35147562623, 0, 0.0605220645666, 0, 0, 0, 0, 0, 0, 0.205968305469, -0.035626064986, 0, 0, 0.390530824661, 0, 0.412245184183, 0, 0, 0, 0.307958126068, 0.169523924589, 0, 0, 0.493517488241, 0, 0, 0, -0.220428451896, -0.706516087055, 0, -0.351199686527, 0.201777845621, 0.0973702296615, 0, 0, 0, 0, -0.0659094750881, 0.18624329567, 0.276881158352, 0, 0, 0, 0, -0.31935557723, -0.195686161518, -0.392601639032, 0, 0.115053512156, -0.346742898226, 0, 0.500961601734, 0.459005326033, 0, -0.151589557528, 0, 0, -0.00381595967337, 0.334656924009, 0, 0, 0, -0.0439685583115, 0.426117956638, 0, 0.155952066183, 0.222431972623};