//Numpy array shape (150,)
//Min -0.672098577023
//Max 1.215308070183
//Number of zeros 0

static bias_default_t b1[150] = {0.034896269441, 0.114453189075, 0.002418752527, -0.672098577023, 1.015615582466, 0.598888218403, 0.858850836754, -0.106890186667, -0.229316905141, 0.237772017717, -0.210558012128, 0.354810625315, 1.215308070183, -0.073908843100, -0.010367066599, 0.034896269441, 0.114453189075, 0.002418752527, -0.672098577023, 1.015615582466, 0.598888218403, 0.858850836754, -0.106890186667, -0.229316905141, 0.237772017717, -0.210558012128, 0.354810625315, 1.215308070183, -0.073908843100, -0.010367066599, 0.034896269441, 0.114453189075, 0.002418752527, -0.672098577023, 1.015615582466, 0.598888218403, 0.858850836754, -0.106890186667, -0.229316905141, 0.237772017717, -0.210558012128, 0.354810625315, 1.215308070183, -0.073908843100, -0.010367066599, 0.034896269441, 0.114453189075, 0.002418752527, -0.672098577023, 1.015615582466, 0.598888218403, 0.858850836754, -0.106890186667, -0.229316905141, 0.237772017717, -0.210558012128, 0.354810625315, 1.215308070183, -0.073908843100, -0.010367066599, 0.034896269441, 0.114453189075, 0.002418752527, -0.672098577023, 1.015615582466, 0.598888218403, 0.858850836754, -0.106890186667, -0.229316905141, 0.237772017717, -0.210558012128, 0.354810625315, 1.215308070183, -0.073908843100, -0.010367066599, 0.034896269441, 0.114453189075, 0.002418752527, -0.672098577023, 1.015615582466, 0.598888218403, 0.858850836754, -0.106890186667, -0.229316905141, 0.237772017717, -0.210558012128, 0.354810625315, 1.215308070183, -0.073908843100, -0.010367066599, 0.034896269441, 0.114453189075, 0.002418752527, -0.672098577023, 1.015615582466, 0.598888218403, 0.858850836754, -0.106890186667, -0.229316905141, 0.237772017717, -0.210558012128, 0.354810625315, 1.215308070183, -0.073908843100, -0.010367066599, 0.034896269441, 0.114453189075, 0.002418752527, -0.672098577023, 1.015615582466, 0.598888218403, 0.858850836754, -0.106890186667, -0.229316905141, 0.237772017717, -0.210558012128, 0.354810625315, 1.215308070183, -0.073908843100, -0.010367066599, 0.034896269441, 0.114453189075, 0.002418752527, -0.672098577023, 1.015615582466, 0.598888218403, 0.858850836754, -0.106890186667, -0.229316905141, 0.237772017717, -0.210558012128, 0.354810625315, 1.215308070183, -0.073908843100, -0.010367066599, 0.034896269441, 0.114453189075, 0.002418752527, -0.672098577023, 1.015615582466, 0.598888218403, 0.858850836754, -0.106890186667, -0.229316905141, 0.237772017717, -0.210558012128, 0.354810625315, 1.215308070183, -0.073908843100, -0.010367066599};
