//Numpy array shape (32, 5)
//Min -3.64978170395
//Max 2.1229121685
//Number of zeros 82

weight_default_t w4[160] = {0.312230348587, 0.788740694523, -0.448492974043, -1.01852440834, 0.0, -0.721093416214, -1.62106609344, 0.403831213713, 0.131851628423, 0.242115572095, 0.0, 0.0, 0.0, 0.0, 0.0, 0.0, 0.0, 0.0, 0.0, 0.0, 0.642080426216, -0.255187034607, -0.372875988483, 0.0, 0.534210562706, 0.0, 0.0, 0.0, 0.0, 0.0, 0.0, -0.11685615778, 0.0, 0.624919056892, -0.130228295922, 0.0, 0.0, 0.0, 0.0, 0.0, 0.0, 0.0, 0.0, -2.00184464455, 0.0, -0.741885900497, -0.513353645802, 0.681920826435, 1.2832788229, -0.938837647438, -1.01253533363, -0.290717720985, 0.875814199448, 0.360713452101, 0.0, -0.0270962193608, 0.0, 2.1229121685, -1.47086727619, 0.0, 0.0, 0.0, -3.15739226341, 0.081098459661, 0.346828907728, 0.0, 0.22780431807, 0.502816140652, -1.36414384842, 0.282910078764, 2.11577248573, 0.0, 0.0, 0.0, 0.0, -0.221658587456, 0.0, 0.0, 0.0649454519153, 0.121223770082, 0.0, 0.720870137215, 0.0, 0.0, -1.52667403221, 0.0, 0.0, 0.0, 0.0, 0.0, 0.923943281174, 0.054508227855, -0.311778277159, -3.64978170395, 0.0, 0.0, 0.0, 0.0, 0.0, 0.0, 1.35119402409, 0.0, -0.587340950966, -0.43789550662, 0.0, 0.0, 0.0, 0.0, 0.0, 0.0, 1.5705332756, -1.13250470161, 0.0, 0.0, 0.0, 0.0, 0.959458291531, -1.1119838953, 0.0, 0.0, 0.0, 0.555648326874, -0.612904667854, 0.651786863804, -0.094828940928, -1.29622733593, -0.823101460934, 0.0, 0.216448530555, 1.40039944649, 0.0, 1.26066493988, -0.328609794378, 0.0, 0.0, 0.239160686731, 0.127405583858, 0.0, 0.246233388782, -1.70633971691, -0.209208011627, 0.0, 0.0260088965297, -1.83941352367, 0.0249147322029, -0.382205486298, 0.961508929729, 0.0, 0.14643932879, -1.01609861851, 0.0, 0.0, 0.0, 0.0, 0.0, -0.865383148193, -0.327788770199, 0.0, 0.0, 1.09589326382};
