//Numpy array shape (32, 5)
//Min -3.6497817039489746
//Max 2.1229121685028076
//Number of zeros 82

weight_default_t w4[160] = {0.31223034858703613, 0.7887406945228577, -0.44849297404289246, -1.018524408340454, 0.0, -0.7210934162139893, -1.6210660934448242, 0.40383121371269226, 0.13185162842273712, 0.2421155720949173, 0.0, 0.0, 0.0, 0.0, 0.0, 0.0, 0.0, 0.0, 0.0, 0.0, 0.6420804262161255, -0.2551870346069336, -0.37287598848342896, 0.0, 0.5342105627059937, 0.0, 0.0, 0.0, 0.0, 0.0, 0.0, -0.1168561577796936, 0.0, 0.624919056892395, -0.13022829592227936, 0.0, 0.0, 0.0, 0.0, 0.0, 0.0, 0.0, 0.0, -2.001844644546509, 0.0, -0.7418859004974365, -0.5133536458015442, 0.6819208264350891, 1.2832788228988647, -0.9388376474380493, -1.0125353336334229, -0.2907177209854126, 0.8758141994476318, 0.3607134521007538, 0.0, -0.0270962193608284, 0.0, 2.1229121685028076, -1.4708672761917114, 0.0, 0.0, 0.0, -3.1573922634124756, 0.08109845966100693, 0.3468289077281952, 0.0, 0.22780431807041168, 0.5028161406517029, -1.3641438484191895, 0.2829100787639618, 2.1157724857330322, 0.0, 0.0, 0.0, 0.0, -0.2216585874557495, 0.0, 0.0, 0.06494545191526413, 0.12122377008199692, 0.0, 0.7208701372146606, 0.0, 0.0, -1.5266740322113037, 0.0, 0.0, 0.0, 0.0, 0.0, 0.923943281173706, 0.05450822785496712, -0.3117782771587372, -3.6497817039489746, 0.0, 0.0, 0.0, 0.0, 0.0, 0.0, 1.3511940240859985, 0.0, -0.5873409509658813, -0.4378955066204071, 0.0, 0.0, 0.0, 0.0, 0.0, 0.0, 1.570533275604248, -1.1325047016143799, 0.0, 0.0, 0.0, 0.0, 0.9594582915306091, -1.1119838953018188, 0.0, 0.0, 0.0, 0.5556483268737793, -0.6129046678543091, 0.6517868638038635, -0.09482894092798233, -1.2962273359298706, -0.8231014609336853, 0.0, 0.21644853055477142, 1.4003994464874268, 0.0, 1.260664939880371, -0.32860979437828064, 0.0, 0.0, 0.2391606867313385, 0.12740558385849, 0.0, 0.24623338878154755, -1.706339716911316, -0.20920801162719727, 0.0, 0.02600889652967453, -1.8394135236740112, 0.024914732202887535, -0.3822054862976074, 0.9615089297294617, 0.0, 0.146439328789711, -1.0160986185073853, 0.0, 0.0, 0.0, 0.0, 0.0, -0.8653831481933594, -0.327788770198822, 0.0, 0.0, 1.0958932638168335};
