//Numpy array shape [64, 32]
//Min -1.341783881187
//Max 0.676052272320
//Number of zeros 0

#ifndef W4_H_
#define W4_H_

#ifndef __SYNTHESIS__
static model_default_t w4[2048];
#else
static model_default_t w4[2048] = {0.37215248, 0.02307660, 0.03617979, -0.07062256, -0.15380996, -0.05378481, -0.47617882, -0.08796306, 0.18268232, 0.11765164, 0.01485362, 0.17482103, -0.20677994, -0.09502165, -0.14021842, 0.02374058, 0.02622317, 0.10781854, -0.05324129, -0.11303327, -0.03122163, 0.03611233, -0.00747242, 0.16492611, 0.08568500, 0.30286583, 0.25668514, 0.05470498, 0.21650030, 0.04292308, -0.12291747, -0.09511334, -0.28883100, 0.12435560, 0.16149360, 0.33873299, -0.12234838, 0.03053896, 0.14852934, 0.24260558, -0.42923009, -0.01741171, -0.16451085, -0.07811146, -0.08049594, -0.50808710, 0.29493323, -0.07338013, -0.01557593, -0.08739335, 0.20253810, -0.19236547, 0.01541172, -0.21902965, 0.15225990, -0.08130354, 0.24447770, -0.02964176, 0.16997488, -0.13696770, -0.15102683, 0.28374889, -0.08336013, 0.12404823, 0.11553150, -0.13200228, 0.00156270, 0.15982302, -0.22891150, 0.00845060, -0.27010661, 0.06795938, 0.19523063, -0.27902481, -0.09035005, -0.18500589, 0.05211072, 0.06519496, 0.09697802, -0.08433347, 0.35717073, 0.16722196, -0.04803463, 0.14303914, -0.02710037, 0.30368495, 0.24266429, -0.03800030, 0.22896720, -0.33367878, 0.25651598, 0.15618707, -0.20520261, 0.17048429, 0.25479925, 0.16358767, 0.20271334, 0.01889879, -0.01775779, 0.12725729, -0.06955680, 0.06738847, -0.16082664, -0.26793674, 0.36210126, 0.03216056, 0.03657307, -0.08160683, -0.17979074, 0.15969270, 0.12730831, -0.26142535, -0.05123258, 0.18570234, 0.01727504, -0.04600326, -0.03404988, -0.02270167, 0.13878801, -0.19554040, -0.10130758, -0.05803663, 0.00029088, 0.18715738, -0.00956870, 0.06986050, -0.11982716, 0.32404354, -0.14735872, 0.20581084, -0.41244403, -0.07113180, 0.07242252, 0.09820136, 0.14102569, 0.22010867, 0.12857613, 0.31608945, -0.35964099, -0.34033161, 0.14596520, -0.23672336, 0.10768231, -0.07500979, 0.29690424, 0.15187909, -0.02042373, 0.11727898, 0.26563033, 0.21762289, 0.17938431, 0.24152642, 0.01109182, 0.15922409, 0.03360188, 0.19265926, -0.44852570, 0.11056925, -0.14878616, 0.20619382, -0.17479816, 0.07273550, 0.09768008, -0.02468858, -0.20266797, 0.01541192, -0.03081479, 0.17677535, -0.31655771, -0.14233357, 0.02172665, 0.15297315, -0.27668771, -0.13985614, 0.01329526, -0.14910004, -0.25885758, -0.41253293, 0.02419836, -0.37924573, 0.17514229, -0.04651387, -0.16492428, -0.00606991, 0.00012407, -0.09729370, -0.02464239, -0.28842217, -0.27189851, -0.17895561, -0.04119318, 0.45718032, 0.32982090, -0.06569252, -0.00552961, 0.16059501, -0.21189962, -0.10621164, -0.14433917, 0.01851954, 0.03965831, 0.37773505, 0.02900412, -0.04601860, 0.21678580, -0.02801087, -0.19098251, -0.06933074, 0.49021161, 0.31639311, 0.27877203, -0.13508020, 0.19450253, 0.07706964, 0.10522363, 0.10651774, -0.11933465, 0.23166209, 0.10014077, -0.03868784, 0.07371868, 0.28531438, 0.13459310, 0.09901395, -0.02829652, 0.03391239, -0.03015347, 0.24875928, -0.13873160, 0.33819070, 0.00019651, -0.05468601, 0.25292549, -0.13373798, 0.21792236, -0.07392832, 0.14917393, 0.16754532, 0.26899505, -0.05980933, 0.06354088, -0.24661422, -0.03338615, 0.07178912, -0.02992382, 0.25063965, 0.22221701, 0.14969073, 0.03882959, 0.36727962, -0.11741878, -0.17867215, 0.02440071, 0.05711640, 0.09258051, 0.09735055, 0.20471983, -0.16636084, 0.33397931, 0.19917287, 0.23178095, 0.02362064, -0.53060198, -0.42524573, -0.06899974, -0.07324769, 0.04443434, 0.04552445, -0.30631644, -0.73216403, -0.16900611, 0.14639053, 0.05671338, 0.15563868, 0.10747764, 0.10743722, 0.07098363, -0.22641829, 0.16661024, 0.31473649, -0.01714696, 0.33170414, 0.08520685, 0.15671507, -0.14639807, 0.20337754, -0.21560864, 0.21555659, 0.10093307, -0.02508524, 0.24005508, 0.09072713, 0.09040822, -0.14863293, -0.23597665, 0.14576900, 0.19498503, 0.03663097, 0.21950521, -0.15520684, 0.12449655, -0.02638716, 0.27897385, 0.04427797, 0.03819183, -0.23206903, 0.40647897, 0.01872943, 0.02120139, 0.08582269, -0.44266558, -0.21970825, 0.08029196, -0.16690080, -0.30099332, -0.02408083, -0.21001458, -0.17428239, -0.19101553, -0.09546160, 0.13696165, 0.12307122, 0.14461477, -0.02067907, 0.21755648, -0.14753892, 0.14029674, 0.58560765, -0.16560066, -0.04790640, 0.03562267, -0.10881048, 0.24050723, -0.23376215, -0.11374687, 0.21826482, 0.11510390, -0.12503369, -0.15333650, 0.09319191, 0.26999715, 0.23703390, -0.02111654, 0.15217444, -0.09412920, -0.11117941, -0.28780437, 0.18665865, 0.12767461, 0.13921379, 0.14306413, -0.04268408, 0.08454160, 0.25460881, -0.11621042, 0.08466280, 0.36006477, 0.30966094, 0.17650935, -0.05556522, -0.25924298, 0.07490806, -0.01320066, 0.11458928, 0.17001021, 0.01343863, 0.01760224, 0.12783854, -0.17789365, -0.06460381, 0.16137290, -0.01120925, 0.19622567, -0.19995880, 0.09490260, 0.21624680, -0.08786546, 0.34942478, 0.14510722, -0.13645923, 0.12762433, 0.21043178, 0.30224761, -0.13045946, -0.21498035, -0.03965734, -0.36691925, 0.12787671, 0.06834542, 0.14427100, 0.07471737, 0.25467262, 0.11120976, -0.02191485, 0.04888909, -0.13368537, 0.09067168, -0.09724036, 0.25432044, -0.08219268, 0.05774916, 0.07156792, -0.02363552, -0.26910165, 0.03298857, 0.00006506, -0.22346443, -0.02667089, 0.24048290, -0.13946250, 0.28167534, -0.22616869, -0.31302384, 0.13615152, 0.09514420, -0.07358912, -0.02568138, -0.31483820, -0.31698999, 0.32908419, 0.18973206, 0.11010721, -0.03965252, -0.26897848, 0.16273437, -0.07507525, 0.08705128, 0.04757853, -0.18842931, -0.16886428, -0.12786187, -0.10807910, 0.21080029, -0.33125034, -0.04072673, -0.65142506, 0.23256062, 0.39770716, 0.14772931, 0.20990592, 0.06611790, 0.14420997, 0.03670345, -0.45078862, 0.15601167, 0.11165043, 0.19845492, 0.15088496, -0.53813833, -0.16703795, -0.06777629, -0.06703991, 0.23896512, 0.15735309, 0.07874349, 0.18442608, -0.14780381, 0.15234506, -0.66099840, -0.25165090, 0.13948795, -0.00363454, 0.25621384, 0.22093514, 0.09319578, 0.30347180, 0.17424177, 0.35537943, 0.02953287, 0.04925648, -0.18411438, 0.00202363, -0.02806124, 0.11629435, -0.24412340, 0.14127734, -0.03857282, 0.34594473, 0.18571584, 0.09754954, 0.02867283, 0.14885807, -0.08651157, 0.03452848, -0.23729882, 0.48278716, 0.22627774, 0.16937278, 0.38204849, 0.24372534, 0.03891933, -0.09058857, 0.13419794, 0.02900307, 0.37275162, -0.05584984, -0.26971740, -0.36245885, -0.35322291, -0.78444022, -0.15988588, 0.30439606, -0.18208073, 0.14109679, 0.04329079, 0.01516204, 0.01910380, 0.02634926, -0.14190464, -0.30187255, 0.09367034, 0.10747117, -0.34162474, 0.02972441, -0.05034750, -0.14404346, 0.02354972, 0.30841246, -0.24103950, -0.04328215, -0.01587494, 0.12593946, -0.02704427, -0.09256517, 0.18177779, -0.10427908, -0.06950128, 0.07494716, 0.00339851, -0.09640533, 0.30265135, 0.15278268, 0.14850199, -0.30237773, -0.13640939, 0.20190050, -0.09069277, 0.22839655, -0.08598324, 0.04874179, -0.15960503, 0.24282077, 0.02796222, -0.00652695, -0.15993929, -0.41357934, -0.00125345, -0.09645366, 0.26039150, 0.40789548, 0.32641932, -0.25026339, 0.27655196, 0.08731301, -0.34141919, 0.40593943, -0.18403386, -0.40182677, 0.23184793, 0.11292648, 0.13095748, 0.19423386, 0.24686994, -0.10763870, 0.08037722, -0.00153188, 0.02438631, 0.29429665, -0.19543090, -0.08855674, 0.02192350, -0.02636081, -0.39786944, -0.04958354, 0.02366054, 0.31664017, 0.05853408, -0.00582213, -0.14989938, -0.05594343, -0.44015831, -0.11608811, -0.10353582, 0.08659402, 0.27187744, 0.10061224, -0.35378900, 0.24659058, 0.24928497, -0.06615749, -0.07025084, -0.01578686, 0.53942919, -0.09216578, 0.18203835, -0.22453907, -0.21088113, 0.12219176, 0.26448858, 0.17222761, 0.18290657, 0.05769947, -0.13964826, 0.01459024, -0.04566018, 0.03908531, -0.17488617, 0.24642769, -0.11548981, -0.08968079, 0.17000073, 0.09598073, -0.21514319, 0.27499628, 0.04887766, 0.18338929, 0.30491373, 0.13957630, -0.04798180, 0.18379270, 0.11849561, -0.10972575, 0.13379635, -0.05281702, -0.02036335, -0.58788979, -0.10596682, -0.63901484, 0.16124265, 0.05196267, 0.11795183, -0.17138426, 0.16559698, -0.02555742, 0.02628019, -0.11940692, -0.00961293, 0.01322612, 0.19203599, 0.11061676, 0.31342930, 0.15500323, -0.20621552, -0.14015296, 0.02992356, -0.10372555, 0.30089712, 0.18493776, 0.08538646, 0.09293200, -0.19542223, -0.09985212, 0.06081426, 0.00798747, -0.04817950, -0.15137075, -0.00918939, -0.35395640, -0.11634666, -0.05730105, 0.01772467, -0.23795418, -0.13978280, 0.04005744, -0.17807585, -0.37198961, -0.10808130, -0.12727901, -0.13165572, -0.04224314, 0.11860251, 0.01383841, -0.43417108, 0.15683691, 0.02061191, 0.15787536, -0.00513271, 0.17472675, 0.03796415, -0.09169687, -0.34151876, -0.32432932, -0.15839973, 0.07550708, 0.10288517, -0.38010061, 0.12838471, 0.08956802, 0.38626429, 0.00751620, -0.33513451, -0.13295692, -0.07189704, 0.19686964, 0.18355104, 0.07104569, 0.00897195, 0.29826230, -0.47139731, -0.37982163, 0.19611186, -0.00438341, 0.23610944, -0.02826471, 0.22815025, 0.00895900, 0.08927999, 0.11856908, 0.05921388, -0.11220842, -0.16275637, -0.23084594, 0.17454584, 0.08157024, 0.40151545, 0.06036623, 0.03824919, 0.67605227, -0.06447537, -0.30133092, -0.52367669, 0.10509492, -0.03642752, 0.23003499, 0.13275979, -0.11495294, 0.06471651, -0.22957999, 0.06100320, 0.38909948, -0.01966673, 0.34106970, 0.25205070, -0.01356066, -0.00292788, -0.19181146, 0.06533693, 0.03960799, 0.14727992, -0.19764106, 0.04684594, 0.07340239, -0.13562022, 0.13041610, -0.34272414, -0.17186423, -0.36405313, 0.04996401, 0.32033962, 0.11589516, -0.30646053, -0.03638130, -0.06460258, 0.16708332, -0.02250893, 0.43542480, 0.05423526, -0.09181780, 0.02753284, 0.02529130, 0.04778522, -0.01774296, -0.13958479, 0.31756809, -0.26050481, 0.21617922, -0.06978225, -0.28520471, -0.56409669, 0.13942397, -0.04179597, 0.15483415, 0.14510405, 0.03164885, 0.33408517, 0.29479864, 0.08335809, -0.17200588, -0.06610870, 0.14961790, 0.32462049, -0.26430646, 0.05777333, 0.10737876, 0.35868859, -0.22594142, -0.13688661, -0.30672291, 0.17485726, -0.00656389, -0.23933437, -0.32448354, 0.07655020, -0.15311562, 0.15868635, -0.14092426, 0.12886575, 0.09613330, 0.13772252, -0.10392831, 0.33062005, 0.30882993, -0.22768979, 0.04193553, -0.06932168, 0.20694627, 0.13151480, -0.04745324, 0.00395569, 0.17402600, -0.06748439, 0.08249126, -0.22333041, 0.18147951, -0.09135680, 0.12672423, 0.07901993, -0.21508171, -0.03801529, -0.30532777, 0.03100903, -0.04812073, 0.21901967, 0.23053101, -0.33332509, 0.05127477, 0.08573568, -0.52886736, 0.24769588, 0.05085678, 0.26334813, 0.14132276, 0.18619709, -0.07996054, -0.33004203, -0.01092595, 0.01704980, -0.02584838, -0.55553460, -0.04964407, 0.22687840, 0.15965828, 0.11076561, -0.06592365, -0.28211984, 0.31129354, 0.12692851, -0.09478306, 0.02141093, 0.10083791, 0.13073330, 0.09897589, -0.20661937, 0.06732340, 0.04755247, 0.40077299, 0.08042741, 0.34437045, 0.16169989, 0.41784838, -0.01915986, -0.00295818, 0.18413731, 0.22970708, -0.95947474, 0.48128849, 0.26005933, -0.24799438, -0.05142993, 0.28976327, 0.16476804, -0.08823086, -0.00916470, -0.68316913, 0.16359569, 0.15367341, 0.20630920, -0.71799475, 0.23543438, -0.09307688, -0.21180154, 0.05441334, 0.08084657, 0.12309990, 0.34199095, 0.04513245, -0.00863214, -0.06978264, -0.30704099, -0.22882122, -0.01933194, -0.52444291, -0.33617049, 0.28346050, 0.07325652, -0.05213284, -0.26632127, -0.08416715, -0.17222995, -0.19777820, -0.08069022, 0.35442171, 0.41204324, 0.08855238, 0.18808524, 0.05482000, 0.12264364, 0.12784289, 0.16280873, -0.24277356, 0.29969403, 0.05053557, 0.03724294, 0.06762754, -0.10723112, -0.24590923, 0.09740859, 0.36488971, -0.02839163, -0.29107514, 0.01674173, -0.02054565, 0.16950193, -0.04880393, -0.05659000, -0.16778515, 0.00414652, 0.01210531, -0.10164502, 0.00852596, 0.10206487, 0.03682019, 0.16416363, -0.10301000, 0.01579949, -0.33259457, 0.36328012, 0.29476008, -0.06050264, -0.22421391, -0.12308850, 0.51250821, -0.06298727, -0.12427288, 0.18329890, 0.05752145, -0.07088950, -0.05859886, 0.28412238, -0.24041730, -0.08018941, 0.07122345, 0.02643677, 0.11207325, 0.13544337, -0.32317948, 0.18570715, 0.06742764, -0.13607383, 0.21108501, 0.12132021, 0.19617538, -0.39814010, 0.00354464, 0.08844697, -0.14306371, 0.39525133, 0.11028772, 0.17372398, 0.32423791, 0.09567115, -0.02287508, 0.14029472, -0.11958355, 0.34391889, -0.13055575, 0.10677103, -0.16237308, -0.01872861, 0.05933132, 0.00199975, -0.23142898, -0.16294353, -0.33315334, 0.07360384, -0.32597944, 0.04309449, -0.19892749, 0.29073173, 0.15939213, -0.05961657, 0.07124591, -0.08922478, -0.38376278, -0.14445224, -0.06159659, 0.14777997, 0.14662497, -0.24519905, -0.26058438, -0.10985427, -0.21722525, 0.12643017, -0.12412305, -0.08408283, -0.10630428, -0.11786467, -0.01358922, 0.23433444, -0.03116127, -0.28065497, -0.03278975, 0.19941573, 0.02286544, 0.27739176, 0.13523331, 0.04111937, 0.00967789, 0.04540838, -0.50202775, -0.08676069, -0.10004494, 0.28039271, -0.11809503, 0.07261597, -0.09505340, -0.03421046, 0.01528455, -0.37029067, -0.30264038, -0.14131548, -0.10597383, -0.17225634, 0.18202028, -0.08901223, 0.14972262, 0.05867494, -0.25346771, 0.01734882, -0.09546802, 0.03192295, -0.24049939, 0.01307508, -0.11908485, 0.01768546, -0.02588405, 0.06851654, 0.15180507, -0.15728307, -0.20928837, 0.02733758, 0.31978312, -0.22374849, 0.24665251, -0.19455419, 0.18367568, 0.15043013, 0.15866727, 0.19992086, 0.18610913, -0.21414079, 0.04531585, 0.06044937, 0.26239479, 0.05488126, -0.11620461, -0.12301710, 0.09296597, 0.14283158, -0.28876325, -0.35683045, 0.00692700, -0.13615631, -0.08503689, -0.10827281, -0.20057985, -0.04298195, -0.08303776, -0.04028811, 0.10255192, 0.21283674, 0.15345810, -0.12166364, -0.09582138, 0.06714817, 0.10142983, 0.26931307, 0.00877615, -0.57878637, -0.03686181, -0.13298625, -0.04734381, -0.20960717, 0.35190275, 0.12426879, 0.01886085, -0.50965637, -0.25395200, -0.03899065, -0.02054370, 0.08539653, -0.20438249, 0.39971247, 0.28761408, 0.05917194, 0.29021746, -0.18869747, 0.18148431, -0.08346021, 0.32527691, 0.11788261, -0.25930884, 0.28258663, -0.17761126, -0.08354848, 0.04447655, 0.33658269, 0.00111306, 0.13558675, -0.15831742, 0.30554017, -0.09746180, -0.49918956, -0.03380375, 0.21911642, -0.05731016, 0.24322239, -0.01808652, 0.28531784, 0.12766697, -0.02791354, 0.14679231, -0.19889455, 0.48793477, -0.11377713, -0.02407391, -0.44908717, -0.40880224, -0.51155394, -0.60473931, 0.08592790, 0.09175150, -0.12469570, -0.15186150, -0.04165535, 0.02258502, 0.38255158, 0.38833606, 0.44547200, -0.18227312, 0.11093976, 0.17325167, -0.23956977, 0.12591784, -0.35457960, 0.17552009, 0.07328726, 0.20379294, 0.01089823, 0.39633423, -0.21430948, 0.32731456, -0.14945737, 0.08714916, 0.10719890, -0.19254830, 0.05953168, 0.15217261, 0.54489428, 0.22471105, -0.11987465, -0.18357202, 0.07839539, 0.12253518, 0.04237413, -0.30974963, 0.05992525, -0.26082426, -0.05663618, -0.04686619, -0.18937843, 0.07409239, 0.13178675, -0.21649846, 0.21655679, 0.15605706, -0.20124583, 0.34661055, -0.06984840, -0.15460363, 0.16667008, -0.01727644, -0.10661398, 0.01303885, -0.03355031, -0.12862508, -0.22938520, -0.04436979, -0.21415749, 0.05620028, 0.21870194, -0.06484705, -0.17288819, 0.04931813, 0.16265354, 0.26043966, -0.02669665, -0.10273319, -0.03933381, 0.30920568, 0.22553281, -0.03086896, 0.25408843, -0.22216685, 0.10717056, 0.03598280, 0.31414828, -0.14986302, 0.11685546, 0.05968723, 0.09083830, -0.11417226, -0.58566135, -0.05096691, -0.15892597, 0.03825052, 0.01871818, 0.08052126, 0.07598007, -0.32679400, -0.33580607, -0.07094490, -0.20262782, -0.35811082, 0.13947618, 0.05817566, 0.03223630, -0.02506837, 0.22711700, 0.17635405, -0.37378240, 0.35869536, 0.19053127, 0.08656001, -0.10100434, -0.29248565, -0.21785446, 0.13906632, -0.10297517, 0.13500348, 0.22794248, 0.26211247, 0.07601230, 0.05264319, 0.16921008, 0.11710341, -0.07720356, 0.19177891, -0.16635971, 0.03416610, 0.05933974, 0.08464503, 0.22363740, 0.19861208, 0.03305189, 0.00443292, -0.08006888, 0.16056809, -0.00348252, -0.00036024, 0.44277066, 0.22779070, -0.03448085, -0.00120272, -0.31200033, -0.07509992, 0.08178163, 0.14376847, 0.18685974, 0.12514076, 0.52362019, 0.03172648, 0.20139846, 0.12039420, -0.68792552, -0.17836303, -0.38394976, -0.05860049, -0.28679106, -0.23104225, -0.30105427, -0.03937316, -0.03222806, -0.35263717, -0.00637326, -0.13269353, 0.59511554, 0.50214297, 0.03190214, -0.53463387, -0.17713483, 0.12263432, 0.19882514, 0.05328332, -0.11453474, -0.31613058, 0.19316687, 0.19019826, -0.12962727, -0.04014887, 0.13237379, 0.21585031, 0.16324656, 0.00870333, -0.06340878, 0.31514281, -0.02537152, 0.05260305, 0.17822152, 0.17699778, -0.16691045, 0.06336221, 0.19343287, -0.07664946, -0.03255831, 0.14764811, 0.08414014, -0.15756156, -0.23074999, -0.33850938, 0.00616178, -0.89581716, 0.03301569, -0.16062866, -0.02078328, 0.02617323, 0.00268131, 0.07704011, -0.10266005, 0.00173266, -0.02407106, 0.15367487, -0.00416128, 0.23205726, 0.12193474, -0.23636621, 0.27083901, -0.27715778, 0.06665731, -0.00883357, 0.25769234, 0.08145741, -0.30894813, -0.16038570, 0.10790363, 0.14225939, -0.01848618, 0.11424649, 0.08901665, 0.14308758, -0.37324697, -0.10589679, 0.07684539, -0.02493754, 0.04297341, 0.13821210, 0.25295761, 0.10088263, 0.03524755, 0.26658747, -0.05641646, 0.09748221, 0.08208561, 0.20483100, -0.19356035, 0.14926866, -0.06995426, -0.09133507, -0.18006723, 0.25469401, -0.09376197, 0.08118287, -0.04736147, 0.04828784, 0.23405379, 0.19372742, 0.04176118, -0.10869242, 0.00476846, 0.25402918, -0.00908285, -0.13869274, 0.03802309, 0.08443400, 0.11847232, 0.08770467, -0.06755904, -0.22857194, 0.07013825, -0.14103840, 0.06237606, -0.16552892, -0.01854130, 0.21069127, 0.18882790, 0.07586657, 0.25228131, -0.09925698, -0.11142563, 0.19354507, -0.23147175, 0.25198179, 0.05620008, 0.15319054, 0.12168240, 0.47521791, 0.02747901, -0.16206759, -0.14116897, 0.02665196, -0.08997238, -0.34012896, 0.21006390, -0.04022212, 0.38913152, -0.00711894, -0.03378983, 0.27867749, 0.25248906, -0.10544702, 0.20691085, 0.00157644, 0.09406890, 0.11344763, -0.22135612, -0.01984274, 0.22611612, 0.30359250, 0.20926185, -0.10085603, 0.02789572, 0.20743509, -0.05949024, 0.28343287, 0.09827413, 0.25402308, -0.01988525, -0.06450476, 0.06339857, 0.18953829, 0.16047265, 0.25378883, -0.20359240, -0.11173017, 0.00570015, -0.08970958, 0.06224736, 0.15487631, 0.03131992, -0.01973347, -0.11264752, 0.08221151, -0.32213849, 0.15003896, -0.11477172, -0.04202581, 0.15862492, -0.29367000, 0.36914855, -0.02252176, 0.11982542, 0.15291151, -0.49154371, 0.05117797, -0.40011108, -0.08492100, 0.10708073, -0.06685253, 0.17809673, 0.13207759, 0.25008827, 0.03753419, -0.23643306, 0.07938506, 0.37162024, -0.18044536, 0.13883312, 0.14970823, 0.06253865, 0.05594410, -0.08340230, 0.16000238, 0.10887998, 0.13961318, 0.17532656, -0.28912842, 0.24576685, -0.22677584, -0.12140882, -0.04870208, 0.07250722, 0.07507589, 0.18244778, -0.09112319, 0.14648743, 0.15103169, -0.15659946, 0.25521922, -0.08446439, -0.01254928, 0.01543386, -0.21366091, 0.22707359, 0.08821470, -0.10128248, -0.04695267, -0.22787847, 0.16799487, 0.07584604, -0.30216068, 0.04278489, -0.57788050, -0.04160199, -1.34178388, 0.07250616, 0.06203138, 0.02859173, 0.07764434, -0.30448097, 0.17396925, 0.24597210, -0.08612885, 0.05592773, -0.03606801, 0.00320412, 0.25248733, -0.27167106, -0.01112949, -0.14507334, 0.33757409, 0.05898500, 0.22846568, 0.10530315, 0.37105191, -0.12437359, -0.17605329, 0.18628660, 0.09924389, 0.16052166, -0.26760533, 0.14852655, -0.23264137, -0.14696617, -0.17252344, 0.13119446, -0.14341664, 0.15626597, 0.24055818, 0.25248715, -0.19629113, 0.12307758, -0.11421216, 0.24376699, -0.12059169, 0.29389459, -0.22866946, -0.14620571, 0.06876843, -0.07392719, -0.10349541, -0.05126341, 0.32750666, 0.23327129, 0.08964679, 0.29043025, 0.14661315, 0.03674312, 0.06098884, 0.03454825, -0.04255988, 0.12495967, 0.11554932, -0.25794283, 0.26938525, 0.00234228, -0.18439275, -0.01296962, -0.32339245, -0.11117010, -0.22717550, 0.38023981, -0.04460876, 0.14303960, 0.04863786, -0.12504494, -0.09909390, 0.11130405, 0.16471808, 0.23726220, -0.10048113, -0.21927427, 0.14092827, -0.28619370, 0.02052240, -0.11724357, -0.05542068, 0.28901681, 0.16212921, 0.36819461, 0.12494400, 0.07326733, 0.17854318, -0.22491419, 0.11807108, -0.25955355, -0.20991990, 0.08496843, -0.33531424, 0.00522511, 0.04882812, -0.04819471, -0.22068098, 0.08137801, -0.24788386, -0.05886582, -0.19024943, -0.22166900, -0.04172696, 0.09363074, -0.07927746, -0.04178266, 0.17948972, 0.29696286, -0.04108096, -0.06585474, -0.15144479, 0.05296738, 0.18597266, 0.29063377, -0.25450790, -0.26599449, 0.14669344, 0.01062536, 0.18319982, 0.25746936, -0.10867514, -0.23990783, 0.07977158, 0.30744806, -0.17267923, -0.04829476, 0.11451528, 0.03434622, 0.24610016, 0.01332051, 0.03374685, 0.15001880, -0.03984714, 0.21143280, -0.19396527, -0.12677117, 0.08229905, 0.03148676, 0.01371857, 0.36847833, 0.23526420, 0.11208156, 0.12099399, -0.04793664, 0.09620193, -0.29264882, -0.05144786, 0.05242566, 0.24726443, -0.15157944, -0.09239843, -0.06485411, 0.13587147, -0.28917360, 0.01518345, 0.17226447, 0.25235817, 0.06471911, 0.12572728, -0.22808455, -0.38497052, -0.39245898, 0.45787561, -0.17232765, 0.08314283, 0.12772858, -0.12833172, -0.04821888, 0.12435509, 0.12563527, -0.18420905, -0.33765945, -0.03092272, -0.09388520, 0.11331299, -0.12193602, 0.16042773, -0.06987333, -0.10179150, -0.13858399, -0.29749140, 0.14639650, 0.14170070, 0.08181950, -0.61658204, 0.33561480, 0.12699541, 0.16817345, 0.26821101, 0.26141569, 0.10116492, -0.08133938, 0.19045553, 0.31733668, 0.12440079, 0.08082335, -0.05408897, -0.10715581, -0.28845710, -0.31459036, 0.25825834, 0.00031022, -0.19527656, 0.22430086, 0.01737880, -0.65692359, 0.11376523, -0.08059448, 0.07949247, 0.05774331, 0.36296731, -0.24165480, 0.45485538, -0.18856990, -0.06894843, 0.59444326, -0.25582474, -0.15473790, -0.46607307, 0.12758815, 0.14263366, -0.03829069, -0.16605064, -0.20321086, -0.16511633, -0.26689303, 0.09927567, -0.45816955, -0.26213977, 0.18138288, -0.09828554, -0.16100527, -0.08304472, 0.11264735, 0.17767657, 0.20765376, -0.32040492, -0.14795804, 0.39643243, -0.11988796, -0.17780265, -0.18696496, -0.26831722, -0.12526785, -0.42535028, -0.12068424, 0.00709650, 0.14374681, -0.20294638, -0.09366748, -0.07304400, 0.27421719, -0.05772649, -0.01709783, -0.07089812, -0.09110098, -0.04768465, 0.39166954, -0.33813453, 0.55694443, 0.31398964, -0.34620553, -0.67631024, 0.01213424, 0.15129602, 0.08605597, -0.66586167, 0.32941243, -0.14211045, 0.18411137, -0.07894596, 0.26262286, -0.02779059, 0.25197515, 0.23681162, 0.04378862, 0.34021556, 0.12938242, 0.03863150, 0.02209434, 0.11859817, -0.45328823, -0.10887855, -0.11213612, 0.35881060, 0.04098665, 0.09925204, 0.11425193, -0.48751819, -0.37696445, -0.02321332, -0.11245757, 0.14250171, 0.31396440, 0.12356491, 0.42883655, -0.01909388, -0.06361255, 0.00387986, 0.42986757, -0.24527766, -0.04853930, 0.09518628, -0.05468597, -0.09661680, -0.21840411, -0.02281006, -0.15065375, -0.05814092, 0.09391282, -0.10239799, -0.11294075, 0.01560796, -0.00047147, -0.17000744, 0.23374970, 0.19231863, 0.31954879, 0.00634537, 0.19890299, 0.00996449, -0.00055834, -0.03034684, 0.18996465, 0.18226902, 0.28010517, -0.04681642, 0.19843553, 0.12043703, -0.18697338, -0.17436759, 0.20134951, 0.10627234, -0.15288286, 0.11374316, 0.08705099, -0.03406918, -0.18475701, -0.27725127, 0.16063158, -0.04732092, 0.13761459, -0.08044712, -0.32379150, 0.14564165, -0.23319635, -0.16878510, 0.00776420, -0.03513842, -0.24820402, -0.10325977, 0.10760140, 0.10095306, -0.41926429, -0.00791611, 0.01327139, 0.00159491, 0.11653507, -0.07392595, -0.05640077, 0.06628423, 0.19396064, -0.12050475, 0.27484328, -0.02206894, -0.12277935, 0.16813506, -0.29533195, 0.02103349, -0.08415711, 0.13761418, -0.16498046, 0.07857997, 0.06447444, 0.08477195, -0.07337754, -0.09719752, 0.26250204, 0.19846620, 0.05636294, -0.17821959, 0.15457891, -0.19034086, -0.03670512, 0.02752048, 0.18569466, 0.00560134, -0.13143837, -0.12162248, 0.10151219, -0.13291499, -0.61004114, 0.32387221, 0.05908656, 0.08128604, 0.31476071, -0.01596590, 0.22096790, -0.05814791, 0.13096747, 0.07404461, 0.19081326, 0.11485805, 0.13665415, -0.16282023, 0.19471399, -0.45441556, 0.05964510, -0.00069840, -0.24436237, 0.12035993, 0.34719858, -0.12615305, -0.18028724, -0.04739974, -0.17096876, -0.17190915, 0.14275783, 0.10659337, -0.01152910, 0.27655542, -0.04603652, -0.00168677, -0.32277933, 0.32023740, 0.12755133, -0.07067583, 0.08307748, -0.10816351, 0.01953256, -0.13649237, 0.13323236, 0.04484645, 0.05297229, 0.14194095, -0.04521915, 0.21277495, 0.19833890, 0.04476437, 0.00789801, -0.31287286, 0.29444948, 0.15569569, 0.10041930, 0.12002445, -0.12753454, 0.05777073, 0.04804597, -0.20790781, 0.06126961, 0.05591117, -0.01581199, -0.15893480, -0.28762153, -0.11376185, -0.41027460, 0.27217543, -0.00481661, -0.21719801, 0.47593316, -0.17068557, 0.08402131, 0.01954413, -0.06671231, -0.48284698, -0.38043222, -0.03195397, 0.35853919, 0.31908911, 0.14037608, -0.25347465, -0.30311823, -0.21259290, -0.33962351, -0.16030014, 0.24543864, 0.15133856, 0.34305811, -0.16137673, -0.05263069, 0.09286317, 0.07519741, 0.12313066, -0.19787796, 0.36907601, 0.10765097, 0.20002106, -0.55864811, 0.10165200, -0.06304935, 0.34691626, -0.28898171, 0.19025844, 0.20639478, 0.26373503, -0.24789195, 0.03616346, 0.21433872, 0.31819728, -0.33236009, -0.01443466, -0.03915311, -0.28358743, 0.03930448, -0.39817798, 0.01311361, -0.09543137, 0.21199186, -0.10526519, 0.43760011, 0.01937157, 0.26325229, 0.07669765, 0.11274250, -0.00900600, 0.22080033, -0.16414778, -0.55591881, -0.00282248, 0.18619063, 0.12116084, 0.02184396, -0.10223602};
#endif

#endif
