//Numpy array shape [32, 32]
//Min -3.223938465118
//Max 0.725557982922
//Number of zeros 0

#ifndef W6_H_
#define W6_H_

#ifndef __SYNTHESIS__
static model_default_t w6[1024];
#else
static model_default_t w6[1024] = {-0.6778, -0.0078, -0.2379, 0.2546, -0.0285, 0.2670, 0.5120, 0.0131, 0.1313, -0.0340, 0.0304, 0.0140, -0.3546, -0.2592, -0.2049, 0.1961, -0.2110, 0.1024, -0.1743, -0.2024, -0.0320, 0.2301, 0.3013, 0.0880, 0.3396, 0.0936, -0.0567, -0.0984, 0.4895, 0.0600, 0.1086, 0.4088, 0.2486, 0.3327, -0.1882, 0.1070, -0.3089, -0.3022, -0.3079, -0.0757, 0.1773, 0.0844, -0.0711, 0.2819, -0.2123, 0.2050, 0.3173, -0.1385, 0.0027, -0.2010, 0.1864, 0.1105, -0.2683, -0.5143, 0.0063, -0.1134, -0.2875, 0.0011, 0.1822, -0.0902, 0.1417, 0.1366, -0.9605, 0.2152, 0.2619, -0.0429, -0.1246, -0.2938, -0.0394, -0.1352, -0.0221, -0.0424, -0.3009, -0.0409, 0.0515, 0.0115, -0.1033, 0.0301, -0.1009, 0.2963, -0.2736, 0.0263, 0.1609, 0.0030, -0.1588, 0.1936, 0.1218, -0.2762, -0.0059, -0.3003, 0.1872, -0.1461, -0.2091, 0.1010, -0.2819, -0.1294, -0.4601, -0.3065, 0.0689, 0.0782, 0.3070, -0.1879, 0.0701, -0.2185, -0.0669, 0.1254, -0.1921, 0.1868, 0.2597, 0.1526, 0.1003, -0.2656, 0.2652, 0.2315, -0.2902, -0.1779, 0.3580, -0.2580, -0.1347, -0.0243, -0.1144, 0.2517, -0.2320, 0.0508, -0.1588, 0.2048, -0.1553, 0.1659, -0.1964, -0.2303, 0.0070, -0.2789, -0.2587, 0.2492, -0.0104, 0.0603, -0.0726, -0.0646, 0.2712, 0.2726, -0.0819, -0.2671, 0.2101, 0.2827, -0.0152, -0.0143, -0.2420, 0.2781, 0.2051, -0.0647, 0.2799, 0.2390, 0.3265, 0.0411, 0.2509, 0.0832, 0.1234, 0.0878, 0.1195, 0.1774, -0.2806, 0.1238, -0.1465, 0.1953, -0.0612, 0.0718, 0.0864, 0.0577, -0.2443, -0.0258, 0.0250, 0.0055, -0.2293, -0.2312, -0.2262, -0.2211, 0.2250, -0.1230, 0.2691, 0.0879, 0.0328, 0.1298, -0.1431, -0.0024, 0.3340, -0.3068, 0.3197, 0.2399, -0.2060, -0.0566, -0.6802, -0.0781, -0.5950, -0.1230, 0.0436, -0.0438, -0.2086, -0.0065, -0.2033, -0.1488, -0.1438, 0.1951, 0.1638, 0.2355, -0.2305, 0.0450, -0.2110, -0.1326, 0.1722, -0.2032, 0.1440, -0.0612, 0.3271, 0.1589, -0.0179, -0.1121, -0.1269, -0.0558, -0.0142, 0.2711, -0.2063, -0.2346, 0.0008, -0.3119, 0.1431, -0.2555, 0.1203, -0.1437, -0.1591, -0.2054, -0.2964, -0.1284, -0.1407, 0.1165, -0.1926, -0.1082, 0.1155, -0.2756, -0.2460, -0.1614, -0.0047, -0.2745, -0.0234, 0.1840, 0.1515, 0.0977, -0.1573, -0.0779, -0.0185, -0.2469, 0.0490, 0.2010, -0.2868, 0.0529, 0.0288, 0.0472, -0.6085, 0.1187, 0.1010, -0.2769, -0.2336, 0.1478, 0.3425, 0.1120, -0.0364, 0.1365, -0.3291, -0.2839, 0.1156, -0.0530, -0.3053, 0.0084, -0.0757, -0.0336, 0.0475, -0.2343, -0.0875, 0.0894, -0.0965, 0.0877, 0.0789, -0.1895, 0.1189, 0.1510, 0.1857, -0.1284, 0.1139, 0.0757, 0.3071, 0.2621, 0.2157, 0.2570, -0.3086, -0.0014, -0.0649, 0.0251, -0.2128, 0.1253, -0.1336, -0.2606, -0.2964, 0.1394, -0.2063, -0.0560, -0.0289, -0.1887, 0.1776, -0.1132, -0.1288, -0.2690, -0.1386, -0.2674, 0.1836, -0.2565, 0.2439, -0.1209, -0.2022, -0.1259, -3.2239, 0.2413, -0.0396, 0.0943, 0.3931, 0.1423, 0.0551, -0.1127, 0.2506, -0.2214, 0.2582, -0.0836, -0.2552, -0.1883, 0.0285, -0.0213, 0.2889, 0.1939, 0.1160, 0.1199, -0.1106, 0.0134, 0.2222, -0.0080, -0.2472, 0.1551, -0.2399, 0.1746, 0.2655, -0.2379, -0.0188, -0.1561, 0.4496, 0.2604, -0.1902, -0.2788, 0.1151, -0.1131, 0.2776, 0.0734, 0.1517, -0.0993, 0.0644, 0.2649, -0.2418, -0.2526, 0.2336, -0.2758, 0.2468, -0.2763, -0.1836, -0.2783, 0.0801, -0.1038, -0.2281, -0.2326, 0.2090, -0.2224, -0.1098, -0.1805, -0.2181, -0.0000, -0.0150, 0.0287, 0.0338, 0.1162, -0.0010, -0.0710, -0.4877, -0.0860, -0.1690, 0.0962, -0.1528, -0.0609, -0.4992, 0.1721, 0.1554, -0.1003, 0.1497, -0.2475, 0.3131, -0.1535, 0.2958, 0.1738, -0.1346, -0.0367, -0.0951, -0.2374, 0.2112, 0.0426, -0.2900, 0.4453, 0.0412, 0.1624, -0.3836, 0.2450, 0.4044, -0.2636, 0.1073, 0.2909, 0.0439, 0.0360, 0.1169, 0.2811, 0.0283, -0.0923, -0.5138, 0.1207, 0.1792, -0.2790, 0.0523, -0.1962, 0.0775, -0.1524, -0.0459, -0.1476, 0.1646, -0.0199, 0.2930, 0.0956, -0.0980, 0.1882, 0.2886, 0.1724, -0.2364, -0.2005, -0.2432, -0.1440, 0.3342, 0.0072, -0.1645, -0.0797, -0.1850, 0.2180, 0.2814, 0.0264, -0.2354, -0.1209, 0.1255, -0.0979, -0.3845, 0.1267, 0.1918, -0.2694, -0.1676, -0.2243, 0.1813, -0.2904, 0.2053, -0.0054, 0.0102, 0.2085, 0.1714, -0.2623, -0.0487, -0.1767, -0.2574, 0.2407, 0.1619, -0.0274, -1.6636, -0.0152, 0.1214, 0.3730, -0.0982, 0.2547, 0.0511, -0.1714, 0.2540, -0.1131, -0.0953, -0.0946, 0.0556, -0.2307, -0.1324, -0.1331, 0.0592, 0.2894, 0.0005, 0.1896, 0.2139, -0.0143, 0.3448, -0.0491, 0.2914, -0.0216, -0.0768, 0.0332, -0.2908, 0.2820, 0.3262, -0.2270, -0.0801, 0.3457, -0.0982, 0.2415, 0.1995, -0.1295, 0.1282, 0.1753, -0.0301, -0.2151, -0.0241, 0.1461, 0.1943, 0.1892, -0.1276, 0.1404, -0.3571, -0.0455, 0.1757, 0.2226, 0.1191, 0.2284, -0.0343, 0.2831, -0.0914, -0.2046, -0.0670, -0.0236, -0.2264, -0.1405, -0.0256, -0.1239, 0.0224, -0.1172, -0.3197, 0.1148, -0.2868, 0.2308, -0.0895, 0.1460, 0.1064, 0.1216, 0.0048, 0.2449, -0.0484, 0.2349, -0.1560, 0.1512, -0.0172, 0.0725, -0.0783, -0.2334, -0.0510, 0.2534, -0.3407, -0.2352, -0.1938, -0.2117, 0.2133, -0.4406, 0.2023, 0.2205, 0.0679, 0.2147, -0.0204, 0.1061, -0.2423, 0.0867, 0.0526, 0.0168, -0.0619, 0.0669, 0.4999, -0.0089, 0.1929, -0.2906, -0.0676, -0.0205, 0.0963, -0.0434, 0.1163, 0.0812, -0.3639, -0.0258, -0.1432, -0.0824, -0.2703, -0.3857, -0.1006, 0.2760, 0.4513, 0.2194, 0.0895, 0.2555, 0.0048, -0.2739, -1.3663, 0.0698, -0.4096, -0.3133, -0.1694, 0.2097, 0.2359, 0.0034, -0.0804, 0.2304, 0.2560, -0.1531, 0.1055, 0.2456, -0.0302, 0.2207, -0.3042, -0.2301, 0.2569, -0.1154, -0.1787, 0.1508, -0.1097, 0.3904, 0.2495, -0.1502, -0.1207, -0.2109, 0.0171, 0.2183, -0.0428, -0.0900, 0.0047, 0.1644, 0.0192, -0.3259, 0.1786, -0.1044, -0.1161, 0.2736, 0.0196, 0.1254, 0.2835, -0.1673, -0.4218, -0.0294, 0.0216, 0.3089, -0.2211, -0.1224, -0.0303, -0.1233, -0.2621, 0.1319, 0.1381, 0.1841, 0.2344, 0.2887, 0.3176, -0.4778, 0.3045, 0.2009, 0.2838, 0.0419, 0.0000, -0.3454, -0.0005, -0.2102, 0.2974, -0.1031, -0.0570, -0.0487, -0.1254, 0.3056, -0.2270, 0.4130, 0.0213, -0.1392, 0.1806, 0.0668, -0.1779, -0.0686, 0.3327, -0.0738, 0.1394, -0.2590, 0.1065, 0.1048, -0.0675, -0.2906, -0.2240, 0.1818, 0.2512, -0.2217, -0.1049, -0.2058, 0.1929, -0.3561, 0.6007, -0.1288, -0.1344, 0.0477, 0.2012, -0.0967, -0.1813, 0.0977, -0.5843, -0.0508, 0.1444, 0.1715, -0.1014, 0.0273, -0.2100, -0.2444, 0.2983, 0.1033, -0.3100, 0.2007, 0.0973, 0.0886, 0.0159, 0.1112, -0.2757, 0.6397, 0.2974, -0.1772, -0.2931, -0.0118, 0.1595, 0.0553, -0.4804, 0.0315, -0.2633, 0.3115, 0.2939, 0.0584, 0.3091, 0.0229, 0.3654, -0.0261, -0.3427, 0.1991, -0.1231, -0.3021, -0.2048, 0.0312, -0.1328, 0.1887, -0.0982, 0.0129, 0.0407, -0.1700, 0.0052, -0.2386, 0.0106, -0.2172, -0.0244, 0.1239, 0.0741, -0.2146, -1.7918, 0.0781, 0.7256, -0.2783, -0.1076, -0.2738, -0.1198, 0.2765, -0.6771, -0.1728, -0.4980, 0.3239, 0.3332, 0.1241, 0.0963, 0.1999, -0.0395, -0.1720, -0.0964, 0.2151, 0.1210, 0.0590, -0.1287, 0.1490, -0.2800, -0.1672, -0.4401, 0.5351, 0.1819, -0.3692, -0.5273, -0.2041, 0.6135, -0.0870, -0.1878, 0.1124, -0.0506, 0.0714, -0.1568, -0.1384, 0.0343, 0.1834, 0.0725, -0.1513, 0.0520, -0.1506, 0.0582, 0.1615, 0.0895, 0.1334, -0.0860, -0.2822, 0.2813, 0.2235, 0.3899, -0.2806, -0.1612, 0.0930, 0.0623, -0.0102, 0.0128, 0.3344, 0.1239, -0.2367, -0.4882, 0.3834, -0.3918, 0.1078, -0.2536, 0.2913, -0.0535, 0.0242, -0.2429, 0.1703, 0.0374, -0.2132, 0.2617, -0.0970, -0.0616, 0.2273, 0.2232, 0.2554, -0.1612, -0.2989, 0.0314, -0.1569, -0.1040, 0.1824, 0.1537, -0.2292, 0.1016, 0.1756, -0.2206, 0.1231, -0.0528, -0.1121, 0.1184, 0.1667, -0.0529, -0.0316, 0.0189, 0.1051, -0.0282, 0.1200, -0.0578, 0.0265, 0.2790, 0.0321, -0.2577, -0.2787, 0.1169, -0.0138, -0.1140, 0.0398, 0.3076, -0.1691, -0.0192, -0.1513, -0.1142, 0.3182, 0.1067, -0.2778, -0.0872, 0.2679, 0.2325, -0.2997, -0.0966, 0.0013, -0.4845, -0.1627, 0.2622, -0.0911, -0.1108, 0.2819, -0.0519, -0.2197, 0.0762, 0.0940, -0.1729, -0.2131, 0.0930, 0.2701, 0.0388, -0.2747, -0.0335, 0.2986, -0.0499, 0.0260, 0.1065, 0.0647, -0.0047, 0.1904, -0.2038, -0.2790, -0.0828, 0.4747, 0.0289, 0.2190, 0.0525, 0.1736, 0.1994, -0.0932, 0.0764, 0.1341, 0.2241, 0.0241, 0.2025, 0.0248, 0.0219, 0.1767, -0.1886, -0.0785, -0.0845, -0.3314, -0.2238, -0.1637, -0.0786, -0.3056, -0.0049, 0.0021, 0.2186, -0.0313, 0.2616, -0.2678, 0.2885, -0.2623, -0.1704, -0.2427, 0.1237, 0.1406, -0.1070, -0.1865, -0.0001, 0.2074, -0.1872, 0.2816, -0.0421, 0.1215, 0.1369, 0.0355, -0.2690, 0.1673, -0.1698, 0.3282, 0.3686, 0.0731, -0.2781, 0.0875, 0.2297, 0.1660, -0.2028, 0.0644, 0.0394, 0.3098, -0.0501, 0.0718, 0.2261, 0.2597, 0.2859, -0.0199, 0.1388, 0.1816, -0.1623, -0.2300, 0.4469, 0.0106, -0.2691, 0.0640, 0.0649, -0.0757, 0.0902, 0.0370, -0.2790, -0.1025, -0.1724, 0.1047, 0.1082, -0.1178, -0.2515, -0.1650, 0.0726, -0.1170, -0.2087, 0.0815, -0.1238, -0.0932, -0.0202, -0.2306, -0.1977, -0.1915, 0.0298, -0.2310, 0.2032, -0.1319, 0.2805, -0.0121, -0.2395, -0.2590};
#endif

#endif
