//Numpy array shape [32, 32]
//Min -1.628347158432
//Max 1.217982649803
//Number of zeros 0

#ifndef W6_H_
#define W6_H_

#ifndef __SYNTHESIS__
static model_default_t w6[1024];
#else
static model_default_t w6[1024] = {0.04439944, -0.16835938, -0.72035474, 0.18386415, -0.21391732, 0.41399142, -0.05423540, 0.06178164, 0.24020821, -0.24587482, 0.36764866, 0.05172051, -0.44610113, -0.31229156, -0.25707367, 0.30492195, -0.18701105, 0.05309166, 0.01524468, 0.01599655, -0.04473994, 0.15298504, 0.41039550, 0.08176695, 0.05361269, 0.07946111, 0.03993473, -0.10120209, 0.19061719, 0.41294733, 0.40070775, 0.31651673, 0.14940937, 0.44712219, 0.17113988, 0.24222611, 0.31180215, -0.31649005, 0.30556217, 0.13133897, 0.99178112, 0.22705670, -0.28272817, 0.34526518, 0.59226549, 0.26239607, 0.03662365, -0.31973657, -0.38599271, -1.30666530, -0.01431481, 0.42775092, 0.00100831, -0.29949790, -0.30055180, -0.82449323, -0.13657622, -0.26427269, 0.23718251, -0.00472442, 0.24126948, -0.02200465, 0.11055531, 0.29635960, 0.25907865, -0.02234821, -0.12739022, -0.36363846, -0.32679605, -0.16365424, 0.00481857, -0.06878510, -0.58753914, -0.04186770, -0.00811453, 0.03772973, -0.12897122, -0.03579243, -0.05748263, 0.32833174, -0.27786627, -0.47488594, 0.16326295, -0.57825202, -0.16429186, 0.22816205, 0.14097613, -0.28425720, -0.29089901, -0.16317004, 0.03923328, -0.48585770, -0.17585859, 0.10096904, -0.20823674, -0.64480382, 0.36737084, -0.12167048, 0.12683007, 0.16133976, 0.32915837, -0.28943443, 0.11713513, -0.10345337, 0.10202480, 0.21312752, 0.26886281, 0.25563517, -0.02002104, 0.22200176, -0.33759701, -0.99886829, 0.31633255, 0.10412586, -0.32835752, -0.10182356, 0.19020179, -0.19031176, -0.31647313, -0.13625687, 0.03536711, -1.54387426, -0.21637133, 0.34317735, -0.01319101, 0.49592766, 0.19621539, 0.21191788, 0.11757877, -0.25718573, 0.20646745, -0.15596056, -0.25015399, 0.46210197, -0.47139564, 0.02862453, 0.42818877, 0.00961810, 0.37128323, 0.20940195, -0.05688520, -0.71433580, 0.27590507, 0.12271600, 0.12498925, -0.16875209, -0.13051690, 0.59353608, 0.15962286, 0.09048907, 0.26526919, 0.08997663, 0.59369451, -0.08060434, 0.16150187, 0.70503050, 0.24135248, 0.22495556, 0.23508175, 0.09301806, 0.25904372, 0.10114629, 0.00631968, 0.10000994, -0.05003623, 0.08692831, -0.10003722, 0.02915312, -0.40423793, 0.01616129, 0.05693911, 0.01521459, -0.23366225, -0.04437954, -0.30984491, 0.08759581, 0.42046651, -0.08397785, 0.08212058, 0.15019692, 0.06897429, 0.21346878, -0.13395903, -0.23346026, 0.32599574, -0.06268697, 0.42606077, 0.08640786, -0.45879269, -0.33253664, -0.32471567, -0.15867348, -0.10361579, 0.03750630, 0.24470359, -0.05386209, -0.17690831, -0.13390645, 0.16750443, -0.28161910, -0.84757268, 0.27872518, -0.04630373, -0.08695883, -0.04535241, 0.56188416, 0.24919045, 0.01531602, 0.43984902, -0.13849255, 0.31395397, 0.00706060, 0.30757800, 0.15223201, -0.19276924, -0.15912855, -0.00848460, -0.24215183, 0.42925361, 0.13651951, -0.08022466, -0.38268238, -0.75324893, -0.15871754, 0.11259017, -0.27168652, 0.10565275, -0.17002560, -0.18321837, -0.23870905, -0.29864976, -0.14775918, -0.14992629, 0.08603626, -0.19526626, -0.14226675, 0.11326541, -0.29204670, -0.24901313, -0.16475976, -0.03545063, -0.27667916, -0.03061699, 0.14386669, 0.11767717, 0.06390910, -0.16111645, -0.07740213, -0.05612275, -0.25255802, 0.03607617, 0.19611816, -0.29573008, 0.03513831, -0.00215961, 0.02255202, -0.29743057, 0.21088555, 0.24813911, -0.25650409, 0.00295479, 0.09060647, 0.54531455, 0.37379509, -0.07551892, 0.24843408, -0.26854461, -0.22066066, 0.22748302, -0.43050554, -0.17486551, -0.14321259, -0.11846270, -0.89883196, 0.13710901, -0.09776555, 0.12228052, -0.17890607, -0.08005631, -0.02569832, 0.15059650, -1.52993119, -0.58121127, 0.04899897, -0.05839521, 0.25573206, 0.17647184, 0.15001279, 0.21788822, 0.38422278, 0.58020502, 0.37404358, -0.18117774, 0.03659539, 0.33874226, -0.00999288, -0.81667072, 0.30931848, -0.16178599, -0.67681086, 0.11715513, 0.02924537, 0.09701097, 0.00956511, 0.19953518, -0.09403367, 0.28215697, -0.18330345, 0.28090203, -0.07589324, -0.08135925, -0.33723721, 0.25876021, 0.25341937, 0.06354296, 0.02872452, -0.76707870, -0.59978372, -0.63483429, 0.21431230, -0.35309950, 0.21910502, 0.35259888, 0.27920642, 0.07399040, -0.11922114, 0.42657125, -0.15092072, 0.12847465, 0.01601292, -0.37816453, -0.13150764, 0.22853759, 0.01180431, 0.23647599, 0.04159041, 0.08035576, 0.18027540, 0.01108839, 0.10830526, 0.23418601, -0.14233617, -0.37879124, 0.19227675, -0.00999045, -0.05909799, 0.28672054, 0.05469422, 0.13160676, -0.24833190, 0.16648325, 0.45555794, 0.03322239, -0.09113108, 0.29795641, -0.02858756, 0.40835917, 0.03489514, 0.52440959, 0.11091390, 0.34416151, 0.40071377, -0.40731508, -0.20555677, 0.20394380, -0.74718034, 0.07440858, -0.75052273, 0.18671583, -1.62834716, 0.20520329, -0.17632760, -0.14495662, -0.48694491, -0.03232328, -0.41989681, 0.03694834, -1.24140072, -0.75936598, -0.05364287, -0.09986746, 0.76223648, -0.03849753, 0.27041408, -0.39316174, -0.17392974, 0.17358063, -0.04922561, -0.38160613, 0.02335607, 0.33465049, -0.60592872, -0.50274837, 0.12979314, 0.32869145, -0.15745810, 0.48358703, -0.44308358, 0.74318874, -0.00835089, 0.11937444, 0.25840521, -0.12490813, -0.07027911, 0.03721089, -0.22199900, 0.27362600, 0.04344197, 0.08731928, 0.36949760, 0.20228802, 0.34260726, -0.02720511, -0.08560251, -0.28137621, 0.01959928, 0.06982484, 0.31452900, 0.34090593, 0.02905823, 0.02859524, 0.26568517, 0.24905653, 0.00837169, 0.06980769, 0.15696771, -0.32309899, -0.50885159, 0.12901501, -0.70895833, 0.32366568, -0.67124403, -0.13893151, -0.18056037, 0.23901032, -0.06773217, 0.39254433, 0.02088355, 0.00099876, 0.30346128, 0.31917685, -0.57219797, -1.14505959, -0.13425696, -0.31389531, -0.40028971, -0.11346874, -0.24409099, -0.24195267, -0.09956546, 0.25113696, 0.26065707, 0.29934821, -0.00736210, -0.60517979, 0.00065894, -0.19414943, 0.08821465, 0.75645691, -0.01003831, -0.62452662, -0.63428539, -0.42437741, 0.40717870, 0.26151183, -0.37376204, -0.21248001, 0.32467169, 0.13226430, 0.36136544, -0.24171241, -0.91258055, -0.09254088, -0.55333960, -0.93715608, 0.29948190, -0.62006015, -0.35388535, -0.14559610, -0.72682858, 0.18752895, 0.37752110, 0.02590985, 0.37503248, 0.04487150, -0.10403907, 0.08595894, -0.17598243, -0.03186665, 0.07461566, -0.18541175, -0.28442866, 0.20230263, 0.03000310, 0.07604989, 0.25990978, 0.00151576, 0.29197866, 0.38749334, 0.07982514, 0.35485348, 0.07325356, 0.22083102, 0.05111999, 0.08829070, -0.42217460, -0.19541258, 0.57604373, 0.41789788, -0.30156359, -0.06024665, 0.54128820, 0.24779384, 0.23539984, 0.18952507, -0.05208603, 0.43867871, 0.29789093, 0.14794451, -0.32047728, -0.22690779, 0.17499177, 0.32577485, 0.19948356, -0.83727252, 0.47770306, -0.39518222, 0.08194780, 0.30018058, -0.02024750, -0.17093210, 0.33470565, 0.15091971, 0.24497248, -0.15158185, -0.89595634, -0.15095358, -0.06463405, -0.11854709, -0.39517039, -0.09422386, -0.16289005, 0.07358751, 0.05937847, -0.01772947, 0.24239755, 0.18823452, 0.27476332, -0.06828507, 0.17249581, 0.02353600, 0.11631246, 0.14199321, 0.39740309, 0.24602631, 0.26888061, -0.22913982, 0.02489531, 0.18699205, 0.05916912, 0.10192001, -0.29609215, -0.13996853, 0.44877657, -0.28426290, -0.13388708, -0.13339986, -0.43661663, 0.30394423, -0.16310304, 0.17484951, 0.37350971, 0.14317504, -0.03110872, 0.22060040, -0.02271242, 0.10128745, 0.15754351, -0.52950037, -0.05570696, -0.51769519, -0.02953323, 0.08536031, -0.05352129, 0.22047693, -0.45682427, 0.04968379, -0.11510499, 0.59591603, -0.02868300, 0.33443701, 0.01002527, -0.19986977, 0.49344152, 0.25672451, -0.39585552, -0.43372676, 0.00270604, 0.33089286, 1.21798265, 0.13495736, 0.36563322, 0.08620101, 0.27124977, -0.25509977, 0.12389075, -0.17921500, 0.07937618, 0.12475494, -0.36702991, 0.05169788, 0.28483447, 0.29679206, 0.06900856, 0.13682230, 0.27435204, 0.41521192, -0.09459060, 0.34748378, 0.24552578, -0.71094614, 0.42903322, -0.19709906, 0.00196938, 0.32104847, -0.33564985, -0.09594677, 0.17921585, 0.10183831, 0.25243872, 0.35966691, -0.39363363, -0.28233492, 0.00993809, 0.07194338, -0.05142046, -0.07995115, 0.13518924, 0.17108285, 0.27677703, 0.43157279, -0.36457390, 0.40950635, -0.17846870, -0.16722810, 0.35502934, -0.29238915, 0.13737151, 0.47708911, -0.11742274, -0.27773520, -0.03593000, -0.26546246, 0.22752668, -0.12452037, -0.27401015, 0.11286746, -0.20180261, -0.31703979, 0.26465037, 0.17055093, 0.20930615, 0.22535364, 0.17847353, 0.41351372, -0.12891066, 0.09703720, 0.24913053, 0.28005904, -0.33580989, 0.02046425, -0.46421358, -0.19133639, -0.10207508, 0.35233578, -0.02297166, 0.05254915, 0.00214729, 0.31539014, 0.39173245, -0.38605607, 0.32661685, -0.88050324, -0.16531999, 0.29024029, 0.06323078, -0.49538288, -1.07842612, 0.47658774, -0.10575495, 0.03174860, -0.13828884, 0.23701687, -0.05401726, 0.09895813, -0.31839520, 0.02962139, -0.04250104, -0.48513463, -0.71029532, -0.76064736, -0.01625588, -0.22523911, -0.13325812, 0.42891717, -0.11369679, -0.45950830, 0.10371865, 0.26704314, -0.11167154, 0.68396753, 0.03412283, -0.00740360, -0.22927302, 0.31281379, 0.12529843, -0.65814883, 0.16100353, -0.43205157, -0.22456476, 0.36144692, -0.01531560, -0.56828010, 0.46016234, -0.00792175, 0.06562501, -0.22165321, -0.23979807, 0.06957547, 0.05423043, 0.43856493, 0.06045894, -0.10245480, -0.11331420, -0.26145750, 0.03151998, -0.32281896, 0.01839257, -0.23796667, 0.17151392, 0.32149372, 0.03976122, -0.19226493, 0.24183100, 1.04580712, -0.06711940, -0.00884308, 0.28422275, 0.19293441, -1.02920091, -0.58475006, 0.34528941, -0.22143523, 0.20307259, -0.14686082, -0.15202379, 0.10531727, 0.13929257, 0.17444997, -0.00662322, -0.20972557, 0.09582097, -0.04791050, 0.18908878, -0.17830905, 1.11277616, 0.21473889, -0.45300269, 0.57146400, -0.41540077, 0.30851406, -0.28348544, -0.26167515, 0.25523010, 0.09361531, -0.54198152, 0.14717704, -0.08876663, 0.29048064, 0.22169124, -0.16975407, 0.77434707, 0.13885155, 0.10895142, 0.07457884, 0.34092236, 0.12868437, 0.12121456, -0.06072113, 0.10443675, -0.41558173, -0.58788836, -0.14506058, 0.52418280, 0.30623293, -0.20020251, -0.15917048, -0.52120709, -0.25974825, 0.42675009, -0.32683074, 0.14767967, 0.59779572, 0.11843618, 0.30529565, 0.00258258, 0.16190274, 0.07973882, -0.07435303, -0.13261935, 0.08852626, -0.29727238, 0.68641281, -0.21289454, 0.16800186, 0.12245151, -0.32772878, -0.82883066, 0.49391147, 0.33064449, 0.18771905, -0.32460496, -0.38632500, -0.35320339, 0.25569370, -0.18793756, 0.03650550, 0.76820660, 0.29516041, -0.42428440, -0.28501040, 0.41706577, 0.22167131, 0.09588709, -0.46833748, 0.27736595, -0.01395007, 0.10675128, -0.48870668, 0.30646062, 0.24084175, -0.23833176, 0.30932221, -0.31485090, -0.18264164, 0.46803215, -0.00411945, 0.37336525, -0.06813455, -0.28670016, 0.20819022, -0.31680357, 0.03974208, 0.12581708, 0.34586957, -0.04360952, -0.05387385, 0.10875536, -0.21271381, -0.00701240, -0.15851904, 0.21687791, 0.26723516, 0.34904099, 0.61583430, 0.05176035, -0.13030359, 0.16281234, -0.09003513, 0.31751776, 0.35136262, 0.07074187, -0.04142471, 0.00371523, 0.24973486, -0.69305283, 0.12931751, -0.44058213, 0.07998440, 0.21436833, 0.37128007, -0.05647240, 0.34229633, -0.16321518, -0.04610573, 0.15650368, 0.38525805, -0.27611640, -0.08948117, 0.18937287, 0.35023156, 0.54028869, -0.22894506, -0.32169420, -0.31377280, 0.13513614, 0.04018083, -0.22693898, -0.45519418, 0.32343987, -0.17388615, -0.03814638, -0.19969968, 0.17307940, -0.27152067, -0.70233297, -0.01449855, 0.32798454, 0.68374085, -0.23477757, -0.04847260, 0.39197901, -0.24263139, 0.12164537, 0.22887528, 0.06633924, -0.61220264, 0.26792088, 0.01080744, 0.95345259, 0.04646792, 0.29226205, 0.13189740, 0.52349305, 0.06478434, -0.00535557, -0.07809114, -0.03970088, 0.13691278, 0.29244119, 0.15935421, 0.08941101, 0.31376541, 0.14165488, 0.32845518, 0.20353979, -0.43410721, 0.01529912, 0.19424996, -0.66181904, 0.03324974, -0.37081596, 0.11712054, -0.16447295, 0.03400712, 0.13619161, 0.58741879, -0.16899230, 0.30277011, -0.24286877, 0.53680432, -0.01536832, -0.23648486, -0.29389751, 0.18876828, 0.65834308, -0.24689268, -0.78673238, -0.01724775, 0.43572438, -0.33538458, 0.19780394, -0.28046730, 0.14962721, -0.01300620, 0.10065487, -0.40632007, 0.25548625, -0.04147612, 0.15724665, 0.34524480, -0.02094681, -0.31585672, -0.48616704, 0.16984566, 0.12607647, -0.38749513, -0.03406149, 0.20749617, 0.24920236, -0.20098375, -0.07805961, 0.11698005, 0.37792698, 0.32131311, -0.26542485, -0.01274974, 0.65377301, -0.07328749, 0.03271301, -0.05774025, 0.03863505, -1.01183736, 0.13076063, 0.49189577, -0.03274389, -0.36740339, 0.09587009, -0.20408791, 0.01525169, 0.18853262, 0.08715879, 0.21925685, -0.21417899, 0.54941434, -0.56199902, 0.26178533, -0.07959613, -0.39575481, 0.19860552, 0.14067128, -0.30142254, -0.19370680, -0.27955309, 0.01849262, 0.38254172, 0.21689107, -0.10880053, 0.25291312, -0.05372605, 0.30789143, -0.07448274, -0.22514080, -0.23352167};
#endif

#endif
