//Numpy array shape [32, 5]
//Min -2.136852025986
//Max 1.330190062523
//Number of zeros 0

#ifndef W8_H_
#define W8_H_

#ifndef __SYNTHESIS__
static model_default_t w8[160];
#else
static model_default_t w8[160] = {0.3395, -0.6568, 0.1099, 0.2153, 0.2048, 0.0636, -0.0260, -0.2065, 0.7438, -0.4703, -0.1098, 0.2181, 0.1154, -0.2928, 0.1135, -0.1944, -0.0882, 0.2013, 0.4187, 0.1636, 0.3726, -0.1581, 0.0640, 0.3383, 0.0965, -0.1680, -0.1947, -0.0081, -0.3164, -0.2273, -0.0525, -0.2993, 0.3971, -0.4656, -0.2631, -0.0886, -0.0405, 0.0163, -0.0205, 0.3015, 0.3615, -0.2365, -0.0262, 0.0141, 0.0291, 0.3475, -0.0407, 0.1925, 0.0052, -0.0624, 0.3137, 0.1806, -0.1681, 0.2019, -0.1130, 0.4504, 0.1693, -0.2312, 0.0466, 0.1316, -0.1529, 0.2544, 0.1254, -0.0750, 1.3302, 0.1260, 0.2956, 0.1102, -0.0386, -0.3420, 0.1831, 0.0471, -0.0305, 0.1276, 0.2318, 0.2431, -0.6621, 0.1539, -0.3294, -0.2655, -0.0068, 0.0441, -1.4259, 0.0516, -0.0108, 0.6539, 0.3312, -0.9299, -0.8163, -0.0115, -0.3126, 0.1322, -0.0770, 0.0113, 0.1927, -0.2479, -2.1369, -0.0974, 0.2975, 0.1086, 0.1198, 0.2306, 0.0825, 0.0219, 0.4127, 0.7128, -0.0984, -0.0818, -0.8606, -0.2419, 0.0927, 0.2653, -0.0956, 0.0910, 0.2184, 0.0853, -0.0204, 0.1345, -0.0303, 0.5434, 0.6847, 0.0599, -0.0554, 0.1188, -0.2698, 0.1155, -0.2498, -0.1468, 0.4596, 0.0211, -0.0229, -0.6297, 0.3180, -0.1418, 0.1500, 0.2886, -1.1910, -0.1465, 0.1830, -0.0693, 1.2917, -0.0017, -0.5479, 0.2719, -0.2569, 0.0252, -0.0199, -0.0775, -0.2106, -0.5215, 0.0663, -0.2214, -0.4473, 0.3001, -0.2093, -0.3118, 0.0866, -0.1832, 0.1486, 0.2743};
#endif

#endif
