//Numpy array shape (512, 10)
//Min -0.980898678303
//Max 0.230677619576
//Number of zeros 0

#ifndef __SYNTHESIS__
weight_default_t w3[5120];
#else
weight_default_t w3[5120] = {-0.014411034994, -0.435183614492, -0.112045459449, 0.017388755456, -0.228449076414, -0.236275285482, -0.172021076083, -0.503562510014, -0.223093673587, 0.022767892107, -0.035005375743, -0.012360327877, -0.200790435076, 0.019213840365, -0.265649646521, -0.057243179530, -0.151680171490, -0.005403961055, -0.402800381184, -0.100072614849, 0.085303045809, -0.363469272852, -0.598313331604, -0.235497906804, 0.035195633769, 0.037000384182, 0.096821799874, -0.497280895710, -0.061361122876, -0.014791693538, 0.033254664391, -0.386356592178, -0.247717171907, 0.090637788177, 0.111224338412, 0.022994160652, -0.135599434376, -0.269979745150, -0.203005656600, -0.496970921755, 0.108414977789, -0.272750467062, -0.040058724582, -0.588589370251, -0.052162561566, 0.075081236660, 0.025141457096, -0.092983953655, -0.277242332697, -0.270858556032, -0.218530088663, -0.199072524905, -0.177424490452, -0.158844634891, -0.202985763550, -0.186286509037, 0.102202914655, 0.093954123557, -0.171122312546, -0.334504723549, -0.054840471596, -0.336791425943, 0.032217789441, 0.042032197118, -0.197681263089, -0.023508490995, 0.015913106501, -0.385820925236, -0.012804989703, -0.076177321374, 0.028815029189, -0.286111146212, -0.043548241258, -0.258049964905, 0.044932648540, -0.313131004572, -0.481074333191, -0.001841973746, -0.330850422382, -0.054114937782, -0.181848376989, -0.191288188100, -0.313837587833, 0.104576513171, -0.265997946262, -0.304439902306, -0.367541193962, -0.185810983181, 0.145076900721, 0.018269600347, 0.102729000151, -0.035796396434, -0.006100193597, -0.115030176938, -0.414954602718, 0.021527972072, -0.490157365799, -0.450641721487, 0.007158929948, 0.035086110234, 0.013978715055, -0.121515288949, 0.057593438774, -0.188342720270, -0.035240199417, -0.026473145932, -0.138471662998, -0.021840909496, -0.416902780533, -0.372418642044, 0.042166542262, -0.066156782210, -0.149501726031, -0.007624011487, -0.020980125293, -0.108120143414, -0.055994424969, -0.229544907808, -0.373285710812, 0.030851811171, -0.491455882788, -0.043308805674, -0.085312351584, -0.034944996238, 0.078526400030, 0.087719887495, -0.036944679916, 0.008167070337, -0.451086431742, 0.045168563724, -0.058564677835, 0.108044743538, 0.042096164078, -0.007571939845, -0.321469277143, -0.040756594390, -0.196431338787, -0.079911351204, 0.111825831234, 0.047488093376, 0.009568419307, 0.066395185888, -0.128439962864, -0.068398371339, -0.241120710969, 0.005982339848, -0.484744518995, -0.308699697256, 0.057795967907, -0.206919342279, -0.047423433512, 0.006202056538, 0.053506597877, -0.285084158182, -0.341096967459, -0.147296532989, 0.041842412204, -0.088213764131, -0.618480741978, -0.553760886192, 0.021507389843, -0.154046013951, -0.335814386606, -0.040569249541, -0.161434113979, -0.224685415626, -0.210103288293, -0.109324976802, -0.315187036991, -0.097486607730, -0.191817238927, -0.315369278193, -0.264791399240, -0.360688537359, -0.250432431698, -0.248302623630, -0.033797636628, -0.083409577608, -0.040940124542, -0.278477847576, -0.304159611464, 0.023482637480, -0.326798498631, -0.422004163265, -0.165309250355, -0.585176765919, -0.137611925602, -0.236588940024, -0.115808807313, -0.184390217066, -0.085171364248, -0.244186937809, -0.018517421558, -0.106097295880, -0.327277362347, 0.033456400037, -0.374645501375, -0.351247012615, -0.055084556341, -0.156194195151, -0.056072298437, -0.224665164948, -0.033573698252, -0.065024688840, -0.262477815151, -0.024380216375, -0.349083244801, -0.304891496897, -0.217391416430, 0.024485904723, -0.287032544613, -0.275460332632, -0.077701762319, -0.114646337926, -0.047894731164, -0.188593327999, -0.144549727440, -0.099245727062, -0.276127308607, 0.016885267571, -0.149905741215, 0.019092757255, -0.084372162819, -0.126146554947, -0.377333164215, 0.053257819265, -0.202227205038, 0.018431661651, -0.148025915027, -0.032934855670, 0.012142223306, 0.030271025375, -0.187883645296, -0.087503001094, -0.266528904438, -0.504052698612, -0.159506067634, -0.353983998299, -0.036106135696, -0.240479290485, -0.391797065735, -0.099546797574, -0.177147313952, 0.085613243282, -0.081128925085, -0.000293529447, 0.049017649144, -0.215528726578, 0.030106037855, 0.000746804348, -0.014381120913, -0.166177958250, -0.359296381474, 0.006117656827, -0.000518663728, -0.561862647533, -0.056401964277, -0.234794631600, -0.196528717875, 0.041464500129, -0.000789871032, 0.084816783667, -0.159058079123, -0.476775050163, 0.133950382471, -0.168014407158, -0.180862739682, -0.256588339806, 0.011389982887, -0.251816540956, 0.116533599794, -0.148827359080, 0.129516765475, -0.059517931193, -0.301840871572, -0.000008751078, -0.410161375999, -0.194375544786, -0.125952184200, -0.048758704215, -0.022606534883, -0.075825229287, 0.072932116687, -0.275335311890, -0.100641615689, -0.525704562664, -0.097298510373, -0.217013046145, -0.322962343693, -0.136606827378, -0.337494134903, -0.124820604920, -0.255412727594, -0.436185091734, -0.225852236152, -0.277030169964, -0.264172911644, -0.004759799689, -0.179930374026, 0.089576542377, 0.034276604652, -0.215305864811, 0.133568629622, -0.094489783049, -0.339181482792, 0.013980665244, -0.293827801943, -0.042657863349, -0.367383658886, 0.087772145867, -0.334010928869, -0.072529621422, -0.164013668895, -0.294186830521, -0.197889640927, 0.109039962292, -0.412866175175, -0.228038132191, -0.240758463740, -0.452135056257, 0.081437893212, -0.179935827851, -0.183947995305, -0.195683971047, -0.378133028746, -0.127493605018, -0.048848826438, 0.017525071278, 0.039645981044, -0.062472980469, -0.261823505163, -0.274557471275, -0.222668841481, -0.038601402193, -0.091740399599, -0.399067223072, -0.034562386572, 0.036241482943, 0.113477095962, -0.371606826782, -0.015344654210, 0.120531663299, -0.673458039761, -0.329413264990, -0.483833760023, -0.276067435741, 0.088961832225, -0.080250777304, -0.367878377438, -0.017286522314, -0.323296457529, 0.038146652281, -0.054795853794, -0.006269942969, 0.006368194707, -0.390329957008, -0.195293098688, 0.036403361708, 0.038123190403, 0.149359300733, -0.207450672984, -0.050724133849, 0.096299640834, 0.070272080600, -0.385369032621, -0.072282619774, -0.224995538592, 0.014853055589, -0.213630065322, -0.259299337864, -0.540042757988, -0.251983165741, -0.124781303108, -0.038240101188, -0.316841006279, -0.087495803833, 0.047899410129, 0.036480944604, 0.028243642300, -0.573267161846, 0.012541971169, -0.253605782986, -0.044221449643, -0.158531814814, 0.025346985087, -0.181390613317, -0.157728433609, -0.336183279753, 0.010835980065, -0.289704650640, 0.045581240207, -0.225121885538, 0.111188344657, -0.342334449291, -0.186493456364, 0.008218524978, -0.144840732217, 0.002024858259, -0.292200654745, -0.311738044024, -0.285452067852, 0.014433503151, 0.001475872588, -0.152332559228, 0.046157687902, -0.064595595002, 0.013519106433, -0.148345828056, 0.044426642358, -0.273176908493, 0.010848059319, -0.371772408485, 0.025523370132, 0.086919300258, -0.178088545799, -0.162421002984, 0.096793927252, -0.324486553669, 0.028164504096, -0.212964266539, -0.184941053391, -0.166858494282, -0.291162133217, -0.209905207157, -0.473548799753, -0.164133235812, -0.062221966684, -0.072340779006, 0.048626039177, -0.016779914498, -0.052019320428, -0.334622710943, -0.523021101952, 0.039865847677, -0.275660127401, -0.345793485641, -0.143174752593, 0.025580208749, -0.266182810068, -0.344945579767, -0.015864988789, 0.058372829109, 0.060662873089, -0.151362404227, -0.386300593615, -0.432716220617, 0.053299143910, -0.277071475983, -0.049219809473, 0.065083011985, -0.224174991250, -0.436670422554, -0.016861129552, -0.395320653915, -0.255308032036, -0.121336616576, -0.181297346950, -0.104270674288, -0.270868927240, -0.183966621757, -0.025393232703, -0.252815455198, 0.041613612324, -0.170528814197, -0.183391153812, 0.064501017332, -0.342626720667, -0.212915748358, 0.005488389637, -0.271036863327, -0.091760799289, -0.241716459394, -0.197972059250, -0.204987511039, -0.200903370976, 0.057686924934, -0.146402075887, -0.091131173074, -0.161612942815, 0.093239165843, -0.236832574010, -0.318282037973, -0.197525337338, -0.279761165380, -0.160132348537, -0.251659601927, -0.366292804480, -0.285048902035, -0.297277629375, 0.088641621172, -0.112458534539, -0.127674117684, -0.373820275068, -0.031138524413, 0.109488926828, 0.061100002378, -0.003375999397, -0.283926546574, -0.484266400337, -0.217192411423, 0.041591845453, -0.264284521341, -0.316892743111, 0.028367681429, -0.060569316149, 0.015539201908, -0.154537886381, -0.478751361370, -0.211159512401, 0.080151766539, -0.497782528400, -0.374697953463, -0.156641304493, -0.308036088943, -0.375770032406, -0.334015399218, 0.105230011046, -0.171999976039, -0.139952316880, 0.081731490791, 0.000866867544, -0.161196351051, -0.365273386240, -0.233087375760, -0.473126649857, 0.076719008386, -0.275279790163, 0.038132149726, -0.171054542065, -0.263823151588, -0.130797743797, -0.350011259317, -0.168907314539, 0.080153062940, -0.073308058083, -0.196993738413, -0.138518318534, -0.027667168528, -0.310097664595, 0.010963850655, 0.001682544360, 0.095975704491, -0.389800935984, 0.066744074225, -0.140327453613, 0.127570897341, -0.385717600584, -0.451201468706, 0.004100474995, 0.217355012894, 0.082210540771, -0.061568677425, -0.043547399342, -0.007659553550, 0.084570549428, -0.423276722431, -0.502796709538, -0.248221963644, -0.350804537535, -0.402356624603, -0.258598327637, 0.013305043802, -0.068904824555, 0.027385625988, -0.050862453878, -0.022574909031, -0.060421518981, 0.021190661937, 0.026281967759, -0.443012446165, 0.140793293715, -0.019578376785, -0.052321366966, -0.396841377020, -0.575627624989, 0.072866447270, 0.017939560115, -0.089756324887, -0.083658322692, 0.003006818937, -0.301356405020, -0.345409691334, -0.110768720508, -0.381868392229, -0.014962341636, -0.240291655064, -0.046765569597, -0.050371464342, -0.122499085963, 0.115722700953, 0.079052731395, 0.031004361808, -0.009694508277, 0.002060358878, -0.089907713234, -0.058498647064, -0.051111306995, 0.038193237036, -0.001032232423, 0.050041478127, -0.406093865633, -0.137874409556, 0.105830185115, -0.005353199784, -0.012856438756, -0.073971085250, -0.237652495503, -0.480786383152, 0.070141553879, 0.020464826375, -0.360515326262, -0.148397192359, -0.318901658058, -0.254095613956, -0.223728448153, 0.016327591613, -0.117003403604, -0.018400847912, -0.197878077626, -0.320939570665, 0.005529880989, -0.294041842222, -0.123701356351, 0.032085899264, -0.193380221725, -0.380248963833, -0.360003560781, 0.036762308329, -0.080098122358, -0.399389326572, -0.390616983175, 0.028706669807, -0.541005671024, -0.375010728836, -0.046424474567, -0.486036658287, -0.420434415340, -0.154992416501, 0.180561617017, -0.248982354999, 0.050918526947, -0.253428220749, -0.037856210023, -0.043182376772, 0.054859288037, 0.024414068088, 0.070563778281, -0.155302569270, -0.275614440441, -0.318242132664, -0.131158128381, -0.131464719772, -0.471296012402, -0.179430931807, -0.238802224398, -0.361896216869, 0.034715455025, 0.077484235168, -0.306892126799, -0.090795695782, -0.464080750942, -0.170687124133, -0.029939120635, 0.005964300595, -0.419704735279, 0.017511442304, 0.018509611487, 0.019636934623, -0.672045469284, -0.010633939877, 0.024996491149, -0.000489690690, -0.085911162198, -0.088674962521, -0.226975515485, -0.291195541620, -0.237376034260, -0.191417500377, 0.100850790739, -0.184076324105, -0.143844231963, -0.218184307218, -0.031972792000, 0.072344481945, 0.004726081155, -0.146940290928, 0.050456456840, -0.185944974422, -0.347335189581, 0.069746091962, -0.333692491055, -0.226948082447, -0.058815430850, -0.077268496156, 0.032993350178, 0.057506859303, -0.205988764763, -0.236999377608, 0.057199325413, -0.171538978815, -0.467708885670, -0.185582786798, -0.137605980039, -0.138508111238, 0.003872852307, -0.310719609261, -0.106199368834, -0.336703002453, -0.318397730589, -0.206922039390, -0.060725804418, -0.073432356119, -0.338432788849, -0.193411588669, 0.030837785453, -0.423739284277, -0.219471260905, -0.249249875546, -0.014178439975, -0.551114261150, -0.245301634073, -0.089450985193, 0.010698815808, -0.037695247680, -0.064132995903, -0.031240202487, -0.133669033647, -0.208618760109, -0.110377997160, 0.089206986129, 0.144361391664, -0.013328007422, -0.269070655107, -0.023606669158, -0.310287863016, 0.019804507494, -0.051159624010, -0.038565848023, -0.036096423864, 0.031707927585, -0.076407529414, -0.314461201429, -0.137441962957, -0.409943819046, -0.053471408784, 0.024275740609, -0.258556246758, -0.080605857074, 0.022669339553, -0.158964842558, -0.037879709154, 0.016861995682, -0.297410994768, -0.179124608636, -0.024019964039, -0.410353124142, -0.094442732632, -0.111430674791, -0.383296549320, 0.024791507050, 0.015588565730, -0.190474405885, -0.308347284794, 0.003106312361, 0.017428448424, -0.268861502409, -0.161851122975, -0.142799511552, -0.450354337692, 0.064242534339, -0.173940420151, -0.372586250305, -0.240144684911, 0.014212501235, 0.013804962859, -0.429222196341, -0.059840176255, -0.214681565762, 0.049942091107, 0.048005141318, -0.279039502144, 0.024008564651, 0.116218842566, 0.036489788443, -0.142717137933, -0.335994571447, -0.287636280060, -0.211423888803, -0.349410980940, 0.173318699002, -0.044610567391, -0.227463379502, 0.039843291044, -0.351039797068, -0.146850734949, -0.353393465281, 0.021936122328, -0.280882775784, -0.160335049033, -0.005065688863, 0.024355009198, -0.126012980938, 0.039642151445, -0.140506714582, -0.070247918367, -0.223275035620, -0.064684189856, 0.043335247785, -0.015567765571, -0.124479122460, -0.359335809946, -0.019189085811, -0.389865368605, 0.050386022776, -0.024382196367, -0.050459250808, -0.183686375618, -0.160467371345, -0.251774728298, -0.338745266199, 0.026227369905, -0.446372628212, 0.014264763333, 0.037957686931, 0.129120394588, 0.037129580975, 0.016910044476, 0.026305880398, 0.066415727139, -0.042311545461, -0.167809262872, -0.104092203081, -0.280688196421, 0.005304336548, -0.118583254516, -0.281644016504, 0.088130980730, 0.025148378685, -0.234414696693, -0.211839556694, -0.042893081903, -0.402486562729, 0.111503541470, -0.050007302314, -0.118346303701, -0.457162588835, -0.416954338551, -0.130969554186, -0.337082684040, -0.234983444214, -0.433033108711, 0.007023271173, -0.240185365081, 0.018732422963, -0.261811792850, 0.070635236800, -0.228287965059, 0.014506775886, 0.032527156174, -0.263002961874, -0.285440504551, -0.159079551697, -0.044630058110, -0.294441074133, -0.016732105985, -0.549852967262, -0.539745986462, -0.480458706617, 0.070608548820, -0.133536681533, 0.010038722306, -0.011667708866, 0.055654000491, -0.175764992833, -0.338357329369, 0.031339392066, -0.338606715202, -0.364743798971, 0.091661326587, 0.018453491852, -0.335392862558, -0.131033450365, -0.230733931065, -0.274109840393, -0.506407558918, -0.215412572026, 0.056183271110, -0.444173872471, -0.291466146708, -0.152440398932, -0.122529812157, 0.058466024697, -0.311278611422, -0.387435972691, -0.040578030050, 0.045133445412, -0.163001984358, -0.083312228322, -0.224589601159, 0.060001708567, -0.404266089201, -0.185974404216, -0.094130016863, -0.055881183594, -0.072757177055, -0.070268064737, 0.057740826160, -0.024727718905, -0.090846315026, -0.357350111008, -0.038484297693, -0.377341538668, -0.057876259089, -0.291715890169, -0.259292304516, 0.023490069434, -0.079543836415, -0.067055888474, -0.076390668750, -0.419225275517, -0.000817706168, -0.126184523106, -0.325954616070, 0.065789662302, -0.110239967704, 0.091516599059, -0.192319095135, 0.015965925530, -0.461136490107, -0.315050125122, -0.353921204805, -0.140656381845, -0.399300128222, 0.030876766890, 0.000405394821, -0.143854334950, -0.142279222608, -0.177258849144, -0.423202633858, -0.339860469103, -0.310400754213, -0.051375471056, -0.521673977375, -0.312173992395, 0.032539848238, 0.122090533376, 0.057102777064, -0.205406948924, -0.315512329340, -0.458253473043, -0.004392637406, -0.283444434404, -0.042112335563, 0.064552381635, -0.032236732543, -0.249895721674, -0.192951723933, -0.609412670135, 0.040057968348, -0.195933163166, -0.186192721128, -0.643307387829, 0.090879425406, 0.036518014967, 0.034767549485, -0.081620953977, -0.279173672199, -0.265305906534, -0.123448632658, -0.082800053060, -0.013256930746, -0.061330575496, 0.011599936523, -0.329433619976, -0.768545925617, -0.032100465149, -0.039055954665, -0.362581968307, 0.014658695087, -0.262993752956, -0.182991310954, 0.031025493518, -0.162918806076, 0.035312507302, -0.315133184195, 0.098750069737, 0.114820346236, -0.158531799912, -0.009131948464, -0.486739397049, -0.225605785847, -0.225529879332, -0.102943964303, 0.044819887727, -0.239340469241, -0.363737672567, 0.003548523411, 0.019586769864, -0.445768296719, -0.401326268911, 0.053582411259, -0.032706853002, -0.347523182631, -0.274882346392, -0.236481547356, -0.111378602684, 0.061247788370, -0.463835626841, -0.178928196430, -0.019469665363, 0.039585918188, 0.027675414458, -0.040650311857, -0.244609236717, -0.021978115663, 0.063548989594, 0.036945704371, -0.233218014240, -0.427580714226, -0.190206944942, -0.054741386324, -0.385920256376, 0.001751643955, -0.098691962659, -0.204974830151, -0.012596746907, -0.357904613018, 0.006056281272, -0.100598365068, -0.293022185564, 0.074045263231, -0.245352149010, -0.112728729844, 0.003059000243, -0.181441619992, -0.155389398336, -0.178233176470, 0.013637988828, 0.058366283774, -0.292666196823, -0.276683419943, -0.215128451586, -0.063032239676, -0.096247255802, 0.030607828870, -0.029077358544, -0.317592084408, -0.010282608680, 0.047959055752, -0.043663758785, -0.162722364068, 0.007086053956, -0.379181504250, -0.054227717221, -0.018304983154, -0.155576452613, 0.010521389544, -0.177734836936, -0.258998543024, -0.055771108717, -0.000069931950, -0.266671240330, -0.073569640517, -0.019560167566, 0.087974362075, -0.190285980701, -0.314312785864, -0.346038997173, -0.203605979681, -0.018349062651, -0.364039748907, -0.376666903496, 0.050910331309, 0.014654513448, -0.006281040143, 0.022644665092, 0.013324087486, 0.012939308770, 0.062359023839, -0.363948911428, -0.174261599779, -0.059434168041, -0.000087421125, -0.059508007020, -0.056637410074, -0.318588197231, -0.080450601876, -0.000570656150, -0.057980004698, -0.055242460221, -0.225310489535, -0.398314923048, -0.306393742561, -0.257749587297, -0.147160351276, -0.207550197840, -0.348993778229, 0.038906391710, -0.335382044315, 0.098500020802, -0.339048326015, -0.074683330953, -0.116512715816, 0.035227168351, -0.158233001828, 0.056177116930, 0.052127912641, 0.008696869947, -0.052876289934, -0.252900481224, -0.458457678556, -0.202727764845, -0.340080857277, -0.147639900446, -0.230479598045, -0.343064069748, 0.064238794148, 0.050738696009, -0.381791979074, -0.018604699522, -0.282110959291, -0.323855280876, 0.037430584431, -0.179344698787, -0.246721938252, -0.218681141734, -0.230003654957, 0.005758150015, -0.259352445602, -0.015521366149, 0.057363748550, -0.042305950075, 0.006106608082, -0.352882951498, -0.004339545500, 0.019606471062, 0.054288566113, -0.248736366630, -0.315088093281, -0.049804560840, 0.046010322869, -0.339312314987, -0.227459639311, -0.017497243360, -0.216502249241, -0.379107922316, 0.006683656015, -0.333113849163, -0.143478631973, -0.348285079002, 0.010970305651, -0.059727184474, -0.330517053604, -0.317071318626, -0.044299196452, -0.018525481224, -0.183308213949, -0.293853491545, -0.007606680505, 0.003418105189, -0.008117164485, -0.020570218563, -0.054719232023, 0.013443214819, -0.241625592113, -0.273517459631, -0.297721028328, -0.031729049981, 0.051617063582, -0.069198168814, -0.350501567125, -0.057685326785, -0.215235620737, 0.002705713501, -0.064864821732, -0.307999163866, 0.062028262764, -0.346023380756, -0.226094126701, -0.066213086247, -0.396929949522, 0.013435631059, -0.365390688181, -0.133751630783, -0.238085106015, -0.031544428319, 0.016093021259, -0.005200851709, -0.305295586586, 0.084001630545, -0.231317728758, -0.136354282498, -0.331980109215, 0.062660105526, 0.087774291635, -0.082587137818, -0.109719678760, -0.157865405083, 0.046528130770, -0.290363222361, -0.377713710070, -0.208462402225, 0.091478198767, 0.096294052899, -0.195740908384, 0.052344039083, -0.015618928708, -0.288770616055, 0.025711840019, -0.232051625848, -0.195890352130, 0.079415924847, -0.410433679819, 0.026987088844, -0.261334657669, -0.348903566599, -0.230538204312, -0.281471610069, -0.312756627798, -0.056968376040, -0.041442658752, 0.071353249252, -0.029405381531, -0.079371348023, -0.355357110500, -0.330430120230, -0.032574016601, 0.006072751712, -0.002457641531, -0.340442538261, -0.388726025820, -0.554123997688, -0.102592810988, -0.331117004156, -0.332034587860, -0.365190774202, 0.054778639227, -0.377311080694, -0.011769236065, -0.057560920715, -0.299875617027, -0.245660588145, -0.136717453599, -0.031170560047, 0.016169870272, -0.152521908283, -0.257491171360, 0.121549859643, 0.075424000621, -0.035055968910, 0.058624219149, -0.387345880270, 0.017374336720, 0.064996019006, 0.059867747128, 0.036498215050, -0.302011460066, -0.046424195170, -0.022792914882, -0.233917549253, -0.348108172417, 0.090007595718, 0.042107790709, -0.351854890585, 0.015390728600, -0.082682959735, -0.180149212480, 0.086503393948, -0.181892633438, 0.046927910298, -0.139593496919, 0.104607090354, -0.260845273733, 0.004233144224, -0.250270962715, 0.088160872459, -0.189925894141, 0.020261634141, 0.011218043044, -0.131005167961, 0.005812818650, -0.051939859986, -0.138243839145, -0.064135223627, -0.114640198648, -0.438549727201, -0.200743034482, -0.395426571369, -0.063918814063, 0.063610062003, -0.040388416499, -0.448404282331, -0.374295532703, -0.001001393655, -0.422348380089, 0.032540839165, 0.030000891536, -0.042720019817, 0.075588211417, -0.212525263429, -0.263344615698, -0.027834981680, -0.353428959846, -0.114833191037, 0.056351527572, -0.199250712991, 0.046206433326, -0.000322304695, -0.052956350148, -0.263316124678, -0.110371887684, 0.042216885835, 0.015615869313, 0.041167873889, -0.073075130582, 0.041863970459, -0.125500932336, -0.304763704538, -0.353941708803, 0.017925243825, -0.211949288845, -0.010051892139, -0.503872692585, 0.022975819185, -0.232546389103, -0.070939198136, -0.113996498287, 0.033440124243, -0.324392497540, -0.019537989050, -0.381714820862, -0.269320756197, -0.130138516426, -0.061860851943, -0.141131326556, -0.033476948738, -0.129240632057, -0.355377137661, -0.038245536387, -0.035307735205, -0.418010324240, 0.074436686933, -0.014605524018, -0.006096266210, -0.065317884088, -0.028104515746, 0.017102282494, -0.343402147293, -0.175714790821, -0.025726107880, -0.024755040184, -0.023458387703, -0.127545937896, -0.378251016140, 0.016818741336, 0.035211905837, -0.253476142883, -0.130777209997, -0.031869065017, 0.034073848277, -0.252973735332, -0.041690286249, -0.149179980159, -0.137540295720, -0.021950306371, -0.136148676276, -0.229731187224, -0.033485606313, -0.346141278744, -0.345206558704, -0.298703551292, 0.023522933945, -0.405883371830, -0.023980049416, -0.098889812827, -0.369914293289, -0.289207220078, -0.340119063854, 0.019354606047, 0.023484094068, -0.382054418325, -0.178152173758, -0.239957049489, -0.256603151560, 0.013119381852, 0.063726685941, -0.030567847192, -0.036310981959, -0.168936595321, -0.152544319630, -0.221705272794, -0.181548669934, -0.036271061748, -0.020054249093, -0.160035789013, -0.193998008966, -0.465331584215, 0.056928951293, -0.345183074474, -0.301117509604, 0.044856537133, 0.098249323666, -0.236603856087, -0.379191905260, -0.010436387733, 0.008037258871, -0.301067352295, -0.208296269178, -0.041657283902, -0.200580388308, 0.017454635352, 0.031602196395, -0.047847721726, 0.028147362173, -0.149223566055, -0.125816151500, -0.293471604586, 0.058815866709, -0.203150212765, -0.005511678290, -0.262636631727, -0.006793981884, 0.025472151116, -0.007638626266, 0.011795975268, -0.244386017323, 0.020286621526, 0.049888275564, -0.011216048151, -0.000512822880, 0.056809440255, -0.209352955222, -0.042881418020, 0.156706035137, -0.002687297063, -0.258793592453, 0.026468198746, -0.251370310783, 0.084055177867, -0.197893157601, -0.028326408938, -0.402660548687, -0.121452644467, 0.070778578520, -0.031907390803, -0.168829828501, -0.001706755022, -0.000367597153, 0.049410030246, -0.298181951046, -0.062537141144, -0.125326856971, -0.072895668447, -0.233524590731, -0.450487673283, -0.302512019873, -0.155423790216, -0.058958008885, -0.297291666269, -0.022189121693, -0.364356607199, -0.025541588664, -0.040643207729, -0.142479032278, -0.049547128379, 0.024981066585, -0.255613356829, -0.035651013255, -0.018929403275, -0.219195812941, -0.197312235832, -0.337049007416, -0.030550703406, -0.175102874637, -0.167985409498, -0.247439458966, 0.002119625919, 0.053260881454, 0.078720003366, -0.471542030573, -0.217235118151, 0.133281886578, -0.188954219222, -0.066621288657, -0.004142147489, -0.197356343269, -0.340995669365, -0.122327975929, 0.021578656510, -0.077875740826, -0.253600895405, -0.098613210022, -0.016938058659, -0.435163021088, -0.379264146090, 0.000250912388, 0.075611449778, -0.100373864174, -0.162515088916, -0.001728524221, 0.008746952750, -0.378922551870, -0.235743328929, 0.042012952268, -0.286772370338, -0.003757147118, 0.026915248483, -0.013948508538, 0.025214830413, -0.014252729714, -0.180843204260, -0.325342833996, -0.038311447948, 0.035515721887, -0.244148552418, -0.006387663074, -0.087464258075, 0.043868526816, -0.268831163645, -0.117279514670, -0.238887831569, 0.011391337961, -0.030638992786, -0.375457108021, -0.028283804655, 0.120271272957, -0.182900205255, -0.244136080146, -0.067760132253, -0.133542135358, -0.171020984650, -0.416574686766, -0.149719044566, -0.093367852271, -0.184512153268, -0.146303206682, -0.495533257723, -0.052527423948, 0.031145552173, -0.243152886629, -0.278740286827, -0.401686549187, -0.033902261406, 0.039187867194, 0.089750692248, -0.040303595364, -0.204345703125, -0.027249483392, -0.194055274129, -0.124542802572, -0.035167086869, -0.407045960426, -0.287041604519, -0.088110461831, -0.215416714549, 0.099432863295, -0.181571364403, 0.102267615497, -0.011861575767, -0.302218258381, -0.069443583488, -0.223144471645, -0.386827051640, 0.043465495110, -0.192855536938, -0.043099742383, 0.019504902884, -0.443324446678, -0.105835556984, -0.050428751856, -0.027945481241, -0.003063007258, 0.099267199636, -0.164474323392, -0.071136526763, 0.090950131416, -0.260051369667, -0.052947040647, -0.370997786522, 0.067683808506, -0.297667741776, -0.044799294323, -0.220685571432, 0.001166283269, -0.194650515914, 0.019692772999, -0.179910212755, -0.012147362344, 0.049383431673, -0.244197621942, -0.177194371819, -0.439764171839, -0.096154384315, 0.022141380236, 0.054395545274, -0.144385382533, -0.038878925145, -0.034068219364, -0.092062175274, -0.038551833481, -0.323192000389, -0.096004672348, -0.268374741077, 0.021133707836, -0.172128051519, -0.274011552334, -0.157867044210, -0.590850770473, -0.316362917423, -0.322596639395, 0.138257056475, -0.011991104111, 0.132399395108, -0.082262739539, -0.209844037890, -0.015106088482, 0.045197021216, -0.117243804038, -0.052302464843, -0.229902803898, 0.011880257167, -0.427060365677, -0.289049327374, 0.033347930759, -0.063355848193, -0.174108758569, -0.304418265820, -0.365237891674, -0.023563565686, 0.045968852937, 0.063454695046, -0.307998269796, -0.084337197244, -0.003320983145, 0.045858971775, 0.066280171275, 0.101475261152, 0.022708747536, -0.191676780581, -0.084726981819, -0.220654249191, 0.089213348925, -0.208231300116, -0.178342804313, -0.179371565580, 0.068051576614, 0.029085909948, -0.199724331498, 0.123506434262, 0.115176148713, -0.240466251969, -0.216828048229, -0.196962788701, -0.265604227781, 0.083015330136, -0.188104510307, -0.239190101624, -0.229311019182, -0.353637516499, 0.170348018408, -0.303424656391, -0.146804347634, -0.194049939513, 0.126178920269, -0.126077011228, -0.336349338293, -0.233882531524, -0.273973047733, 0.011257011443, -0.333504647017, 0.060572717339, 0.008103592321, -0.092469111085, -0.134059742093, 0.113261148334, -0.196893960238, -0.023358257487, -0.403679251671, 0.007947081700, -0.119132898748, 0.075349614024, -0.290188997984, -0.392467588186, -0.125592678785, 0.020945519209, -0.096128575504, -0.301877707243, -0.213151380420, 0.063092805445, -0.444184035063, -0.131817236543, -0.361362725496, -0.225969523191, 0.004137573764, -0.495851844549, 0.105885758996, -0.247682735324, -0.001346185221, 0.010168408044, -0.205854952335, 0.028048474342, 0.062173310667, 0.066291786730, -0.033670354635, 0.008141715080, 0.074565470219, 0.122251108289, 0.061896037310, -0.533775508404, -0.226510405540, 0.044505126774, -0.491346776485, -0.210093498230, 0.230677619576, -0.271925359964, 0.009109872393, -0.419070243835, -0.021777665243, 0.058165911585, -0.365723878145, -0.056540459394, 0.004576992244, -0.071233451366, 0.052533909678, -0.005469081458, 0.068997733295, -0.128917679191, -0.125460714102, -0.386463254690, -0.303502798080, -0.073097430170, -0.006244116463, 0.057877503335, -0.190205439925, -0.069282025099, 0.036719359457, 0.155816122890, 0.085631422698, 0.004754160997, -0.044575195760, -0.226289510727, -0.029358994216, -0.176480323076, -0.202001467347, 0.036630775779, 0.130633473396, -0.074613720179, -0.211496531963, 0.094081491232, -0.072492487729, -0.083012513816, -0.218090936542, 0.008888942190, 0.016032336280, -0.369872301817, -0.419055432081, -0.073352016509, 0.094952054322, 0.089465610683, -0.220354035497, -0.008710755967, 0.148443505168, -0.150643393397, -0.394674062729, 0.060846224427, -0.084609448910, -0.001545467298, -0.220974311233, 0.034313831478, -0.111816748977, -0.108786016703, 0.094926759601, -0.131785795093, 0.111152686179, -0.250032752752, -0.354893505573, 0.211056634784, -0.025132924318, -0.302134782076, -0.220301926136, -0.059236709028, 0.104140318930, -0.071216322482, -0.360890746117, 0.076598703861, 0.042531482875, -0.133873254061, -0.140091553330, -0.281751245260, -0.064098335803, -0.185370579362, 0.040777947754, 0.022519689053, 0.042377758771, -0.375590354204, -0.354724287987, 0.031187344342, -0.209120124578, 0.025880698115, 0.083985112607, -0.196773290634, -0.215169280767, 0.044855378568, -0.337541848421, -0.113465577364, 0.061559516937, -0.319560766220, 0.084316715598, -0.260812610388, 0.015699645504, -0.260808974504, 0.042288221419, -0.063803903759, -0.056892499328, -0.262055546045, 0.004062287044, -0.015793358907, -0.306878268719, 0.005850813817, -0.226126402617, 0.075746953487, 0.126545295119, 0.018806541339, 0.039348717779, -0.037858158350, 0.064448356628, 0.088045291603, -0.010476091877, 0.082339897752, -0.012054908089, -0.187544912100, -0.249979734421, -0.053866274655, -0.162177786231, -0.027236159891, -0.129189759493, -0.311911582947, 0.065305449069, -0.416561752558, 0.023108994588, -0.352592706680, -0.076341718435, -0.483388990164, -0.220274910331, 0.136769786477, -0.286816775799, 0.053409375250, -0.133559465408, 0.126367017627, -0.408868253231, -0.105270713568, -0.046893838793, 0.107291035354, 0.129568949342, 0.126561880112, 0.068352587521, -0.012552868575, 0.030782561749, -0.094455294311, -0.076691642404, 0.121467143297, -0.309504657984, -0.017717426643, -0.223338186741, -0.391793429852, -0.048476427794, -0.084143631160, 0.078878194094, 0.064160883427, -0.300799667835, -0.232008352876, 0.040276933461, -0.280338287354, -0.099897153676, -0.282192707062, -0.090493388474, -0.152400851250, -0.094596229494, 0.062292709947, -0.259585678577, 0.165076822042, -0.060189459473, -0.087809696794, -0.093674987555, -0.113729424775, -0.236681282520, -0.004771540873, -0.176048412919, -0.223487481475, -0.362590581179, -0.332502424717, 0.069955810905, -0.264890193939, -0.071760274470, 0.069838821888, -0.251261055470, -0.107829637825, 0.033191654831, 0.012696947902, 0.071480900049, -0.188577130437, -0.254208147526, -0.549350202084, -0.462805837393, -0.257250964642, 0.008943024091, 0.125575691462, 0.055874802172, 0.042716164142, -0.007147246972, -0.032982755452, -0.028452193365, -0.022420942783, -0.125322803855, -0.280598640442, 0.089427463710, 0.038245458156, -0.399112522602, -0.252772867680, 0.022824440151, 0.000661120226, -0.217005848885, -0.256375879049, -0.026736114174, -0.247846648097, 0.040403716266, -0.259268343449, 0.045910838991, -0.421471387148, 0.097867287695, -0.090122982860, -0.115687668324, -0.474067360163, -0.301398783922, 0.099041014910, 0.042824808508, -0.242272078991, -0.359102845192, 0.030347490683, -0.042726401240, -0.163877129555, 0.110906079412, -0.058637540787, -0.283680826426, 0.049719572067, -0.024417800829, 0.093176349998, -0.407886505127, -0.092060141265, -0.155473694205, -0.185535177588, 0.004514811095, -0.142350643873, -0.216265961528, -0.000267964351, -0.105035170913, -0.173863038421, 0.076337091625, 0.007395068649, -0.223351106048, -0.237080425024, 0.029079556465, 0.093588903546, -0.171040862799, 0.029021864757, -0.353772640228, -0.169264882803, -0.269279360771, -0.058163799345, -0.313134789467, 0.035279493779, -0.296372205019, -0.174001201987, 0.033903937787, 0.051639180630, 0.110207825899, 0.030098875985, 0.055913195014, -0.248136594892, -0.003177831182, 0.136205539107, 0.064644977450, -0.088199660182, -0.342313379049, -0.231812074780, -0.410219579935, -0.168095767498, -0.027088671923, -0.136173278093, -0.009963548742, -0.024631200358, -0.342829346657, 0.105737701058, -0.283287018538, -0.257398992777, 0.070846833289, -0.034706436098, -0.005229100585, -0.241483613849, -0.309072673321, 0.112294800580, -0.235570296645, -0.475373804569, 0.105226382613, -0.017127785832, -0.280219197273, -0.105118289590, -0.333169996738, 0.021145788953, -0.104980133474, 0.009096013382, -0.234417304397, 0.061844669282, -0.197113350034, 0.043112445623, -0.074222803116, -0.413690745831, -0.072268530726, -0.110650129616, -0.054552037269, -0.085926830769, 0.027653580531, 0.097341738641, -0.422757089138, -0.196293443441, 0.106515921652, -0.034222025424, 0.081741593778, 0.108838908374, -0.117195852101, -0.340101063251, 0.076791301370, -0.031076019630, 0.139396190643, -0.380981653929, -0.380982667208, -0.233334079385, -0.100392721593, -0.158191785216, -0.493316590786, -0.100076414645, -0.238619640470, 0.097983144224, -0.003888268722, -0.341032147408, -0.030911449343, 0.075810752809, 0.025356369093, -0.144836917520, -0.295755237341, 0.144829168916, -0.018390843645, -0.087309144437, -0.124600693583, 0.048553075641, -0.354709595442, -0.313493818045, -0.737578570843, -0.194616124034, 0.033390454948, 0.090631067753, -0.105847798288, -0.146229878068, -0.006862561218, 0.024505073205, -0.050179693848, -0.054903134704, -0.225358039141, -0.165705516934, -0.201300635934, -0.269747972488, -0.267598003149, -0.334927916527, -0.100148603320, -0.360534936190, -0.284383952618, -0.272425979376, 0.060065936297, -0.298175960779, 0.033596664667, 0.033313952386, -0.242523655295, 0.009443894029, -0.252600222826, -0.063115142286, -0.399648338556, -0.271200060844, -0.386081635952, -0.417116731405, -0.029958657920, 0.044679909945, -0.726868212223, -0.210001468658, -0.046604245901, -0.336595684290, -0.539151310921, -0.136366158724, -0.299035489559, -0.260754823685, 0.055996846408, -0.211609587073, 0.025380555540, -0.458672612906, 0.082375079393, -0.373615652323, -0.363776057959, -0.112710095942, -0.002795109991, -0.250891715288, 0.002753495006, -0.115540102124, -0.369283884764, 0.050317868590, -0.554356694221, -0.187665060163, -0.106612548232, -0.095090493560, 0.007857023738, -0.114884272218, 0.124661885202, 0.020649760962, 0.101714558899, -0.263343006372, -0.116298206151, -0.106180697680, -0.153014644980, -0.014723408967, -0.065391846001, 0.036895237863, 0.030204406008, -0.511477470398, -0.111024454236, -0.112498991191, -0.197161734104, 0.073272436857, -0.065230734646, -0.233798593283, -0.302024096251, 0.046235255897, -0.011801898479, -0.247847825289, -0.536184906960, -0.210173502564, 0.018968772143, -0.364879876375, 0.060442384332, -0.113311305642, -0.010762467980, -0.354302823544, -0.137620061636, -0.239286020398, -0.018365515396, -0.018110593781, -0.017578775063, -0.267302513123, 0.029917890206, -0.074591688812, 0.005098156631, 0.089089468122, -0.464182496071, -0.274842500687, 0.008004175499, -0.171369165182, -0.170215874910, -0.317250132561, 0.146138697863, -0.273386985064, -0.066049844027, -0.177633121610, -0.043129820377, -0.135282084346, -0.331052303314, -0.149390697479, 0.040501881391, -0.220576286316, -0.371874749660, 0.094955243170, 0.055733334273, -0.136618256569, -0.018215881661, -0.305212914944, 0.001840024488, -0.044873647392, 0.030736662447, -0.051585640758, -0.020607462153, 0.004134264309, 0.020923541859, -0.397578388453, -0.036237716675, 0.024438086897, 0.033214323223, 0.002859293250, 0.087086454034, -0.019007669762, -0.201904609799, -0.254767030478, -0.348396807909, -0.067877002060, -0.337968498468, -0.082639485598, 0.077613249421, 0.029008112848, 0.013158188201, -0.037460122257, -0.000678789103, 0.044612415135, -0.159580558538, 0.042203348130, -0.484439313412, -0.230235591531, 0.015573593788, -0.287848651409, -0.047756709158, -0.369841158390, -0.434853196144, -0.267403572798, -0.231721982360, -0.198741137981, -0.145958945155, 0.012685998343, 0.003460852895, -0.210448116064, 0.064185261726, -0.162509009242, -0.101696677506, -0.032548606396, -0.255140542984, 0.065673395991, -0.418070435524, 0.057374358177, 0.106903940439, -0.203508272767, 0.054720483720, 0.134304687381, -0.395610302687, 0.003870501416, -0.496464163065, -0.030066143721, 0.056431837380, -0.217145591974, -0.074388444424, -0.303299993277, -0.399611204863, -0.297265291214, -0.105739146471, -0.227991163731, 0.017312452197, -0.162020996213, -0.215662494302, -0.287854075432, 0.056747630239, 0.010689279065, -0.049630649388, -0.047052886337, -0.088419258595, -0.329323232174, -0.378363907337, 0.064997851849, -0.156610116363, -0.541291236877, 0.011627443135, -0.120941326022, 0.074845150113, -0.440834552050, -0.408556193113, -0.025630461052, -0.253501266241, -0.294420748949, -0.045597519726, -0.331447839737, -0.470951467752, -0.334059804678, -0.278362452984, -0.245873808861, -0.194880872965, -0.130027845502, -0.265522330999, -0.234412431717, 0.017152471468, 0.022222651169, -0.077240593731, -0.170291736722, -0.249328091741, 0.005039517768, -0.262161046267, 0.010500281118, 0.079308040440, 0.011112381704, 0.006613607984, -0.049214243889, -0.499628961086, -0.261569589376, -0.296897798777, -0.624519884586, -0.302711129189, -0.228214457631, 0.020101187751, -0.067320667207, -0.226530000567, 0.051517881453, -0.329941898584, -0.368562906981, 0.089838765562, -0.271970957518, -0.282492667437, 0.006205041893, 0.022391319275, -0.260872960091, -0.316158950329, -0.488834857941, -0.110166959465, -0.306348979473, -0.027261311188, 0.016102025285, -0.041874475777, 0.058038793504, 0.113227173686, -0.293921202421, 0.018301427364, 0.004282409791, -0.222266003489, -0.362523376942, -0.268014281988, -0.011193884537, -0.035991080105, 0.035674694926, -0.444314271212, -0.273867040873, -0.578153133392, -0.340350300074, 0.069942943752, -0.212974339724, -0.473592400551, -0.275548338890, -0.333396017551, -0.124719575047, -0.105637751520, -0.415780127048, -0.019365172833, -0.599347829819, 0.095029383898, -0.216473534703, 0.037190500647, 0.028190411627, -0.201924249530, -0.057048864663, -0.356915444136, 0.060632959008, -0.087574265897, -0.158097460866, -0.122583582997, 0.055536616594, -0.089348450303, -0.217701643705, 0.124461412430, -0.019878538325, -0.078542329371, -0.270796805620, -0.334245741367, 0.045841492712, -0.131184294820, -0.046260248870, -0.882783651352, -0.115791857243, 0.059887625277, 0.058696217835, -0.209000989795, -0.365676969290, -0.047285635024, -0.234955951571, 0.015999212861, -0.148777693510, -0.190331920981, -0.526523768902, -0.074229136109, -0.015538807027, -0.261292427778, -0.172745108604, -0.016251446679, -0.017294121906, 0.015929374844, -0.301133483648, -0.162464216352, 0.046585381031, 0.027433946729, 0.002275191713, -0.011131672189, -0.366226226091, -0.447387337685, 0.034317161888, 0.070526212454, -0.628335952759, 0.011935384944, -0.062060602009, 0.057432260364, -0.218477576971, -0.153302490711, 0.036444146186, 0.005740073975, -0.262274295092, 0.002803313080, -0.125007331371, 0.022284884006, 0.103464387357, -0.305161535740, -0.153748884797, -0.040721628815, -0.049201875925, -0.405152559280, -0.263932287693, 0.004149722401, 0.035316519439, -0.304087013006, 0.013266514055, -0.003366422141, -0.142094790936, -0.384468942881, -0.107752077281, 0.025154195726, -0.377717107534, -0.102371491492, -0.076249204576, -0.323483645916, 0.014358066954, -0.238636091352, -0.219624862075, -0.199843898416, -0.012229999527, -0.045435607433, -0.300178557634, -0.034784145653, 0.019093230367, 0.073401466012, -0.269760519266, -0.039906740189, 0.014846775681, -0.146924629807, 0.039404220879, -0.312623530626, -0.134563103318, -0.405430525541, 0.035786453635, -0.111021153629, 0.028568191454, 0.042684208602, -0.123625725508, 0.007351812441, -0.049590110779, -0.098165005445, -0.275815695524, -0.017310069874, -0.075509086251, -0.378207653761, -0.340743094683, 0.076462782919, -0.332536995411, -0.164810001850, -0.263931006193, 0.112139925361, -0.005662326701, -0.300683230162, 0.065220817924, -0.003286327934, -0.337608128786, 0.053254559636, -0.307945936918, 0.019434507936, -0.226956203580, 0.065988473594, -0.392903894186, -0.165707856417, -0.228964388371, -0.211193025112, -0.466994613409, -0.037489235401, -0.417875051498, -0.004934349563, -0.193192899227, 0.037833534181, -0.261183559895, -0.200965851545, -0.055049147457, 0.090716153383, -0.349783152342, -0.171378865838, -0.030728818849, -0.059691622853, -0.305872261524, -0.245862051845, -0.178613975644, -0.273494422436, -0.173508793116, -0.273050338030, 0.086320914328, -0.152966231108, -0.073562495410, 0.012216469273, -0.060305420309, 0.014628031291, -0.221980497241, -0.145706668496, -0.056751143187, -0.215301871300, -0.357370942831, 0.003849347821, -0.009568943642, -0.368959605694, -0.118712730706, -0.231852605939, 0.020778009668, 0.063287295401, -0.124361902475, -0.025175932795, 0.109701044858, -0.282067805529, -0.028798826039, -0.225398749113, -0.326517403126, 0.085051238537, -0.147971600294, -0.015491196886, -0.025778269395, -0.201474443078, -0.307157188654, -0.068088449538, 0.068938046694, -0.159906268120, -0.043901387602, -0.243364304304, -0.036244448274, 0.029776448384, -0.336829602718, -0.015895416960, 0.049193393439, 0.052386291325, -0.007855708711, -0.141742691398, -0.162518545985, 0.025118695572, -0.017690144479, -0.022260436788, -0.019562857226, -0.306282699108, -0.385657906532, -0.058391701430, 0.085411727428, -0.142702534795, -0.030071713030, 0.059234470129, 0.075104035437, 0.079024761915, -0.319214910269, 0.036683604121, 0.042619720101, -0.000055725905, -0.025183893740, -0.336314141750, -0.070865221322, -0.020554177463, -0.272516846657, -0.162947133183, -0.031178595498, -0.218587249517, -0.089450597763, -0.067176096141, -0.251077562571, -0.192430421710, -0.322012573481, -0.066325142980, -0.206539496779, -0.335262894630, 0.044333666563, -0.173743858933, 0.015383190475, -0.210340783000, -0.080176845193, 0.014619691297, 0.069191835821, -0.111028321087, -0.283582836390, -0.199779897928, -0.304713636637, 0.064246870577, -0.266157805920, -0.009717080742, -0.288090080023, -0.091144040227, 0.022094110027, -0.086309038103, 0.058287467808, -0.252779483795, -0.350263744593, -0.127213269472, -0.088440485299, -0.126750305295, 0.082020536065, 0.103000789881, 0.045840173960, -0.068285033107, -0.381205976009, 0.026604557410, -0.191018745303, 0.037656441331, -0.130668386817, -0.276118248701, 0.097241602838, 0.066908031702, 0.052918024361, -0.190782979131, -0.015884637833, 0.018345013261, -0.122159473598, -0.389656752348, -0.354552984238, -0.343385159969, 0.055283818394, -0.109665647149, 0.081318199635, -0.065290473402, -0.069037377834, 0.011085513048, -0.369807511568, -0.124609649181, 0.080712504685, 0.048058781773, 0.093588352203, 0.101443342865, -0.198159545660, -0.314336687326, -0.189144119620, -0.310913622379, -0.250344574451, -0.307452529669, -0.012706137262, -0.011518358253, 0.057719115168, -0.256822884083, 0.016666499898, 0.014258172363, -0.126347422600, -0.251127302647, -0.021705143154, -0.082614973187, -0.252811163664, -0.245647042990, -0.028814345598, -0.271958559752, -0.398473918438, 0.043623618782, -0.242152705789, -0.175053641200, -0.152831599116, -0.101516261697, -0.136668711901, -0.169907450676, -0.527805089951, -0.127933800220, -0.070812046528, 0.049116082489, 0.100057117641, -0.266738831997, -0.276141285896, -0.330305516720, 0.018951239064, 0.026582710445, 0.022452151403, 0.054688580334, -0.244506239891, 0.115974649787, -0.280661165714, 0.011622810736, 0.017252786085, 0.024240987375, 0.061996009201, -0.000029477291, -0.009768433869, 0.047372642905, -0.105276726186, -0.242297276855, -0.156973794103, -0.206843778491, -0.175724014640, -0.253079622984, 0.081457905471, -0.388704895973, -0.019083315507, 0.070286743343, -0.392288386822, -0.026021417230, -0.140812903643, -0.303847938776, 0.094978608191, -0.267767339945, -0.067364051938, -0.254051327705, -0.274186611176, 0.086375132203, -0.180249899626, -0.242582589388, 0.128950208426, -0.224133491516, 0.051380645484, -0.057565938681, -0.150420814753, -0.024754732847, -0.381487041712, 0.108239352703, 0.054877180606, 0.019652388990, -0.230972826481, 0.006928771269, -0.027349397540, -0.329384922981, -0.034276764840, -0.160689547658, -0.118543848395, -0.148692116141, -0.458904951811, -0.119769245386, 0.042559329420, 0.003160357242, 0.084963642061, -0.113545216620, 0.099358133972, -0.127599418163, -0.192533612251, -0.025767110288, 0.075918316841, -0.250892579556, 0.089803889394, -0.251337736845, -0.190711796284, -0.004629223607, 0.106241323054, -0.195638582110, -0.009825942107, -0.243221968412, -0.036765366793, -0.190223276615, -0.197280138731, -0.144970998168, 0.057182904333, -0.474744141102, -0.216706782579, -0.036711703986, 0.124574899673, 0.080615244806, 0.013044108637, -0.173235848546, -0.024567866698, 0.054167017341, -0.229313358665, -0.083300307393, 0.067800953984, -0.009173318744, -0.032046731561, -0.182802841067, -0.156698018312, -0.258073538542, 0.014227971435, 0.081799820065, 0.086803920567, -0.122117877007, -0.054043497890, 0.040620394051, 0.040395494550, 0.036563914269, -0.100200653076, 0.025900427252, 0.021908657625, -0.432527959347, -0.300717860460, 0.043837372214, -0.259690791368, -0.134604066610, 0.051957994699, -0.174237638712, -0.277843892574, -0.256459325552, -0.330052733421, -0.199516594410, 0.014774915762, 0.043823786080, -0.191604360938, 0.017831180245, -0.214613646269, -0.017812827602, -0.302575021982, 0.022579560056, 0.093520246446, -0.136018291116, -0.215741038322, 0.066569276154, -0.305261492729, 0.046094320714, -0.041254565120, -0.200665518641, -0.326377749443, -0.070393189788, -0.132051989436, -0.193467453122, -0.097377389669, -0.402983635664, 0.097513839602, 0.069327190518, -0.129852831364, -0.441674530506, -0.249962881207, -0.144291386008, 0.001762522268, -0.001069571474, -0.279057949781, -0.153589472175, -0.218148529530, -0.028562294319, 0.070797801018, -0.272868663073, -0.233835905790, -0.229948192835, -0.093705959618, -0.308560639620, 0.075159929693, 0.009163495153, -0.085692904890, -0.003121108515, -0.124437108636, 0.043896358460, 0.067268282175, -0.207093462348, -0.358770340681, -0.138654932380, -0.063697397709, -0.211238443851, -0.293064117432, 0.055497638881, 0.125348001719, 0.018950691447, -0.114410504699, 0.020656893030, -0.183351695538, -0.111974202096, -0.123070232570, 0.044666700065, 0.082090042531, -0.103560321033, -0.176068976521, -0.301255792379, -0.137130573392, -0.353291600943, -0.176294714212, -0.208251938224, -0.089297816157, -0.108897037804, 0.114672161639, -0.413125306368, 0.041314546019, -0.207468181849, -0.035775378346, -0.150116428733, -0.024405352771, -0.142868772149, -0.219128996134, -0.288795351982, -0.361710786819, 0.023177409545, -0.241548627615, -0.364735364914, -0.063892379403, -0.075526803732, -0.009591090493, -0.100857794285, 0.110598176718, -0.331242740154, 0.076631844044, 0.075766958296, 0.088824339211, -0.069165006280, -0.200672417879, -0.213927567005, 0.112095087767, -0.165412500501, 0.009823258035, 0.029245320708, 0.043787840754, -0.295330792665, 0.000394365255, -0.227138414979, -0.037708062679, 0.010763490573, -0.249603226781, -0.133501306176, -0.018596857786, -0.037004046142, -0.181581422687, -0.349503159523, 0.080614589155, -0.330058127642, -0.118726298213, -0.310404181480, -0.206398069859, -0.136076197028, 0.067875541747, 0.009566052817, -0.191157072783, -0.345765799284, -0.309763401747, -0.007993078791, -0.009984298609, -0.083889536560, 0.056197822094, -0.275017142296, 0.031615410000, -0.175859794021, -0.268137156963, -0.169240042567, -0.269897133112, -0.108728550375, 0.017338361591, -0.565570116043, -0.010791084729, -0.344961404800, 0.079645723104, 0.121614031494, 0.088641405106, -0.011945337057, -0.442831844091, -0.049386911094, -0.445662081242, -0.070329882205, -0.308924764395, 0.094054654241, 0.194708839059, -0.281828165054, -0.207222521305, -0.013826990500, -0.407012104988, -0.217918902636, -0.050649221987, 0.067979238927, -0.093499705195, -0.095306321979, -0.083155751228, -0.190455332398, -0.160967528820, 0.129211127758, -0.135251462460, -0.015078240074, -0.027230069041, -0.436127960682, -0.369525164366, 0.038812942803, -0.072208143771, 0.031430695206, -0.274614781141, -0.101626634598, -0.047259707004, -0.200353056192, 0.078065685928, -0.239204943180, -0.022864649072, -0.136916413903, -0.225665837526, -0.207073792815, -0.376012355089, 0.090607695282, -0.037459246814, -0.189949914813, -0.179351896048, 0.039229437709, -0.278794676065, -0.342659354210, -0.097523130476, 0.079656459391, -0.218237340450, -0.297901034355, -0.055303122848, 0.006758100819, 0.038053188473, -0.234301328659, 0.003886980237, 0.086089476943, 0.030705848709, -0.257331371307, -0.256405919790, -0.028858810663, 0.078974120319, 0.018477717414, 0.074700854719, -0.017453530803, -0.027219401672, -0.171394839883, -0.292010754347, 0.017989825457, 0.024564435706, -0.141100376844, 0.051074955612, 0.012806524523, 0.046174492687, -0.034899789840, -0.126635476947, 0.097278945148, -0.005019403063, 0.004545642994, -0.361069053411, -0.135635539889, -0.377205580473, -0.422547757626, -0.229522734880, -0.388337701559, 0.013545598835, -0.024515409023, 0.001297431416, 0.008833465166, -0.007406596560, 0.041979458183, -0.283648163080, -0.459807485342, 0.039556004107, 0.034775715321, 0.135972559452, 0.081129893661, -0.361940026283, -0.029029592872, 0.069812998176, -0.220308184624, -0.297678440809, 0.076999440789, 0.042559385300, 0.055465806276, 0.049088660628, -0.260018348694, 0.047286320478, 0.095721371472, -0.072117030621, 0.008378478698, -0.145101949573, -0.085167132318, 0.079798288643, -0.067752659321, -0.069152176380, -0.194117650390, -0.070994749665, 0.087099216878, 0.097521990538, -0.298951059580, 0.041772171855, -0.017925379798, 0.005806073081, -0.221510678530, 0.061423465610, -0.219388261437, 0.030616531149, -0.285267084837, 0.022537173703, -0.200018107891, -0.203830689192, 0.087292812765, -0.186154186726, -0.182960718870, -0.065952144563, -0.317661881447, 0.054035067558, -0.200103089213, -0.020388588309, -0.255156308413, 0.057513117790, 0.019280046225, -0.256077349186, 0.096798658371, 0.047432903200, -0.008027355187, 0.099744036794, 0.130246758461, -0.176470339298, 0.014630931430, -0.281429350376, 0.036680605263, -0.419806838036, -0.324593156576, 0.016692234203, -0.138125360012, -0.313369959593, 0.014500360936, -0.155924990773, -0.268024563789, -0.003048517741, -0.003141220193, -0.228493109345, 0.060724284500, -0.012791006826, -0.418016999960, -0.162451565266, -0.135299175978, -0.980898678303, 0.051394823939, -0.320747703314, 0.008980396204, -0.076460145414, -0.186115860939, -0.002699737670, -0.390628606081, -0.029410080984, 0.034402377903, -0.178668528795, -0.256762504578, -0.190009281039, -0.044391967356, -0.272987961769, -0.291862130165, 0.052915986627, -0.379900187254, -0.136944770813, -0.184522345662, -0.062301695347, -0.343837559223, -0.265126645565, -0.210806056857, 0.028374146670, -0.090561948717, -0.041674606502, -0.011650066823, -0.252355903387, -0.217985391617, -0.662618696690, -0.118355393410, -0.235890015960, -0.245888963342, -0.226551741362, -0.177678659558, -0.423026412725, -0.324051886797, 0.013089780696, -0.122747272253, 0.001576336799, -0.078875139356, -0.304873436689, -0.155997633934, 0.016610562801, -0.144910350442, 0.050457805395, -0.051627337933, 0.011577543803, -0.042062174529, -0.156542971730, -0.133246719837, 0.059725012630, 0.039323598146, 0.099406309426, 0.068567670882, 0.054471474141, -0.392100274563, 0.094568595290, -0.261081337929, -0.521587073803, 0.072249658406, -0.063593693078, 0.064269445837, -0.228310897946, -0.011155931279, -0.072562702000, 0.063894547522, -0.302035838366, 0.026928937063, 0.036746181548, -0.266606450081, -0.830902874470, -0.013816047460, -0.117755249143, -0.051716472954, -0.262532174587, -0.346683830023, 0.064767368138, -0.220809862018, 0.001197778154, -0.299377501011, 0.094109572470, -0.370365858078, -0.281035363674, -0.044954020530, -0.394607335329, -0.324135720730, 0.034340564162, -0.225703060627, -0.002260399982, -0.043615311384, -0.030657183379, -0.021261408925, 0.055672992021, -0.155322149396, -0.282469660044, 0.006059122272, -0.046874932945, 0.017226835713, -0.166214361787, -0.192685037851, -0.004283647984, -0.053634975106, -0.065190516412, 0.036890387535, -0.309702306986, -0.061557419598, 0.024661526084, -0.012803548016, -0.309765845537, -0.183096483350, -0.176426991820, 0.034169804305, -0.478937625885, -0.136644244194, 0.053755152971, -0.062929503620, -0.265226989985, -0.360381126404, -0.202181935310, -0.006397794932, -0.004377296660, -0.072470307350, -0.161700621247, -0.004917587154, -0.143117159605, -0.325302392244, -0.090678371489, -0.068557217717, 0.048175606877, -0.221049457788, -0.133722186089, -0.075493663549, 0.032286763191, -0.141774296761, -0.102018706501, -0.569545090199, 0.005158420186, -0.207826182246, -0.003683892777, -0.019754020497, 0.022219615057, -0.397432029247, -0.202306762338, -0.075958259404, -0.238757491112, -0.020853839815, -0.216775938869, -0.281932324171, 0.040512643754, -0.040454540402, -0.219133466482, -0.005061497446, 0.013518201187, -0.361840695143, -0.172313928604, -0.198265805840, 0.045570887625, -0.317002922297, -0.323332935572, -0.291492164135, -0.472629874945, -0.233486488461, -0.160335645080, -0.016247585416, -0.087825775146, -0.316365629435, -0.232294842601, -0.293873846531, 0.032877556980, 0.010410898365, 0.026466036215, -0.259383767843, -0.175050541759, -0.235124617815, 0.001339805080, -0.402553528547, -0.453945428133, -0.307771354914, -0.054451134056, -0.244566857815, -0.016415726393, -0.016069106758, -0.060526080430, -0.347134590149, 0.149929359555, -0.030670130625, 0.013911617920, -0.695123791695, -0.139488652349, -0.329941481352, -0.290786206722, -0.238674134016, -0.292350858450, -0.197551384568, 0.014902383089, 0.019984217361, -0.384581297636, 0.006296786945, -0.211936429143, -0.096188835800, -0.553963840008, -0.048602882773, -0.077498070896, 0.054648447782, -0.169621914625, 0.076139904559, -0.085756532848, -0.178556844592, -0.259331822395, 0.014474860393, -0.146001815796, -0.384013652802, -0.390499830246, -0.085177175701, -0.266833782196, -0.439249217510, -0.005119674839, -0.071851164103, -0.012872326188, -0.296658635139, 0.046270176768, 0.035966381431, -0.017262060195, -0.149476557970, -0.383612841368, -0.366371423006, 0.062254186720, -0.050908237696, 0.010313181207, -0.404714077711, -0.402626454830, -0.265539288521, 0.035734005272, -0.705261051655, -0.083754085004, -0.214799016714, -0.533060848713, -0.291048854589, 0.010798876174, -0.206555217505, 0.046140588820, -0.268827855587, -0.268132805824, -0.245300441980, -0.134500235319, -0.046705413610, 0.020518181846, -0.457896411419, -0.164965391159, -0.674984753132, -0.257022559643, -0.067546986043, 0.049994010478, -0.063715085387, -0.438418686390, -0.331177920103, 0.054463341832, 0.011002341285, -0.015481487848, -0.395633846521, -0.019350949675, -0.114649355412, 0.139360845089, -0.448215961456, 0.029153997079, -0.222037181258, -0.319163769484, -0.390448659658, -0.314590543509, -0.327608525753, 0.007646894548, -0.187263697386, -0.000316652760, 0.024083573371, -0.373354285955, -0.124436520040, -0.015540732071, -0.246582642198, 0.054898738861, 0.006458908319, -0.327300071716, -0.015542513691, -0.067137829959, 0.000528813456, -0.162423193455, 0.046283859760, 0.024628350511, -0.113822944462, -0.070371836424, -0.365540623665, -0.104627162218, -0.172323599458, -0.141519218683, -0.249817833304, -0.248835310340, -0.577087581158, 0.010052023456, -0.031542018056, -0.125315427780, -0.184175729752, -0.415217339993, -0.166993558407, 0.002938915743, 0.070228800178, 0.080014601350, -0.265286535025, -0.063348039985, -0.197366192937, -0.062381092459, -0.135432794690, -0.395753920078, -0.120054244995, -0.149932637811, -0.133667454123, -0.017752707005, -0.336664348841, 0.044580567628, -0.321172803640, -0.396971225739, -0.031138936058, -0.715357542038, -0.528695523739, 0.029138896614, -0.269198030233, 0.085378743708, 0.006592366379, -0.180754289031, 0.020889203995, -0.164774581790, -0.244412481785, 0.020314481109, -0.253811091185, -0.350193709135, -0.063258200884, -0.349929481745, -0.223171845078, -0.065035916865, -0.275710999966, -0.048041418195, -0.022503994405, -0.239124715328, -0.205191507936, 0.022320734337, -0.324265331030, 0.156368449330, 0.010625055991, -0.526654899120, -0.140220850706, -0.077729478478, -0.411769956350, -0.324614375830, -0.004584140610, -0.160899817944, 0.062189612538, -0.152476191521, -0.197183758020, -0.144017592072, 0.003182253800, 0.044285990298, -0.329368829727, -0.351512402296, 0.059772402048, 0.107442483306, -0.353141874075, 0.019641680643, -0.122953712940, -0.387425512075, -0.387327671051, 0.050180356950, -0.010115445592, -0.306651473045, -0.029199242592, -0.003582302481, -0.023468155414, 0.068019621074, -0.447573423386, 0.055320650339, 0.090577170253, -0.076386004686, -0.205453068018, -0.340540558100, -0.216692879796, -0.108219102025, -0.138797909021, 0.020271247253, -0.470532596111, -0.084300063550, -0.041413065046, -0.014275680296, -0.198247641325, -0.072701625526, -0.074872292578, -0.081648297608, -0.017814312130, -0.032394915819, -0.130757942796, -0.124752938747, -0.090962409973, -0.180231824517, -0.014436299913, -0.403650909662, -0.412417292595, -0.135871529579, -0.071221068501, -0.154503107071, -0.054766852409, 0.049071345478, -0.159419521689, -0.555790960789, -0.021902278066, -0.434449225664, -0.232049554586, 0.039660163224, -0.044217567891, -0.329427808523, -0.293589413166, -0.310726583004, -0.049544651061, 0.011487071402, -0.409753203392, -0.640566945076, -0.330030471087, 0.018769150600, 0.003810800379, -0.302743136883, -0.035713698715, -0.017521562055, 0.052706886083, 0.010104781948, 0.054898101836, -0.062796197832, 0.012736970559, -0.366812646389, -0.365050286055, 0.001973317238, 0.036698650569, -0.261708289385, -0.355373501778, -0.066767275333, -0.268288701773, 0.037540748715, -0.036566443741, -0.150982335210, 0.071183785796, -0.070627376437, 0.069320239127, 0.069599226117, 0.055947564542, -0.377653241158, -0.063544556499, -0.218544125557, 0.043575812131, -0.386073946953, -0.001595832640, -0.187886670232, -0.030083285645, -0.014038364403, -0.369655430317, -0.024146003649, -0.032153908163, 0.025074051693, -0.384369790554, -0.381040304899, -0.233138054609, -0.074140228331, 0.014162064530, -0.007032594644, -0.073199689388, 0.004435941111, -0.102913632989, -0.069376453757, -0.322526276112, -0.391426503658, -0.096551090479, -0.022744156420, -0.249619841576, 0.020512085408, -0.392454713583, -0.264705985785, 0.017211457714, -0.004748219624, -0.262607365847, -0.041452854872, -0.129625856876, -0.059428825974, -0.300515115261, -0.340197354555, -0.096633531153, -0.247985348105, -0.201565951109, -0.079487621784, -0.399128109217, 0.075712628663, -0.324312210083, -0.013856824487, 0.059382878244, -0.156240910292, -0.277470320463, -0.072604082525, 0.049900334328, 0.035320330411, 0.009951451793, -0.393530458212, -0.121668815613, -0.274077087641, -0.094075672328, -0.078325897455, -0.017018575221, 0.003284015926, -0.126353591681, -0.062025934458, -0.199164584279, -0.016117010266, -0.313262671232, 0.089971043169, -0.015143012628, -0.366032332182, -0.161158010364, -0.106542572379, -0.204582586884, -0.299048841000, -0.057248253375, -0.233868166804, -0.121777750552, -0.272350162268, -0.473470807076, 0.005062007811, 0.004515552893, -0.158794432878, -0.236110582948, 0.115909509361, -0.390915453434, 0.113718174398, -0.148501604795, 0.047452688217, -0.331986278296, 0.001438940759, 0.019705792889, 0.034160461277, -0.067886881530, -0.064804971218, -0.058472998440, -0.270695745945, 0.072185531259, -0.198990315199, -0.253626316786, 0.012893700041, -0.061964433640, -0.276460170746, -0.273840278387, -0.062899060547, 0.000788263860, -0.178811579943, -0.126913160086, -0.357198625803, -0.216342523694, -0.517109990120, 0.012439358048, -0.423852890730, -0.330699741840, -0.282467186451, -0.307228088379, -0.396333992481, 0.009829555638, -0.118857361376, -0.253350317478, -0.355456292629, -0.022586384788, -0.351479202509, 0.080373711884, 0.044423338026, -0.284452289343, -0.231948718429, -0.528664708138, -0.154635533690, -0.064208045602, -0.170357987285, 0.051592387259, -0.257894188166, -0.246811479330, -0.048690471798, 0.014790280722, -0.127872437239, 0.060831774026, 0.105303101242, -0.250012934208, -0.108035802841, -0.038741290569, -0.332658022642, -0.023862095550, -0.010973594151, 0.071826994419, -0.424983114004, 0.077547721565, 0.036698412150, -0.218951210380, 0.041527248919, -0.365306228399, 0.046575039625, -0.043382644653, -0.351027518511, -0.329044610262, 0.090273104608, -0.123636245728, 0.070233896375, 0.170016586781, 0.140593871474, -0.212352737784, -0.329562932253, 0.109618462622, -0.138754442334, -0.282179355621, 0.023945163935, 0.059729531407, -0.216962561011, -0.160014525056, 0.030913557857, -0.451047450304, -0.109412662685, -0.196320220828, -0.034033223987, 0.008363773115, 0.004211648367, -0.382723420858, 0.011502853595, -0.321526885033, -0.586441516876, -0.374266475439, 0.056118194014, 0.002379802521, -0.192763984203, 0.058685202152, 0.056214835495, 0.004099638201, -0.010857627727, -0.153180047870, 0.075934834778, -0.142990320921, -0.016932165250, 0.064142942429, -0.023187017068, -0.041429892182, 0.118991717696, -0.080340713263, 0.028732988983, -0.290456533432, -0.046835497022, -0.149874851108, -0.234119266272, -0.034862603992, -0.236083656549, -0.431550592184, -0.391169011593, 0.032221067697, -0.160611405969, -0.266051650047, -0.295919865370, -0.163736060262, -0.015423309989, 0.074947342277, -0.274104982615, 0.071122147143, 0.023883484304, 0.011965974234, -0.434344828129, -0.376357108355, -0.076334118843, -0.325360566378, -0.334657937288, 0.059474840760, -0.014186602086, 0.003044537036, -0.169547557831, -0.019842563197, -0.319111168385, -0.144515350461, -0.020303705707, -0.005451047793, -0.034227896482, -0.218373402953, -0.117988660932, -0.004944845568, 0.034820120782, 0.017016170546, -0.263210654259, -0.051394820213, -0.212201759219, -0.367879807949, -0.093061923981, -0.021916789934, -0.243974685669, -0.224035590887, -0.518034338951, -0.081549569964, -0.322796016932, -0.384866774082, -0.355914652348, -0.370819181204, 0.105119913816, 0.049566268921, 0.006455579307, -0.007534976583, -0.014760250226, 0.009164114483, -0.195743724704, -0.362877041101, -0.207178324461, 0.011194760911, 0.027078827843, -0.217837616801, -0.002621927531, -0.046352051198, 0.076625242829, 0.020981840789, -0.066676303744, -0.015947606415, 0.096834681928, -0.199986189604, -0.280600577593, -0.202542349696, 0.025419155136, 0.022315511480, -0.219088882208, -0.056096762419, -0.009038839489, 0.158134937286, 0.027276463807, -0.089933015406, -0.223213270307, 0.063081249595, 0.071185909212, -0.042021047324, -0.035876017064, 0.023226020858, -0.561344206333, -0.266808629036, -0.228531107306, 0.063171625137, -0.381093651056, -0.066557973623, -0.313951820135, -0.289664179087, -0.011180927046, 0.023934489116, -0.329196363688, 0.028003670275, 0.054459966719, -0.085639178753, 0.005585433915, -0.253118634224, -0.012162711471, -0.499903142452, -0.297391563654, -0.250541001558, 0.083275526762, -0.288495451212, 0.101971067488, -0.351479440928, -0.054924838245, 0.011530694552, 0.120398037136, -0.048011738807, -0.460427016020, -0.539268791676, -0.252439409494, 0.032030731440, -0.008580827154, -0.376064956188, -0.138459965587, -0.688664257526, -0.128660589457, -0.062134198844, -0.013266461901, -0.411112666130, -0.018274771050, -0.070022098720, 0.013271532021, 0.004816885572, 0.151145935059, -0.203899949789, -0.088808864355, 0.007063238416, -0.501790523529, 0.011343496852, 0.031602162868, -0.152959108353, -0.374536752701, 0.044938094914, -0.268962472677, -0.048142660409, -0.315120875835, -0.309352666140, -0.151382640004, -0.317238122225, -0.835022449493, -0.034062735736, -0.025169631466, -0.327394902706, -0.144701570272, -0.048085819930, 0.018958041444, -0.133928433061, -0.124175265431, -0.214371308684, -0.200486838818, -0.149811744690, 0.065495379269, -0.152409911156, -0.205707743764, -0.212274506688, -0.242981165648, -0.283598154783, -0.079416431487, -0.062683284283, -0.142346560955, -0.326891839504, -0.393132656813, -0.192054361105, -0.197273626924, -0.267813295126, -0.366830706596, 0.045722760260, -0.198039516807, 0.094506360590, -0.006251818966, 0.010636508465, 0.143574848771, 0.008371506818, -0.037955224514, -0.107142418623, -0.263647019863, -0.196546390653, -0.018614066765, -0.048736631870, -0.090846568346, 0.010469180532, -0.147205039859, 0.036343142390, -0.280230373144, -0.324925541878, 0.086808711290, 0.007072495297, 0.022048553452, -0.343756735325, -0.109159693122, -0.432413756847, -0.028653807938, -0.213909000158, 0.015856446698, -0.068540163338, -0.246801719069, -0.026348477229, -0.228382602334, -0.035244241357, -0.390741795301, 0.112746782601, -0.061861518770, -0.166752353311, 0.053092513233, -0.294265508652, -0.082015901804, 0.074559412897, -0.124035298824, -0.347594290972, -0.214869752526, -0.232070192695, 0.019091505557, -0.281548321247, 0.007852105424, -0.278067439795, 0.008540024981, 0.052988514304, 0.054228965193, -0.320375114679, -0.306445568800, 0.008238689974, -0.269393026829, 0.052782464772, -0.046564362943, -0.441538751125, -0.077382147312, 0.090662539005, 0.030154952779, -0.288537144661, -0.238513678312, -0.029764166102, 0.012225026265, -0.261873990297, -0.056033473462, 0.100218988955, -0.324028611183, -0.229447647929, -0.106822706759, -0.030783934519, -0.141809746623, -0.227091953158, -0.217162817717, -0.020427746698, -0.332680970430, -0.311409026384, -0.427071094513, 0.028838135302, -0.114800162613, 0.006038731430, -0.360658794641, -0.158489704132, -0.207341164351, -0.052799474448, -0.147012606263, -0.037485893816, -0.040603265166, 0.065095379949, -0.125839620829, -0.002999598626, -0.480155974627, 0.098800927401, 0.003533484414, -0.272122114897, -0.278334110975, -0.018842350692, 0.036370303482, -0.218948975205, -0.222355678678, 0.025676324964, -0.296757102013, -0.451627135277, 0.081503078341, -0.074765659869, 0.053537297994, 0.024352949113, -0.102081753314, -0.145021259785, -0.013102479279, -0.343514502048, -0.378568261862, 0.031817834824, -0.347915619612, -0.000293355726, 0.093303985894, -0.214836016297, 0.057006761432, -0.018769046292, -0.132262900472, -0.280729383230, -0.258641064167, -0.296548992395, -0.276805430651, -0.297127425671, 0.012843430042, -0.018859839067, -0.545511603355, 0.045144997537, 0.043071389198, -0.267911136150, -0.239675983787, -0.390039086342, -0.037218250334, -0.555624961853, -0.512784302235, -0.009039652534, -0.024508545175, 0.011435153894, -0.243489161134, -0.068477861583, -0.030773548409, -0.063698492944, -0.295125812292, -0.070560753345, -0.096759714186, 0.027593242005, 0.040564656258, -0.330472677946, -0.138265088201, -0.093552313745, -0.270099431276, -0.290054023266, -0.225615024567, -0.001112901024, -0.044396176934, 0.093862339854, -0.013142401353, 0.070786990225, -0.161076530814, -0.185889020562, -0.112649895251, -0.117718473077, -0.176558092237, -0.050991661847, 0.018052082509, 0.069297358394, 0.070808880031, -0.044815346599, -0.161510705948, 0.045575305820, -0.004072985612, -0.485048860312, -0.318047374487, -0.044601354748, -0.201325908303, -0.009669585153, -0.107363037765, -0.239972665906, -0.158293873072, -0.345870077610, 0.079380504787, -0.043190836906, -0.030514027923, -0.240495458245, -0.051320299506, 0.021489430219, 0.024027559906, -0.055355504155, -0.302386283875, -0.306213706732, -0.006387537811, -0.204792663455, -0.127543851733, -0.310849130154, -0.250809431076, -0.055305421352, -0.252687126398, -0.206304132938, -0.458391517401, -0.104543402791, -0.049147043377, -0.041407275945, -0.172879487276, -0.187390014529, 0.003702773713, 0.028116786852, -0.090768247843, -0.268564879894, 0.042203620076, -0.289079189301, -0.293226420879, 0.027199259028, -0.047704756260, -0.110144227743, -0.053397487849, -0.038150433451, -0.389472484589, 0.039777737111, -0.276291877031, 0.068331904709, -0.423462420702, -0.114179946482, -0.107054412365, -0.019618865103, -0.048675421625, -0.107559703290, 0.001868277905, -0.272277832031, -0.327325910330, -0.120290651917, -0.071132160723, -0.045496653765, -0.251897901297, 0.057033929974, -0.211602464318, -0.169807538390, -0.022260293365, -0.058260288090, -0.234405905008, -0.347399562597, -0.221848130226, 0.079215571284, -0.064226731658, 0.035860668868, -0.167526990175, -0.433161050081, 0.073528185487, -0.147728264332, -0.080408118665, -0.269427299500, -0.110991708934, -0.008478268050, 0.091933600605, -0.064975649118, 0.012703551911, 0.004020235036, -0.255299329758, -0.261351734400, 0.026968663558, -0.126998916268, -0.094186179340, 0.018222792074, -0.052298489958, -0.097269356251, -0.171065926552, 0.026549771428, -0.060234431177, -0.016805108637, -0.034920774400, -0.012999888510, -0.228139236569, -0.335007071495, -0.245824113488, 0.055071055889, 0.006440743804, -0.275196790695, -0.324239641428, 0.088285997510, -0.083319745958, -0.181898802519, -0.003903355449, 0.043988201767, -0.097144044936, -0.267318636179, -0.073664233088, 0.023794371635, -0.159518599510, 0.028160655871, -0.061173867434, -0.281673312187, -0.076457843184, -0.179169371724, -0.267423987389, -0.170175299048, 0.028809741139, -0.037648551166, -0.375066369772, -0.264201045036, -0.384312570095, -0.029351938516, -0.212885081768, -0.367108911276, -0.305346101522, 0.022335130721, -0.015261211433, -0.033712111413, -0.192850798368, -0.033738709986, 0.044829834253, -0.055223986506, 0.006029731594, -0.145678162575, -0.023162595928, -0.189287126064, -0.306707710028, -0.036327905953, -0.372856706381, -0.388345509768, -0.011917408556, -0.225496187806, 0.024781243876, -0.153986960649, -0.241580843925, -0.182508572936, -0.274773508310, 0.004649834707, -0.117082580924, -0.017400067300, -0.219497755170, -0.179213285446, 0.046953991055, -0.089358165860, -0.398891061544, -0.334952235222, -0.221001297235, -0.062052957714, 0.035431053489, -0.075870223343, -0.032695356756, -0.115240603685, -0.059237383306, -0.088685289025, -0.173839062452, -0.073170684278, 0.041043221951, -0.021597482264, -0.156522080302, 0.060533378273, -0.023178763688, -0.016911521554, 0.002118088072, -0.316336333752, -0.178348705173, -0.186775386333, -0.200136020780, 0.131904542446, -0.312576770782, -0.263571947813, -0.303592145443, -0.289601176977, -0.059577930719, -0.017427176237, -0.206732332706, -0.219473853707, 0.002617398743, -0.007175287232, -0.009474309161, -0.026696531102, -0.091275230050, -0.159998908639, -0.105891905725, -0.043321460485, -0.040485661477, 0.021853961051, -0.074794851243, -0.143596306443, -0.124814055860, 0.089556746185, -0.166250184178, -0.393714010715, -0.413833260536, 0.003377848770, -0.029812198132, -0.274738490582, -0.014457601123, 0.008365909569, -0.026285069063, 0.039632387459, -0.090965040028, -0.118892714381, -0.048634137958, 0.036383353174, -0.091976933181, -0.358367681503, -0.256138294935, -0.031747844070, -0.285213887691, -0.050846993923, -0.021069411188, -0.023232800886, -0.014087098651, -0.061608426273, 0.035921510309, -0.216712400317, -0.033328242600, -0.138204127550, -0.228804737329, -0.381493568420, -0.330963402987, -0.059883344918, -0.046512097120, -0.118343777955, -0.199737921357, -0.047951634973, -0.038606289774, -0.195166915655, -0.188819974661, -0.450252950191, -0.281002223492, -0.279069751501, 0.033968266100, -0.119022123516, 0.029335848987, -0.329603761435, 0.065469987690, -0.208526164293, -0.058528386056, -0.019600607455, -0.288995295763, -0.045830070972, 0.059782858938, -0.310942083597, 0.050132691860, -0.178512051702, 0.025582149625, -0.012331283651, -0.324552834034, -0.092000193894, -0.017310969532, 0.023570874706, -0.083164975047, 0.029880112037, -0.265295624733, -0.079706236720, -0.359313845634, -0.124609701335, 0.001642649877, 0.006361002102, -0.163164034486, 0.009889206849, -0.008132613264, 0.060863759369, -0.162610471249, -0.085150323808, -0.065025568008, -0.069331042469, -0.137089878321, 0.040304183960, -0.153497770429, -0.185205191374, -0.213915988803, -0.081550896168, -0.114090465009, -0.184209868312, 0.028064958751, -0.319402396679, -0.209873899817, -0.033189058304, 0.061415750533, -0.366879701614, -0.146215662360, -0.235453233123, 0.020439948887, -0.048655416816, -0.029493525624, 0.006829340477, -0.106066331267, -0.041160583496, -0.013217383064, -0.114957496524, -0.010114697739, -0.015410292894, 0.034385994077, -0.402019470930, -0.321290850639, -0.164517849684, 0.011711088941, -0.081540673971, -0.159489065409, -0.023168392479, -0.320860445499, -0.360720396042, -0.118584863842, -0.121143788099, -0.295065373182, 0.004957564641, -0.132432043552, 0.062032625079, -0.119221456349, -0.237766325474, -0.237938404083, -0.102287277579, -0.052835047245, -0.296670049429, -0.024678867310, 0.014844814315, -0.315711915493, 0.042423848063, -0.263672202826, 0.046250153333, -0.047247882932, -0.077707655728, -0.070121608675, 0.020027609542, -0.445273160934, -0.181368842721, 0.017458254471, -0.034890305251, -0.012603938580, -0.045315902680, -0.021174442023, -0.173630475998, -0.135234564543, 0.003297438379, -0.003705415409, 0.015570054762, 0.062141992152, -0.337457239628, 0.050533968955, -0.302449584007, -0.373882472515, -0.308526128531, -0.057742573321, 0.013638019562, -0.216860994697, -0.024399861693, -0.024993473664, 0.007874575444, -0.137327536941, -0.126735150814, 0.061963170767, -0.168327227235, -0.135993838310, -0.131361410022, -0.290898114443, -0.016738694161, 0.083556428552, -0.174483209848, -0.202693894506, 0.088092334569, -0.201893404126, 0.015910031274, -0.178708523512, -0.198248520494, 0.079656146467, 0.041375264525, -0.105753816664, -0.381463319063, -0.029665028676, -0.001359183807, -0.276715308428, -0.240792617202, -0.009037482552, -0.006684122607, -0.022922405973, -0.306303948164, -0.030455674976, -0.234839946032, -0.077290631831, -0.013788638636, 0.033492483199, -0.166375502944, -0.022941429168, -0.232040598989, 0.002605780261, -0.023610498756, -0.244208484888, -0.091556124389, -0.061035174876, -0.137770667672, 0.005104271229, -0.267062246799, -0.004710248671, 0.057636234909, -0.365476995707, -0.342844545841, -0.014253209345, -0.307394891977, -0.121853187680, -0.128442108631, -0.218520820141, 0.040815383196, -0.407472074032, 0.033520061523, -0.024609832093, -0.267728716135, 0.049162343144, -0.235803231597, -0.115056321025, -0.038411375135, -0.150201812387, 0.019461298361, -0.188018202782, -0.183597818017, -0.094535008073, -0.205182224512, -0.087235823274, 0.048342090100, -0.217954412103, -0.328333318233, -0.363195329905, -0.009362887591, 0.047990750521, -0.171938374639, -0.199560925364, 0.032411508262, -0.233913064003, -0.234331443906, -0.113635055721, -0.006363739260, -0.287905633450, -0.040614038706, -0.268843114376, -0.272624790668, -0.098993025720, -0.135610014200, -0.242836102843, -0.180172011256, -0.194839432836, -0.011414812878, -0.007672362030, -0.019091922790, 0.021865909919, -0.064781017601, 0.009529378265, 0.021251039580, -0.298371911049, -0.208892017603, -0.314994513988, -0.248014539480, -0.268285036087, -0.188663333654, -0.464156597853, 0.027288010344, -0.366761445999, 0.003334719688, -0.034556657076, -0.331064492464, 0.001458039158, 0.011521819048, 0.092875100672, 0.023110765964, -0.022754231468, -0.037923179567, -0.274508237839, -0.026709724218, -0.005787043367, -0.311590701342, -0.025154309347, -0.152496457100, 0.015437950380, -0.005908567458, -0.028493296355, 0.054833095521, 0.062162492424, -0.093214564025, -0.190007388592, -0.125820875168, 0.007923911326, 0.095500096679, -0.064851537347, 0.094574607909, 0.077534116805, -0.036642469466, -0.155121371150, 0.034009281546, -0.141128644347, -0.097032129765, 0.019330078736, -0.267473816872, -0.224100798368, -0.093145042658, 0.032048560679, -0.033023919910, -0.060059931129, -0.315098822117, 0.076787099242, -0.126746028662, -0.378310918808, 0.104116782546, -0.152298316360, 0.109177768230, -0.152713045478, -0.050192628056, 0.008989908732, -0.151039883494, -0.370224505663, -0.359735369682, -0.056680522859, 0.085022032261, 0.019025638700, 0.005395486951, -0.016287276521, -0.257164239883, 0.008768384345, -0.238771647215, -0.260513395071, -0.035171106458, -0.184405669570, -0.359776109457, 0.025244137272, -0.426354825497, -0.041696026921, -0.318792909384, -0.240257531404, -0.154659286141, -0.025944434106, 0.043605718762, 0.009818179533, 0.009626807645, -0.241401508451, -0.258970052004, -0.096145637333, -0.098024390638, -0.067058876157, -0.065938442945, -0.025267843157, -0.250169068575, -0.275549709797, 0.016641398892, 0.007089738268, -0.232509851456, -0.142616793513, 0.095355302095, -0.079646565020, -0.041507732123, -0.026662679389, -0.475806653500, -0.148844569921, -0.247615799308, -0.051300350577, -0.039888203144, -0.233132079244, -0.189128518105, -0.042530562729, -0.297265738249, 0.093816913664, -0.052436269820, -0.165163382888, -0.017767686397, 0.028184700757, -0.180702403188, -0.335337936878, -0.242444172502, 0.045296486467, 0.093735449016, -0.206986099482, 0.010026795790, -0.260474681854, -0.243479609489, -0.013137709349, 0.033058922738, -0.519804656506, -0.234859362245, -0.097756966949, -0.345310986042, -0.051039069891, -0.045565053821, -0.215918585658, 0.028974199668, -0.159056991339, -0.319614291191, -0.304538935423, -0.332880884409, 0.046840474010, -0.106951951981, 0.081345461309, -0.235441893339, -0.005560882390, -0.190843045712, 0.024829251692, -0.434498846531, 0.074900954962, 0.046238251030, -0.179740235209, 0.049375481904, 0.056119740009, 0.058707714081, -0.216746345162, -0.024534728378, 0.034632645547, -0.097657144070, -0.042447116226, 0.024553108960, 0.010601619259, -0.263567119837, -0.230112299323, 0.069939963520, -0.167424485087, -0.116038784385, -0.305970311165, 0.012537127361, -0.083274334669, -0.332302004099, -0.089153528214, -0.147483319044, -0.269309699535, -0.169403433800, 0.067336693406, -0.045271378011, -0.221722319722, -0.167591467500, 0.051590651274, -0.093316383660, 0.065481975675, -0.084599755704, -0.187506884336, -0.291724234819, -0.340742856264, -0.016882026568, -0.047040164471, 0.030833080411, -0.203137829900, 0.033826537430, 0.043102845550, -0.428892374039, -0.351423263550, -0.221507653594, -0.018784962595, 0.018442150205, 0.003777525853, -0.015820115805, -0.015799799934, -0.255113035440, -0.049480725080, -0.317011058331, -0.106980457902, -0.129750370979, -0.030613427982, -0.172814130783, -0.243859604001, 0.003572691698, -0.088729940355, -0.164786368608, 0.016197906807, -0.074771009386, -0.044908721000, 0.055006898940, -0.001044905977, -0.105001762509, -0.108698271215, -0.254026949406, 0.092795401812, 0.000661823375, -0.350139290094, -0.190788492560, 0.036595948040, -0.423768043518, 0.013336581178, -0.245371937752, -0.290798276663, -0.056383263320, 0.045130796731, 0.063142068684, -0.310003966093, -0.143946573138, -0.016913808882, -0.138169869781, -0.075455635786, -0.161566779017, -0.019713122398, 0.016283357516, 0.088250987232, 0.096503786743, -0.227115303278, -0.002393058734, 0.004853589460, -0.433134853840, -0.028367798775, -0.013560388237, -0.113127447665, -0.165004700422, -0.029380131513, -0.139758825302, -0.041382797062, -0.108313575387, -0.292190492153, 0.000310102012, -0.073940858245, 0.002307911171, -0.125230446458, -0.024750085548, 0.132993161678, -0.245028838515, 0.013318144716, 0.050103500485, -0.425724446774, -0.270660519600, 0.006568347104, 0.008392459713, -0.372191041708, -0.007840181701, -0.030414327979, 0.034969750792, -0.128639400005, -0.280158907175, -0.155499070883, -0.398850351572, 0.032487411052, -0.336602985859, -0.170853838325, -0.254746079445, -0.117222063243, -0.141148298979, -0.386440187693, -0.322101414204, -0.380557477474, 0.022975191474, 0.048715848476, -0.216670930386, -0.018822042271, -0.196451678872, -0.317266732454, 0.014596372843, 0.012764897197, -0.401258736849, -0.047845855355, -0.056502349675, -0.457191109657, -0.019451726228, -0.076101817191, -0.259683609009, -0.000713272952, 0.040564604104, -0.331810057163, -0.609344303608, 0.007521180436, -0.032700225711, 0.053682390600, -0.184640049934, -0.358753800392, 0.000773674343, 0.013563923538, 0.023027086630, -0.252640694380, 0.008754706010, -0.010042746551, -0.129182413220, -0.009983548895, 0.085918880999, -0.218897774816, -0.086970902979, -0.319949716330, -0.129781767726, -0.240952134132, -0.233460649848, 0.005962509196, 0.021788712591, -0.100965775549, 0.011343792081, 0.004193716217, 0.037758100778, -0.266907364130, -0.195644646883, 0.089931510389, -0.180888563395, -0.026638187468, 0.012074063532, -0.401917010546, -0.377223134041, -0.364223599434, -0.212512224913, -0.001373582287, -0.087930336595, -0.234405994415, -0.081881172955, -0.071368299425, -0.304198145866, -0.220268368721, -0.006446030922, -0.176123604178, -0.009238810278, -0.328750044107, -0.189556583762, -0.140257477760, -0.557044267654, 0.061034429818, -0.009385182522, 0.049399461597, -0.242910474539, -0.107681967318, -0.279383510351, 0.028429210186, -0.307432889938, -0.405415058136, -0.210722386837, -0.006520300638, -0.024346735328, -0.359694033861, -0.449250549078, -0.123177267611, 0.053322695196, -0.043591868132, -0.016238164157, -0.148065298796, -0.335298687220, -0.017777709290, 0.030007714406, -0.309798628092, -0.117985442281, 0.051535584033, -0.007842912339, -0.023942722008, -0.333891540766, -0.250733703375, -0.339497178793, -0.021513305604, -0.049858290702, -0.209217041731, -0.347254574299, 0.017425213009, 0.075685545802, -0.224317893386, -0.375163942575, -0.184648945928, -0.193322718143, -0.108300879598, -0.074387133121, -0.281659901142, -0.103176631033, 0.033585831523, -0.082077249885, -0.246648252010, -0.010379550047, -0.246288925409, 0.053365778178, 0.003429147182, -0.016758127138, -0.165662169456, -0.014624120668, -0.052538439631, -0.167588621378, -0.115255370736, -0.164768978953, 0.036033265293, -0.335780233145, 0.018373854458, -0.007282279432, -0.283032536507, -0.032281398773, 0.119878135622, -0.191231325269, -0.011859590188, 0.021220963448, -0.330779522657, -0.194398283958, -0.163201823831, -0.246083691716, 0.053194552660, 0.019761230797, -0.278866529465, 0.025491099805, -0.012098849751, -0.056959994137, -0.191359743476, -0.411296576262, -0.144438117743, 0.011436220258, -0.331654667854, -0.004704151768, -0.102435722947, -0.204308718443, 0.029180821031, -0.176013737917, -0.238192483783, 0.054154992104, 0.029570978135, -0.376194030046, -0.018327225000, 0.070363432169, -0.147729054093, -0.400603204966, 0.008297828026, -0.337589740753, -0.146398141980, -0.013819254003, -0.257013469934, -0.124943986535, -0.098354212940, 0.009200988337, 0.031840849668, -0.342009723186, 0.044917564839, -0.237110599875, 0.002775390167, 0.013178165071, 0.011913415045, 0.009674918838, -0.207952931523, -0.256981045008, 0.024617547169, -0.194663628936, -0.316804558039, -0.248703271151, -0.138918012381, 0.023381067440, -0.031843215227, -0.170127034187, -0.090339615941, -0.002093935153, -0.178363159299, -0.124194756150, -0.112511970103, 0.032137457281, -0.096243999898, -0.213056400418, -0.076324544847, -0.139350101352, -0.066576860845, 0.046533454210, -0.002555229468, -0.385141372681, 0.074848487973, -0.001658401801, -0.065030261874, -0.461060911417, 0.002159768250, 0.026170607656, -0.232735067606, 0.021418552846, -0.325154066086, 0.013395713642, 0.029945917428, 0.023604782298, -0.177664563060, 0.005430367310, -0.121404178441, 0.058049775660, -0.229689195752, -0.063457131386, -0.030651854351, -0.341857165098, 0.010985243134, -0.200930118561, 0.006904220209, -0.279046386480, 0.000660658116, -0.198189467192, -0.010639825836, 0.076213322580, -0.068999536335, -0.198724552989, -0.114170618355, -0.278682053089, -0.017142074183, -0.204225227237, -0.214640796185, -0.312590271235, -0.262109190226, -0.005310209468, 0.032750099897, -0.141335710883, -0.189080640674, -0.365647375584, -0.362189024687, -0.177427977324, -0.043168455362, -0.307194620371, -0.082379862666, -0.104164980352, 0.024136148393, -0.056256547570, 0.023545291275, 0.007092848886, 0.066049613059, -0.053874652833, 0.027420882136, -0.373070269823, 0.014594324864, -0.298662632704, -0.077507510781, -0.245854347944, -0.135066255927, -0.048227861524, -0.093412652612, -0.330264031887, 0.045070223510, 0.045858953148, -0.220575883985, 0.001436357736, -0.023359116167, -0.326622128487, -0.328013539314, 0.023769998923, 0.037108913064, 0.044230397791, -0.195770025253, -0.009919743985, 0.009895879775, -0.250581443310};
#endif
