//Numpy array shape (512, 10)
//Min -0.852558612823
//Max 0.306491911411
//Number of zeros 0

weight_default_t w3[5120] = {0.038090534508, -0.246169745922, 0.045504931360, 0.013749860227, 0.004727168940, -0.130302608013, -0.387701332569, 0.046898722649, -0.076557509601, 0.005943759810, 0.050874836743, -0.141502037644, -0.326398819685, -0.503370404243, -0.499285399914, -0.180510416627, -0.002661598148, -0.388471245766, -0.235958158970, -0.283413141966, -0.456219434738, -0.298824876547, -0.316153824329, -0.184607625008, -0.208292216063, -0.060784507543, -0.407482475042, -0.313961714506, -0.104530893266, -0.118343755603, 0.085909463465, 0.042050469667, -0.403876245022, -0.008402124979, 0.052026133984, -0.285181343555, -0.187176808715, 0.000184948382, -0.024803459644, 0.014582333155, -0.321220755577, -0.224791228771, -0.092374503613, -0.294397771358, 0.082176677883, 0.007339463569, -0.066998206079, -0.032969761640, -0.259766101837, 0.070330470800, -0.783101975918, -0.448772400618, 0.049984417856, 0.076340876520, -0.229012832046, -0.296424835920, -0.044927645475, -0.341456681490, -0.336895465851, -0.208873316646, 0.118432253599, -0.039087843150, 0.028803126886, -0.180989295244, -0.183961734176, -0.154183819890, -0.323769032955, -0.407239288092, -0.065286941826, 0.024052061141, -0.230847060680, -0.013851455413, -0.374644041061, -0.008128744550, -0.238484844565, 0.074109613895, -0.063580095768, 0.108673170209, -0.119455717504, 0.124469995499, -0.380551338196, 0.011613409035, -0.162826016545, -0.149447634816, 0.074078880250, -0.429515659809, -0.352282285690, 0.084688395262, -0.021642833948, -0.453529179096, 0.004733448848, -0.064544990659, -0.025400847197, 0.102434799075, -0.012699207291, 0.090153425932, -0.068760283291, 0.025834610686, -0.310620218515, 0.041970178485, -0.347984135151, 0.076008230448, -0.327332407236, -0.417427152395, -0.031821653247, 0.008778230287, -0.295495599508, -0.289744764566, -0.015238085762, -0.352621257305, -0.433497995138, -0.022638605908, -0.536757290363, -0.368947774172, -0.024408435449, -0.253659158945, -0.315163999796, -0.236489415169, 0.020140225068, -0.568650722504, -0.582754850388, -0.495721578598, -0.085621401668, -0.358349412680, -0.082613147795, 0.080631479621, -0.005929942243, 0.062643893063, -0.214424341917, -0.089086785913, -0.243568152189, 0.001312113833, 0.067938327789, -0.104877784848, -0.333464950323, -0.045593798161, -0.093447685242, 0.050977088511, -0.116584315896, 0.082074649632, -0.200186058879, -0.344162493944, -0.316207915545, -0.018349710852, -0.303566336632, -0.023143321276, -0.327606916428, -0.242366164923, 0.052422564477, -0.219901114702, -0.712266147137, -0.137755826116, 0.057432886213, -0.129231214523, 0.064125679433, -0.074464887381, -0.226159974933, -0.236045405269, -0.300260275602, -0.253219187260, 0.126906216145, -0.208548665047, 0.095630027354, -0.230262398720, -0.243574336171, 0.028671704233, -0.035058517009, -0.226537808776, -0.363920122385, -0.051908165216, -0.052567817271, -0.236818492413, -0.329407155514, -0.224987149239, -0.282254308462, -0.348284661770, -0.203576728702, -0.006986367516, 0.001339077950, -0.232675433159, -0.330405712128, -0.324046850204, 0.088190332055, -0.178573727608, 0.106166087091, -0.440888673067, -0.315205812454, -0.011167852208, 0.142974495888, -0.221870943904, -0.375924289227, -0.126785740256, -0.486468374729, -0.392710059881, -0.222625195980, 0.000042463576, -0.106273032725, -0.476131856441, -0.182165801525, -0.079924270511, 0.022880382836, 0.029257321730, -0.110405966640, 0.146545186639, -0.097727477551, -0.014326718636, -0.332076042891, -0.292032301426, -0.039333216846, 0.025966962799, -0.312736451626, -0.136773005128, 0.017624836415, 0.149099603295, -0.205234706402, -0.290133982897, 0.038011990488, 0.045299891382, -0.174629047513, -0.205124348402, -0.070475414395, -0.122496247292, -0.025428041816, -0.147012084723, -0.181620106101, 0.061533506960, -0.600561559200, 0.087810121477, -0.256219506264, -0.470212578773, -0.131353408098, -0.165688842535, -0.337528645992, -0.187245309353, -0.204378589988, -0.090569719672, -0.273693203926, -0.236725300550, -0.130222290754, -0.157025218010, -0.009547399357, -0.420871466398, -0.113057069480, -0.213995784521, -0.230963230133, -0.224755063653, -0.374760478735, -0.082700751722, -0.261387884617, 0.026917312294, -0.432225972414, -0.318997979164, 0.014982106164, 0.047999992967, 0.095813915133, -0.131707504392, -0.554924190044, -0.332434266806, 0.052140943706, -0.043899949640, -0.199292540550, -0.045401345938, 0.064629778266, -0.388798266649, 0.045849476010, -0.076982602477, -0.075216315687, -0.169605031610, 0.060280434787, -0.288812309504, -0.287073165178, -0.391598910093, 0.146983563900, 0.049392346293, -0.216959863901, -0.435763865709, -0.379602164030, -0.176211684942, 0.101019449532, -0.199574038386, -0.382510900497, -0.262175589800, 0.008459319361, -0.236817345023, 0.012696304359, -0.015669448301, 0.004642796237, -0.144853860140, 0.025543631986, 0.014564486220, -0.377869546413, -0.231987684965, -0.059628561139, -0.440404891968, -0.144580185413, 0.098288588226, -0.280854910612, -0.417942225933, -0.203401744366, -0.164048820734, -0.458485037088, 0.023664390668, -0.258523404598, 0.124959327281, -0.120241373777, -0.037264656276, -0.588511168957, 0.022527797148, -0.325661629438, -0.224788412452, -0.270744264126, 0.078955233097, -0.197437420487, -0.364622026682, -0.076586581767, -0.018293159083, -0.280311405659, -0.035170730203, -0.013249331154, -0.227896958590, -0.170875027776, 0.086570776999, 0.026931356639, -0.328179627657, -0.259366422892, -0.007259898353, -0.006971674040, -0.341696411371, 0.064141474664, -0.208736672997, -0.177157431841, 0.036644242704, -0.271981328726, -0.278747498989, -0.015106356703, 0.013309464790, -0.142780885100, 0.025467114523, -0.276692628860, 0.035561453551, -0.149446964264, -0.052684146911, -0.016456225887, -0.021593928337, -0.045811157674, -0.091870136559, -0.060865622014, 0.040063932538, -0.097450561821, -0.249902740121, -0.047673992813, 0.060018718243, -0.397848337889, -0.201472133398, -0.183819010854, -0.582772612572, -0.153978794813, -0.112571798265, -0.250646203756, -0.314315319061, 0.029504990205, 0.005972650833, -0.356889098883, -0.351498842239, -0.406504631042, -0.040599454194, -0.012523468584, -0.296122014523, -0.473890513182, -0.200383991003, -0.039837580174, -0.450684219599, -0.187907010317, 0.023130312562, -0.334830403328, 0.044856254011, 0.004243038595, -0.196394696832, -0.109061069787, -0.329513460398, -0.018737735227, 0.026490611956, -0.157794669271, 0.017306067050, -0.209113866091, -0.390485137701, -0.226770028472, 0.033108361065, 0.040273014456, -0.419294089079, -0.055696312338, -0.080939382315, -0.176824986935, -0.188677877188, -0.418912351131, -0.386769056320, -0.195121824741, -0.000548990094, -0.014529608190, 0.018935823813, -0.394148886204, -0.185563415289, 0.001654626918, -0.223125383258, -0.047593958676, 0.097371123731, 0.013567429036, -0.186491444707, -0.188063725829, -0.034857831895, -0.291273176670, 0.098817691207, -0.060189742595, -0.159571826458, -0.119665376842, 0.031849116087, -0.338491469622, -0.056663677096, 0.069236516953, -0.036403149366, -0.123693563044, -0.376057863235, 0.021293470636, -0.070469126105, -0.207509279251, -0.188107758760, -0.180131509900, 0.052958257496, 0.009143820964, 0.077117070556, -0.201437160373, -0.132617160678, 0.029983777553, 0.082085691392, -0.039555463940, -0.318411350250, -0.143121734262, 0.040808960795, -0.168770536780, -0.181246504188, -0.206496447325, -0.068261831999, 0.032362516969, -0.252727866173, -0.010264757089, -0.124294824898, 0.010275805369, 0.046563297510, -0.058300353587, -0.308436721563, -0.082448683679, -0.252716392279, -0.272671967745, 0.043562926352, -0.001646693912, -0.256039232016, -0.423019528389, 0.072427846491, -0.239220291376, -0.035769212991, -0.086915001273, -0.081895433366, 0.021123666316, -0.213258877397, 0.033642347902, -0.110563375056, 0.089678868651, -0.537866592407, -0.329377532005, 0.007115557790, 0.027427280322, -0.181382805109, -0.061214130372, 0.002932718955, 0.064821541309, -0.268355160952, 0.074173487723, -0.370432257652, -0.026691127568, -0.033178158104, -0.345986068249, -0.312089592218, -0.031726188958, -0.367635697126, 0.035696011037, -0.402407944202, 0.006830328144, -0.261836379766, -0.603407084942, 0.018779175356, 0.048009172082, -0.261041730642, -0.096165120602, -0.205199524760, -0.462715148926, 0.102099321783, 0.029492085800, -0.418680667877, 0.037834532559, 0.017602207139, 0.004738641903, 0.017849968746, -0.012024383992, -0.307688623667, 0.011979003437, -0.199742391706, -0.342925876379, -0.039424974471, -0.071298338473, -0.190813064575, -0.262656211853, -0.203436851501, -0.161652743816, -0.099780261517, 0.040493752807, -0.306818991899, 0.081120297313, -0.350631207228, -0.177468970418, -0.455379843712, -0.361240565777, -0.246396735311, -0.269392967224, -0.043363519013, -0.034677106887, -0.105765849352, -0.250299483538, -0.399837046862, 0.022695746273, 0.002934088930, -0.267608731985, -0.025143578649, -0.005163026042, -0.024328464642, 0.083811506629, 0.050313584507, -0.160374522209, -0.040725965053, -0.127073764801, -0.099781274796, -0.309161931276, -0.148926079273, -0.509032905102, -0.002291423967, 0.137204304338, 0.029334297404, -0.278435647488, -0.013264874928, -0.037439998239, -0.496182233095, -0.394256353378, -0.221564754844, -0.261650383472, -0.298616319895, -0.245415925980, -0.309318035841, 0.064081586897, -0.074729390442, 0.041619699448, -0.130789771676, -0.360832840204, -0.215206056833, 0.040463816375, -0.138468384743, -0.019259918481, 0.059913527220, -0.093264751136, 0.078992202878, 0.094015449286, 0.020777979866, -0.019218470901, -0.004173180088, -0.430474549532, -0.440617382526, -0.096026286483, -0.423132002354, 0.054056309164, 0.056216318160, -0.047219816595, 0.085794702172, -0.264294981956, -0.203881531954, -0.573745250702, -0.254997581244, -0.131743490696, -0.173275545239, -0.144919738173, -0.370737731457, -0.373961776495, -0.208027765155, -0.072709843516, -0.001720999600, 0.086074583232, -0.218330278993, -0.132796630263, -0.250927478075, -0.051242761314, -0.090440392494, -0.053942020983, -0.185426250100, -0.393997132778, 0.020855812356, -0.195860490203, -0.123362295330, -0.487513363361, 0.133245691657, 0.041508436203, -0.249465703964, -0.003055672161, -0.213007360697, -0.417974442244, -0.359780132771, -0.376000851393, -0.363393247128, -0.178691282868, -0.238049253821, -0.262658834457, -0.161519289017, -0.327389299870, -0.111017465591, -0.311126917601, -0.302665799856, -0.168213725090, -0.094326794147, -0.014318763278, -0.337790817022, -0.330972790718, 0.050025824457, -0.032094553113, -0.114948391914, -0.070124745369, 0.025664493442, -0.118554092944, -0.260991841555, -0.320404827595, -0.047196280211, -0.316106826067, 0.023070262745, -0.330787569284, -0.174480155110, 0.015671962872, -0.239606335759, 0.043756008148, -0.196370497346, 0.084852293134, -0.031736787409, 0.031067602336, -0.224715948105, -0.162193611264, 0.019467946142, -0.366986751556, -0.368586927652, -0.044464614242, -0.342508107424, 0.024970196187, 0.018323808908, -0.008183848113, 0.025800533593, -0.222008064389, -0.271881222725, 0.085237242281, -0.016777120531, 0.093824714422, -0.344330430031, -0.412956506014, -0.253527075052, -0.331860572100, -0.198718085885, 0.064761191607, -0.345459073782, -0.244226694107, -0.208489641547, -0.384818971157, -0.009813544340, -0.366416156292, 0.100550621748, -0.464020192623, -0.120351403952, -0.201331675053, -0.318141520023, 0.050491712987, -0.088788263500, -0.056173589081, -0.138878956437, 0.048038277775, 0.041819579899, 0.023961028084, -0.137898802757, -0.128814786673, 0.094546154141, -0.806413412094, -0.035033673048, -0.375339716673, 0.075453184545, -0.193696886301, -0.073130600154, -0.261281371117, 0.032019723207, 0.097148358822, 0.045000977814, -0.078381329775, -0.318908393383, -0.269347041845, -0.316137462854, 0.013572194614, -0.108264796436, -0.251357346773, -0.146206811070, -0.056516636163, -0.013296860270, 0.235501989722, -0.139318302274, -0.852558612823, -0.243515193462, -0.008660750464, -0.374956965446, -0.011943175457, 0.062420058995, -0.152073934674, 0.006524203811, -0.016006354243, -0.367989122868, -0.235883861780, -0.226694524288, 0.001484721666, -0.422364205122, -0.338290005922, 0.081329837441, -0.423056066036, -0.410301893950, 0.051219541579, -0.126192823052, -0.228549391031, 0.041642047465, -0.461940288544, -0.412147670984, 0.007299650460, -0.378797948360, 0.022719804198, -0.343912035227, -0.466100364923, -0.359979540110, -0.325842022896, 0.038932137191, -0.140955969691, -0.420268207788, -0.187618926167, -0.347240030766, 0.009985102341, -0.129234805703, 0.005462389439, -0.377316743135, -0.220009624958, 0.074342615902, -0.311947494745, 0.057540420443, 0.030038533732, -0.109521083534, 0.076046936214, 0.069046415389, -0.001988317352, -0.309498935938, -0.361974686384, -0.224926665425, 0.072614930570, -0.304547935724, 0.042315408587, 0.075023114681, 0.031282413751, -0.188242033124, 0.015845101327, 0.008427178487, -0.331829458475, -0.318086951971, -0.365981638432, -0.496354192495, -0.013359525241, -0.254245489836, -0.018877824768, -0.281592488289, -0.053290363401, 0.017044575885, -0.211154580116, 0.033653628081, -0.410316109657, -0.123575277627, -0.075170330703, 0.023316515610, 0.023205447942, -0.302917838097, 0.059223562479, -0.249980747700, 0.050194542855, 0.109815567732, -0.079310297966, -0.199776202440, -0.208413451910, 0.000529082492, -0.267529040575, -0.339124172926, -0.776143729687, -0.224077805877, -0.017476378009, -0.256165683270, -0.293983340263, -0.244222462177, -0.176953881979, 0.015939580277, 0.023792777210, -0.351852387190, -0.280667543411, -0.030102100223, -0.162960901856, -0.093679323792, 0.022930925712, -0.015478111804, -0.038448136300, -0.364047259092, 0.107078894973, 0.091403223574, 0.094186499715, -0.282953560352, -0.401269972324, -0.512606978416, -0.281657487154, 0.128875672817, -0.118872553110, -0.005244100932, -0.247686684132, -0.417571783066, 0.045522239059, -0.009779678658, -0.024977618828, -0.165364146233, -0.350633770227, -0.177004039288, -0.320645600557, -0.044072613120, 0.081069849432, -0.331831365824, -0.343889474869, -0.423133552074, 0.159979373217, 0.040655016899, -0.132419705391, -0.431596577168, 0.043383251876, -0.256856948137, 0.031514275819, -0.005845210981, 0.051943726838, 0.142494082451, 0.041577391326, -0.152637183666, -0.310763984919, -0.343536913395, -0.457456678152, 0.039873827249, 0.095850907266, 0.013091116212, -0.369845092297, -0.414109438658, -0.398683428764, -0.471752583981, -0.005326059647, -0.107058189809, -0.019877877086, -0.106614924967, -0.091189891100, 0.056653529406, -0.180966898799, 0.000480707065, -0.096862539649, 0.020424412563, 0.033850952983, -0.238989844918, 0.067096933722, -0.292313963175, -0.231091588736, -0.374339044094, -0.031472016126, -0.143591672182, -0.391396194696, 0.006212671287, 0.004078147002, -0.213429972529, -0.009186845273, -0.051645878702, -0.219640240073, 0.048642557114, -0.230733439326, 0.067441888154, -0.060043182224, -0.076287128031, -0.054015070200, -0.411332130432, -0.393968671560, 0.027247609571, 0.016861137003, -0.290985524654, -0.361968159676, 0.048407193273, -0.093020349741, 0.008389532566, -0.024193465710, -0.079226844013, 0.153681874275, -0.045331165195, -0.125932499766, 0.029727730900, -0.079045079648, -0.196949124336, 0.069743983448, -0.319379448891, -0.046025447547, -0.040880531073, -0.298916339874, -0.008941099979, -0.148525744677, -0.054709594697, -0.086697556078, -0.007573526818, 0.000096573262, 0.026596918702, -0.049794711173, -0.096470534801, 0.004634131677, -0.316874921322, -0.073782630265, -0.256699204445, -0.294649213552, 0.011191288941, -0.063005708158, -0.122250750661, -0.020370116457, 0.033569812775, -0.012169872411, -0.495922982693, -0.093520864844, -0.386955916882, -0.213183343410, -0.030843921006, -0.043507564813, -0.497265517712, 0.094073981047, -0.002254321706, -0.097895659506, -0.313802629709, -0.342262804508, -0.073156453669, -0.160372897983, 0.032523371279, -0.238149017096, -0.137235969305, -0.269840300083, -0.119772031903, -0.309412240982, 0.115364126861, -0.474190682173, 0.014243162237, -0.290005177259, 0.014756433666, 0.030563896522, -0.101066358387, -0.341167986393, -0.021486520767, -0.415405273438, -0.054861176759, -0.000671990041, -0.042357139289, -0.127160280943, -0.315659940243, -0.295439422131, -0.270147085190, -0.140839055181, -0.439653158188, 0.089378654957, -0.039937403053, -0.212069541216, 0.022459393367, -0.309455454350, 0.023118235171, -0.143263861537, -0.424717932940, -0.094954378903, -0.299822509289, -0.042306993157, -0.012230982073, -0.381609588861, -0.397737562656, -0.023741684854, 0.017354236916, -0.583580076694, -0.238172903657, -0.055617943406, 0.050269212574, -0.026742976159, -0.384259074926, 0.036999553442, -0.029822435230, 0.098572321236, 0.059561356902, -0.191235587001, -0.170333489776, -0.422487139702, 0.002271164441, -0.144294902682, 0.027421001345, -0.518770992756, -0.341040253639, 0.038655042648, -0.352951943874, -0.284752279520, 0.090616531670, -0.037235774100, 0.087846800685, -0.068515978754, -0.008043260314, 0.060850918293, 0.039754990488, -0.385993719101, -0.055019564927, 0.067377060652, -0.261726826429, -0.053314477205, -0.112698897719, -0.276769042015, -0.121659599245, -0.282194167376, -0.144471809268, -0.405796647072, -0.321041435003, -0.337242573500, -0.021124582738, -0.016996473074, -0.314365029335, -0.218412920833, -0.000469052640, -0.362887561321, -0.310615330935, -0.234906405210, -0.257809489965, -0.051520723850, -0.023109948263, -0.111191466451, -0.158207416534, -0.122266232967, 0.007568017114, 0.130219951272, -0.128214493394, -0.026466956362, -0.321146219969, -0.024117035791, 0.015502125956, -0.197503224015, -0.086195871234, -0.151543438435, -0.124899111688, -0.152582153678, 0.006418233737, 0.037553418428, -0.027471892536, -0.110369645059, -0.203654021025, 0.033202618361, -0.206304639578, 0.080727234483, -0.014406873845, -0.351184308529, 0.071830987930, 0.091561868787, -0.011094055139, -0.012964032590, -0.309905409813, -0.145472854376, -0.311260581017, -0.240038201213, 0.002786120865, -0.041056118906, -0.041987836361, -0.244403973222, -0.082327097654, -0.007070231717, -0.016196122393, -0.098937109113, -0.081993892789, 0.021722493693, -0.358628660440, -0.357732176781, 0.026748685166, 0.099137924612, -0.329689055681, 0.031379874796, -0.052786629647, -0.296140700579, -0.178351506591, -0.029069717973, -0.265061289072, -0.086462073028, 0.036495521665, -0.095253810287, -0.040938772261, -0.032003954053, -0.155782148242, -0.099507443607, 0.029253728688, -0.034417584538, -0.115954481065, 0.036262780428, -0.567042529583, -0.214675903320, 0.001586490311, 0.054204668850, -0.098650500178, -0.172318890691, -0.330601781607, -0.266028672457, -0.202987238765, -0.015199842863, -0.032812822610, -0.227443009615, 0.015947388485, -0.279850870371, -0.066458262503, -0.065068915486, -0.272942572832, 0.011383994482, -0.236460030079, -0.137669622898, 0.069337233901, -0.211638391018, 0.069993592799, -0.188554883003, -0.291644155979, 0.007646693382, -0.136103644967, -0.134009405971, -0.316238015890, -0.121555052698, 0.029775030911, 0.062559098005, 0.049119517207, 0.067174769938, -0.193267941475, -0.372688800097, -0.247303411365, -0.064606234431, 0.057259723544, 0.014577960595, -0.195801422000, -0.235764503479, -0.093524664640, -0.277029961348, -0.004460243974, 0.048482585698, 0.026298841462, -0.203693732619, -0.159822389483, -0.120295166969, -0.121027931571, 0.038849372417, -0.193215563893, -0.018567150459, -0.046863678843, -0.319467812777, -0.272415012121, -0.055289614946, -0.023612245917, -0.305525362492, -0.099820747972, -0.263651162386, 0.040833786130, -0.030159963295, -0.012218927033, -0.295886367559, -0.334019362926, -0.086654901505, 0.148696497083, -0.285030424595, 0.024117307737, 0.037478208542, -0.122240461409, -0.008857993409, 0.167891964316, 0.050856176764, -0.011665952392, 0.034955851734, -0.058454006910, -0.177277952433, 0.041817370802, 0.062351964414, -0.049555029720, -0.089406922460, 0.027525229380, -0.070924080908, -0.253691524267, -0.250044792891, 0.040235027671, -0.107538759708, 0.010577807203, 0.007220487576, -0.085734486580, -0.287394940853, -0.073074944317, 0.061716713011, -0.007918138988, 0.022520484403, 0.020100185648, -0.362358897924, -0.443376392126, -0.140942260623, -0.280898392200, -0.420954316854, -0.057706799358, 0.114924684167, -0.300070732832, -0.168710276484, 0.069646462798, -0.047601561993, -0.429870188236, 0.073948487639, -0.251479476690, -0.273058861494, -0.062534488738, 0.095847412944, 0.034213025123, 0.055122405291, -0.124521806836, -0.273599326611, 0.011096339673, -0.123762466013, -0.055094368756, -0.255746960640, -0.202784419060, 0.006304533686, 0.009941876866, 0.061272442341, -0.134523108602, -0.157363265753, 0.008025354706, 0.017433892936, -0.060207244009, -0.046984221786, -0.322168290615, 0.052020516247, 0.040827117860, -0.117272123694, -0.334431678057, -0.019869631156, -0.188331350684, -0.174208104610, -0.007232164033, -0.190523684025, 0.033544201404, -0.089135050774, -0.077421262860, 0.022669183090, -0.041308499873, -0.374092489481, -0.035442925990, 0.031630173326, -0.184186756611, 0.044044572860, -0.056220963597, 0.019231801853, -0.289250642061, 0.053711004555, 0.032282073051, -0.081154912710, 0.010047659278, 0.024163652211, -0.162365972996, -0.259768277407, 0.039347749203, -0.379389673471, 0.004455387592, -0.214160010219, -0.413880884647, 0.027409953997, -0.188563004136, -0.165390029550, -0.359351068735, 0.012180260383, -0.033504568040, -0.223314926028, -0.024506535381, 0.071619182825, -0.465467303991, -0.212018996477, -0.116868518293, -0.083771727979, -0.086147591472, -0.217962116003, 0.050249125808, -0.344049125910, 0.044369809330, -0.033382028341, -0.255769640207, 0.038958255202, 0.054705537856, 0.008174461313, -0.239554867148, 0.109808161855, 0.052626628429, 0.027552697808, -0.299703270197, 0.049348913133, 0.092707782984, -0.393123716116, -0.303539901972, -0.158958002925, -0.160206839442, -0.205628901720, -0.042575132102, -0.307349175215, -0.276916652918, -0.202339261770, -0.265777468681, -0.004693071824, -0.445342481136, -0.007030830253, -0.348505437374, 0.003346957732, -0.001507898327, -0.162177667022, -0.343842148781, -0.048463273793, -0.387831985950, -0.004674562719, -0.057622455060, -0.230225026608, -0.131823599339, 0.000876748003, -0.224939689040, -0.178546443582, -0.267223358154, -0.287033975124, -0.255361080170, 0.048197288066, -0.288168907166, 0.105256758630, 0.041774649173, 0.028753241524, 0.099728964269, -0.155562132597, -0.184129849076, -0.041956506670, 0.071063339710, -0.010049267672, -0.036142118275, -0.260307461023, -0.322234302759, -0.310208827257, 0.052105043083, -0.296395272017, -0.000881182787, -0.058429934084, -0.225099489093, -0.362157613039, 0.021131765097, -0.185382068157, -0.221115931869, -0.036647714674, 0.042367052287, 0.026473026723, -0.204422086477, -0.116554901004, 0.062243003398, 0.023451581597, 0.064788095653, -0.149701401591, -0.307217746973, -0.158403411508, -0.100257068872, -0.303316950798, -0.373969823122, -0.269727617502, -0.422469198704, -0.000005489038, -0.365800738335, -0.179974809289, 0.062336955220, -0.125275686383, -0.052626580000, -0.146481007338, -0.051969435066, -0.254224687815, -0.036042612046, 0.028358785436, 0.051120072603, 0.080104477704, -0.077595733106, -0.412975430489, -0.068915314972, -0.198987901211, 0.094317033887, -0.232074469328, 0.027616331354, -0.313628554344, 0.059881143272, 0.010094361380, -0.200479850173, -0.065013915300, -0.334425389767, -0.156217515469, -0.274499893188, 0.008256972767, -0.149570226669, -0.164248749614, 0.054766707122, -0.268230795860, -0.301941841841, -0.262565463781, 0.058447342366, -0.440036803484, -0.241128250957, -0.234524697065, -0.367393732071, -0.188215881586, -0.196553498507, -0.031000332907, -0.096366986632, -0.014210764319, -0.290601819754, -0.023560909554, -0.253635913134, 0.043415486813, -0.275022625923, -0.036425016820, -0.339787960052, -0.311949640512, -0.358243256807, -0.014290945604, 0.006115051918, -0.010939213447, -0.114340923727, 0.030041044578, 0.016400713474, -0.105541229248, -0.016827186570, -0.253418713808, -0.101100414991, -0.037606440485, -0.048435866833, 0.057707637548, 0.036368370056, -0.178162604570, 0.020767323673, -0.269533485174, -0.253398358822, -0.019193144515, -0.000289589312, -0.022653227672, -0.180791959167, -0.308685421944, 0.077320732176, -0.006779120769, 0.018497634679, 0.020472794771, -0.012036708184, 0.016772927716, -0.149549216032, -0.021501321346, -0.358359128237, -0.337014764547, -0.218408092856, 0.005785017274, -0.085946261883, -0.000916311343, -0.068708613515, 0.084702804685, -0.059569351375, -0.038277253509, 0.015115302987, -0.039504557848, 0.009864641353, 0.035828717053, 0.030064813793, -0.257226347923, 0.105625592172, 0.045600302517, 0.039693932980, 0.075525194407, -0.355751991272, -0.080917365849, 0.046397645026, -0.269231736660, -0.054043963552, -0.118439339101, 0.094443134964, 0.018279163167, -0.422505497932, -0.247283339500, -0.290054142475, -0.101682305336, -0.043947201222, -0.416318476200, 0.057416804135, -0.277988225222, -0.265216529369, -0.417377024889, -0.014919163659, -0.044328514487, -0.056676771492, -0.283205598593, -0.340216100216, -0.019486308098, -0.029988376424, -0.437933981419, -0.065587192774, -0.153827294707, -0.359698414803, -0.290481001139, 0.048594608903, -0.031534474343, 0.046534687281, -0.256164163351, -0.366651892662, -0.308963388205, 0.056474957615, -0.213256746531, -0.168586000800, -0.052588980645, 0.022504620254, -0.335727810860, -0.174427658319, -0.059943143278, 0.035287972540, -0.202193364501, -0.168472945690, -0.115131705999, -0.056415677071, -0.179494813085, -0.107214137912, 0.011984697543, -0.234726160765, 0.063738018274, 0.062063548714, -0.484111636877, -0.105052545667, 0.058481037617, -0.011500159279, 0.041197568178, 0.053914997727, -0.183915019035, -0.229516118765, -0.025466199964, 0.028258934617, -0.281068474054, 0.023095441982, 0.074632801116, -0.079526320100, -0.158279210329, -0.105181589723, -0.031662281603, -0.258595943451, 0.051687531173, -0.235277354717, 0.065281808376, -0.147975057364, -0.253383666277, 0.015488723293, 0.122964054346, -0.251824945211, 0.098573148251, -0.095834158361, -0.223972827196, 0.023831514642, 0.045203439891, -0.209260597825, -0.204142495990, -0.008094476536, 0.004743522964, -0.284214019775, 0.027423709631, 0.145553022623, 0.004557696637, 0.081711478531, -0.170626223087, -0.231326267123, -0.521271646023, -0.156315028667, -0.138801768422, -0.234008014202, 0.084942370653, -0.232139289379, -0.559839487076, 0.039715696126, -0.343008488417, -0.120146639645, 0.042463604361, 0.067226924002, -0.428474277258, -0.185377761722, -0.309673637152, -0.166409030557, -0.394751846790, -0.184312671423, 0.121364034712, -0.003477324964, -0.149832546711, -0.161939650774, -0.007941602729, 0.069986328483, 0.030318826437, -0.091573849320, -0.190802559257, -0.287092626095, -0.223495036364, 0.099029317498, -0.020395461470, -0.084619008005, -0.143717303872, -0.031011354178, -0.174234777689, -0.063133306801, -0.154255867004, 0.112525798380, 0.072295904160, 0.057392947376, -0.070288456976, 0.068514533341, 0.098353214562, -0.000576727616, -0.384897202253, 0.030615508556, -0.187578678131, -0.406205773354, -0.269039779902, -0.101595878601, -0.185682535172, -0.092023655772, -0.193124815822, 0.055209852755, -0.081139929593, -0.196016803384, 0.035429108888, 0.077277772129, -0.244155183434, 0.075798444450, 0.035218931735, 0.109855607152, -0.007720111869, -0.005352591630, -0.127084970474, 0.026114244014, 0.031189026311, 0.004185799509, 0.069488674402, -0.072736695409, -0.259366869926, -0.118434987962, -0.071078956127, -0.252672165632, -0.347173541784, 0.016686547548, 0.117004901171, 0.069345615804, -0.316508293152, 0.061595667154, 0.000970795751, -0.048347435892, -0.301456898451, -0.321928709745, 0.003507537534, -0.010083726607, 0.131895855069, -0.059792734683, 0.032317288220, 0.049275394529, -0.169404342771, -0.185970366001, -0.220516815782, -0.450231403112, 0.100786678493, -0.068406350911, -0.433658629656, 0.005043883808, -0.306208759546, -0.195433139801, -0.306384444237, 0.085707865655, 0.306491911411, 0.057449612767, -0.152415081859, -0.055718813092, 0.011270263232, -0.212189927697, -0.293073832989, 0.053097825497, 0.041227981448, -0.343209266663, 0.011394095607, -0.316276133060, -0.102884739637, 0.031686481088, -0.162359133363, 0.056915532798, 0.008966582827, -0.252610355616, -0.005857875571, -0.118517667055, -0.037752360106, -0.082728125155, -0.053706642240, 0.004950182047, -0.060888618231, -0.220689728856, -0.442666411400, -0.056771330535, 0.003001197474, 0.075259141624, -0.201257839799, 0.011663835496, -0.504255414009, -0.407239854336, -0.298847466707, 0.030948773026, 0.047045066953, 0.033409398049, -0.028893144801, -0.306997120380, -0.267892807722, -0.237790152431, 0.053110919893, -0.044219132513, -0.125507488847, -0.097534112632, -0.446397155523, 0.003203398548, -0.216163694859, -0.088967666030, -0.229126781225, -0.422360897064, -0.093634754419, -0.270392000675, -0.209964245558, -0.017954031006, -0.091229915619, 0.112805023789, -0.268910229206, -0.305583775043, 0.022054944187, 0.024819888175, -0.311989843845, -0.324572801590, 0.050203550607, -0.344344615936, -0.161663427949, 0.028102362528, -0.063859008253, -0.272748082876, -0.309810787439, -0.252890735865, -0.369137167931, 0.009571417235, -0.089540071785, -0.167725503445, 0.026144051924, -0.079245083034, -0.268926143646, -0.060309641063, -0.031533535570, 0.013629651628, -0.235512435436, 0.010506491177, -0.400896608829, 0.118609949946, -0.153410688043, -0.477612912655, 0.077442705631, -0.205098569393, 0.009632308036, -0.123717829585, -0.010252119042, -0.358339458704, -0.118311882019, 0.070501044393, -0.211949631572, -0.230713993311, -0.069419473410, 0.037234865129, 0.084652222693, -0.202083259821, -0.361017912626, 0.092796817422, 0.016324670985, -0.120930857956, -0.137491971254, -0.011031978764, 0.032633785158, -0.279520481825, 0.107534244657, 0.067447178066, -0.041913717985, 0.040338002145, 0.027498399839, 0.035886276513, 0.065711803734, -0.252530276775, -0.371648252010, -0.039203684777, -0.201390668750, 0.038888864219, -0.286905378103, 0.043637182564, -0.333137005568, -0.039359472692, -0.188469737768, -0.428128898144, 0.070857107639, 0.044956617057, -0.264544129372, -0.155669927597, -0.143877953291, -0.308185577393, 0.075718559325, 0.015896139666, -0.163494303823, -0.126288220286, 0.101669088006, -0.137504115701, 0.096424646676, -0.317754596472, -0.235410481691, -0.090576618910, -0.124329663813, 0.013500598259, 0.043644849211, 0.034084312618, -0.042028177530, -0.267046898603, -0.094265066087, 0.036333400756, -0.007912673987, -0.126981973648, 0.005838758778, -0.096851833165, -0.029855323955, -0.389081567526, 0.082673460245, -0.205338478088, 0.011971949600, 0.051784373820, 0.013228659518, 0.082184091210, -0.213606268167, -0.012326421216, -0.117776006460, 0.107720792294, 0.074988670647, -0.097409285605, -0.276343911886, -0.233109831810, -0.273396998644, 0.053683348000, -0.366824477911, -0.318485796452, 0.044744610786, -0.084792383015, -0.154457062483, 0.075233593583, 0.045795664191, -0.156028479338, -0.236374899745, -0.350483864546, 0.092594183981, -0.017329791561, 0.062563128769, -0.206615984440, 0.081153765321, -0.226904496551, -0.107201352715, -0.423671633005, 0.036997396499, 0.008502521552, -0.069878958166, 0.047411240637, -0.193233683705, 0.004835461266, -0.095995754004, 0.094466999173, -0.410796165466, -0.380250602961, -0.082669839263, -0.300088971853, -0.329146653414, -0.100395932794, -0.279699504375, -0.243074536324, -0.003277213080, 0.046381432563, -0.117678336799, -0.141951128840, 0.078302025795, -0.169020637870, 0.005995143671, -0.172083169222, -0.342268645763, 0.112669341266, -0.223134666681, -0.145523175597, 0.064690314233, -0.107366472483, -0.014383197762, -0.011418662965, 0.183550164104, -0.266997456551, 0.111331261694, -0.213512495160, 0.053402375430, -0.047315347940, 0.107983469963, -0.433437764645, -0.259349763393, -0.076106220484, -0.246374323964, -0.006231252570, -0.271359264851, -0.276258468628, -0.377021670341, 0.039787534624, -0.389822363853, -0.200539782643, -0.091486848891, -0.170450627804, -0.153201177716, 0.009243690409, -0.285131126642, -0.398458540440, -0.044265568256, -0.111859425902, -0.257106423378, 0.023311030120, 0.100686907768, -0.067847073078, 0.048074476421, -0.193374291062, -0.065948598087, -0.135213211179, -0.001933410298, -0.241200044751, -0.206445410848, -0.534085988998, 0.027618480846, -0.297672748566, -0.123401336372, 0.011370845139, -0.104346968234, -0.229297354817, 0.037797532976, -0.071921885014, -0.092021413147, -0.156882464886, 0.035687826574, -0.078006736934, -0.063093334436, 0.058044154197, -0.274435788393, 0.004416673444, -0.442885220051, -0.080358654261, -0.249890029430, -0.243857860565, 0.018208125606, -0.401172697544, -0.203931063414, -0.156320959330, -0.260886579752, 0.026808779687, -0.012834845111, -0.092449806631, -0.225322246552, -0.318730980158, 0.069565542042, -0.196310460567, -0.127113252878, 0.076388567686, -0.253165900707, -0.358342051506, -0.193285182118, 0.148883283138, -0.091982267797, 0.023977605626, -0.009327621199, 0.073932893574, 0.030482636765, -0.070429697633, -0.146561890841, 0.001391153084, -0.190212592483, 0.029563846067, -0.184417068958, -0.012723829597, -0.096809610724, -0.251314431429, 0.088004782796, -0.023131264374, 0.159086272120, -0.108684562147, 0.084140703082, -0.269867092371, -0.171310797334, 0.080962441862, 0.135583758354, -0.228702068329, -0.187313959002, -0.137081772089, 0.113300144672, -0.140771806240, -0.238443285227, -0.284568250179, 0.014880955219, -0.125847160816, -0.134096905589, -0.256419271231, -0.458385527134, 0.047313302755, -0.184450060129, 0.084823891521, -0.590321779251, -0.194379001856, -0.239961490035, 0.057193320245, -0.002926315647, -0.157354488969, -0.034770689905, -0.072666779160, -0.200492352247, -0.579939007759, -0.022755894810, -0.102812424302, -0.073642879725, -0.095900632441, -0.235242694616, 0.034363009036, -0.203144252300, -0.242321327329, -0.058913189918, -0.240594044328, -0.212364986539, -0.459192574024, -0.046229515225, 0.051697004586, -0.017542799935, 0.031571209431, 0.114372901618, -0.380314528942, -0.298359394073, 0.005914080888, -0.013409564272, -0.565357863903, -0.263897508383, -0.287065178156, -0.058066442609, -0.063642255962, -0.004941321909, -0.003365488257, 0.007098581176, -0.121627219021, -0.120728015900, -0.522386670113, -0.075743809342, -0.363826721907, -0.060998462141, 0.029859136790, -0.215170040727, 0.002712183632, -0.363924503326, -0.213026374578, -0.133922263980, -0.026154432446, 0.000764705124, -0.205122217536, -0.229472070932, -0.173803880811, -0.349812746048, -0.153458833694, -0.001453430858, -0.174999728799, -0.294667184353, -0.019010631368, -0.161878198385, 0.048467081040, 0.059440229088, -0.217220500112, -0.154349386692, -0.237627938390, -0.256272852421, 0.055287286639, -0.092880733311, -0.329010277987, -0.030725430697, -0.160958200693, -0.370036035776, -0.268218249083, -0.029585568234, -0.015191326849, -0.431269645691, 0.017134506255, 0.009412974119, -0.139382198453, -0.338909685612, 0.044561367482, -0.168035402894, -0.253027230501, -0.066381044686, -0.101448804140, -0.047501977533, -0.124177478254, -0.416786462069, 0.080107972026, -0.042157024145, -0.320238560438, -0.479893505573, 0.038043465465, 0.022857284173, -0.194896847010, -0.087531283498, -0.013161669485, -0.037267230451, -0.103084877133, -0.449717313051, -0.318030983210, -0.385229021311, -0.285660386086, -0.423468858004, -0.089860148728, -0.007840625942, -0.265421628952, -0.223178416491, -0.229922786355, 0.027335563675, -0.162248760462, -0.132941439748, -0.102245703340, -0.118054270744, -0.403300136328, -0.608165621758, -0.035597212613, 0.026559906080, -0.210361763835, 0.022598411888, -0.496079683304, -0.155613422394, -0.012383054011, -0.273443400860, 0.056322585791, 0.001626122161, -0.417130976915, -0.028821907938, 0.004616552498, -0.090557932854, -0.351109236479, -0.279568910599, -0.502604722977, -0.271422833204, -0.376865595579, -0.022005911916, -0.385604411364, -0.161788210273, 0.050132367760, -0.013133787550, 0.086588121951, -0.103172004223, 0.003671756247, -0.388135641813, 0.077699370682, -0.276389688253, -0.071474425495, -0.013223485090, -0.205439761281, -0.288440257311, -0.469149202108, -0.000245982897, 0.014004715718, -0.300290048122, 0.007793165278, -0.215829223394, -0.141594558954, -0.287488013506, -0.299518465996, 0.024190425873, -0.099673740566, -0.107764512300, 0.032758485526, -0.267018765211, -0.197341501713, -0.001093490981, -0.014215102419, -0.117189072073, -0.086469009519, 0.002736748196, -0.346452593803, -0.555339336395, -0.089010760188, -0.090644121170, -0.297329246998, 0.010352838784, -0.000456732116, -0.219486847520, -0.002376245568, -0.362296253443, -0.059894789010, -0.282564103603, -0.196369856596, -0.224699556828, 0.014589292929, -0.428503692150, -0.010510286316, -0.319167703390, 0.028968201950, -0.207705661654, -0.434377998114, -0.306040406227, -0.118763968349, 0.033806238323, -0.256432771683, -0.244530200958, 0.015122336335, -0.100705616176, -0.107533305883, -0.273618906736, -0.519750416279, -0.099214851856, -0.241687774658, -0.059179939330, -0.068647317588, -0.011491994374, -0.137444183230, 0.056244757026, -0.412284553051, -0.106877721846, -0.217756643891, -0.006831841543, -0.138472735882, -0.059759061784, 0.047502994537, -0.329309254885, 0.053872149438, 0.003738834755, 0.010812298395, -0.376213937998, -0.147022038698, -0.076536171138, 0.066836602986, -0.091910794377, -0.171607196331, -0.279355853796, -0.185067400336, -0.007841355167, -0.377509832382, -0.009513133205, -0.118071116507, -0.347029685974, -0.187281683087, -0.005541079212, -0.044928669930, -0.029049135745, -0.026477588341, -0.171568900347, -0.282706201077, -0.471778571606, -0.014099236578, 0.001572682406, -0.212790742517, 0.080263808370, -0.547175645828, -0.142069980502, 0.004382839426, -0.043955143541, 0.050919469446, 0.028187900782, -0.401239126921, -0.170309782028, -0.262772321701, -0.095497347414, -0.008578551933, 0.021062802523, -0.166251346469, -0.160360202193, 0.039268143475, -0.238483279943, 0.079926997423, -0.028570476919, -0.274489402771, -0.248328760266, -0.267204999924, 0.000877692190, 0.064167715609, 0.081830583513, -0.040795229375, 0.038703765720, -0.384836226702, -0.229442045093, -0.049048110843, 0.029300192371, -0.053980156779, -0.111202351749, -0.226419761777, -0.243845328689, -0.018733441830, -0.393210053444, -0.030347136781, -0.085391774774, -0.128810018301, 0.004457168747, 0.039194412529, -0.199961766601, -0.379374176264, -0.300313353539, 0.038405243307, -0.192886561155, 0.052349645644, 0.096228815615, -0.233497768641, -0.313938915730, -0.224217548966, -0.309956610203, -0.098199032247, -0.263299107552, -0.275941967964, 0.011070981622, -0.273851096630, -0.080611445010, -0.060852862895, -0.483137518167, -0.287224769592, 0.052331328392, 0.024207284674, -0.253654718399, -0.548658549786, -0.412790477276, -0.105590455234, -0.282603025436, 0.005590124987, -0.055787187070, -0.355127274990, 0.053621474653, 0.002951808972, -0.388662040234, -0.120947360992, -0.391122907400, 0.055135119706, -0.090205483139, -0.535140514374, 0.003009389853, -0.243854328990, 0.063882708549, 0.016721157357, -0.329186111689, -0.128618851304, 0.033357191831, -0.060510385782, -0.214785858989, -0.307574272156, -0.039544615895, 0.026389734820, -0.267609477043, -0.152525559068, -0.060653164983, -0.557216346264, -0.025607485324, -0.230850934982, 0.003625732847, 0.023702090606, 0.015993475914, -0.252709090710, -0.191670745611, -0.078332483768, -0.299784123898, -0.159012958407, -0.281818807125, -0.298425704241, -0.193027436733, -0.224960923195, -0.154718682170, 0.108067497611, -0.087228365242, -0.075914382935, -0.365617692471, 0.084072381258, -0.016485413536, 0.012865012512, 0.023921228945, -0.051232699305, -0.299491703510, -0.092438653111, 0.033812109381, -0.203973010182, 0.058777000755, -0.276838213205, -0.256364673376, -0.400030583143, 0.003804498352, -0.021411756054, -0.021031666547, -0.090367794037, -0.295536130667, -0.123665586114, 0.066281743348, 0.010265755467, -0.164046585560, 0.039710525423, -0.304058939219, 0.017103239894, 0.025855770335, -0.312936276197, -0.274625062943, -0.307200908661, 0.058589912951, -0.228435054421, -0.243168622255, -0.553674757481, -0.248696774244, 0.023190025240, 0.011163027026, 0.028382018209, 0.015009837225, 0.020600341260, -0.301004528999, -0.093039266765, -0.176566585898, -0.313905209303, -0.287818223238, 0.010278662667, -0.090731523931, -0.143317475915, -0.280046343803, -0.296436190605, -0.051815018058, 0.069145455956, 0.078686699271, -0.336686551571, 0.025457462296, 0.018351366743, 0.034610617906, 0.006828870159, 0.000987529987, -0.089437387884, -0.060102328658, -0.055791895837, -0.070898719132, 0.053049907088, -0.205216318369, -0.524139285088, -0.434903264046, -0.342122584581, 0.009339352138, -0.018838688731, -0.282860577106, -0.479635715485, -0.231609418988, 0.093458369374, 0.000205985634, 0.020504312590, -0.260823369026, -0.170106142759, -0.320990264416, -0.271234899759, -0.086807481945, -0.038185134530, -0.597377479076, -0.119494818151, 0.037964090705, -0.368447303772, -0.392832189798, -0.330419957638, -0.365733504295, -0.335589587688, 0.037770293653, -0.258024960756, 0.015426286496, -0.301703572273, -0.048979189247, -0.156827405095, -0.352832376957, -0.003206322668, -0.037167917937, -0.059836227447, -0.336382269859, -0.296916782856, -0.259712755680, -0.190448001027, -0.017021104693, -0.315107733011, 0.015402548015, -0.178962692618, -0.028538372368, -0.262626767159, 0.034155163914, -0.076141163707, -0.252799034119, -0.152887806296, -0.338807702065, -0.307084411383, -0.240378290415, -0.250891834497, -0.216251745820, 0.016998607665, -0.004365283065, -0.065446913242, 0.037059821188, 0.039439707994, -0.152889937162, -0.357184678316, -0.262668520212, 0.061333525926, -0.394835263491, 0.036736905575, -0.139582231641, -0.011282408610, 0.039284929633, -0.251698613167, -0.414735645056, 0.085298873484, -0.602444648743, 0.038367077708, -0.112715005875, -0.187857434154, -0.123008511961, -0.588880896568, 0.024307729676, -0.015185918659, -0.067869544029, -0.001697334694, -0.069858312607, 0.047525066882, -0.135277166963, 0.005157156382, 0.015666335821, -0.129739224911, -0.010268592276, 0.074913375080, 0.048128072172, -0.118295691907, 0.097803108394, -0.016870195046, -0.225694224238, -0.135921418667, -0.205133453012, 0.011824852787, 0.037610590458, -0.164157509804, 0.033597353846, -0.026713531464, -0.049221850932, -0.289314240217, -0.245365291834, -0.328731238842, 0.026131404564, -0.231303751469, -0.351990282536, -0.243186071515, 0.011711956933, -0.176987960935, -0.337644755840, -0.268927961588, -0.217984616756, -0.018918247893, 0.017243066803, -0.001473251032, -0.235083490610, -0.019629847258, -0.234524741769, 0.077500283718, 0.043227013201, -0.186781913042, -0.168268308043, -0.229554072022, -0.215820312500, 0.064843341708, -0.007632996421, -0.109426446259, 0.095925010741, -0.141283810139, -0.185342118144, 0.125023365021, -0.050355318934, -0.315540730953, 0.037037342787, 0.052997685969, -0.080612391233, -0.291708350182, -0.043196000159, -0.282900094986, -0.126153558493, 0.040853470564, -0.374533414841, 0.109972223639, -0.017849409953, 0.044523496181, 0.063500538468, 0.126541927457, 0.041628070176, 0.021182356402, -0.318033635616, -0.299471557140, -0.303295940161, 0.050948038697, -0.264845967293, 0.046241246164, 0.027313657105, -0.203143328428, -0.215586513281, -0.221305683255, -0.290864974260, 0.084051147103, -0.221558272839, -0.231223478913, -0.227067112923, 0.073386885226, -0.107981100678, -0.194544255733, -0.036415867507, -0.050840482116, -0.322320669889, 0.066768117249, 0.001248594606, 0.011064662598, -0.374148070812, 0.001079955720, -0.273377537727, -0.393883436918, 0.010435006581, 0.017472378910, -0.307866156101, 0.057095620781, -0.158568203449, -0.311031043530, -0.011906285770, 0.061733976007, -0.021031200886, 0.054741665721, -0.245724648237, -0.037395771593, -0.143368244171, -0.235851690173, -0.489972621202, -0.094040922821, -0.095980860293, 0.077322065830, -0.126116514206, 0.086129851639, -0.185414090753, 0.024629814550, -0.322205841541, -0.338396191597, -0.315139383078, -0.071687273681, -0.019369002432, -0.068233996630, -0.023579023778, -0.284736871719, -0.221304073930, -0.254656344652, -0.026774780825, 0.035646576434, -0.294123053551, 0.030901201069, -0.008314229548, 0.040077842772, -0.378677308559, -0.049541659653, 0.012225891463, 0.088630653918, -0.095488809049, 0.058020934463, 0.004449184518, 0.086858600378, -0.334827810526, -0.054746668786, -0.243592292070, -0.182568505406, -0.123546153307, 0.035176504403, -0.218542143703, -0.246946498752, -0.153239786625, 0.066904142499, -0.154475480318, -0.380013823509, -0.216484248638, -0.019821669906, -0.061118282378, -0.222991794348, -0.301097095013, -0.279816418886, -0.201135888696, -0.217577442527, 0.086549788713, -0.178982675076, -0.017470790073, 0.086484394968, -0.335872858763, -0.220305562019, -0.436270236969, -0.253030419350, 0.068361446261, -0.014416516759, -0.109657324851, -0.454931408167, -0.252003520727, 0.000458978786, -0.000771350635, 0.116917498410, -0.388429284096, -0.338976383209, -0.131126716733, 0.009537576698, -0.352180659771, -0.023400584236, -0.417681604624, -0.332385003567, 0.061924576759, -0.187094599009, -0.025256443769, -0.355399101973, -0.295318901539, -0.136804237962, -0.140260398388, -0.065707966685, -0.016803173348, -0.251216143370, 0.123693197966, -0.330371499062, -0.173371762037, 0.005763836205, -0.117717899382, -0.108662128448, -0.199373304844, 0.095432437956, -0.175943270326, -0.112985149026, 0.075889050961, 0.030236812308, -0.129979357123, -0.008189280517, -0.310213655233, -0.170197546482, -0.092237286270, -0.067258417606, -0.235831305385, -0.226061776280, -0.283279627562, -0.362826675177, -0.299302726984, 0.027642117813, -0.334275215864, -0.007629803848, -0.240866720676, -0.222230479121, -0.376111924648, -0.186299085617, -0.109267011285, -0.079956844449, -0.123736344278, -0.370778918266, 0.088587060571, 0.059885617346, 0.013192362152, -0.238994643092, -0.363289982080, -0.179328933358, 0.043116260320, -0.297264426947, 0.078461140394, 0.071070462465, -0.226586997509, -0.266467243433, -0.124077200890, -0.249472215772, 0.010018138215, -0.094672560692, 0.059606540948, 0.063895568252, -0.237410336733, -0.341305524111, -0.136337563396, -0.085594303906, -0.277357459068, 0.032431565225, 0.046205863357, -0.300413817167, -0.042959634215, 0.048755358905, -0.219885170460, -0.016780676320, -0.061600286514, 0.015076490119, -0.227150991559, 0.051009248942, 0.066488385201, -0.376581192017, 0.065291605890, -0.322594016790, -0.303891241550, 0.015668053180, -0.194769486785, 0.082858406007, 0.035221986473, 0.002027334645, -0.007269599941, 0.004560460337, 0.045889064670, 0.096305154264, 0.037557620555, 0.023219544441, -0.466436207294, -0.170434862375, 0.052962243557, -0.427889227867, 0.044129002839, 0.007645240054, -0.206415474415, -0.220890894532, -0.318325251341, 0.084288612008, -0.286090821028, -0.005701838061, -0.041586901993, 0.080563619733, 0.074998930097, 0.000348529196, -0.307023227215, 0.022033089772, -0.004568855278, 0.063590556383, -0.187974661589, -0.325158417225, -0.064722783864, 0.058714777231, -0.057776726782, -0.104958064854, 0.053012050688, -0.127632439137, -0.309805691242, 0.005607331172, -0.206851556897, -0.166101634502, -0.122556641698, 0.044889908284, -0.178595557809, 0.023488000035, 0.088774196804, 0.076636090875, 0.097401484847, -0.174659952521, 0.066256038845, -0.274073153734, -0.206923618913, 0.064147397876, -0.020785026252, 0.050833847374, -0.263989388943, -0.224243804812, 0.066452182829, -0.122672967613, -0.161296486855, -0.211676388979, -0.238360866904, -0.302990853786, 0.021906817332, -0.247288256884, -0.291713178158, -0.190102249384, -0.141683742404, -0.060901198536, 0.019315483049, -0.241391450167, -0.239499613643, -0.020174557343, 0.087588869035, -0.049110878259, -0.026407809928, -0.008977971040, -0.009439788759, -0.098991535604, -0.055068925023, -0.187958925962, -0.027751144022, -0.099628925323, -0.037023205310, -0.117177218199, 0.071818113327, -0.071567051113, 0.062489051372, -0.385072261095, 0.037727452815, -0.174665361643, -0.099920228124, 0.075197540224, -0.166122987866, 0.101746767759, -0.042904160917, -0.322455108166, 0.060495626181, -0.267390757799, 0.112286314368, -0.258423656225, -0.089459277689, 0.070061437786, -0.026084082201, -0.212815314531, -0.141846284270, 0.062162224203, -0.153332233429, -0.269249826670, -0.021603062749, 0.107422553003, -0.076227001846, 0.082450591028, -0.260571926832, -0.102158851922, -0.191407561302, -0.209306448698, -0.219944119453, -0.357211858034, 0.055881965905, -0.371765851974, -0.073803164065, -0.000957865617, 0.007143123075, -0.081193625927, -0.293392390013, -0.012552455999, 0.006568097044, -0.010803682730, -0.003017666284, -0.224017381668, -0.173943907022, -0.213824346662, 0.053767774254, -0.192173928022, 0.039737448096, -0.168493866920, -0.389798551798, -0.388764262199, -0.175508826971, 0.039313312620, -0.116208426654, 0.017660403624, 0.162464424968, 0.097095556557, -0.259995371103, -0.226243510842, -0.120528429747, 0.024115115404, 0.057971090078, -0.074992179871, 0.028158761561, 0.019267557189, -0.328069835901, -0.344619303942, -0.120009116828, -0.223122224212, 0.014712832868, 0.066747173667, -0.223864436150, 0.007889770903, -0.328182667494, 0.015487427823, -0.061520334333, 0.008953706361, 0.030335068703, -0.321615844965, -0.271067887545, -0.090839385986, -0.124388843775, -0.296343863010, -0.465008199215, -0.268856257200, -0.383871376514, -0.323883384466, 0.059748400003, 0.070875853300, -0.013431155123, -0.148373186588, 0.085427187383, 0.110851056874, -0.181708723307, 0.054201200604, -0.282526373863, 0.088002294302, -0.137611344457, 0.110145248473, 0.026630230248, -0.204757496715, 0.047762453556, -0.268083453178, 0.031782388687, 0.063391409814, -0.021060369909, 0.069090202451, -0.243826225400, 0.006994126830, -0.366092711687, -0.136032417417, -0.218756064773, -0.009201543406, -0.266500860453, 0.006244655699, -0.138995602727, 0.007780561224, 0.070886708796, 0.077299199998, 0.027128927410, 0.038705926389, -0.040974155068, -0.101476348937, -0.199619412422, -0.285157889128, 0.095963604748, -0.298581033945, -0.002096324926, -0.285816460848, -0.308041602373, -0.046238951385, 0.122274741530, 0.012795450166, -0.070847481489, -0.278059333563, 0.034249354154, -0.006027261261, 0.061049032956, -0.471121877432, 0.018980504945, -0.198182463646, -0.152596443892, 0.103670552373, -0.241924032569, -0.012840779498, 0.162777513266, -0.150270149112, 0.005870693829, -0.332221329212, -0.052023991942, 0.066024646163, -0.067717447877, 0.051552217454, -0.171857461333, 0.046761341393, -0.062821991742, -0.044239811599, -0.361699402332, 0.035739783198, -0.076563417912, 0.100636035204, -0.143759012222, -0.176523521543, 0.037663530558, -0.327694952488, 0.003663626499, -0.121535487473, -0.016180736944, -0.328154593706, 0.061296001077, -0.034034993500, 0.011190687306, 0.067365609109, 0.033094838262, 0.084133096039, -0.292424738407, -0.063185065985, 0.062058310956, -0.147202655673, -0.270442277193, 0.055136911571, 0.014442068525, 0.035048115999, -0.154449582100, -0.160481676459, -0.263832658529, -0.050002232194, 0.054831396788, 0.065049923956, -0.261073142290, -0.255327373743, -0.212467685342, 0.025251042098, 0.009042564780, 0.016256077215, -0.023259034380, -0.346161335707, 0.081838987768, -0.230347007513, -0.384547352791, -0.484353125095, -0.290351808071, -0.014620603062, -0.468960523605, -0.084549345076, -0.330249369144, 0.027205433697, 0.072510577738, -0.115119338036, -0.001986235147, 0.028435193002, -0.366378247738, 0.046118363738, -0.444944381714, -0.013072543778, -0.221702679992, 0.009442290291, -0.194508716464, 0.045164693147, -0.265375345945, -0.042762834579, -0.504756093025, 0.018191682175, -0.600244760513, 0.039062779397, -0.114081181586, 0.051350269467, -0.168591901660, -0.196562841535, 0.008929496631, -0.275483906269, -0.250315874815, 0.052573326975, -0.033375553787, 0.000151319939, -0.301741361618, -0.248236209154, -0.034237399697, 0.009250323288, -0.419322937727, -0.192143663764, -0.446277230978, -0.044504392892, -0.035374041647, 0.073702588677, -0.199828997254, -0.450185149908, -0.350162863731, -0.061970174313, -0.053359925747, 0.019882006571, -0.228073835373, -0.316045910120, -0.283265560865, -0.092853546143, -0.033631302416, 0.035225477070, -0.039229571819, 0.061038240790, -0.589137017727, -0.090441413224, -0.005998119246, -0.338216960430, -0.284391462803, 0.055266451091, 0.012289259583, 0.040431816131, 0.052712470293, -0.023658353835, -0.019587900490, -0.388150632381, -0.248862951994, -0.053496215492, -0.081899404526, -0.522240519524, -0.209175825119, -0.045565195382, -0.192579418421, 0.058977004141, -0.024587446824, -0.319415926933, -0.018618319184, -0.191673502326, -0.160812526941, 0.034829646349, -0.154780760407, -0.216354578733, -0.028748717159, 0.065964266658, -0.156579539180, -0.289716511965, -0.394689470530, -0.121087044477, 0.022761557251, 0.047870080918, -0.277809232473, -0.232946574688, -0.012058360502, 0.003951414023, 0.008222304285, -0.052538797259, -0.010599571280, -0.042053211480, -0.033278994262, -0.528756678104, -0.442974478006, -0.649468302727, -0.018796199933, -0.319481581450, -0.043461076915, -0.263906061649, 0.027098543942, -0.314160495996, -0.346395939589, -0.112034514546, -0.001295963768, 0.064220100641, -0.433415919542, -0.381798267365, -0.117195613682, -0.038048461080, 0.116890430450, -0.009625094943, -0.018501397222, -0.065696105361, -0.006224277895, 0.046372544020, -0.025462191552, 0.015014764853, 0.010749028996, -0.013175983913, -0.268943786621, -0.393048822880, -0.283113658428, -0.090542584658, -0.326710373163, -0.019279791042, -0.175254821777, -0.430344194174, 0.012074139901, 0.032929759473, -0.043672204018, -0.491066426039, -0.104114189744, -0.184257805347, -0.155219629407, -0.368146330118, -0.186979994178, 0.009416781366, -0.030868960544, -0.322423815727, -0.318641871214, -0.151211947203, -0.394761860371, -0.116892844439, -0.514876365662, 0.101087071002, 0.099722124636, -0.174037426710, -0.251208752394, -0.398973405361, -0.075815096498, -0.403288125992, -0.001737185405, 0.037074130028, 0.002524629468, -0.050271861255, -0.260810047388, -0.388208955526, -0.480268418789, -0.291343033314, 0.048123568296, 0.029856815934, -0.047499157488, -0.144886121154, -0.207986965775, -0.181946426630, -0.334433764219, -0.534114658833, -0.107869453728, 0.036561507732, -0.233352005482, -0.255724012852, -0.251377433538, -0.170407265425, -0.104236245155, 0.052315026522, -0.456983268261, -0.209455251694, 0.003040687181, -0.078593082726, 0.040742538869, -0.022432684898, -0.052513472736, -0.112195476890, -0.047686751932, -0.058710910380, -0.025387572125, 0.017602371052, -0.245325714350, 0.001642326941, -0.179207757115, -0.078355066478, -0.222408235073, -0.483472049236, -0.487408667803, -0.343968629837, 0.085950240493, -0.069711081684, -0.274439454079, -0.311859816313, -0.579837560654, -0.170616328716, -0.035795912147, -0.294476449490, -0.266157209873, -0.307256311178, 0.083754047751, -0.080880083144, -0.204269886017, -0.106404885650, -0.307319313288, -0.043890394270, -0.048816457391, -0.104639664292, -0.006118473131, -0.275650233030, -0.225437864661, -0.322438329458, -0.232848048210, 0.060597624630, -0.254661560059, -0.290575921535, -0.313747584820, -0.121578879654, -0.375240087509, -0.507263779640, -0.009202019311, 0.021837959066, -0.076679520309, -0.076832644641, -0.318135976791, 0.067034035921, -0.227595195174, -0.252599865198, 0.068889416754, -0.013828476891, -0.292696714401, -0.361836522818, 0.094307571650, -0.401390045881, -0.461939722300, 0.035237312317, -0.011435917579, -0.066520348191, 0.058089271188, -0.079504929483, -0.139280393720, -0.002398650395, -0.459474116564, -0.307153671980, -0.007907379419, -0.437986403704, -0.175128787756, 0.044316675514, 0.020812345669, -0.159038275480, -0.008344812319, -0.347029387951, 0.019149301574, -0.057839937508, -0.006766925566, -0.002874379046, 0.006419633515, 0.014128212817, -0.444163769484, -0.068639554083, 0.017553400248, -0.545223593712, -0.216161563993, -0.009753514081, -0.079196304083, -0.429053097963, -0.001127074938, -0.036715384573, -0.600092470646, -0.296529352665, -0.042799290270, -0.028682423756, 0.001385984011, -0.001423858339, -0.457379937172, 0.003417011350, -0.039999876171, -0.017303995788, -0.438638001680, -0.157813996077, -0.379720896482, -0.218811556697, -0.026356542483, 0.026257492602, -0.344623237848, -0.223584368825, -0.109864421189, -0.410763889551, 0.003963825759, 0.048710070550, -0.189561724663, -0.465622395277, -0.047372825444, -0.529077172279, -0.094243466854, -0.340016484261, 0.059004124254, -0.066827341914, 0.053786925972, -0.300072818995, 0.008280064911, 0.009557432495, -0.019399017096, -0.097324848175, -0.271879583597, 0.095635555685, -0.294494748116, -0.078771933913, -0.349088817835, 0.019776301458, -0.260345548391, -0.341779112816, 0.057306818664, 0.040081445128, 0.041514102370, 0.117331750691, 0.019120004028, 0.079759292305, 0.095851793885, -0.028039757162, -0.395679146051, -0.396135956049, -0.136148363352, -0.583029687405, -0.144621357322, -0.330749720335, -0.422204613686, -0.460520654917, -0.522896051407, -0.004327064380, -0.363425225019, -0.295680701733, -0.080186024308, -0.281308889389, -0.325973987579, -0.388198137283, -0.154335558414, -0.486032307148, 0.080825395882, -0.013975902461, 0.018335683271, -0.207280114293, -0.367991775274, -0.372069865465, 0.031237654388, 0.008737731725, 0.051450703293, 0.069521740079, -0.032882720232, -0.036543626338, -0.275198698044, -0.195936217904, -0.318156629801, -0.264138996601, -0.005640757270, 0.052636586130, 0.053694579750, -0.353508114815, -0.170034900308, -0.080974392593, -0.159379750490, -0.094763055444, -0.630904674530, -0.155129209161, 0.006182847545, -0.207728430629, -0.138199076056, -0.188616812229, -0.053610336035, -0.319264292717, -0.114479154348, -0.076683670282, 0.123296886683, -0.360987037420, -0.239326402545, 0.050610173494, -0.338616639376, 0.059201247990, -0.050218448043, -0.498343586922, -0.491085976362, 0.016079990193, -0.222006201744, -0.100398704410, -0.287735760212, -0.045637641102, 0.075949855149, -0.037090092897, -0.060230560601, -0.090083494782, -0.157061740756, -0.092565856874, 0.019325662404, -0.051770497113, -0.003763562301, 0.026798335835, 0.006381724495, 0.039608519524, -0.117299035192, 0.001338198548, -0.037513658404, -0.157327577472, -0.104466810822, -0.035767253488, -0.252270132303, -0.069655545056, -0.106734335423, -0.384079396725, -0.228318855166, -0.265321850777, -0.014660723507, -0.002243768191, -0.067563608289, -0.082364656031, -0.290965259075, -0.248568415642, -0.168298751116, 0.003101998707, -0.360738456249, -0.150171563029, -0.024615775794, -0.366957008839, -0.199046432972, -0.529177784920, -0.187901034951, -0.229705065489, -0.036150649190, 0.006993157789, -0.400476574898, -0.256738811731, -0.071471862495, -0.017680549994, -0.270679205656, -0.022904735059, 0.014132455923, -0.417066037655, -0.630454838276, -0.175067067146, 0.022367602214, -0.006540821865, -0.137736961246, -0.295503497124, -0.026838542894, -0.080677121878, 0.052360706031, -0.197135478258, -0.058962784708, -0.057034306228, 0.134008020163, -0.370309948921, 0.005487408955, -0.311529338360, 0.045501526445, -0.308284908533, -0.023591788486, 0.009982665069, -0.379385352135, 0.028130209073, 0.025128511712, 0.064917705953, -0.036994975060, 0.038776718080, -0.181150972843, -0.011880381964, -0.017029110342, -0.229815602303, 0.029468597844, -0.102970153093, 0.048182159662, -0.114564411342, -0.035087138414, -0.039828576148, -0.214388668537, 0.040654413402, -0.432116627693, -0.214934498072, 0.016518739983, -0.033174313605, -0.226295650005, -0.025820245966, -0.045742459595, -0.215612679720, -0.375818669796, -0.392407417297, -0.093992181122, -0.003171908669, -0.287643104792, 0.119573079050, -0.434973686934, -0.381001114845, 0.005388076883, 0.023285301402, -0.261642783880, 0.037905633450, -0.173650741577, -0.435596942902, -0.232465162873, -0.077129721642, -0.325389117002, 0.006074585952, -0.244925901294, -0.330383658409, -0.020047914237, -0.359805762768, 0.032136935741, 0.116130411625, -0.260520309210, -0.088715903461, 0.010667165741, -0.326236039400, -0.036357406527, -0.273680388927, -0.029395593330, -0.094930820167, 0.051501896232, -0.213996812701, -0.043754868209, -0.092110693455, -0.320038437843, -0.270859241486, -0.226692855358, -0.526911914349, -0.030043948442, -0.455904722214, -0.365092545748, -0.001886831131, -0.010283753276, 0.022285655141, 0.087870143354, -0.329933732748, -0.076836764812, -0.139891088009, -0.278217852116, -0.185151964426, -0.083642214537, 0.026134172454, 0.006100891624, -0.299437284470, -0.063903965056, 0.023529836908, -0.180224359035, -0.014757402241, 0.040260992944, 0.068268403411, -0.411371707916, 0.010367218405, -0.007208891679, 0.069448933005, -0.237039983273, 0.040529418737, -0.276635646820, -0.013053054921, -0.063801333308, -0.447123557329, 0.005986241624, -0.161395564675, -0.449754506350, -0.108728796244, 0.031886350363, -0.193104237318, -0.372060149908, -0.284136950970, 0.098590068519, -0.110230132937, 0.035512700677, -0.336132824421, 0.068617492914, -0.277984708548, 0.025472786278, 0.067351736128, -0.020707719028, -0.417046427727, -0.184579923749, -0.309060841799, -0.282875776291, -0.265240192413, -0.199282377958, 0.001352890977, -0.062776505947, -0.302602410316, -0.293078362942, -0.313326358795, 0.015828769654, -0.094857059419, 0.121596716344, 0.012788217515, -0.034109190106, -0.244635120034, -0.066075436771, -0.295373618603, 0.071219235659, -0.034193355590, 0.083035357296, 0.009221515618, 0.049707699567, 0.149144962430, -0.018357241526, 0.096507489681, -0.173726856709, 0.038643702865, -0.030196014792, 0.113239549100, 0.105942003429, -0.171245485544, -0.000401489873, -0.054521366954, 0.004516399466, -0.021952543408, -0.007169344462, -0.229178518057, -0.008251692168, 0.020729742944, -0.011663631536, 0.006420566700, 0.042146481574, 0.038201808929, 0.049101024866, 0.023730497807, -0.166310310364, -0.174026414752, -0.297560751438, -0.027643853799, 0.085904598236, -0.067952238023, -0.202831521630, -0.028594875708, -0.518795967102, 0.121936149895, 0.027186326683, 0.045233868062, 0.059040054679, -0.268255233765, -0.032061770558, -0.044172059745, -0.407139360905, 0.021506279707, -0.185158997774, 0.028218738735, -0.103630878031, 0.013486873358, -0.131413862109, -0.165667027235, -0.070175096393, 0.057808928192, 0.040366310626, -0.059111017734, -0.261390894651, -0.314270168543, -0.193358063698, 0.027804698795, -0.123272739351, -0.231938064098, -0.340480297804, -0.023537512869, -0.244897753000, -0.155468970537, 0.034355912358, -0.198007002473, -0.243849098682, -0.174125418067, -0.153735443950, -0.016893679276, 0.001984152710, 0.027377061546, -0.247060447931, -0.059901963919, -0.311092913151, -0.155048549175, -0.359097093344, -0.293077349663, -0.302573680878, -0.522120833397, -0.023820858449, -0.038902014494, -0.003041594522, -0.425903409719, -0.241453036666, -0.271049052477, -0.276681840420, 0.034450590611, -0.230711698532, 0.038317833096, -0.039751492441, -0.297463148832, -0.282931953669, -0.188955187798, -0.333404242992, -0.217692077160, 0.054636057466, 0.021940920502, -0.092440821230, 0.001059302711, 0.028163917363, -0.329853951931, -0.188536271453, -0.215691253543, 0.058005481958, 0.029817335308, 0.053875818849, -0.027468344197, -0.126870647073, -0.325051873922, -0.436301231384, 0.044424332678, -0.037040513009, -0.315998256207, -0.080328337848, -0.045526783913, 0.005916649010, -0.299955755472, 0.116871207952, -0.026591097936, -0.318704038858, 0.030750639737, -0.058476604521, -0.218647658825, -0.249080538750, -0.389174699783, -0.004569122568, 0.071074314415, -0.348504155874, -0.203375771642, -0.261993765831, 0.001446557930, -0.235682666302, 0.007641206030, -0.155002489686, 0.018388777971, -0.097831696272, -0.307560563087, -0.072429157794, 0.080636277795, 0.097723662853, -0.204769134521, -0.108542270958, -0.043564327061, 0.096513435245, -0.246088489890, 0.012161211111, -0.235507979989, 0.007774111815, -0.286808669567, -0.174561664462, -0.115287870169, -0.416846185923, 0.035727065057, -0.006318504456, -0.313383907080, -0.058314461261, -0.145726516843, -0.601190567017, -0.320287644863, -0.281626820564, -0.406553596258, -0.014910977334, 0.054111618549, -0.017709547654, 0.062897317111, -0.169844865799, -0.279862374067, 0.029399503022, -0.257176548243, -0.401583671570, 0.006567543373, 0.006657600403, 0.016409564763, -0.082775868475, 0.007521500811, -0.013052893803, -0.022652050480, 0.041814550757, 0.004617779050, -0.214295268059, -0.031839270145, -0.107696808875, 0.045968074352, -0.252604007721, -0.111141249537, -0.363294124603, -0.126591473818, -0.079660974443, -0.240961253643, -0.174747318029, -0.212437167764, 0.064478799701, -0.043446891010, 0.000268416828, -0.237843260169, -0.105822786689, 0.036845441908, -0.010552225634, 0.038031820208, 0.037323344499, -0.208487302065, 0.068190276623, -0.025649862364, -0.030226450413, -0.047069519758, -0.278097718954, 0.062005124986, 0.032526712865, -0.035467900336, -0.063170291483, -0.251680135727, 0.007628515363, 0.035336073488, -0.053669996560, -0.073170073330, -0.084217160940, -0.252380698919, -0.019538797438, -0.003188384697, -0.251849353313, -0.283208191395, -0.374106228352, -0.313530713320, -0.090230241418, 0.003067042213, 0.038112539798, 0.015068579465, -0.141959443688, 0.106297500432, -0.071881115437, -0.174131855369, 0.048816561699, 0.011439727619, 0.008652209304, -0.006041046698, -0.002354914555, -0.370119869709, -0.043170366436, 0.125372111797, 0.089600428939, -0.251007646322, -0.044215902686, 0.025596570224, 0.057753849775, -0.001042097807, 0.004353046883, -0.048789300025, 0.058827061206, -0.090615183115, 0.029266634956, -0.383902668953, -0.079346679151, -0.128193259239, -0.016649343073, -0.038588263094, -0.199271038175, 0.120562888682, -0.506832420826, -0.003587215440, 0.001437083702, 0.045793589205, -0.209861725569, 0.010862872005, 0.065596856177, 0.029154505581, -0.348260909319, -0.319632947445, -0.327041506767, -0.023509809747, -0.162722915411, -0.082898013294, -0.184258133173, 0.072715148330, -0.370989739895, 0.046701487154, -0.386202156544, -0.030786272138, -0.164207249880, -0.034872002900, 0.060898493975, -0.081930525601, -0.046128027141, -0.312197566032, -0.472672820091, -0.226804301143, -0.424412161112, -0.044586047530, 0.101784467697, 0.029354579747, -0.027145817876, -0.276026844978, -0.079938046634, -0.322112083435, -0.014670429751, -0.343243628740, -0.361648231745, -0.210983872414, -0.003684015945, -0.030875580385, 0.000863156107, -0.087514758110, -0.286987960339, -0.068290308118, -0.219860956073, -0.048575788736, -0.098692759871, -0.249223053455, -0.146487742662, -0.194387108088, -0.312392681837, -0.239553257823, -0.206024840474, -0.261405408382, -0.393591463566, -0.002644095803, -0.029278676957, -0.372959554195, -0.125692695379, 0.057273719460, -0.061863757670, -0.176500305533, -0.367060691118, -0.130714401603, 0.025450790301, -0.051592014730, -0.212113499641, -0.102886877954, -0.255258142948, -0.022899247706, 0.012181898579, -0.308148413897, 0.030881432816, -0.210684284568, -0.171047657728, 0.034129630774, -0.226692870259, -0.024148786440, -0.101321257651, 0.083148330450, -0.313628196716, 0.013704842888, -0.110033884645, 0.017535090446, 0.024064650759, -0.004474712536, 0.044786307961, -0.298579484224, 0.014962692745, -0.005578778684, 0.098311133683, 0.094020292163, 0.041743047535, -0.191573187709, -0.204868361354, -0.040231510997, -0.090137965977, 0.029924804345, -0.467038601637, -0.186773747206, 0.078938595951, -0.018640633672, 0.064578093588, -0.016481788829, -0.489782303572, -0.210173383355, -0.373329639435, -0.030547866598, -0.382134586573, -0.156264424324, 0.004593094345, -0.010279194452, -0.232742771506, -0.339103132486, -0.400354623795, -0.226414471865, -0.130530223250, -0.200510337949, -0.266638517380, 0.102230228484, 0.087922990322, -0.198032692075, -0.021822132170, -0.044579762965, 0.019314350560, -0.050359204412, -0.272986233234, -0.317563503981, 0.088147066534, 0.036768987775, -0.038485474885, -0.282994389534, 0.038158491254, -0.233619168401, 0.004272139631, -0.335639566183, -0.252968251705, -0.364442735910, -0.279910832644, 0.034699186683, -0.154501006007, -0.163707569242, -0.145219549537, -0.063356801867, 0.066469430923, -0.020956907421, -0.105029448867, -0.360451042652, -0.121014215052, -0.075433284044, -0.434348195791, 0.093139156699, 0.017913661897, -0.028809480369, 0.045419428498, 0.058577906340, 0.041708353907, 0.085877925158, 0.028293928131, -0.335386753082, -0.242443501949, 0.065846845508, -0.051423877478, -0.214406371117, -0.227622747421, 0.074268445373, -0.206536635756, -0.030748751014, 0.008770830929, -0.045250572264, -0.083357878029, -0.008019999601, -0.027324128896, -0.224337592721, -0.029988715425, -0.271682292223, 0.029957771301, -0.234226062894, -0.074640512466, -0.303677678108, -0.051470346749, -0.239693284035, -0.327964723110, -0.041484758258, -0.047298818827, -0.055410463363, -0.105288140476, -0.091845929623, -0.057568721473, -0.084729023278, -0.207924067974, 0.012726152316, -0.033328477293, -0.309883534908, -0.236587956548, -0.204244390130, -0.116558030248, 0.014246292412, -0.023526713252, -0.253943085670, -0.090723939240, -0.295042753220, -0.030876770616, -0.270399332047, 0.063220836222, -0.317099332809, -0.036647520959, -0.192239299417, 0.021009279415, -0.474554598331, 0.017489774153, -0.004159089178, -0.346033811569, 0.004102749750, -0.147028207779, 0.014794918709, -0.015899976715, -0.195404797792, -0.278892189264, 0.050215419382, -0.109852924943, -0.150139614940, 0.036653261632, -0.107842095196, -0.365378588438, -0.015782685950, -0.289946585894, -0.189290001988, -0.306275874376, -0.230815619230, 0.066071219742, -0.061816170812, 0.063546955585, -0.234097361565, -0.287108331919, -0.220890611410, -0.037189107388, -0.160412490368, 0.030311692506, -0.309689640999, 0.033768434078, -0.193400233984, -0.035727180541, 0.065045125782, -0.247422963381, -0.122431084514, 0.073677510023, -0.066178202629, -0.032767090946, -0.040266789496, -0.368144512177, -0.101461358368, 0.031202046201, -0.160686954856, -0.271130651236, -0.353199124336, -0.218824341893, -0.326018214226, -0.059642605484, -0.159129559994, -0.111266687512, 0.007718562149, -0.367699027061, -0.113375715911, 0.046799208969, -0.045625973493, -0.340712130070, -0.307748347521, 0.012215377763, 0.063322328031, -0.048418004066, 0.002994857030, -0.049056213349, 0.031612057239, -0.403743207455, -0.054780632257, -0.114345960319, -0.131614357233, -0.002031414537, -0.053519714624, -0.124893389642, -0.145142778754, -0.194303333759, -0.210522577167, -0.039761971682, 0.015729654580, -0.343811661005, -0.145532786846, -0.116186611354, -0.023137152195, -0.104588232934, 0.042218796909, -0.082712918520, 0.029539113864, 0.021624416113, -0.033054199070, -0.154651075602, -0.203957542777, -0.250271111727, -0.284863024950, -0.020358879119, 0.049358814955, -0.229910805821, -0.079056635499, 0.100083604455, 0.003370106220, 0.049159802496, 0.013940066099, -0.341521650553, -0.049117662013, -0.086923547089, -0.257638126612, 0.108477398753, -0.288576155901, -0.294305711985, -0.031058428809, -0.011098479852, -0.250732839108, -0.265630185604, -0.034559205174, -0.294513016939, -0.040264185518, -0.073176518083, -0.047393985093, -0.226716846228, -0.082105539739, -0.036191407591, 0.043928969651, -0.385025322437, -0.071988172829, -0.085301399231, 0.051210533828, -0.077466040850, -0.078214168549, 0.006058367901, -0.353561967611, -0.006641265936, -0.273667454720, -0.135384604335, -0.182466417551, -0.247092813253, -0.233806580305, -0.107640668750, -0.342198640108, -0.031783517450, -0.282990306616, 0.007961911149, 0.014487896115, -0.219547718763, 0.009117223322, 0.051114540547, -0.264113903046, -0.245703816414, -0.256704568863, -0.037921831012, -0.008841751143, -0.472133398056, -0.145183742046, -0.381353169680, 0.027509966865, -0.007865766995, -0.270070731640, -0.191973716021, -0.181141540408, -0.133186355233, -0.340998947620, 0.055992517620, 0.036154881120, -0.055797692388, -0.224774017930, -0.446049928665, -0.201677918434, -0.014809033833, -0.319201499224, 0.034340012819, -0.508134782314, 0.017625749111, -0.010196936317, -0.029249168932, -0.201898291707, -0.076604031026, -0.262299388647, -0.314123004675, -0.153701066971, 0.047810498625, 0.039781846106, -0.089437648654, 0.036089602858, -0.042630542070, 0.024692857638, -0.285072922707, -0.089231744409, -0.080974251032, -0.113947197795, -0.009437812492, 0.044241286814, 0.011056138203, 0.016463052481, 0.029084367678, -0.370640993118, -0.106043152511, -0.115833424032, 0.026413554326, -0.161227390170, -0.115141957998, -0.128148153424, -0.049153633416, -0.086862221360, -0.249724000692, -0.229060113430, 0.053326804191, 0.067928589880, -0.013359094970, -0.021311582997, -0.016516571864, -0.267015069723, -0.317582666874, -0.112670078874, -0.213447004557, 0.002423349535, -0.110182538629, -0.256165534258, -0.077684126794, -0.029230633751, -0.227502584457, -0.260305225849, -0.003551389789, 0.063802920282, -0.157061919570, 0.006771629211, -0.293840169907, -0.169711634517, 0.056278873235, -0.209813401103, -0.098718523979, -0.085479982197, -0.175333395600, 0.131886228919, -0.169500216842, -0.027447612956, 0.047762736678, -0.037281855941, -0.090082041919, -0.066054590046, -0.253663182259, -0.010643583722, -0.158857464790, -0.268692016602, -0.272837370634, -0.090966977179, 0.061355181038, -0.256061255932, -0.101473517716, -0.117929100990, -0.140457972884, -0.153876379132, -0.294478774071, 0.012387582101, -0.272545546293, -0.128038123250, -0.041680447757, -0.013898069970, 0.008531059138, -0.074167221785, -0.222320109606, -0.154088318348, -0.018498091027, -0.355136483908, 0.057752326131, -0.236599668860, -0.232931956649, -0.230619296432, -0.074590526521, -0.065005816519, -0.151059895754, -0.157059937716, 0.011769661680, -0.170451238751, -0.172983482480, -0.210326254368, -0.060999944806, 0.070643052459, -0.061255615205, -0.159543484449, -0.086449801922, 0.041804317385, -0.032955449075, -0.238873019814, -0.301579117775, 0.005991967395, -0.109013937414, 0.068536743522, -0.095175899565, 0.005307798274, -0.044522888958, 0.057588826865, -0.287407010794, 0.006982065737, 0.010325849988, -0.071088418365, -0.316470772028, 0.002715728479, -0.021818183362, 0.031918056309, -0.119919337332, 0.007392589469, -0.005774444435, 0.010218556039, -0.059842504561, -0.038531992584, 0.010542702861, 0.021345244721, -0.035921130329, -0.051420457661, -0.006482604425, 0.012832726352, -0.212632700801, -0.356361448765, -0.093641847372, -0.080333739519, -0.031188976020, -0.232940718532, -0.060954514891, -0.250088334084, -0.114983566105, -0.288618892431, -0.155161231756, -0.262204170227, 0.040789976716, -0.033633850515, -0.059122204781, -0.088287644088, -0.374881118536, -0.126994192600, -0.297745019197, -0.090942092240, -0.022090040147, -0.317064225674, 0.017170792446, 0.046466588974, -0.227270245552, 0.018704185262, -0.150774106383, 0.039478436112, 0.028852520511, -0.118829570711, -0.398203670979, -0.017057234421, 0.076300598681, -0.175963580608, -0.301404446363, -0.226666942239, -0.083999112248, -0.156964749098, 0.011364899576, -0.032894056290, -0.025218291208, -0.077707156539, -0.106622502208, -0.227567240596, -0.067793227732, -0.014878379181, -0.066933453083, -0.047324042767, 0.012407851405, -0.155620470643, -0.054921612144, -0.419352531433, -0.067458234727, -0.081240668893, 0.015412789769, -0.226705253124, -0.150851339102, -0.201033219695, 0.047739643604, 0.043883092701, -0.107588045299, -0.014702914283, -0.013381933793, -0.083645962179, -0.003304576036, 0.037082824856, -0.408808261156, -0.214286208153, 0.031723994762, -0.142096936703, 0.033784057945, 0.034130133688, -0.227679550648, 0.021869564429, -0.086210004985, -0.040008254349, -0.125658527017, -0.048172768205, 0.045612365007, -0.062465764582, -0.060150437057, 0.003209413728, -0.182625830173, -0.040325548500, -0.306311428547, -0.150164335966, -0.074800334871, -0.217297166586, -0.231332838535, -0.228069812059, -0.250361442566, -0.054610613734, 0.028724616393, -0.263139903545, -0.014044737443, -0.220352694392, -0.183263435960, 0.048296093941, -0.028040565550, -0.030745554715, -0.040471859276, 0.019179871306, -0.056864194572, -0.302514702082, -0.277800500393, -0.020361501724, -0.004162486643, -0.014541503042, -0.251054078341, -0.038128312677, -0.031946048141, 0.025827368721, -0.286237567663, -0.393406122923, -0.149115338922, -0.422142744064, -0.223447024822, 0.002588353120, -0.009469533339, -0.225938156247, -0.282504141331, -0.406311541796, -0.163292318583, 0.018707204610, 0.014654546976, -0.114204064012, -0.355571866035, -0.190749332309, -0.074060685933, -0.027151789516, -0.190134644508, -0.121297448874, -0.155188173056, -0.101172000170, 0.005072589964, 0.080272182822, 0.031779665500, -0.293049126863, -0.022277440876, -0.293017923832, -0.325954467058, 0.014379962347, 0.023890979588, -0.041269827634, -0.169316157699, -0.010041920468, -0.198945805430, -0.169608771801, -0.120260305703, -0.312316358089, 0.048901516944, 0.018497137353, -0.132467806339, 0.002449297346, 0.078420758247, 0.065396979451, -0.098264664412, -0.162712916732, -0.348251760006, -0.320172667503, -0.217337921262, -0.291528016329, -0.331572890282, -0.031316462904, -0.029575055465, -0.212301969528, -0.041391707957, -0.437185823917, -0.005378580652, -0.241653338075, -0.027475571260, 0.034142591059, -0.022921273485, -0.154287964106, -0.013920092024, -0.333391755819, -0.157588317990, -0.327764064074, 0.018978282809, -0.027623353526, -0.363575220108, -0.036423288286, -0.159138664603, -0.056253053248, 0.032849632204, -0.015342313796, -0.312885820866, 0.023037258536, -0.063555948436, -0.296373128891, 0.009170091711, 0.003869816894, -0.117320284247, -0.201129198074, -0.170089751482, -0.268084287643, -0.017651041970, 0.044265016913, -0.168920144439, -0.205974325538, -0.002412633039, -0.176757216454, -0.445662409067, 0.010460431688, -0.021928215399, 0.024469589815, 0.031694736332, 0.019649406895, -0.239137753844, -0.215952828526, -0.465387940407, 0.004122078419, -0.124693252146, 0.049714520574, -0.320678204298, -0.061947181821, -0.326776742935, -0.079177550972, -0.290895253420, -0.382487326860, 0.027645481750, 0.000169986743, 0.000494818960, -0.180670976639, -0.139558330178, -0.368461698294, -0.252544015646, -0.041442804039, 0.032651130110, -0.087541162968, -0.111474066973, 0.026017634198, -0.315544039011, -0.243834808469, -0.010154279880, -0.170245274901, 0.082305066288, -0.085972465575, 0.009146476164, 0.032224684954, -0.119518809021, 0.046680051833, -0.056217424572, -0.187771528959, -0.069790348411, 0.044665399939, -0.042024441063, -0.051839631051, -0.360348671675, -0.217067241669, -0.205174699426, 0.019403127953, -0.266363471746, 0.007812413853, -0.351478606462, 0.063133597374, 0.053418684751, -0.066284917295, -0.048218872398, 0.083475604653, -0.272269546986, -0.210290387273, -0.054867554456, 0.009492652491, -0.304046571255, -0.436710178852, -0.194450244308, -0.147872343659, -0.088936448097, 0.029538583010, -0.040770158172, 0.034526471049, -0.236576825380, -0.148352086544, 0.003407306504, 0.049592617899, 0.000834922248, 0.018158001825, -0.052519857883, -0.235205024481, -0.036723639816, -0.135496884584, -0.431502431631, -0.398267030716, -0.384917795658, -0.288260549307, -0.289341628551, -0.050262093544, -0.022925958037, -0.003296311479, -0.035047877580, -0.177521809936, -0.174426391721, 0.033442549407, -0.103098750114, 0.012365931645, -0.077975496650, -0.022833144292, -0.212177991867, -0.060161057860, -0.079387374222, -0.073577843606, -0.130564838648, -0.098441123962, 0.042201358825, -0.457231104374, -0.008265953511, 0.050012778491, -0.080521158874, -0.006479861215, -0.151843130589, -0.113122723997, -0.114083185792, 0.066616006196, 0.027688138187, -0.087411470711, -0.039998389781, -0.230827048421, -0.409695178270, -0.429354310036, -0.052821245044, -0.045610096306, -0.283231794834, -0.156881362200, -0.195165053010, -0.287849664688, -0.277946829796, -0.287834078074, 0.002243524650, -0.026499582455, -0.027993110940, -0.035988733172, -0.232864290476, -0.163904085755, -0.241092562675, -0.174862504005, 0.078417904675, -0.149823039770, -0.019825179130, -0.357530683279, -0.029145486653, -0.056232318282, -0.139441967010, -0.115447081625, -0.006111806724, -0.029533492401, -0.287893056870, -0.229423657060, -0.141014099121, -0.390936732292, -0.015265309252, -0.195405721664, -0.147507220507, -0.116701364517, 0.037771381438, -0.152252301574, 0.011701242067, -0.284617573023, 0.088788159192, -0.001523105195, 0.005831440445, 0.113124996424, -0.031726572663, -0.167387157679, -0.020148321986, -0.078515224159, -0.252712249756, 0.052300311625, 0.088911868632, -0.094455905259, 0.015871455893, 0.029490819201, -0.217747077346, -0.084955938160, -0.438546150923, -0.143517017365, -0.165711238980, -0.190367594361, 0.027971064672, 0.037750765681, 0.047708075494, -0.210905760527, -0.009574523196, -0.005461907946, 0.052408557385, -0.466285824776, -0.000810905942, 0.002176700626, -0.085592597723, 0.028475245461, -0.053736176342, -0.208179593086, -0.260202407837, 0.004377545789, 0.022674392909, 0.019816242158, -0.336793482304, -0.144921615720, -0.060991842300, 0.002873531310, -0.461309313774, 0.039498232305, -0.000141943456, 0.056775715202, -0.336015015841, -0.450747728348, -0.321699380875, -0.106560505927, -0.029956862330, -0.344020307064, 0.052490610629, -0.286008685827, -0.036994695663, -0.077297270298, -0.366939812899, -0.523550331593, -0.185946792364, -0.030358990654, -0.336896449327, -0.140238672495, 0.028563950211, -0.210249572992, -0.197393149137, 0.050502974540, 0.054910946637, -0.060213219374, -0.022486839443, -0.166092500091, -0.159927189350, 0.049137357622, -0.015316851437, -0.010361729190, -0.054062683135, -0.279708981514, -0.019602380693, -0.508916616440, 0.038461562246, -0.021001560614, -0.138163521886, -0.051930651069, -0.276399195194, -0.001588588697, 0.014913439751, -0.226245597005, -0.028835643083, -0.327509224415, 0.048863835633, 0.088830053806, -0.020181635395, -0.301191806793, -0.276476800442, 0.042455039918, -0.204084038734, -0.379966676235, -0.036093540490, -0.019008291885, -0.215054646134, -0.346565514803, 0.004426693078, 0.037965241820, -0.036545138806, -0.002807957120, -0.097127072513, 0.004992130212, -0.014429718256, -0.365280807018, -0.271050035954, -0.016941690817, -0.478566080332, 0.057786978781, -0.144026473165, -0.017025476322, 0.028261659667, -0.085916742682, -0.004290975165, -0.070284426212, -0.032060895115, -0.299584805965, 0.023527989164, 0.034029621631, -0.189469680190, -0.175758540630, -0.190593272448, -0.208816617727, 0.051113456488, -0.015674751252, -0.235619440675, -0.067601546645, -0.004949504044, 0.002328217262, -0.413737535477, 0.027212798595, -0.097376391292, -0.217144176364, 0.067607596517, -0.321534842253, 0.037839028984, -0.373438507318, 0.010994061828, 0.008161657490, 0.133195340633, -0.200711786747, 0.051031567156, 0.012447179295, 0.119409762323, -0.010909102857, -0.364793926477, -0.003407424549, -0.304300934076, -0.155619740486, 0.019830996171, -0.017968261614, -0.005151202437, -0.190478503704, -0.174661770463, 0.093560248613, 0.012424266897, -0.183985337615, -0.198471382260, -0.238742768764, 0.006369299255, -0.396838188171, -0.225385770202, -0.024993102998, -0.059777960181, -0.023697234690, -0.037800349295, -0.253357976675, -0.132706761360, -0.071618378162, 0.023011455312, 0.026445196941, -0.066075503826, -0.030261933804, -0.190993070602, -0.065869569778, -0.300804048777, -0.016962544993, 0.015793679282, -0.063633613288, -0.243170678616, 0.005542103667, 0.069698609412, -0.093474030495, -0.035785961896, -0.433421909809, -0.360151320696, -0.033291742206, 0.049245063215, 0.032152909786, -0.280892670155, -0.244472399354, -0.011144341901, -0.133289843798, -0.150496125221, -0.256430298090, -0.450927376747, -0.294658064842, -0.052093334496, -0.305807620287, -0.043480500579, -0.137878015637, 0.024479707703, -0.195648178458, -0.065831229091, -0.141248986125, -0.140796616673, 0.071232929826, -0.211509764194, -0.022609297186, -0.395407944918, -0.248347714543, -0.024360852316, -0.167714148760, -0.369504123926, -0.018489809707, -0.072354234755, -0.010392359458, -0.197640284896, -0.248501613736, -0.187292724848, -0.305591940880, -0.026108594611, -0.071334674954, -0.017039133236, -0.382639110088, 0.080549918115, -0.247917875648, -0.147298708558, 0.000312840129, -0.027507580817, 0.061971686780, -0.241845726967, -0.052604727447, -0.207507550716, -0.025634227321, -0.083542130888, -0.234164819121, -0.112757369876, -0.000200930357, 0.038906835020, -0.490789830685, -0.329703271389, 0.001685189665, -0.291200339794, -0.153553783894, -0.243493482471, 0.024216268212, -0.087262377143, -0.253632903099, 0.052085395902, 0.020897312090, -0.260940641165, 0.023843113333, -0.177152425051, -0.262103229761, 0.142276346684, 0.035676062107, 0.058416426182, -0.281444281340, -0.231527715921, -0.098394572735, -0.098429739475, -0.064942784607, 0.030513403937, -0.131144404411, -0.205510765314, -0.277578026056, 0.048054028302, -0.312982916832, 0.013387229294, -0.310676544905, -0.034920390695, -0.030209952965, -0.036935713142, -0.005557121243, -0.247329056263, -0.079719781876, -0.290070861578, -0.254200398922, -0.309765726328, -0.450019717216, 0.032276995480, -0.237749829888, -0.231367528439, -0.471651643515, -0.271415829659, -0.132877334952};
