//Numpy array shape (30, 500)
//Min -0.145871341228
//Max 0.141807049513
//Number of zeros 0

#ifndef __SYNTHESIS__
weight_default_t w1[15000];
#else
weight_default_t w1[15000] = {-0.085867315531, 0.086805060506, 0.100234299898, -0.044090498239, 0.025764105842, -0.071959421039, -0.045144036412, -0.043925680220, -0.037643924356, -0.086410589516, 0.082942463458, -0.083783105016, -0.090900242329, 0.098774008453, 0.069582909346, -0.073170490563, 0.113166861236, -0.056391380727, 0.070813685656, 0.015515157022, 0.082794010639, 0.069038525224, -0.010944549926, 0.038557123393, -0.032842356712, 0.076353780925, -0.056779388338, 0.023700086400, 0.019413735718, 0.076978102326, -0.100468844175, 0.079346679151, -0.091141074896, -0.002057111124, -0.099048733711, 0.122231498361, 0.034772109240, 0.024265050888, -0.031522400677, -0.024274928495, 0.075925946236, 0.091529019177, -0.069646023214, -0.045326717198, 0.078998140991, -0.046331591904, -0.066766843200, -0.020813897252, -0.080150343478, -0.037855543196, 0.047841403633, 0.044983919710, -0.023682102561, -0.101624898612, -0.078520439565, 0.116299040616, 0.057392671704, -0.062104102224, 0.055934119970, 0.005650525447, -0.077505491674, -0.056252788752, 0.094714567065, 0.075713403523, -0.024515818805, -0.049209594727, -0.023744242266, -0.060107912868, -0.019362797961, 0.053556609899, 0.037113215774, 0.047938421369, -0.084391608834, -0.031921718270, 0.046500217170, -0.012262200005, 0.043722204864, 0.015504152514, -0.001569287619, 0.057196516544, -0.032671682537, 0.030560038984, 0.071672923863, 0.023072246462, -0.081061273813, 0.008799256757, 0.069242238998, 0.026597378775, 0.051460303366, -0.002311244607, 0.000284455338, 0.036692593247, -0.001054944703, -0.003378923517, 0.026232231408, -0.104928486049, 0.053676348180, 0.035018771887, 0.106052376330, 0.089815169573, -0.011514460668, -0.027284512296, -0.067526124418, 0.053005032241, 0.089822195470, -0.063330747187, -0.002784864046, 0.094972230494, 0.079302832484, -0.043242309242, 0.101564101875, 0.073973014951, 0.077562890947, 0.044484410435, -0.058996558189, 0.041776251048, -0.022268248722, 0.095826730132, -0.035843763500, 0.014628199860, 0.064681738615, 0.038939177990, -0.024307576939, -0.020489517599, 0.046005696058, 0.044943362474, -0.019870556891, 0.025122839957, 0.059329014271, -0.066734880209, -0.020304623991, -0.002571327612, 0.023381201550, 0.006957575679, 0.045359361917, 0.056061998010, 0.038806475699, 0.028978189453, 0.033749520779, 0.021173009649, 0.038529530168, 0.069644361734, 0.083578504622, 0.092856414616, 0.034404046834, -0.057892903686, -0.056228030473, 0.019012220204, 0.084123305976, 0.041344422847, 0.013351077214, 0.075196400285, 0.045686166734, -0.051798254251, 0.059506136924, 0.086190462112, -0.095318108797, -0.014523874968, -0.035867653787, -0.058978322893, 0.086409881711, 0.037849653512, 0.058424983174, -0.014579573646, -0.032819312066, 0.022157572210, 0.085435211658, 0.051588248461, 0.110470011830, 0.043406970799, 0.044382330030, -0.065894469619, 0.020613826811, 0.060950379819, -0.007493832614, -0.067042104900, -0.045623514801, 0.067813098431, -0.005346411373, 0.034908566624, 0.077034488320, 0.061670459807, -0.090234115720, -0.080084919930, 0.009637591429, -0.092618897557, 0.054291248322, -0.035428486764, 0.002823217772, -0.040964715183, 0.054192356765, 0.079464443028, -0.036018423736, 0.075509607792, -0.062239807099, -0.054799243808, 0.075283773243, 0.055904213339, 0.026050023735, 0.018773604184, 0.024738285691, -0.003714967053, -0.040397558361, 0.087133087218, -0.115560628474, -0.071438327432, -0.039045475423, -0.086626566947, -0.074045270681, -0.058359123766, -0.016376439482, 0.096839368343, -0.051256217062, 0.070420667529, 0.041932366788, -0.034104675055, -0.080852963030, 0.042430009693, 0.067292980850, -0.082319818437, -0.022420801222, 0.086072161794, 0.094722583890, 0.092234604061, 0.017258312553, 0.087048508227, 0.086773619056, -0.006006153300, 0.086928613484, 0.006172717083, 0.020688151941, 0.110927484930, 0.126636266708, 0.050990406424, 0.093665525317, 0.076027020812, 0.024763729423, 0.081147663295, 0.072024412453, 0.023906726390, 0.056601226330, -0.070251703262, 0.082726836205, -0.043005626649, -0.084122344851, -0.041175112128, 0.063510522246, -0.082499079406, -0.061219148338, 0.083121314645, -0.017128273845, -0.023114038631, -0.099437087774, 0.064750902355, 0.063269399107, -0.042259130627, -0.071255095303, -0.090728580952, -0.058161232620, -0.026747316122, -0.079713694751, 0.120806574821, 0.049578301609, 0.062054350972, 0.005449529737, 0.024928111583, 0.099903352559, -0.078741833568, 0.043691065162, 0.089766070247, 0.128160357475, -0.077159062028, 0.002743023448, 0.089827738702, 0.006897116080, -0.042323574424, 0.058692630380, -0.112678728998, 0.085395798087, -0.075507260859, -0.100222244859, -0.077238634229, -0.053667947650, -0.068181730807, 0.003166173818, 0.054044578224, -0.118333943188, 0.100763678551, 0.015625324100, 0.059193491936, 0.023092936724, -0.114352494478, 0.079764194787, -0.040338836610, 0.058430381119, 0.074641764164, -0.085889734328, 0.081213571131, 0.068275257945, -0.073286168277, 0.010235391557, -0.062459446490, 0.063892535865, 0.030901722610, -0.088324226439, 0.023466689512, -0.066081680357, 0.003209937597, 0.046599131078, 0.041400969028, 0.056093033403, 0.018362890929, 0.071943715215, 0.029399735853, 0.024510191754, -0.005236161873, -0.095364749432, -0.000142184188, -0.043980427086, -0.039797086269, 0.040879309177, -0.046767346561, 0.043679710478, -0.043384533376, -0.064038760960, 0.078802756965, -0.041493140161, 0.023521816358, 0.071856476367, 0.028564382344, -0.014765020460, 0.055149443448, 0.056234039366, 0.081750370562, 0.060092363507, 0.016792546958, 0.089589543641, 0.062988214195, -0.054588451982, -0.003274494782, 0.062460158020, -0.095416568220, 0.058847717941, -0.103484474123, -0.012145921588, 0.093370281160, 0.104379221797, 0.056898199022, -0.070374131203, -0.029074545950, 0.026544237509, -0.063575431705, -0.058813523501, 0.016443807632, 0.012507352047, -0.086462214589, 0.004643466324, -0.096733368933, -0.020799594000, -0.066871806979, -0.068195626140, 0.024121053517, 0.093989774585, 0.017526643351, -0.064573198557, 0.041345749050, 0.045641168952, 0.084726542234, -0.040751636028, -0.042660530657, 0.073171973228, 0.027359623462, 0.095695421100, 0.078239262104, -0.049795184284, 0.008249861188, -0.064234949648, -0.016981173307, -0.015569760464, -0.067696958780, -0.064112015069, 0.058315157890, -0.054932978004, 0.044271539897, -0.009674015455, -0.005919347983, -0.070335365832, -0.042089167982, 0.035566087812, -0.053569115698, -0.030045805499, -0.095264643431, 0.084531694651, 0.084290318191, 0.052551381290, -0.046405211091, -0.050412334502, 0.095274925232, 0.056223634630, -0.047635838389, -0.103206321597, 0.085702061653, -0.076300568879, -0.097982361913, 0.062726974487, 0.023357007653, -0.064555712044, -0.089498318732, -0.075022138655, 0.091845855117, -0.007732026279, 0.012509987690, 0.056886050850, -0.056011721492, -0.069872692227, 0.022019684315, -0.068082742393, -0.038226336241, -0.057828497142, -0.052946839482, -0.067231066525, -0.008995508775, -0.067676737905, -0.066368401051, -0.037019535899, 0.095403753221, 0.074318856001, 0.031903740019, -0.047679230571, -0.094097144902, 0.022278510034, -0.115646421909, 0.084273561835, 0.011181904003, -0.010231290013, -0.097463145852, -0.091048091650, -0.038488388062, -0.043917816132, 0.054708551615, 0.140316054225, 0.103226236999, 0.081829160452, 0.045917455107, -0.047622833401, 0.091778732836, 0.113161332905, 0.065107747912, 0.029049435630, 0.051836125553, -0.022419901565, 0.045582443476, 0.048268359154, 0.001160431071, 0.022435750812, 0.011011019349, 0.036465581506, -0.107859671116, -0.070559374988, -0.093453891575, 0.081270515919, -0.133438110352, -0.072350546718, -0.030775707215, -0.093191377819, -0.069060549140, -0.068081013858, 0.040470357984, 0.008913424797, -0.062395073473, 0.001193163102, -0.076826058328, 0.102451592684, 0.099883884192, 0.011330354027, 0.089773632586, 0.001727179158, 0.042418565601, 0.007677039132, 0.015264437534, 0.093972690403, -0.098254986107, 0.033569745719, -0.079881131649, -0.068539418280, -0.037459015846, -0.090995259583, 0.016914160922, 0.008743334562, -0.025820495561, -0.069168440998, 0.074791066349, 0.028679389507, -0.007568178698, 0.008965414017, 0.072029046714, -0.014012807980, 0.098723255098, -0.046950384974, 0.022239005193, -0.107444666326, 0.000515148626, -0.102009028196, 0.004959579557, -0.042658280581, 0.057612486184, -0.023804534227, 0.107755616307, -0.091928847134, -0.039949949831, -0.024106742814, -0.080630987883, -0.012007802725, 0.103908836842, -0.010043026879, -0.101892419159, -0.029358375818, -0.090170435607, -0.018828619272, -0.035301111639, 0.048129171133, -0.034578822553, -0.038189515471, 0.082991100848, -0.046611286700, -0.027434397489, 0.035902000964, -0.025781612843, -0.033780332655, -0.015926221386, -0.019661072642, -0.033855341375, -0.026135927066, -0.099758476019, 0.074369147420, -0.078145682812, 0.074112817645, 0.056441176683, 0.098476722836, 0.022803544998, 0.056107219309, 0.037046160549, -0.039555825293, 0.038289297372, -0.064310669899, -0.064689800143, 0.017198340967, 0.053571976721, -0.025800140575, -0.037417490035, 0.120788797736, -0.047105040401, 0.013511926867, -0.026875738055, 0.025982312858, -0.090364187956, -0.100681915879, 0.049378126860, 0.028990764171, 0.057916015387, -0.054959099740, -0.016337217763, -0.077522620559, -0.038581021130, -0.010140178725, -0.016358692199, 0.047576889396, -0.068070344627, -0.038889657706, 0.019578287378, -0.007215918973, -0.017151078209, -0.081662602723, 0.030975479633, -0.107962012291, -0.035665445030, -0.079666659236, 0.036659050733, 0.033215466887, -0.040898498148, 0.073969192803, -0.118606925011, 0.076403759420, -0.008874574676, -0.002136496594, 0.073704339564, 0.056593857706, -0.087038733065, -0.048928566277, -0.082423768938, 0.101621434093, 0.042696081102, 0.075860671699, 0.083838209510, 0.069995157421, -0.109217740595, -0.073867909610, 0.033810630441, 0.040579367429, 0.071457333863, 0.073893725872, 0.093048624694, 0.101383186877, 0.009772070684, 0.105571091175, -0.074788942933, -0.054411537945, 0.065360903740, 0.084536820650, -0.083984211087, 0.049504112452, -0.012505414896, -0.060517329723, 0.103928141296, 0.090776778758, 0.082480296493, 0.049451056868, 0.063598833978, 0.009630762041, -0.058887757361, 0.051284112036, -0.071850664914, -0.055560536683, -0.055524162948, -0.018603911623, -0.049899782985, 0.055883228779, 0.102543011308, -0.102187007666, -0.094990946352, -0.034868080169, -0.105209738016, 0.023253353313, -0.054049506783, 0.008696431294, -0.104760602117, 0.042808339000, -0.006004286464, -0.084697999060, -0.048753231764, 0.059399735183, 0.080931216478, 0.053793437779, -0.042138680816, 0.000292868848, -0.106313712895, 0.003722613445, 0.005335072987, -0.003863706486, 0.042776208371, -0.110958203673, -0.041849188507, -0.067595385015, -0.081247135997, 0.059871375561, -0.085133396089, -0.017838865519, -0.105568937957, 0.037164729089, 0.065201885998, 0.070054613054, 0.067148603499, 0.045257605612, 0.010388002731, 0.061013534665, 0.066356070340, -0.076545432210, 0.004116395954, 0.056877627969, 0.043462518603, 0.110592216253, -0.080461479723, 0.061594676226, 0.030525533482, 0.002942584921, -0.009319226258, -0.038158033043, 0.017301414162, 0.118328481913, 0.070880584419, 0.044454652816, 0.029989082366, 0.114100940526, 0.014611442573, 0.048606522381, -0.099917002022, -0.085176907480, 0.066866137087, 0.075432665646, -0.092461809516, -0.035368930548, 0.095541574061, 0.097624443471, 0.034695304930, 0.097121626139, 0.080672688782, 0.087346337736, 0.015018953942, -0.025504767895, -0.112874612212, 0.015623678453, -0.051726575941, -0.009194850922, -0.070441611111, 0.120173685253, 0.001280566328, 0.067639186978, 0.018137084320, -0.012723760679, -0.093709863722, -0.032316770405, 0.086144767702, 0.041384313256, 0.006404011510, 0.103816092014, -0.061227440834, 0.032866083086, 0.044753346592, 0.007556107827, 0.075340688229, 0.039264891297, -0.071001768112, 0.093821533024, 0.077431887388, 0.059303034097, -0.063057169318, -0.037205684930, -0.092270366848, -0.071047663689, -0.003581325291, -0.123003177345, 0.062115084380, 0.015420825221, -0.121093779802, 0.075070343912, 0.016161352396, -0.076028145850, -0.074306100607, 0.073455385864, -0.083862729371, 0.082533806562, 0.019228726625, -0.059850763530, -0.079131051898, 0.056725155562, -0.012773394585, -0.065630987287, 0.034338090569, -0.097729183733, 0.027735464275, 0.109742037952, 0.003733106656, -0.020845986903, -0.080382481217, 0.048200555146, -0.060673464090, 0.096025981009, 0.036626286805, -0.026003304869, -0.025056168437, -0.073694571853, -0.035649534315, 0.039868567139, -0.048336632550, 0.097676828504, -0.054660413414, -0.024570645764, -0.065385833383, -0.038713123649, 0.126493334770, -0.056065995246, 0.021636873484, -0.023052869365, -0.008341564797, -0.064576894045, 0.006456118543, -0.101981088519, -0.079266317189, -0.033810116351, 0.038201913238, -0.045466437936, 0.015509338118, 0.079315379262, 0.013882451691, -0.070038802922, 0.035268969834, 0.040533475578, -0.018163027242, -0.005986573175, -0.098545774817, 0.054461088032, -0.047919623554, -0.110411524773, 0.045781344175, -0.045485209674, -0.050478689373, 0.007468590979, -0.014974539168, -0.010920948349, -0.064733445644, -0.074079617858, -0.096582077444, 0.014769996516, 0.020633932203, -0.014217940159, 0.000362901279, -0.100136242807, -0.032594222575, 0.094462864101, -0.073059536517, 0.092162251472, 0.071759581566, 0.018628088757, -0.036113083363, -0.098310768604, -0.016906667501, -0.021753117442, 0.029785543680, -0.094998613000, -0.051551304758, -0.075314640999, 0.079948484898, -0.027035981417, -0.037899795920, -0.084860004485, 0.110486514866, 0.069592580199, 0.061635635793, -0.017295589671, -0.021883940324, 0.051047429442, -0.044108238071, -0.070480138063, 0.087425641716, 0.034161318094, 0.070314690471, 0.042788758874, 0.057034201920, -0.109218843281, 0.039209082723, 0.005811553914, 0.032516986132, 0.027603669092, -0.097081258893, -0.044400475919, -0.081435374916, 0.069844298065, 0.076358787715, 0.101532496512, -0.051341697574, 0.086230173707, 0.057005334646, 0.037523448467, 0.029787519947, -0.052880629897, -0.081093855202, 0.075063399971, 0.061830636114, -0.045323818922, -0.034508883953, 0.096731737256, 0.079070873559, -0.094083689153, 0.048401009291, -0.080934189260, -0.031336225569, 0.083767667413, 0.000783460506, -0.030459064990, -0.047718524933, -0.018550522625, -0.068018496037, -0.002535365755, 0.006460598670, 0.065871380270, 0.078307464719, 0.083098448813, 0.046691037714, 0.115285634995, 0.007613849826, 0.074850536883, 0.013717565686, 0.094193331897, 0.064958795905, 0.066789694130, 0.075237058103, 0.029123153538, -0.056680910289, 0.122436769307, 0.034580871463, -0.053766485304, -0.020035030320, -0.034522645175, 0.074414558709, -0.102200910449, -0.092099726200, 0.028260614723, -0.102159574628, -0.004732334055, 0.005026943982, -0.024441227317, -0.038132652640, -0.034344483167, -0.102035239339, -0.024881169200, 0.064762502909, 0.005027655512, 0.074558407068, 0.031200040132, 0.049975827336, -0.003795082681, 0.077216833830, 0.075108870864, 0.039532173425, 0.077057182789, 0.028335681185, -0.084193587303, 0.041850347072, -0.025733018294, 0.065601959825, 0.054572023451, -0.081454083323, -0.005354373716, 0.045914053917, -0.102587275207, -0.090512640774, 0.091377422214, 0.008287640288, -0.046346765012, -0.089033797383, 0.091766566038, -0.086680665612, 0.033275239170, -0.025040833279, -0.050232462585, -0.046752557158, -0.061679210514, -0.011202810332, 0.074413344264, -0.086765550077, -0.127525180578, 0.035206504166, 0.050770252943, -0.140419974923, 0.052755430341, 0.060364756733, 0.105296745896, -0.099288679659, 0.020028758794, 0.013239612803, -0.065021567047, -0.042664412409, -0.042353577912, -0.014607612975, -0.072907112539, 0.040609844029, -0.013997847214, -0.046115819365, -0.040926367044, -0.049743834883, -0.039997573942, -0.002207052894, 0.111948765814, 0.088041089475, 0.027494098991, -0.112512350082, 0.044757515192, -0.019936719909, 0.098049670458, 0.046368286014, 0.103315964341, 0.097001098096, -0.086887761950, -0.065631404519, 0.027666181326, -0.055675413460, -0.076818130910, 0.031721249223, 0.065813817084, -0.038342561573, -0.000507827557, 0.114046066999, 0.098678514361, -0.077729120851, 0.085902258754, 0.091397978365, 0.068606995046, 0.061267565936, 0.045912887901, 0.052450764924, 0.031270503998, -0.014192030765, -0.007213348988, 0.000264164497, -0.029239909723, -0.077905155718, -0.067723087966, 0.029198290780, -0.002988432301, -0.002503584605, -0.025484124199, -0.024207802489, -0.050490092486, -0.009528120980, 0.054959900677, -0.105914078653, 0.055400174111, -0.021760176867, 0.089110389352, 0.049791082740, 0.095577068627, -0.075175277889, -0.049108263105, 0.029692046344, 0.092643998563, 0.030592588708, 0.040913857520, 0.034934934229, 0.025090714917, -0.001038869377, -0.051547989249, -0.045206174254, 0.021698851138, 0.084836989641, -0.038169704378, 0.002452960471, 0.066594652832, 0.007301700301, -0.046835567802, 0.000256203173, 0.009486043826, 0.099451519549, 0.028811614960, 0.062172044069, -0.080451294780, 0.036467511207, 0.059083111584, 0.039378140122, -0.075219824910, 0.005981261842, 0.006084730383, 0.019422788173, -0.108812279999, 0.011298661120, 0.108728483319, -0.088897310197, -0.051203530282, 0.018024550751, -0.012571549043, -0.002493474400, 0.010148243979, -0.007563499268, 0.058924645185, -0.071625828743, 0.052768632770, -0.007397156674, 0.086873866618, 0.056844849139, 0.074365966022, 0.014453941025, 0.039101243019, 0.080297522247, 0.026689782739, 0.106300637126, -0.002925178967, -0.043721903116, -0.007904720493, -0.085847042501, 0.056062757969, 0.013591096736, -0.022885425016, -0.053969670087, 0.007887729444, 0.109564542770, -0.024689586833, 0.087716259062, 0.071257777512, 0.052005942911, 0.023855727166, 0.022490501404, 0.006633973215, 0.098887518048, -0.048324365169, -0.095996543765, -0.047832734883, -0.030676076189, 0.059144549072, 0.054820433259, 0.067839436233, -0.015600766055, 0.075233303010, 0.088440962136, -0.072754919529, 0.051781084388, -0.012818801217, 0.052991405129, -0.053069639951, 0.091525539756, 0.031354151666, 0.076249927282, 0.066491007805, 0.034734766930, -0.025587368757, 0.035600665957, -0.055985089391, -0.009854726493, -0.090292736888, -0.051261335611, 0.054709289223, -0.074118115008, 0.066690802574, -0.011393651366, 0.089935697615, 0.013792674057, 0.096996895969, 0.026745669544, -0.102008514106, -0.039418946952, 0.021847251803, 0.110527656972, 0.076070390642, 0.114944167435, -0.005926159211, 0.119905039668, -0.120245791972, -0.047002732754, -0.087917231023, -0.011477070861, -0.047950368375, -0.012130588293, 0.040589772165, -0.104709118605, -0.023791469634, 0.017051851377, -0.060346640646, 0.070982195437, -0.078079432249, -0.084500566125, 0.047792576253, 0.085573978722, -0.117337845266, -0.000911571842, -0.040600147098, 0.007990636863, 0.000661925995, 0.064617246389, -0.092985078692, -0.076374970376, 0.070739232004, -0.002930579474, 0.036987464875, 0.037367440760, 0.092105299234, -0.008466471918, 0.086077362299, -0.083952575922, -0.061970744282, -0.095730252564, -0.079439803958, -0.017358396202, 0.013756818138, -0.085956238210, 0.008731127717, 0.037389971316, -0.111027792096, 0.072133034468, 0.028004620224, -0.036360617727, 0.060206692666, 0.073507882655, 0.111642412841, 0.078094065189, 0.023956792429, 0.033820640296, -0.037239465863, -0.042861655354, 0.060038562864, -0.103461086750, 0.059025589377, 0.015178552829, -0.012124530971, 0.096041060984, -0.024330155924, 0.039451822639, 0.020128270611, -0.016877306625, 0.036474600434, 0.081493981183, -0.082208946347, 0.028673687950, 0.056451994926, -0.067538335919, 0.076028019190, 0.033146407455, -0.028856830671, -0.001998582855, 0.067808642983, -0.053888317198, 0.017356947064, 0.078293569386, -0.006107661407, -0.029757797718, -0.083212912083, -0.008480001241, -0.125486895442, 0.101322241127, 0.053531948477, -0.019153418019, -0.059741359204, -0.019583491609, -0.089209534228, 0.067675918341, -0.133910328150, -0.075855776668, 0.010428704321, 0.111830502748, -0.047136642039, 0.039612066001, 0.070298001170, -0.011879909784, -0.058652214706, 0.058626350015, -0.017091581598, -0.017072452232, 0.015334267169, -0.073944337666, -0.032540138811, 0.001864222460, -0.062713004649, 0.045699734241, 0.035966802388, -0.051525328308, 0.079867109656, -0.001251924899, -0.017254404724, -0.023573298007, -0.002110389760, -0.078756518662, -0.026706319302, 0.082674272358, -0.042602330446, 0.088593736291, -0.071853861213, -0.040900751948, 0.037270311266, 0.011283859611, 0.032356139272, -0.027476511896, 0.093907862902, -0.070220321417, 0.043023701757, 0.108152635396, -0.008304484189, 0.078477442265, 0.096831321716, 0.075430564582, -0.016532314941, 0.039296783507, -0.044463858008, -0.050203874707, -0.043086107820, -0.079561613500, 0.028238095343, -0.032033778727, -0.055286511779, 0.058223139495, -0.047731332481, 0.031236648560, 0.049233015627, -0.002100386191, 0.000943116436, -0.065828971565, 0.044667277485, 0.001880653552, 0.039091132581, -0.058754961938, 0.080044806004, -0.085989154875, -0.116743825376, 0.052580874413, 0.053010135889, 0.135391846299, -0.040410354733, 0.046306949109, 0.083244256675, -0.058512870222, 0.007997660898, 0.070002980530, -0.010969836265, -0.038147501647, -0.083135373890, 0.075294159353, 0.088377431035, 0.062548823655, -0.105082705617, 0.099571861327, -0.037405565381, -0.056066598743, -0.057084131986, 0.061928376555, -0.108923502266, 0.082693345845, 0.077693380415, 0.004226114135, -0.037207242101, 0.067134834826, -0.055419966578, -0.010040198453, 0.053158991039, -0.058296870440, -0.034236598760, 0.028642421588, -0.040170375258, -0.026270203292, 0.018098553643, 0.000691960042, -0.057673562318, -0.001846101135, 0.034627981484, 0.054733343422, 0.040752250701, -0.041927769780, 0.045995794237, -0.042593251914, 0.047108154744, 0.103144213557, -0.048677235842, -0.103622913361, -0.062037341297, 0.003734374186, -0.117813281715, 0.052124585956, -0.019906075671, -0.011007000692, 0.004808256403, 0.054299853742, -0.052326403558, -0.042579222471, 0.043168962002, 0.065078794956, -0.024269595742, 0.072527177632, 0.074701197445, 0.040404163301, -0.019941946492, 0.006845612079, -0.120596900582, 0.089351043105, -0.052009787410, -0.030410204083, -0.063257552683, 0.064247451723, 0.038738988340, 0.043947737664, -0.019720895216, 0.033730261028, 0.061691757292, -0.025040533394, 0.047125566751, -0.016009584069, -0.071219384670, 0.050381109118, -0.046161558479, -0.034571744502, -0.057745400816, -0.040024913847, 0.084927722812, 0.053277473897, -0.089466892183, -0.065938785672, -0.048071846366, -0.063136637211, -0.081019192934, -0.071767993271, -0.069599911571, -0.067716173828, 0.102569483221, -0.007399564609, -0.008170023561, 0.013790180907, 0.034821767360, -0.099969737232, -0.017336573452, -0.080324605107, 0.004527772777, -0.096972487867, -0.007834364660, -0.035362634808, -0.067252658308, -0.105044014752, -0.018419623375, -0.014592020772, -0.029573464766, 0.094830200076, -0.075174041092, 0.078223422170, 0.028240876272, -0.049831699580, -0.064552046359, 0.089362956583, -0.062302578241, -0.106310367584, 0.069125324488, -0.085550844669, 0.139189928770, 0.032175000757, 0.047625176609, 0.032229967415, 0.039275534451, -0.057072330266, -0.009858348407, -0.053935047239, -0.071977518499, 0.029318204150, -0.096582658589, 0.058237962425, 0.069117821753, -0.005921257660, 0.030434835702, 0.107613503933, -0.090340271592, -0.011817377992, 0.076638132334, -0.083412759006, 0.105744257569, 0.088874921203, -0.009767308831, 0.076570145786, 0.063691191375, -0.074029140174, -0.129062667489, -0.096544988453, 0.063971899450, -0.044599682093, 0.058629661798, 0.076817929745, 0.047403257340, -0.104188852012, -0.038785237819, -0.084688223898, 0.098416954279, -0.002925273031, -0.001145496382, -0.091624334455, -0.072645612061, 0.070774182677, 0.030864505097, -0.078313879669, 0.060698632151, -0.000435247755, -0.101729243994, 0.031909227371, -0.058428883553, -0.047027397901, -0.038336183876, 0.051502872258, -0.079891569912, -0.096543438733, -0.047529544681, -0.010257020593, 0.034004297107, -0.058699775487, 0.022921307012, -0.085863269866, -0.081777706742, -0.056323364377, 0.001514173229, -0.017909828573, -0.007130946033, -0.085971698165, 0.033752888441, 0.077519454062, 0.030097216368, 0.028125111014, 0.035550151020, -0.014980126172, -0.092742152512, -0.016818815842, -0.075534701347, -0.089901186526, 0.107168428600, 0.053426839411, -0.075788415968, -0.029915863648, -0.007092908956, -0.095260627568, 0.107809506357, -0.007556645200, 0.064355120063, 0.011805633083, -0.033106535673, 0.046830773354, 0.036252014339, 0.077151298523, 0.009558527730, -0.103004895151, 0.083792202175, -0.037698037922, -0.061415541917, -0.025916272774, -0.031197063625, 0.050243206322, -0.051134739071, 0.045458845794, -0.042663428932, -0.026947028935, -0.001212048694, -0.096420206130, 0.043314311653, -0.055525261909, -0.138412967324, 0.096951268613, -0.022404961288, 0.040231641382, 0.008771010675, 0.103159300983, -0.103809610009, -0.027080474421, 0.022907789797, 0.007785574067, -0.070408031344, 0.102560654283, 0.038839194924, -0.023922739550, -0.070865593851, -0.044180799276, -0.033151354641, 0.064232543111, -0.081458546221, 0.026885123923, -0.056376412511, -0.011482432485, 0.041004870087, 0.030720954761, -0.038097918034, -0.020438868552, 0.066270120442, -0.081103898585, -0.055002201349, 0.010665709153, -0.123791381717, 0.088075838983, 0.060906857252, -0.013159359805, -0.010714387521, 0.080271594226, -0.102885775268, -0.095510102808, 0.099815398455, 0.037543300539, 0.052948083729, -0.118185803294, -0.108626835048, -0.098108232021, -0.007922041230, 0.030992615968, -0.091804072261, -0.095559239388, -0.111700713634, -0.090664640069, -0.023402757943, -0.087361156940, -0.076646640897, -0.080679796636, 0.079205706716, -0.007519835141, -0.087676353753, -0.001161648892, -0.090742908418, 0.080697298050, -0.057210806757, -0.029913643375, -0.053525350988, 0.085959464312, 0.108437068760, -0.100213520229, -0.084342524409, 0.021116176620, -0.089059896767, -0.088093906641, -0.085517838597, -0.036233358085, -0.085503712296, 0.044651612639, 0.055480889976, 0.056431528181, 0.018391683698, 0.047754392028, -0.083935543895, 0.095412373543, 0.046454600990, 0.107839040458, -0.070110835135, 0.037216458470, 0.042006097734, -0.014039012603, 0.106860451400, 0.111161880195, 0.026746939868, -0.011228475720, -0.018309025094, -0.067785874009, 0.136002525687, 0.040161728859, 0.002392393071, 0.051759265363, -0.041394963861, 0.073788404465, 0.007842267863, -0.066432759166, -0.027328437194, -0.044931437820, -0.104236237705, -0.056300189346, -0.035223379731, 0.009975481778, 0.079353272915, -0.061488073319, -0.107591897249, -0.104282803833, -0.017240419984, -0.117845915258, 0.020874463022, 0.020883645862, -0.051529772580, 0.039463553578, -0.068653479218, 0.078433305025, 0.005249248818, -0.059487931430, 0.053749099374, 0.086866229773, 0.061852499843, -0.118343144655, -0.096371851861, -0.006856773980, -0.091295719147, 0.052936140448, 0.014374645427, 0.079721070826, 0.033499233425, -0.108939513564, -0.077065207064, -0.066092304885, -0.044742468745, -0.054170813411, 0.003796371631, 0.017125668004, -0.023270245641, -0.071975633502, -0.096845023334, 0.015573715791, 0.065983079374, 0.026209592819, -0.039789386094, 0.048416946083, 0.023618852720, 0.033440720290, -0.069320276380, -0.077270567417, -0.046802457422, -0.032670736313, 0.056098174304, 0.015222907066, 0.044551052153, -0.064516171813, -0.050630003214, -0.099130794406, -0.021687740460, -0.004174672533, 0.021265732124, 0.063819639385, -0.035601418465, -0.088716156781, -0.073678813875, -0.051772553474, -0.051936551929, -0.038338843733, 0.079062096775, -0.057381015271, -0.096826709807, -0.101547077298, -0.075974233449, -0.039265565574, 0.096483945847, 0.028947930783, -0.045409787446, -0.006452839822, 0.099141694605, -0.085556030273, 0.076155297458, -0.018604494631, -0.035932920873, -0.100148923695, 0.106684230268, -0.049600008875, 0.084446012974, -0.003066428239, 0.087112821639, -0.047884546220, 0.089016973972, -0.015782156959, 0.043930046260, 0.059684921056, -0.010930875316, 0.075380109251, -0.004666661378, 0.010872391984, -0.087277762592, -0.041431829333, -0.084183476865, -0.028680363670, 0.091398365796, -0.096025414765, 0.019478926435, 0.094421572983, 0.060812231153, -0.018918570131, -0.035450916737, -0.051126148552, -0.099974133074, 0.061986070126, -0.112768970430, -0.047871474177, -0.095509544015, 0.032394744456, -0.094350665808, 0.112658366561, 0.098480053246, 0.003464264097, -0.013847663999, 0.046389639378, -0.112818367779, 0.018635727465, -0.071028225124, 0.080686442554, -0.061433531344, -0.033680800349, -0.061859760433, -0.050641033798, 0.021610118449, -0.063125409186, 0.007722095586, -0.034949455410, -0.068381592631, 0.059526823461, 0.032233990729, 0.013859945349, -0.016277700663, 0.088343560696, -0.019644929096, -0.064562067389, 0.056036628783, 0.006322870497, -0.032647445798, -0.004581216723, -0.082904286683, -0.058372754604, 0.075661681592, -0.030065177009, -0.083513334394, -0.055222023278, -0.079476684332, -0.094382368028, 0.082559429109, -0.044951781631, -0.004928003065, -0.056126382202, 0.093082085252, -0.086182646453, -0.017191912979, -0.046554896981, -0.019134668633, -0.006497269496, -0.002566754818, 0.072285786271, -0.028422523290, 0.065132647753, -0.088970407844, 0.012687047012, -0.040653772652, -0.009413446300, -0.046710256487, -0.077988922596, -0.079568423331, -0.063162118196, 0.027603857219, -0.025483716279, -0.003229695838, 0.074523687363, 0.095510788262, -0.091338850558, -0.040790043771, 0.079924806952, 0.062538646162, 0.081545621157, -0.092415660620, -0.015151973814, -0.071976400912, 0.013256395236, -0.053100660443, 0.020529862493, 0.062329638749, -0.046715475619, 0.053949620575, 0.038866177201, 0.008510075510, -0.060818180442, 0.105147123337, 0.071035154164, 0.082313112915, 0.049784958363, -0.090048320591, 0.094304285944, -0.111662991345, 0.093647375703, -0.021990647539, 0.095348857343, -0.061726447195, -0.063720874488, 0.045543707907, 0.112057209015, -0.030670808628, -0.020126594231, 0.001035436639, -0.051118671894, -0.069652654231, 0.026166608557, -0.038600400090, -0.063101470470, -0.008881676011, 0.008968183771, -0.083166815341, 0.056604627520, 0.022687843069, 0.035846114159, 0.083089582622, -0.062737412751, 0.056358277798, -0.075370311737, 0.038503512740, 0.050580296665, -0.001174418139, -0.047010339797, 0.114110998809, 0.057092249393, 0.006508277263, 0.032625168562, -0.026894243434, -0.058093074709, -0.037175502628, 0.037505991757, 0.096943318844, -0.088113442063, 0.094647221267, 0.056489918381, 0.051495473832, -0.089262202382, -0.092960350215, 0.046398919076, 0.002397647593, 0.083099000156, -0.064131721854, -0.038871631026, -0.016680508852, 0.058472823352, 0.009895564988, 0.026391461492, -0.055056601763, 0.091723985970, -0.058389857411, 0.092600271106, -0.046268127859, 0.065538711846, -0.097434081137, -0.067518092692, 0.018743520603, -0.015393726528, -0.008407013491, 0.094412766397, -0.119388811290, 0.065572023392, -0.093896113336, -0.105501376092, 0.019900782034, -0.065383031964, -0.031737990677, -0.101221777499, -0.061155658215, 0.074933119118, -0.080361135304, 0.028979361057, -0.067599214613, 0.076815217733, 0.001099144924, 0.024925056845, -0.082530267537, 0.064027607441, -0.079359740019, -0.037382863462, -0.023552475497, -0.003442230867, -0.088800050318, -0.038874331862, -0.033275768161, -0.071493886411, 0.116029202938, -0.016587270424, 0.109464973211, 0.102202035487, -0.055148992687, 0.006602445152, -0.061819966882, 0.104916073382, 0.003727742005, -0.035393282771, 0.006048647221, 0.083946838975, 0.087672978640, -0.029619144276, 0.036463767290, 0.078556619585, 0.052648752928, -0.077483735979, 0.125135377049, 0.022505706176, 0.013105536811, 0.034132342786, -0.029786024243, 0.057616587728, -0.110459558666, -0.073258936405, 0.049984324723, -0.089054867625, -0.048744279891, -0.088580891490, 0.067028351128, -0.096616841853, 0.067378610373, -0.032202422619, -0.011474401690, -0.046350158751, 0.012971868739, -0.024501271546, -0.073607683182, -0.036487042904, -0.104771003127, -0.063672378659, 0.058430407196, -0.046172618866, -0.080856561661, -0.019745513797, -0.025682922453, 0.025345224887, -0.003307240084, -0.068855687976, -0.009729037061, 0.046411078423, -0.091487355530, 0.084401451051, -0.045084476471, 0.072837784886, 0.018662219867, -0.074886508286, -0.023588662967, 0.005870933179, 0.042647216469, 0.013735608198, 0.039512515068, 0.078673981130, -0.094833657146, 0.047362308949, -0.104229293764, -0.066767536104, -0.065002478659, -0.074305072427, -0.030244858935, -0.114026315510, -0.078946821392, -0.021717218682, 0.078155554831, 0.035206947476, -0.089663088322, 0.068819805980, -0.054096151143, -0.065656833351, -0.059831075370, -0.036122221500, 0.006066985894, -0.091174989939, -0.083969712257, -0.002290205564, 0.066746294498, 0.002826829441, 0.003214824246, -0.049498107284, 0.113361343741, 0.037516366690, 0.057624418288, -0.104994162917, 0.077683277428, 0.038795188069, 0.088051140308, -0.032660454512, 0.048270411789, -0.051758848131, 0.090644523501, -0.095553785563, 0.128689497709, 0.033863820136, -0.104541033506, -0.047321416438, 0.065127812326, 0.066131874919, 0.032482139766, -0.098101399839, -0.028874577954, -0.092577792704, -0.090254269540, 0.041743688285, 0.006192694418, -0.044608078897, -0.070566959679, -0.028839716688, -0.042540416121, -0.010732123628, 0.076135084033, 0.062931142747, -0.117452643812, 0.017834583297, 0.084704570472, 0.113964922726, 0.062247827649, -0.021294765174, -0.047364126891, -0.097204275429, 0.067984491587, -0.004007393494, -0.036774713546, 0.044055428356, -0.035058844835, 0.055144641548, -0.021159736440, 0.118752494454, -0.049296341836, 0.064604364336, -0.104733362794, -0.092441797256, 0.095813609660, 0.105357438326, 0.016056565568, 0.064343251288, -0.097127169371, 0.061094317585, -0.029372138903, -0.069199070334, 0.057171177119, 0.084379002452, -0.066203296185, 0.013323769905, -0.047967549413, -0.018422771245, -0.022970948368, -0.087172418833, 0.076006777585, -0.012764451094, 0.054855804890, -0.022036775947, -0.069411307573, -0.074966244400, -0.083926007152, -0.074063234031, 0.020637918264, -0.082184337080, 0.019666263834, -0.015151627362, 0.086062736809, -0.019315704703, -0.085189588368, 0.101907283068, 0.110018067062, -0.068194262683, 0.074028305709, 0.039773751050, 0.026610199362, 0.046611100435, 0.018774336204, -0.050471745431, 0.114085547626, 0.060153316706, -0.124956682324, 0.016804890707, 0.071568250656, -0.040915757418, 0.039772436023, 0.025836413726, 0.021183224395, 0.011689254083, -0.037747707218, -0.034190535545, -0.041298884898, -0.036348056048, -0.028474017978, 0.092126771808, -0.011612938717, 0.105212733150, -0.051514979452, -0.123358443379, -0.048155747354, -0.019450709224, 0.057715766132, 0.092122398317, -0.072080038488, -0.049087829888, -0.069812603295, 0.098214924335, -0.037370219827, -0.089151389897, -0.010633355007, 0.081445157528, -0.105939410627, 0.018340049312, 0.042691126466, -0.101331107318, -0.016357215121, 0.105087570846, -0.015170832165, 0.047198813409, -0.015595379286, 0.084346599877, -0.073023885489, 0.067936763167, -0.047556441277, -0.085641570389, 0.014869726263, -0.107443302870, 0.037946630269, -0.120833367109, 0.091644212604, 0.035667099059, -0.006224218290, -0.098076157272, 0.063931047916, 0.084623210132, 0.073159635067, -0.098491512239, 0.070080585778, 0.054552476853, 0.090120531619, -0.024594640359, 0.089929156005, -0.001641263370, -0.088650584221, -0.080282218754, -0.037173245102, -0.101188361645, 0.008418181911, 0.076789692044, -0.045090697706, 0.045118585229, -0.040649864823, 0.031490415335, -0.007651431020, -0.043713733554, -0.084050737321, 0.017575163394, 0.068719595671, -0.017879024148, -0.024783037603, 0.064556352794, -0.082293108106, 0.092535145581, 0.053853835911, -0.096659600735, 0.004423719831, 0.054101362824, -0.012580655515, 0.010496184230, 0.039728168398, 0.067343220115, 0.062558233738, 0.065640151501, -0.068021386862, -0.050303403288, -0.065161913633, -0.006770297419, -0.075038783252, -0.030075212941, 0.064462915063, -0.024010069668, -0.018869481981, 0.014951121062, 0.007477179635, 0.016156520694, 0.004321584944, -0.025965508074, -0.062133979052, 0.092156566679, 0.035686280578, 0.049537103623, 0.036968491971, -0.073133163154, 0.067711077631, -0.080285333097, 0.013348602690, 0.044249650091, -0.070067211986, -0.019695529714, -0.049452092499, 0.105135776103, -0.006860683206, -0.023528570309, 0.094338312745, -0.096961237490, -0.067912526429, -0.094588361681, 0.046881843358, 0.093406043947, 0.028646830469, -0.035690788180, 0.075772091746, -0.042532227933, 0.044423975050, 0.013698874041, 0.025061698630, 0.020758396015, 0.006552031264, 0.084955431521, -0.104628622532, -0.032958060503, 0.124561108649, 0.095174118876, 0.100435905159, -0.010192818008, -0.084031604230, -0.125310093164, -0.051590304822, 0.081334874034, 0.068541921675, 0.022737666965, 0.055043291301, -0.103507228196, -0.036653272808, -0.081224717200, 0.096079185605, 0.012035621330, -0.070450201631, -0.080554641783, 0.057290732861, 0.061820104718, 0.068604916334, 0.047003161162, 0.068173870444, -0.099411584437, 0.056484721601, 0.017365088686, -0.085756085813, -0.072487480938, 0.039108231664, 0.028154730797, -0.017888762057, 0.010172112845, -0.058239080012, 0.012867620215, -0.084012962878, 0.083085119724, -0.040813114494, 0.012996166013, -0.019820196554, 0.061263218522, -0.088602878153, 0.073486007750, -0.088609844446, -0.115831099451, -0.022668117657, 0.071613766253, -0.019410779700, 0.051287870854, -0.033436615020, -0.086261533201, 0.044409997761, -0.107428483665, 0.077816322446, -0.024870524183, 0.055999737233, -0.023040620610, -0.024313744158, -0.095042504370, 0.001190063427, 0.015417458490, 0.001457407023, -0.079627797008, 0.088111773133, -0.080714218318, 0.069830864668, 0.064951941371, 0.030934821814, 0.013456883840, 0.004039715510, -0.106227666140, -0.054723680019, -0.121374800801, -0.006380188745, 0.068245865405, -0.068834833801, -0.068292066455, -0.025823598728, -0.073759898543, -0.061257295310, -0.082802578807, -0.076139725745, 0.005228722934, -0.088582865894, -0.062004506588, 0.075640939176, -0.050635818392, -0.004363506567, -0.092549651861, -0.066895373166, 0.009209205396, -0.078904695809, -0.061583973467, -0.096507020295, -0.054704137146, -0.022915044799, -0.008223470300, 0.056625068188, 0.068846262991, -0.011345325969, 0.021964633837, 0.063954852521, -0.011118209921, 0.085620202124, 0.010984590277, -0.062281165272, 0.077198967338, -0.079543568194, -0.081608869135, -0.047672506422, 0.023640433326, 0.124398939312, -0.064266286790, 0.093608960509, 0.022522399202, 0.043234601617, 0.002082495717, 0.074820473790, 0.109117522836, -0.027435481548, -0.046165462583, -0.042887199670, -0.084547951818, -0.058348782361, 0.112175844610, -0.009014209732, -0.006305396557, 0.014584331773, 0.062088917941, -0.080451264977, -0.030054511502, -0.021132634953, 0.001631643623, -0.049602564424, -0.011546191759, -0.022937593982, -0.020088246092, -0.005929591134, 0.022801782936, 0.095680579543, -0.019185541198, 0.059055469930, -0.100823484361, 0.092905394733, -0.041735045612, 0.042244106531, -0.009560259990, -0.078108884394, 0.019766476005, -0.001100816648, 0.098808802664, -0.009721766226, -0.008527042344, -0.101452767849, 0.077847562730, 0.105657823384, 0.085141740739, 0.095979131758, -0.089017368853, 0.039020080119, 0.027581749484, -0.125442937016, 0.012521965429, -0.037537500262, -0.123473107815, -0.066200733185, 0.006772985216, -0.090270929039, -0.132359400392, 0.010965359397, 0.079264730215, 0.070811502635, -0.015117371455, 0.063148215413, -0.017059473321, 0.057670500129, -0.041101794690, -0.012556736358, -0.071721993387, -0.096753373742, -0.092863872647, -0.031493984163, -0.022567737848, -0.010868842714, -0.031837675720, 0.049193661660, -0.047871924937, -0.094516620040, -0.040655542165, 0.062589570880, -0.013881948777, 0.058460999280, 0.003847443499, 0.075803071260, 0.043989516795, -0.065616384149, 0.082196116447, -0.078437492251, 0.037091709673, 0.008269902319, -0.048810504377, -0.082849219441, -0.096783563495, -0.000955715543, -0.067643411458, 0.076479814947, -0.092046678066, 0.051589425653, 0.023741045967, -0.061915066093, 0.064822286367, 0.061806175858, 0.089563556015, -0.106124430895, 0.062235157937, -0.005068125669, -0.076535731554, 0.037632964551, -0.048973418772, -0.070421837270, 0.087813265622, 0.072560429573, -0.037727225572, 0.025988316163, 0.068831741810, 0.044012226164, 0.002865025308, -0.095114246011, -0.009057995863, 0.083042010665, -0.082115747035, -0.094869069755, -0.003845416708, 0.089138798416, 0.006603172515, -0.071950182319, -0.103485681117, 0.031480345875, -0.075173012912, -0.065170958638, 0.052651938051, 0.067263767123, -0.104884803295, -0.055822163820, -0.016532069072, 0.058097422123, 0.015134854242, -0.088182255626, 0.058723371476, -0.091688163579, 0.009025854990, 0.015880396590, 0.035158995539, -0.077210880816, 0.088280960917, 0.084522850811, 0.026457387954, -0.018122142181, 0.047490570694, 0.047126296908, -0.075443297625, -0.068641811609, 0.003915256355, -0.062722787261, -0.071446567774, -0.023696549237, 0.013778300956, -0.022388944402, -0.021395336837, 0.003740821034, -0.049188923091, -0.105120807886, 0.037183277309, 0.014998422004, -0.103884026408, -0.085352130234, 0.120401248336, -0.024556018412, 0.060532264411, 0.012533750385, -0.034461539239, -0.132795780897, 0.077887147665, -0.018104447052, -0.003481347347, 0.097939513624, 0.049261774868, 0.082283660769, -0.057629954070, -0.044303648174, 0.035441935062, -0.075709946454, 0.044301342219, -0.058424741030, -0.051946338266, 0.102096281946, 0.107089668512, 0.112444519997, 0.041899986565, -0.011132154614, -0.084101974964, -0.006203681696, -0.007647959981, -0.095399096608, -0.086550831795, 0.072561264038, 0.065085053444, -0.064050875604, 0.091509141028, 0.006296955049, -0.100819326937, 0.090077579021, 0.028847755864, 0.114885039628, -0.067295223475, -0.060877341777, -0.018895167857, 0.069120913744, 0.070378489792, -0.047157209367, 0.122944198549, -0.089869879186, -0.051599286497, 0.066845610738, -0.069194726646, -0.021851694211, -0.058838523924, 0.083797216415, 0.083721213043, 0.001390789170, 0.079085670412, 0.022827772424, -0.063466720283, 0.036306798458, -0.004527863115, -0.047217190266, -0.106639802456, 0.052317686379, 0.085752010345, -0.081673152745, 0.098380103707, 0.059931036085, 0.024259453639, -0.097806677222, 0.083475261927, -0.036467242986, -0.025580396876, -0.021223051473, 0.087418280542, -0.117045618594, -0.020360091701, 0.053343560547, 0.064795628190, 0.007455099374, -0.025913627818, -0.040159672499, -0.083513565361, 0.035691864789, 0.052890401334, 0.096643202007, -0.015583402477, 0.033290747553, 0.064862884581, -0.033236321062, 0.033368840814, 0.031053731218, -0.089809179306, 0.088351473212, 0.019628264010, 0.062300380319, 0.036976154894, 0.006397827063, -0.014048621990, 0.042124986649, -0.091189153492, -0.059739034623, 0.064670287073, -0.068063452840, -0.095321998000, -0.016070360318, -0.050056293607, 0.048938956112, 0.024286547676, -0.050648663193, -0.008105800487, -0.074389114976, -0.011234313250, -0.041351601481, 0.101114407182, -0.095558948815, 0.018053371459, -0.030614849180, 0.085954114795, 0.006237247027, 0.012810654007, -0.076571308076, -0.072124399245, 0.098754957318, 0.094712533057, 0.058112651110, 0.012090764940, -0.037599638104, -0.018584161997, 0.031494837254, 0.045129276812, -0.000603589637, 0.002009368502, 0.083818644285, 0.019636075944, 0.062049400061, 0.072183772922, 0.045492645353, 0.090399786830, 0.085682518780, -0.047347679734, 0.054488863796, 0.026844685897, 0.057574786246, -0.055835869163, 0.017765762284, -0.088349699974, 0.040996812284, 0.002346621128, 0.111465826631, 0.105593360960, 0.023570928723, 0.082335524261, 0.066461533308, -0.076698519289, 0.081158041954, -0.008464391343, 0.003245834261, -0.048619266599, 0.039101094007, -0.018937474117, 0.091118089855, -0.083198688924, -0.015341497958, 0.007599152625, 0.053886674345, -0.054208468646, -0.063466101885, -0.077537819743, 0.042155046016, 0.109506860375, -0.045547831804, -0.048632130027, 0.017654098570, 0.058519121259, 0.072097480297, 0.052470106632, -0.000210843995, -0.119771823287, 0.087398238480, -0.092551723123, -0.029928034171, -0.015072075650, 0.010434242897, 0.065889507532, 0.017462732270, -0.078224509954, -0.044968582690, -0.111827790737, -0.115110553801, -0.004981701728, 0.033812232316, -0.008373387158, -0.068263910711, 0.041780367494, -0.004748003092, -0.007502368651, -0.098027512431, -0.070561863482, -0.118374377489, -0.002615322825, -0.033022873104, -0.017920894548, -0.029866656289, -0.044038761407, -0.002065777313, -0.082050681114, 0.037570241839, -0.051254082471, -0.027408288792, -0.082947544754, 0.037862423807, 0.035918045789, 0.077213205397, 0.100708991289, 0.094378620386, -0.096786804497, -0.019823491573, 0.086709737778, 0.017040163279, 0.019707916304, 0.054306998849, -0.026430038735, 0.005605632439, -0.002453337656, 0.006926488131, -0.035966657102, 0.039280571043, -0.074415884912, 0.069916218519, -0.026261439547, -0.089693732560, 0.032888393849, -0.089993290603, -0.019316185266, -0.013077597134, -0.057274911553, 0.039889514446, 0.104004971683, -0.070900276303, -0.085366889834, 0.099462032318, -0.070227511227, -0.085867911577, 0.014040527865, -0.061212092638, -0.065317675471, 0.070224441588, -0.088404893875, -0.086351133883, -0.092035017908, 0.115532696247, 0.049854997545, 0.058420073241, 0.008159260266, 0.051683295518, -0.052102349699, 0.023703433573, -0.003552222624, 0.092338994145, 0.068498127162, 0.056624498218, -0.028516795486, 0.048526816070, -0.090117380023, -0.025487054139, 0.093704394996, -0.056467168033, -0.053506024182, 0.067763701081, 0.068433724344, 0.001875504735, 0.008006257005, -0.031623285264, 0.002641145606, -0.053751897067, -0.087667688727, 0.001635971246, 0.110663816333, 0.047272827476, 0.008660234511, 0.122275516391, -0.082860931754, 0.082513950765, 0.089791066945, -0.076818451285, 0.058323781937, -0.034295294434, 0.039752803743, -0.003486813046, 0.001100708265, -0.010905739851, 0.057832714170, -0.071531385183, -0.025939207524, 0.051666814834, 0.082194752991, -0.036201346666, 0.024788543582, -0.065978541970, -0.018173838034, -0.023440856487, 0.064822778106, 0.023377668113, -0.034392409027, 0.039627708495, 0.061678279191, 0.048682015389, -0.002611779841, 0.045532099903, 0.079421095550, 0.033278476447, 0.049404736608, 0.035073734820, 0.037533696741, -0.061357893050, -0.080484688282, 0.064137838781, 0.005190087482, -0.015366809443, -0.089917615056, -0.036712996662, 0.048587985337, 0.002354521537, 0.066292315722, 0.077017754316, 0.073997303843, -0.118944168091, -0.055996004492, 0.060782652348, -0.108553275466, 0.068008132279, -0.002602700144, -0.058536842465, -0.041850477457, 0.021214578301, -0.067855909467, -0.097614929080, -0.079204484820, 0.009590726346, 0.055113341659, -0.046265974641, -0.089584916830, -0.132951065898, -0.112472578883, 0.033888544887, 0.080129556358, -0.033144876361, 0.049967296422, -0.095417343080, 0.078675702214, 0.080669082701, -0.057949006557, 0.049740552902, -0.022572867572, 0.042910445482, 0.049424201250, -0.055235609412, -0.057380933315, -0.035004060715, -0.030529536307, 0.078619703650, 0.055894285440, -0.058469802141, 0.076606169343, -0.051510408521, 0.112021751702, -0.002960675629, -0.057087741792, 0.015838455409, 0.024994425476, 0.005206699483, -0.067932978272, -0.045740745962, -0.089903905988, 0.072356015444, 0.073535166681, 0.059839606285, -0.024706188589, 0.100649580359, -0.007656702306, 0.029760038480, 0.039178691804, -0.048797771335, -0.055130284280, 0.061407834291, -0.054518565536, 0.088613145053, 0.058137435466, -0.075310721993, 0.106402248144, -0.040271095932, 0.015658095479, 0.046221066266, 0.090283177793, 0.043585341424, -0.053549636155, 0.099567495286, 0.101657941937, 0.030150935054, 0.076654456556, 0.107925698161, 0.024505108595, 0.043276831508, -0.040188338608, 0.053979501128, -0.048914939165, -0.069186322391, 0.107663989067, -0.022827418521, 0.033122222871, -0.085757017136, 0.079210534692, 0.099591240287, -0.053221214563, 0.000517481123, -0.054881908000, 0.114849314094, 0.085228458047, 0.002843060531, -0.054846741259, 0.110996775329, 0.091551579535, -0.055226281285, 0.104278586805, -0.005661822855, 0.019738279283, -0.081352651119, 0.087065339088, 0.104748539627, 0.043028295040, 0.042667213827, 0.105199977756, 0.016311079264, -0.065804958344, -0.017056547105, -0.034922644496, 0.031949650496, 0.023133486509, -0.041356254369, 0.048557426780, 0.039071936160, 0.012100507505, 0.025505810976, 0.042336326092, 0.063980817795, 0.054578211159, -0.061337057501, 0.073436833918, -0.034546490759, 0.030108850449, 0.075443722308, 0.090592041612, -0.027645586058, -0.031005825847, -0.099267259240, -0.004095793702, 0.049163900316, -0.006952528842, 0.094992928207, -0.070951215923, 0.046322874725, -0.002563857473, -0.087686210871, -0.099535465240, -0.067981839180, -0.021307371557, 0.042748723179, -0.044066887349, -0.082868643105, -0.042807273567, 0.051518298686, -0.002240382135, -0.009377267212, -0.087185062468, -0.092840582132, -0.015209438279, -0.014296392910, -0.000004733896, -0.115188755095, -0.078644804657, 0.055584244430, 0.027694642544, 0.098290465772, -0.075709342957, 0.056968618184, 0.098293505609, 0.064779207110, 0.058538615704, 0.021044434980, 0.029278399423, 0.099130854011, -0.030247686431, 0.056884203106, -0.034549772739, 0.015715796500, -0.010371485725, -0.036867130548, -0.022808736190, -0.009992970154, -0.071464322507, -0.077497236431, -0.027888447046, -0.044203624129, -0.102429464459, 0.112290970981, 0.009832855314, 0.075969852507, -0.003255414311, 0.084611043334, -0.091093413532, 0.094356000423, 0.063546098769, -0.072133399546, 0.007244275417, 0.024528792128, -0.082939080894, -0.004733934999, -0.088821515441, 0.062248192728, 0.029783084989, 0.006300468929, -0.082981556654, -0.078326925635, -0.044510696083, 0.034046132118, -0.017695967108, 0.058694392443, -0.068460986018, -0.066191703081, 0.107774548233, 0.005466941744, 0.022702535614, -0.061113510281, 0.062502250075, -0.013717249036, -0.025785518810, -0.050013665110, 0.022468386218, -0.002538673580, -0.105053372681, 0.080908425152, 0.068254761398, -0.099715225399, 0.074906095862, -0.016304362565, -0.111781805754, 0.106191270053, -0.023503703997, -0.094954244792, 0.078498773277, -0.011386764236, 0.053259279579, -0.068863056600, 0.027915276587, -0.064512170851, 0.045095440000, 0.075729273260, -0.064485132694, -0.039854492992, 0.016564436257, 0.053358763456, -0.018338195980, 0.072893761098, -0.021705389023, -0.049285676330, 0.007939988747, 0.053941585124, 0.060538377613, 0.036593459547, -0.087364830077, 0.057663101703, 0.082686893642, 0.093865133822, 0.013597386889, -0.088930688798, 0.020127635449, 0.045249737799, -0.116348639131, 0.073345452547, 0.062815971673, -0.076214089990, -0.055604338646, 0.031090216711, -0.072537399828, -0.089739762247, 0.008038125932, -0.053377345204, 0.005527509842, -0.029558528215, 0.009048450738, 0.085177160800, -0.063242003322, 0.056033067405, 0.055137578398, -0.021005904302, 0.057112824172, 0.036317612976, 0.059989269823, -0.036690831184, -0.044198945165, 0.100866094232, 0.022376686335, -0.022139854729, -0.017042133957, 0.040665447712, -0.047947589308, 0.014898208901, 0.080519318581, 0.102084100246, -0.000871944183, -0.037489399314, -0.007936347276, 0.045851554722, -0.101020343602, 0.059101548046, -0.006190600805, 0.061393693089, 0.053450226784, -0.070531673729, 0.091414578259, 0.011627254076, 0.081402108073, 0.006526395679, 0.047958027571, 0.065825097263, -0.010100491345, -0.029333233833, -0.070500664413, 0.097593799233, -0.017453633249, -0.060026705265, 0.055512350053, 0.091721504927, -0.066392466426, -0.038600414991, -0.011710521765, -0.066150635481, 0.050431113690, -0.095567077398, -0.006069378927, 0.078171171248, 0.018653912470, 0.067888140678, -0.035850722343, -0.004494707100, -0.050979394466, 0.052972942591, -0.000323664368, -0.083009347320, 0.070155195892, -0.093920782208, 0.058370508254, 0.025578411296, -0.057876564562, -0.090419031680, 0.052273295820, 0.074182033539, -0.114545084536, 0.074363969266, 0.019865801558, 0.009057288989, -0.065879888833, -0.007685278077, -0.080301240087, -0.067454919219, -0.067427307367, 0.078904882073, 0.086904063821, 0.116667881608, -0.077203534544, -0.004585912917, -0.031558811665, 0.091722637415, -0.060147695243, -0.052976392210, 0.102106511593, 0.104056745768, -0.032901760191, 0.059897895902, 0.107126697898, -0.114713534713, 0.005892508198, -0.068630270660, -0.027801960707, -0.072385646403, -0.006225834135, -0.087908752263, 0.091611295938, 0.015134870075, -0.117529034615, 0.038487445563, 0.035704847425, 0.005923105404, 0.075713865459, -0.045166671276, 0.070869706571, 0.026133617386, 0.010995402932, 0.047968536615, -0.003462832188, -0.092932030559, 0.003603887744, -0.031675320119, 0.097397416830, -0.045426502824, 0.047009773552, -0.019415659830, -0.032821170986, -0.045271448791, 0.088686816394, 0.080181449652, 0.077964030206, 0.065418787301, 0.078262254596, 0.011505167000, -0.026674749330, 0.016346247867, 0.032224364579, 0.116935141385, -0.030253836885, 0.038946170360, -0.056129273027, 0.044070657343, 0.119080081582, 0.075677894056, -0.066080965102, -0.033486451954, -0.011461644433, -0.064838089049, 0.046973403543, -0.069316633046, -0.098376743495, 0.079588934779, 0.078254207969, -0.019948396832, -0.106479145586, 0.076502025127, 0.107537195086, -0.047780308872, -0.056086942554, -0.101033009589, 0.013271097094, 0.081827133894, 0.011451684870, 0.016037486494, -0.021187517792, -0.046743053943, 0.020073480904, 0.032242458314, -0.111824572086, 0.047450013459, -0.048753522336, 0.081048808992, 0.044307481498, 0.066884912550, -0.079250611365, -0.012465117499, -0.097868144512, 0.010100017302, 0.010898082517, -0.016018653288, 0.073640808463, -0.021016217768, -0.123278327286, 0.075327530503, -0.002024478978, 0.112866424024, 0.103001669049, -0.062297262251, -0.034010179341, -0.054216887802, 0.082040451467, 0.007479912136, 0.112849973142, 0.069465182722, 0.028090374544, 0.044763684273, -0.080800235271, 0.050235003233, 0.009357432835, 0.022862065583, 0.044527441263, 0.076774463058, 0.104172706604, 0.085931524634, -0.107507325709, 0.101424366236, -0.043912347406, 0.018848666921, 0.072831839323, -0.055556144565, 0.076113812625, 0.064549624920, 0.101879976690, 0.048403203487, -0.063362576067, 0.073986567557, -0.076574444771, 0.043314751238, -0.085608728230, 0.014715833589, -0.061243545264, 0.041886001825, 0.013523808680, -0.004790836480, 0.079645328224, -0.018933063373, 0.005335013848, -0.098558209836, 0.058653939515, 0.024601921439, -0.061828408390, 0.035806223750, -0.035294853151, -0.046873014420, -0.016295969486, -0.019224956632, 0.066932916641, -0.097296923399, 0.037017695606, 0.094539918005, 0.089998707175, 0.016954291612, -0.018626768142, -0.083296544850, 0.017650738358, 0.025319280103, -0.040001790971, -0.049286101013, -0.098128721118, 0.016209410504, -0.014885702170, -0.029691983014, -0.034763135016, 0.110687598586, 0.027404054999, 0.067068368196, -0.004502315074, -0.049940384924, -0.084548711777, -0.056543160230, 0.038085985929, 0.073557727039, -0.007007304579, -0.097365215421, 0.061532516032, -0.112918019295, -0.124988071620, 0.085333451629, -0.075483366847, 0.033503998071, 0.099008843303, 0.058062672615, -0.053029943258, -0.017717858776, 0.029343269765, 0.047776032239, -0.082182466984, 0.063181869686, -0.021580556408, -0.066177628934, 0.088669359684, -0.056503158063, -0.012148479000, 0.076039589942, -0.090524278581, -0.027454093099, 0.010385936126, -0.097321704030, 0.020736088976, -0.018702622503, 0.017468711361, -0.005420456640, 0.023324463516, 0.052476063371, 0.065676607192, -0.006775867194, 0.086587324739, 0.066879995167, -0.121581181884, 0.067973248661, 0.008568088524, -0.126359149814, 0.054023526609, 0.066262461245, 0.065448753536, -0.009449513629, -0.035969179124, 0.013951392844, 0.106844201684, -0.078168205917, 0.014657110907, 0.074281252921, 0.081359989941, -0.020040608943, -0.074873335660, 0.045139573514, -0.114335566759, 0.102717585862, -0.005369510502, -0.055251199752, -0.019924573600, -0.034161690623, -0.082335576415, 0.089705534279, -0.085767336190, 0.096464924514, 0.116373814642, -0.021022247151, 0.017817925662, -0.038455519825, -0.037520650774, 0.056788697839, 0.084541358054, 0.056806571782, -0.021211043000, 0.072619393468, -0.021541889757, 0.006591231562, 0.091597922146, -0.107065603137, -0.001656443230, 0.083151005208, 0.019593745470, -0.087855465710, 0.068113803864, -0.109238699079, -0.104798197746, -0.090503327549, -0.123375535011, 0.106014296412, 0.034379404038, -0.001632343163, -0.059263847768, -0.037407927215, 0.067190274596, 0.018606707454, -0.110215909779, -0.077892974019, -0.084762014449, 0.008247282356, 0.081634685397, -0.034029502422, 0.047452673316, -0.000606355723, -0.089933902025, 0.057879157364, 0.108738675714, -0.044382538646, 0.029903352261, -0.079019978642, -0.009601973929, -0.079635441303, -0.020249709487, 0.077822975814, 0.042003981769, 0.077439151704, 0.078417189419, 0.020745303482, 0.062083631754, 0.022150941193, 0.108047254384, 0.036759417504, 0.065066792071, -0.010524399579, -0.042466450483, 0.089421287179, 0.039079912007, -0.097393952310, -0.077240392566, -0.107724152505, -0.067535713315, 0.031193800271, 0.004852844402, 0.017298627645, 0.005064185243, -0.012337083928, -0.075817309320, -0.053967092186, -0.007449431345, -0.023959854618, -0.003279267810, -0.039327539504, 0.021286675707, -0.066783607006, 0.007540011313, 0.006164830178, 0.012012331747, 0.076487466693, -0.079837776721, -0.083369240165, 0.103444397449, 0.016238614917, -0.063471212983, 0.003372229170, 0.015386831015, -0.114845022559, -0.096228808165, -0.107082478702, -0.118223965168, 0.049562077969, -0.072856716812, 0.084486387670, 0.046226833016, 0.061807524413, -0.050787732005, 0.089440777898, 0.097793780267, 0.070933006704, 0.022663824260, -0.058176126331, 0.003306352301, -0.019800446928, -0.073134414852, 0.089820325375, -0.098273880780, 0.046256944537, 0.072161883116, 0.005923946854, -0.096082784235, 0.102451696992, -0.110068142414, -0.082951471210, 0.044791512191, -0.083617731929, 0.105449594557, 0.031558021903, -0.062261138111, 0.007735934574, 0.043324045837, -0.009763309732, 0.035559225827, 0.057433236390, 0.099996730685, -0.014794588089, -0.048734139651, -0.020428093150, -0.066022224724, 0.062847897410, -0.085369080305, -0.011407336220, 0.105843991041, -0.064742974937, 0.032294902951, 0.091701127589, -0.035728543997, 0.087911322713, -0.019653258845, -0.099333181977, 0.107218399644, -0.063659675419, 0.035900391638, -0.106474220753, -0.120260536671, -0.094153925776, 0.010533334687, 0.070892229676, 0.072655446827, 0.097706511617, 0.109491281211, 0.049471125007, -0.031964160502, 0.019908839837, 0.051690403372, 0.010942335241, -0.030024336651, -0.030403925106, 0.066104069352, 0.117841109633, 0.102827444673, -0.036772102118, 0.106696113944, 0.053619857877, -0.034909274429, -0.039034709334, -0.016154320911, -0.047840241343, -0.089616566896, 0.068978063762, -0.103373713791, -0.020312109962, 0.032264720649, -0.042604122311, -0.037218805403, -0.091055229306, 0.110780887306, -0.103695973754, -0.079411767423, 0.060684297234, -0.102316342294, -0.030784593895, -0.067941926420, -0.082309879363, 0.085668593645, 0.075025521219, 0.108556710184, 0.062006793916, -0.078104831278, -0.061841621995, -0.091737784445, -0.046296011657, -0.041831623763, 0.019615285099, 0.007024576887, -0.028422661126, 0.076251946390, -0.078884333372, 0.040108215064, 0.026520019397, 0.098783545196, -0.014713590033, -0.023971574381, -0.002446267288, 0.059730146080, -0.065986409783, 0.048347968608, 0.044530041516, -0.010532295331, 0.035388480872, 0.045186500996, -0.083163648844, -0.069849044085, 0.005736335646, -0.055449709296, -0.036859139800, 0.012220188044, 0.065858170390, -0.015678372234, 0.059297785163, -0.021867610514, -0.104197591543, 0.087864108384, -0.015690905973, -0.092876158655, -0.078783020377, 0.098075263202, -0.006617697421, 0.075407117605, -0.045236390084, -0.092560492456, -0.014497757889, 0.002005688380, -0.067629866302, -0.057194653898, 0.065387040377, -0.078772731125, -0.047880347818, -0.110498264432, -0.029689630494, -0.029681589454, 0.000722105498, 0.016049664468, -0.065121658146, -0.022771753371, -0.062632769346, -0.071813635528, 0.063383340836, -0.092226415873, 0.100427508354, -0.008072686382, 0.036955453455, 0.040931936353, -0.085448764265, -0.004865149967, 0.074565678835, -0.038807939738, -0.022843156010, 0.043008308858, 0.032266270369, -0.075928330421, 0.020877972245, 0.013883217238, 0.087524399161, 0.043431606144, 0.025513745844, -0.071335703135, -0.002565999283, 0.006664671004, -0.035188592970, 0.101442761719, 0.038495782763, -0.067572072148, 0.000995089766, -0.081015847623, 0.023691851646, -0.047673895955, -0.116167254746, -0.002577822423, -0.001047008671, -0.103451274335, -0.022671114653, 0.044521752745, 0.036016929895, 0.024846419692, 0.065314985812, -0.070491410792, -0.092353783548, 0.087977886200, 0.046668920666, -0.065797887743, 0.031277660280, 0.048537451774, -0.022511739284, -0.012811999768, 0.078374072909, 0.032261047512, -0.057826668024, -0.108102992177, -0.113075561821, 0.004293611739, 0.040253654122, -0.089131549001, 0.017962684855, -0.019769599661, 0.108578562737, 0.073853969574, -0.084276467562, 0.080375529826, 0.048583865166, 0.066575698555, -0.044130068272, -0.054780304432, 0.095299378037, 0.043147210032, 0.052440121770, -0.101587109268, -0.103208079934, 0.004097881261, 0.054140523076, 0.096410639584, 0.015545927919, -0.084842659533, 0.059780657291, -0.064946733415, 0.092541895807, -0.074307233095, 0.084544636309, 0.082445636392, 0.112960696220, -0.044793233275, -0.007467598189, -0.093025922775, 0.036969229579, -0.022888939828, 0.127692639828, -0.068201936781, 0.066171795130, -0.105302117765, 0.069416955113, -0.022932855412, -0.033481094986, -0.038724545389, 0.067468658090, -0.038632813841, 0.105422735214, 0.096751041710, -0.074741505086, 0.030986662954, -0.057657498866, -0.024428144097, 0.045693334192, 0.029760736972, -0.069655314088, -0.060380652547, -0.071492999792, -0.091629832983, 0.028704011813, 0.036869276315, 0.054465901107, -0.061570148915, 0.062469497323, -0.011389525607, -0.133550539613, -0.010009526275, -0.066510975361, -0.068701632321, -0.015800248832, -0.016583787277, 0.039219502360, -0.037461981177, 0.001542140148, 0.117098920047, 0.093391358852, -0.068226516247, -0.066052958369, -0.057971980423, 0.070133008063, -0.112099736929, 0.039090353996, -0.042354244739, 0.000178071321, 0.011077849194, -0.034965179861, -0.026862407103, 0.080852262676, -0.061790026724, -0.023739365861, -0.121448345482, -0.025929534808, -0.079829953611, 0.035132985562, -0.051796089858, -0.086687214673, -0.061573263258, 0.061968531460, -0.073125042021, 0.107791170478, 0.042044449598, 0.009851357900, 0.079368419945, 0.012969803065, 0.056283805519, -0.101189821959, 0.019499253482, 0.094402164221, 0.085520088673, -0.046423479915, -0.062957733870, -0.092371068895, -0.027877897024, 0.051601689309, 0.035777758807, -0.054240118712, 0.084177047014, -0.092629462481, -0.040473513305, 0.006363367196, -0.037342734635, 0.103071659803, -0.095918156207, -0.000303507957, -0.081406407058, -0.122390255332, -0.092465475202, -0.021786266938, 0.009984171949, -0.022889256477, 0.078230023384, -0.001182759297, 0.052408918738, -0.059283580631, 0.007767223753, -0.091022640467, -0.061735171825, -0.054431397468, 0.019458288327, -0.074282310903, -0.021214608103, 0.042268406600, -0.070754766464, -0.093265704811, 0.032927505672, 0.014215139672, -0.069935411215, 0.074328705668, -0.043710190803, 0.053609315306, -0.101607918739, 0.039542879909, 0.027247482911, -0.006470020395, 0.004452094901, 0.027741447091, 0.065612278879, -0.040145486593, -0.102070450783, -0.005505392328, 0.049334160984, -0.007820908912, -0.043760746717, -0.027711143717, 0.011020979844, 0.073694095016, -0.028079448268, 0.056625410914, 0.048544734716, 0.127752080560, 0.069403789937, 0.048508331180, 0.134543418884, -0.082638099790, -0.082061104476, 0.080468133092, 0.087627746165, -0.018940433860, -0.042783405632, 0.020763779059, 0.009742207825, 0.058401338756, 0.082183256745, 0.090511091053, 0.014407388866, -0.028382230550, 0.008755317889, -0.027350477874, -0.104271039367, -0.015732249245, 0.072122946382, 0.019147723913, 0.096390426159, -0.000736986520, -0.001724809292, -0.062462139875, 0.022563686594, -0.025216372684, -0.060034248978, -0.027527309954, 0.022499563172, -0.061404470354, 0.059854298830, 0.016666673124, -0.025220550597, 0.096813634038, 0.057668138295, -0.035419203341, 0.023824991658, 0.113696724176, 0.086935907602, 0.115908756852, -0.020674631000, 0.064532086253, -0.077398464084, 0.106815211475, 0.095585323870, 0.123704768717, -0.055337920785, 0.079399719834, -0.083079144359, -0.087457008660, 0.054084263742, -0.072578221560, 0.046546876431, 0.104865610600, 0.020297348499, -0.008754786104, 0.048782005906, -0.010229789652, 0.013348069973, -0.041350513697, -0.053849428892, 0.016644762829, -0.071339070797, 0.013091082685, -0.108719751239, 0.048806503415, 0.055525239557, -0.101363427937, 0.015829864889, -0.036846674979, 0.041783325374, -0.125118568540, 0.001000107499, -0.063339181244, -0.119468949735, -0.080424763262, 0.094498835504, -0.035931088030, 0.088877201080, -0.067025713623, -0.005095039494, -0.116016291082, 0.090599574149, -0.023129964247, 0.082039579749, 0.009923214093, 0.038306649774, -0.116107612848, 0.120118565857, -0.005983272102, 0.068131856620, -0.020127706230, 0.092099986970, -0.054831400514, -0.078972719610, 0.029228819534, -0.041068483144, 0.068001344800, -0.052807297558, -0.102909862995, -0.117533802986, -0.039053887129, 0.103318043053, -0.029291206971, -0.045414932072, -0.074738591909, 0.007454019506, 0.056560147554, 0.003439667635, -0.106888011098, -0.102934189141, -0.018110504374, 0.022903630510, -0.089059442282, 0.060894716531, 0.036063734442, 0.020761907101, 0.118400745094, -0.085556596518, 0.080484829843, 0.055123053491, -0.047189377248, -0.080317221582, -0.074555724859, -0.078482046723, 0.006683774292, 0.048349488527, 0.007681326475, -0.048961371183, 0.086391001940, 0.037200540304, 0.003897339338, 0.053445961326, -0.009175240993, -0.065813705325, -0.116509392858, -0.030341161415, -0.062615811825, -0.041166819632, 0.068595461547, -0.050873752683, -0.103348650038, 0.050853893161, -0.060051880777, 0.028595371172, 0.097422093153, 0.017654018477, -0.000619267055, -0.062789849937, -0.076126560569, -0.051869906485, 0.079508855939, -0.046253502369, 0.049530886114, -0.039915394038, 0.111510120332, -0.060927852988, 0.077855341136, 0.099841594696, -0.009577830322, 0.112007968128, -0.078734591603, -0.021617621183, 0.043842639774, -0.038445942104, 0.047729577869, 0.031057763845, 0.049623161554, -0.097931183875, -0.026753686368, -0.113839685917, 0.046250440180, -0.068727463484, 0.051566541195, -0.063969634473, 0.073796704412, 0.086530447006, -0.093268692493, -0.084188476205, 0.007780161221, -0.094592064619, -0.009886349551, -0.078018903732, -0.036897242069, 0.078665331006, 0.043100830168, -0.048444222659, -0.065411120653, -0.071521021426, -0.041108172387, -0.038828745484, 0.059951368719, 0.049213249236, 0.017715282738, 0.001111290534, -0.010384389199, -0.028949588537, 0.092576473951, -0.102110058069, -0.076982438564, 0.061510272324, -0.052881341428, -0.050490491092, 0.048316914588, 0.023992726579, 0.097312152386, -0.115497119725, 0.046714384109, -0.024771412835, 0.071427613497, -0.038897447288, -0.066247269511, -0.065554141998, 0.030515912920, 0.038257744163, -0.033165503293, 0.043461177498, -0.116882421076, 0.038736473769, -0.085293561220, 0.027315324172, 0.116826981306, 0.081705659628, -0.009208912030, -0.020259847865, 0.002195182722, -0.026966134086, 0.093925103545, 0.102434232831, 0.038437303156, -0.002902643289, -0.065393730998, -0.107642464340, -0.034939385951, 0.053274996579, -0.093183629215, -0.092425860465, 0.020451445132, 0.037758596241, -0.052842322737, -0.071565106511, 0.100383564830, -0.082443326712, 0.095918096602, 0.109088167548, 0.100599072874, 0.098523639143, 0.037602871656, 0.114610053599, -0.036648415029, 0.131053328514, 0.138989016414, 0.058459155262, -0.020714387298, 0.088322550058, 0.113664343953, 0.105983048677, 0.046025142074, -0.094772905111, 0.094804480672, -0.020398136228, 0.043491337448, 0.088061764836, -0.043496936560, 0.024819692597, 0.044453687966, 0.045686956495, 0.089237891138, -0.031707894057, 0.006168528926, 0.097408927977, -0.076211646199, 0.063628822565, -0.102453030646, -0.000592926401, 0.035440947860, 0.093087702990, -0.059118766338, 0.023489514366, 0.104923851788, 0.097437441349, 0.042920213193, -0.011874957010, 0.038947511464, -0.059764690697, 0.059669189155, 0.016584455967, 0.019776243716, 0.051776539534, 0.040055736899, 0.018216783181, -0.091604307294, 0.114093810320, -0.003913527355, -0.040158245713, -0.075231783092, -0.050097122788, -0.058633320034, -0.041661482304, -0.085045531392, 0.004089866765, -0.123370498419, 0.046058502048, 0.080395095050, 0.072399675846, 0.082383722067, -0.076747432351, -0.002810694510, 0.026938987896, 0.057285748422, -0.119341239333, 0.093071639538, -0.033837404102, -0.003073510481, -0.062766186893, -0.068369030952, 0.004056706093, 0.019892320037, 0.078074023128, 0.010502685793, -0.005188704003, -0.033470328897, -0.026522876695, 0.105313964188, 0.035349637270, 0.093034230173, -0.085293501616, 0.087442368269, -0.072567805648, 0.018013307825, 0.085890442133, -0.100588031113, 0.028820831329, -0.030914012343, -0.087116874754, -0.002859581495, 0.022404855117, 0.018402403221, 0.047163181007, 0.053740788251, 0.061971526593, 0.031610764563, 0.036290373653, 0.076470017433, -0.041321825236, 0.117988616228, -0.080931179225, 0.092869997025, -0.084729582071, -0.025165449828, -0.060712523758, 0.119763329625, -0.013366815634, 0.041617579758, 0.058852434158, -0.018701171502, 0.027384145185, -0.048169862479, 0.089143253863, -0.022715488449, -0.070124723017, -0.102702893317, -0.018388248980, -0.052056532353, 0.003382105380, -0.006007650867, -0.062846988440, -0.072444327176, 0.047151762992, -0.101439945400, 0.009311082773, -0.077034540474, -0.027846388519, -0.009620235302, 0.068338878453, -0.105355933309, -0.005310744047, -0.028099665418, -0.113321103156, 0.006633180194, 0.037073332816, -0.097436591983, -0.074941873550, -0.056468270719, -0.047152001411, -0.104640372097, -0.056719265878, 0.009166055359, -0.039191804826, 0.036325305700, 0.000320783409, 0.068122364581, 0.073863841593, 0.018052639440, -0.054240118712, 0.107320308685, -0.054577223957, 0.015737798065, -0.091626882553, -0.076192043722, -0.002434164518, 0.025844922289, -0.002251270693, 0.029951555654, -0.011300590821, 0.013435808010, -0.013262339868, -0.005043622106, -0.005213191733, 0.063820458949, 0.051688794047, 0.008072322235, -0.005610616412, -0.058061018586, 0.067947693169, -0.007472409401, -0.078293368220, 0.049417220056, -0.045661021024, -0.014488458633, -0.082847736776, 0.046601485461, -0.024514397606, 0.000787243131, 0.062268223614, -0.015377636068, -0.021037748083, 0.090774103999, 0.107968114316, -0.028963018209, -0.008071702905, -0.087801396847, -0.079073719680, -0.005312385969, 0.084370955825, 0.098582036793, 0.107708424330, 0.042570739985, 0.093978546560, -0.074015766382, 0.084582418203, -0.015589041635, -0.018307035789, 0.090656548738, 0.041962675750, -0.097971096635, -0.070802114904, 0.074034765363, -0.006372302305, -0.085547268391, -0.044776633382, 0.049048990011, -0.062140960246, 0.106612734497, 0.099392972887, -0.009730524383, 0.032774303108, -0.068285338581, -0.027880499139, 0.018562037498, 0.033785775304, 0.130742177367, -0.030176443979, -0.026486719027, 0.076424121857, 0.039818271995, -0.079745985568, -0.025694413111, -0.061166502535, 0.090207949281, 0.011839504354, -0.074259720743, -0.083686158061, 0.018770204857, 0.026450498030, 0.010899424553, 0.054454494268, 0.083964131773, -0.009960371070, 0.045837104321, 0.039341539145, -0.037572212517, -0.066679090261, -0.031867545098, 0.040702790022, -0.071490623057, -0.055658627301, 0.013471338898, 0.078455813229, -0.035143274814, -0.030315425247, 0.075459815562, -0.112556390464, -0.008394243196, 0.003126372816, 0.084959886968, -0.051376812160, -0.082839533687, -0.117095910013, 0.063246756792, -0.095167346299, 0.016139803454, -0.043201051652, -0.081755630672, -0.085867993534, -0.039564479142, -0.064578890800, 0.022437041625, 0.040718149394, 0.079661600292, -0.085698187351, -0.088774301112, 0.105046428740, -0.078167550266, 0.045784536749, -0.077164098620, 0.052840810269, -0.023703480139, 0.049617562443, -0.054571054876, 0.073253944516, 0.067211344838, -0.054417535663, -0.014764314517, -0.075165927410, -0.058738294989, -0.049974329770, -0.043525703251, 0.109288707376, -0.056429866701, 0.032811731100, -0.027923731133, 0.112362347543, -0.083582445979, 0.022714640945, -0.040106628090, -0.008564220741, 0.066885888577, 0.098590999842, 0.024015063420, -0.102206066251, -0.090534538031, 0.061859335750, -0.107249431312, 0.048267718405, -0.032803531736, 0.032790254802, -0.021425582469, -0.008475459181, 0.002201500582, 0.037734605372, 0.090126767755, -0.012556746602, 0.022892875597, 0.065124265850, 0.059018686414, -0.098658226430, -0.082388944924, 0.081941865385, -0.013684863225, -0.090689949691, -0.013318723068, 0.052884511650, 0.061371024698, -0.062211159617, -0.063138157129, 0.035543631762, 0.066187106073, 0.029148118570, 0.088227339089, 0.007768633775, -0.066715687513, -0.025491772220, 0.030491450801, 0.057024568319, -0.035140298307, 0.030298141763, -0.021557159722, 0.021818783134, -0.059306163341, -0.066838741302, 0.008455490693, -0.021858375520, 0.096593350172, 0.042264990509, -0.018098214641, -0.083933927119, -0.045437481254, -0.035257205367, -0.046034764498, 0.053786188364, 0.094084180892, 0.014945060946, 0.013535885140, 0.106310807168, 0.001969452016, -0.088820338249, -0.079191543162, 0.009175323881, 0.068048216403, 0.100510239601, 0.051856867969, 0.040806602687, 0.111115232110, 0.000364161417, -0.106895357370, -0.087293207645, 0.103343479335, 0.121649466455, 0.115106053650, 0.107565678656, 0.016266323626, 0.087324216962, 0.102151095867, 0.115858159959, -0.071847528219, 0.087147213519, 0.005429177079, 0.057339053601, -0.086885504425, 0.021396262571, -0.026653748006, -0.070928446949, -0.023443765938, 0.007729035337, -0.057452954352, 0.024193948135, -0.004783191718, -0.039738867432, -0.089380927384, 0.092110298574, 0.128351569176, -0.031899727881, 0.040047440678, -0.035066336393, -0.004186319653, 0.037995602936, -0.030046815053, -0.024614911526, -0.015475426801, -0.006532695144, 0.074254609644, -0.049701485783, 0.054443854839, -0.067995421588, 0.068052805960, 0.080935396254, -0.097971662879, -0.106846682727, 0.041163656861, -0.018075507134, -0.015350742266, -0.079155713320, -0.090744741261, -0.001517331693, 0.020130652934, 0.023009994999, 0.031434863806, -0.089646555483, 0.020681174472, -0.094035401940, -0.043072912842, -0.103455491364, -0.024874428287, -0.019744047895, 0.004761770833, 0.082525089383, -0.036861408502, -0.100978828967, 0.015733812004, 0.043406393379, -0.093442082405, -0.022988598794, 0.016085259616, 0.083371028304, -0.088951945305, -0.015261963941, -0.029122270644, -0.039145015180, 0.027249537408, 0.070312589407, -0.025974566117, -0.066646292806, 0.026917340234, -0.004014714621, 0.078586846590, -0.075880065560, -0.017414534464, 0.044156458229, -0.004351070616, 0.031125932932, -0.053597144783, 0.042404904962, -0.025211308151, -0.095931515098, 0.013945063576, -0.038956098258, -0.048964411020, 0.092228069901, -0.011445537210, -0.014516269788, -0.054939344525, 0.041658066213, -0.101634353399, 0.035218615085, 0.077673107386, 0.047569002956, 0.108692936599, -0.110778421164, 0.083116538823, -0.081126213074, 0.109321877360, -0.073511108756, 0.089029572904, -0.084455415606, -0.065479554236, 0.016861014068, -0.097469769418, 0.070360936224, 0.033091209829, -0.078084625304, -0.055117662996, 0.048014070839, -0.063846029341, -0.074992217124, -0.060162108392, 0.045941784978, -0.078181535006, -0.040905456990, -0.099939301610, 0.061333395541, -0.090007662773, -0.073407992721, 0.084147691727, 0.017120826989, -0.045031942427, -0.048517230898, 0.003212504787, 0.015231871977, -0.007640283555, 0.001962190261, -0.043005153537, -0.030410794541, 0.086664363742, -0.083378337324, 0.029254524037, -0.047812454402, 0.097631141543, -0.065155945718, 0.047542069107, 0.000771843479, -0.099036648870, -0.002140176715, -0.024062572047, -0.062273070216, 0.076676025987, -0.052600443363, 0.035516265780, 0.071315042675, -0.065044924617, -0.047903127968, 0.048998542130, 0.062350712717, 0.094445601106, 0.094868682325, 0.088725373149, -0.086298950016, -0.007015335839, 0.061086352915, -0.085150711238, 0.085331507027, 0.077684529126, -0.040150951594, -0.079127326608, -0.042039096355, 0.103699587286, 0.070234589279, -0.012247093953, 0.062990270555, 0.067967392504, -0.064321286976, -0.029878474772, 0.089776292443, 0.053298529238, -0.006425751373, 0.090422078967, -0.032290376723, 0.001505289809, 0.086961537600, 0.081714637578, -0.114711724222, -0.042288344353, -0.038303218782, 0.014250814915, -0.071299791336, 0.045278504491, -0.085498765111, 0.039843738079, 0.005364521872, -0.039482310414, -0.099405325949, -0.011219458655, -0.079346068203, 0.048172153533, -0.031941402704, -0.120439864695, 0.095420770347, -0.010044621304, 0.011409037746, 0.093946322799, -0.062367435545, -0.019405229017, 0.037500660866, 0.077475443482, 0.060654897243, -0.049477107823, -0.122810065746, 0.094426602125, 0.092703796923, 0.102420635521, 0.060846764594, 0.082548998296, 0.019959852099, -0.084353506565, 0.018904661760, 0.014224548824, 0.086744397879, 0.020183624700, 0.078664310277, -0.093205630779, -0.067332230508, 0.063879579306, 0.018639789894, -0.018502742052, 0.008950044401, -0.095691859722, 0.067296989262, 0.112798139453, 0.103613153100, -0.082083620131, 0.019249755889, -0.083311423659, -0.080935798585, 0.007089531049, -0.089015625417, -0.054344601929, -0.046394608915, 0.008975248784, -0.101123206317, 0.052423942834, 0.046610094607, 0.036988522857, 0.021565061063, 0.077510386705, -0.037275888026, -0.063854232430, 0.021343208849, -0.037116985768, 0.060067754239, 0.035972014070, -0.000188164806, -0.076448105276, 0.090182021260, 0.041674889624, 0.022260745987, -0.072754904628, 0.033529121429, 0.054136697203, 0.103169649839, -0.089386537671, 0.056515745819, 0.068779349327, 0.006403628737, -0.064312472939, -0.099108546972, 0.024340145290, 0.041408486664, 0.090099774301, 0.024696627632, -0.064450465143, -0.072083182633, -0.005415589549, -0.047523889691, 0.105178646743, 0.080593623221, 0.057141169906, 0.060900837183, 0.057517547160, -0.029801849276, 0.113325014710, 0.011723482050, 0.017124457285, -0.040783669800, 0.063359357417, -0.048038434237, -0.011518784799, -0.037547528744, 0.055637419224, -0.016114506871, -0.061806708574, -0.121481366456, -0.057180624455, 0.052454203367, -0.084214515984, 0.087829060853, 0.077600941062, 0.026493744925, -0.057812698185, -0.055173587054, 0.029398165643, -0.109953254461, -0.041936337948, 0.049114789814, 0.037747602910, 0.063156440854, -0.034808065742, -0.070348344743, 0.056693982333, -0.010601408780, 0.085028626025, 0.083411253989, -0.027296505868, 0.035702448338, 0.105938412249, -0.066752731800, 0.077385529876, -0.078698106110, 0.102910973132, -0.054642770439, 0.032895796001, 0.039805479348, 0.074742749333, 0.024216944352, 0.024337477982, -0.034030769020, 0.043169077486, -0.061442155391, 0.019844656810, -0.027886580676, 0.068607144058, 0.040696993470, 0.099937193096, -0.097936280072, 0.100185662508, 0.012330429628, 0.099105589092, 0.033520255238, 0.018275028095, 0.088932007551, 0.051992114633, -0.113138854504, -0.087944984436, -0.039177086204, 0.011805138551, -0.057026714087, -0.038437992334, -0.022745186463, -0.031765710562, -0.059751156718, 0.048181887716, 0.073430612683, -0.015358791687, 0.049444489181, 0.065647654235, -0.013878729194, 0.021451465786, 0.071314446628, -0.055353228003, 0.014492748305, 0.006794658490, -0.069772541523, -0.081912778318, 0.105895116925, -0.008694413118, -0.029348539189, -0.023676119745, 0.079925000668, -0.097492776811, -0.018952507526, 0.054877012968, 0.074558451772, -0.080790765584, 0.064560443163, -0.015095650218, 0.089806675911, -0.021574512124, -0.042028851807, 0.101831823587, -0.135728105903, -0.033156536520, -0.053196787834, -0.103333055973, -0.095277786255, -0.067871719599, -0.040331579745, 0.020425233990, 0.041868425906, 0.084604300559, 0.011904200539, -0.002757806098, 0.049027577043, -0.056186951697, 0.034491546452, 0.067937642336, -0.092788279057, -0.012135521509, -0.085045553744, -0.025537464768, 0.080428138375, 0.094678379595, -0.027016531676, 0.082403570414, -0.015743257478, 0.060682743788, -0.044985093176, 0.078789748251, -0.115920409560, 0.048114906996, 0.046264588833, -0.081997543573, 0.090099342167, -0.063887059689, 0.014765922911, 0.046074382961, 0.082205146551, 0.015962647274, -0.051758293062, 0.041893802583, -0.000959742989, -0.018083633855, 0.024355387315, 0.084377966821, 0.075451083481, -0.046870160848, 0.064393855631, 0.041621383280, 0.035878203809, 0.022976318374, 0.018158506602, -0.095849648118, -0.031316645443, 0.097035452724, 0.021868295968, 0.002111991635, -0.015114255250, -0.092185519636, -0.018750773743, -0.115736842155, 0.061476565897, -0.101316817105, -0.044243313372, -0.038851302117, 0.008565793745, 0.080007001758, 0.060835704207, 0.029503233731, -0.065014712512, -0.096798136830, 0.076739497483, 0.034656666219, 0.056649085134, 0.034300118685, -0.065016731620, 0.012871999294, -0.102669447660, 0.036112647504, 0.072552599013, 0.068989366293, 0.063338838518, 0.047043778002, -0.075465694070, 0.000208044599, -0.037390880287, 0.005550628062, 0.061652578413, 0.063705474138, 0.097667217255, -0.088009536266, 0.042910289019, -0.043360207230, 0.068228051066, 0.100450068712, 0.061386086047, 0.062433026731, -0.088547088206, 0.061247467995, -0.068868480623, -0.042498186231, -0.037573825568, -0.027766456828, -0.078051015735, 0.033815916628, -0.092705130577, -0.063785880804, -0.034563485533, -0.033535551280, 0.037338409573, -0.093130908906, -0.025108961388, -0.097843110561, -0.075102448463, 0.014403674752, -0.054560486227, 0.058138377964, -0.023718912154, 0.069573558867, 0.070633791387, 0.015435761772, 0.025015003979, -0.077011995018, -0.084652341902, -0.039146069437, 0.053532309830, 0.106484092772, 0.074213027954, 0.116622276604, -0.079699896276, 0.004179314245, -0.065647207201, -0.027349194512, -0.087985925376, 0.101177260280, 0.020561913028, 0.001849241089, -0.081030718982, -0.009873880073, 0.010817936622, 0.021744865924, 0.041220955551, -0.071460038424, -0.102024964988, 0.050460714847, -0.110669456422, 0.053921874613, 0.029182102531, -0.051469717175, -0.101282365620, 0.090965673327, -0.070680402219, 0.083594337106, 0.025365419686, -0.064609222114, -0.111703850329, -0.071372956038, -0.065248496830, -0.020616568625, 0.048749662936, 0.079697221518, 0.045515175909, -0.008359649219, -0.015353712253, 0.108310200274, 0.064971275628, -0.033821102232, 0.092958316207, -0.105233937502, 0.108969643712, 0.040975876153, 0.016859816387, 0.020226953551, -0.039687842131, -0.027504341677, 0.026018738747, -0.054179251194, -0.007932428271, 0.028641013429, 0.023267682642, 0.010778565891, 0.111307784915, 0.084965571761, -0.054301254451, -0.009731746279, 0.002218303271, -0.073251582682, 0.005536752287, -0.073229148984, 0.051097653806, 0.024944635108, -0.047986734658, -0.027864027768, -0.033547639847, -0.081292703748, -0.035758484155, -0.069014273584, 0.062952727079, 0.002893288620, 0.056307248771, 0.071282766759, 0.053618840873, 0.065340057015, 0.018778163940, -0.007345639635, -0.000880780630, -0.056710410863, 0.017933122814, 0.031944252551, -0.067605711520, 0.109505102038, 0.077728189528, 0.115133620799, 0.115681655705, -0.070547685027, -0.016209684312, 0.031989708543, -0.023833470419, -0.008289404213, -0.026276530698, -0.048213686794, 0.006563749630, -0.090678930283, 0.066231608391, -0.085994079709, -0.081381447613, -0.073741197586, 0.016817362979, -0.017361858860, 0.091530136764, -0.084347739816, -0.048356968910, 0.081569418311, -0.032922323793, 0.108178019524, 0.072631537914, -0.059582412243, -0.060186523944, -0.032759100199, -0.105634756386, -0.078160107136, 0.044067390263, 0.012458320707, -0.005094007123, 0.027539689094, 0.075844585896, 0.066507093608, -0.052104055882, 0.048805169761, 0.034284017980, -0.081506289542, -0.102503381670, -0.014862944372, 0.035568699241, 0.109153345227, 0.020808106288, -0.100964561105, 0.015368667431, 0.010961346328, -0.055717781186, 0.045680172741, -0.057784959674, -0.069261990488, -0.039499856532, -0.100409753621, 0.098733022809, 0.022953242064, -0.052812714130, 0.003347598948, 0.089840263128, 0.075764596462, -0.050847094506, -0.072902195156, -0.063316732645, -0.027402373031, 0.073642246425, 0.035630032420, -0.092357583344, 0.040060777217, -0.052842665464, -0.032095737755, -0.024468608201, -0.128332927823, 0.055022660643, 0.067026108503, -0.027035320178, -0.073220834136, 0.012458303943, -0.085405550897, -0.007312633563, 0.034559026361, -0.001999107189, 0.094959124923, -0.056836131960, -0.066463999450, 0.034293942153, 0.074193030596, 0.109139636159, 0.084863997996, 0.103189513087, 0.086645416915, 0.061410024762, 0.027497967705, 0.028040416539, 0.000710305583, -0.062302093953, 0.063003174961, -0.062612615526, -0.112530939281, -0.084287479520, 0.085348300636, -0.018411953002, 0.070798940957, 0.075496800244, 0.097882375121, 0.065956085920, -0.060041282326, 0.050007279962, -0.061252519488, 0.109396286309, -0.085331812501, 0.059621151537, -0.018936825916, -0.038201890886, 0.017077649012, -0.047548055649, -0.102865993977, -0.019112845883, -0.001792827854, -0.103042535484, -0.145871341228, 0.086640767753, -0.052206825465, 0.044434059411, -0.020137030631, 0.011612975039, -0.077059596777, -0.002662665909, 0.098640218377, 0.092424824834, 0.062202297151, -0.077419944108, 0.026949541643, -0.050034835935, 0.071481853724, -0.054922029376, 0.011593514122, -0.041339147836, -0.088428348303, 0.105037629604, -0.063942022622, 0.012218878604, 0.019538046792, -0.066919341683, 0.012650962919, -0.000436246512, -0.068259313703, 0.005773421843, 0.045290805399, -0.061193313450, -0.064920559525, 0.001091578742, 0.069846086204, 0.075413212180, 0.003057061229, 0.067288242280, -0.079951040447, -0.027094131336, -0.073331311345, -0.034451417625, 0.040410812944, -0.056201104075, -0.093058958650, 0.081210583448, 0.076161384583, 0.073697067797, -0.106863081455, -0.062218222767, 0.079616636038, -0.020873807371, 0.012546042912, -0.043745283037, -0.070763744414, -0.028663869947, -0.032628960907, 0.098002851009, 0.106397174299, 0.126784875989, 0.032871011645, 0.094290561974, -0.078422613442, 0.038342632353, -0.076590843499, 0.019574424252, 0.037630986422, 0.020013518631, -0.022349415347, 0.014438196085, -0.082937836647, -0.010230462998, 0.016375407577, 0.012270848267, -0.020876262337, 0.002134139417, 0.050165008754, -0.014263020828, 0.088018149137, 0.102975636721, -0.103746183217, 0.116969659925, -0.021301979199, 0.025848040357, -0.018708417192, 0.018328066915, -0.091623239219, 0.071016103029, 0.019596958533, 0.051676407456, -0.029840447009, 0.097445905209, 0.104515254498, 0.065593093634, 0.049778655171, -0.053626671433, -0.027847183868, -0.002115696901, 0.009674398229, -0.054527491331, 0.073743626475, -0.051846023649, -0.087602697313, -0.086480438709, 0.050278447568, -0.036160551012, 0.030076069757, -0.079285018146, -0.054584562778, 0.004093106836, -0.082401119173, 0.019173374400, 0.098733395338, -0.041041314602, -0.074177064002, 0.111240014434, 0.058748740703, 0.080192111433, -0.015425122343, 0.073821678758, -0.014995805919, -0.016623426229, -0.058886971325, -0.018413325772, -0.060160852969, 0.069876901805, -0.041500058025, 0.049482531846, -0.000238746332, -0.025372220203, 0.107863083482, -0.009789505973, 0.016993761063, 0.019716354087, 0.053264435381, 0.094156458974, 0.023150216788, -0.064231134951, 0.081454560161, -0.038483437151, -0.089652977884, -0.053582597524, 0.058351650834, 0.033351719379, -0.006018263754, 0.002977800556, 0.016726361588, -0.063855856657, -0.026006180793, 0.059534266591, -0.084741301835, 0.060345638543, 0.082221813500, 0.051216144115, -0.004642187152, -0.034782763571, 0.016740838066, 0.033803980798, 0.058360274881, -0.018335282803, 0.090187966824, -0.074321262538, -0.084831126034, -0.087371066213, -0.032344307750, -0.054464161396, 0.051812749356, 0.052085235715, -0.085385881364, -0.008461662568, 0.045436371118, 0.071466423571, 0.028714431450, 0.084852665663, -0.012226019986, 0.051051981747, 0.042070388794, -0.024121776223, 0.006793729961, 0.009224947542, -0.093450337648, 0.076447732747, -0.046745896339, -0.033511649817, -0.007854718715, -0.103887252510, 0.090226836503, -0.033604241908, -0.110196158290, -0.109093546867, -0.107274889946, 0.083010584116, -0.002831250196, 0.029869258404, 0.067860841751, 0.083018645644, -0.073222316802, 0.000177167225, 0.040284767747, -0.022497726604, -0.071162939072, 0.074108578265, -0.006793577224, 0.080842778087, -0.030529482290, -0.044223990291, -0.053806032985, -0.023749358952, -0.024874296039, 0.015921948478, -0.085006296635, -0.011378403753, -0.058739956468, 0.062035050243, -0.004169063177, -0.049444761127, -0.069789074361, -0.042676616460, 0.009137410671, 0.110807850957, -0.074536129832, 0.116139419377, -0.069810979068, -0.125173613429, -0.071040853858, 0.093126609921, -0.118679009378, -0.002608205657, -0.075100585818, 0.010542669334, 0.016249813139, -0.010604117997, -0.070566542447, 0.038469213992, -0.040945827961, 0.072551488876, 0.061532590538, 0.018629329279, -0.054069485515, -0.079203642905, -0.042157348245, 0.072719790041, -0.056821566075, -0.092776812613, 0.036152757704, -0.071043863893, 0.038780152798, -0.014873916283, -0.105231188238, 0.046299561858, 0.050256803632, -0.086997061968, -0.106466159225, -0.042464170605, 0.028235470876, -0.029877567664, 0.009888297878, -0.015635838732, -0.111074574292, 0.018438613042, -0.072311155498, -0.017670618370, 0.082450963557, -0.050436612219, -0.055651828647, -0.090147949755, 0.039019204676, -0.004699205048, 0.024927273393, 0.050570100546, 0.021702947095, -0.085310958326, 0.116539545357, 0.086845040321, 0.088339284062, -0.068897806108, -0.080227017403, -0.087913028896, -0.019024888054, 0.082466192544, -0.004344047513, -0.051370453089, -0.013454600237, 0.022481726483, 0.079411499202, 0.060354799032, -0.070510812104, -0.064995646477, 0.083584874868, -0.001748819603, -0.003804501146, -0.013314468786, 0.048423912376, -0.079139821231, -0.045903731138, 0.070149183273, 0.028606411070, -0.078452035785, 0.006807853002, -0.101206772029, 0.035463027656, 0.078872293234, -0.103476792574, -0.105536751449, -0.065738491714, -0.083266392350, 0.011643826030, 0.075228154659, 0.039976738393, -0.117890208960, 0.095743969083, 0.100191175938, 0.058199830353, -0.004941126332, 0.069411158562, 0.079300172627, 0.016569213942, 0.068640068173, 0.038558274508, 0.004986069631, -0.022639425471, 0.066916987300, 0.103631928563, 0.067312873900, -0.017392998561, -0.041971426457, -0.032423801720, -0.038361251354, -0.085456818342, -0.100510537624, 0.093622028828, 0.033573757857, 0.018078913912, 0.047966461629, -0.097288407385, 0.050466928631, 0.027840103954, 0.023549795151, -0.072037786245, 0.046712391078, 0.029456021264, 0.089615017176, -0.104267425835, -0.028210416436, -0.014039657079, 0.084378629923, -0.012328192592, -0.014134795405, -0.099337212741, 0.110129699111, -0.081641525030, 0.079353399575, 0.057349324226, 0.022901421413, -0.060386564583, 0.012997021899, -0.055869039148, -0.045207411051, 0.056414674968, -0.071242801845, 0.067472279072, -0.102896921337, 0.057429932058, -0.068715900183, 0.069363944232, -0.030958997086, 0.109005153179, -0.035517122597, 0.001352428226, 0.020001538098, -0.102790027857, -0.057991836220, -0.070541031659, 0.097557283938, -0.021413788199, 0.119878858328, -0.021578148007, -0.072675965726, -0.031532786787, 0.049509167671, 0.108957052231, 0.022129733115, 0.076710298657, 0.089051447809, 0.028952872381, 0.048051193357, -0.043457955122, -0.058193575591, -0.090054988861, 0.104464516044, -0.059636220336, 0.073934495449, 0.041539747268, 0.069619193673, -0.074838481843, -0.045493181795, -0.064715571702, 0.109602116048, -0.055553566664, 0.037306752056, 0.050777599216, -0.092595398426, 0.031512647867, -0.063962757587, -0.068584844470, 0.076754674315, -0.094133995473, -0.066179029644, 0.020174922422, -0.068374529481, -0.004410452209, 0.100019007921, 0.017524881288, 0.041202764958, 0.091666206717, 0.017810367048, -0.068286791444, -0.116853736341, -0.067082859576, 0.032636862248, -0.004164875485, 0.070773296058, -0.003623584053, -0.080513715744, -0.058487173170, -0.028418516740, -0.018601577729, -0.083962045610, 0.036620534956, -0.005137722474, 0.047813899815, -0.085289955139, 0.067240074277, 0.081159122288, 0.072671167552, 0.118136599660, -0.064425602555, -0.062938645482, 0.044076293707, 0.012425631285, -0.031580224633, -0.011832891032, -0.095852725208, -0.086582854390, 0.042327504605, -0.079324156046, -0.058525640517, -0.074574537575, 0.039676398039, 0.028256347403, 0.064257793128, -0.110902003944, 0.008622311056, -0.021601051092, -0.061277210712, -0.002663912717, -0.092622987926, 0.089333243668, -0.111198514700, 0.010859116912, 0.052144762129, -0.051461067051, -0.089525900781, 0.013916214928, 0.062727853656, -0.128995493054, -0.015071704984, 0.118333078921, -0.102215163410, -0.017080094665, 0.090444043279, -0.038535404950, -0.064554430544, 0.047470308840, 0.089574083686, 0.075032018125, 0.087217405438, -0.095105059445, 0.026887511835, -0.044179674238, -0.017882730812, -0.005827384070, 0.126107871532, 0.053666528314, 0.065818741918, -0.062285330147, 0.005281340331, -0.081816218793, -0.086556896567, 0.010255070403, -0.037402413785, 0.029286481440, 0.023559333757, -0.044624228030, -0.030214561149, -0.052112590522, -0.049069382250, -0.078012228012, -0.002240112284, -0.064533017576, 0.075486235321, -0.047691550106, -0.064148105681, 0.020560488105, -0.067751556635, 0.050110641867, -0.052401833236, -0.038392141461, -0.005598939955, 0.077381998301, -0.008530924097, 0.119204297662, -0.044542096555, -0.120568312705, -0.043642316014, -0.046036235988, 0.009232381359, -0.015464725904, 0.029857333750, -0.095037162304, -0.063381195068, -0.040226288140, 0.075271107256, -0.003616356058, 0.033659853041, -0.030653208494, -0.052373480052, -0.031625516713, 0.048161391169, 0.004640263505, 0.117693215609, -0.032238621265, 0.076181076467, -0.039836287498, -0.022695496678, 0.058332696557, -0.006802788470, 0.063292779028, -0.075672186911, -0.081904411316, 0.091232880950, 0.061331924051, 0.040944676846, 0.104011923075, 0.086785584688, 0.064764782786, -0.037471309304, 0.040633957833, 0.081799797714, -0.031853836030, -0.027951400727, -0.000249312812, 0.048407394439, -0.040064372122, -0.083801366389, -0.037940010428, 0.019065715373, 0.035403564572, -0.098235629499, -0.046459555626, 0.044053710997, 0.019421974197, -0.096461363137, -0.091155134141, -0.013995870017, -0.026307122782, 0.066136755049, -0.087566681206, -0.051366213709, -0.104816302657, 0.018045408651, -0.012864938937, 0.053500816226, 0.000758388662, -0.118666402996, 0.034991357476, 0.106210269034, 0.050392504781, -0.108857512474, -0.040916316211, 0.083185173571, -0.074697077274, -0.034070823342, 0.053043559194, -0.001629067468, 0.030189841986, 0.064168967307, -0.020335219800, 0.017614554614, -0.000653343915, -0.061576571316, 0.048016522080, -0.075327955186, -0.064473822713, -0.088205270469, -0.048750914633, -0.071352779865, 0.059796333313, -0.062851235271, 0.049305226654, 0.061624564230, -0.082324177027, -0.032495915890, 0.043967362493, 0.079013071954, -0.068465001881, 0.104154922068, 0.083629414439, -0.031571920961, 0.084908269346, -0.037936568260, -0.039728567004, -0.013371069916, -0.124963581562, -0.018262321129, 0.022133219987, -0.051505923271, 0.003834016388, 0.101668223739, -0.070995099843, 0.072552345693, 0.076758220792, 0.085107997060, 0.110044084489, -0.002864478389, -0.034869119525, -0.046511251479, 0.009162017144, -0.022181615233, 0.081046245992, 0.094385303557, 0.018132947385, -0.063513532281, 0.042904518545, 0.070645309985, -0.064382866025, 0.100760407746, 0.061000961810, -0.008097507060, -0.000016961612, 0.035110190511, 0.020148126408, 0.091299735010, 0.079100616276, 0.071216598153, -0.033638279885, 0.041326660663, 0.039639174938, 0.085325174034, -0.024058409035, -0.055264912546, -0.057597234845, -0.001385885291, -0.092350907624, -0.099287144840, -0.016131704673, 0.066737972200, -0.045037552714, 0.091324150562, 0.045906733721, 0.002195852809, -0.083702206612, -0.106869362295, -0.004915998783, 0.081533342600, 0.054597720504, 0.038046095520, 0.083104297519, 0.008895090781, 0.082511961460, -0.041565187275, 0.112332716584, -0.040397316217, -0.098809070885, 0.011615851894, 0.019558196887, -0.038137104362, -0.073129408062, 0.037244115025, 0.019802466035, -0.021121868864, 0.086807571352, -0.069862909615, 0.034273885190, -0.017973132432, 0.005697598215, -0.102339588106, -0.048119157553, 0.074054300785, -0.063503466547, 0.002904552035, 0.114292554557, 0.099189244211, 0.070957660675, 0.018091768026, -0.045992325991, 0.088378451765, -0.002606470603, 0.037173081189, -0.017281737179, 0.025582917035, 0.070532649755, 0.013764548115, 0.076386943460, -0.092072054744, 0.023791983724, 0.067292906344, 0.047051712871, 0.005671244580, -0.083104059100, 0.083929672837, -0.048405047506, -0.103426299989, 0.059301301837, 0.011922233738, -0.044367425144, 0.002156246454, -0.013796201907, 0.098690763116, -0.102397382259, -0.056563403457, -0.053545881063, -0.109992757440, 0.029523961246, -0.042570240796, 0.073685102165, -0.055637329817, 0.019572248682, 0.030348721892, 0.088220633566, 0.038409907371, 0.040442708880, -0.088706307113, -0.046294372529, -0.012326641940, 0.060111597180, 0.049591623247, -0.007751547731, -0.059286277741, 0.032561972737, -0.111349590123, -0.042985383421, -0.069542385638, -0.063426822424, 0.106403678656, 0.000066135064, 0.027895437554, 0.109381243587, -0.071673601866, -0.084288410842, -0.056590139866, -0.092502832413, -0.062198683619, -0.025608189404, -0.029182028025, 0.067971862853, -0.060578245670, 0.045159466565, -0.089352466166, -0.031084820628, 0.061535250396, 0.067301131785, -0.048297040164, 0.080137014389, 0.041201993823, -0.036458849907, -0.049268461764, 0.024290287867, -0.053168367594, 0.007281417027, 0.035681989044, -0.089523755014, 0.037156976759, 0.008135688491, 0.059866208583, -0.064302578568, 0.089149378240, -0.088616371155, 0.111752860248, -0.082362286747, -0.015225718729, -0.025237996131, -0.070068471134, -0.005817675963, -0.065254755318, -0.044789772481, 0.075468793511, -0.067215986550, 0.072650626302, 0.088137678802, 0.023585740477, -0.056342735887, 0.058530841023, 0.070611365139, 0.033907040954, -0.016776766628, 0.120290614665, -0.116123758256, 0.022679466754, 0.080743595958, 0.102613441646, 0.116230420768, -0.098500005901, 0.064038522542, -0.012335118838, -0.080995962024, -0.045828342438, -0.027930496261, 0.036581885070, 0.058776024729, -0.097241781652, 0.013415413909, 0.014586555772, -0.030114609748, -0.113778725266, -0.096013374627, -0.048867609352, 0.086066946387, 0.051189582795, -0.050589077175, 0.057115152478, -0.067531757057, -0.047751016915, -0.025133378804, -0.035555463284, -0.054322466254, -0.040139846504, -0.065852172673, -0.057982739061, 0.109023384750, -0.100572898984, -0.032261926681, 0.051827479154, -0.047383248806, 0.102079473436, -0.081913299859, -0.040904447436, -0.027973573655, 0.045217987150, 0.014292867854, -0.050790973008, -0.117222420871, -0.053133580834, -0.032809115946, 0.021706687286, 0.080956101418, 0.016161721200, -0.092551290989, 0.070269666612, 0.084469847381, 0.028952663764, 