//Numpy array shape [100]
//Min -0.058973871171
//Max 0.065941467881
//Number of zeros 0

#ifndef B2_H_
#define B2_H_

hls_init_on_powerup static const model_default_t b2[100] = {0.016012, 0.004964, 0.028897, -0.058974, 0.015950, -0.024021, 0.054768, 0.009490, 0.020515, 0.003633, -0.004646, 0.053900, -0.044518, -0.003581, -0.022628, -0.017278, -0.048988, -0.007565, -0.028510, 0.026156, 0.052951, -0.000635, 0.011920, 0.038791, 0.036236, -0.041615, 0.017233, -0.033357, -0.010326, -0.020468, 0.025047, 0.038407, -0.046293, 0.001054, 0.007580, -0.034994, -0.001478, -0.002282, 0.009763, 0.006988, -0.010368, 0.034647, -0.016315, -0.029359, 0.031164, 0.039673, 0.017095, -0.010327, 0.044286, 0.030372, -0.025357, -0.032416, -0.013251, -0.009755, -0.053102, -0.014681, -0.024215, 0.011532, -0.054701, 0.056303, -0.027877, 0.014066, 0.010433, 0.065941, -0.034056, 0.033375, -0.002861, 0.019752, -0.006917, -0.037137, 0.009154, 0.026277, -0.013674, 0.045827, -0.019545, -0.031087, -0.002422, -0.015881, -0.040269, 0.004326, 0.021916, 0.022391, -0.003820, -0.027016, -0.022465, -0.028152, -0.015962, -0.009906, -0.006441, 0.002392, -0.018067, -0.021909, -0.006747, -0.025148, -0.002400, -0.003731, 0.027246, 0.039684, -0.005022, -0.027376};

#endif
