//Numpy array shape [100]
//Min -0.062919393182
//Max 0.081440947950
//Number of zeros 0

#ifndef B8_H_
#define B8_H_

hls_init_on_powerup static const model_default_t b8[100] = {0.043314, -0.028218, 0.005050, -0.032725, 0.032979, -0.048584, -0.052823, -0.006639, -0.002843, -0.045157, 0.006178, 0.039706, 0.014456, -0.005617, 0.015950, 0.031350, 0.012959, -0.050623, 0.017002, -0.046475, -0.017974, -0.024989, -0.035233, -0.014518, 0.044714, 0.045107, -0.052500, 0.020565, 0.068872, 0.017790, 0.058812, 0.019515, 0.038806, -0.041455, 0.041115, -0.034137, 0.054566, 0.019255, -0.032651, 0.038471, -0.058365, -0.019239, 0.053600, -0.030944, -0.003843, 0.006608, -0.021989, 0.062072, -0.052647, 0.018075, -0.010638, -0.058501, 0.007009, -0.016804, -0.036260, -0.050866, -0.008728, -0.008628, -0.037499, -0.051540, -0.037205, 0.048177, 0.038574, -0.003474, -0.038801, 0.034967, 0.002082, 0.016082, -0.056172, 0.079506, -0.034198, -0.041260, -0.060687, -0.039006, 0.048331, 0.026817, 0.015846, 0.034002, 0.054591, 0.029544, 0.054850, -0.015588, -0.057543, 0.067531, 0.018173, 0.050936, -0.039801, 0.033040, -0.009877, -0.010477, 0.019839, 0.039584, -0.062919, 0.047726, -0.041095, -0.000321, 0.044977, -0.034531, -0.028661, 0.081441};

#endif
