//Numpy array shape [16, 100]
//Min -0.000001474023
//Max 0.000001476825
//Number of zeros 0

#ifndef W2_H_
#define W2_H_

hls_init_on_powerup static const model_default_t w2[1600] = {-0.000001, -0.000000, -0.000000, 0.000001, 0.000000, 0.000001, 0.000000, -0.000000, 0.000000, 0.000001, -0.000001, -0.000000, -0.000001, 0.000000, 0.000000, -0.000001, 0.000001, -0.000000, -0.000001, 0.000000, 0.000001, -0.000000, -0.000001, 0.000000, 0.000000, -0.000001, -0.000000, -0.000001, -0.000001, 0.000000, 0.000000, -0.000000, -0.000000, 0.000000, -0.000000, 0.000000, -0.000000, 0.000000, -0.000001, -0.000000, -0.000001, 0.000001, -0.000000, -0.000000, -0.000000, 0.000001, -0.000000, 0.000000, -0.000000, -0.000000, -0.000001, -0.000000, -0.000001, -0.000000, -0.000000, -0.000000, -0.000000, 0.000000, 0.000000, -0.000000, 0.000000, 0.000000, -0.000000, -0.000000, -0.000000, 0.000000, 0.000000, -0.000001, 0.000000, -0.000000, -0.000001, 0.000000, 0.000000, -0.000000, 0.000001, 0.000001, -0.000000, -0.000001, -0.000001, 0.000001, -0.000000, -0.000000, -0.000000, -0.000001, -0.000000, 0.000000, -0.000000, -0.000000, 0.000000, -0.000001, 0.000000, -0.000000, -0.000000, 0.000000, -0.000000, 0.000001, 0.000000, 0.000001, -0.000001, -0.000001, -0.000001, 0.000000, -0.000000, -0.000000, -0.000000, -0.000001, 0.000000, -0.000000, 0.000000, -0.000000, 0.000000, -0.000000, -0.000000, -0.000001, 0.000000, 0.000001, 0.000000, 0.000000, 0.000000, -0.000000, -0.000000, 0.000000, -0.000000, -0.000000, 0.000001, 0.000000, 0.000000, 0.000000, 0.000000, 0.000000, -0.000000, -0.000001, 0.000001, -0.000001, 0.000000, 0.000001, -0.000001, 0.000001, 0.000000, -0.000001, -0.000000, -0.000000, -0.000001, 0.000000, 0.000000, 0.000000, -0.000000, 0.000000, 0.000000, -0.000001, 0.000000, -0.000000, 0.000000, -0.000001, 0.000000, -0.000000, -0.000001, 0.000000, -0.000001, 0.000001, -0.000000, 0.000001, -0.000000, -0.000000, -0.000001, -0.000000, 0.000000, 0.000000, 0.000001, -0.000000, -0.000000, -0.000000, -0.000000, 0.000000, 0.000001, -0.000001, 0.000000, -0.000000, -0.000000, -0.000001, 0.000000, 0.000000, 0.000000, 0.000001, -0.000000, 0.000001, -0.000000, -0.000000, 0.000001, 0.000000, -0.000000, -0.000000, -0.000001, 0.000001, -0.000001, -0.000000, -0.000001, -0.000000, -0.000000, 0.000001, 0.000000, 0.000000, 0.000001, -0.000000, -0.000000, 0.000000, 0.000000, -0.000000, -0.000001, 0.000000, 0.000000, 0.000001, 0.000001, 0.000000, 0.000000, 0.000001, 0.000000, -0.000000, 0.000000, -0.000000, -0.000000, -0.000000, 0.000000, 0.000000, -0.000001, 0.000001, -0.000000, -0.000001, -0.000000, 0.000001, 0.000000, -0.000000, 0.000000, -0.000001, 0.000001, -0.000000, 0.000000, 0.000000, -0.000000, -0.000001, 0.000000, -0.000000, 0.000000, 0.000000, 0.000001, -0.000001, -0.000000, 0.000001, 0.000000, 0.000000, -0.000000, 0.000000, -0.000000, 0.000001, -0.000000, 0.000000, -0.000000, -0.000001, 0.000000, 0.000000, -0.000000, 0.000000, -0.000000, 0.000000, -0.000000, -0.000001, -0.000000, -0.000001, 0.000001, 0.000001, -0.000001, 0.000000, -0.000001, 0.000000, 0.000000, -0.000001, -0.000000, -0.000000, 0.000000, 0.000000, -0.000000, -0.000000, -0.000000, -0.000001, 0.000000, 0.000001, 0.000000, -0.000000, -0.000000, -0.000000, 0.000000, -0.000000, -0.000000, -0.000000, 0.000000, 0.000000, -0.000000, 0.000000, -0.000001, 0.000000, 0.000000, 0.000000, 0.000000, -0.000000, 0.000000, -0.000000, -0.000000, 0.000000, 0.000000, -0.000000, 0.000000, -0.000000, 0.000000, 0.000000, -0.000001, 0.000000, 0.000000, -0.000001, 0.000001, -0.000000, -0.000001, 0.000000, -0.000000, 0.000000, -0.000001, -0.000000, 0.000000, 0.000000, 0.000000, 0.000000, -0.000000, 0.000001, -0.000000, 0.000000, -0.000001, -0.000000, -0.000000, 0.000000, -0.000000, -0.000001, 0.000000, -0.000001, 0.000000, -0.000001, 0.000000, -0.000000, -0.000001, -0.000000, -0.000000, -0.000000, -0.000000, -0.000000, 0.000000, 0.000000, 0.000000, 0.000000, 0.000001, -0.000000, 0.000001, -0.000000, -0.000000, 0.000000, -0.000000, 0.000000, -0.000001, -0.000000, -0.000000, -0.000000, 0.000000, -0.000001, -0.000001, -0.000000, 0.000000, -0.000000, -0.000001, -0.000001, 0.000000, 0.000001, 0.000000, 0.000000, 0.000001, 0.000001, 0.000001, -0.000000, 0.000000, -0.000000, 0.000000, -0.000000, 0.000000, -0.000001, 0.000000, -0.000000, -0.000000, 0.000000, 0.000000, 0.000001, -0.000000, -0.000000, 0.000000, -0.000000, -0.000000, -0.000000, -0.000001, -0.000000, 0.000000, 0.000000, -0.000000, 0.000000, -0.000001, 0.000000, -0.000000, 0.000000, -0.000000, 0.000000, 0.000000, -0.000000, -0.000001, 0.000000, 0.000000, 0.000001, 0.000001, 0.000000, 0.000000, -0.000000, -0.000000, -0.000000, -0.000000, -0.000000, -0.000000, -0.000000, -0.000000, 0.000000, 0.000000, 0.000001, 0.000000, 0.000000, -0.000001, -0.000001, 0.000000, -0.000000, -0.000001, -0.000001, -0.000000, -0.000000, 0.000000, -0.000000, -0.000001, -0.000001, 0.000001, -0.000000, -0.000000, -0.000000, -0.000001, -0.000001, 0.000001, -0.000001, 0.000001, 0.000000, 0.000000, -0.000000, 0.000000, 0.000001, 0.000000, 0.000000, 0.000000, 0.000000, -0.000001, -0.000000, 0.000000, 0.000000, -0.000000, 0.000001, -0.000001, -0.000000, -0.000000, -0.000000, -0.000000, 0.000001, 0.000000, -0.000000, -0.000000, 0.000000, -0.000001, -0.000000, -0.000000, 0.000000, 0.000000, -0.000000, 0.000001, 0.000000, 0.000000, 0.000000, 0.000000, -0.000000, -0.000001, -0.000000, 0.000001, -0.000000, 0.000000, 0.000000, -0.000001, -0.000000, -0.000001, -0.000001, 0.000000, 0.000001, 0.000001, -0.000000, 0.000000, 0.000000, -0.000000, -0.000000, -0.000000, 0.000000, 0.000000, -0.000000, -0.000000, -0.000000, -0.000000, 0.000000, -0.000000, -0.000000, -0.000001, -0.000000, -0.000001, 0.000000, -0.000001, -0.000000, 0.000001, -0.000000, -0.000000, -0.000000, -0.000001, 0.000000, 0.000001, -0.000000, 0.000001, 0.000000, 0.000000, 0.000000, 0.000000, 0.000000, 0.000000, -0.000000, -0.000001, -0.000001, -0.000001, 0.000000, -0.000000, 0.000000, 0.000001, -0.000001, -0.000000, -0.000000, 0.000000, -0.000000, -0.000000, 0.000000, 0.000001, -0.000001, 0.000001, -0.000000, 0.000000, -0.000000, 0.000000, -0.000000, 0.000000, -0.000000, -0.000000, 0.000001, 0.000000, 0.000000, -0.000000, -0.000001, -0.000000, 0.000000, 0.000000, -0.000000, 0.000000, 0.000000, -0.000000, 0.000001, 0.000000, 0.000000, 0.000000, 0.000000, -0.000000, 0.000000, 0.000001, -0.000001, 0.000000, -0.000001, 0.000000, -0.000000, -0.000000, 0.000000, -0.000000, -0.000000, -0.000000, 0.000000, -0.000000, -0.000001, 0.000000, 0.000000, -0.000001, 0.000000, 0.000001, 0.000000, 0.000001, 0.000000, -0.000001, 0.000001, 0.000000, 0.000001, -0.000000, 0.000000, 0.000000, -0.000000, 0.000000, -0.000000, -0.000000, -0.000001, -0.000000, 0.000000, -0.000000, 0.000000, 0.000000, 0.000000, -0.000001, 0.000000, 0.000001, -0.000000, -0.000000, 0.000001, -0.000001, 0.000000, 0.000001, -0.000000, -0.000000, 0.000000, 0.000001, -0.000000, -0.000001, -0.000001, -0.000000, 0.000000, -0.000000, 0.000000, -0.000000, 0.000000, -0.000001, 0.000001, -0.000000, 0.000001, -0.000001, -0.000001, -0.000000, 0.000000, 0.000000, -0.000000, -0.000000, 0.000000, 0.000000, 0.000000, 0.000000, -0.000001, 0.000000, 0.000000, -0.000001, -0.000000, -0.000000, 0.000000, -0.000000, 0.000000, 0.000000, -0.000000, -0.000000, -0.000000, 0.000000, -0.000000, 0.000000, -0.000000, 0.000000, 0.000000, 0.000000, 0.000000, 0.000000, 0.000001, -0.000000, 0.000001, 0.000000, -0.000000, 0.000000, 0.000000, -0.000000, 0.000000, -0.000000, 0.000001, -0.000000, -0.000001, -0.000000, -0.000001, -0.000000, 0.000000, -0.000001, -0.000000, -0.000000, 0.000000, 0.000000, 0.000000, 0.000000, 0.000000, 0.000000, -0.000001, -0.000000, -0.000000, -0.000000, -0.000001, 0.000001, 0.000000, 0.000000, -0.000001, -0.000001, 0.000001, -0.000000, 0.000000, 0.000000, 0.000000, -0.000000, -0.000000, 0.000000, -0.000000, 0.000000, -0.000000, 0.000001, 0.000000, 0.000000, -0.000000, 0.000000, -0.000000, 0.000000, -0.000000, 0.000000, 0.000000, 0.000000, 0.000001, 0.000001, 0.000001, -0.000000, 0.000001, -0.000001, -0.000000, 0.000000, 0.000000, 0.000000, -0.000000, 0.000001, 0.000000, -0.000001, -0.000000, -0.000000, -0.000001, -0.000001, 0.000000, -0.000000, 0.000000, -0.000000, -0.000000, 0.000000, -0.000000, -0.000000, 0.000001, 0.000001, 0.000000, -0.000000, -0.000000, 0.000000, 0.000000, -0.000001, -0.000000, 0.000001, -0.000000, -0.000000, 0.000001, 0.000001, 0.000000, 0.000000, 0.000001, -0.000000, -0.000000, -0.000000, -0.000000, 0.000000, -0.000000, 0.000000, 0.000001, -0.000000, 0.000001, -0.000000, 0.000000, 0.000000, 0.000000, -0.000000, 0.000000, 0.000000, -0.000001, -0.000000, 0.000000, 0.000000, -0.000000, -0.000000, 0.000000, -0.000000, 0.000000, 0.000000, -0.000000, 0.000000, -0.000000, 0.000000, 0.000000, -0.000000, -0.000001, 0.000000, -0.000001, -0.000000, -0.000000, -0.000000, -0.000000, 0.000000, 0.000000, -0.000000, -0.000000, -0.000000, -0.000000, -0.000000, 0.000000, -0.000001, 0.000000, -0.000000, 0.000000, 0.000000, -0.000001, 0.000000, 0.000000, -0.000000, -0.000000, 0.000000, 0.000000, -0.000000, -0.000000, -0.000000, -0.000000, -0.000000, -0.000000, 0.000001, -0.000001, -0.000001, -0.000000, 0.000000, 0.000000, 0.000001, -0.000000, 0.000001, -0.000000, -0.000001, -0.000000, 0.000000, 0.000000, -0.000000, -0.000001, 0.000000, -0.000000, -0.000000, -0.000000, -0.000000, 0.000000, -0.000001, 0.000000, -0.000001, -0.000001, -0.000000, -0.000000, -0.000001, 0.000000, -0.000000, -0.000001, 0.000000, -0.000001, -0.000000, -0.000000, 0.000000, 0.000000, 0.000000, -0.000001, 0.000000, -0.000000, 0.000000, -0.000000, -0.000000, 0.000000, -0.000000, -0.000000, 0.000000, -0.000000, -0.000001, 0.000000, 0.000001, 0.000000, -0.000000, -0.000000, -0.000000, -0.000000, 0.000000, -0.000000, -0.000000, 0.000000, 0.000000, 0.000000, 0.000000, -0.000000, 0.000000, 0.000000, -0.000000, 0.000001, -0.000000, 0.000000, -0.000000, -0.000000, 0.000000, -0.000000, 0.000001, -0.000000, -0.000001, -0.000000, -0.000000, 0.000000, 0.000000, -0.000000, 0.000000, -0.000000, 0.000000, 0.000000, -0.000000, -0.000001, 0.000000, -0.000001, 0.000001, -0.000001, -0.000000, -0.000000, -0.000000, -0.000000, 0.000001, 0.000000, -0.000000, -0.000001, 0.000001, -0.000001, 0.000000, -0.000000, 0.000000, -0.000001, -0.000000, -0.000000, -0.000000, -0.000001, -0.000000, -0.000001, -0.000000, 0.000000, 0.000000, 0.000000, -0.000001, 0.000000, 0.000001, 0.000000, -0.000000, -0.000000, 0.000001, 0.000000, -0.000001, -0.000001, 0.000000, 0.000000, -0.000000, 0.000000, 0.000000, 0.000000, -0.000000, -0.000000, -0.000001, -0.000000, -0.000000, -0.000000, 0.000000, -0.000000, 0.000000, 0.000000, -0.000000, -0.000000, -0.000000, -0.000000, -0.000001, -0.000000, -0.000001, 0.000001, -0.000001, -0.000000, 0.000000, -0.000000, -0.000000, -0.000001, 0.000000, -0.000000, 0.000000, -0.000000, 0.000000, 0.000001, -0.000000, -0.000000, -0.000001, 0.000001, -0.000000, -0.000001, -0.000000, -0.000001, -0.000000, -0.000001, -0.000001, 0.000001, -0.000001, -0.000000, -0.000000, -0.000000, -0.000000, 0.000000, 0.000000, 0.000000, 0.000001, 0.000001, 0.000001, -0.000001, -0.000000, -0.000001, -0.000001, 0.000001, 0.000000, -0.000000, 0.000000, 0.000000, 0.000000, 0.000001, 0.000000, -0.000000, 0.000000, 0.000000, 0.000001, 0.000000, 0.000001, -0.000000, 0.000000, -0.000001, -0.000001, 0.000000, -0.000000, 0.000000, -0.000001, 0.000000, -0.000000, 0.000000, -0.000000, 0.000000, 0.000001, 0.000000, 0.000000, 0.000000, 0.000000, 0.000000, 0.000000, -0.000000, -0.000000, 0.000000, -0.000001, -0.000000, -0.000000, -0.000000, -0.000000, 0.000000, -0.000001, 0.000000, -0.000000, 0.000000, 0.000001, -0.000000, -0.000000, 0.000000, -0.000000, 0.000000, 0.000000, -0.000000, 0.000000, -0.000000, -0.000001, -0.000001, -0.000000, -0.000000, 0.000000, 0.000001, 0.000000, -0.000000, 0.000000, 0.000000, -0.000000, 0.000000, 0.000001, -0.000000, -0.000000, -0.000000, -0.000000, 0.000000, 0.000000, -0.000000, 0.000001, 0.000000, 0.000000, 0.000000, 0.000000, -0.000000, -0.000001, -0.000001, 0.000000, -0.000000, -0.000000, -0.000000, 0.000001, -0.000000, 0.000000, 0.000000, 0.000000, -0.000000, -0.000000, -0.000000, -0.000000, -0.000000, -0.000000, -0.000000, -0.000000, 0.000000, 0.000000, -0.000001, -0.000000, 0.000001, 0.000000, -0.000000, 0.000000, -0.000000, 0.000000, 0.000000, -0.000000, 0.000000, 0.000000, 0.000000, 0.000000, -0.000000, -0.000000, 0.000000, 0.000000, -0.000000, -0.000000, -0.000000, 0.000000, -0.000000, -0.000000, 0.000001, -0.000001, -0.000000, 0.000000, 0.000000, 0.000000, 0.000000, 0.000001, -0.000000, -0.000000, -0.000000, 0.000000, -0.000001, -0.000000, 0.000000, 0.000001, 0.000001, 0.000000, 0.000001, -0.000000, 0.000000, -0.000000, -0.000000, 0.000000, 0.000000, 0.000000, -0.000001, -0.000001, 0.000000, 0.000000, -0.000000, -0.000000, -0.000001, -0.000000, 0.000000, 0.000000, 0.000000, -0.000001, -0.000000, 0.000000, -0.000000, 0.000000, -0.000001, -0.000000, 0.000000, -0.000000, -0.000000, 0.000000, 0.000000, 0.000000, 0.000000, -0.000000, -0.000000, -0.000000, 0.000000, 0.000000, 0.000000, -0.000000, 0.000000, -0.000001, 0.000000, 0.000000, -0.000000, -0.000001, 0.000000, 0.000000, 0.000000, -0.000000, 0.000001, 0.000000, 0.000000, -0.000000, -0.000000, 0.000000, -0.000000, 0.000000, -0.000001, -0.000001, 0.000000, -0.000000, 0.000000, -0.000001, 0.000000, -0.000001, 0.000000, -0.000001, -0.000000, -0.000000, -0.000000, -0.000000, -0.000000, -0.000000, -0.000000, -0.000000, 0.000000, -0.000001, 0.000000, 0.000000, -0.000000, -0.000000, -0.000001, 0.000001, 0.000000, -0.000000, -0.000000, -0.000000, -0.000000, 0.000000, 0.000001, -0.000000, 0.000000, -0.000000, -0.000000, 0.000000, -0.000000, 0.000000, 0.000001, -0.000001, 0.000000, -0.000001, 0.000001, 0.000001, 0.000001, -0.000000, 0.000001, 0.000000, 0.000000, -0.000000, -0.000000, -0.000000, -0.000000, -0.000000, 0.000001, -0.000000, -0.000001, -0.000000, 0.000000, 0.000000, 0.000000, 0.000000, 0.000000, 0.000001, 0.000001, 0.000000, -0.000000, 0.000001, -0.000000, 0.000000, -0.000001, 0.000000, -0.000000, 0.000000, 0.000000, 0.000000, 0.000000, 0.000000, -0.000000, -0.000000, -0.000000, 0.000000, -0.000001, -0.000001, 0.000000, -0.000001, 0.000000, 0.000001, 0.000000, -0.000000, -0.000001, -0.000000, -0.000000, -0.000000, -0.000000, 0.000000, 0.000001, 0.000001, -0.000000, 0.000001, 0.000000, 0.000001, -0.000000, 0.000000, 0.000000, -0.000000, -0.000000, -0.000000, 0.000000, 0.000000, -0.000000, -0.000000, -0.000000, -0.000000, -0.000001, 0.000000, -0.000000, -0.000000, 0.000000, -0.000000, 0.000000, -0.000000, -0.000000, 0.000000, -0.000001, 0.000000, 0.000000, -0.000000, 0.000000, 0.000000, -0.000001, -0.000000, 0.000001, 0.000000, 0.000000, -0.000000, 0.000001, 0.000000, 0.000001, 0.000000, -0.000000, 0.000000, 0.000000, -0.000001, -0.000001, -0.000000, -0.000000, 0.000000, 0.000000, 0.000001, 0.000000, -0.000000, -0.000000, -0.000000, -0.000000, 0.000000, -0.000001, 0.000001, -0.000000, 0.000000, 0.000000, -0.000000, -0.000000, 0.000000, -0.000001, 0.000001, 0.000000, -0.000000, -0.000000, -0.000000, -0.000000, 0.000000, -0.000001, 0.000001, 0.000000, 0.000000, 0.000000, -0.000001, -0.000000, 0.000001, 0.000000, -0.000000, 0.000000, -0.000000, 0.000000, -0.000000, 0.000001, 0.000000, 0.000000, 0.000000, -0.000001, -0.000000, -0.000000, 0.000000, -0.000000, 0.000000, 0.000000, -0.000001, 0.000000, -0.000000, 0.000000, 0.000000, 0.000000, -0.000001, 0.000000, -0.000000, 0.000001, -0.000001, 0.000000, -0.000000, -0.000000, 0.000001, 0.000000, 0.000000, 0.000000, 0.000001, 0.000000, 0.000000, 0.000000, 0.000000, -0.000000, -0.000000, 0.000000, 0.000001, 0.000000, -0.000000, -0.000000, 0.000001, 0.000001, 0.000001, 0.000000, -0.000000, -0.000000, 0.000000, 0.000000, -0.000001, 0.000000, -0.000001, -0.000000, -0.000000, -0.000000, -0.000001, -0.000001, -0.000000, -0.000000, 0.000001, 0.000000, -0.000000, -0.000000, 0.000000, 0.000000, -0.000000, -0.000001, -0.000000, 0.000000, 0.000001, 0.000000, 0.000000, 0.000000, -0.000000, -0.000000, 0.000001, 0.000000, -0.000001, 0.000000, -0.000001, 0.000000, 0.000000, -0.000000, 0.000000, 0.000001, 0.000000, -0.000000, 0.000000, 0.000001, -0.000001, -0.000000, -0.000000, 0.000000, 0.000000, 0.000000, 0.000000, -0.000000, 0.000000, -0.000000, -0.000000, -0.000000, 0.000001, -0.000000, 0.000001, 0.000000, 0.000000, 0.000000, 0.000000, 0.000000, -0.000001, 0.000001, -0.000000, -0.000000, 0.000000, -0.000001, 0.000000, -0.000000, 0.000000, 0.000000, -0.000001, 0.000000, -0.000000, -0.000001, 0.000000, 0.000001, -0.000000, -0.000000, -0.000001, 0.000000, -0.000000, -0.000001, 0.000001, 0.000001, 0.000000, 0.000001, -0.000000, 0.000000, 0.000000, -0.000000, -0.000000, 0.000000, 0.000001, 0.000000, 0.000000, -0.000000, 0.000001, -0.000001, -0.000001, 0.000000, 0.000000, -0.000000, 0.000000, -0.000000, 0.000000, 0.000000, 0.000000, 0.000000, -0.000001, 0.000001, -0.000000, -0.000000, -0.000000, 0.000000};

#endif
