//Numpy array shape [100, 100]
//Min -0.000001670189
//Max 0.000001516226
//Number of zeros 0

#ifndef W6_H_
#define W6_H_

hls_bankwidth(2)
hls_numbanks(64)
hls_max_replicates(1)
hls_memory_impl("BLOCK_RAM") static const model_default_t w6[16384] = {-0.000001, 0.000001, 0.000000, -0.000000, -0.000000, 0.000000, 0.000000, -0.000001, -0.000000, -0.000001, -0.000000, -0.000001, 0.000001, 0.000000, -0.000000, 0.000001, 0.000000, 0.000000, 0.000000, 0.000001, -0.000000, 0.000000, -0.000000, 0.000000, 0.000000, 0.000000, -0.000000, -0.000000, -0.000000, 0.000000, -0.000000, 0.000000, 0.000000, -0.000000, -0.000000, 0.000001, -0.000000, 0.000000, 0.000000, -0.000000, -0.000000, -0.000000, 0.000001, 0.000001, -0.000000, 0.000001, -0.000000, 0.000000, 0.000000, 0.000000, -0.000001, 0.000000, -0.000000, -0.000000, -0.000000, -0.000000, -0.000001, 0.000000, -0.000000, -0.000000, 0.000001, 0.000000, -0.000000, -0.000001, 0.000000, -0.000000, -0.000000, 0.000001, 0.000000, -0.000001, -0.000001, -0.000000, -0.000001, -0.000000, -0.000000, -0.000000, 0.000000, 0.000000, -0.000001, -0.000000, -0.000001, -0.000000, 0.000001, -0.000000, 0.000001, 0.000000, 0.000000, 0.000001, 0.000000, -0.000001, 0.000001, -0.000000, -0.000000, 0.000000, 0.000000, -0.000000, 0.000000, -0.000000, 0.000000, 0.000000, 0.000000, 0.000000, 0.000000, 0.000000, 0.000000, 0.000000, 0.000000, 0.000000, 0.000000, 0.000000, 0.000000, 0.000000, 0.000000, 0.000000, 0.000000, 0.000000, 0.000000, 0.000000, 0.000000, 0.000000, 0.000000, 0.000000, 0.000000, 0.000000, 0.000000, 0.000000, 0.000000, 0.000000, -0.000000, 0.000001, -0.000000, -0.000000, -0.000000, 0.000001, 0.000000, -0.000000, 0.000000, -0.000000, -0.000000, 0.000001, -0.000000, -0.000001, -0.000000, -0.000000, 0.000001, -0.000000, -0.000000, -0.000000, -0.000001, -0.000000, 0.000000, -0.000000, -0.000000, -0.000001, -0.000001, -0.000001, 0.000000, 0.000000, -0.000000, -0.000000, -0.000000, -0.000000, 0.000001, -0.000001, -0.000000, 0.000000, 0.000000, 0.000000, 0.000000, -0.000000, 0.000000, 0.000000, 0.000000, 0.000000, 0.000000, -0.000001, 0.000001, 0.000000, 0.000000, -0.000000, 0.000001, -0.000000, -0.000000, -0.000000, -0.000001, 0.000000, 0.000001, -0.000001, -0.000000, 0.000000, 0.000000, -0.000000, -0.000001, 0.000000, 0.000000, -0.000001, 0.000001, 0.000001, 0.000000, 0.000000, -0.000000, 0.000000, 0.000001, -0.000000, -0.000001, 0.000001, -0.000000, 0.000001, -0.000000, 0.000001, 0.000000, 0.000000, 0.000001, 0.000001, 0.000001, 0.000000, 0.000001, 0.000000, -0.000000, 0.000000, 0.000000, 0.000000, 0.000000, 0.000000, -0.000001, -0.000000, -0.000000, 0.000000, 0.000000, 0.000000, 0.000000, 0.000000, 0.000000, 0.000000, 0.000000, 0.000000, 0.000000, 0.000000, 0.000000, 0.000000, 0.000000, 0.000000, 0.000000, 0.000000, 0.000000, 0.000000, 0.000000, 0.000000, 0.000000, 0.000000, 0.000000, 0.000000, 0.000000, 0.000000, 0.000000, 0.000000, -0.000000, 0.000001, 0.000000, -0.000000, 0.000000, -0.000000, -0.000000, 0.000000, 0.000000, 0.000000, -0.000000, 0.000000, -0.000000, 0.000001, 0.000000, -0.000001, 0.000000, -0.000000, 0.000001, 0.000000, -0.000000, 0.000000, -0.000000, -0.000000, 0.000000, -0.000000, -0.000000, -0.000001, -0.000000, 0.000000, -0.000000, 0.000001, 0.000000, 0.000001, -0.000000, 0.000000, 0.000000, 0.000000, -0.000001, 0.000001, -0.000000, -0.000001, 0.000000, 0.000000, -0.000000, -0.000000, 0.000001, 0.000000, -0.000000, -0.000001, -0.000001, 0.000000, -0.000001, -0.000000, -0.000000, 0.000000, 0.000000, -0.000001, 0.000000, 0.000000, -0.000000, -0.000000, -0.000000, -0.000000, 0.000001, 0.000001, 0.000000, 0.000000, 0.000000, 0.000000, -0.000001, 0.000000, 0.000000, -0.000001, -0.000000, 0.000001, 0.000000, 0.000000, -0.000001, -0.000000, -0.000000, 0.000000, 0.000000, 0.000000, 0.000000, 0.000000, -0.000001, -0.000000, 0.000000, 0.000000, -0.000001, 0.000001, 0.000001, 0.000000, 0.000000, -0.000000, -0.000000, 0.000000, -0.000001, -0.000001, 0.000000, 0.000000, 0.000000, 0.000000, 0.000000, 0.000000, 0.000000, 0.000000, 0.000000, 0.000000, 0.000000, 0.000000, 0.000000, 0.000000, 0.000000, 0.000000, 0.000000, 0.000000, 0.000000, 0.000000, 0.000000, 0.000000, 0.000000, 0.000000, 0.000000, 0.000000, 0.000000, 0.000000, -0.000000, -0.000000, -0.000000, -0.000001, -0.000000, -0.000000, -0.000000, -0.000001, 0.000000, 0.000001, 0.000001, -0.000001, 0.000000, 0.000000, 0.000000, 0.000000, 0.000000, -0.000000, 0.000000, 0.000000, -0.000000, 0.000001, -0.000000, 0.000000, 0.000001, -0.000000, -0.000001, -0.000000, 0.000000, 0.000001, -0.000001, 0.000001, -0.000000, -0.000000, 0.000001, 0.000000, 0.000001, 0.000000, -0.000000, -0.000000, -0.000000, 0.000001, -0.000000, 0.000000, 0.000000, -0.000000, -0.000001, -0.000000, 0.000000, 0.000000, 0.000001, -0.000000, -0.000000, 0.000000, -0.000000, -0.000000, 0.000000, 0.000000, 0.000001, 0.000001, -0.000000, -0.000000, 0.000000, -0.000001, -0.000000, 0.000000, 0.000000, -0.000001, -0.000000, 0.000000, 0.000000, -0.000000, -0.000000, 0.000000, -0.000000, 0.000000, 0.000000, -0.000000, -0.000000, -0.000000, -0.000000, 0.000000, 0.000000, 0.000000, 0.000000, 0.000000, -0.000000, 0.000001, 0.000001, 0.000000, -0.000001, -0.000000, -0.000000, 0.000000, 0.000000, -0.000001, -0.000000, 0.000001, 0.000001, 0.000000, 0.000000, 0.000000, 0.000000, 0.000000, 0.000000, 0.000000, 0.000000, 0.000000, 0.000000, 0.000000, 0.000000, 0.000000, 0.000000, 0.000000, 0.000000, 0.000000, 0.000000, 0.000000, 0.000000, 0.000000, 0.000000, 0.000000, 0.000000, 0.000000, 0.000000, 0.000000, 0.000000, 0.000000, 0.000000, 0.000000, 0.000000, 0.000001, 0.000000, 0.000000, 0.000001, 0.000000, 0.000000, 0.000001, 0.000001, 0.000000, 0.000000, -0.000000, 0.000001, 0.000000, -0.000000, 0.000000, -0.000000, -0.000001, -0.000000, 0.000000, 0.000001, -0.000000, 0.000001, -0.000000, 0.000001, -0.000001, -0.000001, 0.000001, 0.000000, -0.000000, -0.000000, 0.000000, 0.000000, 0.000000, 0.000000, -0.000000, 0.000001, 0.000001, 0.000000, -0.000000, 0.000001, -0.000000, 0.000000, -0.000000, 0.000000, 0.000001, 0.000000, 0.000001, 0.000000, 0.000001, 0.000000, -0.000000, 0.000001, 0.000000, -0.000000, 0.000001, 0.000000, -0.000000, -0.000001, -0.000000, -0.000000, 0.000000, -0.000001, -0.000000, 0.000000, 0.000000, 0.000000, 0.000000, 0.000000, -0.000000, 0.000000, -0.000000, 0.000000, -0.000000, -0.000000, -0.000001, -0.000000, -0.000001, -0.000000, -0.000000, 0.000000, -0.000000, -0.000000, 0.000000, 0.000000, 0.000001, -0.000000, 0.000001, -0.000001, -0.000000, -0.000000, -0.000000, -0.000000, -0.000001, 0.000001, -0.000000, 0.000000, 0.000000, 0.000000, 0.000000, 0.000000, 0.000000, 0.000000, 0.000000, 0.000000, 0.000000, 0.000000, 0.000000, 0.000000, 0.000000, 0.000000, 0.000000, 0.000000, 0.000000, 0.000000, 0.000000, 0.000000, 0.000000, 0.000000, 0.000000, 0.000000, 0.000000, 0.000000, 0.000000, 0.000000, 0.000000, 0.000000, -0.000000, -0.000001, 0.000000, 0.000000, -0.000000, 0.000000, 0.000000, -0.000000, -0.000001, -0.000000, 0.000000, -0.000001, 0.000000, -0.000000, -0.000000, 0.000001, 0.000001, -0.000001, 0.000000, 0.000001, 0.000001, -0.000000, -0.000001, -0.000000, 0.000001, 0.000000, 0.000000, -0.000001, 0.000000, 0.000001, 0.000001, 0.000001, -0.000001, -0.000000, 0.000000, 0.000000, -0.000000, 0.000000, -0.000000, 0.000000, -0.000000, 0.000000, 0.000000, 0.000000, 0.000000, -0.000000, -0.000000, 0.000001, -0.000001, 0.000000, 0.000000, -0.000000, -0.000000, 0.000000, -0.000000, 0.000001, 0.000001, -0.000000, -0.000000, -0.000001, -0.000001, -0.000000, -0.000000, 0.000000, -0.000000, -0.000000, -0.000000, -0.000000, -0.000001, 0.000000, -0.000000, 0.000001, -0.000000, 0.000001, 0.000000, 0.000000, 0.000001, -0.000001, -0.000000, 0.000000, -0.000000, -0.000001, -0.000000, 0.000000, -0.000000, -0.000001, -0.000000, -0.000000, 0.000000, 0.000000, 0.000001, -0.000000, -0.000000, -0.000000, -0.000000, -0.000000, -0.000000, 0.000000, -0.000001, 0.000000, 0.000000, 0.000000, 0.000000, 0.000000, 0.000000, 0.000000, 0.000000, 0.000000, 0.000000, 0.000000, 0.000000, 0.000000, 0.000000, 0.000000, 0.000000, 0.000000, 0.000000, 0.000000, 0.000000, 0.000000, 0.000000, 0.000000, 0.000000, 0.000000, 0.000000, 0.000000, 0.000000, 0.000001, -0.000000, 0.000000, -0.000001, 0.000000, 0.000001, -0.000001, -0.000001, -0.000000, 0.000000, -0.000000, -0.000000, -0.000000, -0.000000, 0.000001, 0.000000, 0.000000, 0.000001, 0.000000, -0.000000, 0.000000, -0.000000, 0.000001, -0.000000, 0.000000, -0.000000, -0.000000, -0.000000, -0.000001, 0.000001, -0.000000, 0.000000, -0.000000, -0.000000, 0.000000, 0.000000, -0.000001, -0.000001, -0.000000, 0.000001, 0.000000, -0.000000, 0.000000, -0.000000, -0.000000, 0.000000, 0.000001, -0.000000, -0.000000, 0.000001, -0.000000, 0.000000, -0.000001, 0.000000, 0.000000, -0.000000, -0.000001, -0.000000, 0.000000, 0.000000, -0.000000, 0.000000, 0.000000, -0.000000, 0.000000, -0.000000, -0.000000, -0.000000, 0.000001, 0.000001, -0.000000, 0.000001, 0.000000, -0.000000, 0.000000, 0.000001, -0.000000, 0.000000, 0.000001, -0.000000, 0.000001, 0.000000, 0.000000, 0.000000, 0.000000, 0.000000, -0.000001, 0.000001, 0.000000, -0.000000, -0.000000, -0.000000, -0.000000, -0.000000, 0.000000, -0.000000, -0.000000, 0.000001, -0.000000, -0.000000, 0.000000, 0.000000, 0.000000, 0.000000, 0.000000, 0.000000, 0.000000, 0.000000, 0.000000, 0.000000, 0.000000, 0.000000, 0.000000, 0.000000, 0.000000, 0.000000, 0.000000, 0.000000, 0.000000, 0.000000, 0.000000, 0.000000, 0.000000, 0.000000, 0.000000, 0.000000, 0.000000, 0.000000, -0.000000, 0.000000, 0.000000, -0.000001, 0.000000, -0.000000, 0.000000, 0.000001, 0.000000, 0.000000, 0.000000, 0.000000, 0.000000, -0.000001, -0.000000, 0.000000, 0.000001, -0.000000, 0.000000, -0.000001, 0.000000, 0.000001, -0.000000, -0.000001, -0.000001, 0.000000, -0.000001, 0.000001, 0.000000, -0.000001, -0.000001, 0.000000, 0.000000, -0.000000, 0.000000, -0.000000, 0.000000, -0.000001, -0.000000, -0.000001, 0.000001, 0.000000, -0.000001, 0.000001, -0.000001, -0.000000, 0.000000, -0.000000, -0.000000, 0.000000, 0.000000, -0.000000, 0.000000, -0.000001, -0.000000, -0.000000, -0.000001, -0.000001, -0.000000, -0.000001, 0.000000, -0.000000, -0.000000, -0.000000, 0.000000, 0.000000, -0.000000, 0.000000, -0.000000, 0.000000, -0.000001, 0.000000, -0.000000, -0.000000, 0.000000, 0.000000, -0.000000, -0.000001, 0.000000, -0.000001, 0.000000, -0.000000, 0.000000, -0.000000, 0.000000, 0.000000, 0.000001, 0.000000, -0.000000, 0.000000, 0.000001, -0.000000, 0.000001, -0.000001, 0.000000, 0.000001, 0.000000, 0.000000, -0.000001, 0.000000, 0.000000, 0.000000, 0.000000, 0.000000, 0.000000, 0.000000, 0.000000, 0.000000, 0.000000, 0.000000, 0.000000, 0.000000, 0.000000, 0.000000, 0.000000, 0.000000, 0.000000, 0.000000, 0.000000, 0.000000, 0.000000, 0.000000, 0.000000, 0.000000, 0.000000, 0.000000, 0.000000, 0.000000, 0.000000, -0.000000, -0.000000, -0.000001, 0.000000, 0.000000, -0.000000, -0.000000, 0.000000, 0.000001, -0.000000, -0.000000, 0.000001, 0.000000, 0.000000, -0.000000, -0.000000, -0.000000, 0.000000, -0.000000, 0.000000, 0.000000, 0.000000, -0.000001, -0.000000, 0.000001, 0.000000, 0.000000, 0.000000, -0.000000, -0.000001, -0.000001, -0.000001, 0.000000, 0.000000, 0.000000, 0.000001, -0.000001, -0.000001, 0.000000, 0.000000, 0.000000, 0.000000, -0.000000, -0.000000, -0.000000, -0.000000, -0.000000, -0.000000, -0.000000, -0.000001, 0.000001, -0.000000, -0.000000, 0.000000, -0.000000, -0.000000, -0.000000, -0.000000, 0.000001, -0.000000, 0.000001, -0.000000, -0.000001, 0.000000, -0.000000, -0.000000, 0.000000, 0.000000, -0.000001, -0.000000, -0.000000, -0.000001, -0.000000, 0.000000, -0.000001, -0.000001, -0.000000, 0.000000, -0.000000, -0.000001, -0.000000, -0.000000, -0.000000, -0.000000, 0.000000, 0.000001, 0.000000, -0.000000, 0.000000, -0.000000, -0.000000, -0.000001, 0.000001, 0.000000, 0.000000, -0.000000, -0.000001, -0.000000, -0.000001, 0.000000, 0.000000, 0.000000, 0.000000, 0.000000, 0.000000, 0.000000, 0.000000, 0.000000, 0.000000, 0.000000, 0.000000, 0.000000, 0.000000, 0.000000, 0.000000, 0.000000, 0.000000, 0.000000, 0.000000, 0.000000, 0.000000, 0.000000, 0.000000, 0.000000, 0.000000, 0.000000, 0.000000, 0.000000, -0.000000, 0.000000, -0.000000, 0.000000, 0.000000, -0.000001, -0.000000, 0.000000, 0.000000, -0.000001, -0.000000, 0.000000, -0.000000, 0.000001, 0.000000, -0.000000, 0.000000, -0.000001, 0.000000, 0.000001, -0.000000, 0.000000, 0.000000, 0.000000, 0.000000, 0.000001, -0.000001, -0.000000, 0.000000, -0.000000, 0.000000, 0.000000, 0.000001, 0.000000, 0.000000, -0.000000, -0.000000, 0.000000, 0.000000, -0.000000, 0.000000, 0.000000, -0.000001, -0.000000, -0.000000, -0.000001, -0.000000, 0.000000, 0.000000, -0.000000, -0.000000, -0.000000, -0.000000, -0.000000, -0.000000, 0.000000, 0.000000, -0.000000, 0.000000, -0.000000, -0.000000, 0.000000, -0.000000, -0.000000, 0.000000, -0.000000, -0.000001, 0.000001, -0.000000, -0.000000, -0.000001, 0.000000, -0.000001, -0.000000, -0.000000, 0.000001, 0.000000, 0.000000, 0.000000, -0.000001, -0.000000, -0.000001, 0.000000, 0.000000, 0.000000, -0.000000, -0.000000, -0.000000, -0.000001, 0.000000, -0.000001, 0.000000, -0.000000, -0.000000, -0.000000, 0.000001, -0.000001, -0.000000, 0.000000, 0.000000, 0.000000, 0.000000, 0.000000, 0.000000, 0.000000, 0.000000, 0.000000, 0.000000, 0.000000, 0.000000, 0.000000, 0.000000, 0.000000, 0.000000, 0.000000, 0.000000, 0.000000, 0.000000, 0.000000, 0.000000, 0.000000, 0.000000, 0.000000, 0.000000, 0.000000, 0.000000, 0.000000, 0.000000, -0.000000, 0.000000, 0.000001, -0.000001, -0.000001, -0.000000, -0.000000, -0.000000, 0.000000, 0.000000, -0.000001, -0.000000, -0.000001, 0.000000, 0.000001, 0.000000, -0.000000, -0.000001, -0.000000, 0.000001, -0.000000, -0.000001, 0.000001, -0.000000, 0.000000, -0.000001, 0.000000, 0.000001, 0.000000, -0.000000, 0.000000, -0.000000, 0.000001, -0.000000, 0.000000, -0.000000, -0.000001, 0.000000, 0.000001, -0.000000, -0.000001, 0.000000, 0.000000, -0.000000, 0.000000, -0.000001, 0.000000, -0.000001, -0.000000, 0.000000, 0.000000, 0.000001, -0.000000, -0.000000, 0.000000, 0.000000, -0.000000, -0.000001, -0.000001, -0.000001, 0.000000, 0.000001, -0.000001, 0.000000, 0.000001, -0.000001, 0.000001, 0.000000, 0.000000, -0.000001, 0.000000, -0.000000, -0.000000, 0.000000, 0.000001, 0.000000, 0.000000, 0.000000, -0.000001, -0.000000, -0.000001, -0.000000, -0.000001, 0.000001, 0.000000, 0.000001, -0.000000, -0.000000, -0.000001, 0.000001, 0.000001, -0.000001, -0.000000, -0.000001, -0.000001, -0.000001, -0.000000, 0.000001, 0.000000, 0.000000, 0.000000, 0.000000, 0.000000, 0.000000, 0.000000, 0.000000, 0.000000, 0.000000, 0.000000, 0.000000, 0.000000, 0.000000, 0.000000, 0.000000, 0.000000, 0.000000, 0.000000, 0.000000, 0.000000, 0.000000, 0.000000, 0.000000, 0.000000, 0.000000, 0.000000, 0.000000, 0.000000, 0.000000, -0.000000, 0.000001, -0.000000, 0.000000, -0.000000, -0.000001, -0.000000, 0.000000, -0.000000, -0.000001, -0.000001, -0.000001, -0.000000, -0.000001, 0.000000, -0.000000, 0.000000, -0.000000, 0.000000, 0.000000, -0.000001, -0.000000, -0.000000, 0.000001, -0.000001, -0.000001, 0.000000, 0.000000, 0.000000, 0.000000, 0.000000, -0.000000, -0.000000, -0.000000, -0.000000, 0.000000, -0.000000, -0.000000, -0.000000, -0.000001, -0.000000, -0.000000, -0.000000, 0.000000, 0.000001, -0.000000, 0.000000, 0.000000, -0.000001, 0.000000, -0.000001, -0.000000, 0.000000, -0.000000, 0.000000, 0.000001, 0.000000, 0.000001, 0.000001, 0.000000, -0.000000, -0.000000, -0.000000, 0.000001, 0.000000, -0.000000, -0.000000, -0.000000, 0.000001, 0.000000, -0.000000, 0.000000, 0.000000, -0.000001, -0.000000, -0.000000, 0.000001, -0.000000, 0.000000, 0.000000, 0.000000, 0.000000, 0.000000, 0.000000, -0.000000, -0.000000, 0.000001, -0.000000, -0.000001, -0.000000, 0.000000, 0.000000, -0.000000, -0.000001, 0.000000, -0.000000, -0.000000, 0.000000, 0.000000, 0.000000, 0.000000, 0.000000, 0.000000, 0.000000, 0.000000, 0.000000, 0.000000, 0.000000, 0.000000, 0.000000, 0.000000, 0.000000, 0.000000, 0.000000, 0.000000, 0.000000, 0.000000, 0.000000, 0.000000, 0.000000, 0.000000, 0.000000, 0.000000, 0.000000, 0.000000, 0.000000, 0.000000, -0.000000, -0.000001, -0.000000, -0.000000, -0.000001, 0.000000, -0.000000, -0.000000, 0.000001, 0.000000, -0.000000, -0.000000, 0.000000, 0.000000, 0.000000, 0.000000, -0.000001, 0.000001, -0.000001, 0.000000, -0.000000, -0.000000, 0.000000, 0.000000, 0.000000, 0.000000, -0.000001, 0.000001, -0.000000, -0.000001, -0.000000, 0.000000, -0.000001, 0.000001, -0.000000, 0.000000, -0.000000, 0.000001, 0.000000, 0.000000, 0.000000, 0.000000, -0.000000, -0.000000, -0.000000, -0.000000, 0.000000, -0.000000, 0.000000, 0.000000, -0.000001, -0.000000, 0.000000, -0.000000, -0.000000, 0.000000, 0.000000, -0.000000, -0.000000, 0.000001, 0.000000, -0.000001, -0.000001, 0.000000, -0.000000, -0.000001, 0.000001, -0.000000, -0.000000, -0.000000, -0.000001, 0.000001, 0.000000, 0.000000, 0.000001, -0.000000, 0.000001, -0.000000, -0.000001, 0.000000, -0.000000, 0.000000, -0.000000, 0.000000, 0.000000, 0.000000, -0.000000, -0.000001, 0.000001, -0.000000, -0.000000, -0.000001, -0.000000, -0.000000, -0.000000, 0.000000, -0.000000, 0.000000, -0.000000, -0.000000, 0.000000, 0.000000, 0.000000, 0.000000, 0.000000, 0.000000, 0.000000, 0.000000, 0.000000, 0.000000, 0.000000, 0.000000, 0.000000, 0.000000, 0.000000, 0.000000, 0.000000, 0.000000, 0.000000, 0.000000, 0.000000, 0.000000, 0.000000, 0.000000, 0.000000, 0.000000, 0.000000, 0.000000, 0.000000, 0.000000, 0.000001, -0.000000, -0.000000, 0.000001, -0.000000, -0.000000, 0.000000, 0.000001, -0.000000, -0.000000, -0.000000, -0.000000, -0.000000, 0.000000, -0.000000, -0.000000, 0.000001, -0.000000, -0.000000, -0.000001, 0.000000, -0.000000, 0.000000, 0.000001, -0.000000, 0.000000, -0.000001, 0.000001, -0.000000, 0.000001, -0.000000, 0.000000, 0.000000, -0.000000, 0.000000, -0.000000, -0.000000, 0.000000, 0.000001, -0.000000, 0.000000, 0.000001, -0.000001, 0.000001, -0.000000, -0.000000, 0.000000, -0.000000, -0.000000, 0.000000, -0.000001, -0.000000, 0.000000, 0.000000, 0.000000, -0.000000, 0.000001, 0.000000, 0.000000, -0.000001, 0.000000, 0.000000, 0.000001, -0.000000, -0.000000, -0.000000, -0.000000, 0.000000, -0.000000, 0.000000, 0.000001, -0.000000, -0.000001, 0.000000, -0.000000, -0.000000, -0.000000, -0.000000, -0.000001, 0.000001, -0.000000, 0.000001, -0.000000, 0.000001, 0.000000, 0.000000, -0.000000, 0.000000, -0.000001, 0.000001, -0.000001, 0.000000, -0.000001, -0.000000, 0.000000, -0.000000, 0.000001, 0.000000, 0.000000, 0.000000, 0.000000, 0.000000, 0.000000, 0.000000, 0.000000, 0.000000, 0.000000, 0.000000, 0.000000, 0.000000, 0.000000, 0.000000, 0.000000, 0.000000, 0.000000, 0.000000, 0.000000, 0.000000, 0.000000, 0.000000, 0.000000, 0.000000, 0.000000, 0.000000, 0.000000, 0.000000, -0.000000, -0.000000, 0.000000, -0.000001, -0.000000, -0.000000, -0.000000, 0.000000, 0.000000, -0.000001, 0.000001, 0.000000, -0.000000, 0.000001, -0.000000, -0.000000, -0.000000, -0.000000, 0.000000, 0.000000, 0.000001, 0.000000, -0.000001, 0.000000, -0.000000, 0.000001, -0.000000, -0.000001, -0.000001, -0.000001, 0.000000, 0.000001, 0.000000, -0.000001, 0.000000, 0.000000, -0.000000, 0.000000, 0.000000, 0.000000, -0.000000, 0.000001, 0.000000, 0.000000, 0.000000, -0.000000, -0.000000, -0.000001, -0.000000, 0.000000, -0.000001, 0.000001, -0.000001, -0.000000, -0.000000, -0.000000, 0.000000, -0.000001, 0.000000, 0.000000, 0.000001, 0.000001, 0.000001, 0.000001, -0.000000, 0.000000, -0.000000, 0.000000, 0.000000, 0.000001, 0.000000, -0.000000, 0.000001, -0.000000, -0.000001, 0.000001, 0.000000, 0.000000, -0.000000, -0.000001, -0.000000, -0.000001, 0.000000, -0.000000, -0.000001, 0.000000, 0.000000, 0.000000, -0.000000, 0.000000, 0.000000, -0.000001, 0.000000, -0.000000, 0.000001, -0.000001, -0.000000, 0.000001, 0.000000, 0.000000, 0.000000, 0.000000, 0.000000, 0.000000, 0.000000, 0.000000, 0.000000, 0.000000, 0.000000, 0.000000, 0.000000, 0.000000, 0.000000, 0.000000, 0.000000, 0.000000, 0.000000, 0.000000, 0.000000, 0.000000, 0.000000, 0.000000, 0.000000, 0.000000, 0.000000, 0.000000, 0.000000, 0.000000, -0.000000, 0.000000, -0.000000, 0.000000, -0.000000, 0.000000, -0.000000, -0.000000, -0.000000, -0.000000, -0.000000, 0.000000, -0.000000, -0.000000, -0.000001, 0.000001, 0.000000, -0.000000, 0.000001, 0.000000, 0.000001, -0.000000, -0.000000, 0.000000, 0.000000, 0.000001, 0.000000, -0.000000, 0.000001, -0.000000, 0.000000, -0.000001, 0.000000, -0.000000, 0.000001, 0.000001, -0.000000, 0.000001, 0.000000, 0.000000, -0.000000, 0.000000, -0.000000, -0.000000, -0.000000, -0.000000, 0.000000, -0.000000, -0.000000, 0.000000, 0.000000, -0.000000, -0.000001, -0.000001, 0.000000, 0.000000, 0.000000, -0.000000, 0.000001, -0.000000, -0.000000, -0.000001, 0.000000, 0.000000, -0.000000, 0.000000, 0.000001, -0.000000, 0.000001, -0.000000, -0.000000, -0.000001, -0.000000, 0.000000, -0.000001, -0.000000, 0.000000, 0.000000, -0.000000, -0.000000, -0.000000, -0.000000, 0.000000, -0.000001, -0.000000, -0.000001, -0.000001, 0.000000, 0.000000, -0.000000, 0.000000, 0.000001, 0.000000, 0.000000, -0.000000, 0.000001, 0.000000, -0.000000, 0.000001, -0.000001, 0.000000, 0.000000, 0.000000, 0.000000, 0.000000, 0.000000, 0.000000, 0.000000, 0.000000, 0.000000, 0.000000, 0.000000, 0.000000, 0.000000, 0.000000, 0.000000, 0.000000, 0.000000, 0.000000, 0.000000, 0.000000, 0.000000, 0.000000, 0.000000, 0.000000, 0.000000, 0.000000, 0.000000, 0.000001, -0.000000, -0.000001, -0.000000, 0.000001, -0.000000, 0.000000, -0.000000, -0.000000, -0.000000, 0.000000, -0.000000, 0.000000, 0.000001, -0.000000, -0.000001, 0.000001, -0.000000, 0.000001, -0.000000, -0.000001, -0.000000, -0.000000, 0.000001, 0.000000, -0.000000, 0.000000, -0.000000, -0.000000, -0.000000, -0.000000, -0.000000, -0.000000, -0.000000, -0.000001, 0.000000, -0.000000, -0.000001, -0.000000, -0.000001, 0.000000, 0.000000, -0.000000, -0.000001, -0.000000, 0.000000, -0.000000, -0.000000, 0.000000, -0.000001, 0.000001, 0.000001, -0.000000, 0.000001, -0.000001, 0.000000, 0.000000, -0.000000, -0.000000, 0.000001, 0.000000, -0.000000, -0.000000, -0.000000, -0.000001, 0.000000, -0.000000, 0.000001, 0.000000, 0.000000, 0.000000, -0.000000, 0.000000, 0.000000, -0.000000, -0.000000, 0.000001, 0.000000, 0.000000, 0.000000, -0.000001, -0.000000, 0.000000, -0.000000, -0.000000, 0.000000, -0.000001, 0.000000, 0.000000, -0.000000, -0.000000, -0.000001, 0.000000, -0.000001, 0.000001, 0.000000, -0.000000, 0.000000, -0.000000, 0.000001, 0.000000, 0.000000, 0.000000, 0.000000, 0.000000, 0.000000, 0.000000, 0.000000, 0.000000, 0.000000, 0.000000, 0.000000, 0.000000, 0.000000, 0.000000, 0.000000, 0.000000, 0.000000, 0.000000, 0.000000, 0.000000, 0.000000, 0.000000, 0.000000, 0.000000, 0.000000, 0.000000, 0.000000, 0.000001, -0.000001, -0.000001, -0.000000, -0.000000, -0.000001, -0.000000, 0.000001, -0.000000, -0.000000, 0.000001, 0.000001, -0.000001, 0.000000, -0.000000, -0.000000, -0.000000, 0.000000, -0.000001, -0.000000, 0.000001, -0.000000, -0.000001, -0.000000, -0.000000, -0.000000, 0.000001, 0.000000, -0.000000, -0.000000, -0.000000, -0.000000, 0.000000, 0.000001, 0.000000, 0.000000, 0.000000, 0.000000, 0.000001, -0.000000, 0.000000, -0.000001, 0.000000, 0.000000, 0.000000, 0.000000, -0.000000, -0.000001, -0.000000, 0.000000, 0.000001, -0.000000, 0.000000, -0.000000, 0.000000, -0.000000, -0.000000, -0.000000, -0.000000, -0.000000, -0.000000, -0.000000, -0.000001, -0.000000, 0.000000, -0.000000, -0.000000, -0.000001, -0.000000, 0.000000, 0.000000, 0.000000, -0.000001, 0.000001, 0.000000, 0.000000, 0.000000, -0.000000, -0.000000, -0.000000, -0.000001, -0.000000, 0.000001, -0.000000, -0.000000, 0.000000, -0.000000, -0.000000, -0.000000, 0.000000, -0.000000, -0.000000, -0.000000, -0.000001, -0.000001, 0.000000, -0.000000, 0.000000, -0.000001, 0.000000, 0.000000, 0.000000, 0.000000, 0.000000, 0.000000, 0.000000, 0.000000, 0.000000, 0.000000, 0.000000, 0.000000, 0.000000, 0.000000, 0.000000, 0.000000, 0.000000, 0.000000, 0.000000, 0.000000, 0.000000, 0.000000, 0.000000, 0.000000, 0.000000, 0.000000, 0.000000, 0.000000, 0.000000, -0.000001, -0.000000, 0.000000, 0.000001, -0.000000, -0.000000, 0.000000, -0.000001, 0.000000, -0.000000, -0.000000, 0.000001, 0.000001, -0.000000, -0.000001, -0.000000, -0.000000, -0.000000, 0.000000, -0.000001, 0.000001, -0.000000, 0.000000, 0.000001, -0.000000, 0.000001, 0.000000, 0.000001, -0.000000, -0.000001, -0.000000, -0.000000, 0.000000, -0.000000, 0.000000, -0.000001, 0.000000, 0.000000, -0.000000, -0.000000, 0.000000, 0.000000, -0.000000, 0.000000, -0.000001, 0.000001, 0.000000, -0.000000, 0.000000, -0.000000, -0.000000, -0.000000, 0.000000, 0.000000, 0.000000, 0.000000, -0.000000, -0.000000, -0.000000, -0.000000, 0.000000, -0.000000, 0.000000, 0.000000, 0.000001, -0.000000, 0.000001, 0.000000, 0.000001, -0.000000, -0.000000, -0.000001, 0.000000, 0.000000, -0.000000, 0.000000, 0.000000, -0.000000, 0.000000, -0.000001, -0.000000, -0.000000, 0.000000, 0.000000, -0.000000, 0.000000, -0.000001, 0.000001, -0.000000, -0.000000, 0.000000, -0.000000, 0.000000, 0.000000, -0.000001, -0.000001, 0.000000, -0.000000, 0.000000, -0.000001, 0.000000, 0.000000, 0.000000, 0.000000, 0.000000, 0.000000, 0.000000, 0.000000, 0.000000, 0.000000, 0.000000, 0.000000, 0.000000, 0.000000, 0.000000, 0.000000, 0.000000, 0.000000, 0.000000, 0.000000, 0.000000, 0.000000, 0.000000, 0.000000, 0.000000, 0.000000, 0.000000, 0.000000, -0.000000, -0.000000, 0.000000, 0.000001, -0.000001, -0.000001, -0.000001, 0.000000, 0.000000, 0.000000, -0.000001, 0.000000, 0.000000, 0.000000, -0.000000, 0.000000, 0.000000, -0.000000, -0.000000, 0.000000, -0.000000, 0.000000, -0.000000, -0.000000, 0.000001, 0.000001, -0.000000, -0.000001, -0.000000, 0.000000, -0.000000, 0.000000, 0.000000, 0.000000, 0.000000, 0.000000, 0.000001, -0.000000, 0.000000, 0.000001, -0.000001, -0.000000, -0.000000, -0.000000, 0.000000, -0.000000, -0.000000, 0.000000, 0.000000, 0.000000, -0.000000, -0.000000, 0.000000, 0.000001, 0.000000, -0.000000, -0.000000, -0.000001, 0.000001, 0.000001, -0.000000, -0.000000, 0.000001, 0.000000, 0.000000, -0.000000, -0.000001, -0.000000, -0.000000, 0.000000, -0.000000, -0.000000, -0.000000, -0.000000, 0.000000, 0.000000, -0.000000, 0.000001, -0.000000, 0.000000, 0.000001, 0.000000, 0.000000, -0.000000, -0.000000, -0.000000, 0.000001, -0.000000, -0.000000, -0.000000, 0.000000, 0.000000, -0.000001, -0.000000, 0.000000, 0.000001, -0.000001, 0.000000, 0.000000, 0.000000, 0.000000, 0.000000, 0.000000, 0.000000, 0.000000, 0.000000, 0.000000, 0.000000, 0.000000, 0.000000, 0.000000, 0.000000, 0.000000, 0.000000, 0.000000, 0.000000, 0.000000, 0.000000, 0.000000, 0.000000, 0.000000, 0.000000, 0.000000, 0.000000, 0.000000, 0.000000, 0.000000, 0.000000, -0.000001, -0.000000, 0.000000, 0.000000, 0.000000, 0.000000, -0.000000, -0.000000, -0.000001, -0.000001, -0.000001, -0.000000, -0.000001, -0.000000, -0.000000, -0.000000, 0.000000, 0.000000, -0.000000, 0.000000, 0.000000, -0.000000, -0.000000, 0.000000, -0.000001, 0.000001, 0.000000, 0.000000, -0.000000, 0.000000, 0.000000, 0.000000, -0.000001, 0.000000, -0.000000, 0.000001, 0.000000, 0.000001, 0.000000, 0.000000, -0.000000, 0.000000, -0.000001, -0.000000, -0.000000, -0.000000, -0.000000, -0.000000, -0.000000, -0.000001, 0.000000, 0.000000, -0.000001, 0.000000, -0.000000, -0.000000, 0.000000, 0.000001, 0.000001, -0.000000, -0.000000, 0.000000, -0.000001, -0.000000, -0.000001, -0.000000, 0.000000, 0.000000, -0.000000, 0.000000, 0.000001, 0.000000, 0.000000, -0.000000, 0.000000, 0.000000, -0.000000, -0.000000, -0.000000, 0.000000, 0.000000, 0.000001, 0.000000, 0.000000, -0.000000, 0.000001, 0.000000, 0.000001, -0.000000, 0.000001, -0.000000, -0.000000, 0.000000, 0.000000, -0.000000, -0.000000, 0.000001, 0.000001, 0.000000, -0.000000, 0.000000, 0.000000, 0.000000, 0.000000, 0.000000, 0.000000, 0.000000, 0.000000, 0.000000, 0.000000, 0.000000, 0.000000, 0.000000, 0.000000, 0.000000, 0.000000, 0.000000, 0.000000, 0.000000, 0.000000, 0.000000, 0.000000, 0.000000, 0.000000, 0.000000, 0.000000, 0.000000, 0.000000, -0.000000, -0.000000, -0.000001, 0.000000, 0.000000, -0.000000, 0.000000, 0.000001, 0.000001, -0.000000, -0.000000, -0.000000, -0.000000, -0.000001, -0.000000, -0.000001, -0.000001, -0.000000, 0.000000, -0.000001, -0.000000, 0.000000, -0.000000, 0.000000, 0.000001, -0.000001, -0.000001, -0.000000, -0.000001, -0.000000, -0.000000, 0.000001, 0.000001, -0.000001, -0.000000, -0.000001, -0.000000, 0.000001, 0.000000, -0.000000, -0.000001, 0.000001, -0.000000, 0.000000, -0.000000, -0.000000, -0.000000, 0.000000, -0.000000, 0.000000, -0.000000, -0.000001, 0.000000, 0.000000, 0.000000, -0.000000, 0.000000, -0.000000, -0.000000, -0.000000, 0.000000, -0.000001, -0.000001, -0.000000, 0.000000, 0.000000, -0.000000, -0.000000, -0.000000, 0.000000, 0.000000, -0.000001, -0.000001, -0.000000, 0.000000, -0.000000, -0.000001, -0.000000, -0.000001, 0.000001, -0.000001, -0.000000, -0.000001, -0.000001, 0.000000, -0.000000, 0.000001, -0.000000, -0.000001, 0.000001, -0.000000, -0.000000, 0.000000, -0.000001, 0.000000, -0.000000, -0.000000, -0.000000, 0.000000, -0.000000, 0.000000, 0.000000, 0.000000, 0.000000, 0.000000, 0.000000, 0.000000, 0.000000, 0.000000, 0.000000, 0.000000, 0.000000, 0.000000, 0.000000, 0.000000, 0.000000, 0.000000, 0.000000, 0.000000, 0.000000, 0.000000, 0.000000, 0.000000, 0.000000, 0.000000, 0.000000, 0.000000, 0.000000, 0.000000, -0.000001, 0.000000, -0.000000, -0.000000, 0.000000, 0.000000, -0.000000, 0.000000, -0.000000, 0.000000, 0.000000, 0.000000, 0.000001, 0.000001, -0.000000, 0.000000, 0.000000, -0.000000, 0.000000, 0.000000, 0.000000, 0.000000, -0.000000, -0.000000, 0.000000, 0.000000, 0.000001, -0.000001, 0.000000, -0.000000, -0.000000, -0.000000, -0.000000, -0.000000, -0.000001, 0.000000, -0.000000, 0.000000, 0.000000, -0.000000, -0.000001, 0.000000, -0.000001, -0.000000, 0.000000, -0.000000, 0.000000, -0.000000, -0.000000, 0.000000, -0.000000, -0.000000, 0.000000, -0.000001, -0.000000, 0.000000, 0.000000, -0.000000, -0.000000, 0.000000, -0.000000, 0.000000, -0.000000, 0.000000, 0.000000, -0.000000, 0.000000, -0.000000, -0.000000, 0.000000, 0.000000, 0.000000, -0.000000, -0.000000, 0.000001, 0.000001, -0.000001, -0.000000, 0.000000, 0.000000, 0.000000, -0.000001, 0.000001, -0.000000, 0.000000, -0.000000, 0.000001, 0.000000, -0.000000, 0.000000, -0.000001, -0.000000, -0.000000, 0.000000, 0.000000, -0.000000, 0.000000, -0.000000, -0.000001, 0.000000, 0.000000, 0.000000, 0.000000, 0.000000, 0.000000, 0.000000, 0.000000, 0.000000, 0.000000, 0.000000, 0.000000, 0.000000, 0.000000, 0.000000, 0.000000, 0.000000, 0.000000, 0.000000, 0.000000, 0.000000, 0.000000, 0.000000, 0.000000, 0.000000, 0.000000, 0.000000, 0.000000, 0.000000, 0.000001, 0.000000, 0.000001, -0.000000, -0.000000, 0.000001, 0.000000, 0.000000, 0.000000, 0.000001, 0.000000, 0.000001, -0.000000, -0.000001, 0.000000, -0.000000, -0.000000, 0.000000, 0.000001, 0.000000, -0.000001, 0.000000, 0.000000, -0.000001, 0.000000, -0.000001, 0.000001, 0.000000, -0.000000, -0.000000, -0.000000, -0.000000, -0.000000, -0.000000, 0.000000, -0.000000, -0.000001, -0.000000, 0.000000, -0.000001, -0.000000, -0.000000, -0.000000, 0.000000, 0.000000, -0.000000, -0.000000, -0.000000, 0.000001, -0.000000, 0.000000, 0.000000, 0.000001, -0.000000, 0.000001, -0.000000, 0.000000, 0.000000, 0.000000, -0.000000, 0.000001, 0.000001, -0.000000, -0.000000, -0.000000, 0.000000, 0.000000, 0.000001, -0.000000, 0.000000, 0.000001, -0.000001, 0.000000, 0.000000, 0.000000, 0.000000, 0.000000, -0.000000, -0.000000, 0.000001, -0.000000, 0.000000, 0.000000, -0.000000, 0.000000, 0.000001, 0.000000, -0.000000, 0.000000, 0.000001, 0.000001, -0.000000, 0.000001, -0.000001, 0.000000, 0.000001, 0.000000, -0.000000, -0.000000, 0.000000, 0.000000, 0.000000, 0.000000, 0.000000, 0.000000, 0.000000, 0.000000, 0.000000, 0.000000, 0.000000, 0.000000, 0.000000, 0.000000, 0.000000, 0.000000, 0.000000, 0.000000, 0.000000, 0.000000, 0.000000, 0.000000, 0.000000, 0.000000, 0.000000, 0.000000, 0.000000, 0.000000, 0.000000, -0.000000, 0.000000, -0.000001, 0.000001, 0.000000, -0.000000, -0.000001, -0.000000, -0.000001, 0.000000, 0.000001, 0.000000, 0.000000, -0.000000, -0.000000, 0.000000, 0.000000, -0.000001, -0.000001, -0.000000, 0.000000, 0.000000, 0.000000, 0.000001, 0.000001, -0.000000, 0.000000, -0.000000, -0.000001, 0.000000, 0.000000, 0.000001, -0.000000, -0.000000, -0.000001, -0.000000, 0.000000, -0.000000, -0.000000, -0.000001, -0.000001, 0.000000, -0.000000, -0.000001, -0.000000, 0.000001, 0.000000, 0.000000, -0.000000, -0.000001, 0.000000, 0.000000, 0.000001, 0.000000, 0.000000, -0.000000, 0.000000, -0.000000, -0.000001, -0.000000, 0.000000, 0.000000, 0.000000, 0.000000, 0.000000, -0.000001, -0.000001, 0.000000, 0.000001, 0.000000, 0.000000, -0.000000, -0.000000, -0.000001, 0.000000, -0.000001, 0.000000, 0.000000, 0.000000, 0.000000, -0.000001, 0.000000, 0.000000, 0.000000, 0.000000, 0.000001, -0.000001, 0.000001, -0.000001, 0.000000, 0.000000, -0.000001, 0.000001, 0.000000, -0.000000, -0.000001, -0.000000, 0.000000, 0.000000, 0.000000, 0.000000, 0.000000, 0.000000, 0.000000, 0.000000, 0.000000, 0.000000, 0.000000, 0.000000, 0.000000, 0.000000, 0.000000, 0.000000, 0.000000, 0.000000, 0.000000, 0.000000, 0.000000, 0.000000, 0.000000, 0.000000, 0.000000, 0.000000, 0.000000, 0.000000, 0.000000, 0.000000, -0.000001, -0.000001, -0.000000, -0.000000, -0.000000, -0.000000, -0.000000, 0.000001, 0.000000, -0.000000, 0.000000, 0.000000, 0.000000, 0.000001, 0.000000, 0.000000, -0.000001, 0.000001, 0.000001, 0.000000, -0.000000, 0.000000, -0.000000, -0.000001, 0.000000, 0.000000, -0.000001, -0.000000, -0.000000, 0.000000, 0.000001, -0.000000, 0.000000, -0.000001, 0.000000, 0.000000, -0.000001, 0.000000, -0.000000, -0.000001, -0.000000, -0.000000, 0.000000, -0.000000, 0.000000, 0.000000, -0.000000, 0.000000, -0.000000, 0.000000, 0.000000, -0.000001, -0.000001, 0.000001, -0.000000, -0.000001, 0.000001, 0.000001, -0.000000, 0.000000, 0.000000, 0.000000, -0.000000, 0.000000, 0.000000, -0.000001, -0.000000, -0.000000, -0.000000, 0.000000, 0.000001, 0.000000, 0.000000, 0.000000, 0.000000, -0.000000, 0.000001, -0.000000, -0.000000, 0.000000, 0.000000, -0.000000, 0.000000, 0.000001, 0.000000, -0.000001, -0.000000, -0.000000, 0.000000, -0.000001, -0.000000, 0.000001, -0.000000, 0.000000, -0.000001, 0.000001, -0.000001, -0.000000, 0.000000, 0.000000, 0.000000, 0.000000, 0.000000, 0.000000, 0.000000, 0.000000, 0.000000, 0.000000, 0.000000, 0.000000, 0.000000, 0.000000, 0.000000, 0.000000, 0.000000, 0.000000, 0.000000, 0.000000, 0.000000, 0.000000, 0.000000, 0.000000, 0.000000, 0.000000, 0.000000, 0.000000, 0.000000, 0.000000, -0.000001, -0.000000, -0.000001, -0.000000, -0.000001, 0.000001, -0.000000, 0.000000, 0.000000, 0.000000, 0.000000, 0.000000, -0.000001, 0.000001, 0.000000, -0.000000, -0.000000, -0.000000, -0.000001, -0.000000, -0.000001, -0.000000, 0.000000, 0.000001, -0.000000, 0.000000, 0.000001, 0.000000, -0.000001, -0.000000, 0.000001, -0.000000, 0.000000, -0.000001, 0.000000, 0.000000, 0.000000, 0.000000, 0.000001, -0.000000, 0.000001, 0.000001, -0.000000, 0.000000, 0.000000, -0.000000, -0.000000, -0.000001, 0.000000, 0.000000, -0.000000, -0.000000, 0.000001, -0.000000, -0.000000, 0.000000, 0.000000, 0.000000, 0.000001, 0.000000, 0.000001, -0.000000, -0.000001, -0.000000, -0.000000, 0.000001, -0.000000, -0.000000, -0.000000, 0.000001, 0.000000, -0.000001, -0.000000, 0.000000, -0.000000, 0.000001, -0.000000, 0.000000, 0.000001, -0.000001, -0.000001, 0.000001, 0.000000, -0.000000, 0.000000, -0.000000, 0.000000, -0.000000, -0.000000, 0.000001, 0.000000, 0.000001, 0.000001, 0.000000, -0.000000, 0.000000, -0.000000, 0.000000, -0.000000, -0.000000, 0.000000, 0.000000, 0.000000, 0.000000, 0.000000, 0.000000, 0.000000, 0.000000, 0.000000, 0.000000, 0.000000, 0.000000, 0.000000, 0.000000, 0.000000, 0.000000, 0.000000, 0.000000, 0.000000, 0.000000, 0.000000, 0.000000, 0.000000, 0.000000, 0.000000, 0.000000, 0.000000, 0.000000, 0.000000, -0.000001, -0.000000, 0.000000, 0.000001, -0.000001, 0.000000, -0.000000, 0.000000, 0.000001, -0.000000, -0.000001, 0.000001, 0.000000, 0.000000, 0.000000, 0.000000, 0.000001, -0.000000, -0.000000, 0.000001, 0.000000, 0.000000, 0.000000, -0.000001, -0.000000, 0.000001, 0.000001, -0.000001, 0.000001, 0.000000, -0.000000, -0.000000, 0.000000, 0.000001, -0.000000, -0.000001, -0.000000, -0.000000, -0.000001, 0.000000, 0.000000, 0.000000, -0.000000, 0.000000, 0.000000, -0.000000, -0.000000, -0.000001, 0.000001, 0.000000, -0.000000, -0.000000, 0.000000, 0.000000, -0.000000, -0.000001, 0.000000, -0.000000, 0.000000, -0.000000, -0.000000, 0.000000, 0.000000, 0.000001, 0.000000, -0.000000, 0.000000, -0.000000, 0.000000, 0.000000, 0.000000, -0.000000, 0.000000, -0.000001, -0.000000, -0.000000, 0.000000, 0.000001, -0.000001, 0.000001, -0.000000, -0.000000, 0.000001, 0.000000, -0.000000, 0.000000, 0.000000, -0.000000, -0.000001, -0.000000, 0.000000, -0.000001, -0.000000, -0.000000, -0.000001, 0.000000, -0.000000, -0.000000, -0.000000, 0.000000, 0.000000, 0.000000, 0.000000, 0.000000, 0.000000, 0.000000, 0.000000, 0.000000, 0.000000, 0.000000, 0.000000, 0.000000, 0.000000, 0.000000, 0.000000, 0.000000, 0.000000, 0.000000, 0.000000, 0.000000, 0.000000, 0.000000, 0.000000, 0.000000, 0.000000, 0.000000, 0.000000, 0.000000, 0.000000, 0.000000, -0.000001, -0.000000, 0.000000, 0.000000, -0.000001, -0.000001, -0.000000, -0.000000, 0.000000, 0.000000, 0.000001, 0.000000, 0.000000, -0.000000, 0.000000, 0.000001, 0.000000, -0.000000, 0.000000, 0.000000, -0.000001, 0.000000, -0.000001, -0.000000, 0.000000, 0.000000, -0.000000, -0.000000, -0.000000, -0.000000, -0.000001, 0.000001, -0.000001, 0.000000, 0.000000, -0.000000, 0.000000, 0.000000, -0.000000, 0.000001, 0.000000, -0.000000, 0.000000, -0.000001, -0.000001, 0.000001, -0.000000, 0.000000, 0.000000, 0.000000, 0.000000, -0.000000, -0.000000, -0.000001, 0.000000, -0.000001, 0.000001, 0.000000, -0.000000, 0.000001, -0.000000, 0.000000, 0.000000, -0.000001, 0.000001, -0.000000, 0.000001, -0.000000, 0.000000, -0.000001, 0.000000, 0.000000, -0.000000, -0.000001, 0.000000, 0.000001, 0.000000, -0.000000, 0.000000, 0.000000, 0.000001, 0.000000, 0.000000, 0.000000, 0.000000, -0.000000, -0.000001, 0.000000, 0.000000, -0.000000, 0.000000, 0.000001, 0.000000, -0.000001, 0.000001, 0.000000, -0.000001, 0.000000, 0.000000, 0.000000, 0.000000, 0.000000, 0.000000, 0.000000, 0.000000, 0.000000, 0.000000, 0.000000, 0.000000, 0.000000, 0.000000, 0.000000, 0.000000, 0.000000, 0.000000, 0.000000, 0.000000, 0.000000, 0.000000, 0.000000, 0.000000, 0.000000, 0.000000, 0.000000, 0.000000, -0.000000, -0.000000, -0.000000, 0.000001, 0.000000, -0.000001, -0.000000, -0.000001, -0.000000, -0.000000, -0.000000, 0.000000, 0.000001, -0.000000, 0.000001, 0.000000, 0.000001, -0.000000, -0.000000, 0.000000, 0.000001, 0.000001, 0.000000, 0.000001, 0.000000, -0.000001, 0.000001, 0.000000, -0.000000, -0.000001, -0.000000, 0.000001, -0.000001, 0.000000, 0.000001, 0.000001, 0.000001, 0.000000, -0.000000, 0.000000, -0.000000, 0.000000, 0.000001, 0.000001, 0.000001, -0.000000, -0.000000, 0.000000, 0.000000, 0.000000, -0.000001, -0.000001, 0.000000, -0.000000, 0.000001, -0.000000, 0.000000, 0.000000, -0.000001, 0.000000, 0.000001, 0.000000, 0.000000, 0.000000, 0.000000, 0.000000, -0.000000, 0.000000, 0.000000, -0.000001, -0.000001, 0.000000, -0.000000, -0.000001, -0.000000, 0.000001, 0.000000, 0.000001, -0.000000, -0.000000, 0.000001, 0.000000, -0.000000, -0.000001, 0.000000, 0.000001, -0.000000, -0.000000, -0.000000, 0.000000, -0.000000, -0.000000, -0.000000, 0.000001, -0.000001, 0.000000, -0.000000, 0.000000, 0.000000, 0.000000, 0.000000, 0.000000, 0.000000, 0.000000, 0.000000, 0.000000, 0.000000, 0.000000, 0.000000, 0.000000, 0.000000, 0.000000, 0.000000, 0.000000, 0.000000, 0.000000, 0.000000, 0.000000, 0.000000, 0.000000, 0.000000, 0.000000, 0.000000, 0.000000, 0.000000, 0.000000, 0.000000, 0.000000, -0.000000, -0.000000, -0.000000, 0.000001, 0.000001, -0.000000, 0.000000, 0.000000, 0.000000, 0.000000, 0.000001, -0.000000, -0.000001, 0.000000, -0.000001, 0.000000, 0.000000, 0.000000, 0.000000, -0.000000, -0.000000, -0.000000, -0.000001, 0.000000, -0.000000, 0.000001, 0.000001, 0.000000, 0.000000, -0.000000, 0.000000, 0.000001, 0.000000, -0.000001, -0.000000, 0.000000, -0.000000, 0.000000, -0.000001, 0.000001, 0.000000, -0.000000, 0.000000, 0.000000, 0.000000, -0.000000, 0.000000, 0.000000, 0.000000, 0.000000, 0.000000, -0.000000, -0.000000, 0.000000, -0.000001, 0.000000, -0.000001, -0.000000, -0.000000, -0.000001, -0.000000, 0.000000, -0.000001, -0.000001, 0.000000, 0.000000, -0.000001, 0.000000, -0.000000, -0.000000, 0.000001, 0.000001, -0.000000, -0.000000, 0.000000, 0.000001, -0.000000, 0.000000, 0.000000, 0.000000, 0.000000, -0.000001, -0.000000, -0.000000, 0.000000, -0.000001, 0.000000, -0.000001, 0.000001, 0.000000, 0.000001, -0.000000, 0.000000, 0.000000, 0.000000, 0.000000, -0.000000, 0.000000, 0.000000, -0.000000, 0.000000, 0.000000, 0.000000, 0.000000, 0.000000, 0.000000, 0.000000, 0.000000, 0.000000, 0.000000, 0.000000, 0.000000, 0.000000, 0.000000, 0.000000, 0.000000, 0.000000, 0.000000, 0.000000, 0.000000, 0.000000, 0.000000, 0.000000, 0.000000, 0.000000, 0.000000, 0.000000, 0.000000, 0.000000, -0.000000, 0.000000, -0.000001, 0.000000, 0.000000, 0.000000, 0.000000, 0.000000, -0.000000, 0.000001, -0.000000, -0.000001, 0.000000, 0.000000, 0.000001, 0.000000, -0.000001, 0.000000, -0.000000, 0.000000, 0.000000, 0.000001, 0.000000, 0.000000, 0.000001, -0.000000, 0.000000, 0.000000, -0.000000, 0.000000, 0.000001, -0.000000, 0.000001, 0.000000, 0.000000, 0.000000, 0.000001, 0.000000, -0.000001, -0.000001, -0.000000, -0.000000, 0.000001, -0.000000, 0.000000, 0.000000, 0.000000, 0.000000, -0.000001, -0.000000, 0.000001, -0.000001, 0.000000, -0.000000, 0.000000, -0.000000, -0.000001, -0.000000, 0.000001, 0.000000, 0.000000, -0.000000, 0.000000, 0.000001, 0.000000, 0.000000, 0.000000, 0.000000, -0.000000, -0.000000, -0.000000, -0.000001, 0.000001, 0.000001, 0.000001, -0.000000, -0.000001, 0.000000, -0.000000, 0.000001, 0.000001, 0.000000, -0.000000, 0.000001, 0.000000, -0.000000, -0.000000, 0.000000, 0.000001, 0.000000, 0.000000, 0.000001, -0.000000, -0.000000, 0.000000, 0.000001, 0.000000, -0.000000, -0.000000, 0.000000, 0.000000, 0.000000, 0.000000, 0.000000, 0.000000, 0.000000, 0.000000, 0.000000, 0.000000, 0.000000, 0.000000, 0.000000, 0.000000, 0.000000, 0.000000, 0.000000, 0.000000, 0.000000, 0.000000, 0.000000, 0.000000, 0.000000, 0.000000, 0.000000, 0.000000, 0.000000, 0.000000, -0.000000, 0.000001, -0.000000, 0.000000, -0.000001, 0.000000, 0.000001, 0.000000, -0.000000, -0.000000, 0.000001, -0.000000, 0.000000, 0.000000, -0.000000, 0.000000, 0.000000, 0.000000, 0.000000, -0.000001, -0.000000, 0.000000, -0.000001, 0.000000, 0.000000, -0.000001, -0.000000, -0.000001, -0.000000, -0.000000, -0.000000, 0.000001, -0.000000, -0.000000, 0.000000, -0.000000, 0.000000, 0.000001, -0.000001, -0.000001, -0.000000, -0.000001, 0.000000, 0.000000, 0.000000, -0.000000, 0.000001, -0.000000, -0.000001, -0.000001, 0.000001, -0.000001, -0.000001, -0.000001, 0.000000, -0.000000, -0.000001, -0.000000, 0.000000, -0.000000, -0.000000, 0.000000, 0.000000, -0.000000, -0.000000, -0.000001, 0.000000, 0.000001, 0.000000, -0.000000, -0.000000, -0.000000, -0.000000, 0.000001, -0.000000, -0.000000, -0.000000, -0.000001, 0.000000, -0.000001, -0.000000, -0.000000, -0.000001, -0.000001, -0.000000, -0.000000, -0.000001, 0.000001, -0.000001, -0.000000, 0.000000, 0.000000, -0.000000, 0.000000, 0.000000, -0.000000, 0.000000, -0.000001, -0.000001, 0.000000, 0.000000, 0.000000, 0.000000, 0.000000, 0.000000, 0.000000, 0.000000, 0.000000, 0.000000, 0.000000, 0.000000, 0.000000, 0.000000, 0.000000, 0.000000, 0.000000, 0.000000, 0.000000, 0.000000, 0.000000, 0.000000, 0.000000, 0.000000, 0.000000, 0.000000, 0.000000, 0.000000, 0.000000, -0.000000, -0.000000, -0.000000, -0.000001, -0.000001, 0.000001, 0.000000, -0.000000, 0.000001, -0.000001, -0.000001, 0.000000, 0.000000, 0.000001, -0.000000, 0.000000, 0.000000, 0.000001, -0.000000, 0.000000, -0.000000, 0.000000, 0.000000, 0.000000, 0.000000, 0.000001, 0.000000, 0.000001, 0.000000, 0.000000, -0.000000, 0.000001, 0.000001, 0.000001, 0.000000, 0.000000, 0.000000, 0.000000, 0.000001, 0.000001, -0.000001, 0.000001, 0.000000, -0.000000, -0.000000, 0.000000, -0.000000, 0.000000, 0.000000, 0.000000, 0.000000, 0.000000, 0.000000, 0.000000, -0.000000, 0.000000, -0.000000, -0.000000, 0.000000, -0.000000, 0.000000, 0.000000, -0.000001, 0.000000, -0.000000, -0.000000, 0.000000, 0.000000, -0.000001, 0.000000, -0.000000, -0.000000, -0.000000, -0.000000, 0.000000, 0.000000, 0.000000, 0.000000, -0.000000, 0.000000, -0.000000, -0.000000, -0.000000, -0.000000, -0.000001, 0.000000, -0.000000, -0.000001, -0.000001, -0.000000, -0.000001, -0.000000, 0.000001, 0.000000, -0.000000, -0.000000, 0.000001, -0.000000, 0.000001, 0.000000, 0.000000, 0.000000, 0.000000, 0.000000, 0.000000, 0.000000, 0.000000, 0.000000, 0.000000, 0.000000, 0.000000, 0.000000, 0.000000, 0.000000, 0.000000, 0.000000, 0.000000, 0.000000, 0.000000, 0.000000, 0.000000, 0.000000, 0.000000, 0.000000, 0.000000, 0.000000, 0.000000, 0.000000, 0.000000, -0.000000, 0.000000, 0.000000, 0.000000, -0.000000, 0.000001, 0.000001, -0.000000, 0.000000, -0.000000, -0.000001, -0.000001, 0.000001, 0.000000, 0.000000, 0.000000, 0.000000, 0.000000, 0.000000, -0.000000, 0.000001, -0.000001, 0.000000, 0.000000, -0.000000, -0.000000, -0.000000, -0.000000, 0.000001, -0.000001, -0.000000, -0.000000, -0.000000, 0.000000, -0.000000, 0.000001, -0.000000, 0.000000, -0.000000, 0.000000, -0.000001, 0.000000, -0.000000, 0.000000, 0.000000, -0.000001, -0.000001, 0.000000, -0.000000, -0.000000, -0.000000, -0.000000, -0.000000, 0.000000, -0.000000, 0.000000, -0.000001, -0.000000, 0.000001, 0.000000, -0.000001, 0.000000, -0.000000, 0.000001, -0.000000, -0.000000, 0.000000, -0.000000, -0.000000, 0.000000, -0.000000, 0.000000, 0.000000, -0.000000, -0.000001, 0.000001, -0.000000, -0.000000, 0.000000, 0.000001, -0.000001, -0.000000, -0.000000, -0.000001, 0.000000, -0.000001, -0.000001, 0.000000, 0.000000, 0.000000, 0.000001, -0.000000, 0.000000, -0.000000, 0.000000, -0.000001, -0.000000, -0.000000, -0.000000, 0.000000, 0.000000, 0.000000, 0.000000, 0.000000, 0.000000, 0.000000, 0.000000, 0.000000, 0.000000, 0.000000, 0.000000, 0.000000, 0.000000, 0.000000, 0.000000, 0.000000, 0.000000, 0.000000, 0.000000, 0.000000, 0.000000, 0.000000, 0.000000, 0.000000, 0.000000, 0.000000, 0.000000, 0.000001, -0.000000, 0.000000, -0.000000, 0.000001, -0.000001, -0.000000, -0.000000, -0.000000, 0.000000, 0.000000, -0.000000, -0.000000, 0.000001, 0.000000, 0.000000, 0.000001, 0.000000, 0.000000, 0.000000, -0.000000, 0.000000, 0.000000, -0.000000, 0.000000, -0.000000, -0.000001, -0.000001, 0.000000, 0.000000, -0.000001, -0.000000, 0.000000, -0.000000, 0.000000, -0.000001, 0.000000, -0.000000, -0.000000, -0.000001, 0.000000, 0.000000, -0.000001, -0.000001, -0.000001, 0.000001, 0.000001, 0.000001, 0.000001, 0.000001, -0.000000, 0.000000, 0.000000, 0.000001, 0.000000, 0.000000, -0.000000, -0.000000, -0.000001, -0.000000, 0.000000, 0.000000, 0.000000, 0.000000, -0.000000, 0.000001, -0.000001, 0.000000, 0.000000, -0.000000, -0.000000, -0.000000, 0.000000, -0.000000, 0.000001, 0.000001, -0.000000, -0.000000, -0.000000, 0.000000, 0.000000, -0.000000, -0.000000, -0.000000, 0.000000, -0.000000, -0.000001, 0.000000, -0.000000, 0.000001, 0.000000, -0.000000, -0.000000, 0.000000, 0.000000, 0.000000, 0.000001, 0.000000, -0.000000, -0.000000, 0.000000, 0.000000, 0.000000, 0.000000, 0.000000, 0.000000, 0.000000, 0.000000, 0.000000, 0.000000, 0.000000, 0.000000, 0.000000, 0.000000, 0.000000, 0.000000, 0.000000, 0.000000, 0.000000, 0.000000, 0.000000, 0.000000, 0.000000, 0.000000, 0.000000, 0.000000, 0.000000, 0.000000, -0.000000, -0.000001, -0.000000, 0.000001, -0.000000, -0.000000, -0.000000, -0.000001, -0.000001, -0.000000, -0.000000, -0.000000, 0.000000, -0.000000, 0.000000, 0.000001, 0.000001, 0.000000, -0.000001, -0.000001, -0.000000, -0.000001, -0.000000, -0.000000, 0.000001, -0.000001, 0.000000, -0.000000, 0.000000, 0.000000, 0.000000, 0.000000, -0.000000, -0.000000, -0.000001, 0.000001, 0.000000, 0.000000, -0.000000, -0.000001, 0.000000, -0.000000, -0.000000, -0.000000, 0.000001, 0.000000, 0.000000, 0.000000, 0.000000, -0.000000, 0.000000, -0.000000, -0.000000, 0.000000, 0.000000, -0.000000, -0.000000, -0.000000, -0.000001, 0.000000, -0.000000, 0.000000, 0.000001, -0.000000, 0.000000, 0.000001, 0.000000, -0.000000, -0.000001, 0.000000, 0.000001, -0.000000, -0.000001, -0.000000, -0.000000, 0.000000, -0.000000, -0.000000, 0.000000, 0.000000, -0.000000, 0.000000, -0.000000, -0.000000, 0.000000, -0.000001, -0.000000, 0.000001, -0.000001, -0.000000, -0.000000, -0.000000, 0.000000, 0.000000, -0.000000, 0.000000, -0.000000, 0.000001, -0.000000, 0.000001, 0.000000, 0.000000, 0.000000, 0.000000, 0.000000, 0.000000, 0.000000, 0.000000, 0.000000, 0.000000, 0.000000, 0.000000, 0.000000, 0.000000, 0.000000, 0.000000, 0.000000, 0.000000, 0.000000, 0.000000, 0.000000, 0.000000, 0.000000, 0.000000, 0.000000, 0.000000, 0.000000, 0.000000, 0.000000, -0.000000, -0.000000, 0.000000, 0.000000, -0.000000, 0.000000, 0.000000, 0.000001, 0.000001, -0.000000, 0.000000, -0.000001, 0.000000, -0.000000, -0.000000, -0.000001, 0.000000, 0.000000, 0.000001, 0.000000, 0.000000, -0.000000, -0.000000, -0.000001, -0.000001, -0.000000, 0.000001, -0.000000, -0.000000, 0.000000, 0.000000, 0.000000, 0.000000, -0.000000, 0.000001, 0.000000, -0.000000, -0.000000, -0.000001, -0.000000, -0.000001, -0.000001, 0.000000, 0.000000, 0.000000, -0.000000, -0.000000, 0.000001, 0.000000, 0.000000, 0.000000, -0.000001, -0.000000, -0.000000, -0.000000, 0.000000, 0.000000, -0.000000, 0.000000, 0.000000, 0.000000, -0.000000, -0.000000, 0.000000, -0.000000, -0.000001, 0.000000, -0.000001, -0.000000, 0.000000, -0.000000, 0.000000, 0.000000, 0.000000, 0.000000, -0.000001, 0.000001, -0.000000, 0.000000, -0.000000, 0.000000, -0.000000, -0.000001, -0.000000, 0.000000, -0.000000, 0.000000, 0.000000, -0.000000, 0.000000, 0.000000, -0.000000, -0.000000, 0.000000, 0.000000, -0.000001, -0.000001, 0.000000, -0.000000, 0.000000, 0.000000, 0.000000, 0.000000, 0.000000, 0.000000, 0.000000, 0.000000, 0.000000, 0.000000, 0.000000, 0.000000, 0.000000, 0.000000, 0.000000, 0.000000, 0.000000, 0.000000, 0.000000, 0.000000, 0.000000, 0.000000, 0.000000, 0.000000, 0.000000, 0.000000, 0.000000, 0.000000, 0.000001, -0.000001, -0.000000, 0.000001, 0.000000, 0.000001, -0.000001, -0.000000, -0.000001, -0.000000, -0.000001, 0.000001, 0.000000, -0.000001, -0.000000, -0.000001, 0.000001, 0.000000, 0.000000, 0.000001, -0.000001, -0.000001, -0.000000, -0.000000, 0.000001, -0.000001, -0.000000, -0.000001, -0.000000, -0.000000, 0.000000, 0.000000, 0.000001, 0.000000, 0.000000, 0.000000, -0.000000, -0.000001, -0.000000, -0.000000, 0.000000, -0.000001, -0.000000, 0.000000, 0.000000, -0.000000, -0.000000, -0.000000, 0.000001, 0.000001, 0.000001, 0.000001, -0.000000, 0.000001, 0.000000, 0.000000, -0.000001, -0.000000, 0.000000, -0.000001, 0.000000, -0.000001, -0.000001, -0.000000, 0.000000, -0.000000, -0.000001, -0.000000, -0.000000, 0.000000, -0.000001, 0.000000, 0.000000, -0.000000, -0.000000, 0.000000, 0.000000, -0.000001, -0.000000, 0.000000, 0.000001, -0.000000, -0.000001, -0.000000, -0.000000, -0.000000, -0.000000, -0.000000, -0.000000, -0.000001, -0.000000, 0.000000, -0.000000, -0.000000, -0.000000, -0.000000, -0.000000, 0.000000, -0.000000, 0.000000, 0.000000, 0.000000, 0.000000, 0.000000, 0.000000, 0.000000, 0.000000, 0.000000, 0.000000, 0.000000, 0.000000, 0.000000, 0.000000, 0.000000, 0.000000, 0.000000, 0.000000, 0.000000, 0.000000, 0.000000, 0.000000, 0.000000, 0.000000, 0.000000, 0.000000, 0.000000, 0.000000, 0.000000, 0.000000, -0.000000, 0.000000, 0.000000, -0.000000, 0.000000, 0.000000, -0.000000, -0.000000, -0.000001, -0.000000, 0.000000, -0.000000, 0.000000, 0.000001, -0.000000, -0.000000, -0.000000, 0.000000, 0.000000, 0.000001, 0.000001, -0.000001, -0.000001, 0.000000, 0.000000, -0.000000, -0.000000, -0.000000, 0.000000, 0.000000, 0.000000, -0.000001, -0.000001, 0.000000, -0.000000, 0.000000, 0.000000, -0.000000, 0.000000, -0.000001, -0.000000, 0.000001, 0.000000, -0.000001, -0.000000, 0.000000, -0.000000, -0.000001, -0.000000, 0.000000, -0.000001, -0.000000, -0.000000, 0.000000, 0.000000, -0.000000, 0.000000, -0.000000, 0.000001, 0.000000, 0.000000, -0.000000, -0.000001, 0.000000, -0.000000, -0.000001, -0.000000, 0.000000, -0.000000, 0.000001, 0.000001, 0.000000, 0.000000, -0.000000, 0.000001, -0.000000, 0.000000, -0.000000, 0.000000, 0.000001, 0.000000, -0.000000, -0.000000, 0.000000, 0.000000, 0.000000, 0.000000, -0.000000, 0.000001, -0.000000, -0.000000, -0.000000, 0.000000, 0.000000, -0.000001, 0.000000, 0.000000, 0.000000, -0.000001, 0.000000, 0.000000, 0.000000, 0.000000, 0.000000, 0.000000, 0.000000, 0.000000, 0.000000, 0.000000, 0.000000, 0.000000, 0.000000, 0.000000, 0.000000, 0.000000, 0.000000, 0.000000, 0.000000, 0.000000, 0.000000, 0.000000, 0.000000, 0.000000, 0.000000, 0.000000, 0.000000, 0.000000, 0.000000, 0.000000, 0.000000, 0.000001, -0.000000, -0.000000, 0.000001, -0.000001, -0.000001, -0.000001, -0.000000, -0.000000, -0.000001, 0.000000, 0.000001, 0.000000, -0.000001, -0.000001, 0.000000, -0.000000, 0.000000, 0.000001, -0.000000, -0.000000, -0.000000, -0.000000, 0.000001, 0.000001, -0.000000, -0.000000, 0.000000, 0.000000, -0.000000, -0.000000, 0.000000, -0.000000, -0.000000, -0.000000, 0.000000, -0.000000, 0.000001, -0.000000, -0.000001, 0.000000, 0.000000, 0.000000, 0.000000, -0.000001, -0.000000, -0.000000, 0.000000, 0.000000, 0.000000, -0.000000, 0.000000, -0.000000, 0.000000, -0.000000, -0.000000, -0.000000, 0.000000, 0.000000, 0.000000, 0.000000, 0.000001, 0.000000, -0.000001, 0.000000, -0.000000, -0.000000, 0.000000, -0.000001, -0.000000, 0.000001, 0.000000, 0.000000, 0.000000, 0.000000, -0.000000, 0.000000, -0.000000, 0.000000, -0.000001, 0.000001, 0.000001, -0.000000, -0.000000, -0.000000, -0.000001, -0.000000, -0.000000, -0.000001, -0.000001, -0.000001, 0.000001, 0.000000, 0.000001, -0.000000, -0.000000, -0.000000, 0.000000, 0.000000, 0.000000, 0.000000, 0.000000, 0.000000, 0.000000, 0.000000, 0.000000, 0.000000, 0.000000, 0.000000, 0.000000, 0.000000, 0.000000, 0.000000, 0.000000, 0.000000, 0.000000, 0.000000, 0.000000, 0.000000, 0.000000, 0.000000, 0.000000, 0.000000, 0.000000, 0.000000, -0.000000, -0.000000, 0.000001, 0.000000, -0.000000, 0.000000, -0.000001, 0.000001, -0.000000, -0.000000, 0.000000, -0.000000, -0.000001, -0.000000, -0.000001, 0.000000, -0.000000, -0.000000, -0.000001, 0.000000, 0.000000, -0.000000, -0.000000, 0.000000, -0.000000, -0.000001, 0.000000, -0.000000, 0.000001, 0.000000, 0.000000, -0.000001, -0.000000, 0.000000, 0.000000, -0.000001, 0.000000, 0.000001, -0.000000, 0.000000, 0.000001, -0.000000, 0.000001, -0.000000, -0.000000, 0.000000, 0.000000, -0.000001, 0.000000, 0.000000, -0.000001, 0.000001, 0.000000, -0.000000, 0.000000, 0.000000, -0.000000, -0.000000, 0.000000, -0.000000, 0.000000, -0.000000, -0.000000, 0.000000, -0.000000, -0.000000, 0.000000, -0.000000, 0.000000, -0.000001, -0.000001, 0.000000, 0.000001, -0.000000, -0.000001, 0.000000, -0.000000, -0.000000, -0.000000, -0.000000, 0.000001, 0.000000, -0.000000, 0.000000, -0.000000, -0.000000, -0.000000, -0.000000, 0.000000, 0.000000, -0.000000, 0.000000, -0.000000, 0.000000, -0.000000, 0.000000, -0.000000, -0.000000, 0.000001, -0.000000, 0.000000, 0.000000, 0.000000, 0.000000, 0.000000, 0.000000, 0.000000, 0.000000, 0.000000, 0.000000, 0.000000, 0.000000, 0.000000, 0.000000, 0.000000, 0.000000, 0.000000, 0.000000, 0.000000, 0.000000, 0.000000, 0.000000, 0.000000, 0.000000, 0.000000, 0.000000, 0.000000, 0.000000, -0.000000, -0.000000, 0.000000, -0.000000, -0.000001, -0.000000, 0.000000, -0.000000, 0.000001, -0.000000, -0.000000, -0.000000, -0.000000, -0.000001, -0.000001, 0.000000, 0.000000, -0.000000, -0.000001, 0.000000, -0.000000, 0.000000, -0.000000, -0.000000, -0.000000, -0.000001, -0.000001, -0.000000, 0.000000, -0.000000, -0.000001, -0.000000, -0.000000, 0.000001, 0.000000, -0.000000, -0.000000, -0.000001, -0.000000, -0.000000, 0.000000, 0.000000, 0.000001, 0.000000, 0.000000, -0.000000, -0.000001, 0.000000, -0.000001, 0.000000, -0.000000, -0.000000, 0.000000, -0.000001, 0.000000, 0.000001, 0.000000, 0.000000, 0.000000, 0.000000, -0.000001, 0.000000, 0.000000, 0.000001, -0.000000, -0.000000, -0.000000, 0.000000, 0.000000, -0.000001, 0.000001, -0.000001, 0.000000, 0.000000, -0.000001, -0.000001, -0.000000, -0.000000, -0.000000, -0.000000, 0.000001, 0.000000, 0.000000, -0.000000, -0.000000, 0.000000, -0.000000, -0.000001, 0.000000, 0.000000, -0.000001, -0.000001, 0.000000, -0.000000, -0.000000, 0.000000, 0.000000, 0.000000, 0.000000, 0.000000, 0.000000, 0.000000, 0.000000, 0.000000, 0.000000, 0.000000, 0.000000, 0.000000, 0.000000, 0.000000, 0.000000, 0.000000, 0.000000, 0.000000, 0.000000, 0.000000, 0.000000, 0.000000, 0.000000, 0.000000, 0.000000, 0.000000, 0.000000, 0.000000, 0.000000, 0.000000, 0.000000, 0.000000, -0.000000, -0.000000, 0.000000, -0.000000, -0.000001, -0.000000, 0.000000, 0.000001, 0.000000, -0.000000, -0.000000, 0.000000, -0.000000, 0.000000, 0.000001, -0.000001, 0.000000, 0.000000, 0.000001, -0.000000, 0.000001, 0.000000, -0.000000, -0.000001, 0.000000, 0.000000, -0.000001, -0.000000, -0.000000, -0.000000, 0.000000, 0.000001, 0.000001, 0.000001, 0.000000, 0.000001, -0.000000, -0.000000, 0.000000, -0.000001, -0.000000, 0.000000, 0.000000, -0.000000, 0.000000, 0.000001, -0.000000, 0.000000, 0.000001, 0.000000, -0.000000, -0.000000, 0.000000, -0.000001, -0.000000, 0.000000, 0.000000, -0.000000, 0.000000, 0.000001, 0.000000, -0.000000, 0.000000, -0.000000, 0.000000, -0.000001, -0.000000, -0.000001, -0.000001, -0.000001, 0.000000, 0.000000, -0.000001, -0.000000, -0.000000, 0.000000, -0.000000, 0.000000, 0.000000, -0.000000, 0.000001, 0.000000, 0.000000, -0.000000, -0.000000, 0.000001, -0.000001, -0.000000, 0.000000, -0.000000, 0.000001, -0.000000, -0.000000, 0.000000, -0.000001, 0.000001, 0.000000, 0.000000, 0.000000, -0.000001, 0.000000, 0.000000, 0.000000, 0.000000, 0.000000, 0.000000, 0.000000, 0.000000, 0.000000, 0.000000, 0.000000, 0.000000, 0.000000, 0.000000, 0.000000, 0.000000, 0.000000, 0.000000, 0.000000, 0.000000, 0.000000, 0.000000, 0.000000, 0.000000, 0.000000, 0.000000, 0.000000, 0.000000, 0.000000, 0.000001, 0.000000, 0.000000, -0.000000, 0.000000, 0.000000, -0.000001, -0.000000, 0.000000, 0.000000, 0.000000, -0.000000, 0.000000, -0.000000, -0.000001, 0.000000, -0.000000, -0.000000, 0.000001, 0.000001, 0.000001, 0.000000, 0.000000, -0.000000, 0.000000, 0.000000, 0.000000, -0.000000, 0.000000, 0.000000, 0.000001, -0.000000, 0.000000, -0.000000, 0.000000, -0.000000, -0.000001, -0.000000, 0.000000, 0.000000, 0.000000, 0.000000, 0.000001, 0.000000, -0.000001, -0.000000, -0.000000, -0.000001, 0.000000, 0.000000, 0.000000, 0.000001, -0.000001, 0.000001, -0.000000, 0.000000, 0.000001, 0.000000, 0.000000, -0.000000, -0.000000, 0.000000, 0.000000, 0.000001, 0.000000, -0.000000, 0.000001, 0.000000, 0.000001, -0.000000, -0.000000, -0.000001, 0.000000, 0.000000, -0.000000, 0.000000, -0.000001, 0.000000, 0.000000, -0.000001, -0.000000, 0.000000, -0.000000, -0.000000, 0.000001, 0.000000, 0.000000, 0.000000, 0.000000, -0.000000, 0.000001, 0.000000, 0.000001, 0.000000, 0.000000, 0.000000, -0.000000, 0.000000, -0.000001, 0.000000, 0.000000, 0.000000, 0.000000, 0.000000, 0.000000, 0.000000, 0.000000, 0.000000, 0.000000, 0.000000, 0.000000, 0.000000, 0.000000, 0.000000, 0.000000, 0.000000, 0.000000, 0.000000, 0.000000, 0.000000, 0.000000, 0.000000, 0.000000, 0.000000, 0.000000, 0.000000, 0.000000, 0.000000, -0.000001, -0.000000, 0.000000, 0.000000, 0.000000, 0.000001, 0.000000, 0.000000, -0.000000, 0.000000, -0.000001, 0.000001, -0.000001, 0.000001, 0.000000, 0.000000, -0.000000, 0.000000, -0.000000, 0.000000, 0.000000, -0.000000, -0.000000, 0.000001, -0.000000, -0.000001, -0.000000, 0.000001, 0.000000, -0.000000, 0.000000, -0.000000, -0.000001, 0.000000, -0.000000, 0.000001, -0.000001, 0.000000, 0.000001, 0.000001, -0.000000, -0.000000, 0.000000, -0.000000, -0.000001, -0.000001, 0.000000, -0.000000, -0.000001, -0.000001, 0.000001, -0.000000, -0.000000, -0.000000, 0.000001, 0.000000, 0.000000, -0.000001, -0.000000, 0.000000, -0.000000, 0.000000, 0.000000, 0.000000, 0.000000, 0.000000, -0.000000, -0.000001, 0.000000, 0.000001, -0.000000, 0.000000, 0.000000, -0.000000, -0.000001, -0.000000, -0.000000, -0.000000, -0.000000, 0.000000, -0.000000, 0.000000, 0.000000, 0.000000, 0.000000, 0.000000, 0.000000, -0.000000, 0.000000, 0.000001, 0.000000, -0.000000, -0.000000, 0.000001, 0.000001, 0.000000, 0.000001, 0.000000, -0.000000, 0.000000, 0.000000, 0.000000, 0.000000, 0.000000, 0.000000, 0.000000, 0.000000, 0.000000, 0.000000, 0.000000, 0.000000, 0.000000, 0.000000, 0.000000, 0.000000, 0.000000, 0.000000, 0.000000, 0.000000, 0.000000, 0.000000, 0.000000, 0.000000, 0.000000, 0.000000, 0.000000, 0.000000, -0.000000, 0.000000, 0.000000, -0.000000, -0.000000, 0.000001, -0.000000, -0.000000, 0.000002, 0.000000, 0.000000, -0.000000, -0.000001, -0.000000, -0.000001, 0.000000, -0.000000, -0.000000, 0.000000, -0.000000, 0.000001, -0.000000, -0.000001, -0.000000, 0.000000, -0.000000, -0.000000, -0.000000, -0.000000, 0.000001, -0.000001, 0.000000, -0.000000, -0.000000, 0.000000, -0.000000, -0.000000, -0.000000, -0.000001, 0.000000, -0.000001, 0.000001, -0.000001, -0.000001, -0.000000, 0.000000, -0.000000, -0.000000, 0.000001, 0.000001, 0.000001, -0.000001, -0.000001, 0.000001, -0.000001, 0.000001, -0.000000, 0.000000, -0.000001, -0.000001, 0.000000, -0.000001, 0.000000, 0.000000, -0.000000, -0.000000, -0.000000, 0.000000, 0.000000, 0.000001, 0.000000, 0.000001, -0.000000, -0.000000, -0.000000, -0.000000, -0.000000, 0.000000, 0.000000, 0.000001, 0.000000, 0.000000, 0.000000, -0.000000, 0.000001, -0.000001, -0.000001, 0.000000, 0.000000, -0.000000, 0.000001, 0.000000, 0.000000, 0.000001, 0.000000, -0.000000, 0.000000, 0.000001, -0.000001, -0.000000, 0.000000, 0.000000, 0.000000, 0.000000, 0.000000, 0.000000, 0.000000, 0.000000, 0.000000, 0.000000, 0.000000, 0.000000, 0.000000, 0.000000, 0.000000, 0.000000, 0.000000, 0.000000, 0.000000, 0.000000, 0.000000, 0.000000, 0.000000, 0.000000, 0.000000, 0.000000, 0.000000, 0.000000, -0.000000, 0.000000, -0.000000, 0.000000, -0.000000, -0.000000, -0.000000, 0.000001, 0.000001, 0.000001, 0.000001, -0.000000, 0.000000, 0.000000, 0.000000, 0.000000, 0.000000, 0.000000, -0.000000, 0.000001, -0.000000, -0.000000, 0.000000, -0.000000, -0.000000, 0.000000, -0.000000, -0.000000, 0.000000, -0.000001, 0.000000, -0.000001, 0.000000, 0.000000, -0.000000, 0.000000, -0.000000, 0.000001, 0.000000, 0.000001, 0.000000, -0.000001, 0.000000, -0.000000, 0.000001, -0.000000, -0.000000, -0.000000, 0.000000, 0.000000, 0.000000, -0.000000, 0.000001, 0.000000, -0.000000, -0.000000, -0.000000, -0.000000, 0.000001, -0.000000, -0.000001, -0.000000, -0.000001, 0.000000, 0.000000, 0.000000, 0.000000, -0.000000, 0.000000, 0.000000, 0.000000, 0.000000, -0.000000, 0.000001, -0.000000, -0.000000, -0.000001, 0.000000, 0.000000, 0.000000, -0.000001, -0.000001, 0.000000, -0.000001, -0.000000, 0.000000, -0.000001, -0.000000, -0.000000, 0.000000, 0.000001, -0.000000, 0.000000, 0.000000, -0.000001, -0.000000, -0.000000, 0.000000, 0.000000, -0.000000, 0.000000, 0.000000, 0.000000, 0.000000, 0.000000, 0.000000, 0.000000, 0.000000, 0.000000, 0.000000, 0.000000, 0.000000, 0.000000, 0.000000, 0.000000, 0.000000, 0.000000, 0.000000, 0.000000, 0.000000, 0.000000, 0.000000, 0.000000, 0.000000, 0.000000, 0.000000, 0.000000, 0.000000, 0.000000, -0.000000, 0.000000, 0.000001, 0.000000, 0.000001, -0.000000, -0.000000, 0.000000, -0.000000, 0.000000, -0.000000, -0.000000, -0.000000, 0.000000, -0.000000, -0.000001, -0.000000, 0.000001, 0.000001, 0.000000, -0.000001, -0.000001, -0.000000, -0.000000, 0.000000, -0.000000, 0.000000, -0.000000, -0.000000, 0.000000, 0.000000, -0.000000, -0.000000, -0.000000, -0.000000, 0.000000, -0.000000, -0.000001, -0.000000, 0.000001, 0.000000, -0.000000, 0.000000, -0.000000, 0.000000, -0.000000, -0.000000, -0.000001, 0.000000, -0.000000, -0.000001, -0.000000, -0.000001, -0.000000, -0.000001, -0.000000, -0.000000, -0.000000, -0.000000, 0.000001, -0.000000, 0.000001, 0.000000, -0.000000, -0.000001, 0.000000, -0.000001, -0.000000, -0.000000, 0.000000, -0.000001, -0.000000, 0.000001, -0.000001, 0.000000, -0.000000, -0.000000, -0.000000, 0.000001, -0.000000, 0.000000, -0.000000, 0.000001, 0.000000, -0.000001, -0.000000, -0.000000, 0.000000, 0.000000, 0.000000, 0.000000, -0.000001, 0.000000, 0.000000, -0.000000, -0.000000, -0.000001, -0.000000, 0.000000, 0.000000, 0.000000, 0.000000, 0.000000, 0.000000, 0.000000, 0.000000, 0.000000, 0.000000, 0.000000, 0.000000, 0.000000, 0.000000, 0.000000, 0.000000, 0.000000, 0.000000, 0.000000, 0.000000, 0.000000, 0.000000, 0.000000, 0.000000, 0.000000, 0.000000, 0.000000, 0.000000, 0.000000, 0.000000, 0.000000, 0.000000, -0.000000, 0.000000, 0.000001, 0.000000, 0.000000, 0.000001, -0.000001, -0.000000, -0.000000, 0.000001, 0.000000, -0.000001, -0.000000, -0.000000, 0.000001, -0.000000, -0.000000, 0.000001, 0.000001, -0.000001, -0.000001, -0.000000, -0.000000, 0.000000, -0.000001, -0.000001, -0.000000, 0.000000, -0.000001, 0.000000, -0.000000, 0.000000, 0.000000, -0.000000, -0.000000, -0.000000, -0.000000, -0.000000, 0.000000, -0.000000, 0.000000, 0.000001, 0.000000, 0.000001, -0.000000, 0.000001, -0.000000, 0.000000, -0.000000, -0.000000, 0.000000, 0.000000, -0.000001, 0.000000, -0.000001, 0.000001, 0.000000, 0.000000, -0.000000, -0.000001, -0.000000, -0.000000, -0.000001, -0.000000, 0.000001, 0.000000, -0.000000, -0.000001, 0.000000, 0.000000, -0.000000, -0.000001, 0.000001, 0.000001, 0.000000, 0.000000, -0.000000, -0.000001, -0.000000, 0.000001, -0.000000, -0.000000, -0.000001, -0.000000, -0.000000, -0.000000, 0.000000, 0.000001, -0.000000, -0.000000, 0.000000, 0.000000, -0.000000, -0.000000, 0.000000, -0.000000, -0.000000, 0.000000, 0.000000, 0.000000, 0.000000, 0.000000, 0.000000, 0.000000, 0.000000, 0.000000, 0.000000, 0.000000, 0.000000, 0.000000, 0.000000, 0.000000, 0.000000, 0.000000, 0.000000, 0.000000, 0.000000, 0.000000, 0.000000, 0.000000, 0.000000, 0.000000, 0.000000, 0.000000, 0.000000, 0.000001, -0.000001, -0.000001, 0.000000, -0.000000, -0.000001, -0.000000, -0.000000, -0.000000, 0.000000, -0.000000, 0.000001, -0.000000, -0.000000, -0.000000, 0.000000, -0.000001, 0.000000, 0.000000, 0.000000, 0.000000, -0.000000, 0.000001, 0.000000, 0.000000, -0.000000, -0.000000, -0.000001, -0.000000, -0.000000, -0.000000, -0.000000, -0.000001, 0.000001, 0.000000, -0.000001, -0.000000, 0.000000, -0.000000, -0.000000, -0.000001, -0.000000, 0.000001, -0.000001, -0.000000, 0.000001, -0.000000, -0.000000, -0.000001, 0.000001, 0.000000, -0.000000, 0.000000, -0.000001, -0.000001, 0.000000, 0.000001, 0.000001, 0.000001, -0.000000, 0.000000, -0.000001, -0.000000, -0.000001, 0.000000, -0.000000, 0.000000, -0.000001, 0.000000, 0.000000, 0.000000, 0.000000, 0.000000, -0.000001, -0.000000, -0.000000, 0.000000, -0.000000, -0.000000, -0.000000, 0.000001, 0.000000, -0.000000, -0.000001, -0.000000, -0.000000, 0.000000, -0.000000, -0.000000, -0.000000, -0.000000, 0.000001, 0.000000, -0.000000, 0.000000, 0.000000, -0.000000, -0.000000, -0.000001, 0.000001, 0.000000, 0.000000, 0.000000, 0.000000, 0.000000, 0.000000, 0.000000, 0.000000, 0.000000, 0.000000, 0.000000, 0.000000, 0.000000, 0.000000, 0.000000, 0.000000, 0.000000, 0.000000, 0.000000, 0.000000, 0.000000, 0.000000, 0.000000, 0.000000, 0.000000, 0.000000, 0.000000, 0.000000, -0.000000, -0.000000, 0.000000, -0.000001, -0.000000, 0.000000, -0.000000, 0.000001, 0.000000, 0.000000, 0.000000, -0.000000, -0.000000, -0.000001, 0.000001, 0.000000, 0.000000, -0.000000, -0.000001, -0.000000, 0.000000, 0.000000, 0.000000, 0.000001, -0.000000, 0.000000, 0.000000, -0.000000, -0.000001, 0.000000, -0.000001, -0.000000, -0.000000, -0.000000, -0.000000, -0.000001, 0.000000, -0.000000, 0.000000, -0.000000, 0.000000, 0.000000, -0.000001, -0.000001, -0.000001, -0.000000, 0.000001, -0.000000, 0.000001, 0.000000, 0.000000, -0.000000, -0.000001, 0.000000, -0.000000, 0.000000, -0.000000, 0.000000, -0.000000, 0.000001, 0.000000, 0.000001, -0.000000, -0.000000, -0.000001, -0.000000, -0.000000, -0.000000, -0.000000, -0.000000, -0.000000, 0.000000, 0.000000, 0.000000, -0.000001, -0.000000, -0.000000, 0.000000, -0.000000, -0.000000, 0.000000, 0.000000, 0.000000, -0.000001, -0.000000, 0.000000, -0.000000, -0.000000, -0.000000, -0.000000, -0.000001, -0.000000, -0.000001, 0.000000, -0.000000, -0.000001, 0.000001, 0.000000, -0.000000, -0.000001, 0.000000, 0.000000, 0.000000, 0.000000, 0.000000, 0.000000, 0.000000, 0.000000, 0.000000, 0.000000, 0.000000, 0.000000, 0.000000, 0.000000, 0.000000, 0.000000, 0.000000, 0.000000, 0.000000, 0.000000, 0.000000, 0.000000, 0.000000, 0.000000, 0.000000, 0.000000, 0.000000, 0.000000, 0.000000, 0.000000, -0.000000, 0.000000, 0.000000, -0.000000, 0.000000, 0.000000, 0.000000, 0.000000, -0.000000, 0.000000, -0.000000, 0.000000, 0.000000, -0.000001, 0.000000, 0.000000, -0.000000, 0.000000, 0.000000, 0.000000, 0.000000, -0.000000, -0.000000, -0.000000, -0.000000, -0.000001, -0.000000, 0.000000, 0.000000, 0.000000, -0.000001, 0.000000, -0.000001, 0.000001, 0.000000, -0.000000, -0.000000, 0.000001, -0.000000, -0.000000, 0.000000, 0.000001, -0.000000, 0.000001, 0.000000, 0.000000, -0.000001, 0.000000, 0.000000, 0.000000, -0.000001, -0.000000, -0.000000, -0.000000, -0.000000, 0.000001, 0.000000, -0.000000, 0.000000, -0.000000, 0.000000, 0.000001, -0.000001, -0.000000, 0.000001, 0.000000, 0.000001, 0.000000, 0.000000, 0.000000, 0.000000, -0.000001, -0.000001, 0.000000, -0.000001, 0.000001, 0.000000, -0.000001, -0.000000, 0.000000, -0.000000, 0.000001, 0.000000, -0.000000, -0.000000, -0.000000, 0.000001, 0.000000, -0.000000, 0.000000, -0.000001, -0.000000, -0.000000, 0.000000, -0.000000, 0.000000, 0.000000, -0.000001, 0.000000, 0.000000, 0.000000, 0.000000, 0.000000, 0.000000, 0.000000, 0.000000, 0.000000, 0.000000, 0.000000, 0.000000, 0.000000, 0.000000, 0.000000, 0.000000, 0.000000, 0.000000, 0.000000, 0.000000, 0.000000, 0.000000, 0.000000, 0.000000, 0.000000, 0.000000, 0.000000, 0.000000, 0.000001, 0.000000, 0.000000, 0.000000, 0.000001, 0.000001, -0.000000, 0.000000, 0.000001, 0.000000, 0.000000, 0.000000, 0.000000, 0.000000, 0.000000, -0.000000, 0.000001, 0.000000, -0.000000, 0.000001, 0.000000, -0.000000, 0.000000, 0.000000, -0.000000, 0.000000, 0.000001, 0.000001, 0.000000, 0.000000, -0.000000, 0.000000, 0.000000, -0.000000, 0.000000, -0.000001, -0.000000, 0.000001, 0.000001, -0.000000, -0.000000, -0.000001, 0.000000, 0.000001, 0.000000, -0.000001, -0.000000, 0.000000, -0.000000, 0.000000, -0.000001, 0.000000, 0.000000, -0.000001, 0.000000, -0.000000, 0.000000, 0.000000, 0.000000, -0.000001, 0.000001, 0.000000, -0.000001, -0.000000, 0.000000, 0.000000, 0.000001, -0.000000, -0.000000, -0.000000, 0.000001, -0.000000, 0.000000, 0.000000, -0.000000, 0.000000, -0.000000, -0.000001, -0.000000, 0.000001, -0.000000, 0.000001, -0.000000, 0.000001, 0.000000, -0.000000, -0.000000, 0.000000, -0.000000, 0.000001, 0.000000, -0.000000, 0.000000, 0.000001, -0.000000, -0.000000, -0.000000, 0.000000, -0.000000, -0.000001, 0.000000, 0.000000, 0.000000, 0.000000, 0.000000, 0.000000, 0.000000, 0.000000, 0.000000, 0.000000, 0.000000, 0.000000, 0.000000, 0.000000, 0.000000, 0.000000, 0.000000, 0.000000, 0.000000, 0.000000, 0.000000, 0.000000, 0.000000, 0.000000, 0.000000, 0.000000, 0.000000, 0.000000, 0.000000, -0.000000, 0.000001, -0.000000, 0.000000, -0.000000, 0.000000, 0.000000, -0.000000, -0.000000, 0.000000, -0.000000, -0.000001, -0.000001, -0.000000, -0.000000, -0.000000, -0.000001, 0.000000, -0.000001, -0.000001, 0.000000, 0.000000, -0.000001, 0.000000, -0.000001, 0.000000, 0.000000, 0.000001, -0.000000, -0.000000, 0.000000, -0.000001, 0.000000, -0.000000, -0.000001, 0.000000, 0.000000, 0.000000, 0.000000, 0.000000, 0.000000, 0.000001, -0.000000, -0.000000, -0.000001, -0.000000, -0.000000, -0.000001, -0.000001, 0.000000, -0.000000, 0.000000, -0.000000, 0.000000, -0.000000, 0.000000, 0.000001, 0.000001, -0.000000, -0.000000, -0.000000, -0.000000, -0.000000, -0.000001, 0.000001, -0.000001, -0.000000, 0.000000, 0.000001, 0.000001, 0.000000, 0.000000, 0.000001, -0.000001, 0.000000, -0.000000, -0.000000, -0.000000, 0.000000, -0.000000, -0.000000, 0.000000, 0.000000, -0.000001, 0.000001, 0.000000, 0.000000, -0.000000, 0.000000, 0.000000, 0.000001, 0.000000, 0.000001, -0.000000, -0.000000, 0.000001, 0.000000, 0.000000, 0.000000, 0.000000, 0.000000, 0.000000, 0.000000, 0.000000, 0.000000, 0.000000, 0.000000, 0.000000, 0.000000, 0.000000, 0.000000, 0.000000, 0.000000, 0.000000, 0.000000, 0.000000, 0.000000, 0.000000, 0.000000, 0.000000, 0.000000, 0.000000, 0.000000, 0.000000, 0.000000, 0.000000, 0.000000, 0.000000, 0.000001, -0.000000, -0.000000, 0.000000, -0.000001, 0.000000, -0.000001, -0.000001, -0.000000, 0.000000, 0.000000, 0.000000, -0.000000, -0.000000, 0.000000, -0.000000, 0.000000, 0.000001, 0.000000, 0.000001, 0.000001, 0.000001, -0.000001, 0.000001, -0.000000, -0.000000, -0.000000, -0.000000, 0.000000, -0.000001, 0.000000, -0.000000, -0.000000, -0.000001, -0.000000, -0.000000, -0.000000, 0.000000, 0.000000, 0.000000, 0.000000, -0.000001, 0.000000, 0.000000, -0.000000, -0.000000, 0.000000, -0.000000, 0.000000, -0.000000, 0.000001, -0.000000, 0.000001, 0.000000, -0.000000, -0.000000, 0.000000, 0.000000, 0.000001, 0.000000, -0.000000, 0.000001, -0.000001, -0.000000, -0.000001, -0.000000, -0.000001, 0.000001, -0.000000, 0.000000, -0.000000, -0.000000, -0.000000, -0.000000, -0.000000, 0.000000, 0.000000, 0.000001, 0.000000, -0.000001, -0.000001, -0.000000, -0.000000, -0.000001, -0.000000, -0.000000, 0.000000, 0.000000, -0.000000, 0.000000, 0.000000, 0.000001, 0.000000, 0.000000, -0.000000, 0.000001, -0.000001, -0.000000, -0.000000, 0.000000, 0.000000, 0.000000, 0.000000, 0.000000, 0.000000, 0.000000, 0.000000, 0.000000, 0.000000, 0.000000, 0.000000, 0.000000, 0.000000, 0.000000, 0.000000, 0.000000, 0.000000, 0.000000, 0.000000, 0.000000, 0.000000, 0.000000, 0.000000, 0.000000, 0.000000, 0.000000, 0.000000, 0.000000, 0.000000, 0.000000, -0.000000, -0.000000, -0.000000, -0.000000, 0.000000, -0.000000, -0.000001, -0.000000, -0.000001, -0.000000, -0.000000, -0.000000, -0.000001, 0.000000, 0.000000, 0.000000, -0.000000, 0.000000, -0.000001, -0.000000, -0.000000, -0.000000, -0.000000, -0.000000, -0.000000, -0.000000, -0.000000, 0.000000, -0.000000, 0.000000, 0.000000, -0.000000, 0.000000, -0.000000, -0.000000, -0.000000, -0.000000, 0.000000, 0.000001, 0.000000, -0.000000, 0.000001, -0.000001, 0.000000, 0.000001, -0.000000, -0.000000, 0.000000, -0.000001, -0.000000, 0.000000, -0.000000, -0.000000, 0.000000, -0.000000, 0.000000, 0.000000, 0.000000, 0.000000, -0.000000, -0.000000, 0.000001, 0.000000, 0.000000, 0.000000, 0.000000, -0.000000, 0.000000, -0.000000, -0.000001, 0.000000, -0.000000, -0.000000, 0.000000, -0.000000, 0.000000, -0.000000, 0.000000, -0.000001, -0.000001, 0.000000, -0.000000, 0.000000, 0.000000, -0.000001, 0.000000, -0.000000, -0.000000, -0.000000, 0.000000, -0.000001, -0.000000, -0.000000, 0.000000, -0.000000, -0.000001, 0.000000, 0.000000, 0.000000, 0.000000, 0.000000, 0.000000, 0.000000, 0.000000, 0.000000, 0.000000, 0.000000, 0.000000, 0.000000, 0.000000, 0.000000, 0.000000, 0.000000, 0.000000, 0.000000, 0.000000, 0.000000, 0.000000, 0.000000, 0.000000, 0.000000, 0.000000, 0.000000, 0.000000, 0.000000, -0.000000, 0.000000, -0.000000, 0.000000, 0.000000, 0.000001, 0.000000, -0.000001, 0.000000, -0.000000, 0.000001, -0.000001, -0.000000, -0.000001, 0.000000, -0.000000, -0.000001, -0.000000, -0.000000, 0.000001, 0.000001, 0.000001, 0.000000, -0.000001, -0.000000, 0.000000, 0.000000, -0.000000, -0.000000, 0.000001, 0.000000, 0.000001, -0.000000, -0.000000, 0.000000, 0.000001, -0.000000, 0.000000, 0.000001, -0.000000, 0.000001, -0.000001, 0.000001, 0.000000, -0.000001, 0.000000, 0.000001, 0.000001, -0.000001, 0.000000, -0.000000, 0.000001, -0.000001, 0.000000, 0.000001, 0.000000, 0.000000, 0.000000, 0.000000, 0.000000, 0.000001, -0.000000, 0.000001, 0.000000, -0.000001, -0.000000, -0.000000, 0.000000, 0.000001, 0.000000, -0.000001, -0.000000, -0.000000, -0.000000, -0.000000, 0.000000, 0.000000, 0.000001, -0.000000, -0.000000, 0.000001, 0.000000, -0.000000, 0.000000, 0.000000, 0.000000, 0.000000, 0.000000, 0.000000, 0.000000, -0.000000, 0.000000, -0.000000, 0.000000, -0.000001, -0.000000, 0.000000, 0.000001, 0.000001, 0.000000, 0.000000, 0.000000, 0.000000, 0.000000, 0.000000, 0.000000, 0.000000, 0.000000, 0.000000, 0.000000, 0.000000, 0.000000, 0.000000, 0.000000, 0.000000, 0.000000, 0.000000, 0.000000, 0.000000, 0.000000, 0.000000, 0.000000, 0.000000, 0.000000, 0.000000, 0.000000, 0.000000, 0.000000, 0.000001, 0.000000, 0.000000, 0.000000, -0.000000, 0.000000, 0.000000, -0.000001, -0.000001, 0.000000, -0.000000, -0.000000, -0.000001, 0.000000, -0.000000, -0.000001, 0.000000, 0.000000, 0.000000, 0.000000, 0.000000, -0.000000, 0.000001, -0.000000, -0.000000, -0.000001, -0.000000, -0.000000, -0.000001, 0.000001, 0.000000, 0.000000, 0.000000, 0.000001, -0.000001, 0.000000, 0.000000, -0.000000, 0.000000, -0.000000, 0.000000, 0.000000, 0.000001, 0.000000, -0.000000, -0.000000, 0.000000, -0.000000, 0.000000, 0.000000, 0.000000, -0.000001, 0.000000, -0.000000, -0.000000, -0.000000, 0.000001, 0.000000, -0.000001, -0.000001, -0.000000, -0.000000, -0.000000, -0.000001, -0.000000, -0.000000, -0.000000, -0.000000, 0.000000, 0.000000, 0.000000, 0.000000, 0.000000, 0.000001, -0.000000, 0.000000, -0.000001, 0.000001, 0.000000, 0.000001, -0.000000, 0.000000, -0.000001, 0.000001, 0.000000, -0.000000, 0.000000, -0.000000, 0.000000, 0.000000, 0.000000, 0.000001, -0.000000, -0.000000, 0.000000, 0.000000, 0.000000, -0.000000, -0.000000, 0.000000, 0.000000, 0.000000, 0.000000, 0.000000, 0.000000, 0.000000, 0.000000, 0.000000, 0.000000, 0.000000, 0.000000, 0.000000, 0.000000, 0.000000, 0.000000, 0.000000, 0.000000, 0.000000, 0.000000, 0.000000, 0.000000, 0.000000, 0.000000, 0.000000, 0.000000, 0.000000, 0.000000, 0.000000, -0.000000, 0.000001, -0.000000, -0.000001, -0.000000, 0.000000, -0.000001, 0.000000, -0.000000, 0.000000, 0.000001, 0.000000, 0.000000, 0.000000, -0.000000, 0.000000, 0.000000, 0.000000, -0.000000, 0.000000, 0.000000, 0.000001, 0.000001, -0.000000, -0.000001, 0.000000, -0.000000, 0.000000, 0.000000, -0.000001, -0.000000, -0.000000, -0.000000, 0.000000, 0.000000, -0.000001, -0.000001, -0.000001, 0.000001, 0.000001, -0.000000, -0.000000, 0.000000, 0.000000, 0.000000, -0.000000, -0.000000, 0.000001, 0.000000, -0.000000, -0.000000, 0.000000, -0.000001, -0.000001, 0.000000, -0.000000, 0.000000, -0.000001, 0.000000, 0.000001, -0.000000, 0.000000, 0.000000, -0.000000, -0.000001, -0.000000, 0.000000, -0.000000, 0.000000, 0.000001, 0.000000, 0.000000, 0.000000, 0.000000, -0.000000, 0.000001, -0.000000, 0.000000, 0.000000, -0.000000, 0.000000, -0.000000, -0.000000, -0.000001, 0.000000, -0.000000, -0.000000, 0.000001, -0.000000, 0.000001, -0.000000, -0.000000, 0.000000, -0.000001, -0.000000, 0.000000, 0.000001, 0.000001, -0.000000, -0.000000, 0.000000, 0.000000, 0.000000, 0.000000, 0.000000, 0.000000, 0.000000, 0.000000, 0.000000, 0.000000, 0.000000, 0.000000, 0.000000, 0.000000, 0.000000, 0.000000, 0.000000, 0.000000, 0.000000, 0.000000, 0.000000, 0.000000, 0.000000, 0.000000, 0.000000, 0.000000, 0.000000, 0.000000, 0.000000, -0.000000, -0.000000, 0.000000, 0.000000, 0.000000, -0.000000, -0.000001, -0.000000, 0.000001, -0.000000, 0.000000, -0.000000, 0.000000, 0.000000, 0.000000, 0.000000, 0.000000, -0.000000, -0.000000, 0.000001, 0.000001, -0.000000, 0.000000, -0.000000, -0.000001, 0.000000, -0.000000, 0.000000, 0.000000, 0.000001, -0.000000, 0.000000, -0.000001, 0.000000, 0.000001, -0.000000, -0.000000, 0.000000, -0.000000, 0.000000, -0.000000, -0.000001, 0.000001, 0.000000, 0.000000, 0.000000, -0.000000, 0.000000, 0.000001, -0.000001, -0.000000, 0.000001, -0.000000, 0.000000, -0.000001, 0.000000, 0.000000, -0.000000, 0.000000, 0.000000, -0.000001, -0.000001, 0.000001, -0.000000, 0.000000, 0.000000, -0.000001, 0.000000, -0.000000, -0.000000, -0.000000, 0.000000, 0.000001, 0.000001, -0.000001, 0.000000, -0.000000, -0.000000, -0.000000, -0.000000, -0.000000, 0.000000, -0.000000, -0.000000, 0.000000, -0.000001, 0.000000, 0.000000, 0.000000, 0.000000, -0.000001, -0.000000, -0.000000, -0.000001, -0.000001, 0.000000, 0.000000, 0.000001, 0.000000, 0.000000, 0.000000, 0.000000, 0.000000, 0.000000, 0.000000, 0.000000, 0.000000, 0.000000, 0.000000, 0.000000, 0.000000, 0.000000, 0.000000, 0.000000, 0.000000, 0.000000, 0.000000, 0.000000, 0.000000, 0.000000, 0.000000, 0.000000, 0.000000, 0.000000, 0.000000, 0.000000, 0.000000, 0.000000, -0.000001, -0.000000, 0.000000, 0.000000, -0.000001, 0.000000, -0.000000, -0.000000, -0.000000, 0.000000, -0.000000, -0.000000, -0.000000, 0.000001, -0.000000, -0.000000, -0.000000, 0.000000, -0.000000, -0.000000, 0.000001, -0.000001, -0.000000, -0.000000, 0.000001, 0.000001, 0.000000, -0.000000, 0.000000, -0.000000, -0.000000, 0.000000, 0.000000, -0.000000, 0.000000, 0.000000, -0.000001, -0.000000, -0.000000, 0.000000, 0.000000, 0.000000, -0.000000, -0.000001, -0.000000, -0.000000, -0.000000, 0.000000, -0.000000, 0.000000, 0.000000, -0.000000, 0.000000, -0.000000, -0.000001, 0.000000, 0.000001, 0.000000, -0.000000, -0.000001, -0.000000, -0.000000, -0.000000, 0.000000, -0.000000, -0.000000, 0.000000, -0.000001, 0.000000, 0.000000, -0.000000, 0.000000, -0.000000, -0.000000, 0.000000, 0.000000, 0.000000, 0.000001, 0.000001, 0.000000, 0.000000, 0.000000, 0.000000, 0.000000, -0.000000, 0.000000, -0.000000, 0.000000, 0.000000, 0.000000, 0.000000, 0.000001, 0.000001, -0.000000, 0.000000, 0.000000, -0.000000, 0.000000, -0.000000, 0.000000, 0.000000, 0.000000, 0.000000, 0.000000, 0.000000, 0.000000, 0.000000, 0.000000, 0.000000, 0.000000, 0.000000, 0.000000, 0.000000, 0.000000, 0.000000, 0.000000, 0.000000, 0.000000, 0.000000, 0.000000, 0.000000, 0.000000, 0.000000, 0.000000, 0.000000, 0.000000, 0.000000, -0.000001, 0.000001, -0.000001, 0.000000, -0.000000, 0.000001, 0.000001, -0.000001, 0.000000, -0.000000, 0.000000, -0.000000, -0.000001, 0.000001, -0.000000, 0.000000, 0.000001, 0.000000, 0.000000, 0.000000, 0.000000, 0.000000, 0.000000, -0.000001, 0.000000, 0.000001, -0.000000, 0.000000, -0.000000, -0.000000, -0.000001, -0.000001, -0.000001, -0.000000, 0.000001, 0.000000, 0.000000, 0.000000, -0.000000, -0.000000, 0.000000, 0.000000, -0.000000, -0.000000, 0.000001, -0.000000, 0.000001, -0.000000, -0.000001, -0.000000, -0.000000, -0.000000, -0.000000, 0.000000, -0.000000, -0.000000, 0.000000, 0.000000, -0.000000, 0.000000, -0.000000, -0.000000, -0.000000, 0.000000, 0.000000, 0.000001, -0.000000, -0.000000, -0.000001, 0.000000, -0.000000, 0.000000, 0.000001, 0.000000, -0.000000, -0.000001, -0.000000, -0.000000, 0.000000, -0.000000, 0.000000, -0.000001, 0.000001, -0.000000, 0.000000, -0.000000, 0.000001, 0.000000, -0.000001, -0.000000, -0.000000, 0.000000, 0.000000, -0.000001, -0.000000, 0.000000, -0.000000, -0.000000, -0.000000, 0.000000, 0.000000, 0.000000, 0.000000, 0.000000, 0.000000, 0.000000, 0.000000, 0.000000, 0.000000, 0.000000, 0.000000, 0.000000, 0.000000, 0.000000, 0.000000, 0.000000, 0.000000, 0.000000, 0.000000, 0.000000, 0.000000, 0.000000, 0.000000, 0.000000, 0.000000, 0.000000, 0.000000, 0.000000, -0.000000, 0.000000, 0.000000, -0.000000, 0.000000, 0.000000, -0.000001, -0.000000, -0.000000, 0.000001, 0.000000, -0.000001, 0.000000, 0.000000, -0.000000, 0.000000, -0.000000, 0.000000, -0.000000, 0.000000, 0.000001, -0.000001, 0.000000, 0.000000, 0.000000, -0.000001, 0.000000, -0.000001, 0.000000, -0.000001, -0.000000, -0.000001, -0.000000, -0.000000, 0.000000, 0.000000, -0.000001, 0.000000, -0.000000, -0.000000, 0.000000, -0.000000, 0.000000, -0.000001, 0.000001, -0.000000, 0.000000, -0.000000, 0.000000, 0.000000, 0.000000, 0.000000, 0.000000, 0.000000, 0.000001, 0.000000, -0.000000, 0.000000, -0.000000, 0.000001, -0.000000, 0.000000, 0.000000, -0.000001, -0.000001, -0.000001, 0.000000, 0.000000, -0.000000, 0.000000, -0.000000, -0.000000, -0.000001, -0.000000, 0.000000, 0.000000, 0.000000, 0.000000, 0.000000, 0.000000, -0.000001, -0.000000, -0.000001, -0.000000, -0.000000, 0.000000, -0.000000, 0.000001, -0.000000, -0.000001, -0.000001, -0.000000, -0.000000, 0.000000, -0.000001, -0.000000, 0.000000, 0.000000, -0.000000, 0.000000, 0.000000, 0.000000, 0.000000, 0.000000, 0.000000, 0.000000, 0.000000, 0.000000, 0.000000, 0.000000, 0.000000, 0.000000, 0.000000, 0.000000, 0.000000, 0.000000, 0.000000, 0.000000, 0.000000, 0.000000, 0.000000, 0.000000, 0.000000, 0.000000, 0.000000, 0.000000, 0.000000, 0.000000, -0.000000, 0.000000, -0.000000, 0.000001, -0.000001, -0.000000, -0.000000, -0.000001, 0.000001, 0.000000, -0.000000, -0.000000, -0.000000, 0.000001, -0.000000, -0.000001, -0.000000, 0.000000, 0.000000, 0.000000, -0.000000, 0.000000, -0.000000, -0.000000, -0.000000, 0.000000, 0.000000, 0.000000, -0.000000, 0.000000, -0.000000, 0.000000, 0.000000, 0.000000, -0.000000, -0.000001, -0.000000, 0.000001, 0.000000, 0.000001, -0.000001, -0.000000, 0.000000, 0.000001, -0.000000, -0.000000, 0.000001, 0.000001, 0.000000, 0.000001, 0.000000, 0.000001, -0.000001, 0.000000, 0.000000, 0.000000, 0.000000, 0.000001, 0.000001, 0.000000, -0.000000, 0.000000, 0.000001, -0.000000, 0.000001, 0.000000, -0.000001, 0.000000, -0.000000, -0.000000, -0.000001, 0.000000, -0.000000, -0.000000, -0.000001, -0.000001, 0.000000, 0.000000, -0.000001, 0.000001, -0.000000, -0.000001, 0.000001, -0.000000, 0.000000, -0.000001, -0.000001, 0.000001, -0.000001, 0.000000, 0.000000, 0.000000, 0.000000, -0.000001, 0.000000, 0.000000, -0.000000, -0.000000, 0.000000, 0.000001, 0.000000, 0.000000, 0.000000, 0.000000, 0.000000, 0.000000, 0.000000, 0.000000, 0.000000, 0.000000, 0.000000, 0.000000, 0.000000, 0.000000, 0.000000, 0.000000, 0.000000, 0.000000, 0.000000, 0.000000, 0.000000, 0.000000, 0.000000, 0.000000, 0.000000, 0.000000, 0.000000, 0.000000, 0.000000, -0.000000, -0.000000, 0.000000, -0.000000, -0.000000, -0.000001, 0.000000, 0.000000, -0.000000, -0.000001, -0.000000, -0.000000, 0.000000, 0.000000, -0.000000, 0.000000, 0.000001, 0.000000, 0.000000, 0.000001, -0.000000, -0.000000, 0.000000, 0.000001, -0.000000, -0.000000, -0.000000, -0.000001, 0.000000, 0.000000, 0.000000, 0.000000, 0.000000, 0.000000, -0.000001, 0.000000, -0.000000, 0.000001, 0.000001, -0.000000, -0.000000, -0.000000, 0.000000, 0.000000, 0.000000, 0.000001, -0.000000, 0.000000, -0.000001, 0.000000, 0.000000, 0.000000, 0.000000, 0.000000, -0.000000, -0.000000, -0.000001, 0.000000, -0.000001, -0.000001, 0.000000, -0.000000, 0.000000, -0.000001, -0.000000, -0.000000, 0.000001, 0.000000, -0.000000, 0.000000, -0.000000, 0.000000, -0.000001, 0.000000, 0.000000, 0.000001, 0.000000, -0.000000, 0.000000, -0.000000, 0.000000, -0.000000, -0.000000, -0.000001, -0.000000, -0.000000, -0.000001, 0.000000, 0.000000, -0.000000, 0.000000, 0.000001, 0.000001, 0.000000, 0.000001, 0.000000, 0.000000, 0.000000, 0.000000, 0.000000, 0.000000, 0.000000, 0.000000, 0.000000, 0.000000, 0.000000, 0.000000, 0.000000, 0.000000, 0.000000, 0.000000, 0.000000, 0.000000, 0.000000, 0.000000, 0.000000, 0.000000, 0.000000, 0.000000, 0.000000, 0.000000, 0.000000, 0.000000, 0.000000, 0.000000, 0.000000, 0.000000, -0.000000, -0.000000, -0.000000, 0.000000, -0.000001, 0.000000, 0.000000, 0.000000, -0.000000, 0.000001, -0.000000, 0.000000, 0.000001, 0.000000, -0.000000, 0.000001, -0.000000, 0.000000, 0.000000, 0.000000, -0.000000, -0.000000, -0.000000, -0.000000, -0.000000, 0.000000, 0.000001, 0.000000, 0.000000, -0.000000, 0.000000, 0.000000, -0.000000, 0.000000, -0.000001, 0.000000, 0.000000, -0.000000, 0.000000, 0.000001, 0.000001, 0.000000, -0.000000, -0.000000, -0.000001, -0.000000, 0.000000, 0.000000, 0.000000, 0.000001, 0.000001, 0.000000, -0.000000, -0.000000, 0.000001, -0.000000, -0.000000, 0.000001, -0.000000, -0.000000, -0.000000, -0.000000, 0.000001, -0.000000, 0.000001, -0.000000, 0.000000, -0.000000, -0.000001, -0.000000, 0.000001, -0.000000, 0.000000, 0.000000, -0.000001, 0.000000, -0.000000, 0.000000, 0.000001, -0.000000, -0.000000, 0.000000, 0.000000, -0.000000, 0.000000, 0.000000, -0.000000, -0.000000, -0.000000, 0.000000, -0.000000, 0.000001, -0.000000, -0.000000, -0.000001, 0.000000, 0.000000, 0.000000, 0.000000, -0.000001, 0.000000, 0.000000, 0.000000, 0.000000, 0.000000, 0.000000, 0.000000, 0.000000, 0.000000, 0.000000, 0.000000, 0.000000, 0.000000, 0.000000, 0.000000, 0.000000, 0.000000, 0.000000, 0.000000, 0.000000, 0.000000, 0.000000, 0.000000, 0.000000, 0.000000, 0.000000, 0.000000, 0.000000, -0.000000, -0.000000, 0.000000, -0.000000, -0.000001, -0.000000, -0.000000, 0.000000, 0.000001, 0.000000, -0.000000, -0.000000, -0.000000, -0.000001, -0.000000, 0.000000, 0.000000, 0.000000, -0.000000, 0.000001, -0.000000, -0.000000, -0.000000, -0.000000, -0.000001, -0.000000, -0.000001, 0.000000, 0.000001, -0.000001, 0.000001, 0.000000, 0.000001, -0.000001, -0.000000, -0.000001, 0.000000, 0.000000, 0.000000, 0.000001, 0.000000, -0.000001, -0.000000, 0.000000, -0.000001, 0.000000, 0.000001, 0.000000, -0.000000, -0.000001, 0.000000, 0.000000, 0.000001, 0.000000, 0.000001, 0.000001, -0.000000, 0.000000, -0.000001, -0.000000, 0.000000, 0.000001, -0.000001, -0.000000, -0.000000, -0.000000, 0.000000, 0.000000, -0.000001, -0.000001, 0.000000, -0.000000, 0.000000, 0.000001, 0.000001, 0.000000, -0.000000, -0.000000, -0.000000, -0.000000, 0.000000, 0.000000, -0.000000, 0.000000, 0.000000, 0.000000, -0.000000, 0.000000, -0.000000, -0.000000, -0.000000, -0.000000, 0.000001, -0.000000, 0.000000, 0.000000, -0.000000, -0.000000, 0.000000, -0.000000, 0.000000, 0.000000, 0.000000, 0.000000, 0.000000, 0.000000, 0.000000, 0.000000, 0.000000, 0.000000, 0.000000, 0.000000, 0.000000, 0.000000, 0.000000, 0.000000, 0.000000, 0.000000, 0.000000, 0.000000, 0.000000, 0.000000, 0.000000, 0.000000, 0.000000, 0.000000, 0.000000, 0.000000, -0.000000, 0.000000, -0.000000, 0.000000, -0.000001, 0.000000, -0.000000, -0.000001, 0.000001, 0.000000, 0.000000, -0.000000, -0.000000, 0.000000, 0.000001, 0.000000, 0.000000, -0.000000, 0.000000, -0.000001, -0.000000, -0.000001, 0.000001, -0.000000, -0.000000, -0.000000, -0.000000, -0.000001, -0.000001, -0.000000, 0.000000, 0.000001, -0.000000, 0.000001, 0.000001, -0.000001, 0.000001, -0.000000, 0.000000, -0.000001, 0.000000, 0.000000, 0.000000, 0.000000, 0.000000, -0.000000, 0.000000, -0.000001, -0.000000, 0.000000, -0.000000, 0.000000, -0.000000, -0.000000, 0.000000, -0.000000, -0.000000, -0.000001, 0.000000, -0.000001, -0.000001, 0.000000, -0.000000, 0.000000, 0.000001, 0.000001, -0.000001, 0.000000, 0.000000, -0.000000, -0.000001, 0.000000, -0.000000, 0.000000, -0.000001, 0.000000, -0.000000, -0.000000, 0.000000, 0.000000, 0.000001, 0.000000, -0.000000, 0.000000, 0.000000, 0.000001, 0.000000, 0.000000, -0.000001, -0.000001, -0.000000, -0.000001, 0.000000, -0.000000, -0.000001, 0.000000, -0.000000, 0.000001, 0.000000, -0.000000, 0.000000, 0.000000, 0.000000, 0.000000, 0.000000, 0.000000, 0.000000, 0.000000, 0.000000, 0.000000, 0.000000, 0.000000, 0.000000, 0.000000, 0.000000, 0.000000, 0.000000, 0.000000, 0.000000, 0.000000, 0.000000, 0.000000, 0.000000, 0.000000, 0.000000, 0.000000, 0.000000, 0.000000, 0.000000, -0.000000, 0.000000, 0.000001, 0.000000, 0.000001, 0.000001, -0.000000, 0.000000, 0.000000, 0.000000, -0.000000, 0.000001, 0.000000, 0.000001, -0.000001, 0.000000, 0.000000, 0.000000, -0.000000, 0.000000, 0.000000, -0.000000, 0.000000, 0.000000, -0.000000, -0.000001, 0.000000, -0.000000, 0.000000, -0.000000, 0.000000, 0.000000, 0.000000, 0.000000, -0.000000, 0.000000, -0.000001, 0.000000, -0.000000, -0.000000, -0.000001, 0.000000, -0.000000, -0.000000, -0.000000, 0.000000, -0.000000, 0.000000, -0.000000, 0.000000, 0.000000, -0.000001, 0.000001, 0.000001, -0.000000, -0.000000, -0.000000, -0.000000, -0.000001, 0.000000, -0.000001, 0.000000, 0.000000, -0.000000, -0.000001, 0.000001, -0.000000, -0.000001, 0.000000, -0.000000, 0.000001, 0.000000, 0.000000, 0.000000, -0.000000, -0.000000, 0.000000, 0.000001, 0.000000, 0.000000, -0.000000, -0.000000, 0.000001, -0.000000, 0.000000, 0.000000, -0.000000, -0.000000, -0.000000, -0.000000, -0.000001, -0.000001, -0.000001, 0.000000, 0.000001, -0.000001, 0.000000, 0.000000, 0.000000, 0.000000, 0.000000, 0.000000, 0.000000, 0.000000, 0.000000, 0.000000, 0.000000, 0.000000, 0.000000, 0.000000, 0.000000, 0.000000, 0.000000, 0.000000, 0.000000, 0.000000, 0.000000, 0.000000, 0.000000, 0.000000, 0.000000, 0.000000, 0.000000, 0.000000, 0.000000, 0.000000, 0.000000, -0.000000, -0.000000, -0.000000, -0.000000, 0.000001, 0.000000, -0.000000, -0.000001, 0.000001, -0.000000, 0.000000, 0.000000, 0.000000, -0.000000, -0.000000, -0.000000, 0.000001, 0.000000, -0.000001, -0.000000, 0.000000, -0.000000, 0.000001, -0.000001, 0.000000, -0.000000, -0.000000, -0.000000, 0.000000, -0.000000, 0.000000, 0.000000, -0.000000, 0.000000, -0.000000, -0.000002, -0.000000, 0.000000, -0.000000, -0.000001, -0.000001, 0.000001, -0.000000, -0.000000, 0.000000, -0.000001, -0.000000, 0.000001, 0.000000, -0.000000, 0.000000, 0.000000, -0.000000, 0.000000, -0.000000, 0.000000, -0.000001, 0.000000, 0.000000, -0.000000, -0.000000, 0.000000, 0.000000, -0.000000, 0.000001, -0.000001, 0.000000, -0.000000, -0.000000, 0.000001, 0.000000, -0.000000, 0.000000, -0.000000, 0.000001, 0.000000, -0.000000, 0.000000, -0.000000, 0.000000, -0.000000, -0.000000, -0.000000, 0.000000, 0.000000, 0.000001, 0.000001, -0.000000, 0.000000, 0.000001, -0.000000, 0.000000, 0.000000, -0.000000, 0.000000, 0.000001, -0.000000, 0.000001, 0.000000, -0.000000, 0.000000, 0.000000, 0.000000, 0.000000, 0.000000, 0.000000, 0.000000, 0.000000, 0.000000, 0.000000, 0.000000, 0.000000, 0.000000, 0.000000, 0.000000, 0.000000, 0.000000, 0.000000, 0.000000, 0.000000, 0.000000, 0.000000, 0.000000, 0.000000, 0.000000, 0.000000, 0.000000, 0.000000, -0.000000, 0.000000, -0.000001, 0.000001, -0.000001, -0.000000, 0.000001, 0.000000, 0.000000, -0.000001, 0.000000, -0.000000, 0.000000, -0.000000, -0.000001, 0.000000, 0.000000, -0.000001, -0.000000, 0.000000, 0.000001, -0.000001, 0.000001, -0.000001, -0.000000, -0.000001, -0.000000, 0.000000, -0.000001, -0.000000, -0.000000, -0.000000, 0.000000, 0.000000, -0.000000, 0.000000, 0.000000, 0.000000, -0.000001, -0.000001, -0.000000, 0.000001, -0.000000, -0.000001, -0.000000, 0.000000, -0.000000, -0.000001, -0.000000, 0.000000, 0.000000, -0.000000, -0.000000, -0.000000, -0.000000, -0.000000, 0.000000, -0.000000, 0.000000, -0.000000, -0.000000, 0.000001, 0.000001, -0.000000, 0.000000, 0.000001, 0.000000, 0.000000, 0.000001, -0.000001, 0.000000, -0.000000, -0.000001, -0.000000, 0.000000, 0.000001, 0.000000, -0.000000, 0.000000, 0.000000, -0.000000, -0.000001, 0.000000, 0.000001, 0.000000, -0.000000, 0.000001, 0.000000, 0.000001, 0.000000, 0.000000, 0.000001, -0.000000, -0.000000, 0.000000, 0.000000, -0.000000, -0.000000, 0.000001, 0.000000, 0.000000, 0.000000, 0.000000, 0.000000, 0.000000, 0.000000, 0.000000, 0.000000, 0.000000, 0.000000, 0.000000, 0.000000, 0.000000, 0.000000, 0.000000, 0.000000, 0.000000, 0.000000, 0.000000, 0.000000, 0.000000, 0.000000, 0.000000, 0.000000, 0.000000, 0.000000, 0.000000, 0.000000, 0.000000, 0.000000, -0.000000, 0.000000, 0.000000, 0.000000, -0.000000, 0.000000, 0.000000, -0.000001, -0.000001, 0.000000, 0.000000, 0.000000, -0.000000, 0.000001, -0.000000, 0.000000, -0.000000, -0.000000, 0.000000, -0.000000, 0.000000, -0.000001, -0.000000, -0.000000, -0.000001, -0.000000, 0.000000, 0.000000, 0.000000, -0.000001, -0.000000, -0.000001, 0.000000, 0.000000, 0.000000, -0.000000, -0.000000, 0.000000, 0.000000, -0.000000, -0.000000, 0.000001, -0.000001, 0.000000, -0.000001, 0.000001, 0.000000, 0.000000, 0.000000, -0.000000, 0.000000, -0.000000, -0.000000, -0.000001, 0.000000, -0.000000, 0.000001, -0.000001, -0.000000, 0.000001, -0.000001, 0.000000, 0.000000, 0.000000, -0.000000, 0.000000, 0.000000, 0.000000, -0.000000, 0.000000, 0.000000, -0.000000, 0.000000, 0.000000, 0.000000, -0.000000, -0.000000, 0.000001, 0.000001, 0.000000, -0.000000, -0.000000, -0.000000, -0.000000, 0.000001, -0.000000, -0.000000, -0.000000, -0.000000, -0.000000, 0.000001, -0.000000, 0.000000, -0.000001, -0.000001, -0.000000, 0.000000, -0.000000, 0.000000, 0.000000, 0.000000, 0.000000, 0.000000, 0.000000, 0.000000, 0.000000, 0.000000, 0.000000, 0.000000, 0.000000, 0.000000, 0.000000, 0.000000, 0.000000, 0.000000, 0.000000, 0.000000, 0.000000, 0.000000, 0.000000, 0.000000, 0.000000, 0.000000, 0.000000, 0.000000, 0.000000, 0.000000, 0.000000, -0.000000, -0.000000, -0.000000, -0.000000, 0.000000, -0.000000, 0.000000, 0.000000, -0.000000, 0.000000, -0.000001, 0.000001, -0.000000, -0.000001, -0.000000, 0.000001, -0.000001, -0.000001, 0.000000, -0.000000, 0.000001, -0.000000, -0.000000, -0.000000, 0.000000, 0.000000, 0.000000, -0.000000, 0.000000, -0.000000, 0.000000, 0.000000, 0.000001, -0.000001, -0.000000, -0.000001, -0.000000, -0.000000, 0.000000, 0.000001, 0.000001, -0.000000, 0.000000, 0.000001, 0.000001, 0.000000, -0.000000, -0.000000, 0.000001, -0.000001, 0.000000, -0.000000, 0.000000, -0.000001, -0.000000, 0.000000, -0.000000, 0.000001, -0.000000, -0.000000, 0.000000, 0.000001, -0.000001, 0.000000, 0.000000, 0.000001, 0.000001, 0.000000, -0.000000, 0.000001, -0.000000, 0.000000, 0.000000, 0.000000, 0.000000, 0.000000, 0.000001, 0.000001, -0.000000, 0.000000, 0.000001, -0.000000, 0.000001, 0.000001, -0.000001, -0.000000, 0.000001, 0.000000, -0.000001, 0.000000, 0.000000, 0.000000, -0.000000, 0.000000, 0.000000, -0.000000, 0.000000, 0.000000, 0.000000, 0.000000, 0.000000, 0.000000, 0.000000, 0.000000, 0.000000, 0.000000, 0.000000, 0.000000, 0.000000, 0.000000, 0.000000, 0.000000, 0.000000, 0.000000, 0.000000, 0.000000, 0.000000, 0.000000, 0.000000, 0.000000, 0.000000, 0.000000, 0.000000, 0.000000, 0.000000, 0.000000, -0.000000, 0.000000, 0.000000, 0.000001, -0.000001, -0.000000, 0.000000, 0.000000, 0.000001, -0.000001, 0.000000, 0.000000, 0.000000, 0.000000, 0.000000, 0.000000, 0.000000, 0.000000, -0.000000, -0.000000, 0.000001, 0.000000, 0.000001, 0.000000, 0.000001, 0.000001, 0.000000, 0.000000, 0.000000, 0.000000, -0.000000, 0.000000, -0.000000, 0.000000, 0.000001, -0.000001, -0.000000, 0.000001, 0.000000, -0.000001, -0.000000, -0.000000, -0.000001, 0.000000, -0.000000, -0.000000, 0.000001, 0.000000, 0.000000, 0.000000, 0.000000, 0.000000, 0.000001, 0.000000, 0.000001, 0.000000, -0.000001, -0.000000, 0.000001, -0.000000, -0.000000, -0.000000, 0.000001, 0.000000, 0.000000, -0.000001, 0.000000, -0.000000, 0.000000, -0.000001, -0.000000, -0.000000, -0.000000, 0.000000, -0.000000, -0.000000, 0.000000, -0.000000, 0.000000, 0.000001, -0.000000, 0.000001, 0.000000, -0.000000, 0.000000, -0.000000, -0.000000, -0.000001, -0.000000, 0.000000, 0.000000, -0.000000, -0.000000, -0.000000, -0.000000, 0.000001, -0.000000, 0.000000, 0.000000, -0.000000, 0.000000, 0.000000, 0.000000, 0.000000, 0.000000, 0.000000, 0.000000, 0.000000, 0.000000, 0.000000, 0.000000, 0.000000, 0.000000, 0.000000, 0.000000, 0.000000, 0.000000, 0.000000, 0.000000, 0.000000, 0.000000, 0.000000, 0.000000, 0.000000, 0.000000, 0.000000, 0.000000, 0.000000, 0.000000, 