//Numpy array shape [100]
//Min -0.067279100418
//Max 0.071457482874
//Number of zeros 0

#ifndef B10_H_
#define B10_H_

hls_init_on_powerup static const model_default_t b10[100] = {0.021902, 0.003356, -0.010328, -0.021964, -0.025312, -0.022043, 0.018712, -0.025622, -0.030323, -0.049686, 0.023986, -0.067279, -0.000799, 0.017585, 0.037311, 0.027858, 0.004014, 0.058856, 0.054683, 0.035488, -0.020147, -0.048147, -0.046518, 0.015859, -0.059447, -0.025482, -0.031832, -0.036944, -0.043826, -0.020365, -0.019584, 0.071457, -0.000394, -0.037289, -0.039066, 0.037288, 0.049524, -0.046614, 0.020352, 0.015409, -0.049507, 0.065619, 0.051997, 0.033415, -0.014416, 0.056515, 0.030609, -0.046313, 0.034955, 0.015036, 0.046912, -0.045395, 0.023766, 0.018097, 0.034884, -0.036814, 0.003766, 0.064933, 0.052960, -0.001610, -0.016814, -0.026286, 0.004343, 0.003901, 0.009483, -0.045046, -0.030971, -0.065111, -0.040851, 0.040895, -0.034589, 0.034857, -0.046469, -0.013426, 0.025216, 0.046746, 0.015825, -0.013675, -0.045474, 0.005316, -0.028053, 0.027720, -0.037905, -0.022991, 0.013273, -0.024274, 0.023228, -0.000993, -0.015442, 0.050743, 0.028293, -0.022855, 0.023945, -0.019081, -0.032896, 0.032408, -0.045176, -0.024772, 0.034584, -0.025390};

#endif
