//Numpy array shape [100]
//Min -0.054031573236
//Max 0.061078522354
//Number of zeros 0

#ifndef B4_H_
#define B4_H_

hls_init_on_powerup static const model_default_t b4[100] = {-0.018521, -0.033914, 0.030745, -0.024870, 0.046959, 0.030648, 0.001535, 0.022996, -0.012641, -0.020511, 0.038088, 0.027848, -0.003671, 0.035482, 0.040314, -0.044704, 0.034023, 0.019760, -0.025517, -0.047606, -0.004268, -0.044200, -0.014745, -0.018810, 0.004044, 0.045957, 0.014384, 0.053410, -0.039656, -0.026215, -0.014751, -0.040908, -0.040557, 0.039017, -0.036513, 0.000284, 0.023766, 0.042000, 0.054521, -0.011468, 0.045161, 0.016862, 0.010500, -0.017722, -0.018656, 0.057131, 0.017291, -0.025841, -0.046199, -0.006273, 0.019129, -0.012775, -0.041600, 0.028040, -0.018067, -0.013889, -0.004454, 0.061079, 0.058305, 0.051800, -0.038554, 0.046768, -0.019665, 0.017815, 0.052166, -0.001569, -0.003292, 0.027146, -0.040754, -0.007064, 0.018032, -0.043608, 0.026242, 0.016200, -0.022691, 0.003956, -0.000726, 0.005625, 0.030068, 0.007253, -0.029933, 0.034075, -0.039746, 0.054414, 0.006796, -0.007085, 0.032891, 0.029646, -0.000238, -0.005220, -0.010046, 0.034274, -0.054032, 0.052354, 0.017549, -0.018389, 0.019122, 0.018624, -0.013483, -0.011626};

#endif
