//Numpy array shape [100]
//Min -0.075773507357
//Max 0.074283286929
//Number of zeros 0

#ifndef B6_H_
#define B6_H_

hls_init_on_powerup static const model_default_t b6[100] = {0.043627, -0.012334, -0.030001, -0.023797, 0.060543, -0.001914, -0.037043, 0.001339, -0.042376, 0.041790, 0.052408, -0.047952, 0.038682, -0.011029, -0.038901, 0.029315, -0.032656, 0.044520, 0.042280, 0.013812, 0.021546, 0.012782, -0.055271, -0.031086, -0.042038, -0.007598, 0.034322, 0.034642, 0.032518, 0.013051, -0.020742, 0.069690, 0.034957, 0.021533, 0.012581, 0.046406, -0.035466, -0.062144, 0.020799, -0.023530, -0.003125, -0.019485, -0.041292, 0.000124, -0.037280, -0.018135, 0.022744, -0.003598, -0.019107, -0.047615, -0.075774, 0.032602, 0.059508, -0.028567, 0.028916, 0.062632, 0.040516, -0.019783, -0.014949, 0.022513, -0.006662, 0.022700, -0.036040, 0.074283, 0.030204, 0.005681, -0.028860, 0.013765, -0.016473, 0.046724, -0.044816, 0.033294, -0.017335, -0.024097, -0.036353, 0.066264, 0.007790, 0.054652, -0.008198, -0.038196, 0.035697, -0.018089, 0.009984, 0.036439, 0.025986, -0.012031, 0.011205, 0.018054, 0.002818, 0.040983, 0.038243, 0.017348, 0.023697, 0.050259, -0.018782, 0.067961, 0.043558, -0.029640, 0.063653, -0.048851};

#endif
