//Numpy array shape [100, 5]
//Min -0.218818604946
//Max 0.208064720035
//Number of zeros 0

#ifndef W12_H_
#define W12_H_

hls_init_on_powerup static const model_default_t w12[500] = {-0.075495, 0.135374, -0.127601, 0.164287, 0.038980, -0.091124, -0.204075, 0.049673, -0.024540, 0.140477, 0.153225, -0.092586, -0.111849, -0.075848, 0.056177, -0.193402, -0.034239, 0.193821, -0.127651, -0.090062, -0.086738, 0.120542, -0.081202, 0.151186, -0.117169, 0.010214, -0.122074, 0.154128, -0.070358, -0.054224, -0.031421, -0.049199, -0.152487, 0.097424, 0.133356, -0.087978, 0.140623, 0.139795, 0.150014, 0.046897, 0.061115, 0.139165, 0.159417, 0.181356, 0.138644, 0.161621, -0.104004, -0.143669, 0.121864, 0.082786, -0.199670, -0.036949, -0.044956, -0.038554, 0.189002, -0.105513, -0.119663, -0.197553, 0.036745, -0.025092, -0.006607, 0.056997, -0.121821, -0.093557, 0.029152, 0.061530, 0.154855, -0.002905, 0.120731, -0.164027, 0.034753, 0.153929, 0.160838, 0.084142, 0.146290, -0.190872, 0.003175, 0.117138, -0.103794, 0.073727, -0.082990, 0.127182, 0.125424, 0.087213, 0.091947, 0.025375, -0.064715, -0.141594, 0.150966, -0.085056, -0.045733, -0.111962, 0.101343, -0.029791, -0.068151, -0.034323, 0.140584, 0.071295, 0.081249, -0.027456, -0.004416, -0.057839, -0.121157, 0.162223, 0.163820, 0.109482, 0.092638, 0.049283, -0.081064, -0.111105, 0.003614, -0.063751, 0.033395, 0.006229, 0.024243, 0.157738, 0.129098, -0.127597, -0.083826, -0.078697, -0.034496, -0.040012, 0.027637, 0.123797, 0.105208, 0.047555, -0.005573, 0.009974, -0.123176, -0.060181, -0.118192, 0.067232, 0.138952, -0.107251, -0.027831, -0.098192, 0.033528, 0.063653, 0.011953, 0.012907, 0.013536, -0.213454, -0.099712, 0.137799, 0.100756, 0.100442, -0.180364, -0.093189, 0.167290, -0.141785, 0.074270, -0.016116, -0.078085, 0.158510, 0.085381, -0.075370, 0.007763, -0.003219, -0.116930, 0.175444, 0.012470, 0.161445, -0.154008, -0.007687, -0.065402, -0.129620, -0.107310, 0.132571, 0.185330, 0.202709, -0.077097, -0.118025, 0.155848, 0.108802, -0.123424, -0.073409, 0.105522, 0.074430, 0.105156, 0.146062, 0.168558, -0.071947, 0.026932, -0.041740, -0.042524, 0.067501, 0.136163, 0.090300, 0.149406, -0.057251, -0.110019, 0.180753, 0.123972, -0.046815, -0.142400, 0.047886, -0.145263, -0.141138, -0.114352, -0.115955, -0.013032, 0.012371, 0.124742, -0.101173, 0.055831, -0.185931, 0.033887, -0.097956, -0.112275, -0.135516, 0.047602, 0.123178, -0.148912, 0.128564, -0.051987, 0.131236, 0.147340, -0.026550, 0.065975, -0.203885, 0.019955, -0.146678, 0.102529, -0.173897, 0.088487, 0.035792, 0.091006, -0.124691, -0.137859, 0.053979, -0.011030, 0.040894, 0.048062, 0.108535, 0.108483, 0.201030, -0.055742, 0.018696, 0.100450, -0.209827, -0.085760, 0.013039, -0.002881, 0.102699, 0.050927, -0.165370, -0.028028, -0.068343, -0.028552, -0.150908, 0.000912, -0.025995, -0.089964, -0.016116, -0.193437, 0.048900, -0.073113, -0.062458, 0.049080, -0.076693, -0.172536, -0.084260, 0.019134, 0.037487, 0.049003, 0.107434, -0.059892, 0.094399, -0.120466, 0.106598, -0.014794, -0.080359, -0.097431, 0.031935, 0.047444, 0.067065, -0.107839, -0.044937, 0.054866, -0.096540, 0.039543, 0.091473, -0.015709, -0.066229, 0.077369, -0.002607, 0.140968, 0.138790, -0.111084, 0.003727, 0.183336, -0.044282, 0.171199, -0.076734, 0.094607, -0.026777, -0.028121, -0.147277, 0.144284, -0.181471, 0.032045, -0.128951, -0.164852, -0.104616, -0.159284, 0.109538, -0.126897, 0.101073, 0.134516, -0.056084, 0.117179, 0.130210, 0.032396, -0.112171, -0.203012, 0.150094, -0.167289, 0.104489, 0.071022, 0.002435, -0.151487, -0.098665, 0.063362, -0.055575, -0.063855, -0.129775, -0.095439, 0.006888, -0.008254, -0.019644, 0.045374, 0.201604, -0.060349, 0.117726, -0.157730, -0.021581, -0.100278, 0.052136, -0.166487, -0.184415, -0.068574, 0.102665, 0.172553, 0.111334, -0.134644, -0.218819, 0.065534, -0.094047, -0.012128, 0.037232, -0.010465, 0.107795, -0.167468, -0.108649, -0.145949, -0.184467, 0.102766, 0.126251, 0.015179, 0.125402, -0.004389, -0.047414, -0.097822, 0.003320, -0.127063, 0.100152, 0.039549, 0.133420, -0.126871, -0.161729, 0.147640, -0.120844, 0.107684, 0.019082, -0.146290, -0.101769, -0.069791, -0.066470, 0.015746, 0.010397, 0.041064, 0.139583, 0.139260, 0.146678, 0.084536, -0.156273, -0.003641, -0.026769, -0.051142, 0.150515, 0.016830, -0.059835, 0.135442, 0.109201, 0.096108, 0.137400, -0.067711, 0.054593, 0.196120, -0.010303, -0.059598, -0.119549, 0.045966, -0.102084, 0.110952, 0.107602, -0.150525, 0.045064, 0.146127, 0.070239, 0.105032, 0.079676, -0.123339, 0.098853, 0.205651, 0.094118, 0.082087, 0.154752, 0.183334, 0.005928, 0.012539, -0.114219, 0.011337, -0.037053, -0.115208, 0.008112, 0.082400, 0.050825, 0.000480, 0.107872, -0.019064, -0.027257, -0.077910, 0.144375, -0.116684, 0.081494, 0.019000, -0.134381, 0.072502, 0.085727, 0.144971, 0.208065, 0.094145, -0.197040, 0.086884, 0.008208, 0.118406, 0.082111, -0.033528, 0.142479, -0.149041, 0.139032, -0.080756, -0.058693, 0.022076, -0.142663, 0.060283, -0.052127, -0.055952, -0.097229, 0.094797, 0.031904, 0.053852, 0.183406, 0.045467, 0.043586, 0.132060, -0.066044, 0.051702, 0.024842, -0.006628, 0.082564, -0.101636, 0.022823, -0.117407, -0.033431, 0.072496, 0.164229, -0.027957, -0.042633, -0.156587, -0.161549, 0.097729, 0.034811, -0.121452, -0.042332, -0.191140, 0.120581, 0.032258, -0.110894, -0.200214, 0.100823, 0.080604, 0.045605, -0.177889, 0.045661, 0.105063, 0.091902, -0.082874, 0.101072};

#endif
