//Numpy array shape (4, 14)
//Min -4.295455455780
//Max 4.241261482239
//Number of zeros 0

bias_default_t w2[56] = {-0.253627479076, 1.101710915565, 2.342572927475, -1.504397273064, -0.714295923710, -2.947789907455, 0.278060525656, -0.752947509289, -1.519649028778, 0.934931933880, 0.548399925232, -0.976261973381, 2.259461879730, -0.108120732009, -0.756082177162, -1.531277775764, 2.633677959442, -0.124813504517, 0.126570522785, -1.374575614929, -0.055911976844, -0.903575539589, -1.743384599686, 1.835358381271, 1.372538685799, 1.180592298508, -0.759165167809, 0.093928769231, 0.819730520248, 2.755322933197, -1.615179419518, -0.241902142763, 0.989626824856, -4.295455455780, 0.594179272652, 0.844815075397, -2.195250272751, 2.830639362335, 1.336900115013, -0.236516699195, 4.241261482239, -0.136599048972, 0.806896805763, -1.855638027191, 0.513985276222, -0.387194454670, 0.517264902592, 0.535690605640, 0.037134591490, -0.762666404247, -2.668957948685, -0.264975875616, 0.119134828448, 1.436498284340, -0.865524649620, -0.000376365555};
