//Numpy array shape (4, 14)
//Min -6.073458194733
//Max 6.401957511902
//Number of zeros 0

bias_default_t w2[56] = {2.910660266876, 0.776406288147, -0.145952790976, 2.302318334579, -0.290176391602, -0.693834245205, 0.638437986374, 3.102380275726, 1.328335046768, 0.044126663357, 2.373601436615, -0.236423999071, -1.049830675125, 0.233692958951, -0.423698395491, 1.409806966782, -0.629142701626, -2.545460224152, -1.406848788261, 1.495272874832, 2.372317075729, -0.327000170946, 0.625582277775, -0.009776163846, -0.774781107903, -0.426396280527, 0.832462847233, 1.715489506721, 0.580856561661, 1.385638952255, 0.131157323718, 3.702233791351, -1.117026448250, 6.401957511902, 0.224123209715, 0.444011390209, -0.073045760393, 2.734960317612, -4.477689266205, -0.669830560684, -6.073458194733, -0.192457213998, -0.997058629990, 0.549255430698, 2.396549701691, -5.152706146240, 0.496207714081, -5.653320789337, -0.354717522860, 2.047637701035, 0.913026332855, 0.951746225357, 4.655450344086, 0.895393371582, 5.744980812073, 0.127244591713};
