//Numpy array shape (4, 21)
//Min -1.387587547302
//Max 2.315792798996
//Number of zeros 0

bias_default_t w4[84] = {-0.402317225933, -0.206540018320, 0.183862328529, 0.062048964202, 0.505048215389, 0.095717720687, -0.006313377060, 0.008163325489, 0.164959639311, 0.457300215960, 0.167302057147, -0.465105980635, -0.125845000148, 0.017971847206, 0.221193671227, -0.743996977806, -0.014328006655, 0.881117284298, 0.930558860302, -1.125987291336, 0.087754569948, 0.140032172203, 0.167647570372, -0.492213755846, -0.167229846120, -0.041230253875, 0.058464601636, 0.086536243558, 0.654263556004, -0.402460336685, -0.130876421928, -0.354058802128, 0.475365012884, 0.292768836021, 0.092265948653, -0.112929627299, 1.407756328583, -0.123297177255, -1.387587547302, 0.094279959798, 0.359344631433, -0.124952681363, -0.439240604639, -0.372141003609, 0.144034534693, 0.223242416978, 0.722815632820, -0.048779390752, 0.025975035504, -0.847048699856, -1.023359179497, 0.012055071071, 0.806588411331, 0.269278377295, -0.358136832714, 0.013432365842, -0.554068267345, -0.311781883240, 0.222855344415, -0.620948195457, -0.805764317513, 0.662104964256, 0.014320350252, 0.343112975359, -0.367272138596, -0.777400195599, 0.072713620961, 0.610162556171, -0.123714558780, -0.112198464572, -0.222921952605, -1.108793735504, -0.613262414932, 0.264869719744, -0.484875857830, -0.124159261584, 0.007056048140, 0.176199451089, 0.231259405613, 2.315792798996, -0.462724417448, -0.124465085566, -0.530968785286, 0.009662309662};
