//Numpy array shape (64,)
//Min -0.982645511627
//Max 0.904907405376
//Number of zeros 22

static bias_default_t b1[64] = {-0.650342345238, -0.316820234060, 0.855206489563, 0.000000000000, 0.591663956642, 0.000000000000, 0.000000000000, -0.310461014509, 0.677801191807, 0.636268138885, 0.807851493359, 0.000000000000, 0.000000000000, -0.901633977890, 0.000000000000, 0.000000000000, 0.724044740200, 0.000000000000, 0.345956832170, -0.660105884075, -0.764344096184, 0.000000000000, 0.362445026636, -0.763474464417, 0.000000000000, -0.195670336485, -0.850921154022, 0.761357843876, 0.000000000000, 0.000000000000, 0.471737056971, -0.982645511627, 0.000000000000, 0.227421909571, 0.898335576057, -0.578150033951, -0.812766909599, 0.000000000000, 0.000000000000, 0.904907405376, 0.000000000000, 0.000000000000, 0.069437183440, 0.376254141331, -0.601492822170, 0.622774302959, 0.568619668484, 0.275531232357, -0.530894041061, 0.640590310097, -0.902474820614, 0.647333741188, -0.954357922077, 0.000000000000, -0.875586509705, -0.788633942604, 0.023883529007, 0.000000000000, 0.000000000000, 0.000000000000, -0.246054723859, 0.671490550041, 0.462851643562, 0.000000000000};
