//Numpy array shape (16, 64)
//Min -3.297986984253
//Max 3.369635820389
//Number of zeros 0

static weight_default_t w1[1024] = {0.273134738207, -0.121133163571, 0.495214611292, 0.037432849407, -0.229118928313, 0.360422641039, 0.070297032595, 0.131797358394, 0.329366147518, -0.089942522347, -0.201647877693, -0.424578428268, -0.019859224558, 0.046937197447, -0.039577424526, 0.310570687056, -0.246746554971, -0.230013117194, 0.161369785666, 0.051095779985, 0.253647446632, 0.169251173735, -0.272927880287, 0.191057756543, 0.219534724951, 0.086749881506, 0.264499902725, -0.147007659078, 0.212724238634, 0.196727007627, 0.498628079891, -0.210498511791, 0.356007367373, 0.542698323727, -0.285916924477, -0.255521297455, 0.086795121431, 0.234688133001, -0.025366276503, 0.248845368624, 0.188654214144, 0.175911635160, 0.268368631601, 0.014157584868, 0.346846222878, 0.274150133133, 0.366341173649, -0.222606197000, 0.206033781171, -0.336739927530, -0.182617276907, -0.043696288019, 0.003004165832, 0.102707296610, 0.195790871978, -0.003662940115, -0.446294605732, 0.014404833317, 0.427349060774, -0.289335370064, -0.285991966724, -0.383003175259, -0.345495253801, 0.133836001158, -0.308133095503, -0.189896047115, 0.217660829425, -0.088948637247, -0.157268270850, 0.348966389894, -0.340706527233, -0.046609573066, 0.134219542146, 0.196787014604, -0.040030922741, -0.325480133295, 0.415913552046, -0.701311588287, 0.309158056974, 0.064622730017, 0.380236655474, 0.000888586044, 0.147689923644, -0.014932613820, -0.000864452741, 0.066234469414, 0.400543034077, -0.047296334058, -0.350284993649, 0.064563222229, -0.042971860617, 0.211301192641, -0.090170472860, 0.314799934626, 0.365965485573, -0.646822452545, -0.197390124202, -0.336993575096, 0.371946603060, -0.327944189310, -0.210956513882, 0.412247866392, 0.171322792768, 0.288576453924, 0.225123971701, 0.344751387835, 0.026592394337, -0.136842444539, -0.119317248464, 0.141635358334, 0.553068399429, 0.376693159342, -0.007151413709, 0.071148604155, -0.816901743412, -0.165143579245, -0.471017360687, -0.420622140169, -0.035478457808, -0.762189447880, -0.445094674826, 0.414397567511, -0.048378705978, 0.315137416124, -0.139219775796, 0.100871525705, 0.452601552010, 0.404372721910, 1.019503712654, -1.278485894203, -1.482518553734, 0.305785983801, -1.605198025703, -0.291486442089, 0.270184487104, -1.878839850426, 1.454583406448, -1.416211724281, 0.151519626379, -0.358110547066, 0.244462221861, -0.848579823971, 0.102061659098, -0.328540831804, -0.302754431963, 0.201726526022, -2.291535377502, -0.659387588501, -0.186581432819, 0.024517536163, 1.088240742683, -0.873592019081, 0.121940106153, -2.502319335938, 0.926736831665, -0.136404991150, -0.153395026922, 0.156744986773, 1.891878366470, 1.112033843994, 0.117144137621, 1.370298862457, 0.071110829711, 1.989767193794, 0.418448418379, 0.003405839205, 0.025012969971, -1.496004819870, -0.053586125374, 0.177662223577, 0.301276683807, 1.284525632858, -0.403379231691, 1.064961194992, 1.286977887154, -2.046920299530, 2.463479280472, -1.020631551743, -0.825390815735, -1.695019602776, 1.549431324005, -0.044388622046, 1.091338992119, -0.584125459194, -0.176961392164, 0.277109712362, 0.195735007524, -0.428088843822, -2.055137157440, 0.332899004221, 1.175357103348, 0.207400232553, 2.600476026535, -1.797779917717, -3.030394077301, -0.183328256011, -3.043972730637, 0.273305863142, 0.240355938673, -2.702431678772, 1.284482717514, -2.594375133514, -0.613471448421, 0.237619727850, 0.012508958578, -0.528605878353, -0.096062481403, -0.205274641514, -1.287939786911, -0.166103452444, -2.453594207764, -0.334398239851, -0.036004714668, -0.043772816658, 0.420760959387, -0.429800808430, 0.312022000551, -2.566433191299, 2.057194471359, 0.011976660229, 0.313735932112, -0.162131994963, 2.517210960388, 2.596636533737, 0.240932434797, 2.807723522186, 0.177846252918, 2.310273647308, 2.218927860260, -0.193459331989, -0.347964167595, -3.297986984253, -0.130582064390, -0.092778474092, 0.263518571854, 1.373523235321, 0.053403958678, 2.205122232437, 1.664251089096, -2.260995149612, 3.171066284180, -2.665817737579, -0.766640126705, -3.054119110107, 2.541068792343, 0.241334944963, 2.022058963776, -1.106488585472, 0.258661389351, -0.286015748978, 0.247523993254, -0.429503738880, -2.708972692490, 0.601161599159, 1.957021832466, 0.075948387384, 1.783565759659, -1.279242038727, -1.734812855721, -0.214793011546, -2.393446683884, -0.010807096958, 0.053225219250, -1.944829821587, 0.676389873028, -1.565586686134, -0.383149594069, -0.100252509117, 0.404540628195, -0.541264057159, -0.400669187307, -0.155467122793, -0.259134560823, 0.054635137320, -2.176440477371, -0.311982482672, 0.542264342308, 0.327169090509, 1.125795841217, -0.603063225746, -0.065522760153, -2.601746320724, 1.234787225723, -0.651381194592, 0.099230796099, 0.183578580618, 1.224109649658, 1.308120727539, -0.329800248146, 1.790080666542, -0.089278034866, 2.373008966446, 1.344615340233, 0.158748894930, -0.191824659705, -2.310403347015, 0.331655412912, -0.142149299383, -0.232307031751, 0.727346956730, -0.268947303295, 1.230259895325, 1.219927549362, -1.956733226776, 2.719257593155, -1.651243925095, -0.078169725835, -2.580228805542, 2.095423460007, 0.354931503534, 1.620335936546, -0.128201007843, -0.258300542831, 0.378972083330, 0.199756115675, -0.123925864697, -1.835258603096, 0.176554426551, 1.632631659508, 0.068939119577, 2.399255752563, -2.273168087006, -2.906819820404, 0.191536515951, -2.887498140335, 0.091915637255, 0.075411230326, -2.385295391083, 1.499734163284, -1.610679388046, -0.199195712805, 0.317418843508, -0.235132694244, -1.262635469437, 0.337237924337, -0.156295299530, -0.141692817211, 0.312937706709, -2.616346597672, -1.774073481560, -1.312446832657, -0.130752712488, 0.937534153461, -1.534963607788, -0.023625671864, -2.960811376572, 1.889470577240, 0.694289386272, 0.015783578157, 0.284798055887, 1.989484310150, 1.557761073112, -0.430030465126, 2.528726577759, 1.110917925835, 2.976413249969, 1.540939450264, -0.347251117229, 0.144639700651, -2.622312307358, 0.013534218073, -0.384808897972, -0.042199831456, 1.542568087578, -0.705243051052, 2.340967655182, 2.479699611664, -2.530426263809, 3.369635820389, -2.451839685440, -1.142532110214, -3.193180561066, 2.091885089874, 0.000051200390, 1.244359135628, -1.908807277679, -0.349347472191, -0.229457065463, -0.033600956202, -0.405460476875, -2.800516366959, 1.838994026184, 1.648938775063, -0.432235211134, 0.061400756240, -0.210094377398, 0.370053201914, -0.392486095428, -0.135043829679, -0.115762710571, -0.010745972395, -0.234163910151, -0.205177947879, -0.386142551899, -0.208175331354, 0.401348084211, -0.203583493829, 0.276004612446, -0.343126028776, -0.158354818821, 0.247496560216, -0.214001268148, 0.051226515323, 0.276135981083, -0.079302877188, 0.201015621424, 0.147077903152, 0.053875580430, 0.016936033964, -0.183354139328, 0.133182123303, -0.442777723074, -0.093424230814, 0.421008974314, -0.241093233228, -0.017719978467, -0.367861807346, -0.010182483122, 0.429245680571, 0.153819173574, 0.356409400702, 0.078110724688, -0.403248369694, 0.127095177770, -0.039987385273, -0.018532812595, 0.274764001369, 0.184183403850, 0.217380329967, 0.187193185091, -0.296574652195, -0.329100549221, 0.411389917135, -0.028306344524, -0.320216923952, -0.377648472786, 0.033961724490, 0.352228313684, -0.017639601603, 0.279769152403, 0.374199926853, -0.181100457907, 0.194470852613, 0.247584909201, 0.169474393129, 0.112337946892, -0.008316027001, 0.257290750742, 0.057060688734, 0.296056449413, -0.036320779473, -0.294067203999, 0.318907380104, -0.276672363281, -0.296612441540, 0.209416016936, -0.427982866764, -0.251310110092, -0.183349460363, 0.362016230822, 0.010978758335, 0.050630874932, -0.252476096153, -0.062600582838, -0.332122057676, -0.359790235758, -0.753239393234, -0.138939976692, 0.339861214161, -0.089687317610, -0.302682816982, 0.013097382151, -0.116005837917, -0.349857896566, -0.189945101738, -0.607249855995, -0.272470682859, -0.024384558201, 0.524141192436, -0.271731287241, -0.051972836256, -0.221252217889, 0.272111624479, -0.334345221519, -0.253046780825, -0.216723665595, 0.301355808973, -0.396973669529, 0.163508147001, 0.374339371920, 0.251496553421, -0.277811110020, 0.252130091190, -0.229282766581, 0.033449690789, -0.484271347523, 0.223493844271, 0.120945014060, 0.126505985856, -0.326483726501, -0.076790973544, -0.310470223427, 0.022095490247, -0.365215599537, 0.225643396378, -0.403039216995, -0.182293713093, 0.153589516878, 0.161594644189, -0.204061433673, 0.239297688007, 0.189621835947, 0.141639992595, -0.033000484109, 0.374172478914, -0.349791824818, 0.128437265754, -0.313506454229, -0.011538833380, -0.175167888403, 0.228266313672, -0.624515235424, -0.287053257227, 0.026571661234, 0.270086675882, -0.246175765991, -0.179420262575, -0.354055553675, -0.053014475852, 0.210918158293, 0.245504379272, 0.631874740124, 0.404962867498, 0.276496142149, -0.277801245451, 0.076058112085, 0.337253838778, -0.029038066044, 0.104101106524, -0.564340054989, -0.244020789862, 0.231576651335, -0.003686869284, -0.551960468292, 0.340793043375, -0.050272177905, 0.192413210869, -0.245918437839, -0.047154750675, -0.346641898155, 0.406608074903, 0.228087171912, -0.000056058168, 0.163087338209, 0.353481709957, 0.597325026989, 0.182203784585, -0.241869851947, 0.157197773457, 0.330553770065, -0.287901252508, 0.257323592901, 0.087767280638, 0.192257031798, -0.443883925676, -0.006296813488, 0.398226320744, 0.300797283649, 0.153797909617, 0.022584915161, 0.202738612890, -0.211979448795, -0.370058059692, -0.344726294279, 0.101782627404, 0.059409290552, -0.432655394077, -0.113822616637, 0.158531606197, -0.347419083118, 0.671311676502, 0.030280202627, -0.162970185280, 0.206725150347, 0.163778722286, 0.666090190411, 0.649726271629, 0.001271784306, 0.271719127893, -0.830818891525, 0.243088632822, 0.011823892593, 0.126974999905, 0.279785424471, -0.381371021271, 0.161639705300, 0.308089554310, 0.137269347906, 0.538691580296, -0.298780262470, 0.427083641291, -0.064899362624, 0.430946469307, 0.301416963339, 0.255388468504, -0.372705221176, 0.065702170134, -0.478566467762, -0.009757369757, -0.337578743696, 0.766328752041, 0.777055501938, -0.958563983440, 0.301393181086, -0.062792301178, 0.471476197243, -0.277415066957, -0.073745995760, -0.268094241619, -0.633311152458, -0.175469592214, -0.725495040417, 0.507596910000, -0.042620446533, -0.867417395115, 0.391854763031, -0.403441011906, 0.748730897903, -0.519765377045, -0.337518423796, 0.012455349788, -0.272233307362, 0.210985928774, -0.269573509693, 0.060689240694, -0.256173670292, 0.232476815581, -0.774320840836, -0.368910878897, 0.231934458017, -0.617844521999, -0.293836295605, 0.552766680717, -0.411016762257, 0.741749644279, 0.233119457960, 0.255258709192, 0.036052588373, 0.614334881306, 0.251510679722, 1.092785000801, 0.016299158335, 0.136110275984, -0.672472715378, 0.419396907091, -0.202154576778, 0.641710817814, 0.072265952826, -0.736615002155, 0.122654378414, -0.003050517524, -0.385031461716, 0.722420096397, -1.218325018883, 0.273314267397, -0.247699961066, 0.401045739651, 0.370284855366, -0.255285322666, 0.298333078623, -0.075091168284, -0.875913023949, 0.188920646906, -0.777801513672, 0.890018045902, 0.486442953348, -1.069085955620, 0.061909914017, 0.115644186735, -0.164827510715, 0.107072561979, 0.361579149961, 0.110359951854, -1.000225663185, -0.513829588890, -0.403309345245, 0.445890188217, -0.363466769457, -1.072820305824, -0.112663723528, 0.177810609341, 1.188340187073, -0.568878054619, -0.304625153542, -0.396014571190, -0.570617198944, 0.287522733212, -0.369754076004, 0.040429979563, 0.387010842562, 0.140794977546, -0.513953149319, 0.390756487846, -0.100579977036, -0.821790397167, -0.084618709981, -0.205609172583, -0.043176501989, -0.037608359009, -0.186580464244, -0.386207252741, 0.893337249756, 1.107564806938, 1.006725430489, 1.053616285324, -0.238728791475, 0.139155775309, -0.831909537315, -0.424166530371, -0.173989206553, 0.656037807465, 0.331779390574, -1.919452548027, 0.112092018127, 0.153719216585, -0.293400466442, 0.441355019808, -1.652387142181, -0.061701178551, -0.222658485174, 0.922061622143, 1.477216124535, 0.378127902746, 0.015636056662, 0.000567017240, -0.593461811543, 0.427070707083, -0.252405405045, 0.973295271397, 0.815363883972, -1.445942044258, 0.202061265707, -0.150156766176, -0.452895373106, -0.359721988440, 0.220862299204, 0.358330011368, -1.284722447395, -0.898297727108, -1.200651764870, 0.508524239063, -1.092108130455, -0.726803958416, 0.438605636358, 0.133557260036, 1.130022168159, 0.188794955611, 0.323203951120, -0.229509800673, -0.268331885338, 0.128949478269, -0.020716011524, 0.320804446936, 0.297250002623, 1.040599822998, -0.980358600616, -0.129187107086, 0.080687612295, -0.813224196434, -0.418444067240, 0.415337830782, -0.048774510622, -0.143059134483, -0.283419728279, 0.282418102026, 0.370224803686, 0.281763315201, 0.142344579101, 0.048330198973, 0.150810569525, -0.272034078836, -0.250263243914, -0.225472584367, 0.110240608454, 0.818623125553, -0.231384843588, -0.317960113287, 0.374731302261, -0.279202282429, 0.061150401831, 0.572541534901, -0.165372133255, 0.080604642630, 0.364441543818, -0.209464088082, 0.399912476540, 0.014557421207, -0.091719150543, 0.240314975381, -0.747559964657, 0.164642423391, 0.122171550989, 0.462585240602, 0.635791242123, -0.252853363752, 0.320063740015, 0.425670415163, 0.226243555546, 0.047984421253, -0.125339299440, 0.276457786560, -0.006050592288, -0.145410865545, -0.834683299065, 0.034099262208, -0.232628598809, -0.538239777088, -0.173416227102, 0.176748842001, 0.426331698895, -0.102156341076, 0.362332075834, -0.551290094852, -0.492345243692, 0.201786398888, -0.379468977451, 0.230844050646, -0.147891312838, 0.379279285669, -0.349690228701, 0.266654908657, -0.260493397713, -0.191575661302, -0.049571540207, 0.042593628168, 0.161875635386, 0.457275390625, 0.176769822836, -0.347746968269, -0.008792927489, 0.498277008533, -0.013842443936, 0.895017623901, 0.269497960806, 0.383241862059, -0.755953848362, 0.175891667604, -0.219215735793, 0.501160979271, -0.140038073063, -1.444862723351, -0.078010030091, 0.228695809841, 0.045598477125, 0.571126520634, -0.604468941689, 0.213320404291, 0.230532690883, 0.570207297802, 0.461014062166, -0.039307773113, 0.044318318367, 0.341600686312, -0.022092074156, 0.298995286226, -0.404479473829, 1.039826750755, 0.515427231789, -0.447621017694, 0.189232856035, 0.338409274817, -0.159363463521, -0.225079149008, -0.032127529383, 0.245479539037, -0.583890259266, -0.571202099323, -0.292004287243, 0.383623749018, -0.412493109703, 0.134251892567, 0.322539299726, -0.373407959938, -0.004059378058, 0.063948072493, -0.169950932264, 0.613723874092, 0.139448538423, 0.260794073343, -0.406777262688, 0.293686360121, 0.395116120577, 0.352926999331, -0.346897572279, -0.211443379521, 0.355696529150, 0.403162091970, -0.381132870913, -0.003551451256, -0.419292956591, 0.056882791221, -0.420009940863, -0.358792424202, -0.288781970739, 0.372897058725, 0.440367847681, 0.232166200876, -0.358363568783, -0.135543167591, 0.387434333563, -0.375668674707, -0.208206191659, 0.165815666318, 0.004827946424, 0.116159789264, -0.040756173432, -0.033590894192, -0.297257870436, -0.139040261507, 0.242353916168, -0.337664932013, -0.172817766666, 0.267667323351, 0.229688897729, -0.412844687700, -0.162317395210, -0.343978494406, 0.227151721716, -0.403884112835, -0.371097505093, 0.421564012766, 0.016638716683, -0.041291270405, -0.260039746761, -0.381322026253, 0.191889762878, -0.327389717102, -0.135727465153, -0.039681307971, -0.222158908844, 0.392085075378, -0.012267367914, 0.382095009089, 0.357909739017, 0.203176230192, 0.241515725851, 0.394697129726, 0.172992721200, 0.410428524017, -0.057312637568, 0.189153566957, 0.150813639164, -0.132763445377, -0.348425030708, -0.188095182180, -0.214013248682, -0.230736166239, 0.396928668022, -0.226509407163, 0.018038809299, 0.213250324130, 0.123329706490, 0.016089564189, -0.179612398148, 0.206870049238, -0.073345839977, -0.152816087008, 0.219189569354, 0.072868697345, -0.335261821747, 0.330305784941, -0.291897237301, -0.078602313995, -0.237455561757, -0.165725618601, -0.000308275223, 0.044505622238, -0.354599624872, -0.156959652901, 0.223170757294, 0.294221848249, -0.080516666174, 0.150507017970, -0.301621347666, -0.261628687382, 0.180735215545, -0.268592298031, -0.353017628193, -0.003822922707, -0.216413542628, 0.094403326511, -0.307265073061, -0.252721607685, 0.194826006889, -0.126441478729, 0.285789817572, 0.388396650553, -0.219276741147, -0.108935385942, -0.200573131442, -0.234167829156, -0.283343315125, -0.107299201190, 0.126236423850, -0.018186613917, 0.076124280691, -0.259085446596, 0.404955476522, -0.031333997846, 0.030045639724, -0.127786219120, -0.037055365741, -0.318056076765, -0.404659956694, -0.028650164604, 0.050693914294, -0.152987644076, -0.047914236784, -0.264025807381, -0.091312497854, 0.112866394222, 0.301265448332, 0.052818920463, -0.365120738745};
