//Numpy array shape (64, 32)
//Min -1.438469171524
//Max 0.551247417927
//Number of zeros 0

weight_default_t w2[2048] = {0.027016395703, 0.009419544600, -0.183515891433, 0.003948311321, 0.072700150311, 0.178495064378, 0.175547435880, -0.151394382119, -0.038706943393, -0.135989829898, 0.211093798280, 0.110985264182, -0.199343904853, 0.035783417523, -0.006497169379, 0.141164064407, 0.102284058928, 0.040062025189, -0.196297332644, 0.059822883457, 0.067337356508, -0.026826169342, -0.045903861523, -0.115883007646, -0.088890500367, -0.171858429909, 0.085315532982, 0.212497487664, 0.122763216496, 0.028035953641, -0.035809073597, 0.095653288066, 0.107016667724, -0.189889296889, -0.078829616308, -0.126839160919, -0.175415784121, 0.027233337983, -0.154800787568, -0.206506282091, 0.008688331582, -0.084201715887, -0.108569152653, 0.149622708559, 0.092500686646, 0.118285924196, -0.262604266405, 0.061115194112, 0.011869510636, 0.104045942426, -0.026341946796, -0.001893471577, 0.166560798883, -0.173230245709, 0.200454041362, 0.075040653348, -0.122263237834, -0.068896837533, 0.297485232353, 0.068386368454, -0.198503911495, 0.114721313119, 0.127357602119, -0.084016866982, 0.020954247564, -0.083280704916, -0.058687686920, -0.250550508499, 0.463984370232, 0.376439154148, -0.627559065819, -0.098638951778, -0.389220833778, 0.551247417927, 0.496720254421, -0.390410006046, 0.379627078772, 0.236011072993, -0.266770780087, -0.379828900099, 0.386833280325, -0.106156043708, -0.135844647884, -0.091791003942, 0.262650221586, 0.230744466186, -0.181844457984, -0.170324832201, -0.548317015171, -0.103543169796, -0.104295738041, -0.347682952881, -0.460227310658, 0.048944488168, 0.348648577929, -1.438469171524, -0.069751292467, 0.214224979281, -0.195062473416, 0.140954419971, 0.153099730611, -0.005801469088, 0.155591115355, -0.142877846956, -0.212727934122, -0.084749490023, -0.201079294086, 0.087457939982, 0.070766881108, -0.065684780478, -0.175892874599, -0.060869127512, 0.022055983543, -0.115671724081, 0.214496031404, 0.078900888562, 0.131903037429, -0.134048968554, 0.196818038821, -0.061504244804, 0.086881771684, -0.070467397571, 0.176124855876, 0.145220205188, -0.029039785266, 0.197688862681, -0.052390009165, -0.017934292555, -0.049887962639, -0.233429327607, 0.106033749878, -0.242946520448, 0.125076577067, 0.139460325241, -0.243111684918, -0.078329399228, 0.068634971976, 0.047712404281, 0.124225690961, 0.038829147816, 0.085085593164, 0.136345773935, -0.140485510230, 0.138715401292, -0.102752037346, -0.151665180922, 0.040112141520, 0.011627388187, -0.101409830153, -0.064873002470, -0.195707917213, 0.002646388952, -0.006351042539, -0.110229060054, 0.009703036398, -0.096128746867, 0.154897958040, -0.117666646838, 0.108024209738, -0.172992944717, -0.076812520623, -0.145916044712, 0.053024217486, -0.108002096415, 0.090844348073, -0.082870647311, 0.161751344800, 0.075080290437, 0.141874209046, -0.200560778379, -0.161911010742, 0.076284453273, -0.202273815870, -0.013162359595, 0.194713786244, -0.183034792542, -0.119513474405, 0.180328264832, 0.072628632188, -0.079086393118, -0.150388479233, 0.097220197320, 0.086766704917, -0.173295199871, 0.160770788789, 0.140133813024, -0.063980728388, 0.202250495553, -0.011274650693, -0.060423344374, 0.081997707486, -0.145773738623, 0.045196279883, -0.103178136051, 0.075878575444, -0.177845373750, -0.078966647387, -0.054454833269, 0.012070462108, -0.062004595995, -0.083377286792, -0.024572208524, 0.207460209727, -0.035033851862, 0.130001351237, -0.149414688349, 0.097028687596, -0.164450824261, 0.049997314811, 0.133797928691, -0.161758467555, -0.150019496679, -0.064723938704, 0.212928220630, -0.017685592175, -0.017022848129, -0.106747187674, 0.199184402823, -0.093324095011, -0.136093169451, 0.143055871129, -0.157594770193, 0.161303862929, -0.186044037342, -0.040269508958, -0.130868986249, 0.053995724767, -0.048120941967, -0.210168749094, 0.188812896609, -0.210428133607, -0.033583670855, 0.050488777459, -0.024254791439, -0.172505527735, -0.139890268445, 0.222707957029, 0.115638352931, 0.179601714015, -0.127009734511, 0.078820645809, -0.167882412672, 0.030064148828, 0.134538337588, -0.153377741575, 0.069506712258, 0.179486140609, -0.016397448257, 0.248861953616, 0.094315111637, 0.011071633548, 0.205548003316, 0.138449802995, -0.125411167741, -0.090163834393, 0.075306624174, 0.178506791592, 0.162436053157, -0.141675606370, 0.108927696943, 0.015070985071, -0.105026118457, -0.082257226110, 0.029403194785, 0.045503184199, 0.089834511280, -0.093906551600, 0.019186506048, -0.042347300798, 0.146817386150, 0.132238343358, 0.142715826631, 0.099716901779, 0.051096841693, -0.168219298124, -0.055802259594, -0.096217595041, -0.061923000962, 0.193565353751, 0.142641633749, -0.097234919667, 0.203659802675, -0.026261230931, -0.175922513008, -0.118765518069, 0.138769671321, 0.062097758055, 0.172708630562, 0.066478282213, -0.174423426390, 0.199157819152, -0.132782757282, -0.164026960731, 0.003213967429, 0.060941193253, 0.189891144633, 0.206910669804, 0.240599960089, -0.016530463472, -0.178743943572, 0.113882236183, 0.072636887431, 0.012043947354, 0.054243460298, 0.014686989598, -0.204327642918, 0.180639117956, -0.238193780184, -0.176270365715, -0.015353582799, -0.216503873467, 0.208463326097, 0.028827814385, -0.103356577456, 0.162206217647, 0.150382310152, -0.146617010236, -0.066088184714, 0.017831254750, 0.111916072667, 0.003903543111, 0.032982610166, -0.142358973622, 0.087606266141, 0.115646250546, 0.054677646607, -0.207178652287, 0.024428129196, 0.020787037909, -0.171451732516, -0.137456014752, 0.131394252181, 0.028974574059, 0.195054024458, 0.095521174371, 0.125557973981, 0.131930515170, -0.155144661665, -0.015375217423, -0.177233755589, -0.071723215282, -0.009161232039, -0.216084405780, -0.047223161906, 0.051388446242, -0.028477111831, -0.085626877844, -0.178063198924, -0.039436884224, -0.080649897456, 0.200890451670, -0.007358558476, 0.117664411664, -0.165222629905, -0.187081485987, 0.211034879088, -0.075031667948, -0.194389298558, -0.181324660778, -0.109922483563, 0.036277726293, 0.190815612674, 0.090102478862, -0.008879676461, 0.189778104424, 0.199043378234, -0.049523249269, -0.086234822869, 0.063584759831, -0.098590433598, 0.144674554467, 0.036494418979, -0.077929198742, 0.188738927245, 0.119726672769, 0.033560290933, -0.038509011269, 0.205573245883, -0.067507863045, 0.186007276177, -0.108409270644, 0.011054962873, 0.017923191190, -0.211508944631, -0.147366389632, 0.044240072370, 0.087521389127, -0.030795872211, 0.015830859542, 0.158902272582, -0.197538375854, 0.143974289298, 0.099785104394, 0.155301377177, 0.010211199522, 0.006213501096, -0.106659844518, -0.133007377386, -0.054332643747, 0.018597811460, 0.159737572074, -0.017887786031, -0.011379599571, -0.065120324492, -0.134073525667, -0.073374226689, -0.067047998309, 0.211957886815, -0.059799686074, -0.004233539104, -0.143604636192, 0.215522840619, -0.187935203314, -0.162380784750, 0.146727755666, -0.207418844104, -0.171361282468, -0.176832258701, -0.148443549871, 0.198263481259, 0.151912152767, -0.006376962177, 0.058363448828, -0.130633741617, 0.077697589993, -0.025576842949, -0.207353919744, 0.136322513223, 0.128494918346, 0.037281569093, -0.132137522101, 0.180609345436, -0.179046034813, -0.061321467161, -0.127739384770, -0.175273984671, -0.048734590411, -0.093730896711, -0.140151262283, -0.132860064507, 0.083164103329, 0.029821200296, 0.057913817465, 0.146540731192, 0.183649674058, -0.049941971898, -0.003833612893, -0.153483629227, 0.009717553854, -0.062679469585, 0.013377979398, -0.192372232676, 0.037798330188, -0.167026102543, 0.060573443770, 0.136698916554, -0.100919693708, -0.124296709895, 0.091486617923, 0.038340255618, -0.134169027209, 0.186571940780, 0.043763890862, 0.214634075761, 0.054285511374, 0.140423193574, -0.201734751463, -0.173229634762, 0.073284402490, 0.125176861882, 0.174563124776, -0.089515686035, 0.115187272429, -0.194026574492, -0.030487760901, 0.046083137393, -0.039872840047, -0.058399051428, -0.188392236829, -0.003755852580, 0.033655568957, -0.086780905724, 0.141300156713, -0.074775576591, 0.147161975503, 0.167621836066, -0.061264112592, 0.124689623713, 0.089402273297, -0.030291244388, 0.001115843654, -0.204172775149, 0.070006951690, -0.155154466629, 0.061293855309, -0.064340099692, -0.026969134808, 0.161376759410, 0.146960720420, -0.105595514178, -0.129104405642, 0.078010961413, -0.159668624401, 0.194533422589, -0.208597630262, -0.069548830390, 0.029817849398, -0.145640611649, 0.084730073810, -0.158512920141, 0.059300825000, -0.091703511775, 0.014138743281, 0.119091689587, 0.193041309714, 0.124197177589, -0.153826132417, -0.245034262538, -0.150127902627, 0.064601764083, 0.004024904221, 0.184885859489, -0.135219424963, -0.204260587692, 0.242177292705, -0.039836287498, 0.109078176320, -0.076564818621, 0.225629433990, -0.124797001481, 0.214671075344, -0.070010125637, -0.102971822023, -0.109784699976, 0.058562800288, 0.054010022432, -0.153084978461, 0.048036754131, 0.204744786024, -0.136241018772, -0.111425422132, 0.000065356493, -0.029135106131, -0.135570749640, -0.201595231891, -0.139903247356, -0.205752477050, 0.159177348018, -0.099268913269, 0.104641601443, -0.007020458579, 0.118722096086, -0.215092241764, -0.082814648747, -0.186882376671, 0.121683642268, 0.160588845611, 0.212424919009, -0.006326749921, 0.032753691077, 0.015838861465, 0.140732541680, -0.001976236701, -0.066337049007, -0.108279496431, 0.102968707681, -0.152997732162, -0.143156945705, -0.010538205504, 0.104518935084, 0.129221335053, -0.129080355167, -0.110217489302, -0.193362593651, -0.030700013041, -0.103877313435, -0.156773597002, -0.222084775567, -0.145674198866, -0.058827191591, -0.004437264055, 0.140895873308, 0.047703418881, 0.119686082006, 0.177467256784, 0.347645133734, -0.227203041315, -0.281210035086, 0.399272441864, 0.249803796411, -0.339504212141, -0.415493309498, 0.037379130721, -0.072011217475, -0.221957132220, 0.014339119196, 0.063292711973, -0.027046987787, 0.082538381219, 0.057741329074, 0.049319610000, -0.028580961749, 0.005513432436, -0.095893114805, -0.298120528460, -0.169785663486, 0.042661197484, -0.141885399818, -0.199230268598, 0.177334934473, 0.195454761386, 0.055854465812, 0.239133164287, -0.044161166996, -0.106568716466, 0.056107476354, -0.069349177182, -0.010577105917, -0.105983920395, 0.118088290095, -0.189963266253, -0.016143256798, -0.202686861157, 0.022977078333, -0.172125548124, 0.194606825709, -0.107116915286, 0.090226151049, -0.069068796933, -0.160383909941, 0.025655478239, 0.130265206099, 0.061660088599, -0.010785988532, 0.127418786287, 0.048325199634, 0.106272459030, -0.061622768641, -0.139388456941, -0.160193920135, -0.224660009146, 0.104835167527, 0.254366159439, 0.034790750593, 0.161796092987, 0.163633927703, -0.085805878043, -0.079584524035, 0.138254582882, -0.204665765166, -0.004202113487, 0.045911028981, 0.003127833828, -0.158317536116, 0.006000238471, -0.143767043948, 0.063879773021, -0.162399321795, 0.072029478848, 0.004204196855, -0.052744921297, 0.040968421847, 0.111573889852, 0.010630697012, 0.231555163860, -0.121001213789, -0.205167770386, -0.139816924930, 0.185033440590, -0.031733334064, -0.220323964953, 0.006673953496, 0.064947560430, 0.143653377891, 0.108333125710, 0.087247297168, -0.036935240030, 0.204575315118, -0.155126914382, -0.022024497390, -0.206595629454, 0.049055889249, -0.096468523145, 0.066616728902, -0.187157154083, 0.149695858359, 0.202505365014, -0.006398454309, 0.094669952989, 0.099610939622, 0.041144892573, -0.006765723228, 0.092334255576, 0.045881465077, -0.167905747890, -0.040365442634, 0.085674718022, -0.210584342480, -0.149748817086, 0.071804061532, -0.213096022606, 0.061370208859, -0.146305665374, 0.213162705302, -0.115442723036, 0.187406897545, 0.119160674512, 0.168715640903, 0.282204091549, 0.156683921814, -0.143780708313, -0.087416380644, 0.006091814023, 0.178380936384, 0.088970042765, -0.028845159337, -0.089406542480, 0.151276081800, -0.111612476408, -0.065452218056, -0.044209696352, -0.129259631038, 0.052452672273, 0.154441833496, 0.036801032722, 0.226178348064, 0.209656551480, 0.158276155591, 0.168343156576, 0.141509786248, -0.215241774917, 0.085558488965, -0.090959466994, -0.061462447047, 0.148261576891, -0.064607463777, -0.189266994596, -0.067910671234, 0.036264672875, 0.077150993049, -0.010055128485, 0.068220794201, 0.220085710287, -0.101352885365, 0.194235637784, 0.014420247637, 0.035351298749, -0.206121370196, -0.018047330901, -0.286931365728, 0.070257604122, -0.180007904768, 0.037672698498, -0.145231992006, -0.220176860690, 0.047923937440, -0.146318256855, 0.042154639959, -0.020106062293, -0.050923049450, -0.034410409629, -0.131252989173, 0.104691147804, -0.024138679728, 0.105104126036, 0.092392429709, -0.049294427037, -0.106834843755, -0.104138717055, 0.114253029227, 0.005221217871, -0.003201782703, 0.170939102769, -0.101742297411, 0.153740331531, -0.061612084508, 0.066844716668, 0.198354676366, 0.025631949306, 0.189486041665, -0.184339776635, 0.081939235330, -0.152765840292, 0.071504727006, -0.076711922884, 0.116879567504, -0.063887253404, -0.198821946979, -0.062166675925, 0.130301550031, 0.021724790335, 0.081657603383, 0.150175079703, -0.128773182631, -0.033747971058, -0.122898295522, -0.000231355429, 0.055575683713, 0.156609013677, 0.083103880286, 0.320308834314, -0.212845623493, -0.057476546615, 0.133081853390, -0.050783559680, -0.057932782918, 0.041080437601, 0.014579355717, -0.002475100569, 0.184759944677, -0.180365264416, 0.161356419325, 0.073676131666, 0.223769724369, 0.014007546008, 0.023461971432, 0.169342860579, -0.157051682472, -0.128771543503, 0.108435325325, -0.200877174735, 0.163079231977, 0.011254265904, 0.042826112360, -0.109180577099, 0.155688047409, 0.192959368229, 0.215801462531, 0.075423687696, 0.019728064537, -0.154192820191, 0.040088888258, 0.193445399404, 0.106001310050, -0.074117496610, 0.227108538151, -0.008594402112, 0.115406714380, 0.153181150556, -0.151005178690, 0.023454962298, -0.192253381014, 0.049280963838, -0.150697767735, 0.084805592895, -0.043295469135, -0.116573818028, 0.077703461051, 0.007076498121, -0.076758116484, 0.182888537645, -0.093022391200, -0.019162451848, 0.037738375366, -0.155681148171, -0.158735543489, 0.235091999173, 0.101770840585, 0.038151316345, 0.048623830080, 0.151295691729, 0.040257498622, -0.020744694397, 0.074834965169, 0.072118289769, 0.128448441625, -0.007466658950, 0.055105488747, -0.083851769567, 0.066385254264, -0.156639218330, 0.057299003005, -0.006513006520, -0.032483696938, 0.039947427809, 0.279649287462, 0.128344923258, 0.024565661326, 0.203636914492, -0.222546875477, 0.099707990885, 0.103663966060, -0.000447481667, 0.170170173049, 0.293386250734, 0.163836687803, 0.048306688666, -0.056074902415, -0.151157990098, -0.109594345093, -0.228227034211, -0.173384621739, 0.008607929572, -0.199912548065, -0.046891644597, 0.071932584047, 0.189693614841, -0.216187343001, -0.153005212545, 0.159819290042, 0.017726063728, 0.077455386519, -0.127600699663, -0.135906934738, -0.014216005802, 0.005547091365, -0.130020916462, 0.194322034717, -0.134927362204, 0.170927539468, 0.180228665471, 0.019790306687, -0.143603444099, 0.084676280618, -0.111879982054, 0.034892424941, -0.006603732705, 0.192534998059, 0.157476201653, 0.016881927848, 0.160658672452, -0.046195983887, -0.036339253187, -0.045978918672, 0.074485316873, -0.122712418437, -0.162551656365, 0.150418892503, -0.004804819822, 0.049196854234, 0.051741793752, 0.153609111905, -0.103800043464, 0.101192817092, 0.108141377568, 0.198570355773, 0.169244274497, 0.154666557908, -0.131343856454, 0.166025504470, 0.014330968261, -0.057568967342, -0.128390982747, 0.035375669599, 0.186667695642, -0.020562484860, 0.028135582805, -0.166266173124, -0.139129787683, 0.115320518613, 0.124011829495, -0.081393420696, -0.118066489697, 0.001518636942, 0.176900491118, 0.054603025317, -0.184920281172, 0.089935824275, 0.199103459716, 0.001229315996, -0.242940977216, 0.259591668844, -0.108321532607, 0.048403043300, -0.009088941850, 0.060719739646, 0.031587511301, 0.180892691016, 0.004687292501, -0.148997902870, 0.404523760080, 0.054853048176, -0.034083530307, 0.007137317210, -0.341034233570, -0.129478529096, -0.009587448090, -0.033272400498, 0.136047333479, -0.190930366516, 0.304483890533, -0.111911527812, 0.097885414958, 0.082879140973, -0.102894097567, 0.180935829878, 0.005305235274, -0.150720298290, -0.299464911222, 0.127687469125, 0.324391931295, 0.085129201412, -0.129810437560, 0.134126722813, 0.198754772544, 0.040005967021, 0.180770978332, 0.203808113933, 0.081707179546, 0.046506360173, 0.157163634896, 0.032853890210, 0.165359050035, -0.066309586167, -0.321553170681, 0.028548298404, 0.125548154116, 0.179677531123, -0.109451651573, -0.168408155441, -0.243515148759, 0.011243060231, 0.122945725918, 0.112432971597, -0.019911572337, 0.049061164260, 0.093251928687, 0.207718506455, -0.322877794504, 0.257104843855, 0.202700465918, -0.157368272543, -0.166372433305, 0.217548474669, -0.155913591385, 0.104406192899, -0.164631024003, -0.014771074057, 0.135371908545, 0.112548097968, 0.023828223348, -0.066448584199, -0.094074375927, -0.095770172775, -0.055892735720, 0.106834992766, 0.012546077371, -0.188503384590, -0.152658730745, -0.170208111405, 0.185414656997, 0.054737642407, 0.131189718843, 0.027923375368, 0.168628618121, -0.047473028302, -0.013590186834, 0.078848138452, -0.072959318757, 0.076635107398, -0.075422212481, -0.067558407784, 0.208809837699, 0.209036335349, 0.188616618514, -0.213259294629, 0.054572697729, -0.001084102900, -0.522156953812, 0.111174322665, 0.067358873785, 0.157884985209, -0.197704866529, 0.040923342109, -0.262733548880, 0.139642387629, 0.233938768506, -0.070360571146, 0.218508005142, -0.058765307069, -0.143486216664, 0.115522682667, 0.286800265312, -0.178878575563, 0.159033685923, 0.147217318416, 0.146994248033, -0.144467517734, 0.185204759240, 0.161572113633, -0.142190814018, -0.069813832641, -0.097316831350, -0.172674447298, 0.005003836472, -0.146414935589, 0.076831206679, 0.108652934432, 0.167705506086, -0.013810425997, 0.144387304783, 0.050806466490, 0.146152660251, -0.110828779638, -0.228631749749, -0.029885470867, -0.104266852140, 0.122634530067, 0.121406517923, 0.060776147991, -0.084879823029, 0.110980413854, 0.214654117823, -0.114725217223, 0.189647749066, -0.186829477549, 0.006798600778, 0.075710766017, -0.138866603374, -0.050669971853, -0.071431741118, -0.204167872667, -0.017962211743, -0.204164668918, -0.143729284406, -0.039670314640, -0.088568404317, -0.113486014307, -0.058070547879, -0.015382396989, 0.181393250823, 0.231400445104, -0.241355568171, 0.226581245661, -0.121877148747, -0.113370105624, 0.090293787420, 0.068272039294, 0.152534574270, 0.019597573206, 0.102211274207, -0.192257896066, -0.183175742626, 0.010785321705, 0.104131065309, -0.194110214710, -0.031537707895, -0.184253424406, 0.258047491312, 0.153778702021, 0.176728501916, 0.152453899384, -0.056826263666, 0.187157317996, 0.232876583934, 0.007633437403, 0.110306166112, 0.205881133676, 0.103395245969, 0.136824563146, -0.211149707437, 0.186273276806, -0.266537010670, 0.004795810208, -0.237046793103, -0.041650839150, -0.111100748181, 0.112129963934, 0.156580790877, 0.007577538490, -0.008113680407, -0.057500295341, -0.131805077195, 0.186597287655, -0.085941791534, -0.129352942109, 0.101665548980, 0.226062119007, -0.218922317028, 0.176024094224, 0.053830634803, 0.109185397625, 0.103473454714, -0.059089168906, -0.063325896859, -0.064207144082, 0.241570800543, 0.064075775445, -0.129840925336, 0.148143634200, 0.152009665966, -0.210905671120, -0.093412637711, 0.085566811264, 0.188573792577, 0.062757655978, -0.056261867285, 0.147551432252, -0.214338913560, 0.119447872043, -0.127554297447, 0.174800977111, 0.170758530498, 0.156102314591, 0.024281635880, 0.033528909087, -0.015331342816, 0.098881915212, -0.199730753899, 0.024739548564, -0.000477328897, -0.094922378659, -0.096449583769, -0.073025643826, 0.023351773620, -0.207984745502, 0.179182007909, -0.084611505270, 0.049400284886, -0.014640942216, 0.078342363238, -0.181649699807, 0.100293442607, 0.111625239253, -0.109590627253, -0.044025138021, 0.063182070851, -0.113108932972, 0.124195381999, 0.050091221929, -0.184421449900, 0.039204224944, -0.086240395904, 0.163057371974, 0.139594390988, -0.024177372456, -0.120280019939, -0.127154141665, -0.013934269547, 0.122779890895, -0.199419066310, -0.141658186913, 0.080791130662, 0.110458746552, 0.165673628449, 0.170510813594, 0.195919349790, -0.019092679024, -0.090041890740, -0.009454920888, 0.199501976371, 0.181127354503, -0.202587038279, 0.103165075183, 0.097789868712, 0.002042472363, 0.020262673497, 0.172577574849, 0.196741864085, -0.247565090656, 0.314053177834, -0.160149931908, 0.082072421908, -0.014526824467, -0.239680126309, 0.169546827674, -0.203462183475, 0.158542737365, 0.008874813095, 0.052278801799, 0.254794389009, -0.198277205229, -0.205090999603, -0.222508087754, 0.152949512005, 0.042614653707, 0.123602017760, 0.206577628851, 0.120258167386, 0.045181054622, -0.024857819080, 0.028196647763, 0.162811785936, -0.123875610530, -0.100875064731, -0.129215076566, 0.011036691256, 0.200942620635, 0.361430019140, 0.061821971089, 0.111041530967, 0.203286841512, -0.048659965396, 0.091602697968, 0.076800748706, -0.122801713645, 0.133845105767, 0.156002357602, 0.168917998672, 0.212576732039, -0.190417617559, -0.131612062454, -0.053504005075, 0.173671498895, 0.157304361463, -0.154656812549, 0.121699169278, 0.121146962047, -0.203585922718, -0.033821016550, -0.163959830999, 0.074785903096, -0.050757914782, 0.092276796699, -0.015810787678, -0.037205368280, 0.053705170751, 0.003684207797, -0.081853389740, -0.155971035361, -0.101873256266, -0.096220754087, 0.112829878926, 0.003859505057, -0.174618184566, -0.168526053429, -0.167339384556, -0.014540538192, -0.151557803154, 0.087496176362, 0.008271083236, 0.037250742316, -0.121867619455, -0.102369472384, 0.171023949981, -0.206721469760, 0.142264291644, -0.003336399794, -0.123070962727, -0.094270996749, 0.024071455002, 0.210006371140, -0.017579212785, 0.173227205873, 0.131937637925, 0.081435427070, 0.095665290952, 0.176234528422, -0.138259887695, -0.046521753073, -0.078151166439, 0.015161618590, 0.154385104775, -0.010006934404, -0.372914791107, 0.217174753547, 0.301220297813, -0.139382943511, 0.308467596769, -0.067633919418, 0.008322700858, -0.172693416476, -0.183567553759, -0.036066818982, -0.268426686525, -0.224415421486, -0.071521483362, 0.012341205031, 0.223953694105, -0.036807969213, 0.045678988099, -0.003367379308, -0.154000580311, -0.018747463822, 0.305318236351, -0.213853314519, 0.160247996449, -0.038878455758, 0.373883277178, 0.127002313733, -0.134546205401, -0.228975057602, -0.027197636664, 0.067409172654, -0.020754439756, 0.084399357438, -0.138564109802, 0.027030469850, 0.208483874798, 0.223102033138, -0.154250711203, -0.257105916739, -0.046142507344, -0.203860223293, 0.210253655910, 0.269191861153, -0.024270458147, 0.009576515295, -0.014423697256, 0.084745645523, -0.158739656210, 0.104060128331, 0.214122056961, 0.146798148751, -0.000029900972, -0.089877523482, 0.186736658216, -0.081907294691, 0.153083100915, -0.159234464169, -0.118399016559, -0.010731454939, -0.061891742051, 0.176860809326, -0.087770424783, -0.070523604751, 0.049771208316, -0.073349848390, -0.166292816401, -0.074017643929, -0.080445423722, 0.138558164239, -0.102031148970, 0.146954476833, -0.029278611764, 0.040966644883, -0.198454469442, 0.020632537082, 0.131051570177, 0.193590283394, 0.060139633715, -0.068453438580, -0.097517058253, -0.072360485792, 0.040628962219, 0.016656458378, 0.021028295159, -0.127857625484, -0.152780786157, -0.100207291543, -0.214714393020, -0.043083846569, 0.182745441794, 0.178100168705, -0.108051277697, 0.157189354300, -0.207562938333, -0.188203215599, -0.205363243818, -0.020845754072, 0.333941400051, 0.232006177306, -0.162836626172, -0.045883044600, -0.029643949121, 0.092244192958, -0.084199488163, 0.086986914277, -0.694174528122, -0.011176529340, 0.228907316923, -0.094755396247, 0.051730915904, -0.250207185745, 0.536888003349, 0.053820837289, -0.211369216442, 0.130873307586, 0.007175622042, -0.153017118573, 0.391081243753, 0.337357223034, -0.064526394010, 0.000022266595, -0.436096727848, 0.292821526527, -0.300048291683, -0.072993859649, -0.309911072254, 0.008388310671, 0.151096314192, 0.288248956203, 0.205814152956, 0.109839178622, 0.048202548176, 0.044292859733, -0.103728950024, -0.189848601818, -0.160406157374, 0.084984198213, -0.124920181930, 0.044340677559, 0.107709780335, -0.187907576561, 0.122613511980, -0.191625148058, 0.190972164273, -0.024017753080, -0.168642818928, -0.190906971693, 0.155758231878, -0.108227036893, 0.024204075336, 0.081490807235, -0.111797705293, 0.153213039041, -0.109511591494, 0.132838055491, -0.043003119528, -0.068073615432, 0.001765031950, 0.206466570497, 0.076116710901, 0.176512733102, -0.168039932847, -0.174868732691, -0.093850888312, -0.009488470852, 0.138784110546, 0.025451894850, 0.073207601905, 0.156590268016, 0.018784044310, 0.174605876207, -0.057690702379, -0.128694608808, 0.213580414653, -0.090927258134, -0.167992159724, -0.067652076483, 0.059905491769, 0.069977983832, 0.140100985765, 0.192956924438, -0.026847915724, 0.005122715607, -0.097521349788, -0.221006795764, -0.038786586374, -0.041113309562, -0.025365008041, 0.008869451471, -0.197317153215, -0.038994178176, 0.069749265909, -0.165668830276, -0.015573075041, -0.016528852284, -0.112540669739, 0.225264698267, 0.041367460042, -0.169005453587, -0.062900319695, -0.132471784949, 0.134920537472, -0.003934503067, 0.209533244371, -0.144475102425, -0.201523005962, -0.273038625717, 0.168235927820, 0.218340098858, -0.109587498009, -0.216373369098, 0.143331289291, -0.020180745050, -0.012624529190, -0.128600791097, -0.020268559456, 0.087863758206, 0.154023885727, 0.279191315174, 0.127549335361, 0.228587776423, 0.218752786517, -0.006674617529, 0.156411349773, 0.125755101442, -0.071427568793, 0.157383203506, 0.082252018154, -0.227333396673, -0.180829063058, 0.047432955354, 0.046565949917, -0.200850993395, 0.169288709760, -0.137855932117, 0.032033473253, 0.066059760749, -0.120317958295, 0.101708687842, 0.000763277290, -0.031400918961, 0.159612283111, 0.086172625422, 0.000115586394, -0.029916729778, 0.055532559752, 0.041578289121, 0.152336135507, -0.215602740645, -0.148100122809, -0.262007981539, 0.204339802265, -0.050232607871, 0.054340098053, -0.090530976653, 0.148282110691, -0.219282731414, 0.027659054846, 0.095152653754, -0.153211027384, 0.162979215384, 0.070059195161, 0.199861362576, 0.160030752420, -0.160212114453, 0.149167463183, -0.029557675123, -0.130152732134, -0.053948864341, -0.027450572699, -0.013951255009, -0.183055296540, 0.002017090097, -0.044584527612, 0.120961144567, -0.218132615089, -0.211624965072, -0.066309452057, 0.038949348032, 0.094700202346, -0.109102822840, 0.132485598326, -0.085836768150, 0.213598638773, -0.020625041798, 0.141765654087, -0.141705006361, -0.166738316417, 0.068938553333, -0.111986331642, -0.144017994404, 0.023948142305, 0.173495799303, -0.004442790989, 0.169799506664, -0.194691866636, 0.127198591828, -0.066776514053, -0.119125582278, -0.181061968207, 0.125612840056, 0.173445269465, 0.198379218578, -0.119534015656, -0.018247146159, 0.025133738294, -0.007491797209, 0.170897781849, 0.122340455651, -0.236227124929, 0.112613581121, 0.080734536052, -0.057422157377, -0.134621083736, -0.038460917771, 0.146565765142, -0.127010300756, -0.115565545857, -0.046590238810, 0.104277372360, -0.096341989934, -0.107406742871, 0.205864876509, 0.092561259866, -0.064860992134, 0.099558629096, 0.112074211240, 0.225646093488, -0.152850806713, 0.063808731735, 0.138904929161, -0.201060354710, 0.103068731725, -0.159668177366, 0.134223148227, 0.195378929377, 0.182349637151, -0.111783057451, 0.193825110793, 0.131111994386, -0.177205711603, 0.050516709685, 0.016112931073, -0.111078388989, -0.006583765149, -0.091847337782, -0.019534086809, -0.090627849102, 0.096899405122, 0.164343833923, -0.102695547044, -0.118385426700, 0.037698727101, -0.200417488813, -0.099066875875, -0.193951517344, 0.133634254336, 0.188208416104, -0.139617010951, 0.214345410466, 0.110177174211, -0.168704554439, -0.147500962019, 0.090137377381, -0.007978051901, 0.040421411395, 0.059447750449, -0.155971348286, -0.067647233605, -0.139048218727, 0.180138871074, 0.179799243808, 0.159304037690, -0.197492748499, -0.166411221027, 0.192339107394, -0.021053284407, -0.097009904683, 0.180581375957, 0.213856115937, 0.092750445008, -0.068467259407, 0.055764034390, -0.205328330398, 0.088139370084, 0.050113111734, 0.169457063079, -0.085863873363, 0.040841009468, -0.043018806726, 0.056078415364, 0.179654583335, -0.012817963958, 0.094470344484, 0.026608325541, -0.032293606550, -0.026952756569, 0.076573610306, 0.025276165456, -0.124306887388, 0.148836389184, -0.102781854570, 0.158135131001, 0.209582865238, 0.109744802117, 0.233992129564, 0.028513209894, -0.129052907228, -0.073453515768, 0.184942752123, 0.027032647282, 0.040149901062, 0.220696687698, 0.085798561573, 0.003260478377, -0.143161997199, 0.166527003050, -0.225412249565, -0.080054655671, 0.058146134019, 0.061826631427, 0.095786079764, 0.122507333755, 0.234328672290, 0.199122533202, 0.050722431391, -0.117473661900, -0.063838355243, 0.192937925458, -0.008601346053, -0.062955699861, -0.228078007698, 0.003297274234, 0.148424029350, -0.126417905092, -0.151593893766, 0.174000367522, 0.142641693354, -0.341767877340, 0.154410287738, 0.059364795685, -0.148479372263, -0.012842011638, 0.018339557573, -0.179599136114, -0.073435358703, -0.036085903645, -0.251397192478, 0.124305367470, 0.006189455744, 0.068499825895, 0.179138541222, -0.033674091101, 0.058502350003, -0.357246309519, 0.198361918330, 0.053709700704, -0.109463602304, -0.077642112970, -0.232512921095, 0.112203709781, -0.307415783405, -0.128156870604, 0.065498717129, -0.056707371026, 0.149454638362, 0.087906703353, -0.172905817628, -0.084252893925, -0.060926686972, 0.029991364107, -0.128204375505, -0.198835209012, 0.354070097208, 0.135186091065, 0.088485442102, -0.009392365813, 0.088455788791, 0.088471129537, -0.036599092185, 0.096703663468, -0.065897136927, -0.168970853090, -0.100721217692, 0.153616026044, -0.216166123748, 0.202629640698, 0.073494508862, -0.015254586935, -0.198103100061, -0.144672691822, 0.169246181846, 0.174849972129, 0.091735050082, -0.159064158797, 0.060307785869, -0.083195328712, 0.054683879018, 0.077258989215, 0.215482220054, -0.003946796060, 0.020211115479, -0.004368066788, -0.057292804122, 0.168411001563, -0.096106261015, -0.080940708518, -0.122303538024, 0.116295799613, -0.014476746321, -0.044455021620, -0.155493140221, -0.044226914644, -0.209587886930, -0.147961035371, 0.011315122247, -0.149742469192, -0.146076589823, 0.203084334731, -0.062961921096, -0.156999349594, 0.136902615428, 0.205433413386, -0.209788993001, -0.040847048163, -0.096328847110, -0.169585794210, -0.091416716576, -0.185643211007, 0.083196684718, 0.212258085608, 0.131825938821, -0.110900670290, 0.077864065766, 0.007306113839, 0.034984931350, 0.000892758369, -0.202163562179, 0.083425924182, -0.174148976803, -0.071954384446, 0.097188875079, 0.076907142997, -0.166451573372, -0.126929387450, 0.031970053911, 0.202227815986, 0.013873308897, -0.209516808391, -0.127525329590, -0.019516423345, 0.068638160825, 0.121435299516, -0.050093889236, -0.199939966202, -0.037328064442, 0.182161346078, -0.189193069935, -0.188578382134, -0.087991580367, 0.039076104760, -0.172803670168, 0.212277486920, 0.051078274846, -0.169536545873, -0.097564086318, 0.127970352769, -0.179156497121, -0.009292110801, -0.137522310019, -0.015972614288, -0.069378539920, -0.099996022880, -0.117602847517, -0.025415554643, -0.172512695193, -0.107950165868, 0.007367833517, -0.184951975942, -0.051836483181, -0.087781630456, -0.186618238688, 0.031476758420, 0.010728728026, 0.099513903260, -0.016612740234, 0.127001255751, -0.122321590781, 0.000074258489, 0.107286058366, -0.185436174273, 0.160621896386, -0.034108474851, -0.155565664172, 0.012096121907, -0.188381180167, 0.156565651298, -0.246637329459, 0.052651140839, -0.014527529478, 0.116368703544, 0.184258058667, -0.169488534331, -0.075367614627, -0.064234316349, 0.161386713386, -0.098544850945, -0.236588791013, 0.071903213859, 0.198300197721, 0.073255755007, -0.184121519327, -0.187615945935, -0.143752858043, 0.181906044483, 0.129627943039, -0.158670559525, -0.129289135337, -0.002290697535, 0.084123790264, 0.113310702145, 0.119644276798, 0.159130305052, 0.154676139355, 0.092604435980, 0.091983810067, -0.156305223703, 0.021839585155, -0.026456749067, 0.215414315462, 0.160571634769, -0.030815333128, 0.019029561430, -0.036929473281, 0.197179123759, 0.187012925744, 0.124639406800, 0.062057580799, 0.185349747539, 0.080163754523, 0.045717209578, 0.053798709065, 0.026666322723, 0.184434443712, 0.113066598773, -0.258271515369, 0.063192792237, -0.034652963281, -0.039531022310, 0.033542323858, 0.121205709875, 0.324813276529, -0.202986225486, 0.058649931103, 0.107668049634, -0.194450512528, 0.188589647412, 0.133384138346, 0.172948583961, 0.170765995979, 0.138680264354, 0.041947782040, 0.175113171339, 0.005506113172, -0.104003444314, 0.134297296405, -0.132070168853, -0.060135643929, 0.029974002391, -0.147067084908, 0.035596504807, -0.084910407662, 0.049095846713, 0.134339019656, 0.215717449784, 0.165164306760, 0.124869570136, -0.082773551345, -0.136954441667, -0.135149687529, 0.119647219777, 0.206259652972, -0.092886105180, 0.046790823340, -0.189048841596, 0.081743016839, 0.086837723851, 0.003305539489, -0.189338892698, 0.020613372326, 0.007492676377, -0.033257737756, 0.189289912581, 0.097786203027, 0.016871303320, 0.172915026546, 0.083211347461, -0.141631871462, -0.123599901795, -0.162032514811, 0.181794479489, -0.207892403007, 0.099291726947, -0.037972018123, -0.128501504660};
