//Numpy array shape (32, 32)
//Min -3.223938465118
//Max 0.725557982922
//Number of zeros 0

static weight_default_t w3[1024] = {-0.677753746510, 0.248613938689, 0.261910647154, -0.460111528635, -0.196359902620, -0.280609220266, -0.594992518425, 0.143061757088, -0.608492076397, 0.307093620300, -0.039618182927, -0.190234079957, -0.001033089124, 0.107253007591, -0.164544090629, 0.121394917369, -0.098174631596, -0.319721490145, -0.242337629199, -0.409640401602, 0.019228925928, -0.000513337553, 0.600729286671, -0.480356931686, 0.725557982922, -0.187781125307, -0.391795247793, -0.052907936275, 0.262235701084, 0.076353549957, -0.187168002129, -0.269100070000, -0.007847248577, 0.332697540522, -0.042927641422, -0.306463181973, -0.230322912335, 0.123760826886, -0.122980959713, -0.255460679531, 0.118704065681, 0.262052476406, 0.094276539981, -0.278774976730, -0.071040518582, 0.290896296501, -0.079652883112, 0.372993618250, 0.241468280554, 0.114833705127, 0.086692586541, -0.313322007656, -0.325908154249, -0.210163578391, -0.128824859858, 0.031519729644, -0.278288245201, 0.112438179553, 0.107772737741, -0.031614009291, -0.091138437390, 0.134124189615, 0.281584084034, 0.064017772675, -0.237924203277, -0.188195914030, -0.124577298760, 0.068949118257, 0.006980084348, -0.146539598703, 0.043638873845, 0.120283842087, 0.100953102112, 0.215730041265, 0.393077492714, 0.115053147078, -0.487701833248, 0.043931510299, -0.185045138001, -0.098198667169, 0.199458941817, -0.286848157644, 0.052586555481, -0.169410049915, 0.178621783853, 0.297428846359, -0.134397804737, -0.263331651688, -0.107601910830, -0.050584934652, -0.253552883863, 0.018859585747, -0.110840491951, 0.224054604769, -0.042121998966, 0.064923197031, 0.254573494196, 0.106987871230, -0.293750405312, 0.078156411648, -0.278913795948, 0.195331290364, -0.043771050870, -0.143654450774, -0.276874929667, 0.257002115250, 0.142309591174, -0.113141998649, -0.085980050266, 0.035988409072, 0.217991292477, 0.254715830088, -0.129543125629, 0.230823099613, 0.016797428951, 0.209687709808, -0.104423098266, -0.103126928210, 0.047715749592, 0.311458677053, -0.273814380169, 0.071421705186, 0.291348993778, 0.105091005564, 0.281887114048, 0.024144276977, 0.121524572372, -0.075655519962, -0.028539877385, -0.308935284615, -0.039419915527, 0.306964695454, -0.258710533381, -0.061186790466, -0.208610117435, -0.159146025777, -0.233648389578, -0.308614224195, 0.055120486766, 0.277606099844, -0.169040605426, 0.116859450936, 0.281421780586, 0.051095534116, 0.128176331520, -0.089539401233, -0.061851061881, 0.235944181681, -0.116084672511, -0.057042147964, 0.201236367226, 0.293938696384, -0.119808070362, -0.156817808747, -0.053503595293, -0.028204757720, -0.051946744323, 0.202502563596, 0.136939689517, 0.090223044157, 0.266962319613, -0.302209943533, -0.135196983814, -0.187938824296, 0.249165520072, 0.071802578866, -0.006512851920, -0.205383285880, 0.147794589400, -0.001394231222, -0.112705081701, 0.073374241590, 0.096164740622, 0.281073659658, 0.026420038193, -0.171435102820, 0.175310924649, 0.146008878946, 0.066855400801, 0.003443366382, 0.273587256670, -0.048722259700, -0.096664950252, 0.058397255838, 0.276536166668, -0.138413801789, 0.024188369513, 0.120020881295, -0.219707518816, 0.024759542197, 0.035453218967, 0.036952048540, 0.511975467205, -0.307862997055, -0.022061258554, 0.070061683655, -0.010365809314, 0.086368694901, -0.203311964869, -0.296407669783, 0.342527657747, -0.064850419760, 0.250581681728, 0.151717275381, -0.152807131410, 0.028319735080, -0.235352411866, 0.253990828991, -0.030093768612, 0.106393381953, 0.499877601862, -0.080373950303, 0.019627997652, -0.125367075205, -0.181268960238, 0.309114545584, -0.677100777626, 0.034292358905, -0.242937937379, -0.057800907642, 0.076201215386, 0.021925911307, -0.269027739763, -0.278956770897, 0.013120442629, -0.075658947229, -0.042353928089, -0.218503385782, 0.060267895460, 0.057688206434, -0.148797765374, -0.128376096487, 0.111973762512, 0.025105237961, -0.221406161785, -0.099256783724, -0.060851156712, -0.092266634107, -0.120930626988, -0.113091185689, -0.215078711510, 0.121583849192, -0.008860141039, 0.230386048555, 0.125423222780, 0.305555015802, 0.097671866417, 0.022924929857, -0.172796025872, 0.183403998613, 0.170264065266, 0.026496261358, 0.094035804272, 0.176700234413, 0.167318433523, -0.102505818009, 0.131305187941, 0.177311852574, -0.300894141197, -0.066895373166, -0.072629846632, -0.244307890534, -0.143848240376, -0.140668138862, -0.036382604390, -0.212830752134, 0.258217692375, 0.064397513866, -0.499214172363, -0.513820469379, 0.125527963042, -0.095279991627, -0.024093313143, 0.004838348366, 0.192869126797, 0.255963027477, 0.283537358046, -0.226989760995, -0.584334731102, 0.365448087454, -0.497972548008, 0.072510629892, 0.037432558835, 0.278959751129, -0.172877416015, -0.188607081771, -0.169780626893, -0.172437727451, -0.034014426172, 0.084390662611, -0.040917951614, 0.125378310680, -0.064608529210, -0.025840910152, 0.195119708776, 0.116477161646, 0.136503830552, 0.125343590975, -0.083559729159, 0.264928370714, 0.172072991729, 0.120653539896, -0.097948022187, -0.094617307186, 0.146105170250, 0.244858458638, -0.290642857552, -0.153140723705, -0.167311891913, 0.413026481867, -0.050768267363, -0.026055756956, 0.323907554150, -0.151340961456, -0.213174790144, 0.032124072313, -0.213092565536, -0.078475154936, 0.328228652477, 0.104745537043, 0.030414998531, -0.071067757905, 0.051486440003, -0.192121431231, 0.271192580462, 0.024995960295, 0.163781359792, -0.192588269711, -0.329056382179, -0.133566185832, -0.255221217871, -0.241809219122, 0.155399978161, 0.179173126817, -0.384485810995, 0.055598136038, 0.194280296564, -0.048418056220, -0.067573450506, 0.105466604233, -0.421819269657, 0.021304445341, 0.144356906414, -0.342702209949, 0.333173543215, 0.051964666694, 0.261735558510, -0.257705599070, 0.093049742281, -0.084484696388, 0.368585616350, 0.108190804720, 0.013966413215, 0.281937092543, 0.011513662525, 0.186791077256, 0.272586762905, 0.005493546370, 0.235487818718, -0.108242347836, -0.283918291330, -0.260556250811, -0.188302204013, -0.252611547709, -0.100346595049, -0.278987616301, 0.126694634557, -0.230661913753, 0.189244806767, 0.234866857529, -0.020543303341, 0.245628073812, -0.029376095161, -0.139164119959, 0.171486318111, 0.199140638113, 0.124085329473, -0.150564298034, -0.096973903477, -0.278695911169, 0.270145595074, -0.331408560276, 0.073132738471, -0.117787882686, -0.354641377926, -0.212340578437, -0.103265412152, 0.259704828262, -0.081931792200, -0.229287371039, -0.230472445488, 0.115540415049, 0.115643613040, -0.296360075474, 0.028455948457, 0.233617812395, 0.149701863527, 0.052285872400, 0.191766858101, -0.132368192077, -0.127605170012, -0.156022205949, 0.096317455173, -0.030202420428, 0.021644992754, 0.180562049150, -0.101350143552, -0.123148031533, 0.096344120800, 0.058152250946, -0.061563357711, 0.116932958364, 0.038801658899, -0.223839417100, -0.278086006641, -0.251466095448, -0.259214639664, 0.204966619611, 0.030126379803, 0.152624309063, -0.267139047384, -0.231163561344, 0.044978350401, -0.275551050901, -0.053042266518, 0.139439478517, -0.021297104657, -0.275849789381, -0.247450694442, -0.196170344949, -0.269357502460, -0.133056536317, 0.140416279435, 0.151156961918, -0.043405856937, 0.220663502812, 0.308938026428, 0.066762834787, 0.027257563546, -0.302125334740, 0.199853733182, 0.161546751857, 0.227279752493, -0.013752155006, -0.274702280760, -0.163722053170, 0.087475538254, -0.164998114109, -0.204938754439, 0.317310452461, -0.100893393159, 0.100260309875, 0.210140854120, -0.226185873151, -0.210957869887, -0.245996162295, -0.305341005325, -0.206263571978, 0.288935065269, 0.246827334166, 0.313057571650, 0.077532775700, -0.167551934719, 0.059199851006, -0.357136756182, -0.017160518095, 0.116275511682, -0.304200887680, -0.221105664968, -0.177865609527, -0.209988713264, -0.204798415303, -0.039466015995, 0.089526370168, 0.223223567009, -0.113969080150, -0.033466130495, -0.078586108983, 0.229666322470, 0.072566866875, 0.196077197790, -0.138499528170, 0.296314418316, -0.265630692244, 0.282703161240, -0.221060961485, -0.132592901587, -0.161438748240, 0.008444434032, -0.056040294468, 0.193914145231, -0.276279389858, -0.153481602669, -0.152402594686, -0.224257081747, 0.289435744286, -0.045506127179, 0.072543904185, 0.081231690943, -0.230140641332, -0.122406318784, -0.068644948304, -0.244367048144, 0.031163044274, -0.172014713287, 0.133427023888, 0.255411654711, 0.039776716381, 0.298601776361, -0.305584371090, 0.166004255414, -0.116980507970, -0.211026534438, 0.002670468530, -0.273592859507, 0.265159457922, -0.015245107003, 0.224987342954, 0.172242775559, -0.004731595516, -0.075706534088, -0.028885543346, 0.116016358137, -0.183620393276, 0.295828610659, -0.045936293900, 0.181324169040, 0.000530669931, 0.175686389208, -0.078284695745, -0.363945513964, 0.256888777018, -0.030289001763, 0.332743704319, 0.298260837793, -0.132838547230, -0.096350207925, -0.086039692163, -0.161166161299, 0.307609915733, -0.049875285476, -0.004851279315, -0.202801927924, -0.208730429411, 0.102414280176, -0.201034724712, 0.026293009520, 0.231475800276, -0.014269709587, -0.123017132282, -0.203180581331, -0.274522274733, -0.033606052399, -0.188731670380, 0.119881987572, -0.278310567141, 0.173779785633, -0.147555515170, -0.290420234203, 0.189621686935, 0.222572594881, -0.233376353979, -0.025827437639, -0.115440413356, -0.123316794634, -0.073810786009, 0.103270798922, 0.188698381186, 0.215131253004, -0.282248646021, -0.298854798079, -0.169053360820, 0.025952547789, 0.002117812634, 0.064382791519, 0.081511765718, -0.174343317747, 0.186374366283, 0.160874128342, -0.290212631226, -0.241953879595, 0.269069254398, 0.143971443176, -0.023400455713, 0.047484435141, 0.177575960755, -0.110602758825, 0.080095469952, -0.134590357542, 0.164630427957, 0.205343171954, 0.213905692101, 0.119064740837, -0.051036715508, -0.143237888813, -0.178719654679, -0.262138307095, 0.139402911067, -0.310026168823, -0.098221011460, 0.121001370251, 0.281257987022, 0.031385347247, -0.019215933979, 0.106497511268, 0.218629643321, 0.039381314069, -0.123826339841, -0.202400147915, 0.110455088317, 0.002962927800, -0.177880883217, 0.278124988079, 0.087896928191, -0.061222646385, 0.183987587690, -0.234313085675, -0.113248206675, 0.013444051147, -0.103846043348, -0.036701574922, -0.019910169765, -0.005398216657, -0.014327215962, 0.228375971317, 0.253379970789, -0.082382507622, 0.150825545192, 0.131912574172, -0.259005576372, 0.200740456581, 0.012947580777, 0.059007350355, 0.223509430885, -0.156857863069, -0.151297956705, 0.064660459757, -0.031273521483, 0.309811085463, -0.093226656318, -0.032031133771, -0.268290609121, -0.158770412207, 0.357980132103, 0.205108523369, 0.032849308103, 0.327147275209, 0.151540100574, -0.087475165725, -0.128821656108, 0.222161725163, -0.228139072657, -0.095054686069, 0.293015390635, 0.010154264048, 0.344781875610, -0.034258998930, -0.340696960688, -0.270343154669, -0.109739266336, 0.138067007065, 0.106512427330, 0.097345314920, 0.040704794228, -0.128747135401, 0.389921665192, -0.104028932750, -0.114158950746, -0.004654669669, 0.261579304934, -0.050063475966, -0.020169585943, 0.230107486248, -0.514347374439, 0.193561345339, -0.257959127426, -0.064689390361, 0.129824787378, 0.158910721540, 0.097725242376, 0.089406274259, -0.268966764212, -0.007975563407, -0.232622399926, -0.237449675798, 0.095623813570, 0.208455950022, -0.049087647349, 0.283057123423, -0.235159873962, -0.385685801506, 0.390363097191, 0.184081286192, 0.104800701141, 0.088590770960, -0.169977158308, 0.148968592286, -0.280637621880, 0.182438969612, 0.318167209625, 0.190437585115, -0.267754405737, 0.071777090430, -0.230644732714, 0.301305919886, 0.006281912327, 0.121807456017, -0.134683191776, 0.279881685972, -0.143094524741, -0.017919063568, -0.157302692533, -0.096528321505, -0.138625442982, -0.247198849916, 0.208975285292, 0.211217194796, -0.098028704524, 0.171419233084, 0.291437059641, -0.091392591596, -0.193824023008, -0.100641980767, 0.249500840902, 0.234357982874, -0.067472890019, 0.015854895115, 0.005238592625, -0.279969334602, -0.161198645830, 0.153695017099, 0.106686860323, -0.203754276037, 0.288538187742, 0.226148575544, -0.197711378336, 0.088027119637, -0.113406024873, -0.276240199804, -0.024259388447, 0.238956853747, -0.002374523086, -0.112050071359, -0.077934220433, 0.087668687105, -0.267350763083, 0.155124247074, -0.222364515066, 0.042601317167, 0.188179880381, -0.262349873781, -0.021633805707, -0.204600408673, -0.211744546890, 0.276005119085, -0.150248259306, 0.288722038269, -0.290590405464, 0.111212812364, -0.238646060228, -0.167248323560, 0.093031182885, -0.229154542089, -0.277771979570, -0.278994470835, -0.262289881706, 0.259675025940, -0.191529259086, 0.339630156755, -0.287505745888, -0.005876947660, -0.114417657256, 0.326511740685, 0.333983868361, -0.126850053668, -0.018515914679, 0.078870698810, 0.183596163988, -0.239876121283, -0.109845578671, -0.290009021759, 0.288648873568, -0.048680596054, -0.076822884381, -0.067006595433, 0.213257864118, 0.451265096664, -0.120715774596, 0.317606121302, -0.224047169089, -0.275739431381, 0.010648226365, -0.440120577812, 0.062293849885, 0.101618632674, -0.087159603834, -0.082783602178, -0.170400187373, 0.285928577185, 0.029782742262, 0.093555673957, 0.001099656103, -0.300323307514, 0.251652926207, 0.041065547615, -0.306774049997, -0.055849209428, -0.246904283762, -0.189475670457, -0.256460785866, 0.174633458257, -0.180473923683, 0.445292413235, 0.172392562032, -0.176728323102, 0.033202752471, -0.023640593514, -0.440608620644, 0.219367146492, -0.210910543799, -0.477771639824, 0.181817233562, 0.639707922935, -0.217221021652, 0.535122334957, -0.010198227130, 0.175556972623, 0.267920196056, 0.474663078785, -0.242681890726, -0.019895941019, -0.231008872390, -0.056652776897, 0.182198777795, 0.187168374658, -0.231996148825, 0.250935435295, 0.319654822350, -0.014155219309, 0.049010485411, 0.118893332779, 0.243885785341, 0.265548884869, -0.218100696802, 0.041202221066, -0.236402407289, -0.257422327995, -0.290767908096, -0.226358830929, 0.202340453863, 0.089458636940, 0.017050571740, 0.304495364428, 0.251178264618, 0.297359883785, -0.024408137426, 0.181877687573, 0.012776317075, -0.220550611615, 0.232485368848, 0.028859179467, 0.123654544353, 0.138836249709, 0.203162223101, -0.098388463259, -0.090218730271, -0.146085366607, 0.050791233778, 0.083214610815, 0.239873081446, 0.271148383617, 0.200955003500, 0.151034533978, -0.120938919485, -0.237938031554, -0.000039726496, 0.162391722202, -0.200524643064, 0.240655913949, 0.282010108232, -0.140480458736, 0.220542207360, 0.255470097065, 0.218261480331, 0.200853124261, -0.221739336848, -0.177177503705, 0.123905859888, -0.369201600552, 0.334362864494, 0.123090513051, -0.299668222666, 0.219029664993, 0.140597820282, 0.181552350521, -0.131882160902, 0.489518046379, 0.141703873873, -0.209105789661, -0.158813208342, 0.123410180211, -0.205998495221, -0.206296563148, -0.286836802959, 0.185686305165, -0.202186211944, -0.018839806318, -0.015011966228, -0.383569598198, -0.243177577853, 0.161901786923, 0.326167583466, -0.025611918420, 0.067854546010, 0.004788895138, -0.042797412723, 0.283785521984, -0.104882963002, -0.293115913868, 0.074132554233, -0.527295589447, 0.123881503940, -0.052826199681, -0.096564307809, 0.052522849292, -0.107030332088, -0.162305116653, 0.280488103628, 0.059992223978, 0.136588424444, 0.101028800011, 0.204796463251, 0.087822854519, -0.056570053101, -0.234562098980, 0.052857905626, -0.128433912992, -0.125887006521, -0.156052917242, 0.028696060181, 0.244962722063, -0.143985137343, -0.027395099401, -0.226954996586, -0.123945415020, 0.214732557535, -0.273875415325, -0.090014129877, 0.041894674301, -0.205772817135, -0.011832565069, -0.214612305164, -0.204109877348, -0.236673995852, -0.112062901258, 0.001270800829, 0.173605740070, -0.186522156000, -0.229996129870, -0.012143641710, 0.108591511846, -0.960500836372, -0.281919032335, -0.155255973339, 0.119500286877, -0.680199980736, 0.000775199034, 0.028755098581, 0.113938815892, -3.223938465118, 0.449563801289, 0.033833384514, 0.404426068068, 0.334171563387, -1.663647651672, -0.080054759979, 0.022426307201, -0.020422291011, -1.366336941719, 0.004652778618, 0.000047290934, 0.192862376571, 0.159493952990, -1.791752934456, 0.613523066044, -0.488186597824, 0.118433155119, -0.484520226717, 0.199382960796, -0.000056235236, 0.446921586990, -0.239524662495, 0.408815532923, 0.215206250548, -0.129422783852, 0.165944010019, 0.177365943789, -0.078121691942, -0.311890453100, 0.047239333391, 0.075653724372, 0.241285547614, 0.260444611311, 0.116230994463, -0.263562530279, 0.007174004335, -0.015229661949, 0.345682114363, -0.117228418589, 0.106102615595, 0.069772429764, 0.164398610592, -0.345400869846, -0.356055140495, 0.055261310190, 0.078147090971, -0.086968861520, 0.383412599564, 0.166692987084, -0.162748992443, -0.093236200511, 0.207432240248, 0.010616365820, -0.258989006281};
