//Numpy array shape (32, 5)
//Min -2.136852025986
//Max 1.330190062523
//Number of zeros 0

static weight_default_t w4[160] = {0.339540362358, 0.397142082453, 1.330190062523, -2.136852025986, 0.459608823061, -0.656820774078, -0.465638637543, 0.125991359353, -0.097415097058, 0.021129958332, 0.109870582819, -0.263106644154, 0.295647799969, 0.297525525093, -0.022876759991, 0.215282961726, -0.088577233255, 0.110237337649, 0.108636319637, -0.629661202431, 0.204764425755, -0.040485803038, -0.038624815643, 0.119778513908, 0.317964166403, 0.063611142337, 0.016268260777, -0.341986179352, 0.230642423034, -0.141810238361, -0.025971746072, -0.020457647741, 0.183077529073, 0.082517892122, 0.149978816509, -0.206507712603, 0.301526039839, 0.047053843737, 0.021939992905, 0.288557618856, 0.743768811226, 0.361532241106, -0.030520327389, 0.412721455097, -1.190998435020, -0.470263838768, -0.236491739750, 0.127640992403, 0.712805926800, -0.146485432982, -0.109819710255, -0.026232760400, 0.231846883893, -0.098420105875, 0.182951420546, 0.218054920435, 0.014143556356, 0.243055492640, -0.081801429391, -0.069343596697, 0.115383982658, 0.029065165669, -0.662053585052, -0.860636889935, 1.291655182838, -0.292790174484, 0.347532272339, 0.153931528330, -0.241892173886, -0.001688312856, 0.113455921412, -0.040660176426, -0.329376131296, 0.092743322253, -0.547862946987, -0.194411545992, 0.192539781332, -0.265460640192, 0.265250921249, 0.271942734718, -0.088180869818, 0.005180926062, -0.006755056791, -0.095605194569, -0.256883561611, 0.201261967421, -0.062387429178, 0.044125806540, 0.091007649899, 0.025156425312, 0.418711006641, 0.313735306263, -1.425948858261, 0.218445345759, -0.019938964397, 0.163621157408, 0.180601403117, 0.051604587585, 0.085348933935, -0.077501982450, 0.372633635998, -0.168138623238, -0.010787167586, -0.020378313959, -0.210577815771, -0.158073514700, 0.201908543706, 0.653903782368, 0.134465143085, -0.521462559700, 0.063988350332, -0.112954102457, 0.331173509359, -0.030348286033, 0.066251039505, 0.338298916817, 0.450372368097, -0.929884731770, 0.543427824974, -0.221407219768, 0.096541576087, 0.169285058975, -0.816345870495, 0.684745728970, -0.447306454182, -0.167956322432, -0.231155350804, -0.011479222216, 0.059948477894, 0.300125926733, -0.194690883160, 0.046600203961, -0.312618404627, -0.055405285209, -0.209279254079, -0.008137404919, 0.131619766355, 0.132160201669, 0.118775479496, -0.311842471361, -0.316353619099, -0.152856439352, -0.076990813017, -0.269762217999, 0.086618445814, -0.227314755321, 0.254426240921, 0.011332530528, 0.115463443100, -0.183215737343, -0.052451826632, 0.125380009413, 0.192693665624, -0.249811276793, 0.148588553071, -0.299316734076, -0.075012966990, -0.247903585434, -0.146772444248, 0.274296313524};
