//Numpy array shape [16, 64]
//Min -1.060423612595
//Max 0.773938715458
//Number of zeros 0

#ifndef W2_H_
#define W2_H_

hls_init_on_powerup static const model_default_t w2[1024] = {0.201214, 0.086134, 0.148740, -0.294305, 0.626417, -0.001124, 0.002531, -0.244228, 0.046930, -0.000420, 0.148685, 0.135929, -0.336290, 0.199282, 0.679957, 0.025851, 0.088859, 0.142938, 0.063119, 0.359503, 0.141861, -0.716133, -0.170365, -0.116108, 0.022382, -0.000694, -0.358603, -0.018126, -0.094496, 0.001028, -0.364549, -0.111463, 0.332329, -0.006551, -0.172388, -0.326063, -0.120146, -0.208786, 0.195236, -0.185317, 0.199864, 0.000142, 0.272052, -0.029653, 0.047563, 0.031998, -0.001220, 0.092868, -0.000161, -0.080605, 0.116839, -0.010644, -0.124957, 0.000839, -0.226112, -0.193552, -0.179183, -0.050919, -0.187299, 0.028625, 0.000147, 0.026865, -0.383479, -0.153129, -0.369809, -0.219537, 0.355372, 0.299124, -0.000806, 0.093732, -0.012913, -0.017240, 0.203076, 0.272582, 0.177268, -0.315875, -0.570445, 0.441309, 0.088289, 0.089484, 0.505787, 0.336854, -0.214028, 0.193836, -0.001196, -0.014093, -0.000351, -0.293503, -0.228092, 0.001882, 0.183703, -0.223228, -0.255085, 0.134303, -0.550866, 0.001490, 0.008517, -0.416394, 1.001309, 0.555781, 0.373892, 0.021476, 0.006986, -0.289028, 0.005333, -0.199486, 0.524365, -1.095786, 0.665793, -0.354385, -1.338120, -0.258395, 0.375412, 0.106343, 0.096861, -0.000311, -0.053431, -0.000536, -0.237959, 0.033152, -0.165734, -0.088829, -0.328111, 0.360130, 0.179491, -0.357057, -0.487524, 0.013387, 0.294643, 0.001193, 0.199699, 0.231653, -0.050716, -0.157106, -0.128155, -0.233998, 0.221604, -0.313819, 0.000382, -0.053509, 0.001239, -0.053094, 0.378715, 0.036100, -0.047018, 0.009529, -0.446454, -0.187741, -0.000226, 0.000044, -0.027181, -0.111020, -0.423014, 0.150789, -0.398781, 0.378946, -0.061341, -0.267855, 0.620649, -0.388638, -0.107682, -0.163226, 0.011111, 0.398543, 0.157687, -0.017627, -0.008207, 0.004672, -0.071495, 0.000394, 0.169601, -0.105401, -0.472147, 0.286032, 0.384029, 0.257569, -0.338692, -0.217606, -0.427884, -0.000691, -0.179874, 0.027164, 0.253978, 0.163629, -0.016478, 0.000613, 0.000444, -0.269024, 0.003182, 0.127206, -0.269031, -0.042025, 0.420460, 1.222999, 0.597352, 0.059287, 0.859885, -0.452638, -0.527231, -0.051347, 0.631114, 0.268943, 0.265216, -0.087461, -0.755878, 0.532271, -1.044289, 0.007949, 0.003036, -0.278290, 0.000469, 0.111486, -0.200261, 0.011731, 0.275301, -0.001691, -0.284065, -0.189108, -0.206935, 0.000914, -0.000769, -0.155973, 0.575264, -0.214695, -0.013377, 0.399993, 0.135665, -0.220696, -0.188685, 0.380189, -0.133942, -0.148498, 0.054076, 0.291102, 0.523887, -0.669245, -0.251225, 0.256963, -0.938848, -0.323363, 0.321665, 0.026413, -0.361384, -0.370905, -0.000765, -0.001350, -0.020778, 0.033570, -0.336089, -0.000928, -0.252138, -0.261130, 0.159163, -0.194548, -0.171403, 0.339655, 0.068806, 0.951859, -0.772849, -0.055006, 0.156918, -0.085170, 0.140950, -0.060870, -0.378319, -0.355824, 0.170687, -0.330083, 0.637611, 0.090858, 0.500607, 0.147247, -0.199829, 0.001916, 0.302258, -0.269776, 0.270565, 0.400176, -0.147171, -0.701382, 0.458981, 0.389607, -0.032711, 0.218975, -0.259343, -0.138390, 0.360567, -0.537341, -0.032218, 0.141334, -0.723890, 0.019977, -0.184199, 0.002528, -0.099271, -0.387999, 0.105279, 0.588884, -0.016029, -0.372549, 0.000127, -0.497685, 0.196872, -0.274212, 0.269040, 0.411564, 0.186468, 0.656807, -0.001194, -0.012665, -0.074377, -0.038435, 0.390076, -0.000052, 0.021106, 0.029659, 0.340978, -0.172866, -0.000816, 0.000451, 0.071578, 0.103816, 0.071269, -0.115762, 0.160261, -0.092981, -0.198895, 0.255957, 0.132015, 0.195415, 0.018473, 0.399679, 0.001494, 0.022151, -0.000171, 0.334856, 0.021542, 0.101815, 0.086822, -0.341471, 0.404239, -0.295127, 0.080330, -0.273979, 0.184919, 0.070658, -0.357799, -0.183733, 0.035885, 0.017587, -0.619926, -0.167922, -0.159514, -0.088640, -0.266153, -0.976259, 0.036110, 0.096713, 0.161627, -0.298048, -0.190454, -0.000467, 0.055825, -0.199942, 0.116275, 0.083543, -0.122280, -0.016164, 0.111595, 0.442686, -0.301488, -0.052094, -0.480825, -0.262660, -0.183468, -0.017621, -0.148573, 0.589782, -0.432129, -0.135133, 0.402264, 0.150740, 0.222532, -0.236580, 0.042523, -0.281410, 0.173543, 0.567608, 0.001824, 0.101816, -0.059468, 0.002456, 0.308063, 0.502112, 0.220911, -0.114016, -0.127005, 0.049327, -1.090237, -0.194691, 0.134525, 0.301627, -0.416226, -0.007304, -0.433559, -0.233238, -0.034918, -0.220686, 0.026306, -0.071090, -0.240935, -0.319300, 0.336515, 0.119821, 0.000140, 0.140786, 0.483493, 0.431849, -0.011612, -0.208790, -0.489662, 0.287200, 0.095150, 0.026447, 0.034307, 0.547539, 0.226544, 0.521041, -0.351061, 0.167025, 0.844920, -0.261884, -0.367533, -0.006085, -0.420972, 0.350949, -0.468443, -0.000103, 0.008486, -0.398979, -0.134846, -0.155246, -0.236821, 0.259116, -0.000235, -0.017983, 0.057855, -0.476548, 0.261825, -0.171612, -0.239183, 0.708714, 0.002408, 0.010836, -0.072586, -0.277635, -0.398732, 0.297834, -0.551535, 0.717300, -0.092508, -0.068545, -0.539072, -0.005779, 0.476962, 0.393140, 0.302853, -0.538280, 0.452877, 0.335145, 0.621776, -0.120229, 0.185146, -0.755616, 0.743206, 0.100073, 0.025268, 0.012488, -0.420247, 0.004902, 0.748598, 0.194212, 1.056846, 0.526968, 0.068669, -0.179510, -0.446049, 0.663876, 0.009872, 0.126037, 0.051886, 0.088031, 0.336064, -0.024818, -1.571700, 0.290250, -0.220787, -0.131387, -0.076257, -0.510724, -0.317266, 0.011753, 0.139608, -0.047317, -0.273901, -0.027772, -0.143510, -0.101162, -0.142714, 0.060459, 0.066104, -0.264588, 0.085277, 0.108348, 0.158341, 0.341376, -0.114828, -0.103679, -0.348517, -0.018167, 0.519868, 0.000646, -0.023817, 0.120819, -0.026983, -0.027551, -1.403742, -0.002231, 0.260498, -0.245528, -0.282770, -0.000203, -0.000903, -0.000183, -0.031336, -0.098550, -0.034247, 0.000466, -0.164772, 0.222805, 0.261249, -0.001168, -0.349014, 0.000434, -0.172779, 0.037459, -0.361096, 0.528738, -0.006139, 0.042740, 0.346064, 0.124513, 0.043211, -0.000805, -0.001075, -0.276565, -0.082491, 0.366434, 0.580132, -0.105969, 0.000324, -0.009146, 0.181518, -0.167718, 0.155772, 0.398720, 0.000802, -0.068575, -0.347649, 0.172568, -0.032885, -0.464009, 0.218895, -0.341010, -0.000287, 0.295418, 0.000663, 0.066814, -0.327057, 0.162520, -0.007440, 0.371884, 0.338417, -0.258099, -0.097370, -0.473116, -0.186790, -0.489159, 0.212924, 0.000477, -0.112582, 0.541951, 0.085496, 0.580044, 0.000522, -0.537690, 0.202791, -0.245455, 0.184917, -0.070399, -0.234096, 0.182127, -0.065978, 0.208826, 0.113015, 0.062668, -0.251315, -0.272625, -0.003054, -0.001228, -0.000126, -0.283863, -0.138196, 0.029972, -0.585986, 0.151433, 0.357264, -0.040726, 0.063848, -0.173489, 0.269174, 0.019079, -0.696980, -0.000545, 0.049967, 0.001459, -0.089071, -0.529538, -0.226023, 0.000045, 0.040373, -0.323397, 0.129107, 0.218161, -0.243430, -0.058497, 0.000024, 0.056049, 0.078426, -0.203638, 0.477504, 0.471180, 0.159311, -1.042273, 1.135502, -0.069700, -0.231849, 0.277751, -0.124662, -0.691815, 0.579177, -0.396041, 0.261462, -0.267012, -1.098768, -0.127370, 0.188339, 0.258272, 0.002989, -0.222657, -0.106107, -0.416196, -0.001077, 0.206045, 0.125451, -0.067715, 0.256076, 0.092320, -0.051180, -0.045175, -0.251969, -0.080941, 0.296780, 0.056499, 0.322006, 0.320834, -0.236630, -0.001798, 0.290126, 0.194904, 0.432377, -0.239348, -0.002990, 0.273343, 0.216520, 0.000016, -0.001376, -0.279463, 0.153353, 0.263201, 0.814139, 0.147419, -0.974311, 0.871817, -0.420784, -0.342719, 0.648625, 0.170454, -0.158406, -0.339917, 0.492389, -0.034299, -1.964354, 0.256231, 0.594617, 0.164720, -0.532472, -0.427018, -1.140464, 0.433082, -0.018246, 0.338470, -0.054873, 0.418055, 0.010909, 0.267230, 0.210686, -0.096827, 1.198733, 0.312860, -0.245459, -0.137699, -0.928097, 0.320736, 0.434956, 0.348432, 0.841115, -0.166782, -0.770630, -0.123260, 1.283781, -1.831183, -1.760893, 1.352112, -0.647238, -0.126955, 0.554562, 0.470275, -0.560068, -1.008870, -0.210085, 0.142249, -0.279254, -0.055602, 0.467400, 0.352855, 0.422448, -0.451325, -0.064112, -0.069663, 0.800158, -0.203347, -0.169196, 0.064085, -0.043327, 0.167540, -0.018422, 0.002658, -0.266032, -0.139339, 0.206570, 0.038004, -0.318319, -0.245201, -0.191931, 0.002694, 0.318651, 0.339364, 0.114040, 0.188878, 0.290742, -0.000039, 0.238982, 0.192684, 0.209066, -0.000036, -0.348656, -0.303116, -0.181498, -0.166416, -0.020708, 0.120317, 0.065924, -0.000395, -0.195925, -0.005810, 0.331488, 0.143159, 0.178354, 0.085843, 0.000040, 0.000423, 0.184969, 0.000155, -0.178247, 0.190884, -0.188512, 0.084047, 0.152504, 0.000542, -0.198250, -0.191759, 0.000606, -0.043245, 0.193642, 0.155118, -0.256890, 0.114540, 0.084948, -0.319835, 0.118095, 0.177361, 0.298766, -0.334534, 0.805999, -0.107912, -0.047117, -0.084758, 0.313351, 0.393118, -0.000449, -0.000116, -0.135831, -0.087224, 0.291183, 0.010687, 0.061243, 0.095733, -0.022573, -0.212332, 0.346085, -0.037918, -0.004292, -0.055405, 0.188927, -0.370595, 0.415803, -0.398079, 0.278984, -0.189565, -0.435419, -0.293878, 0.016520, -0.068151, 0.535282, -0.450045, 0.740265, -0.440494, -0.000166, -0.307175, -0.121831, -0.000842, 0.117413, -0.122290, 0.282427, -0.291468, -0.007852, -0.275591, -0.298777, 0.200496, 0.335084, -0.092100, -0.021919, -0.439202, 0.285247, 0.531602, 0.601569, -0.099420, 0.305908, -0.740265, -0.173774, 0.107878, 0.445644, 0.314834, -0.143569, -0.587475, -0.539246, 0.526983, 0.698256, -0.111175, -0.112904, -0.230208, 0.382230, -0.146934, 0.375225, 0.000661, -0.000403, -0.131956, 0.003953, 0.000872, -0.408503, 0.056609, -0.392340, 0.373650, 0.300538, 0.041624, -0.458310, -0.401787, -0.067223, 0.100240, -0.214839, -0.334998, 0.331765, 0.165436, 0.065900, 0.119720, 0.213245, 0.026092, 0.029394, 0.152073, 0.000863, -0.201231, 0.100656, 0.233905, 0.548480, -0.418907, 0.769362, -0.330604, -0.163611, -0.394827, -0.001170, -0.000732, -0.373151, 0.050502, -0.208837, 0.009494, -0.475593, -0.040020, 0.403892, 0.086254, 0.401488, 0.438265, 0.320798, -0.001127, 0.125953, -0.080271, 0.142554, 0.019234, 0.061980, 0.393185, 0.059239, 0.220031, -0.783666, -0.192164, -0.128621, 0.208884, -0.456129, -0.230437, -0.146704, -0.283787, 0.163521, 0.041999, -0.151236, -0.330365, 0.193616, 0.069024, -0.087156, 0.297841, 0.001073, -0.001094, -0.365549, 0.034126, 0.579719, 0.469294, 1.121968, -0.125195, 0.788263, 0.241540, -1.068301, -0.641974, -1.156729, 0.784482, 0.331564, -0.412542, -1.698283, 0.149523, -0.560593, -0.124205, -0.684724, -0.525529, -0.209287, 0.019981, 0.452574, -0.099003, -0.187698, -0.420686, -0.003740, -0.431497, -0.078973, 0.021599, 0.982904, 0.320715, -0.368807, 0.001476, -0.527282, -0.000123, 0.286135, -0.139789, 0.002876, 0.317134, 0.060335, -0.433444, 0.559815, -0.004295, 0.060904, -0.184671, -0.535910, -0.036749, 0.112098, 0.169439, 0.056637, -0.037102, 0.000495, -0.515422, 0.185923, 0.131116, 0.001115, 0.256204, -0.027796, 0.185274, -0.243560, 0.345419, -0.183121, -0.298745};

#endif
