//Numpy array shape [32, 32]
//Min -3.223938465118
//Max 0.725557982922
//Number of zeros 0

#ifndef W6_H_
#define W6_H_

hls_init_on_powerup static const model_default_t w6[1024] = {-0.677754, -0.007847, -0.237924, 0.254573, -0.028540, 0.266962, 0.511975, 0.013120, 0.131305, -0.034014, 0.030415, 0.013966, -0.354641, -0.259215, -0.204939, 0.196077, -0.211027, 0.102414, -0.174343, -0.202400, -0.032031, 0.230107, 0.301306, 0.088027, 0.339630, 0.093556, -0.056653, -0.098388, 0.489518, 0.059992, 0.108592, 0.408816, 0.248614, 0.332698, -0.188196, 0.106988, -0.308935, -0.302210, -0.307863, -0.075659, 0.177312, 0.084391, -0.071068, 0.281937, -0.212341, 0.204967, 0.317310, -0.138500, 0.002670, -0.201035, 0.186374, 0.110455, -0.268291, -0.514347, 0.006282, -0.113406, -0.287506, 0.001100, 0.182199, -0.090219, 0.141704, 0.136588, -0.960501, 0.215206, 0.261911, -0.042928, -0.124577, -0.293750, -0.039420, -0.135197, -0.022061, -0.042354, -0.300894, -0.040918, 0.051486, 0.011514, -0.103265, 0.030126, -0.100893, 0.296314, -0.273593, 0.026293, 0.160874, 0.002963, -0.158770, 0.193561, 0.121807, -0.276240, -0.005877, -0.300323, 0.187168, -0.146085, -0.209106, 0.101029, -0.281919, -0.129423, -0.460112, -0.306463, 0.068949, 0.078156, 0.306965, -0.187939, 0.070062, -0.218503, -0.066895, 0.125378, -0.192121, 0.186791, 0.259705, 0.152624, 0.100260, -0.265631, 0.265159, 0.231476, -0.290213, -0.177881, 0.357980, -0.257959, -0.134683, -0.024259, -0.114418, 0.251653, -0.231996, 0.050791, -0.158813, 0.204796, -0.155256, 0.165944, -0.196360, -0.230323, 0.006980, -0.278914, -0.258711, 0.249166, -0.010366, 0.060268, -0.072630, -0.064609, 0.271193, 0.272587, -0.081932, -0.267139, 0.210141, 0.282703, -0.015245, -0.014270, -0.241954, 0.278125, 0.205109, -0.064689, 0.279882, 0.238957, 0.326512, 0.041066, 0.250935, 0.083215, 0.123410, 0.087823, 0.119500, 0.177366, -0.280609, 0.123761, -0.146540, 0.195331, -0.061187, 0.071803, 0.086369, 0.057688, -0.244308, -0.025841, 0.024996, 0.005494, -0.229287, -0.231164, -0.226186, -0.221061, 0.224987, -0.123017, 0.269069, 0.087897, 0.032849, 0.129825, -0.143095, -0.002375, 0.333984, -0.306774, 0.319655, 0.239873, -0.205998, -0.056570, -0.680200, -0.078122, -0.594993, -0.122981, 0.043639, -0.043771, -0.208610, -0.006513, -0.203312, -0.148798, -0.143848, 0.195120, 0.163781, 0.235488, -0.230472, 0.044978, -0.210958, -0.132593, 0.172243, -0.203181, 0.143971, -0.061223, 0.327147, 0.158911, -0.017919, -0.112050, -0.126850, -0.055849, -0.014155, 0.271148, -0.206297, -0.234562, 0.000775, -0.311890, 0.143062, -0.255461, 0.120284, -0.143654, -0.159146, -0.205383, -0.296408, -0.128376, -0.140668, 0.116477, -0.192588, -0.108242, 0.115540, -0.275551, -0.245996, -0.161439, -0.004732, -0.274522, -0.023400, 0.183988, 0.151540, 0.097725, -0.157303, -0.077934, -0.018516, -0.246904, 0.049010, 0.200955, -0.286837, 0.052858, 0.028755, 0.047239, -0.608492, 0.118704, 0.100953, -0.276875, -0.233648, 0.147795, 0.342528, 0.111974, -0.036383, 0.136504, -0.329056, -0.283918, 0.115644, -0.053042, -0.305341, 0.008444, -0.075707, -0.033606, 0.047484, -0.234313, -0.087475, 0.089406, -0.096528, 0.087669, 0.078871, -0.189476, 0.118893, 0.151035, 0.185686, -0.128434, 0.113939, 0.075654, 0.307094, 0.262052, 0.215730, 0.257002, -0.308614, -0.001394, -0.064850, 0.025105, -0.212831, 0.125344, -0.133566, -0.260556, -0.296360, 0.139439, -0.206264, -0.056040, -0.028886, -0.188732, 0.177576, -0.113248, -0.128822, -0.268967, -0.138625, -0.267351, 0.183596, -0.256461, 0.243886, -0.120939, -0.202186, -0.125887, -3.223938, 0.241286, -0.039618, 0.094277, 0.393077, 0.142310, 0.055120, -0.112705, 0.250582, -0.221406, 0.258218, -0.083560, -0.255221, -0.188302, 0.028456, -0.021297, 0.288935, 0.193914, 0.116016, 0.119882, -0.110603, 0.013444, 0.222162, -0.007976, -0.247199, 0.155124, -0.239876, 0.174633, 0.265549, -0.237938, -0.018840, -0.156053, 0.449564, 0.260445, -0.190234, -0.278775, 0.115053, -0.113142, 0.277606, 0.073374, 0.151717, -0.099257, 0.064398, 0.264928, -0.241809, -0.252612, 0.233618, -0.275850, 0.246827, -0.276279, -0.183620, -0.278311, 0.080095, -0.103846, -0.228139, -0.232622, 0.208975, -0.222365, -0.109846, -0.180474, -0.218101, -0.000040, -0.015012, 0.028696, 0.033833, 0.116231, -0.001033, -0.071041, -0.487702, -0.085980, -0.169041, 0.096165, -0.152807, -0.060851, -0.499214, 0.172073, 0.155400, -0.100347, 0.149702, -0.247451, 0.313058, -0.153482, 0.295829, 0.173780, -0.134590, -0.036702, -0.095055, -0.237450, 0.211217, 0.042601, -0.290009, 0.445292, 0.041202, 0.162392, -0.383570, 0.244963, 0.404426, -0.263563, 0.107253, 0.290896, 0.043932, 0.035988, 0.116859, 0.281074, 0.028320, -0.092267, -0.513820, 0.120654, 0.179173, -0.278988, 0.052286, -0.196170, 0.077533, -0.152403, -0.045936, -0.147556, 0.164630, -0.019910, 0.293015, 0.095624, -0.098029, 0.188180, 0.288649, 0.172393, -0.236402, -0.200525, -0.243178, -0.143985, 0.334172, 0.007174, -0.164544, -0.079653, -0.185045, 0.217991, 0.281422, 0.026420, -0.235352, -0.120931, 0.125528, -0.097948, -0.384486, 0.126695, 0.191767, -0.269358, -0.167552, -0.224257, 0.181324, -0.290420, 0.205343, -0.005398, 0.010154, 0.208456, 0.171419, -0.262350, -0.048681, -0.176728, -0.257422, 0.240656, 0.161902, -0.027395, -1.663648, -0.015230, 0.121395, 0.372994, -0.098199, 0.254716, 0.051096, -0.171435, 0.253991, -0.113091, -0.095280, -0.094617, 0.055598, -0.230662, -0.132368, -0.133057, 0.059200, 0.289436, 0.000531, 0.189622, 0.213906, -0.014327, 0.344782, -0.049088, 0.291437, -0.021634, -0.076823, 0.033203, -0.290768, 0.282010, 0.326168, -0.226955, -0.080055, 0.345682, -0.098175, 0.241468, 0.199459, -0.129543, 0.128176, 0.175311, -0.030094, -0.215079, -0.024093, 0.146105, 0.194280, 0.189245, -0.127605, 0.140416, -0.357137, -0.045506, 0.175686, 0.222573, 0.119065, 0.228376, -0.034259, 0.283057, -0.091393, -0.204600, -0.067007, -0.023641, -0.226359, -0.140480, -0.025612, -0.123945, 0.022426, -0.117228, -0.319721, 0.114834, -0.286848, 0.230823, -0.089539, 0.146009, 0.106393, 0.121584, 0.004838, 0.244858, -0.048418, 0.234867, -0.156022, 0.151157, -0.017161, 0.072544, -0.078285, -0.233376, -0.051037, 0.253380, -0.340697, -0.235160, -0.193824, -0.211745, 0.213258, -0.440609, 0.202340, 0.220542, 0.067855, 0.214733, -0.020422, 0.106103, -0.242338, 0.086693, 0.052587, 0.016797, -0.061851, 0.066855, 0.499878, -0.008860, 0.192869, -0.290643, -0.067573, -0.020543, 0.096317, -0.043406, 0.116276, 0.081232, -0.363946, -0.025827, -0.143238, -0.082383, -0.270343, -0.385686, -0.100642, 0.276005, 0.451265, 0.219367, 0.089459, 0.255470, 0.004789, -0.273875, -1.366337, 0.069772, -0.409640, -0.313322, -0.169410, 0.209688, 0.235944, 0.003443, -0.080374, 0.230386, 0.255963, -0.153141, 0.105467, 0.245628, -0.030202, 0.220664, -0.304201, -0.230141, 0.256889, -0.115440, -0.178720, 0.150826, -0.109739, 0.390363, 0.249501, -0.150248, -0.120716, -0.210911, 0.017051, 0.218261, -0.042797, -0.090014, 0.004653, 0.164399, 0.019229, -0.325908, 0.178622, -0.104423, -0.116085, 0.273587, 0.019628, 0.125423, 0.283537, -0.167312, -0.421819, -0.029376, 0.021645, 0.308938, -0.221106, -0.122406, -0.030289, -0.123317, -0.262138, 0.131913, 0.138067, 0.184081, 0.234358, 0.288722, 0.317606, -0.477772, 0.304495, 0.200853, 0.283786, 0.041895, 0.000047, -0.345401, -0.000513, -0.210164, 0.297429, -0.103127, -0.057042, -0.048722, -0.125367, 0.305555, -0.226990, 0.413026, 0.021304, -0.139164, 0.180562, 0.066763, -0.177866, -0.068645, 0.332744, -0.073811, 0.139403, -0.259006, 0.106512, 0.104801, -0.067473, -0.290590, -0.224047, 0.181817, 0.251178, -0.221739, -0.104883, -0.205773, 0.192862, -0.356055, 0.600729, -0.128825, -0.134398, 0.047716, 0.201236, -0.096665, -0.181269, 0.097672, -0.584335, -0.050768, 0.144357, 0.171486, -0.101350, 0.027258, -0.209989, -0.244367, 0.298261, 0.103271, -0.310026, 0.200740, 0.097345, 0.088591, 0.015855, 0.111213, -0.275739, 0.639708, 0.297360, -0.177178, -0.293116, -0.011833, 0.159494, 0.055261, -0.480357, 0.031520, -0.263332, 0.311459, 0.293939, 0.058397, 0.309115, 0.022925, 0.365448, -0.026056, -0.342702, 0.199141, -0.123148, -0.302125, -0.204798, 0.031163, -0.132839, 0.188698, -0.098221, 0.012948, 0.040705, -0.169977, 0.005239, -0.238646, 0.010648, -0.217221, -0.024408, 0.123906, 0.074133, -0.214612, -1.791753, 0.078147, 0.725558, -0.278288, -0.107602, -0.273814, -0.119808, 0.276536, -0.677101, -0.172796, -0.497973, 0.323908, 0.333174, 0.124085, 0.096344, 0.199854, -0.039466, -0.172015, -0.096350, 0.215131, 0.121001, 0.059007, -0.128747, 0.148969, -0.279969, -0.167248, -0.440121, 0.535122, 0.181878, -0.369202, -0.527296, -0.204110, 0.613523, -0.086969, -0.187781, 0.112438, -0.050585, 0.071422, -0.156818, -0.138414, 0.034292, 0.183404, 0.072511, -0.151341, 0.051965, -0.150564, 0.058152, 0.161547, 0.089526, 0.133427, -0.086040, -0.282249, 0.281258, 0.223509, 0.389922, -0.280638, -0.161199, 0.093031, 0.062294, -0.010198, 0.012776, 0.334363, 0.123882, -0.236674, -0.488187, 0.383413, -0.391795, 0.107773, -0.253553, 0.291349, -0.053504, 0.024188, -0.242938, 0.170264, 0.037433, -0.213175, 0.261736, -0.096974, -0.061563, 0.227280, 0.223224, 0.255412, -0.161166, -0.298855, 0.031385, -0.156858, -0.104029, 0.182439, 0.153695, -0.229155, 0.101619, 0.175557, -0.220551, 0.123091, -0.052826, -0.112063, 0.118433, 0.166693, -0.052908, -0.031614, 0.018860, 0.105091, -0.028205, 0.120021, -0.057801, 0.026496, 0.278960, 0.032124, -0.257706, -0.278696, 0.116933, -0.013752, -0.113969, 0.039777, 0.307610, -0.169053, -0.019216, -0.151298, -0.114159, 0.318167, 0.106687, -0.277772, -0.087160, 0.267920, 0.232485, -0.299668, -0.096564, 0.001271, -0.484520, -0.162749, 0.262236, -0.091138, -0.110840, 0.281887, -0.051947, -0.219708, 0.076201, 0.094036, -0.172877, -0.213093, 0.093050, 0.270146, 0.038802, -0.274702, -0.033466, 0.298602, -0.049875, 0.025953, 0.106498, 0.064660, -0.004655, 0.190438, -0.203754, -0.278994, -0.082784, 0.474663, 0.028859, 0.219030, 0.052523, 0.173606, 0.199383, -0.093236, 0.076354, 0.134124, 0.224055, 0.024144, 0.202503, 0.024760, 0.021926, 0.176700, -0.188607, -0.078475, -0.084485, -0.331409, -0.223839, -0.163722, -0.078586, -0.305584, -0.004851, 0.002118, 0.218630, -0.031274, 0.261579, -0.267754, 0.288538, -0.262290, -0.170400, -0.242682, 0.123655, 0.140598, -0.107030, -0.186522, -0.000056, 0.207432, -0.187168, 0.281584, -0.042122, 0.121525, 0.136940, 0.035453, -0.269028, 0.167318, -0.169781, 0.328229, 0.368586, 0.073133, -0.278086, 0.087476, 0.229666, 0.166004, -0.202802, 0.064383, 0.039381, 0.309811, -0.050063, 0.071777, 0.226149, 0.259675, 0.285929, -0.019896, 0.138836, 0.181552, -0.162305, -0.229996, 0.446922, 0.010616, -0.269100, 0.064018, 0.064923, -0.075656, 0.090223, 0.036952, -0.278957, -0.102506, -0.172438, 0.104746, 0.108191, -0.117788, -0.251466, -0.164998, 0.072567, -0.116981, -0.208730, 0.081512, -0.123826, -0.093227, -0.020170, -0.230645, -0.197711, -0.191529, 0.029783, -0.231009, 0.203162, -0.131882, 0.280488, -0.012144, -0.239525, -0.258989};

#endif
