//Numpy array shape [32, 5]
//Min -2.136852025986
//Max 1.330190062523
//Number of zeros 0

#ifndef W8_H_
#define W8_H_

hls_init_on_powerup static const model_default_t w8[160] = {0.339540, -0.656821, 0.109871, 0.215283, 0.204764, 0.063611, -0.025972, -0.206508, 0.743769, -0.470264, -0.109820, 0.218055, 0.115384, -0.292790, 0.113456, -0.194412, -0.088181, 0.201262, 0.418711, 0.163621, 0.372634, -0.158074, 0.063988, 0.338299, 0.096542, -0.167956, -0.194691, -0.008137, -0.316354, -0.227315, -0.052452, -0.299317, 0.397142, -0.465639, -0.263107, -0.088577, -0.040486, 0.016268, -0.020458, 0.301526, 0.361532, -0.236492, -0.026233, 0.014144, 0.029065, 0.347532, -0.040660, 0.192540, 0.005181, -0.062387, 0.313735, 0.180601, -0.168139, 0.201909, -0.112954, 0.450372, 0.169285, -0.231155, 0.046600, 0.131620, -0.152856, 0.254426, 0.125380, -0.075013, 1.330190, 0.125991, 0.295648, 0.110237, -0.038625, -0.341986, 0.183078, 0.047054, -0.030520, 0.127641, 0.231847, 0.243055, -0.662054, 0.153932, -0.329376, -0.265461, -0.006755, 0.044126, -1.425949, 0.051605, -0.010787, 0.653904, 0.331174, -0.929885, -0.816346, -0.011479, -0.312618, 0.132160, -0.076991, 0.011333, 0.192694, -0.247904, -2.136852, -0.097415, 0.297526, 0.108636, 0.119779, 0.230642, 0.082518, 0.021940, 0.412721, 0.712806, -0.098420, -0.081801, -0.860637, -0.241892, 0.092743, 0.265251, -0.095605, 0.091008, 0.218445, 0.085349, -0.020378, 0.134465, -0.030348, 0.543428, 0.684746, 0.059948, -0.055405, 0.118775, -0.269762, 0.115463, -0.249811, -0.146772, 0.459609, 0.021130, -0.022877, -0.629661, 0.317964, -0.141810, 0.149979, 0.288558, -1.190998, -0.146485, 0.182951, -0.069344, 1.291655, -0.001688, -0.547863, 0.271943, -0.256884, 0.025156, -0.019939, -0.077502, -0.210578, -0.521463, 0.066251, -0.221407, -0.447306, 0.300126, -0.209279, -0.311842, 0.086618, -0.183216, 0.148589, 0.274296};

#endif
