//Numpy array shape (25, 3)
//Min -0.948464572430
//Max 0.543799996376
//Number of zeros 0

bias_default_t w00[75] = {0.031462952495, -0.242138624191, 0.067437894642, 0.071771100163, -0.255270212889, 0.151516005397, 0.115635663271, -0.270427763462, 0.243024989963, 0.172861576080, -0.289834588766, 0.362477004528, 0.259861141443, -0.320051342249, 0.543799996376, 0.031475972384, -0.020706932992, 0.033302199095, 0.071675382555, -0.048227131367, 0.090604595840, 0.115761213005, -0.078617222607, 0.153261989355, 0.171335220337, -0.115900345147, 0.232271999121, 0.256468623877, -0.172036603093, 0.353399991989, 0.031939003617, -0.186417043209, -0.050321299583, 0.071555361152, -0.196931272745, -0.112094998360, 0.115406744182, -0.209836989641, -0.180505990982, 0.171702817082, -0.225790500641, -0.268260002136, 0.264275550842, -0.251577645540, -0.412600010633, 0.032019082457, 0.371178060770, 0.022351000458, 0.071314245462, 0.386381149292, 0.036501597613, 0.114920981228, 0.402309745550, 0.052210602909, 0.171899229288, 0.423577129841, 0.072762705386, 0.259416043758, 0.455489307642, 0.104400001466, 0.031531821936, -0.948464572430, 0.031408600509, 0.072571419179, -0.916187822819, 0.058187399060, 0.115627430379, -0.883879542351, 0.086299598217, 0.172208741307, -0.841781258583, 0.123353995383, 0.261915177107, -0.774139940739, 0.182600006461};
