//Numpy array shape (4, 14)
//Min -4.277948379517
//Max 3.740399837494
//Number of zeros 0

bias_default_t w2[56] = {0.689534008503, -1.099825501442, 1.870712041855, -1.169597387314, -1.115438461304, 0.168665692210, -0.080246865749, 0.478172689676, -1.616037845612, 0.880680561066, 0.905519902706, -0.945161879063, 0.478742003441, 0.016037913039, -0.391983389854, 1.740264892578, -1.379716873169, -0.399311333895, 2.405622720718, -0.332525342703, -0.021842379123, -0.669777154922, 1.666097044945, -1.164247512817, 1.773172855377, 2.453361988068, -0.898727774620, 0.094567224383, 1.544149279594, 0.349705904722, 0.418189078569, -4.248939990997, 0.606149733067, 3.740399837494, -0.086557306349, -3.137919664383, 1.605854630470, -0.208845213056, 3.206689834595, -0.209879726171, -3.047461986542, -0.080336086452, -4.277948379517, 1.005843043327, 0.161926507950, 2.211290836334, -0.033089414239, -3.068212747574, 0.067566566169, 3.386342287064, 0.382402390242, 0.007299950346, -3.295850515366, 0.072919398546, 2.917067766190, 0.083796828985};
