//Numpy array shape (600,)
//Min -0.564179718494
//Max 0.656167328358
//Number of zeros 0

static bias_default_t b1[600] = {-0.047483459115, 0.035428602248, 0.208742201328, -0.161446884274, -0.072291001678, 0.038181386888, 0.115620672703, -0.564179718494, 0.091067105532, -0.486844897270, -0.341589093208, 0.656167328358, 0.067888036370, 0.444739878178, -0.126391142607, -0.047483459115, 0.035428602248, 0.208742201328, -0.161446884274, -0.072291001678, 0.038181386888, 0.115620672703, -0.564179718494, 0.091067105532, -0.486844897270, -0.341589093208, 0.656167328358, 0.067888036370, 0.444739878178, -0.126391142607, -0.047483459115, 0.035428602248, 0.208742201328, -0.161446884274, -0.072291001678, 0.038181386888, 0.115620672703, -0.564179718494, 0.091067105532, -0.486844897270, -0.341589093208, 0.656167328358, 0.067888036370, 0.444739878178, -0.126391142607, -0.047483459115, 0.035428602248, 0.208742201328, -0.161446884274, -0.072291001678, 0.038181386888, 0.115620672703, -0.564179718494, 0.091067105532, -0.486844897270, -0.341589093208, 0.656167328358, 0.067888036370, 0.444739878178, -0.126391142607, -0.047483459115, 0.035428602248, 0.208742201328, -0.161446884274, -0.072291001678, 0.038181386888, 0.115620672703, -0.564179718494, 0.091067105532, -0.486844897270, -0.341589093208, 0.656167328358, 0.067888036370, 0.444739878178, -0.126391142607, -0.047483459115, 0.035428602248, 0.208742201328, -0.161446884274, -0.072291001678, 0.038181386888, 0.115620672703, -0.564179718494, 0.091067105532, -0.486844897270, -0.341589093208, 0.656167328358, 0.067888036370, 0.444739878178, -0.126391142607, -0.047483459115, 0.035428602248, 0.208742201328, -0.161446884274, -0.072291001678, 0.038181386888, 0.115620672703, -0.564179718494, 0.091067105532, -0.486844897270, -0.341589093208, 0.656167328358, 0.067888036370, 0.444739878178, -0.126391142607, -0.047483459115, 0.035428602248, 0.208742201328, -0.161446884274, -0.072291001678, 0.038181386888, 0.115620672703, -0.564179718494, 0.091067105532, -0.486844897270, -0.341589093208, 0.656167328358, 0.067888036370, 0.444739878178, -0.126391142607, -0.047483459115, 0.035428602248, 0.208742201328, -0.161446884274, -0.072291001678, 0.038181386888, 0.115620672703, -0.564179718494, 0.091067105532, -0.486844897270, -0.341589093208, 0.656167328358, 0.067888036370, 0.444739878178, -0.126391142607, -0.047483459115, 0.035428602248, 0.208742201328, -0.161446884274, -0.072291001678, 0.038181386888, 0.115620672703, -0.564179718494, 0.091067105532, -0.486844897270, -0.341589093208, 0.656167328358, 0.067888036370, 0.444739878178, -0.126391142607, -0.047483459115, 0.035428602248, 0.208742201328, -0.161446884274, -0.072291001678, 0.038181386888, 0.115620672703, -0.564179718494, 0.091067105532, -0.486844897270, -0.341589093208, 0.656167328358, 0.067888036370, 0.444739878178, -0.126391142607, -0.047483459115, 0.035428602248, 0.208742201328, -0.161446884274, -0.072291001678, 0.038181386888, 0.115620672703, -0.564179718494, 0.091067105532, -0.486844897270, -0.341589093208, 0.656167328358, 0.067888036370, 0.444739878178, -0.126391142607, -0.047483459115, 0.035428602248, 0.208742201328, -0.161446884274, -0.072291001678, 0.038181386888, 0.115620672703, -0.564179718494, 0.091067105532, -0.486844897270, -0.341589093208, 0.656167328358, 0.067888036370, 0.444739878178, -0.126391142607, -0.047483459115, 0.035428602248, 0.208742201328, -0.161446884274, -0.072291001678, 0.038181386888, 0.115620672703, -0.564179718494, 0.091067105532, -0.486844897270, -0.341589093208, 0.656167328358, 0.067888036370, 0.444739878178, -0.126391142607, -0.047483459115, 0.035428602248, 0.208742201328, -0.161446884274, -0.072291001678, 0.038181386888, 0.115620672703, -0.564179718494, 0.091067105532, -0.486844897270, -0.341589093208, 0.656167328358, 0.067888036370, 0.444739878178, -0.126391142607, -0.047483459115, 0.035428602248, 0.208742201328, -0.161446884274, -0.072291001678, 0.038181386888, 0.115620672703, -0.564179718494, 0.091067105532, -0.486844897270, -0.341589093208, 0.656167328358, 0.067888036370, 0.444739878178, -0.126391142607, -0.047483459115, 0.035428602248, 0.208742201328, -0.161446884274, -0.072291001678, 0.038181386888, 0.115620672703, -0.564179718494, 0.091067105532, -0.486844897270, -0.341589093208, 0.656167328358, 0.067888036370, 0.444739878178, -0.126391142607, -0.047483459115, 0.035428602248, 0.208742201328, -0.161446884274, -0.072291001678, 0.038181386888, 0.115620672703, -0.564179718494, 0.091067105532, -0.486844897270, -0.341589093208, 0.656167328358, 0.067888036370, 0.444739878178, -0.126391142607, -0.047483459115, 0.035428602248, 0.208742201328, -0.161446884274, -0.072291001678, 0.038181386888, 0.115620672703, -0.564179718494, 0.091067105532, -0.486844897270, -0.341589093208, 0.656167328358, 0.067888036370, 0.444739878178, -0.126391142607, -0.047483459115, 0.035428602248, 0.208742201328, -0.161446884274, -0.072291001678, 0.038181386888, 0.115620672703, -0.564179718494, 0.091067105532, -0.486844897270, -0.341589093208, 0.656167328358, 0.067888036370, 0.444739878178, -0.126391142607, -0.047483459115, 0.035428602248, 0.208742201328, -0.161446884274, -0.072291001678, 0.038181386888, 0.115620672703, -0.564179718494, 0.091067105532, -0.486844897270, -0.341589093208, 0.656167328358, 0.067888036370, 0.444739878178, -0.126391142607, -0.047483459115, 0.035428602248, 0.208742201328, -0.161446884274, -0.072291001678, 0.038181386888, 0.115620672703, -0.564179718494, 0.091067105532, -0.486844897270, -0.341589093208, 0.656167328358, 0.067888036370, 0.444739878178, -0.126391142607, -0.047483459115, 0.035428602248, 0.208742201328, -0.161446884274, -0.072291001678, 0.038181386888, 0.115620672703, -0.564179718494, 0.091067105532, -0.486844897270, -0.341589093208, 0.656167328358, 0.067888036370, 0.444739878178, -0.126391142607, -0.047483459115, 0.035428602248, 0.208742201328, -0.161446884274, -0.072291001678, 0.038181386888, 0.115620672703, -0.564179718494, 0.091067105532, -0.486844897270, -0.341589093208, 0.656167328358, 0.067888036370, 0.444739878178, -0.126391142607, -0.047483459115, 0.035428602248, 0.208742201328, -0.161446884274, -0.072291001678, 0.038181386888, 0.115620672703, -0.564179718494, 0.091067105532, -0.486844897270, -0.341589093208, 0.656167328358, 0.067888036370, 0.444739878178, -0.126391142607, -0.047483459115, 0.035428602248, 0.208742201328, -0.161446884274, -0.072291001678, 0.038181386888, 0.115620672703, -0.564179718494, 0.091067105532, -0.486844897270, -0.341589093208, 0.656167328358, 0.067888036370, 0.444739878178, -0.126391142607, -0.047483459115, 0.035428602248, 0.208742201328, -0.161446884274, -0.072291001678, 0.038181386888, 0.115620672703, -0.564179718494, 0.091067105532, -0.486844897270, -0.341589093208, 0.656167328358, 0.067888036370, 0.444739878178, -0.126391142607, -0.047483459115, 0.035428602248, 0.208742201328, -0.161446884274, -0.072291001678, 0.038181386888, 0.115620672703, -0.564179718494, 0.091067105532, -0.486844897270, -0.341589093208, 0.656167328358, 0.067888036370, 0.444739878178, -0.126391142607, -0.047483459115, 0.035428602248, 0.208742201328, -0.161446884274, -0.072291001678, 0.038181386888, 0.115620672703, -0.564179718494, 0.091067105532, -0.486844897270, -0.341589093208, 0.656167328358, 0.067888036370, 0.444739878178, -0.126391142607, -0.047483459115, 0.035428602248, 0.208742201328, -0.161446884274, -0.072291001678, 0.038181386888, 0.115620672703, -0.564179718494, 0.091067105532, -0.486844897270, -0.341589093208, 0.656167328358, 0.067888036370, 0.444739878178, -0.126391142607, -0.047483459115, 0.035428602248, 0.208742201328, -0.161446884274, -0.072291001678, 0.038181386888, 0.115620672703, -0.564179718494, 0.091067105532, -0.486844897270, -0.341589093208, 0.656167328358, 0.067888036370, 0.444739878178, -0.126391142607, -0.047483459115, 0.035428602248, 0.208742201328, -0.161446884274, -0.072291001678, 0.038181386888, 0.115620672703, -0.564179718494, 0.091067105532, -0.486844897270, -0.341589093208, 0.656167328358, 0.067888036370, 0.444739878178, -0.126391142607, -0.047483459115, 0.035428602248, 0.208742201328, -0.161446884274, -0.072291001678, 0.038181386888, 0.115620672703, -0.564179718494, 0.091067105532, -0.486844897270, -0.341589093208, 0.656167328358, 0.067888036370, 0.444739878178, -0.126391142607, -0.047483459115, 0.035428602248, 0.208742201328, -0.161446884274, -0.072291001678, 0.038181386888, 0.115620672703, -0.564179718494, 0.091067105532, -0.486844897270, -0.341589093208, 0.656167328358, 0.067888036370, 0.444739878178, -0.126391142607, -0.047483459115, 0.035428602248, 0.208742201328, -0.161446884274, -0.072291001678, 0.038181386888, 0.115620672703, -0.564179718494, 0.091067105532, -0.486844897270, -0.341589093208, 0.656167328358, 0.067888036370, 0.444739878178, -0.126391142607, -0.047483459115, 0.035428602248, 0.208742201328, -0.161446884274, -0.072291001678, 0.038181386888, 0.115620672703, -0.564179718494, 0.091067105532, -0.486844897270, -0.341589093208, 0.656167328358, 0.067888036370, 0.444739878178, -0.126391142607, -0.047483459115, 0.035428602248, 0.208742201328, -0.161446884274, -0.072291001678, 0.038181386888, 0.115620672703, -0.564179718494, 0.091067105532, -0.486844897270, -0.341589093208, 0.656167328358, 0.067888036370, 0.444739878178, -0.126391142607, -0.047483459115, 0.035428602248, 0.208742201328, -0.161446884274, -0.072291001678, 0.038181386888, 0.115620672703, -0.564179718494, 0.091067105532, -0.486844897270, -0.341589093208, 0.656167328358, 0.067888036370, 0.444739878178, -0.126391142607, -0.047483459115, 0.035428602248, 0.208742201328, -0.161446884274, -0.072291001678, 0.038181386888, 0.115620672703, -0.564179718494, 0.091067105532, -0.486844897270, -0.341589093208, 0.656167328358, 0.067888036370, 0.444739878178, -0.126391142607, -0.047483459115, 0.035428602248, 0.208742201328, -0.161446884274, -0.072291001678, 0.038181386888, 0.115620672703, -0.564179718494, 0.091067105532, -0.486844897270, -0.341589093208, 0.656167328358, 0.067888036370, 0.444739878178, -0.126391142607};
