//Numpy array shape (200,)
//Min -0.382306307554
//Max 0.070595256984
//Number of zeros 0

static bias_default_t b2[200] = {-0.015289912000, -0.382306307554, -0.017904562876, -0.024703567848, 0.070595256984, -0.015289912000, -0.382306307554, -0.017904562876, -0.024703567848, 0.070595256984, -0.015289912000, -0.382306307554, -0.017904562876, -0.024703567848, 0.070595256984, -0.015289912000, -0.382306307554, -0.017904562876, -0.024703567848, 0.070595256984, -0.015289912000, -0.382306307554, -0.017904562876, -0.024703567848, 0.070595256984, -0.015289912000, -0.382306307554, -0.017904562876, -0.024703567848, 0.070595256984, -0.015289912000, -0.382306307554, -0.017904562876, -0.024703567848, 0.070595256984, -0.015289912000, -0.382306307554, -0.017904562876, -0.024703567848, 0.070595256984, -0.015289912000, -0.382306307554, -0.017904562876, -0.024703567848, 0.070595256984, -0.015289912000, -0.382306307554, -0.017904562876, -0.024703567848, 0.070595256984, -0.015289912000, -0.382306307554, -0.017904562876, -0.024703567848, 0.070595256984, -0.015289912000, -0.382306307554, -0.017904562876, -0.024703567848, 0.070595256984, -0.015289912000, -0.382306307554, -0.017904562876, -0.024703567848, 0.070595256984, -0.015289912000, -0.382306307554, -0.017904562876, -0.024703567848, 0.070595256984, -0.015289912000, -0.382306307554, -0.017904562876, -0.024703567848, 0.070595256984, -0.015289912000, -0.382306307554, -0.017904562876, -0.024703567848, 0.070595256984, -0.015289912000, -0.382306307554, -0.017904562876, -0.024703567848, 0.070595256984, -0.015289912000, -0.382306307554, -0.017904562876, -0.024703567848, 0.070595256984, -0.015289912000, -0.382306307554, -0.017904562876, -0.024703567848, 0.070595256984, -0.015289912000, -0.382306307554, -0.017904562876, -0.024703567848, 0.070595256984, -0.015289912000, -0.382306307554, -0.017904562876, -0.024703567848, 0.070595256984, -0.015289912000, -0.382306307554, -0.017904562876, -0.024703567848, 0.070595256984, -0.015289912000, -0.382306307554, -0.017904562876, -0.024703567848, 0.070595256984, -0.015289912000, -0.382306307554, -0.017904562876, -0.024703567848, 0.070595256984, -0.015289912000, -0.382306307554, -0.017904562876, -0.024703567848, 0.070595256984, -0.015289912000, -0.382306307554, -0.017904562876, -0.024703567848, 0.070595256984, -0.015289912000, -0.382306307554, -0.017904562876, -0.024703567848, 0.070595256984, -0.015289912000, -0.382306307554, -0.017904562876, -0.024703567848, 0.070595256984, -0.015289912000, -0.382306307554, -0.017904562876, -0.024703567848, 0.070595256984, -0.015289912000, -0.382306307554, -0.017904562876, -0.024703567848, 0.070595256984, -0.015289912000, -0.382306307554, -0.017904562876, -0.024703567848, 0.070595256984, -0.015289912000, -0.382306307554, -0.017904562876, -0.024703567848, 0.070595256984, -0.015289912000, -0.382306307554, -0.017904562876, -0.024703567848, 0.070595256984, -0.015289912000, -0.382306307554, -0.017904562876, -0.024703567848, 0.070595256984, -0.015289912000, -0.382306307554, -0.017904562876, -0.024703567848, 0.070595256984, -0.015289912000, -0.382306307554, -0.017904562876, -0.024703567848, 0.070595256984, -0.015289912000, -0.382306307554, -0.017904562876, -0.024703567848, 0.070595256984, -0.015289912000, -0.382306307554, -0.017904562876, -0.024703567848, 0.070595256984, -0.015289912000, -0.382306307554, -0.017904562876, -0.024703567848, 0.070595256984, -0.015289912000, -0.382306307554, -0.017904562876, -0.024703567848, 0.070595256984};
