//Numpy array shape (64,)
//Min -2.767746686935
//Max 1.718431115150
//Number of zeros 0

bias_default_t b1[64] = {-1.798068881035, -0.057546097785, 0.455367565155, 0.532641351223, -0.050698321313, 0.508147299290, -0.005656045862, -0.128505349159, 0.656481206417, 0.296103656292, 1.313823461533, 0.542411923409, 0.532762289047, -2.767746686935, -0.006424148567, -0.009205585346, 1.075928807259, -0.007300120313, -0.004976112396, -0.186380818486, -0.290352135897, 0.543246388435, 0.554168879986, -0.574187874794, 0.420591115952, -0.105438165367, -0.624662697315, -0.244836434722, -0.002923230873, 0.555412769318, -0.012973205186, -0.137680202723, -0.006604378112, -0.104931496084, 1.718431115150, 0.556163311005, -1.747885584831, 0.519525349140, 0.515634357929, -0.195736885071, -0.005527670961, -0.009050181136, 0.539683640003, -0.042193226516, -1.514844894409, -0.008051294833, -1.263544678688, 0.687578737736, -1.312551379204, 0.882053971291, -2.006630659103, 0.598507583141, -1.967578053474, -0.008840315044, -0.718654811382, -0.465561807156, -0.152349412441, -0.008578058332, -0.008620585315, 0.542274415493, -0.112630821764, 0.499931275845, 0.531549572945, 0.508947491646};
