//Numpy array shape [16, 64]
//Min -3.297986984253
//Max 3.369635820389
//Number of zeros 0

#ifndef W2_H_
#define W2_H_

hls_init_on_powerup static const model_default_t w2[1024] = {0.273135, -0.308133, 1.019504, 2.600476, 1.783566, 2.399256, 0.061401, 0.057061, 0.141640, -0.432655, -0.617845, -0.821790, -0.813224, -0.191576, 0.403162, 0.213250, -0.121133, -0.189896, -1.278486, -1.797780, -1.279242, -2.273168, -0.210094, 0.296056, -0.033000, -0.113823, -0.293836, -0.084619, -0.418444, -0.049572, -0.381133, 0.123330, 0.495215, 0.217661, -1.482519, -3.030394, -1.734813, -2.906820, 0.370053, -0.036321, 0.374172, 0.158532, 0.552767, -0.205609, 0.415338, 0.042594, -0.003551, 0.016090, 0.037433, -0.088949, 0.305786, -0.183328, -0.214793, 0.191537, -0.392486, -0.294067, -0.349792, -0.347419, -0.411017, -0.043177, -0.048775, 0.161876, -0.419293, -0.179612, -0.229119, -0.157268, -1.605198, -3.043973, -2.393447, -2.887498, -0.135044, 0.318907, 0.128437, 0.671312, 0.741750, -0.037608, -0.143059, 0.457275, 0.056883, 0.206870, 0.360423, 0.348966, -0.291486, 0.273306, -0.010807, 0.091916, -0.115763, -0.276672, -0.313506, 0.030280, 0.233119, -0.186580, -0.283420, 0.176770, -0.420010, -0.073346, 0.070297, -0.340707, 0.270184, 0.240356, 0.053225, 0.075411, -0.010746, -0.296612, -0.011539, -0.162970, 0.255259, -0.386207, 0.282418, -0.347747, -0.358792, -0.152816, 0.131797, -0.046610, -1.878840, -2.702432, -1.944830, -2.385295, -0.234164, 0.209416, -0.175168, 0.206725, 0.036053, 0.893337, 0.370225, -0.008793, -0.288782, 0.219190, 0.329366, 0.134220, 1.454583, 1.284483, 0.676390, 1.499734, -0.205178, -0.427983, 0.228266, 0.163779, 0.614335, 1.107565, 0.281763, 0.498277, 0.372897, 0.072869, -0.089943, 0.196787, -1.416212, -2.594375, -1.565587, -1.610679, -0.386143, -0.251310, -0.624515, 0.666090, 0.251511, 1.006725, 0.142345, -0.013842, 0.440368, -0.335262, -0.201648, -0.040031, 0.151520, -0.613471, -0.383150, -0.199196, -0.208175, -0.183349, -0.287053, 0.649726, 1.092785, 1.053616, 0.048330, 0.895018, 0.232166, 0.330306, -0.424578, -0.325480, -0.358111, 0.237620, -0.100253, 0.317419, 0.401348, 0.362016, 0.026572, 0.001272, 0.016299, -0.238729, 0.150811, 0.269498, -0.358364, -0.291897, -0.019859, 0.415914, 0.244462, 0.012509, 0.404541, -0.235133, -0.203583, 0.010979, 0.270087, 0.271719, 0.136110, 0.139156, -0.272034, 0.383242, -0.135543, -0.078602, 0.046937, -0.701312, -0.848580, -0.528606, -0.541264, -1.262635, 0.276005, 0.050631, -0.246176, -0.830819, -0.672473, -0.831910, -0.250263, -0.755954, 0.387434, -0.237456, -0.039577, 0.309158, 0.102062, -0.096062, -0.400669, 0.337238, -0.343126, -0.252476, -0.179420, 0.243089, 0.419397, -0.424167, -0.225473, 0.175892, -0.375669, -0.165726, 0.310571, 0.064623, -0.328541, -0.205275, -0.155467, -0.156295, -0.158355, -0.062601, -0.354056, 0.011824, -0.202155, -0.173989, 0.110241, -0.219216, -0.208206, -0.000308, -0.246747, 0.380237, -0.302754, -1.287940, -0.259135, -0.141693, 0.247497, -0.332122, -0.053014, 0.126975, 0.641711, 0.656038, 0.818623, 0.501161, 0.165816, 0.044506, -0.230013, 0.000889, 0.201727, -0.166103, 0.054635, 0.312938, -0.214001, -0.359790, 0.210918, 0.279785, 0.072266, 0.331779, -0.231385, -0.140038, 0.004828, -0.354600, 0.161370, 0.147690, -2.291535, -2.453594, -2.176440, -2.616347, 0.051227, -0.753239, 0.245504, -0.381371, -0.736615, -1.919453, -0.317960, -1.444863, 0.116160, -0.156960, 0.051096, -0.014933, -0.659388, -0.334398, -0.311982, -1.774073, 0.276136, -0.138940, 0.631875, 0.161640, 0.122654, 0.112092, 0.374731, -0.078010, -0.040756, 0.223171, 0.253647, -0.000864, -0.186581, -0.036005, 0.542264, -1.312447, -0.079303, 0.339861, 0.404963, 0.308090, -0.003051, 0.153719, -0.279202, 0.228696, -0.033591, 0.294222, 0.169251, 0.066234, 0.024518, -0.043773, 0.327169, -0.130753, 0.201016, -0.089687, 0.276496, 0.137269, -0.385031, -0.293400, 0.061150, 0.045598, -0.297258, -0.080517, -0.272928, 0.400543, 1.088241, 0.420761, 1.125796, 0.937534, 0.147078, -0.302683, -0.277801, 0.538692, 0.722420, 0.441355, 0.572542, 0.571127, -0.139040, 0.150507, 0.191058, -0.047296, -0.873592, -0.429801, -0.603063, -1.534964, 0.053876, 0.013097, 0.076058, -0.298780, -1.218325, -1.652387, -0.165372, -0.604469, 0.242354, -0.301621, 0.219535, -0.350285, 0.121940, 0.312022, -0.065523, -0.023626, 0.016936, -0.116006, 0.337254, 0.427084, 0.273314, -0.061701, 0.080605, 0.213320, -0.337665, -0.261629, 0.086750, 0.064563, -2.502319, -2.566433, -2.601746, -2.960811, -0.183354, -0.349858, -0.029038, -0.064899, -0.247700, -0.222658, 0.364442, 0.230533, -0.172818, 0.180735, 0.264500, -0.042972, 0.926737, 2.057194, 1.234787, 1.889471, 0.133182, -0.189945, 0.104101, 0.430946, 0.401046, 0.922062, -0.209464, 0.570207, 0.267667, -0.268592, -0.147008, 0.211301, -0.136405, 0.011977, -0.651381, 0.694289, -0.442778, -0.607250, -0.564340, 0.301417, 0.370285, 1.477216, 0.399912, 0.461014, 0.229689, -0.353018, 0.212724, -0.090170, -0.153395, 0.313736, 0.099231, 0.015784, -0.093424, -0.272471, -0.244021, 0.255388, -0.255285, 0.378128, 0.014557, -0.039308, -0.412845, -0.003823, 0.196727, 0.314800, 0.156745, -0.162132, 0.183579, 0.284798, 0.421009, -0.024385, 0.231577, -0.372705, 0.298333, 0.015636, -0.091719, 0.044318, -0.162317, -0.216414, 0.498628, 0.365965, 1.891878, 2.517211, 1.224110, 1.989484, -0.241093, 0.524141, -0.003687, 0.065702, -0.075091, 0.000567, 0.240315, 0.341601, -0.343978, 0.094403, -0.210499, -0.646822, 1.112034, 2.596637, 1.308121, 1.557761, -0.017720, -0.271731, -0.551960, -0.478566, -0.875913, -0.593462, -0.747560, -0.022092, 0.227152, -0.307265, 0.356007, -0.197390, 0.117144, 0.240932, -0.329800, -0.430030, -0.367862, -0.051973, 0.340793, -0.009757, 0.188921, 0.427071, 0.164642, 0.298995, -0.403884, -0.252722, 0.542698, -0.336994, 1.370299, 2.807724, 1.790081, 2.528727, -0.010182, -0.221252, -0.050272, -0.337579, -0.777802, -0.252405, 0.122172, -0.404479, -0.371098, 0.194826, -0.285917, 0.371947, 0.071111, 0.177846, -0.089278, 1.110918, 0.429246, 0.272112, 0.192413, 0.766329, 0.890018, 0.973295, 0.462585, 1.039827, 0.421564, -0.126441, -0.255521, -0.327944, 1.989767, 2.310274, 2.373009, 2.976413, 0.153819, -0.334345, -0.245918, 0.777056, 0.486443, 0.815364, 0.635791, 0.515427, 0.016639, 0.285790, 0.086795, -0.210957, 0.418448, 2.218928, 1.344615, 1.540939, 0.356409, -0.253047, -0.047155, -0.958564, -1.069086, -1.445942, -0.252853, -0.447621, -0.041291, 0.388397, 0.234688, 0.412248, 0.003406, -0.193459, 0.158749, -0.347251, 0.078111, -0.216724, -0.346642, 0.301393, 0.061910, 0.202061, 0.320064, 0.189233, -0.260040, -0.219277, -0.025366, 0.171323, 0.025013, -0.347964, -0.191825, 0.144640, -0.403248, 0.301356, 0.406608, -0.062792, 0.115644, -0.150157, 0.425670, 0.338409, -0.381322, -0.108935, 0.248845, 0.288576, -1.496005, -3.297987, -2.310403, -2.622312, 0.127095, -0.396974, 0.228087, 0.471476, -0.164828, -0.452895, 0.226244, -0.159363, 0.191890, -0.200573, 0.188654, 0.225124, -0.053586, -0.130582, 0.331655, 0.013534, -0.039987, 0.163508, -0.000056, -0.277415, 0.107073, -0.359722, 0.047984, -0.225079, -0.327390, -0.234168, 0.175912, 0.344751, 0.177662, -0.092778, -0.142149, -0.384809, -0.018533, 0.374339, 0.163087, -0.073746, 0.361579, 0.220862, -0.125339, -0.032128, -0.135727, -0.283343, 0.268369, 0.026592, 0.301277, 0.263519, -0.232307, -0.042200, 0.274764, 0.251497, 0.353482, -0.268094, 0.110360, 0.358330, 0.276458, 0.245480, -0.039681, -0.107299, 0.014158, -0.136842, 1.284526, 1.373523, 0.727347, 1.542568, 0.184183, -0.277811, 0.597325, -0.633311, -1.000226, -1.284722, -0.006051, -0.583890, -0.222159, 0.126236, 0.346846, -0.119317, -0.403379, 0.053404, -0.268947, -0.705243, 0.217380, 0.252130, 0.182204, -0.175470, -0.513830, -0.898298, -0.145411, -0.571202, 0.392085, -0.018187, 0.274150, 0.141635, 1.064961, 2.205122, 1.230260, 2.340968, 0.187193, -0.229283, -0.241870, -0.725495, -0.403309, -1.200652, -0.834683, -0.292004, -0.012267, 0.076124, 0.366341, 0.553068, 1.286978, 1.664251, 1.219928, 2.479700, -0.296575, 0.033450, 0.157198, 0.507597, 0.445890, 0.508524, 0.034099, 0.383624, 0.382095, -0.259085, -0.222606, 0.376693, -2.046920, -2.260995, -1.956733, -2.530426, -0.329101, -0.484271, 0.330554, -0.042620, -0.363467, -1.092108, -0.232629, -0.412493, 0.357910, 0.404955, 0.206034, -0.007151, 2.463479, 3.171066, 2.719258, 3.369636, 0.411390, 0.223494, -0.287901, -0.867417, -1.072820, -0.726804, -0.538240, 0.134252, 0.203176, -0.031334, -0.336740, 0.071149, -1.020632, -2.665818, -1.651244, -2.451840, -0.028306, 0.120945, 0.257324, 0.391855, -0.112664, 0.438606, -0.173416, 0.322539, 0.241516, 0.030046, -0.182617, -0.816902, -0.825391, -0.766640, -0.078170, -1.142532, -0.320217, 0.126506, 0.087767, -0.403441, 0.177811, 0.133557, 0.176749, -0.373408, 0.394697, -0.127786, -0.043696, -0.165144, -1.695020, -3.054119, -2.580229, -3.193181, -0.377648, -0.326484, 0.192257, 0.748731, 1.188340, 1.130022, 0.426332, -0.004059, 0.172993, -0.037055, 0.003004, -0.471017, 1.549431, 2.541069, 2.095423, 2.091885, 0.033962, -0.076791, -0.443884, -0.519765, -0.568878, 0.188795, -0.102156, 0.063948, 0.410429, -0.318056, 0.102707, -0.420622, -0.044389, 0.241335, 0.354932, 0.000051, 0.352228, -0.310470, -0.006297, -0.337518, -0.304625, 0.323204, 0.362332, -0.169951, -0.057313, -0.404660, 0.195791, -0.035478, 1.091339, 2.022059, 1.620336, 1.244359, -0.017640, 0.022095, 0.398226, 0.012455, -0.396015, -0.229510, -0.551290, 0.613724, 0.189154, -0.028650, -0.003663, -0.762189, -0.584125, -1.106489, -0.128201, -1.908807, 0.279769, -0.365216, 0.300797, -0.272233, -0.570617, -0.268332, -0.492345, 0.139449, 0.150814, 0.050694, -0.446295, -0.445095, -0.176961, 0.258661, -0.258301, -0.349347, 0.374200, 0.225643, 0.153798, 0.210986, 0.287523, 0.128949, 0.201786, 0.260794, -0.132763, -0.152988, 0.014405, 0.414398, 0.277110, -0.286016, 0.378972, -0.229457, -0.181100, -0.403039, 0.022585, -0.269574, -0.369754, -0.020716, -0.379469, -0.406777, -0.348425, -0.047914, 0.427349, -0.048379, 0.195735, 0.247524, 0.199756, -0.033601, 0.194471, -0.182294, 0.202739, 0.060689, 0.040430, 0.320804, 0.230844, 0.293686, -0.188095, -0.264026, -0.289335, 0.315137, -0.428089, -0.429504, -0.123926, -0.405460, 0.247585, 0.153590, -0.211979, -0.256174, 0.387011, 0.297250, -0.147891, 0.395116, -0.214013, -0.091312, -0.285992, -0.139220, -2.055137, -2.708973, -1.835259, -2.800516, 0.169474, 0.161595, -0.370058, 0.232477, 0.140795, 1.040600, 0.379279, 0.352927, -0.230736, 0.112866, -0.383003, 0.100872, 0.332899, 0.601162, 0.176554, 1.838994, 0.112338, -0.204061, -0.344726, -0.774321, -0.513953, -0.980359, -0.349690, -0.346898, 0.396929, 0.301265, -0.345495, 0.452602, 1.175357, 1.957022, 1.632632, 1.648939, -0.008316, 0.239298, 0.101783, -0.368911, 0.390756, -0.129187, 0.266655, -0.211443, -0.226509, 0.052819, 0.133836, 0.404373, 0.207400, 0.075948, 0.068939, -0.432235, 0.257291, 0.189622, 0.059409, 0.231934, -0.100580, 0.080688, -0.260493, 0.355697, 0.018039, -0.365121};

#endif
