//Numpy array shape [64, 32]
//Min -1.438469171524
//Max 0.551247417927
//Number of zeros 0

#ifndef W4_H_
#define W4_H_

hls_init_on_powerup static const model_default_t w4[2048] = {0.027016, 0.107017, 0.020954, -0.069751, -0.049888, -0.076813, 0.045196, -0.040270, 0.178507, 0.066478, 0.003904, 0.117664, -0.147366, -0.171361, 0.009718, 0.033656, 0.014139, -0.201595, -0.156774, -0.199230, -0.224660, 0.064948, -0.115443, -0.189267, -0.104139, 0.320309, 0.193445, 0.072118, 0.189694, -0.004805, -0.242941, -0.129810, -0.155914, 0.054573, 0.167706, 0.181393, -0.266537, 0.188574, 0.063182, 0.196742, 0.111042, 0.112830, -0.372915, -0.138564, -0.166293, 0.333941, 0.205814, -0.168040, -0.015573, -0.071428, 0.027659, -0.111986, -0.107407, -0.200417, 0.050113, -0.225412, 0.006189, -0.065897, -0.209588, 0.031970, 0.007368, 0.198300, 0.053799, 0.134339, 0.009420, -0.189889, -0.083281, 0.214225, -0.233429, -0.145916, -0.103178, -0.130869, 0.162436, -0.174423, 0.032983, -0.165223, 0.044240, -0.176832, -0.062679, -0.086781, 0.119092, -0.139903, -0.222085, 0.177335, 0.104835, 0.143653, 0.187407, -0.067911, 0.114253, -0.212846, 0.106001, 0.128448, -0.216187, 0.049197, 0.259592, 0.134127, 0.104406, -0.001084, -0.013810, 0.231400, 0.004796, 0.062758, -0.113109, -0.247565, 0.203287, 0.003860, 0.217175, 0.027030, -0.074018, 0.232006, 0.109839, -0.174869, -0.016529, 0.157383, 0.095153, -0.144018, 0.205865, -0.099067, 0.169457, -0.080055, 0.068500, -0.168971, -0.147961, 0.202228, -0.184952, 0.073256, 0.026666, 0.215717, -0.183516, -0.078830, -0.058688, -0.195062, 0.106034, 0.053024, 0.075879, 0.053996, -0.141676, 0.199158, -0.142359, -0.187081, 0.087521, -0.148444, 0.013378, 0.141300, 0.193041, -0.205752, -0.145674, 0.195455, 0.254366, 0.108333, 0.119161, 0.036265, 0.005221, -0.057477, -0.074117, -0.007467, -0.153005, 0.051742, -0.108322, 0.198755, -0.164631, -0.522157, 0.144387, -0.241356, -0.237047, -0.056262, 0.124195, 0.314053, -0.048660, -0.174618, 0.301220, 0.208484, -0.080445, -0.162837, 0.048203, -0.093851, -0.112541, 0.082252, -0.153211, 0.023948, 0.092561, -0.193952, -0.085864, 0.058146, 0.179139, -0.100721, 0.011315, 0.013873, -0.051836, -0.184122, 0.184434, 0.165164, 0.003948, -0.126839, -0.250551, 0.140954, -0.242947, -0.108002, -0.177845, -0.048121, 0.108928, -0.132783, 0.087606, 0.211035, -0.030796, 0.198263, -0.192372, -0.074776, 0.124197, 0.159177, -0.058827, 0.055854, 0.034791, 0.087247, 0.168716, 0.077151, -0.003202, 0.133082, 0.227109, 0.055105, 0.159819, 0.153609, 0.048403, 0.040006, -0.014771, 0.111174, 0.050806, 0.226581, -0.041651, 0.147551, 0.050091, -0.160150, 0.091603, -0.168526, -0.139383, 0.223102, 0.138558, -0.045883, 0.044293, -0.009488, 0.225265, -0.227333, 0.162979, 0.173496, -0.064861, 0.133634, 0.040841, 0.061827, -0.033674, 0.153616, -0.149742, -0.209517, -0.087782, -0.187616, 0.113067, 0.124870, 0.072700, -0.175416, 0.463984, 0.153100, 0.125077, 0.090844, -0.078967, -0.210169, 0.015071, -0.164027, 0.115646, -0.075032, 0.015831, 0.151912, 0.037798, 0.147162, -0.153826, -0.099269, -0.004437, 0.239133, 0.161796, -0.036935, 0.282204, -0.010055, 0.170939, -0.050784, -0.008594, -0.083852, 0.017726, -0.103800, -0.009089, 0.180771, 0.135372, 0.067359, 0.146153, -0.121877, -0.111101, -0.214339, -0.184421, 0.082072, 0.076801, -0.167339, 0.308468, -0.154251, -0.102031, -0.029644, -0.103729, 0.138784, 0.041367, -0.180829, 0.070059, -0.004443, 0.099559, 0.188208, -0.043019, 0.095786, 0.058502, -0.216166, -0.146077, -0.127525, -0.186618, -0.143753, -0.258272, -0.082774, 0.178495, 0.027233, 0.376439, -0.005801, 0.139460, -0.082871, -0.054455, 0.188813, -0.105026, 0.003214, 0.054678, -0.194389, 0.158902, -0.006377, -0.167026, 0.167622, -0.245034, 0.104642, 0.140896, -0.044161, 0.163634, 0.204575, 0.156684, 0.068221, -0.101742, -0.057933, 0.115407, 0.066385, 0.077455, 0.101193, 0.060720, 0.203808, 0.112548, 0.157885, -0.110829, -0.113370, 0.112130, 0.119448, 0.039204, -0.014527, -0.122802, -0.014541, -0.067634, -0.257106, 0.146954, 0.092244, -0.189849, 0.025452, -0.169005, 0.047433, 0.199861, 0.169800, 0.112074, -0.139617, 0.056078, 0.122507, -0.357246, 0.202630, 0.203084, -0.019516, 0.031477, 0.181906, 0.063193, -0.136954, 0.175547, -0.154801, -0.627559, 0.155591, -0.243112, 0.161751, 0.012070, -0.210428, -0.082257, 0.060941, -0.207179, -0.181325, -0.197538, 0.058363, 0.060573, -0.061264, -0.150128, -0.007020, 0.047703, -0.106569, -0.085806, -0.155127, -0.143781, 0.220086, 0.153740, 0.041080, 0.153181, -0.156639, -0.127601, 0.108141, 0.031588, 0.081707, 0.023828, -0.197705, -0.228632, 0.090294, 0.156581, -0.127554, -0.086240, -0.239680, 0.133845, -0.151558, 0.008323, -0.046143, -0.029279, -0.084199, -0.160406, 0.073208, -0.062900, 0.046566, 0.160031, -0.194692, 0.225646, 0.214345, 0.179655, 0.234329, 0.198362, 0.073495, -0.062962, 0.068638, 0.010729, 0.129628, -0.034653, -0.135150, -0.151394, -0.206506, -0.098639, -0.142878, -0.078329, 0.075080, -0.062005, -0.033584, 0.029403, 0.189891, 0.024428, -0.109922, 0.143974, -0.130634, 0.136699, 0.124690, 0.064602, 0.118722, 0.119686, 0.056107, -0.079585, -0.022024, -0.087416, -0.101353, -0.061612, 0.014579, -0.151005, 0.057299, -0.135907, 0.198570, 0.180893, 0.046506, -0.066449, 0.040923, -0.029885, 0.068272, 0.007578, 0.174801, 0.163057, 0.169547, 0.156002, 0.087496, -0.172693, -0.203860, 0.040967, 0.086987, 0.084984, 0.156590, -0.132472, -0.200851, -0.160212, 0.127199, -0.152851, 0.110177, -0.012818, 0.199123, 0.053710, -0.015255, -0.156999, 0.121435, 0.099514, -0.158671, -0.039531, 0.119647, -0.038707, 0.008688, -0.389221, -0.212728, 0.068635, 0.141874, -0.083377, 0.050489, 0.045503, 0.206911, 0.020787, 0.036278, 0.099785, 0.077698, -0.100920, 0.089402, 0.004025, -0.215092, 0.177467, -0.069349, 0.138255, -0.206596, 0.006092, 0.194236, 0.066845, -0.002475, 0.023455, -0.006513, -0.014216, 0.169244, 0.004687, 0.157164, -0.094074, -0.262734, -0.104267, 0.152535, -0.008114, 0.170759, 0.139594, -0.203462, 0.168918, 0.008271, -0.183568, 0.210254, -0.198454, -0.694175, -0.124920, 0.018784, 0.134921, 0.169289, 0.149167, -0.066777, 0.063809, -0.168705, 0.094470, 0.050722, -0.109464, -0.198103, 0.136903, -0.050094, -0.016613, -0.129289, 0.033542, 0.206260, -0.135990, -0.084202, 0.551247, -0.084749, 0.047712, -0.200561, -0.024572, -0.024255, 0.089835, 0.240600, -0.171452, 0.190816, 0.155301, -0.025577, -0.124297, -0.030291, 0.184886, -0.082815, 0.347645, -0.010577, -0.204666, 0.049056, 0.178381, 0.014420, 0.198355, 0.184760, -0.192253, -0.032484, 0.005547, 0.154667, -0.148998, 0.032854, -0.095770, 0.139642, 0.122635, 0.019598, -0.057500, 0.156102, -0.024177, 0.158543, 0.212577, 0.037251, -0.036067, 0.269192, 0.020633, -0.011177, 0.044341, 0.174606, -0.003935, -0.137856, -0.029558, -0.119126, 0.138905, -0.147501, 0.026608, -0.117474, -0.077642, -0.144673, 0.205433, -0.199940, 0.127001, -0.002291, 0.121206, -0.092886, 0.211094, -0.108569, 0.496720, -0.201079, 0.124226, -0.161911, 0.207460, -0.172506, -0.093907, -0.016530, -0.137456, 0.090102, 0.010211, -0.207354, 0.091487, 0.001116, -0.135219, -0.186882, -0.227203, -0.105984, -0.004202, -0.096469, 0.088970, 0.035351, 0.025632, -0.180365, 0.049281, 0.039947, -0.130021, -0.131344, 0.404524, 0.165359, -0.055893, 0.233939, 0.121407, 0.102211, -0.131805, 0.024282, -0.120280, 0.008875, -0.190418, -0.121868, -0.268427, -0.024270, 0.131052, 0.228907, 0.107710, -0.057691, 0.209533, 0.032033, -0.130153, -0.181062, -0.201060, 0.090137, -0.032294, -0.063838, -0.232513, 0.169246, -0.209789, -0.037328, -0.122322, 0.084124, 0.324813, 0.046791, 0.110985, 0.149623, -0.390410, 0.087458, 0.038829, 0.076284, -0.035034, -0.139890, 0.019187, -0.178744, 0.131394, -0.008880, 0.006214, 0.136323, 0.038340, -0.204173, -0.204261, 0.121684, -0.281210, 0.118088, 0.045911, 0.066617, -0.028845, -0.206121, 0.189486, 0.161356, -0.150698, 0.279649, 0.194322, 0.166026, 0.054853, -0.066310, 0.106835, -0.070361, 0.060776, -0.192258, 0.186597, 0.033529, -0.127154, 0.052279, -0.131612, -0.102369, -0.224415, 0.009577, 0.193590, -0.094755, -0.187908, -0.128695, -0.144475, 0.066060, -0.053949, 0.125613, 0.103069, -0.007978, -0.026953, 0.192938, 0.112204, 0.174850, -0.040847, 0.182161, 0.000074, 0.113311, -0.202986, -0.189049, -0.199344, 0.092501, 0.379627, 0.070767, 0.085086, -0.202274, 0.130001, 0.222708, -0.042347, 0.113882, 0.028975, 0.189778, -0.106660, 0.128495, -0.134169, 0.070007, 0.242177, 0.160589, 0.399272, -0.189963, 0.003128, -0.187157, -0.089407, -0.018047, -0.184340, 0.073676, 0.084806, 0.128345, -0.134927, 0.014331, -0.034084, -0.321553, 0.012546, 0.218508, -0.084880, -0.183176, -0.085942, -0.015331, -0.013934, 0.254794, -0.053504, 0.171024, -0.071521, -0.014424, 0.060140, 0.051731, 0.122614, 0.213580, -0.201523, -0.120318, -0.027451, 0.173445, -0.159668, 0.040421, 0.076574, -0.008601, -0.307416, 0.091735, -0.096329, -0.189193, 0.107286, 0.119644, 0.058650, 0.081743, 0.035783, 0.118286, 0.236011, -0.065685, 0.136346, -0.013162, -0.149415, 0.115638, 0.146817, 0.072637, 0.195054, 0.199043, -0.133007, 0.037282, 0.186572, -0.155154, -0.039836, 0.212425, 0.249804, -0.016143, -0.158318, 0.149696, 0.151276, -0.286931, 0.081939, 0.223770, -0.043295, 0.024566, 0.170928, -0.057569, 0.007137, 0.028548, -0.188503, -0.058765, 0.110980, 0.010785, -0.129353, 0.098882, 0.122780, -0.198277, 0.173671, -0.206721, 0.012341, 0.084746, -0.068453, -0.250207, -0.191625, -0.090927, -0.273039, 0.101709, -0.013951, 0.198379, 0.134223, 0.059448, 0.025276, -0.062956, -0.128157, -0.159064, -0.169586, -0.188578, -0.185436, 0.159130, 0.107668, 0.086838, -0.006497, -0.262604, -0.266771, -0.175893, -0.140486, 0.194714, 0.097029, 0.179602, 0.132238, 0.012044, 0.095521, -0.049523, -0.054333, -0.132138, 0.043764, 0.061294, 0.109078, -0.006327, -0.339504, -0.202687, 0.006000, 0.202505, -0.111612, 0.070258, -0.152766, 0.014008, -0.116574, 0.203637, 0.180229, -0.128391, -0.341034, 0.125548, -0.152659, -0.143486, 0.214654, 0.104131, 0.101666, -0.199731, -0.199419, -0.205091, 0.157304, 0.142264, 0.223954, -0.158740, -0.097517, 0.536888, 0.190972, -0.167992, 0.168236, 0.000763, -0.183055, -0.119534, 0.195379, -0.155971, -0.124307, -0.228078, 0.065499, 0.060308, -0.091417, -0.087992, 0.160622, 0.154676, -0.194451, 0.003306, 0.141164, 0.061115, -0.379829, -0.060869, 0.138715, -0.183035, -0.164451, -0.127010, 0.142716, 0.054243, 0.125558, -0.086235, 0.018598, 0.180609, 0.214634, -0.064340, -0.076565, 0.032754, -0.415493, 0.022977, -0.143767, -0.006398, -0.065452, -0.180008, 0.071505, 0.023462, 0.077703, -0.222547, 0.019790, 0.035376, -0.129479, 0.179678, -0.170208, 0.115523, -0.114725, -0.194110, 0.226062, 0.024740, -0.141658, -0.222508, -0.154657, -0.003336, -0.036808, 0.104060, -0.072360, 0.053821, -0.024018, -0.067652, 0.218340, -0.031401, 0.002017, -0.018247, 0.182350, -0.067647, 0.148836, 0.003297, -0.056707, -0.083195, -0.185643, 0.039076, -0.034108, 0.092604, 0.188590, -0.189339, 0.102284, 0.011870, 0.386833, 0.022056, -0.102752, -0.119513, 0.049997, 0.078821, 0.099717, 0.014687, 0.131931, 0.063585, 0.159738, -0.179046, 0.054286, -0.026969, 0.225629, 0.015839, 0.037379, -0.172126, 0.063880, 0.094670, -0.044210, 0.037673, -0.076712, 0.169343, 0.007076, 0.099708, -0.143603, 0.186668, -0.009587, -0.109452, 0.185415, 0.286800, 0.189648, -0.031538, -0.218922, -0.000477, 0.080791, 0.152950, 0.121699, -0.123071, 0.045679, 0.214122, 0.040629, -0.211369, -0.168643, 0.059905, -0.109587, 0.159612, -0.044585, 0.025134, -0.111783, -0.139048, -0.102782, 0.148424, 0.149455, 0.054684, 0.083197, -0.172804, -0.155566, 0.091984, 0.133384, 0.020613, 0.040062, 0.104046, -0.106156, -0.115672, -0.151665, 0.180328, 0.133798, -0.167882, 0.051097, -0.204328, -0.155145, -0.098590, -0.017888, -0.061321, 0.140423, 0.161377, -0.124797, 0.140733, -0.072011, 0.194607, -0.162399, 0.099611, -0.129260, -0.145232, 0.116880, -0.157052, -0.076758, 0.103664, 0.084676, -0.020562, -0.033272, -0.168408, 0.054738, -0.178879, -0.186829, -0.184253, 0.176024, -0.094922, 0.110459, 0.042615, 0.121147, -0.094271, -0.003367, 0.146798, 0.016656, 0.130873, -0.190907, 0.069978, -0.216373, 0.086173, 0.120961, -0.007492, 0.193825, 0.180139, 0.158135, -0.126418, 0.087907, 0.077259, 0.212258, 0.212277, 0.012096, -0.156305, 0.172949, 0.007493, -0.196297, -0.026342, -0.135845, 0.214496, 0.040112, 0.072629, -0.161758, 0.030064, -0.168219, 0.180639, -0.015375, 0.144675, -0.011380, -0.127739, -0.201735, 0.146961, 0.214671, -0.001976, -0.221957, -0.107117, 0.072029, 0.041145, 0.052453, -0.220177, -0.063887, -0.128772, 0.182889, -0.000447, -0.111880, 0.028136, 0.136047, -0.243515, 0.131190, 0.159034, 0.006799, 0.258047, 0.053831, -0.096450, 0.165674, 0.123602, -0.203586, 0.024071, -0.154001, -0.000030, 0.021028, 0.007176, 0.155758, 0.140101, 0.143331, 0.000116, -0.218133, 0.170898, 0.131112, 0.179799, 0.209583, -0.151594, -0.172906, 0.215482, 0.131826, 0.051078, -0.188381, 0.021840, 0.170766, -0.033258, 0.059823, -0.001893, -0.091791, 0.078901, 0.011627, -0.079086, -0.150019, 0.134538, -0.055802, -0.238194, -0.177234, 0.036494, -0.065120, -0.175274, -0.173230, -0.105596, -0.070010, -0.066337, 0.014339, 0.090226, 0.004204, -0.006766, 0.154442, 0.047924, -0.198822, 0.108435, -0.093022, 0.170170, 0.034892, -0.166266, -0.190930, 0.011243, 0.027923, 0.147217, 0.075711, 0.153779, 0.109185, -0.073026, 0.170511, 0.206578, -0.033821, 0.210006, -0.018747, -0.089878, -0.127858, -0.153017, -0.108227, 0.192957, -0.020181, -0.029917, -0.211625, 0.122340, -0.177206, 0.159304, 0.109745, 0.174000, -0.084253, -0.003947, -0.110901, -0.169537, 0.156566, -0.026457, 0.138680, 0.189290, 0.067337, 0.166561, 0.262650, 0.131903, -0.101410, -0.150388, -0.064724, -0.153378, -0.096218, -0.176270, -0.071723, -0.077929, -0.134074, -0.048735, 0.073284, -0.129104, -0.102972, -0.108279, 0.063293, -0.069069, -0.052745, 0.092334, 0.036801, -0.146318, -0.062167, -0.200877, -0.019162, 0.293386, -0.006604, -0.139130, 0.304484, 0.122946, 0.168629, 0.146994, -0.138867, 0.176729, 0.103473, 0.023352, 0.195919, 0.120258, -0.163960, -0.017579, 0.305318, 0.186737, -0.152781, 0.391081, 0.024204, -0.026848, -0.012625, 0.055533, -0.066309, -0.236227, 0.050517, -0.197493, 0.233992, 0.142642, -0.060927, 0.020211, 0.077864, -0.097564, -0.246637, 0.215414, 0.041948, 0.097786, -0.026826, -0.173230, 0.230744, -0.134049, -0.064873, 0.097220, 0.212928, 0.069507, -0.061923, -0.015354, -0.009161, 0.188739, -0.073374, -0.093731, 0.125177, 0.078011, -0.109785, 0.102969, -0.027047, -0.160384, 0.040968, 0.045881, 0.226178, 0.042155, 0.130302, 0.163079, 0.037738, 0.163837, 0.192535, 0.115321, -0.111912, 0.112433, -0.047473, -0.144468, -0.050670, 0.152454, -0.059089, -0.207985, -0.019093, 0.045181, 0.074786, 0.173227, -0.213853, -0.081907, -0.100207, 0.337357, 0.081491, 0.005123, -0.128601, 0.041578, 0.038949, 0.112614, 0.016113, -0.166411, 0.028513, -0.341768, 0.029991, -0.004368, 0.007306, 0.127970, 0.052651, 0.160572, 0.175113, 0.016871, -0.045904, 0.200454, -0.181844, 0.196818, -0.195708, 0.086767, -0.017686, 0.179486, 0.193565, -0.216504, -0.216084, 0.119727, -0.067048, -0.140151, 0.174563, -0.159669, 0.058563, -0.152998, 0.082538, 0.025655, 0.111574, -0.167906, 0.209657, -0.020106, 0.021725, 0.011254, -0.155681, 0.048307, 0.157476, 0.124012, 0.097885, -0.019912, -0.013590, 0.185205, -0.071432, -0.056826, -0.063326, 0.179182, -0.090042, -0.024858, -0.050758, 0.131938, 0.160248, 0.153083, -0.214714, -0.064526, -0.111798, -0.097521, -0.020269, 0.152336, 0.094700, 0.080735, -0.111078, 0.192339, -0.129053, 0.154410, -0.128204, -0.057293, 0.034985, -0.179156, -0.014528, -0.030815, 0.005506, 0.172915, -0.115883, 0.075041, -0.170325, -0.061504, 0.002646, -0.173295, -0.017023, -0.016397, 0.142642, 0.208463, -0.047223, 0.033560, 0.211958, -0.132860, -0.089516, 0.194533, 0.054010, -0.143157, 0.057741, 0.130265, 0.010631, -0.040365, 0.158276, -0.050923, 0.081658, 0.042826, -0.158736, -0.056075, 0.016882, -0.081393, 0.082879, 0.049061, 0.078848, 0.161572, -0.204168, 0.187157, -0.064207, -0.084612, -0.009455, 0.028197, 0.092277, 0.081435, -0.038878, -0.159234, -0.043084, 0.000022, 0.153213, -0.221007, 0.087864, -0.215603, -0.109103, -0.057422, -0.006584, -0.021053, -0.073454, 0.059365, -0.198835, 0.168411, 0.000893, -0.009292, 0.116369, 0.019030, -0.104003, 0.083211, -0.088891, -0.122263, -0.548317, 0.086882, -0.006351, 0.160771, -0.106747, 0.248862, -0.097235, 0.028828, 0.051388, -0.038509, -0.059800, 0.083164, 0.115187, -0.208598, -0.153085, -0.010538, 0.049320, 0.061660, 0.231555, 0.085675, 0.168343, -0.034410, 0.150175, -0.109181, 0.235092, -0.151158, 0.160659, -0.118066, -0.102894, 0.093252, -0.072959, -0.142191, -0.017962, 0.232877, 0.241571, 0.049400, 0.199502, 0.162812, -0.015811, 0.095665, 0.373883, -0.118399, 0.182745, -0.436097, -0.109512, -0.038787, 0.154024, -0.148100, 0.132486, -0.134621, -0.091847, -0.097010, 0.184943, -0.148479, 0.354070, -0.096106, -0.202164, -0.137522, 0.184258, -0.036929, 0.134297, -0.141632, -0.171858, -0.068897, -0.103543, -0.070467, -0.110229, 0.140134, 0.199184, 0.094315, 0.203660, -0.103357, -0.028477, 0.205573, -0.004234, 0.029821, -0.194027, -0.069549, 0.048037, 0.104519, -0.028581, -0.010786, -0.121001, -0.210584, 0.141510, -0.131253, -0.128773, 0.155688, 0.101771, -0.109594, -0.046196, 0.001519, 0.180936, 0.207719, 0.076635, -0.069814, -0.204165, 0.007633, 0.064076, -0.014641, 0.181127, -0.123876, -0.037205, 0.176235, 0.127002, -0.010731, 0.178100, 0.292822, 0.132838, -0.041113, 0.279191, -0.262008, -0.085837, -0.038461, -0.019534, 0.180581, 0.027033, -0.012842, 0.135186, -0.080941, 0.083426, -0.015973, -0.169489, 0.197179, -0.132070, -0.123600, 0.085316, 0.297485, -0.104296, 0.176125, 0.009703, -0.063981, -0.093324, 0.011072, -0.026261, 0.162206, -0.085627, -0.067508, -0.143605, 0.057914, -0.030488, 0.029818, 0.204745, 0.129221, 0.005513, 0.127419, -0.205168, -0.149749, -0.215242, 0.104691, -0.033748, 0.192959, 0.038151, -0.228227, -0.036339, 0.176900, 0.005305, -0.322878, -0.075422, -0.097317, -0.143729, 0.110306, -0.129841, 0.078342, -0.202587, -0.100875, 0.053705, -0.138260, -0.134546, -0.061892, -0.108051, -0.300048, -0.043003, -0.025365, 0.127549, 0.204340, 0.213599, 0.146566, -0.090628, 0.213856, 0.040150, 0.018340, 0.088485, -0.122304, -0.174149, -0.069379, -0.075368, 0.187013, -0.060136, -0.162033, 0.212497, 0.068386, -0.347683, 0.145220, -0.096129, 0.202250, -0.136093, 0.205548, -0.175923, 0.150382, -0.178063, 0.186007, 0.215523, 0.146541, 0.046083, -0.145641, -0.136241, -0.129080, -0.095893, 0.048325, -0.139817, 0.071804, 0.085558, -0.024139, -0.122898, 0.215801, 0.048624, -0.173385, -0.045979, 0.054603, -0.150720, 0.257105, -0.067558, -0.172674, -0.039670, 0.205881, 0.148144, -0.181650, 0.103165, -0.129215, 0.003684, -0.046522, -0.228975, 0.176861, 0.157189, -0.072994, -0.068074, 0.008869, 0.228588, -0.050233, -0.020625, -0.127010, 0.096899, 0.092750, 0.220697, -0.179599, -0.009392, 0.116296, -0.071954, -0.099996, -0.064234, 0.124639, 0.029974, 0.181794, 0.122763, -0.198504, -0.460227, -0.029040, 0.154898, -0.011275, 0.143056, 0.138450, -0.118766, -0.146617, -0.039437, -0.108409, -0.187935, 0.183650, -0.039873, 0.084730, -0.111425, -0.110217, -0.298121, 0.106272, 0.185033, -0.213096, -0.090959, 0.105104, -0.000231, 0.075424, 0.151296, 0.008608, 0.074485, -0.184920, -0.299465, 0.202700, 0.208810, 0.005004, -0.088568, 0.103395, 0.152010, 0.100293, 0.097790, 0.011037, -0.081853, -0.078151, -0.027198, -0.087770, -0.207563, -0.309911, 0.001765, -0.197317, 0.218753, 0.054340, 0.141766, -0.115566, 0.164344, -0.068467, 0.085799, -0.073435, 0.088456, -0.014477, 0.097189, -0.117603, 0.161387, 0.062058, -0.147067, -0.207892, 0.028036, 0.114721, 0.048944, 0.197689, -0.117667, -0.060423, -0.157595, -0.125411, 0.138770, -0.066088, -0.080650, 0.011055, -0.162381, -0.049942, -0.058399, -0.158513, 0.000065, -0.193363, -0.169786, -0.061623, -0.031733, 0.061370, -0.061462, 0.092392, 0.055576, 0.019728, 0.040257, -0.199913, -0.122712, 0.089936, 0.127687, -0.157368, 0.209036, -0.146415, -0.113486, 0.136825, -0.210906, 0.111625, 0.002042, 0.200943, -0.155971, 0.015162, 0.067409, -0.070524, -0.188203, 0.008388, 0.206467, -0.038994, -0.006675, -0.090531, -0.141705, -0.046590, -0.102696, 0.055764, 0.003260, -0.036086, 0.088471, -0.044455, 0.076907, -0.025416, -0.098545, 0.185350, 0.035597, 0.099292, -0.035809, 0.127358, 0.348649, -0.052390, 0.108024, 0.081998, 0.161304, -0.090164, 0.062098, 0.017831, 0.200890, 0.017923, 0.146728, -0.003834, -0.188392, 0.059301, -0.029135, -0.030700, 0.042661, -0.139388, -0.220324, -0.146306, 0.148262, -0.049294, 0.156609, -0.154193, -0.020745, -0.046892, -0.162552, 0.199103, 0.324392, -0.166372, 0.188617, 0.076831, -0.058071, -0.211150, -0.093413, -0.109591, 0.020263, 0.361430, -0.101873, 0.154385, -0.020754, 0.049771, -0.205363, 0.151096, 0.076117, 0.069749, 0.156411, 0.148282, -0.166738, 0.104277, -0.118385, -0.205328, -0.143162, -0.251397, -0.036599, -0.155493, -0.166452, -0.172513, -0.236589, 0.080164, -0.084910, -0.037972, 0.095653, -0.084017, -1.438469, -0.017934, -0.172993, -0.145774, -0.186044, 0.075307, 0.172709, 0.111916, -0.007359, -0.211509, -0.207419, -0.153484, -0.003756, -0.091704, -0.135571, -0.103877, -0.141885, -0.160194, 0.006674, 0.213163, -0.064607, -0.106835, 0.083104, 0.040089, 0.074835, 0.071933, 0.150419, 0.001229, 0.085129, 0.217548, -0.213259, 0.108653, -0.015382, 0.186273, 0.085567, -0.044025, 0.172578, 0.061822, -0.096221, -0.010007, 0.084399, -0.073350, -0.020846, 0.288249, 0.176513, -0.165669, 0.125755, -0.219283, 0.068939, -0.096342, 0.037699, 0.088139, 0.166527, 0.124305, 0.096704, -0.044227, -0.126929, -0.107950, 0.071903, 0.045717, 0.049096, -0.128502};

#endif
