//Numpy array shape (128, 10)
//Min -0.75086170435
//Max 0.573407232761
//Number of zeros 0

weight_default_t w2[1280] = {0.257083207369, 0.00987492501736, -0.195145428181, 0.0064695905894, -0.0652448683977, 0.133939012885, 0.0633957237005, -0.199019148946, 0.0456181615591, 0.167758226395, 0.168172463775, -0.257925659418, -0.379311472178, -0.168790504336, 0.0958174839616, -0.120554946363, -0.0747367963195, -0.0302303396165, -0.050528652966, -0.00321018998511, 0.120542481542, -0.238813728094, 0.0539246685803, 0.0804532319307, -0.0325653925538, 0.00509404297918, -0.0654823258519, 0.0350583828986, 0.0651831328869, 0.253207057714, 0.573407232761, -0.426891595125, -0.244071751833, -0.292945146561, -0.232467964292, 0.121711991727, -0.0261018332094, 0.162992045283, -0.070539906621, 0.205243825912, 0.155903846025, -0.135108157992, -0.0169893018901, -0.168955758214, 0.00566213391721, -0.0950732007623, 0.174405604601, -0.149777784944, -0.111339628696, 0.0101406592876, 0.364990830421, -0.143479675055, -0.256963551044, -0.334123760462, -0.161879912019, 0.0968722552061, -0.0221953094006, 0.126987531781, 0.0640043690801, 0.103013083339, 0.243097752333, -0.197894141078, 0.0656658262014, 0.0671167299151, -0.169002085924, 0.227592214942, 0.213032409549, 0.00265652965754, 0.175277322531, -0.0796531736851, 0.00352946366183, 0.209669589996, -0.21921493113, -0.152623936534, -0.159006774426, 0.0994176566601, -0.0395680703223, 0.175897672772, -0.233211919665, -0.179882392287, -0.0755362734199, -0.104817979038, -0.225622817874, 0.105207048357, -0.134519174695, 0.133465021849, 0.000129145846586, -0.16835989058, -0.0548175498843, -0.110412910581, 0.0353918485343, 0.0167238023132, -0.106126405299, 0.0274378042668, -0.280647456646, -0.051360052079, -0.238874033093, 0.313859015703, -0.258924305439, -0.302371412516, 0.0206216834486, 0.29743117094, 0.00529044726864, 0.0343310944736, -0.149781167507, -0.0239876564592, -0.177943065763, -0.167317837477, 0.108546726406, -0.195154115558, 0.0279165562242, 0.166056916118, 0.0351154580712, 0.127451196313, -0.247646540403, -0.0996928736567, -0.263463765383, 0.11110791564, -0.164119422436, 0.0642092376947, -0.186018198729, -0.0554282180965, 0.0174232888967, 0.0754735842347, -0.235575273633, -0.0653489306569, -0.232254818082, -0.100736767054, 0.00220907386392, 0.0827818885446, -0.161218583584, -0.063647530973, -0.104180648923, 0.280195176601, -0.174595564604, -0.319442600012, -0.147186622024, 0.317154914141, -0.0531642884016, 0.0473095141351, -0.0124048227444, -0.0789057165384, 0.0154427690431, 0.0473396070302, 0.202923879027, -0.0407517179847, -0.263616144657, 0.206953033805, -0.054242618382, 0.0687318742275, 0.020384086296, 0.0837101787329, 0.145946443081, -0.00977147277445, 0.0816820263863, -0.145583838224, -0.75086170435, 0.20006762445, -0.0445862263441, 0.0999126732349, 0.159632503986, -0.0584652498364, -0.258081376553, 0.185419455171, 0.215799227357, -0.106314525008, 0.252632498741, -0.0567499510944, 0.0426566824317, -0.0189156699926, 0.147542417049, -0.0153517415747, -0.0577206276357, -0.341143399477, 0.0187715049833, 0.0564495772123, -0.0823516845703, -0.0270466413349, -0.11215621978, 0.146662831306, 0.234968572855, -0.233771890402, -0.0174617078155, -0.0908481925726, 0.236891284585, -0.00921294279397, 0.138923943043, -0.109622024, 0.1991815418, 0.00752831902355, 0.234985813498, -0.347371906042, -0.145466089249, -0.263700544834, -0.00636091083288, 0.0916082113981, 0.0421006344259, 0.103760197759, 0.155900374055, -0.0445916950703, 0.204827457666, -0.261671334505, -0.106939531863, -0.136014804244, -0.00166211463511, 0.0109237842262, 0.00368225132115, -0.0317871570587, 0.021178279072, -0.101257540286, -0.0568583272398, -0.0416925735772, -0.0442432127893, -0.20606482029, -0.014677063562, 0.0263112932444, 0.207138970494, -0.0914586856961, 0.0152326803654, 0.0446365438402, -0.132863432169, -0.0500742048025, -0.191903173923, 0.185586601496, -0.196104690433, 0.240109562874, -0.177752301097, 0.0191947557032, -0.0829535871744, -0.266308516264, 0.158329993486, 0.229673847556, -0.187730357051, 0.0701529458165, -0.0231296531856, 0.0142157999799, -0.104785136878, 0.158603101969, 0.061668522656, 0.0505948886275, 0.00336012942716, -0.104593150318, 0.0829633250833, 0.120689764619, 0.0790983587503, -0.0811761692166, -0.165651276708, -0.0637763142586, 0.118175677955, -0.146987393498, 0.0749450474977, 0.0689847692847, -0.0742493644357, -0.125133052468, -0.261694043875, -0.103251934052, 0.0106941359118, 0.00104677560739, -0.302035719156, -0.203719869256, -0.249797940254, 0.0431572906673, 0.0308164674789, 0.0884780362248, -0.332825005054, 0.0228945016861, 0.11112986505, -0.204806685448, 0.00971875805408, -0.0243504606187, 0.0297650899738, 0.184034988284, 0.0512276701629, 0.0291052497923, -0.0350288450718, -0.201814234257, -0.22223483026, 0.264700502157, -0.275789350271, 0.0205408744514, -0.0114540997893, 0.00784620735794, 0.0888556838036, -0.0522636547685, 0.0344315506518, -0.108772449195, 0.101898699999, -0.00141072343104, 0.142289832234, 0.0917137935758, -0.108243003488, 0.115934878588, 0.116224862635, 0.00556064909324, 0.0879916027188, -0.0950126722455, -0.304406344891, -0.0180464312434, -0.17089535296, -0.0674125254154, 0.037979695946, 0.200033709407, 0.0474029816687, 0.0918334722519, -0.0702007487416, 0.0391627252102, 0.0838443040848, -0.0663639232516, 0.0996211469173, 0.201344892383, 0.124845929444, 0.0746581479907, -0.0371168889105, 0.0473385378718, 0.14778457582, 0.0826995894313, -0.237277060747, 0.0184067413211, -0.0429153516889, -0.00484124338254, 0.130409106612, -0.268047958612, -0.137325957417, 0.105526305735, 0.214861825109, 0.0186826065183, 0.218498215079, -0.256415337324, 0.00808913819492, 0.119988620281, 0.279048889875, -0.264169245958, -0.0856202915311, -0.317147672176, -0.061551515013, 0.101440273225, -0.125733360648, 0.0430409386754, -0.0868750661612, -0.148192346096, 0.117814488709, -0.0855836495757, -0.0488143078983, -0.186106041074, 0.0387393906713, -0.0692529752851, 0.059602715075, -0.10332468152, 0.159518539906, -0.136832430959, 0.159696176648, -0.0728604644537, -0.34865885973, 0.0498325675726, 0.150910645723, 0.0110981697217, 0.0265102405101, 0.0325192809105, 0.161544770002, -0.0974843129516, 0.0465568602085, -0.242426067591, 0.126307845116, 0.141926780343, 0.0194798726588, -0.0660581365228, 0.0815539360046, -0.0595757178962, 0.0675613582134, 0.0350913926959, 0.00118124810979, 0.0235715974122, -0.14909248054, 0.0469919629395, -0.0430432483554, 0.0389353632927, 0.207569092512, 0.136214613914, -0.022209437564, -0.197756662965, 0.111391969025, -0.229215741158, -0.0626258701086, -0.0948685780168, -0.00416244613007, 0.171027228236, -0.0515621528029, 0.00272069778293, 0.242343127728, -0.0454986914992, -0.0455599091947, -0.0656676143408, -0.0193908065557, 0.12951540947, -0.17956545949, -0.0860625803471, -0.0832271203399, -0.192730724812, -0.132289469242, -0.261048942804, -0.102677747607, -0.0969926193357, -0.25057464838, 0.193547964096, -0.187965646386, 0.0686821117997, -0.164388179779, -0.162931263447, 0.120755702257, 0.00373871740885, -0.177728950977, 0.0458313338459, -0.204807505012, 0.160766094923, 0.0711978450418, -0.0741618573666, -0.129384562373, -0.121716327965, 0.101009391248, -0.187404826283, 0.0107074184343, 0.160923585296, 0.086338788271, 0.10658993572, -0.175064355135, 0.202369362116, 0.153989076614, 0.0247466433793, 0.227006390691, 0.0287441480905, -0.273822039366, 0.211187854409, 0.0817141607404, 0.174939408898, -0.222391784191, -0.0434534363449, 0.0564826466143, -0.172926440835, -0.151543274522, -0.142460897565, -0.102183490992, 0.228571087122, 0.0135056888685, 0.102274671197, 0.0123960636556, 0.190199628472, 0.180264949799, -0.234800487757, -0.163877129555, 0.138108387589, -0.129287332296, -0.038598973304, -0.0381043851376, 0.128625109792, 0.0485399626195, -0.00847510993481, -0.166221618652, 0.155019015074, -0.0521724261343, 0.170022457838, 0.0597373098135, 0.0831264778972, -0.0643846169114, 0.0173559114337, 0.170181110501, -0.0335896424949, -0.0112365651876, -0.022592023015, -0.148587077856, 0.251448601484, 0.0377674028277, -0.11946221441, -0.0206588096917, 0.0556535869837, -0.0432999767363, -0.0458122491837, 0.0353903658688, 0.198534443974, 0.110876403749, 0.177830696106, 0.0617709420621, -0.148187741637, 0.0395421013236, -0.147799924016, -0.083975404501, -0.120573319495, 0.00138445408083, 0.0215181075037, 0.085117213428, 0.0505273118615, 0.0639051347971, -0.298558533192, -0.156139656901, -0.0296110324562, 0.027381690219, 0.240970760584, 0.236087009311, -0.262302815914, -0.0313461720943, 0.129648387432, 0.20901787281, -0.262668907642, -0.147439494729, 0.0276500005275, 0.147273331881, -0.0907028689981, -0.0670239701867, -0.0531145222485, -0.0100911790505, 0.209845662117, 0.165565401316, -0.0178453158587, -0.0720339491963, 0.146930187941, 0.0711823552847, 0.135554462671, -0.0235012415797, -0.117581933737, -0.0564800314605, -0.0271699186414, -0.210500732064, 0.0447608567774, -0.202159464359, 0.101116366684, -0.029727421701, -0.0262321475893, 0.127966225147, 0.0193400159478, -0.0201230179518, 0.0844983607531, 0.0658314302564, 0.0542236082256, 0.0268569421023, 0.0940385311842, -0.127881452441, 0.252730816603, 0.123759038746, -0.27153262496, 0.0181340426207, -0.216875016689, -0.226192116737, -0.289065212011, -0.0526840686798, -0.0829374864697, -0.121261209249, 0.0888731852174, 0.01570019871, -0.188805520535, 0.0404537431896, -0.118188276887, -0.108823157847, -0.0935983434319, -0.064500965178, -0.10069335252, 0.016865350306, -0.0528475046158, 0.146708011627, -0.123636268079, 0.0530806519091, 0.0250014774501, 0.0871464833617, 0.212471351027, 0.0017223614268, -0.135312899947, -0.0928788781166, 0.111832045019, 0.139214366674, -0.315103411674, 0.0761040449142, 0.0191625840962, -0.271342486143, 0.177587121725, -0.0769809633493, 0.00440475251526, -0.14245402813, 0.172696948051, 0.121687427163, -0.349016368389, 0.139151498675, 0.0934542566538, 0.0873148739338, 0.290947556496, 0.0819978490472, 0.158901467919, -0.152852490544, 0.0360289737582, -0.058018039912, 0.06717222929, 0.230944275856, 0.11588511616, -0.318199574947, 0.162708774209, -0.0721922516823, 0.0444572903216, -0.127507165074, -0.17837458849, 0.0342727601528, 0.117979042232, 0.0604126863182, -0.0562373623252, -0.288290917873, 0.0724958181381, 0.0272441580892, 0.144942343235, 0.00627881661057, 0.0340065285563, 0.153719633818, 0.133665427566, -0.0713674426079, 0.10787396878, -0.12699303031, -0.126292750239, -0.0850532203913, 0.174248233438, -0.118131391704, -0.17215885222, 0.0291397348046, 0.108570516109, 0.13405123353, -0.0965935885906, -0.267274945974, -0.273980498314, 0.119375862181, 0.0154717415571, 0.170311287045, 0.13840135932, 0.11663428694, 0.179887160659, -0.0864882022142, -0.0155561026186, 0.0446548722684, 0.0728087723255, 0.152948826551, 0.170340836048, 0.204050496221, -0.131306827068, 0.00123489205725, 0.207963824272, 0.151943698525, 0.141880705953, -0.0120538435876, -0.156535863876, -0.0425741672516, -0.0367665737867, -0.131928518414, -0.245923817158, 0.132536932826, 0.117240346968, 0.157761737704, 0.0022620591335, -0.0951545387506, -0.0400254428387, -0.118399567902, 0.0299795847386, 0.00276899617165, 0.184633746743, 0.0812302678823, -0.278530150652, -0.142219513655, -0.176351442933, -0.00671463878825, -0.226347312331, -0.0474275276065, -0.0739386379719, 0.0542669333518, 0.00941571965814, 0.0350264683366, -0.298884123564, -0.011262010783, 0.135024383664, 0.21190854907, -0.0206286702305, -0.234411120415, 0.118876241148, -0.0565314106643, 0.177066132426, -0.00538413599133, -0.281669646502, -0.0918110460043, 0.0218032263219, -0.230695411563, -0.0207229424268, 0.176606491208, -0.0738461092114, -0.0100096575916, 0.171588778496, 0.0576621480286, -0.0710851401091, 0.180375292897, -0.0694696456194, 0.0749240294099, 0.0135155431926, -0.193031042814, 0.157495364547, -0.0985770151019, 0.00951521005481, 0.0203618481755, -0.0860808342695, -0.049974501133, 0.110649593174, 0.00227178446949, 0.0440494380891, 0.0752428099513, -0.110737845302, 0.0571672543883, -0.165133535862, -0.00420887535438, -0.0981722697616, -0.105357803404, -0.151518240571, 0.0237325467169, 0.0822154432535, 0.0459923259914, -0.0773585289717, -0.146092250943, 0.165964633226, -0.0942434594035, 0.00143543863669, 0.202149748802, 0.00413007894531, -0.20048469305, 0.138133049011, -0.137427598238, 0.0913976803422, 0.0618987642229, 0.0638973787427, 0.131896063685, -0.154496848583, 0.0494559593499, -0.100805543363, -0.181916385889, 0.107658997178, -0.192478463054, 0.177292004228, 0.034058149904, -0.0702798143029, -0.200702220201, -0.0861841887236, 0.165649220347, -0.121988743544, 0.0101541094482, -0.0849504321814, 0.188201338053, -0.0327349938452, 0.018758110702, 0.0952145308256, -0.0987682640553, -0.113214865327, 0.0470827072859, 0.0250545181334, -0.230351224542, 0.213223680854, -0.0443257130682, 0.197448655963, 0.110445283353, 0.0984211340547, -0.1400706321, -0.046194344759, -0.046592079103, -0.0700549408793, -0.0201877616346, 0.110795550048, -0.121460162103, 0.099883928895, 0.0228668414056, 0.033851262182, 0.103474721313, 0.157319426537, 0.0831319764256, -0.116817012429, 0.0572270564735, -0.234808832407, 0.0669279620051, -0.0740764215589, 0.096321426332, -0.0892076045275, -0.105556316674, 0.0832144916058, -0.153176248074, -0.0939768776298, -0.168567761779, 0.0290492065251, -0.111882545054, 0.225169092417, -0.0217441562563, -0.116603955626, -0.0035995435901, 0.0802762210369, 0.0788779184222, 0.171857252717, -0.078362621367, -0.187455371022, 0.0128714647144, -0.129474058747, -0.0800549015403, -0.218628928065, 0.105780795217, 0.26280221343, 0.100597843528, 0.163317292929, -0.00672533968464, -0.112707860768, 0.140649095178, -0.0588417947292, 0.159416869283, -0.0750589966774, 0.0454287454486, -0.181286171079, 0.274253427982, 0.236584275961, -0.105875901878, -0.318651616573, 0.0227521508932, -0.153046250343, 0.253856599331, -0.0304853245616, -0.0983350947499, 0.0261041410267, -0.112909890711, -0.103675611317, -0.0669060945511, -0.297294318676, 0.0297270249575, -0.292074263096, -0.0834815353155, 0.0264555737376, 0.0909660160542, -0.110029995441, -0.0173020828515, 0.0393013097346, -0.0714947655797, -0.335199803114, -0.0727024674416, 0.0518034845591, 0.0367809683084, 0.0727992132306, 0.0793106555939, -0.267436355352, -0.0927956402302, 0.17336858809, -0.193412914872, -0.0694714337587, 0.233145400882, -0.100825421512, 0.00667475210503, -0.0967952385545, 0.0324920527637, -0.039370726794, -0.068401761353, 0.185659214854, -0.188236802816, -0.0685615688562, 0.143147751689, 0.181911289692, -0.0520357862115, 0.0651348978281, -0.0387803167105, -0.272613286972, -0.0662915930152, 0.0359322503209, -0.0973981320858, -0.00737599283457, -0.0624745748937, -0.097063742578, 0.150991082191, -0.0965526923537, -0.124108090997, 0.0120513839647, -0.0623715408146, 0.0799071416259, -0.163464277983, 0.157139331102, 0.124932482839, 0.0111373588443, -0.0055333529599, -0.138770595193, -0.165118560195, -0.11274215579, -0.0718824639916, -0.0330152064562, 0.039639107883, 0.237779647112, -0.0674355700612, -0.221496418118, 0.23006221652, -0.111943461001, -0.026997409761, 0.0335186421871, 0.105199955404, -0.127633780241, -0.116632156074, -0.0502915792167, 0.116734221578, -0.0963940098882, 0.0989719256759, 0.114838838577, -0.174836561084, 0.00745943700895, 0.00351641350426, -0.0499550513923, -0.0755730867386, 0.0216054953635, -0.0486559532583, 0.0562934614718, 0.0529889576137, -0.16958065331, -0.115264028311, 0.0285320468247, 0.117778599262, -0.217215940356, -0.273981630802, -0.0969783589244, -0.0432394891977, -0.0330633968115, -0.0177486091852, -0.14269785583, 0.0841673389077, 0.0919136852026, -0.0963780656457, 0.106845580041, -0.0140535747632, -0.0679156705737, 0.172990128398, -0.117751687765, -0.0352563075721, -0.118927434087, 0.0493468046188, 0.142006054521, -0.00728160655126, 0.0893517360091, -0.285072505474, 0.0264803916216, -0.102416470647, -0.0816216766834, 0.150869235396, -0.180247828364, 0.0824991166592, -0.0787142366171, 0.00461183581501, 0.00414525484666, -0.200222656131, -0.0120189869776, 0.0293325204402, -0.142885431647, 0.0315970778465, 0.156860098243, -0.108025804162, 0.118522673845, -0.055058542639, 0.217032268643, -0.314185976982, -0.326821297407, 0.0968201979995, -0.0893696248531, 0.0415691621602, -0.13296431303, -0.0393423587084, 0.115826018155, 0.0334895215929, -0.00741642061621, 0.0313986726105, -0.10666140914, 0.135910183191, -0.0045372066088, -0.0964910462499, 0.0797888487577, -0.029286082834, 0.0145572349429, 0.122409440577, -0.211486369371, -0.123257085681, -0.314613997936, 0.0626559853554, -0.213777497411, 0.0941966921091, 0.0780781805515, -0.000941820791923, -0.12677077949, -0.102049320936, 0.112955197692, -0.0220125131309, -0.253131210804, 0.19900329411, -0.279221385717, -0.149757504463, -0.03022236377, 0.00121061399113, -0.177953451872, -0.0805255547166, -0.00312157161534, -0.017736332491, -0.0465498305857, -0.0104455081746, -0.114019043744, 0.222303420305, -0.0582507811487, 0.0277903433889, 0.0285389218479, -0.0386028587818, 0.0407423488796, 0.0227248687297, -0.0470569022, -0.043938074261, 0.0535353720188, 0.026121577248, 0.0436244830489, 0.0845206901431, -0.147722437978, 0.243550345302, -0.092218965292, 0.0325711816549, -0.085706718266, 0.08108741045, -0.173653095961, -0.137081235647, -0.220870226622, -0.0421348214149, -0.325428456068, -0.00957663543522, -0.109820961952, -0.179362043738, -0.132270157337, -0.0643215626478, -0.116966478527, 0.164843216538, -0.314924925566, 0.258534699678, -0.0393329374492, -0.129456400871, -0.041836258024, -0.192235603929, 0.0354173816741, 0.0860069692135, -0.165435954928, 0.0453836731613, -0.232204377651, 0.129267543554, -0.187657132745, 0.0468741692603, -0.0913503989577, -0.0590468794107, 0.174166500568, 0.14312876761, -0.101333677769, 0.140449211001, 0.0548097938299, 0.0378345474601, 0.213728651404, 0.122230663896, -0.108873173594, -0.123499237001, 0.180401518941, 0.167901068926, 0.0141705293208, 0.0948208868504, 0.0463884323835, 0.0449068509042, -0.0382061898708, 0.154424503446, -0.0300064682961, 0.00375609309413, 0.0604749284685, 0.299785166979, -0.165387943387, -0.0666979178786, 0.00713960826397, 0.125409424305, 0.155871674418, -0.152362376451, -0.163555875421, 0.0198703762144, 0.0558251477778, 0.0203175377101, 0.0331276766956, 0.0710691958666, 0.0573120415211, 0.129042327404, -0.00603198865429, 0.0220175180584, 0.141144454479, -0.00963511597365, -0.0454185605049, 0.0330112427473, -0.199803248048, 0.0238165818155, 0.0870623216033, -0.158358663321, 0.2452006042, -0.013960220851, 0.061042945832, -0.0103548783809, -0.0358958244324, -0.0445729866624, 0.116691216826, 0.246614277363, 0.000428474508226, 0.0956649929285, 0.251997172832, -0.19132065773, 0.118016816676, 0.128608092666, -0.129382267594, 0.0304503254592, 0.153330028057, 0.0154231367633, 0.114194527268, -0.0172382649034, 0.215227633715, 0.0926182419062, -0.0898587629199, -0.236240625381, -0.142405480146, 0.049092900008, 0.0144425695762, -0.0295424684882, 0.0700627416372, 0.0882910266519, 0.0829912275076, -0.224948808551, 0.0466358698905, 0.103428706527, -0.196459472179, -0.101716220379, -0.0333567000926, 0.196743160486, 0.208676144481, -0.00298628956079, 0.114685237408, -0.197447016835, -0.0725571140647, -0.066184155643, -0.0255821477622, 0.0184305757284, -0.265564590693, 0.115687131882, -0.0512877143919, -0.0545265860856, -0.171762704849, 0.0292788166553, -0.00876668095589, 0.296233803034, -0.226665407419, 0.0628178194165, 0.00684692058712, -0.119374714792, -0.0758581757545, 0.0403404161334, -0.165726289153, -0.0960706099868, -0.220441192389, -0.0560424290597, 0.107758149505, 0.200006633997, -0.12952208519, -0.0507525913417, 0.0372790843248, 0.161577731371, -0.065108217299, -0.00313555262983, -0.0211431905627, 0.173095539212, -0.267074018717, 0.167083337903, -0.108565591276, -0.256400883198, -0.132717937231, 0.259855091572, -0.204669252038, -0.0579933002591, -0.247554272413, 0.0975205525756, 0.220389321446, 0.23091584444, -0.12829194963, 0.0118823191151, -0.263510912657, 0.106447726488, -0.121050603688, 0.148327171803, 0.00582225993276, 0.0788603574038, -0.122447200119, -0.0983882918954, -0.133649811149, 0.050243485719, 0.0691457688808, 0.218591555953, 0.0334549061954, -0.119674250484, -0.0588588565588, -0.214480444789, 0.166375845671, 0.115766592324, -0.182875618339, -0.048219949007, -0.262234568596, 0.1679328233, -0.200362026691, 0.205036014318, -0.126376897097, 0.0479903891683, 0.0267335083336, 0.157719448209, -0.14102268219, -0.156468644738, 0.176535114646, -0.0979632884264, 0.0196381490678, -0.167322099209, 0.0119019849226, -0.0925665274262, 0.115057341754, -0.0722915902734, -0.0989402905107, -0.0923348143697, 0.0979135483503, -0.0761002153158, -0.0416283048689, 0.0792526453733, 0.152134075761, -0.238592907786, 0.0181780420244, 0.0270747728646, -0.256252497435, -0.0378927476704, 0.192609995604, 0.114041186869, -0.220759779215, 0.120556011796, -0.432833462954, -0.204052552581, -0.176945090294, 0.0158200077713, -0.270949661732, -0.0685198158026, 0.0181341208518, -0.0936891958117, 0.2492749542, 0.0319319441915, 0.00995580665767, 0.000382569618523, 0.293687462807, -0.172958686948, -0.156644523144, 0.0451142974198, 0.16498363018, 0.126653954387, 0.128399536014, -0.115095108747, -0.157945752144, 0.029683239758, -0.135292366147, 0.0427821576595, 0.06145747751, 0.0201280340552, -0.227199301124, -0.228609338403, -0.0270099509507, -0.0549110248685, -0.0357944071293, -0.245093300939, 0.0426939502358, -0.0848847404122, -0.291329920292, -0.129988849163, 0.17079770565, -0.189971446991, 0.144073441625, 0.252067297697, 0.246277675033, -0.00734191248193, -0.164108395576, 0.109360598028, -0.163157567382, -0.0698985382915, 0.100653193891, -0.0271236039698, -0.032014850527, -0.0351602658629, 0.128889381886};
