//Numpy array shape (6, 60)
//Min -1.29763054848
//Max 1.50351309776
//Number of zeros 0

weight_default_t w1[360] = {-0.0830046012998, -0.0661675333977, 0.0866412967443, -0.247840031981, -0.426497340202, 0.251783668995, 0.0567735135555, 0.404058277607, 0.276377797127, 0.0790559127927, -0.00241296552122, -0.0781578049064, 0.100043207407, -0.0084585044533, 7.1420596214e-05, -0.260080486536, -0.287402719259, 0.00234581250697, -0.316963016987, -0.725125968456, -0.0291079692543, -0.0518691949546, -0.101634226739, -0.0157069005072, 0.263579308987, -0.0668221637607, 0.0335435084999, -0.160676777363, 0.120477542281, -0.0848044008017, 0.0699926018715, -0.0180804450065, 0.249134302139, -0.0101504409686, 3.91926769225e-05, -0.0390262082219, 0.0630963519216, -0.0219396799803, -0.11078491807, -0.0777791962028, -0.0739957988262, 0.188456073403, 0.282043069601, 0.132663235068, 0.180011615157, -0.0475395396352, -0.0882559940219, -0.488373368979, 0.163186982274, -0.265036344528, -0.00735495379195, -0.399551063776, 0.135808348656, -0.083392329514, 0.00136185553856, -0.00990469474345, -0.0884629487991, 0.0565893016756, 0.189469575882, -0.135805636644, -0.172985985875, 0.0106684509665, -0.0581091456115, 0.00228587514721, -0.474848985672, 0.602399766445, 0.136402577162, -0.0131742460653, -0.0974435657263, -0.0729806497693, 0.11254555732, -0.00504418602213, -0.262026906013, -0.633545517921, 4.52962594863e-05, 0.0373122692108, -0.202203541994, -0.16261331737, 0.317209154367, -0.00392401730642, -0.000295551639283, -0.00535351084545, 0.00295627187006, -0.0781774073839, 0.352612912655, 0.549272418022, 0.270560652018, 0.000366468331777, -0.00834756717086, 0.0310956090689, 0.0152844954282, -1.29468389787e-06, -0.34816506505, -0.222669929266, 1.84248756341e-06, 0.0406561307609, -0.0716647207737, -1.29763054848, 0.609617173672, 0.00168005307205, -0.0889937207103, 0.108681693673, 0.00291786342859, -0.0054220771417, 0.294765502214, 0.275072127581, -0.343517035246, 0.0063890949823, -0.029474241659, 0.0321914628148, -0.0640525668859, 0.0726636946201, -0.0214616525918, -0.253204554319, -0.312912642956, -0.0935230925679, 0.232159227133, -0.703162133694, 0.573050618172, 0.041433673352, -0.450911134481, -0.0616762153804, 0.74795794487, 0.416759461164, 0.147825032473, 0.29851976037, -0.633542656898, 0.0679040253162, -0.101285472512, 0.150947824121, -0.173854008317, -0.105736903846, 0.197515308857, -0.198272868991, 0.0178400110453, -1.10293889046, -0.491396933794, -0.0732496604323, -0.0935310870409, -0.547157108784, 0.531696677208, -0.48444584012, 0.336792141199, 0.068126693368, -0.0263154190034, 0.245881661773, -0.650244891644, 0.000327603658661, -0.336575835943, 0.0822808817029, 0.0333610139787, 0.0997901409864, 0.31640213728, -0.41085138917, -0.0137087181211, -0.0774261876941, -0.000708194274921, 0.532060682774, 0.0302060004324, 0.151993975043, 0.0341568365693, -0.32995441556, -0.462091445923, 0.495272129774, -0.298794388771, 0.0851584970951, 0.390468746424, 0.144160121679, 0.107173196971, 0.190172567964, 0.597196400166, -0.113661177456, 0.0160670634359, -0.133369460702, 0.000766433600802, -0.0816396996379, 1.08682572842, 0.238304615021, 0.203912347555, 0.0178835205734, -0.181756153703, -0.154620453715, -0.00125101988669, -0.129717081785, -0.241187259555, 0.166083082557, 0.0920053645968, 0.0497356727719, 0.128744736314, 0.0011534729274, -0.00199044984765, -0.033200789243, -0.0327350459993, 0.120684891939, 7.69115067669e-05, -0.574164569378, -0.309585988522, 0.113884441555, -0.292839169502, -0.819653093815, -0.0189894530922, -0.0906720608473, -0.0699739605188, -0.00457151560113, 0.256676614285, -0.125617817044, 0.0375468879938, -0.121136240661, 0.0730712786317, -0.15958160162, 0.0692035406828, -0.0122921457514, -0.0109428837895, -0.0207263790071, -0.0246620457619, -0.00467209145427, 0.0663184672594, -0.00447073206306, -0.107417091727, -0.0401578880847, -0.00579442502931, -0.0505263842642, 0.132037654519, -0.170267686248, 0.12640170753, -0.03769171983, -0.0347192324698, -0.456086039543, 0.0407128967345, -0.143215969205, -0.085035353899, -0.59976708889, 0.0139013156295, -0.225764080882, 0.00106647028588, 0.0449709817767, 0.031970217824, 0.0673957392573, -0.214412942529, 0.186925902963, 1.19659328461, 0.537699818611, 0.0659747645259, 0.773588418961, 0.177388817072, 0.396894127131, 0.392002105713, -0.712079524994, -0.167509168386, 0.00379666080698, 0.234117820859, -0.208131656051, 0.375222533941, 0.334274023771, 8.56952974573e-05, 1.50351309776, 0.814974665642, 0.177349671721, -0.000313683209242, 0.901197254658, -0.562851309776, 0.0289609991014, 0.413715362549, 0.211694687605, -0.0710523277521, 0.164047062397, 0.0281400829554, -0.123512759805, -0.00524524506181, 0.409231185913, -3.34183459927e-05, -0.398451000452, 0.306470960379, 0.492920398712, 0.0002836464555, -0.437231838703, -0.505178272724, 0.0118380477652, -0.302023380995, -0.167158916593, -0.357543677092, -0.104760088027, -0.346927583218, -0.240757912397, 0.0442047789693, 0.300613999367, -0.190939202905, -0.221993222833, -0.516909182072, 0.187341958284, 0.763771057129, 0.618583977222, 0.24003264308, 0.148260369897, -0.608144640923, -1.17410099506, -0.208762019873, -0.059833869338, -0.17390473187, -0.580951154232, -0.0772436112165, -0.0745757818222, 0.0309523716569, 0.184153735638, 0.212424129248, 0.143200054765, 0.029658542946, -0.118240326643, 0.0211401060224, 0.000129708452732, 0.121509484947, -0.0662047341466, -0.0212750472128, -0.0304804276675, -0.0961548760533, 0.0977116748691, 0.0996926724911, 0.00758802238852, -0.132392495871, 0.0318061858416, 0.118263855577, 0.130146056414, -0.108553752303, 0.0616276673973, -0.0294709987938, -0.116576880217, 0.000210643323953, -4.96588472743e-06, -0.000576821505092, -0.0390907227993, 0.043750602752, 0.000241135770921, 0.0969596505165, 0.0246456060559, -0.00013477524044, -0.185925468802, -0.0615416280925, -0.000441688171122, 4.84114971187e-05, -0.0212610438466, -0.010305011645, 0.046272713691, -0.0307958070189, 0.0502244979143, 0.058725386858, -0.0517512559891, -0.0328452698886, 0.0789802372456, 0.103506632149, 0.0395264960825, -0.0286729913205, -0.00565945031121, -0.0728358253837, -0.00224973773584, -0.00918550044298, 0.0618305429816, 0.00196093926206, 0.0779735669494, -0.0232084617019, 0.0150238415226};
