//Numpy array shape (20, 20)
//Min -0.822102248669
//Max 0.840952575207
//Number of zeros 0

weight_default_t w2[400] = {-0.119897924364, 0.0688912943006, 0.00196179817431, 0.0318303592503, 0.014071139507, -0.0718956142664, 0.0513966605067, 0.0171626340598, -0.230565264821, -0.215004727244, 0.0592555329204, -0.460959672928, 0.454266965389, 0.0765265151858, 0.00103873689659, -0.0317484997213, -0.0576996207237, -0.199061542749, -0.0285913161933, 0.0875731930137, 0.087732128799, -0.180992156267, -0.13255007565, -0.324315309525, 0.0956820845604, -0.0945575013757, 0.111291706562, -0.0775793418288, -0.412344902754, 0.34321719408, -0.00487772002816, 0.480165839195, 0.155203938484, 0.310459643602, -0.091910213232, 0.132419362664, 0.133593961596, 0.24112996459, 0.263351351023, 0.117895327508, -0.279213964939, -0.593452394009, -0.0274570025504, -0.355442732573, 0.0216790139675, 0.146688476205, -0.0850416272879, 0.211001232266, 0.339329630136, 0.205354571342, 0.145312920213, 0.351308912039, -0.592321693897, -0.0909356996417, 0.184838235378, -0.091984167695, 0.0466985814273, -0.521150887012, -0.120066411793, -0.57790517807, 8.04413139122e-05, 0.0808294191957, -0.201360329986, -0.000280134991044, 0.163079127669, -0.0275788344443, 0.0124324383214, -0.0499314554036, 0.0751437693834, 0.205113947392, -0.155965909362, 0.0987068340182, 0.185410574079, -0.0199256204069, -0.260186821222, 0.0606308095157, 0.151680722833, 0.244692832232, 0.293918430805, 0.144269809127, -0.239075347781, 0.0122645674273, 0.203897565603, -0.0258697271347, -0.0796838104725, 0.185035452247, -0.296053439379, 0.304754257202, -0.147429436445, -0.322860151529, 0.110597625375, -0.138143241405, -0.0995413511992, -0.231240719557, 0.294552713633, -0.183620139956, -0.0569423101842, -0.00724916392937, -0.032004866749, 0.0270473845303, 0.659606158733, 0.0589815825224, -0.131280690432, 0.371832728386, 0.340326339006, -0.186415940523, 0.28721421957, 0.0379217676818, -0.306004583836, 0.128949165344, -0.420819222927, -0.0166885666549, 0.113418132067, 0.20724478364, -0.0236844234169, 0.36377337575, 0.0136262187734, 0.38519987464, -0.00381588703021, 0.041513632983, -0.190032973886, 0.206827059388, 0.354147106409, 0.506064772606, -0.248728483915, 0.0245883278549, -0.0170628186315, 0.032483804971, -0.0701005905867, 0.171290963888, 0.245434850454, -0.00741911586374, -0.0325076878071, -0.174528181553, 0.382359474897, 0.0353005491197, -0.150155857205, 0.0023534912616, 0.172232210636, -0.210125267506, 0.0332314185798, -0.115010567009, 0.421581298113, 0.0225059185177, 0.0359449088573, 0.0344867184758, -0.203890815377, -0.095193810761, 0.581390082836, -0.247923031449, -0.000426066108048, 0.255483448505, 0.0306706540287, 0.0182102974504, -0.0202211420983, -0.250688791275, 0.0876742377877, -0.275825232267, -0.0129976142198, -0.0509549453855, 0.00831635203212, -9.68566382653e-06, -4.88773803227e-05, 0.139185443521, 0.51814353466, 0.000184003496543, 0.0121788689867, -0.358015090227, 0.339979141951, 0.161349266768, -0.0606159344316, 0.475630760193, 0.04852521047, 0.0140826432034, -0.164901480079, 0.253052324057, 0.175839975476, -0.0418497361243, 0.00914357695729, 0.127246648073, 0.026093326509, 0.407654732466, -0.000711725268047, -0.000150861538714, 0.237508118153, -0.125541642308, 0.359757214785, -0.218730345368, 0.171330228448, 0.392522960901, -0.0497917495668, 0.153560712934, 0.145357877016, 0.327365845442, -0.0503948554397, 0.0129222683609, -0.162555485964, 0.439137846231, 0.284247517586, 0.000949616078287, 0.14368507266, 0.385121941566, -0.458022475243, -0.0648281648755, -0.180738806725, -0.0202353596687, 0.256422430277, 0.000894453376532, -0.192147091031, -0.000129146646941, 0.00744405575097, 0.0666036009789, 0.0495886877179, 0.0723651647568, 0.0167921222746, 0.00401968229562, 0.152097925544, -0.000248193944572, 0.308528959751, -0.0587815083563, -0.0279576480389, 0.00334196374752, 0.123534761369, -0.194103002548, -0.034066349268, 0.08399926126, -0.0373709015548, -0.0259422305971, -0.054018586874, -0.00261510862038, 0.0399224944413, -0.258548974991, -0.171395599842, -0.0419173613191, -0.104346260428, -0.0348889753222, -0.00810318998992, 0.0406425893307, -0.0360148027539, -0.0139413457364, 0.283900380135, 0.0431378446519, -0.719652831554, -0.307827681303, 0.00638086162508, -0.0783848464489, 0.321971833706, -0.671789169312, 0.242042943835, 0.349773079157, -0.198674932122, 0.253456324339, -0.0230075344443, 0.499909132719, -0.284898221493, 0.363613307476, 0.136355891824, 0.140456914902, 0.570041537285, 0.0984715297818, 0.27309051156, 0.16228415072, -0.174705252051, 0.00154021778144, 0.0388451777399, -0.0949333012104, 0.31395983696, -0.254803419113, 0.00521542644128, 0.116969645023, 0.108967281878, 0.417219281197, 0.418747842312, -0.002979779616, -0.112947717309, 0.21159145236, 0.0687455832958, 0.441144764423, 0.0893200412393, 0.0956563577056, -0.180452510715, -0.327941119671, 0.219224601984, 0.0109450174496, 0.248639643192, 0.0816011577845, 0.240531370044, -0.0593809150159, -0.00183390174061, 0.253956884146, -0.274755865335, 0.00209930166602, -0.0744489505887, 0.0930731073022, 0.16603961587, 0.00152988103218, -0.0329641066492, -0.321048945189, -0.173453196883, 0.0989470183849, 0.220799207687, 0.115453071892, 0.0393182002008, 0.487103849649, 0.132338881493, 0.00153571809642, -0.176923021674, -0.111252605915, 0.0363225489855, -0.345114588737, 0.209645822644, -0.59641033411, 0.330052703619, -0.199398159981, 0.030507940799, -0.248172596097, -0.264381617308, 0.294432938099, -0.182510152459, 0.292647093534, -0.494968652725, -0.191174685955, 0.149407625198, -0.501473844051, -0.822102248669, 0.187665805221, -0.453607112169, 0.350448966026, -0.757988572121, -0.00296312267892, 0.840952575207, 0.074269734323, -0.46844047308, -0.211363479495, 0.704057335854, -0.795746743679, -0.210088044405, -0.246120408177, 0.0249787084758, -0.245389908552, 0.0151427751407, 0.124051623046, -0.0819671675563, 0.0148776955903, -0.160954475403, 0.0353970117867, 0.0491429977119, 0.135140672326, -0.269329756498, 0.333129376173, -0.250287562609, 0.0708296447992, 0.0653288289905, 0.000302065222058, 3.48932153429e-05, 0.000173213731614, 0.125086948276, 0.00051154504763, 0.160947367549, -0.0859707817435, 8.035722567e-05, 0.00737992068753, -0.133613437414, -0.109572872519, -0.0645777061582, -0.0019734876696, 0.0181007292122, -0.132739409804, -0.17187088728, -0.176075428724, -0.301104366779, 0.247995138168, -0.0936544463038, 0.0343526042998, -0.0126495845616, 0.0787047594786, 0.0672753304243, 0.0581349208951, 0.119908928871, 0.0823654085398, 0.29126060009, 0.487089663744, -0.0809920206666, 0.688259243965, -0.162456154823, -0.111864365637, 0.091158144176, 0.169581100345, 0.0798440799117, -0.283656895161, -0.0655877664685, -0.33909419179, 0.368201851845, 0.0330619886518, -0.215724572539, 0.253220438957, 0.129817843437, 0.236301332712, -0.430147111416, 0.0534988380969};
