//Numpy array shape (20, 40)
//Min -0.0356332622468
//Max 0.540396869183
//Number of zeros 0

weight_default_t wr01[800] = {-4.77738431073e-05, 5.54783000553e-05, 0.00015751819592, 0.000170026280102, 6.42364102532e-06, 0.00183942064177, 0.00392833771184, -3.65326341125e-05, -8.49651223689e-06, -1.91582312254e-05, 0.00014490558533, -4.10675420426e-06, -1.61950774782e-05, 9.1879745014e-05, 0.000189558719285, 0.0215024352074, 0.0920908302069, -4.33413442806e-05, -2.87586062768e-05, 0.000208608049434, 9.71521512838e-06, 6.59037614241e-05, 5.63312059967e-05, -1.65475175891e-05, 1.61262505571e-05, 0.000102064826933, 3.99339805881e-05, 6.19821548753e-06, 3.5867189581e-05, -7.71307895775e-06, 1.61704447237e-05, 6.41255974188e-05, 0.00234086671844, 4.58133508801e-05, -2.45520786848e-05, 9.86665836535e-05, 0.00302295992151, 4.6965535148e-05, -4.20851574745e-06, 0.178284287453, -6.42860686639e-05, -0.000122011908388, 5.7067911257e-05, 0.000421588047175, 0.0186782218516, 8.13698352431e-05, 7.21045435057e-05, -5.16250111104e-06, 0.000154536857735, -8.01182904979e-05, 0.000117454284918, 5.87495833315e-07, -2.54567712545e-05, 0.000123112695292, 3.55398733518e-05, 5.65903465031e-05, -3.29884132952e-05, -5.9834572312e-05, 4.37357193732e-05, 0.00348021253012, 4.28678868047e-06, -8.1275102275e-05, 0.000105089107819, 9.71827394096e-05, 0.00483992043883, -7.62101080909e-06, 1.99099176825e-05, -2.63847505266e-05, -5.06803407916e-05, -4.58916183561e-05, 1.40437014124e-05, 6.98841104168e-05, 0.0880301073194, -7.59752874728e-05, 8.8537603915e-07, 0.000121233177197, 6.21643630438e-05, -1.40480697155e-05, 6.36801996734e-06, 3.99579075747e-05, -0.000102995174529, -0.0130144581199, 0.334235876799, 0.120647512376, 0.221046462655, 0.014890843071, 0.0047588404268, 4.46366066171e-05, 0.000110553410195, -3.43826541211e-05, 1.77198726306e-05, 3.68261753465e-05, 2.10013149626e-05, 0.000141746728332, 0.000231329293456, 0.000144201723742, 0.000736254092772, -1.95425473066e-05, 5.62188542972e-05, 0.015128406696, -2.27232158068e-06, 0.136819913983, 0.00113391096238, 1.03986276372e-05, 0.0137027557939, 0.00154253083747, 5.11560247105e-05, -5.75397098146e-05, 1.97143890546e-05, -2.5926003218e-05, 3.82996859116e-06, 0.00014168996131, 0.0894648209214, 0.11318167299, 1.33542962431e-05, 0.000136592745548, 0.000114656853839, 8.92525349627e-06, 5.33243292011e-06, -6.03415501246e-05, -5.56105587748e-05, 9.06079658307e-05, 5.74245859752e-05, -6.48085115245e-05, -2.80933709291e-05, 3.72056929336e-05, 6.95651397109e-05, -4.96318243677e-05, 7.28287996026e-05, -6.56659394735e-05, 6.91571331117e-05, 2.9152364732e-05, -4.36790105596e-05, 5.72019598621e-05, 9.60111174209e-06, 0.00417471211404, 5.62178211112e-05, -8.61205044203e-05, -6.73492831993e-05, 0.000423709716415, -2.13239036384e-06, 0.000168382859556, 9.48174420046e-06, -1.2195949239e-05, -3.67825887224e-05, 2.70264008577e-05, -6.9714988058e-06, 3.03818887915e-06, 1.23051067931e-05, -2.55867780652e-06, 2.53249145317e-05, 2.42710084422e-05, 0.0109611609951, -3.72276736016e-06, -5.96895479248e-05, -4.82322138851e-05, 2.04189964279e-05, 4.07727820857e-05, 2.98815484712e-05, -8.73754615895e-05, -8.50046417327e-05, -0.000199230547878, 2.01010880119e-06, 0.000335290504154, -4.85071577714e-05, -1.3351218513e-05, 0.000218846689677, -4.9451526138e-05, 2.94196870527e-05, -2.72930883511e-05, 0.000184402131708, 0.000230553501751, 0.0016757925041, 0.000122832236229, 5.90331328567e-05, 0.0122847668827, 0.00121262483299, -5.6068507547e-05, -6.20558057562e-05, 0.000312890333589, 1.87647110579e-05, -0.000673472124618, 0.0259020645171, 2.44406546699e-05, -7.47012381908e-06, 2.13333805732e-06, 3.15514625981e-05, 4.46554986411e-06, 3.76009484171e-05, 3.84268387279e-05, 7.83473387855e-06, 7.17523143976e-05, 8.19733249955e-05, -4.78137044411e-05, -6.36083859717e-05, 0.0573519282043, 1.51112908497e-06, 3.40634360327e-05, 3.95322058466e-06, -0.00335540948436, -4.59384791611e-05, 0.000108485954115, 1.88667781913e-05, 6.38623168925e-06, 9.4700117188e-05, -0.000143523866427, 0.00179199210834, -2.83127883449e-05, 7.01102253515e-05, -3.33827229042e-05, 2.88550581899e-05, 2.32105776377e-05, -0.0356332622468, 0.000156851980137, 8.11092177173e-05, 5.47555682715e-05, 2.7418247555e-05, -6.14846649114e-05, 1.08096719487e-06, 0.000364674022421, 3.7237390643e-05, -2.2877162337e-05, 2.91546293738e-05, 1.07585710794e-05, -5.67219649383e-06, 0.177340790629, -3.57442513632e-06, -3.98851188947e-05, 1.87666955753e-06, -2.24069626711e-05, 2.15310683416e-05, 0.000114255984954, 0.248803988099, -2.29412034969e-05, -3.69908048015e-06, 0.00274630589411, -6.67377207719e-06, 8.05383388069e-06, 2.4032942747e-06, 0.000275956030237, -4.58115573565e-05, 0.000199911315576, 0.000218366185436, 3.53068026016e-05, 7.31540640118e-05, 0.0214897412807, 0.0374750941992, -2.15938416659e-06, -4.05993705499e-05, -8.66893242346e-05, 0.000330453098286, 3.6880337575e-05, -3.07431146211e-05, 0.000126298837131, 0.00019040107145, 0.0196367260069, 0.0535184666514, -7.55117653171e-05, -1.39225303428e-05, 0.0032495406922, -6.2665072619e-05, 1.63289587363e-05, 0.0620709247887, -6.51261798339e-05, 6.10906863585e-06, 3.93675290979e-05, 0.00730017572641, 2.25553230848e-06, 2.04278803722e-05, 5.81072526984e-07, 5.7966899476e-06, 7.05982820364e-05, 7.72776838858e-05, 1.06260677057e-05, -3.09535025735e-05, 0.000100040211692, 0.0059308828786, 4.17202390963e-05, -1.42286626215e-05, -0.00029834714951, -3.77131509595e-05, 0.000196951936232, 3.63688741345e-05, 1.32754685183e-05, 9.7518262919e-05, 7.45385550545e-05, 4.67195204692e-05, -9.12434334168e-05, -4.11486507801e-05, -0.00010957455379, 1.9232124032e-05, 1.37965125759e-05, 3.51007438439e-05, 0.000229611236136, 8.95902030607e-06, 6.54591567582e-05, -0.00011674783309, 2.71492285719e-06, -6.69968358125e-05, 5.42174057045e-05, 7.44717181078e-05, -2.67098857876e-05, 2.58493128058e-05, 1.1379017451e-05, 1.29010040837e-05, 0.126786693931, -4.60332375951e-06, -3.45888984157e-05, -2.82347700704e-05, 8.42249573907e-06, -2.06578151847e-05, 7.80330519774e-05, -7.74132240622e-06, -1.62459400599e-05, -6.30435670246e-06, 7.35775247449e-05, 3.00822266581e-05, 1.75548047991e-05, 4.31815715274e-05, -2.14016581594e-05, -3.39552207151e-05, 4.67003774247e-05, 0.000108003463538, -4.00849130529e-05, -0.00015768596495, 3.96898831241e-05, 2.98474496958e-05, 2.08760557143e-05, 5.00504393131e-05, -7.27630613255e-05, 6.38088795313e-06, -3.41543955074e-06, 1.61615535035e-05, 4.13700290665e-05, 1.83353552075e-06, 8.98493235582e-05, -8.28967531561e-05, -4.16804869019e-06, -1.4039483176e-05, 2.11537007999e-06, 5.26639851159e-05, -3.58413817594e-05, 1.59490282385e-05, 1.07081978058e-05, -3.86011925002e-05, 0.00118264136836, -1.40466363518e-06, -4.85292766825e-05, -1.99554124265e-05, 2.10354319279e-05, -5.33023012395e-08, -1.43575844049e-05, 0.083375453949, -4.61830677523e-05, -3.15770303132e-05, 2.32414458878e-05, 1.58107850439e-05, 4.81608440168e-05, 6.54618925182e-05, 3.39002654073e-05, -2.94990313705e-05, 6.36595214019e-05, 6.89530406817e-06, -2.99779221677e-05, -0.000155929272296, 1.93792475329e-05, 2.78454972431e-05, -4.56987327198e-05, -4.53321117675e-05, 1.80366041604e-05, 8.38056730572e-05, 2.27849614021e-05, 4.7242778237e-05, 0.000137563809403, -1.49179104483e-05, 2.51686287811e-05, 9.69470638665e-05, -2.4523367756e-05, -4.71780913358e-05, 5.65164737054e-05, 4.82810137328e-05, -1.74132874236e-05, -4.85060809297e-07, -3.16150435538e-05, -3.67714383174e-05, -2.01938928512e-06, 7.67220990383e-06, 1.71645842784e-05, 3.09914030368e-05, 3.45397384081e-05, -2.81950633507e-05, 5.26170988451e-05, 3.84339728043e-05, -4.73883119412e-05, -1.93802202375e-06, -3.67801476386e-06, 4.19881871494e-05, -2.78479092231e-05, 1.24531306938e-05, 1.05267354229e-05, -9.45036845224e-07, 3.97930016334e-05, 0.0501428358257, -2.29860343097e-05, 6.18501362624e-05, 3.72851645807e-05, 0.000100248442322, -4.5340100769e-05, -6.52453672956e-06, 7.11828397471e-06, 5.21608853887e-05, 3.40119277098e-06, 9.15891359909e-06, 0.00024414982181, -2.97120241157e-05, 2.83289900835e-05, -4.12869958382e-05, 2.89941999654e-06, -4.56542984466e-05, 3.14058888762e-05, 1.49051629705e-06, -4.0041624743e-05, 9.18794394238e-05, -3.55929805664e-05, -5.41881781828e-05, 3.58917568519e-05, 6.43160528853e-05, -4.47862439614e-05, -3.97095645894e-05, -2.99397233903e-05, -1.66634799825e-05, 8.62627493916e-05, 7.63104762882e-05, 3.22945816151e-05, -1.91072304006e-05, 0.000144038000144, 1.68332826433e-05, -5.9613987105e-05, -2.33063565247e-05, 1.44592431752e-05, -9.7143027233e-05, 1.28358378788e-05, 0.120938397944, 0.000121025790577, -0.0176706518978, 6.54401719657e-06, 0.000182640898856, -3.12499723805e-05, 1.13159439934e-05, 0.000143254510476, 5.64436413697e-05, 0.000358659803169, 0.000366201071301, 0.000160631199833, 0.00011017351062, 0.00178111402784, -2.77143954008e-06, 0.000149538871483, 5.31296609552e-06, 0.000179764174391, -3.31014598487e-05, -0.000408153311582, 0.00214186334051, 9.50443427428e-06, -0.0172842945904, -8.33243175293e-05, 5.55800979782e-05, -6.68755019433e-05, -3.68929540855e-05, 4.076003097e-05, -1.35983209475e-05, -0.000547930190805, -0.000113731788588, -0.00022471731063, -3.84471641155e-05, 0.000138058952871, -8.7828746473e-05, -4.35336187365e-05, -1.94196036318e-05, 4.97950713907e-05, -6.19420170551e-05, 0.000127677980345, 2.79808245978e-05, 7.49685859773e-05, -8.42234876473e-05, 2.65314083663e-05, 0.00520956330001, -4.87676115881e-05, 0.000115073038614, -3.35476906912e-05, 0.000102852987766, 4.29544634244e-05, -0.00744650932029, 0.000158237147843, 0.000168232771102, 3.3378975786e-05, 5.73209326831e-05, -3.33294701704e-05, -1.96386936295e-05, 0.0163275208324, 2.59048429143e-05, -9.05995784706e-06, 2.55814775301e-05, 1.74571887328e-05, -1.8325072233e-05, 0.0640603452921, -1.54194876814e-05, -2.378523277e-05, 6.01338615525e-06, -1.5263503883e-06, 5.26344911123e-06, 5.55987317057e-05, 0.182421520352, -2.60350916506e-05, -1.46513493746e-05, -0.000110665772809, 8.25334609544e-06, 6.05727927905e-06, 7.81304333941e-06, 1.46485481309e-05, -7.19667805242e-05, 6.08341943007e-05, 0.0231780484319, 0.000167864258401, -3.66607637261e-05, 9.41082180361e-05, 7.45381039451e-05, 8.43868110678e-06, 8.53662932059e-05, -9.54915321927e-06, 0.000111280256533, 2.36743253481e-05, 6.59657234792e-06, 0.000152965658344, -5.52027813683e-06, 1.06253428385e-05, -2.19252542593e-05, -3.75988311134e-05, 4.19682583015e-05, 0.000131637832965, -3.70227753592e-05, -8.56483529788e-05, 7.93431245256e-05, 2.39557466557e-05, 2.59822954831e-05, 4.67132776976e-05, 5.32448502781e-05, -6.44486426609e-05, -7.97750908532e-05, -5.97602229391e-05, -3.3211790651e-06, 9.99420881271e-05, -4.48849896202e-05, -7.75765438448e-05, 2.72605502687e-05, 0.000113075955596, 2.54780006799e-05, -9.27895744098e-05, -2.98743452731e-05, 0.00355835189112, -6.07652655162e-05, 0.000174594417331, 5.87983777223e-05, 0.000484279822558, -0.000113792280899, 0.0393790379167, 8.07979668025e-05, -5.05348089064e-06, 2.37802032643e-05, -6.3975174271e-05, -2.86911927105e-07, -4.20007309003e-05, 1.78721529664e-06, 0.000132396642584, 4.06616272812e-05, 4.07444422308e-05, 3.99008058594e-07, -2.78984807665e-05, 1.9848032025e-05, 0.000162626529345, 1.25032856886e-05, -3.19692117046e-05, 9.55475115916e-05, 1.55571997311e-05, 6.59482611809e-05, 1.06189690996e-05, 3.40852420777e-06, 8.91356467037e-06, -6.7820365075e-06, -2.13317598536e-05, 1.9585062546e-05, 0.000106289757241, -1.80630067916e-05, -6.68598077027e-05, -3.99576128984e-05, 5.30841316504e-05, 0.00351113430224, 1.8483855456e-05, 2.52384797932e-05, 0.0139274829999, -0.000127094855998, 0.0169541761279, 0.00109081633855, 0.000290486088488, -0.000272099365247, 0.0360600426793, 0.0907020792365, 0.0104794763029, -0.0001555790368, -6.36529148323e-06, 0.0175508223474, 3.54319263351e-06, 1.43692886923e-05, 0.00011144324526, -6.53504175716e-05, 0.478090256453, 0.343822270632, -5.57713356102e-05, -3.44274085364e-05, 0.0120418118313, -1.64339107869e-05, 8.44682836032e-06, 0.0638411045074, -0.000121666067571, 6.97006544215e-06, 0.000243422022322, 0.0057770148851, -1.79656490218e-06, 1.1803531379e-06, 7.56750523578e-07, -1.21961775221e-05, 6.19284328423e-05, 0.0303002987057, 6.57627460896e-05, -3.63979415852e-06, 0.229781195521, 0.03636463359, 5.29804819962e-05, -1.30795051518e-05, 0.132219403982, -5.60772568861e-05, -7.93578728917e-05, 0.00283270562068, -5.2192594012e-05, -0.000211636855965, 4.70995473734e-06, 7.47302256059e-05, -3.48122412106e-05, 1.0925145034e-05, -2.30525602092e-05, 1.61073166964e-05, 4.21303684561e-06, -2.89617310045e-05, 0.0001625676814, 3.88074113289e-05, 0.000107452717202, 0.444682449102, -2.98768118228e-05, -4.13152447436e-05, 0.000158021692187, 1.91719991562e-05, -3.60193880624e-05, 0.108556188643, -1.71649335243e-05, 1.46413731272e-06, 0.000905369175598, 2.55007616943e-05, -4.27463164669e-05, -4.71188723168e-05, 3.98434713134e-06, 2.74083195109e-05, 0.000110586028313, 0.000157579925144, -3.43949955095e-06, -3.46593769791e-05, 0.000137590875966, 1.45139983942e-06, -2.94005367323e-05, 3.79684752261e-06, -0.0209162924439, -4.92535509693e-05, 0.000218179266085, 0.000106935091026, 7.37137816031e-06, -0.000107103260234, 0.0201396383345, 7.62094423408e-05, 2.48103606282e-06, 6.59251236357e-05, -9.13896365091e-05, 4.22355369665e-05, -8.06053139968e-06, -5.39856919204e-05, 8.178063581e-05, -7.13202643965e-06, -9.56072108238e-06, 3.25615983456e-05, -3.85417624784e-05, 1.03400161606e-05, 0.0134154213592, 5.62354471185e-05, -3.14560638799e-05, 0.0189205929637, 2.53498456004e-05, -4.20225478592e-05, 3.5903933167e-05, -2.57044739556e-05, -1.54293647938e-05, 1.9431081455e-06, -3.30444017891e-05, -2.59912794718e-05, 7.18010487617e-05, 2.29649958783e-05, -5.52767851332e-05, -3.18194579449e-05, -2.6145902666e-05, 2.5894589271e-05, 9.58916825766e-06, 5.62466739211e-05, -0.000238157386775, -1.0388181181e-05, 0.000116342729598, 2.94761921396e-05, -2.78092738881e-05, -0.000132223736728, 5.01496979268e-05, 7.2786664532e-05, -4.13768138969e-05, -2.32681231864e-05, -1.9412198526e-05, 7.00675627741e-06, 3.51872004103e-05, 3.01003638015e-05, 9.33839182835e-05, 6.7034516178e-06, 5.27487536601e-05, -2.4154813218e-05, -3.58275974577e-06, 2.92637814709e-05, -1.00906800071e-05, 3.60542544513e-05, -5.02165421494e-05, 5.46431692783e-05, -2.06939039344e-05, 1.9031285774e-05, -2.98730228678e-05, 1.67655707628e-05, 3.81836725865e-05, -1.31816996145e-05, 5.37331143278e-05, 1.71794272319e-05, 0.000103395228507, 6.96348361089e-05, -4.27939812653e-05, 5.0218245633e-06, 7.15983187547e-05, 2.56897528743e-05, 5.79057013965e-05, 4.71897510579e-05, -4.16891962232e-05, -0.000134498724947, 2.78448915196e-05, 9.38775119721e-05, 0.0187506936491, 0.0350742414594, 0.00828281976283, 0.187424808741, 0.0063714934513, -3.0585892091e-05, 3.11561016133e-05, 0.0270876083523, 0.00028155290056, -0.0326771214604, 9.21500977711e-05, -0.000177314825123, 0.540396869183, 0.287496477365, -2.69683587248e-05, 1.33155626827e-05, 0.00658307643607, -1.53260261868e-05, 7.11130705895e-05, 0.056883007288, 0.134479656816, 0.00173042051028, 0.127313628793, 0.000258360640146, -1.27240673464e-05, 0.00268414081074, 1.26025861391e-05, 3.15629222314e-05, 1.07650494101e-05, 0.0196890048683, 8.78223436303e-05, -3.92445945181e-05, 0.188081994653, 0.03364950791, 6.40674261376e-05, -1.75808236236e-06, 0.134333580732};
