//Numpy array shape (20, 20)
//Min -0.283659130335
//Max 0.756497144699
//Number of zeros 0

weight_default_t wr11[400] = {0.0341897532344, 6.68613356538e-05, 0.00873685348779, 0.0722131505609, 5.77359242016e-06, 0.0925738066435, 0.156728193164, 1.1534197256e-05, 3.09117604047e-05, -9.68464519246e-06, -6.12574949628e-05, 1.76092798938e-05, -0.00249120057561, 8.42722365633e-05, -6.7296969064e-06, 0.210683003068, -0.00822467077523, 3.92761357944e-05, -3.80079181923e-05, 0.41936391592, 1.41332384374e-05, 0.312393784523, 0.17887198925, 7.75045191403e-06, 1.38245231938e-05, 0.231427744031, -0.00027168012457, -2.10241014429e-05, -2.39151468122e-05, -6.35312972008e-05, -0.000120466051158, 0.000111568755528, 0.283278793097, 0.420976132154, -3.46188353433e-05, -4.57119967905e-05, -0.000432370579801, -3.71552232536e-05, -4.49581057183e-05, 0.0121610825881, -0.0219295471907, 0.18926641345, 0.756497144699, -0.116045668721, 0.159230440855, -0.243031099439, -0.0101039335132, 0.00115730415564, 0.000651878421195, -0.223616406322, -3.99421151087e-05, 0.000149029161548, -0.167965173721, 0.0620159320533, 0.000269703567028, -0.239406079054, 5.44010872545e-05, -1.27542116388e-05, -5.95111850998e-05, -0.283659130335, -0.00012984816567, 0.00434079486877, -1.7298887542e-05, 0.143622219563, -0.00671138893813, 0.142527639866, 1.08352705865e-05, 3.43371648341e-05, -5.9981157392e-05, 0.245716094971, -0.000128265150124, 3.70691486751e-06, 0.271879374981, 0.00396379316226, 3.091634062e-05, -0.156252861023, -5.88735929341e-07, 5.02118600707e-05, -3.96242976421e-05, 0.140922024846, -8.33698213683e-05, -5.667910591e-05, 0.269031882286, -4.99970847159e-05, 0.310952782631, -0.126254022121, -1.61929128808e-05, -2.56015428022e-05, -0.0147867398337, -0.184954226017, 1.67988673638e-05, 8.01693677204e-05, -0.209442093968, 5.30698343937e-06, -4.05549799325e-05, -0.0137559901923, 0.0328100807965, -0.000108523410745, -6.31977745797e-05, -0.000475834327517, 0.048325214535, 0.303927153349, -0.102278985083, 0.0160598736256, -0.00415602233261, 0.503802061081, -9.07311914489e-09, 0.000336312281433, 0.217301651835, 0.109361059964, -0.000101092766272, 0.000164951750776, 0.205330580473, 0.306154489517, -1.48534927575e-05, 0.127766028047, -0.00523732928559, 2.93675475405e-06, -3.89602864743e-05, 0.379666358232, 1.1541233107e-06, -0.23146019876, -0.0168639235198, -5.09815763508e-05, 0.106461077929, -0.0349427871406, 0.0434835292399, 0.00696372566745, -0.0310798045248, 6.29685237072e-05, 2.96992602671e-05, 0.00012168889225, -0.175737842917, -0.0808979794383, 5.62941168027e-05, -3.67112152162e-05, 1.61007665156e-06, 3.7692978367e-05, -7.8442710219e-05, 0.0734651461244, 3.20264589391e-05, -3.04370551021e-05, 2.68177100224e-05, -1.68726437551e-05, 2.32804486586e-05, 0.0571258701384, 5.47859926883e-05, 5.58557439945e-05, 0.000672900641803, -3.44700929418e-05, 5.55721489945e-05, 8.94002441783e-05, 0.22151042521, 0.095743380487, -1.53655073518e-05, 0.000181891286047, 5.00389433e-05, 2.45885912591e-05, -4.25757862104e-05, -3.64994411939e-06, 3.11213771056e-05, 0.0716122761369, 2.5972694857e-05, -4.3930249376e-06, -0.0458587147295, 0.0545693002641, -3.02060325339e-05, 2.33842201851e-05, 4.9355912779e-06, 0.0251863338053, -2.400187077e-05, 4.73502677778e-06, 0.42147231102, 0.127376437187, -8.2440146798e-06, -0.0326857082546, -0.062236815691, -1.01247751445e-05, -6.20885475655e-06, 0.000827677256893, 2.25440089707e-07, 8.09179528005e-06, -0.10502332449, -2.58257405221e-05, -4.06180806749e-05, 0.221109554172, 3.76254938601e-05, -1.48380077007e-05, -0.00476826913655, 0.282166481018, 6.22844600002e-05, 5.63518187846e-05, 0.153053835034, 6.20844657533e-05, -1.07027462946e-05, 7.20919124433e-05, 1.82893491001e-05, -1.87588702829e-05, -6.58881035633e-05, 0.0502390488982, 3.2835512684e-05, 0.00355166639201, -0.0640906766057, 3.31640731019e-05, -0.000707487110049, 0.0074435560964, 0.00886044371873, 1.88045905816e-05, -0.022576821968, 6.48212735541e-05, 8.43089947011e-05, 0.000211913618841, 0.0383166857064, 5.70720003452e-05, -0.000106788873381, 6.63483933749e-06, 0.221229746938, -1.60713716468e-06, -3.08008311549e-05, 5.16739455634e-05, 0.074919000268, 6.59091310808e-05, -0.0312785543501, -2.41175075644e-05, 0.00170227349736, 0.00894771143794, 9.96290837065e-05, -0.00538780167699, -0.0702585801482, 4.42023811047e-05, 9.68867607298e-05, 0.00011986233585, -0.00488311750814, -8.12880753074e-05, -6.30052236374e-05, 0.182556852698, 0.0977691411972, -7.69226789998e-06, 0.000117672840133, 0.160459399223, 2.37937038037e-05, 0.473553627729, -0.000848505995236, 0.311102390289, -0.0287807453424, 0.377051264048, -0.000128658401081, 0.0231982693076, 0.0835277661681, 0.129690378904, -0.000116827432066, 0.000167732519913, 0.730018138885, 0.231793910265, 1.52942684508e-05, -0.014912975952, -1.47332220877e-05, 0.0620383881032, -5.07047880092e-05, 0.0834380909801, 0.000168535756529, 0.30349829793, 0.0629291087389, -6.91711902618e-05, 1.74312881427e-05, 0.308640927076, -9.22289564187e-06, -4.54587570857e-05, 0.0755019932985, 0.150957003236, 1.0081424989e-05, 9.71071312961e-06, 0.153530284762, 0.315288364887, -6.73334870953e-05, 0.00489041721448, 1.23021227409e-05, -1.68296646734e-05, -6.11674186075e-05, 0.0139377489686, -0.000138082599733, -2.0062605472e-05, 0.0945421531796, -9.84020516626e-06, 2.21650607273e-05, -6.0526690504e-05, 2.77862782241e-05, 0.00113554310519, 1.73274529516e-05, -0.0010235022055, 9.34628951654e-06, 6.85397390043e-05, -3.74925730284e-05, 8.32446021377e-05, 2.57525080087e-05, -0.00889367889613, 1.33057455969e-05, 2.65331509581e-05, -3.11986805173e-05, 0.070279404521, 0.50818502903, -0.12099570781, -0.00862859282643, 0.0181124918163, 0.251999288797, 0.066864207387, 0.264135479927, 5.05242933286e-05, -0.125014543533, 0.0564602427185, -8.6890620878e-05, 0.000133163004648, -0.151827186346, -0.136901855469, 0.000152089749463, 0.422209382057, -0.0310306493193, 0.0350144281983, -8.72967211762e-05, 0.395263880491, 1.6977883206e-06, -0.0112279299647, 0.0894314944744, -0.0618317462504, 0.123857244849, -0.0885404795408, 0.133991360664, -3.33248899551e-05, -0.146753311157, 6.37177290628e-05, 7.15380010661e-05, 0.000173052612809, -0.0914132222533, -0.0164510160685, -2.92477980111e-05, -4.23559140472e-05, 0.158813104033, 1.14760387078e-05, -6.09276175965e-05, -0.1079987064, -7.76700180722e-05, -2.99594285025e-06, 0.0909465476871, 0.0865657031536, -2.04758107429e-05, -0.0871629416943, 7.77453533374e-06, 7.14765337761e-06, -7.56710142014e-06, 3.88750049751e-06, 3.38244608429e-05, 4.97691144119e-05, 0.317939996719, 1.55116085807e-05, 4.06149847549e-05, -0.000156158654136, 0.0307833887637, 8.56808328535e-05, -1.27091370814e-05, -0.0085814865306, 5.06456854055e-06, 0.00169676518999, 4.63184769615e-05, -3.31241972162e-05, 8.61327862367e-06, 0.199133321643, 5.63013454666e-05, -5.30851211806e-05, -2.65033777396e-05, -6.00519088039e-05, 2.57078900177e-05, -2.97483529721e-06, 0.104754060507, 6.76074705552e-06, 1.93922096514e-05, -0.0175579022616, 6.66828054818e-05, 1.79389007826e-05, -8.44744135975e-06, 0.0560145936906, 0.200449496508, 0.00275674532168, -0.0825665071607, 0.167357414961, -0.000398552539991, 0.174009129405, 0.403543293476, 0.0002251228143, -0.0457948707044, 0.0931278839707, -0.00022068353428, 1.22822639241e-05, 0.156007155776, -0.0778336301446, 0.000141280586831, 0.293127208948, -0.0759052485228, 0.0782124847174, 0.11257173121, 0.509002864361};
