//Numpy array shape (12, 6)
//Min -3.99493789673
//Max 1.6389746666

weight_default_t w2[72] = {0.0703558772802, 0.195531725883, 0.882671236992, 0.122258678079, -0.805009901524, -1.77403998375, 0.0427149757743, 0.2606151402, 0.198590949178, -2.00605344772, -1.25901305676, -0.680186808109, 0.876149058342, 0.850599467754, 0.266026824713, -1.21070945263, -0.611534416676, -1.47468972206, 0.0826660320163, 0.445819497108, 1.25453591347, 0.190964847803, -1.50951910019, -1.41201293468, 0.00866852328181, 0.437172561884, 0.51068431139, -2.64838910103, -1.85585343838, -0.479221761227, 0.703556954861, 0.789607465267, -0.0566038452089, -2.16423130035, -1.21902525425, -2.31408381462, -0.369159549475, -0.115854308009, 1.1034463644, -1.43637740612, -1.78799104691, -2.31636929512, 0.369361281395, 0.615654408932, 0.914156675339, -2.67787241936, -0.783697903156, -1.04587876797, 0.630964159966, 0.822637975216, -0.104492470622, -2.55448246002, -1.22843444347, -2.11188864708, 0.0971898436546, 0.223909288645, 1.6389746666, -0.852568626404, -2.76464748383, -3.99493789673, 0.387508243322, 0.324822813272, 0.814649283886, -1.97792601585, -3.38260149956, -2.22571611404, 0.774132668972, 1.03101193905, -0.143244296312, -2.81113767624, -2.69752907753, -0.8527354002};
