//Numpy array shape (5, 4, 3)
//Min -1.24807715416
//Max 0.488936007023

weight_default_t w1[5][4][3] = {-0.998099625111, -0.951774895191, -0.817331314087, -0.507377922535, 0.178809076548, 0.193539381027, 0.0765084251761, 0.161998540163, -0.0697494223714, -0.0716471076012, -0.00495839118958, -0.0840765684843, -1.01046335697, -1.03092467785, -0.864610731602, -0.431581348181, -0.162319347262, 0.39742693305, -0.00153333030175, 0.4450776577, 0.0121827051044, 0.0658482164145, -0.0328056961298, -0.185222432017, -1.12749791145, -0.765147566795, -1.07767236233, -0.325436592102, 0.0922992154956, 0.109341539443, -0.260619491339, 0.282049924135, -0.157742619514, 0.148573860526, 0.150593116879, -0.146102651954, -1.13994777203, -1.03204274178, -0.910824358463, -0.237240165472, -0.0125802252442, 0.108022302389, -0.0466968864202, 0.488936007023, 0.0851150378585, -0.0435381531715, 0.0114025771618, -0.170093923807, -1.22686493397, -1.04386305809, -1.24807715416, -0.0124659202993, -0.191420316696, -0.0742981731892, -0.113333903253, 0.483107477427, -0.0287069845945, -0.0774812400341, 0.181774631143, -0.076404556632};