//Numpy array shape (5, 4, 3)
//Min 1.27792644501
//Max 0.765481650829

weight_default_t w1[5][4][3] = {-1.20782244205, -0.974173426628, -0.0829784348607, -0.224984094501, 0.23778025806, 0.268433302641, -0.00619542598724, 0.158367171884, 0.0319799259305, -0.452956885099, -0.129633441567, 0.765481650829, -1.19412386417, -1.01237893105, -0.409787714481, -0.226434931159, -0.125285953283, 0.472280591726, -0.0492261834443, 0.445133209229, 0.092513628304, -0.173250809312, -0.0851710438728, 0.436739444733, -1.26287794113, -0.736691653728, -0.80241394043, -0.224826470017, 0.111282847822, 0.187380924821, -0.267501473427, 0.281723469496, -0.0931592136621, 0.222116902471, 0.0453085228801, 0.152682065964, -1.25445699692, -1.01193678379, -0.758484005928, -0.207012444735, 0.0176962632686, 0.173271760345, -0.041873306036, 0.486659228802, 0.13325047493, 0.229108780622, -0.00677310256287, -0.388663738966, -1.27792644501, -1.01627063751, -1.15723073483, -0.0324360355735, -0.186578914523, 0.0245061665773, -0.118159085512, 0.481867432594, -0.00500332470983, 0.505253911018, 0.041661452502, -0.888695418835};

