//Numpy array shape (3, 9, 8)
//Min -2.0418279171
//Max 2.07149600983

weight_default_t w1[3][9][8] = {1.08638775349, -1.48647427559, -0.846492052078, -0.705770254135, -0.00879313703626, -0.354789584875, -0.148564606905, -0.511682271957, 0.045868717134, 1.14887189865, -0.199023097754, -0.963036239147, -0.0602980405092, -0.0454863421619, -0.14401088655, -0.925375580788, -0.297015815973, 0.156946644187, 0.294752180576, 0.158704519272, -0.00782189611346, 0.362443506718, -0.0651638954878, 0.0934488475323, 1.64701426029, -1.93536829948, 0.618171155453, -0.996180653572, 0.308068305254, -1.70490181446, 0.346648007631, -0.789932310581, -0.724459171295, 0.670510709286, -0.19427883625, -0.0571379698813, 0.119664169848, -0.234669655561, 0.259836256504, 0.232370465994, -0.0688394159079, 0.232792079449, 0.229498744011, -0.24057251215, -0.0326901376247, 0.274004310369, -0.0943435803056, -0.876086831093, 0.429922819138, 0.0381124578416, -0.746760725975, -0.112060151994, -0.0463317446411, 0.0174682587385, 0.0177615992725, 0.11265719682, 0.0351217761636, -0.309598237276, 0.145580172539, -0.153806447983, 0.483875721693, -0.212793260813, 0.629595220089, 0.0828351229429, -1.23412799835, 0.673755049706, 0.691145420074, -0.886229038239, -0.420597016811, -0.102993763983, 0.033714838326, -0.760255038738, 1.18285107613, -0.693823695183, 1.1053456068, -0.617015659809, -0.0685506090522, -0.785848379135, -0.413754075766, -0.369643181562, 0.660292625427, -0.409894645214, 0.432533115149, -1.58453738689, -0.196197003126, -1.59668421745, 0.0052052331157, 0.60442841053, 0.089561611414, -0.206925407052, 0.144539490342, 0.12390601635, 0.0405239090323, 0.135615199804, -0.010580541566, 0.377153933048, 0.416629821062, 0.361518919468, 0.341322958469, 1.72969925404, 0.0491506159306, 0.917997300625, 0.250898510218, -1.18637657166, -0.35514986515, 0.352786123753, 0.127519607544, 0.244065538049, 0.0777994468808, -0.270396769047, 0.0757058784366, -0.191275268793, 0.0431152954698, -0.0769232362509, 0.295712947845, -0.411056816578, -0.0815554261208, 0.159257054329, -0.0924580097198, -0.50436514616, 0.338353395462, 0.529465913773, 1.08061897755, 0.0119344489649, -0.169256836176, 0.0429207459092, 0.126873984933, -0.43093958497, -0.0897994861007, -0.127764925361, -0.0403204672039, 0.278180122375, 0.470100700855, -0.0322234630585, 0.586351394653, -0.0574619881809, -0.545440554619, -0.150850385427, 0.193951144814, -0.218195766211, -0.524017572403, -1.40747880936, -0.0670692175627, 0.193699494004, 0.168768495321, 1.54666769505, -1.28562581539, 1.51717102528, -0.120363883674, -0.139532223344, 0.162134036422, 0.121369220316, -0.126114100218, -0.601030945778, -0.537659049034, 0.758290112019, -0.33276066184, 0.00341070676222, -0.147251263261, -0.147031754255, 0.142145782709, -0.0118533158675, 0.194116666913, 0.348900824785, -0.00493177492172, 0.42985996604, -0.0223414730281, 0.372288674116, -2.0418279171, 2.07149600983, -0.318116754293, -1.06825852394, 0.255975455046, 1.35218071938, 0.167863667011, 0.416504442692, -0.668579697609, 0.739700973034, -0.242571264505, -0.254405498505, 0.355719834566, -0.160802692175, -0.0728899165988, -0.387679100037, -0.113405801356, -0.162283062935, 0.27164876461, 0.144846588373, -0.185738131404, 0.349595874548, -0.0347474962473, -0.700574219227, 0.266125738621, -0.670373439789, -0.406628727913, -0.849101603031, -0.0386381037533, -0.366835981607, -0.0100811515003, -0.773683130741, -0.0887701511383, 0.0292111001909, 0.116322979331, -0.189218640327, 0.404296725988, 0.0596042908728, 0.65183120966, 0.170892715454, 1.18756818771, 0.217760100961, -0.00815940648317, 1.38318800926, -0.495623081923, 0.605881929398, -0.18428812921, 0.193336158991};