//Numpy array shape (128, 6)
//Min -1.58650815487
//Max 1.17775976658

weight_default_t w2[128][6] = {0.0488601401448, 0.122452028096, 0.302582293749, -0.570138990879, -0.721612036228, 0.0825463235378, -0.171804323792, 0.135936066508, 0.138589709997, -0.658726930618, -0.329873651266, 1.17775976658, 0.0477551557124, -0.39091566205, -0.124203495681, 0.210523560643, -0.0023503927514, 0.403900414705, 0.282671302557, -0.407999634743, 0.571089506149, 0.0213337242603, -0.999736070633, 0.151436209679, -0.171072021127, 0.156480714679, -0.21412743628, -0.0662644281983, 0.210628852248, -0.42338296771, -0.592939078808, 0.034851718694, 0.214349225163, -0.125771284103, 0.100633755326, 0.384895831347, -0.0509129166603, -0.16965675354, -0.241400226951, 0.158500686288, 0.128978058696, -0.531145811081, 0.128963083029, 0.204209536314, -0.0400138758123, -0.175674855709, -0.172572866082, -0.0260717887431, 0.0225690416992, 0.397940903902, 0.191369950771, -0.94500797987, -0.832817673683, -0.0302554760128, -0.0880155265331, 0.263289630413, 0.272124260664, -1.13981068134, -0.422581136227, 0.856784641743, 0.402713000774, -0.7678809762, -0.425913125277, 0.169878050685, 0.0955358147621, 0.407297134399, 0.0653758943081, -0.634884476662, 0.646659135818, -0.622812986374, -0.913282513618, 0.256335139275, 0.112148873508, 0.0110066905618, -0.0624711476266, 0.064471937716, 0.302212148905, -0.54589253664, -0.714437007904, -0.0460354052484, 0.140661776066, 0.247376933694, -0.518297851086, 0.517058551311, 0.13157132268, 0.115844614804, -0.176749631763, 0.390605211258, 0.251078426838, -0.695179998875, 0.109960563481, 0.542590677738, -0.450743705034, -0.324522286654, 0.149341583252, -0.0716835185885, 0.0924657657743, 0.231724724174, 0.408574700356, -0.859979152679, -0.561364591122, -0.0233889613301, -0.238547831774, 0.453919410706, 0.269281238317, -1.32347178459, -0.659904837608, 0.77855181694, 0.187461480498, -0.441610425711, -0.353425323963, 0.348706156015, -0.083891287446, 0.38217201829, 0.202060624957, -0.655814647675, 0.703240275383, -0.653250873089, -1.33078539371, 0.136440113187, 0.163335651159, 0.0686072409153, -0.128373384476, 0.0199262928218, 0.188028201461, -0.352266222239, -0.953187942505, -0.200444489717, 0.375406086445, 0.174647003412, -0.545440196991, 0.446414381266, 0.107337482274, 0.00022932025604, 0.0587569251657, 0.256707042456, 0.209402918816, -0.743393063545, 0.0323528088629, 0.398446321487, -0.5379165411, -0.311668545008, 0.0563532747328, 0.01499515865, -0.0921886265278, 0.221144065261, 0.174762174487, -0.873662889004, -0.725221157074, 0.320680052042, -0.223869681358, 0.208188831806, 0.264129161835, -1.40194380283, -0.582428634167, 0.959269523621, 0.312851965427, -1.01267886162, -0.244871661067, 0.0796093419194, 0.0247428789735, 0.175593569875, 0.15993155539, -0.658150792122, 0.748992562294, -0.846754848957, -0.845768809319, 0.265899986029, 0.210802286863, -0.083492398262, 0.0280107408762, 0.107432715595, 0.18398950994, -0.496015995741, -1.02598321438, 0.0377988144755, 0.257694393396, 0.234067946672, -0.445017844439, 0.412390977144, -0.0811270996928, -0.247217804193, -0.0277425646782, 0.213334575295, 0.0428230166435, -0.729146301746, -0.00677150301635, 0.507465541363, -0.335223585367, -0.358480542898, 0.0726365596056, 0.0789266228676, 0.0149645740166, 0.25492811203, 0.246285989881, -0.504219353199, -0.812926352024, 0.0441224984825, -0.346618205309, 0.462666660547, 0.324346095324, -0.907026052475, -1.14158523083, 0.911671996117, 0.446547091007, -0.739831387997, -0.299497783184, 0.131894037127, 0.034154035151, 0.138259112835, 0.076611854136, -0.69746118784, 0.643217623234, -0.464704781771, -1.13786232471, 0.204000130296, -0.0451908260584, 0.0431045219302, -0.0148854153231, 0.0234629083425, 0.159255862236, -0.519342184067, -1.13244104385, 0.0206726957113, 0.375729739666, 0.540822446346, -0.774102091789, 0.520157039165, 0.202676400542, -0.151912212372, -0.191263735294, 0.161784142256, 0.0435168929398, -0.478935241699, -0.00880113430321, 0.427456229925, -0.336645424366, -0.279365777969, 0.222796410322, 0.0196770373732, -0.106636881828, 0.324625909328, 0.31656357646, -0.667661368847, -0.736946046352, 0.395156115294, -0.268962651491, 0.439957410097, 0.253475427628, -1.24135577679, -0.659994363785, 0.732588469982, 0.335702300072, -0.816199302673, -0.245911419392, 0.11398909986, 0.220734238625, 0.207329124212, 0.264251083136, -0.73280441761, 0.687073171139, -0.542664647102, -0.904239237309, 0.13268609345, 0.201508402824, 0.00306629901752, -0.0636722818017, 0.0738882645965, 0.0912580192089, -0.446964800358, -0.839326620102, 0.0137390550226, 0.228601321578, 0.575938940048, -0.569889962673, 0.543535709381, -0.0190802961588, -0.102694571018, -0.0576601289213, 0.295657664537, 0.13630014658, -0.64210665226, -0.0909283235669, 0.256920367479, -0.445949882269, -0.290096431971, 0.303466618061, 0.0282164365053, 0.2524497509, 0.455844849348, 0.287225157022, -0.877269744873, -0.635734915733, 0.301123559475, -0.181835994124, 0.391751945019, 0.257949829102, -1.2226524353, -0.698008418083, 0.755771577358, 0.127086803317, -0.900201201439, -0.116289936006, 0.327889531851, -0.136721476912, 0.23162804544, 0.242090672255, -0.911145031452, 0.774347186089, -0.395973354578, -1.14652585983, 0.240010529757, 0.128165513277, -0.0295970663428, -0.244990959764, 0.234505340457, 0.316813409328, -0.534143924713, -0.695763349533, -0.156054675579, 0.224664360285, 0.421073555946, -0.457597881556, 0.500841140747, -0.0389325395226, -0.155636757612, -0.0267791599035, 0.415127873421, 0.231323137879, -0.644102454185, 0.0477306060493, 0.555709838867, -0.420110821724, -0.296729058027, 0.113442376256, -0.0851796865463, 0.0142657095566, 0.531128823757, 0.308126032352, -0.820505321026, -0.613527476788, 0.341495364904, -0.207584694028, 0.307769209146, 0.41570687294, -1.16720056534, -0.954086244106, 0.933061659336, 0.307534366846, -0.576680243015, -0.162599280477, 0.114096976817, 0.201475784183, 0.308129876852, 0.258926331997, -0.666097104549, 0.723856389523, -0.54967457056, -0.966965556145, 0.164877817035, -0.0771452859044, 0.057491350919, -0.159775808454, 0.227809235454, 0.200669243932, -0.45292750001, -0.842100799084, -0.155361950397, 0.375196009874, 0.228955224156, -0.304514884949, 0.269001036882, 0.0966793596745, -0.00995754171163, -0.257498145103, 0.335198223591, 0.179541423917, -0.622156023979, 0.138220503926, 0.386321663857, -0.456879764795, -0.261606365442, 0.108395211399, 0.0140410000458, 0.129986986518, 0.450064957142, 0.344956129789, -0.598401844501, -0.717522263527, 0.0320489294827, -0.293283134699, 0.364805668592, 0.478097081184, -1.1958026886, -1.03489029408, 0.99929022789, 0.188699990511, -0.62674498558, -0.200923398137, 0.171232372522, 0.0874590277672, 0.324385106564, 0.476469039917, -0.739716351032, 0.849115908146, -0.436708807945, -1.15606236458, 0.114955097437, -0.123825035989, 0.0787587314844, -0.0562666244805, 0.273227006197, 0.311485558748, -0.488819241524, -1.24695086479, 0.116110250354, 0.413789629936, 0.264741718769, -0.514022350311, 0.329388141632, -0.00106919941027, -0.0433448888361, -0.0782943814993, 0.186882227659, 0.0911324322224, -0.578919112682, 0.078286677599, 0.46712693572, -0.373960882425, -0.357038557529, 0.153538867831, 0.177574455738, -0.0103743160143, 0.517151355743, 0.239974707365, -0.905659019947, -0.889481246471, 0.206756979227, -0.144169569016, 0.334245473146, 0.450322419405, -1.26490068436, -0.773087024689, 0.881751418114, 0.396730422974, -0.755764067173, -0.394102632999, 0.177846685052, -0.0472781360149, 0.381753623486, 0.241095200181, -0.734057545662, 0.924990653992, -0.477889150381, -0.942468523979, 0.256516098976, -0.081278949976, 0.0725661963224, -0.159871920943, 0.214760050178, 0.255600333214, -0.392371892929, -0.902142465115, 0.0499266833067, 0.315969407558, 0.236267060041, -0.529732406139, 0.394532740116, 0.137011021376, 0.113007262349, -0.213495194912, 0.120140247047, 0.255775779486, -0.686276555061, -0.0643356591463, 0.473588615656, -0.347808927298, -0.420580506325, 0.12588635087, -0.0858593061566, 0.104006566107, 0.449508398771, 0.269326269627, -1.0989471674, -0.895691335201, 0.19119155407, -0.374975204468, 0.404733449221, 0.200116500258, -1.36941289902, -0.528129577637, 0.722072780132, 0.260305792093, -0.60598218441, -0.376980990171, 0.0729329958558, 0.00766675453633, 0.141020312905, 0.375509649515, -0.634401082993, 0.760484933853, -0.422234177589, -1.47552871704, 0.0290628094226, 0.0707178786397, 0.0552839487791, -0.0401384048164, 0.196232557297, 0.163531765342, -0.479871720076, -1.10423672199, -0.00165835570078, 0.753808200359, 0.129134386778, -0.654946267605, 0.306449711323, -0.109883569181, -0.120454467833, -0.135193258524, 0.138531759381, 0.209206774831, -0.579687654972, 0.135584384203, 0.496594578028, -0.270348906517, -0.563975453377, 0.316828429699, -0.113339245319, -0.0991504490376, 0.40056553483, 0.312926590443, -1.1284763813, -0.847217679024, 0.411531060934, -0.253967523575, 0.461798489094, 0.434159904718, -1.58650815487, -0.379772484303, 0.870862066746, 0.43917915225, -0.847720265388, -0.0936095267534, 0.161189436913, 0.0692277401686, 0.346309095621, 0.342593461275, -0.746792137623, 0.772486031055, -0.784632384777, -1.07201731205, 0.257954835892, 0.09066426754, 0.0288547426462, -0.0484648644924, 0.284965008497, 0.143956974149, -0.405836939812, -1.30490422249, -0.141102850437, 0.752235293388, 0.269095957279, -0.310812920332, 0.467914611101, 0.014384043403, 0.0695662274957, -0.275692880154, 0.153984129429, 0.14962875843, -0.476470261812, -0.118705287576, 0.674663305283, -0.617597520351, -0.447488844395, 0.407871693373, 0.101215615869, 0.0493546836078, 0.377745181322, 0.0709542632103, -0.723508179188, -0.989292860031, 0.149262785912, -0.366322726011, 0.408511251211, 0.528741896152, -1.23106980324, -0.663156032562, 0.97739481926, 0.397507488728, -0.873233914375, -0.139695003629, 0.19176016748, 0.0657576099038, 0.321086645126, 0.234801843762, -0.850641727448, 0.695636928082, -0.565959751606, -1.18469178677, 0.116813629866, 0.0508508384228, 0.0824891328812, -0.0815952792764, 0.131551936269, 0.18456210196, -0.555052101612, -1.10250413418, -0.0294087510556, 0.568918704987, 0.272363811731, -0.507261574268, 0.445520222187, 0.152666136622, -0.0624114722013, -0.112119376659, 0.30918353796, 0.288362503052, -0.610733747482, 0.0680874809623, 0.416452825069, -0.261871695518, -0.455810397863, 0.291359782219, 0.0299285966903, -0.000892347947229, 0.412342011929, 0.303856045008, -0.857831835747, -0.761599004269, 0.422647684813, -0.0983420312405, 0.530143797398, 0.338792532682, -1.53090918064, -0.722322165966, 0.846958518028, 0.513245999813, -0.709059000015, -0.169635906816, 0.221563145518, 0.103356286883, 0.156550958753, 0.296224862337, -0.634811103344, 0.674031615257, -0.701883018017, -1.12352132797, 0.13892558217, 0.189495161176, -0.0679165869951, -0.259446799755, 0.108267039061, 0.282949715853, -0.556628286839, -1.4614546299, 0.203161865473, 0.716650247574, 0.237567439675, -0.427888602018, 0.310779809952, -0.0735954120755, 0.0750270485878, -0.105615399778, 0.380425751209, 0.064861766994, -0.630101680756, 0.120188772678, 0.418557226658, -0.36793166399, -0.351674616337, 0.367488890886, 0.0510590821505, 0.174804598093, 0.490083187819, 0.197589039803, -1.14636158943, -0.832014024258, 0.235874652863, -0.282157719135, 0.532803237438, 0.26388502121, -1.41651630402, -0.721798717976, 0.857885539532, 0.32715716958, -0.820836365223, -0.0640244036913, 0.0937368199229, 0.0369795449078, 0.38394138217, 0.41354188323, -0.867115318775, 0.428241252899, -0.231504797935, -1.00777554512, 0.171728953719, 0.0800582841039, 0.128219857812, 0.0322540663183, 0.10296843946, 0.140681877732, -0.470652937889, -0.996398806572, -0.0554243177176, 0.446211129427, 0.400862962008, -0.563912272453, 0.414869964123, 0.0189966652542, -0.121744044125, -0.0598411001265, 0.116351008415, 0.212305635214, -0.571830153465, 0.127495288849, 0.475404500961, -0.51438331604, -0.348821640015, 0.318884193897, -0.0138776097447, -0.0258213933557, 0.382694900036, 0.159407064319, -0.99531430006, -0.524715781212, 0.701912403107, -0.0111115127802, 0.323865443468, 0.288065552711, -0.891762316227, -1.04009401798, 0.964178860188, 0.281087815762, -0.740663230419, -0.290525615215, 0.247632831335, 0.081500582397, 0.402474999428, 0.147998988628, -0.223036110401, 0.221898451447, -0.0156658459455, -0.354914367199, 0.107491694391, 0.206237882376, -0.15235671401, -0.279907017946, 0.115304499865, 0.179060071707, -0.554967045784, -0.224611669779, -0.377571195364, 0.311067163944, -0.285854697227, -0.264947026968, 0.278255581856, -0.0282362438738, 0.122265554965, -0.11626277864, 0.322253793478, 0.267765462399, -0.692252278328, 0.22620536387, 0.284482449293, -0.581016898155, -0.0252758655697, -0.204395845532, 0.117867261171};