//Numpy array shape (96, 6)
//Min 1.59579443932
//Max 0.68497800827

weight_default_t w2[96][6] = {-0.0527899377048, 0.281354218721, 0.669323444366, -0.753527104855, -1.59579443932, 0.68497800827, -0.0514527186751, -0.10982144624, -0.185059562325, -0.0394841134548, 0.217219516635, -0.504423797131, -0.01029067114, -0.440189063549, 0.220827594399, 0.185305893421, -0.250506579876, 0.472439348698, 0.162266120315, 0.492422968149, 0.417762547731, -0.720597863197, -1.24508738518, 0.595579922199, -0.144836321473, 0.0890957936645, -0.127281814814, -0.113168023527, 0.199690133333, -0.354730039835, -0.254676610231, -0.450601696968, 0.210110574961, 0.195992976427, -0.270364165306, 0.266515284777, 0.0693940967321, 0.250234246254, -0.0622498877347, -0.769241511822, -0.526374876499, 0.385669827461, 0.128309413791, -0.0130754271522, 0.0733922123909, 0.099355250597, 0.124675214291, -0.641669332981, -0.25037458539, -0.398164391518, 0.00892754551023, 0.00729753449559, -0.514699459076, 0.320583492517, 0.118874557316, 0.258879512548, 0.20387108624, -0.527884781361, -0.45296394825, 0.336246401072, 0.190948456526, -0.0345618315041, -0.235590294003, 0.0520947054029, 0.221101775765, -0.318389028311, -0.244832068682, -0.443659454584, 0.0818869620562, 0.0537155345082, -0.37466520071, 0.46524065733, 0.188116759062, 0.312554508448, 0.139027759433, -0.67176014185, -0.383482813835, 0.339458316565, 0.165165826678, -0.112213522196, -0.17326451838, -0.0295333433896, 0.302918732166, -0.331532001495, -0.193884789944, -0.254587888718, 0.218843594193, 0.284922093153, -0.308000028133, 0.228482887149, 0.198692157865, 0.270495444536, 0.251773506403, -0.540275096893, -0.543423295021, 0.265290051699, 0.00911208614707, 0.0845644697547, 0.0290688686073, -0.0466068424284, 0.157234430313, -0.520443558693, -0.22499987483, -0.502564668655, 0.281304121017, 0.130687654018, -0.567188799381, 0.348877847195, 0.0564467869699, 0.343385726213, 0.310314357281, -0.405083447695, -0.647497594357, 0.473136603832, -0.0153850791976, 0.187974393368, -0.221980392933, -0.0520966090262, 0.110281430185, -0.470568656921, -0.145072907209, -0.341381818056, 0.173901632428, -0.00659366510808, -0.447771728039, 0.468821257353, -0.0331633463502, 0.246636003256, 0.11153845489, -0.725435495377, -0.387104332447, 0.396482259035, 0.19437289238, 0.163248762488, -0.0341526791453, 0.0458378791809, 0.252438336611, -0.667713105679, -0.162428900599, -0.507611691952, 0.0342286303639, 0.231907472014, -0.622955739498, 0.355225801468, -0.084744155407, 0.204295799136, 0.100956983864, -0.714082360268, -0.640598773956, 0.366803646088, -0.0199295077473, -0.0796809792519, -0.259536892176, -0.0415446124971, 0.0839147344232, -0.343840122223, -0.274184077978, -0.525580406189, 0.0107549466193, 0.0255657732487, -0.433438539505, 0.22424826026, 0.14226475358, 0.279339492321, 0.283195018768, -0.719560980797, -0.489596456289, 0.450301706791, 0.20148588717, 0.00209601898678, -0.0360375121236, 0.00810589734465, 0.209159523249, -0.524636805058, -0.262644171715, -0.446225970984, 0.138999059796, 0.0346443168819, -0.386168897152, 0.339891850948, 0.0174220893532, 0.11026392132, 0.250782519579, -0.643448472023, -0.667149662971, 0.179390355945, -0.0293914545327, 0.119173645973, -0.0127474367619, 0.0809170082211, 0.0663518235087, -0.43329796195, -0.172092467546, -0.485391527414, 0.0579172931612, 0.182356581092, -0.473034501076, 0.182068750262, 0.0524646230042, 0.360673666, 0.031885124743, -0.700470924377, -0.6470053792, 0.478786945343, 0.123595267534, 0.0168900005519, -0.0693662762642, -0.0617000497878, 0.248893141747, -0.625353753567, -0.39608079195, -0.36939445138, 0.0829591974616, 0.0494816638529, -0.511169850826, 0.359698295593, 0.0656615719199, 0.286456853151, 0.253086149693, -0.644369184971, -0.58581161499, 0.311623424292, -0.0311841052026, 0.110078662634, -0.246026977897, 0.174843505025, 0.121250547469, -0.38506385684, -0.142888814211, -0.409887760878, 0.120568141341, -0.0180379636586, -0.540481209755, 0.4770193398, 0.157064005733, 0.202792525291, 0.338102370501, -0.534099042416, -0.453903704882, 0.345992088318, -0.0862203687429, -0.126740306616, -0.0520484335721, 0.059048846364, 0.336167573929, -0.455557614565, -0.375042200089, -0.415172159672, 0.295575857162, 0.14732940495, -0.484555006027, 0.378711909056, 0.00382811785676, 0.318850427866, 0.23281443119, -0.564729571342, -0.363122344017, 0.316388398409, 0.158569797873, 0.103047654033, -0.228074893355, 0.190142720938, 0.10523635149, -0.436575323343, -0.0876145809889, -0.276316404343, 0.170392647386, -0.0210609491915, -0.529914021492, 0.382855087519, 0.283510327339, 0.206964835525, 0.313256919384, -0.516486763954, -0.526267588139, 0.530105113983, -0.0157657824457, 0.0249618832022, -0.0521130748093, 0.0905509442091, 0.156499907374, -0.563330173492, -0.308459281921, -0.412957906723, 0.00716486945748, 0.0664075091481, -0.368187010288, 0.447718054056, 0.221875667572, 0.517400145531, 0.209733247757, -0.733965039253, -0.495389789343, 0.432153999805, 0.0585843361914, 0.0230302847922, -0.138419032097, 0.116704255342, 0.178600996733, -0.617249846458, -0.38486161828, -0.407970964909, 0.0714926049113, 0.212081074715, -0.578166306019, 0.315429776907, 0.0555104315281, 0.256119042635, 0.195665180683, -0.775569438934, -0.671452999115, 0.404487162828, 0.150383859873, -0.149779200554, -0.169527366757, 0.151091039181, 0.376391142607, -0.574973523617, -0.148037061095, -0.335992902517, 0.114374056458, 0.229642748833, -0.441994190216, 0.459115147591, 0.0672699064016, 0.250345617533, 0.2555950284, -0.549274325371, -0.445011407137, 0.294079065323, 0.189376667142, 0.104968011379, -0.154621660709, 0.0995244681835, 0.0315589942038, -0.544613718987, -0.22228255868, -0.294977456331, 0.280688434839, -0.0257594827563, -0.293512701988, 0.515100359917, -0.0412980988622, 0.249686837196, 0.353121906519, -0.787918150425, -0.429113835096, 0.515972733498, 0.125959038734, 0.14156524837, -0.0239042155445, 0.0641505867243, 0.308539360762, -0.425094395876, -0.0920038223267, -0.458837240934, 0.331645697355, -0.0428590029478, -0.42796421051, 0.326559156179, 0.0173147115856, 0.227285563946, 0.184721723199, -0.644286811352, -0.387748897076, 0.451912939548, -0.068150497973, 0.0979235842824, 0.00512462574989, 0.0209749620408, 0.27794316411, -0.640331268311, -0.117494896054, -0.313957720995, -0.0329711437225, 0.174860224128, -0.384828329086, 0.303717553616, 0.168673738837, 0.281930267811, 0.182344347239, -0.72435760498, -0.462309420109, 0.414866775274, 0.219503328204, 0.165332376957, -0.159345030785, 0.120937854052, 0.353837043047, -0.481436431408, -0.329455256462, -0.388179183006, 0.0933040827513, 0.2777312994, -0.488482147455, 0.488949507475, 0.0951237305999, 0.259202390909, 0.15798483789, -0.593500316143, -0.370623260736, 0.525997161865, 0.237320050597, 0.0809789299965, 0.0553840622306, 0.228146120906, 0.119381435215, -0.567345559597, -0.378192156553, -0.388074576855, 0.150702372193, 0.228726908565, -0.169529870152, 0.361465871334, 0.18684694171, 0.19300635159, 0.106861755252, -0.638806164265, -0.548204243183, 0.351455271244, 0.0508842617273, 0.00398132391274, -0.0753307342529, -0.0083349365741, 0.140422329307, -0.484569430351, -0.332281768322, -0.324278622866, 0.330678969622, 0.148806646466, -0.459865123034, 0.520850598812, 0.073611676693, 0.310768336058, 0.257683634758, -0.579136967659, -0.347876578569, 0.36713835597, 0.180007427931, 0.00188867957331, -0.0895552933216, 0.0847578048706, 0.190280541778, -0.471349686384, -0.285913646221, -0.326296210289, 0.0838209912181, 0.166252940893, -0.523000597954, 0.49156421423, 0.0828632116318, 0.351238697767, 0.404913902283, -0.546333611012, -0.358179986477, 0.480851173401, -0.0258399676532, 0.062492609024, -0.210183680058, 0.100393153727, 0.304850131273, -0.363367199898, -0.309283465147, -0.30001282692, 0.0913005024195, 0.158048227429, -0.497796952724, 0.369432747364, 0.247456520796, 0.448317527771, 0.16193151474, -0.762728154659, -0.380943745375, 0.267650306225, 0.0685091242194, -0.0567141696811, -0.173497095704, 0.0248200912029, 0.21666456759, -0.574856042862, -0.120985850692, -0.528732717037, 0.232692301273, 0.316098690033, -0.314442276955, 0.406136333942, 0.00417978223413, 0.188670620322, 0.0887606218457, -0.661186516285, -0.352584481239, 0.258808284998, 0.0897259861231, -0.0376137644053, -0.246382430196, 0.0489828325808, 0.139683842659, -0.637294113636, -0.158999025822, -0.209767952561, 0.19116717577, 0.0957725867629, -0.470032155514, 0.204164862633, 0.250306665897, 0.392529636621, 0.138172805309, -0.563180208206, -0.523906588554, 0.392818689346, 0.1383112818, 0.053606685251, -0.0269441623241, -0.0646349713206, 0.0799462422729, -0.592803299427, -0.39063206315, -0.356802582741, 0.0848610848188, 0.0210684109479, -0.407425552607, 0.346342235804, 0.233506336808, 0.504710972309, 0.250168204308, -0.812907874584, -0.512697279453, 0.290689051151, -0.00667172018439, 0.091778986156, -0.239510163665, -0.0366992279887, 0.242938578129, -0.46368098259, -0.223481297493, -0.291059792042, 0.302037805319, 0.000721207179595, -0.660072028637, 0.306599795818, -0.00452927360311, 0.345405399799, 0.199618279934, -0.663389861584, -0.232780665159, 0.377624750137, 0.0889386087656, -0.19199770689, 0.063209861517, -0.0596706271172, -0.0499548129737, -0.365810543299, -0.0619589500129, -0.39142921567, 0.15787473321, 0.293648332357, -0.510205447674, 0.486642807722, 0.0812216922641, 0.172447547317, 0.134579822421, -0.565876185894, -0.264123231173, 0.343939304352, -0.00918307714164, -0.15605674684, -0.201180815697, -0.0899229496717, 0.0848894119263, -0.191667973995, -0.449927985668, -0.0784073770046, 0.1881198138, -0.0598823688924, -0.714505314827, 0.597070813179};

