//Numpy array shape (96, 6)
//Min 1.59579443932
//Max 0.68497800827

weight_default_t w2[10][6] = {0.510269701481, 0.69567245245, 0.717057526112, -0.928317785263, -1.60320162773, -0.989169836044, 0.0952153280377, 0.153080806136, 0.460505455732, -1.61330413818, -1.39639294147, -0.65017002821, 0.751899838448, 0.714121818542, 1.02217459679, -0.813518822193, -0.984604656696, -0.874342441559, 0.723541021347, 0.965835034847, 0.85932892561, -0.948149561882, -1.65391862392, -0.218482196331, 0.186618328094, 0.348054856062, 0.578683316708, -1.57307851315, -1.19610142708, -1.29363298416, 0.457919001579, 0.480706393719, 0.955449640751, -1.14096009731, -1.44854259491, -0.440726459026, 0.330371528864, 0.311002582312, 0.423855721951, -1.47837817669, -1.48990345001, -1.20175111294, 0.774584293365, 0.695731520653, 1.0353628397, -1.2766122818, -1.6469296217, -0.782223284245, 0.303560376167, 0.347196906805, 0.763760387897, -1.74012315273, -1.91781771183, -1.58541977406, 0.612952411175, 0.694230377674, 1.02663695812, -1.17236351967, -1.41116881371, -0.738875687122};
