//Numpy array shape (4, 21)
//Min -1.822752475739
//Max 1.554334878922
//Number of zeros 0

bias_default_t w4[84] = {-0.670496404171, 0.617141127586, -0.591098189354, 0.688924968243, 0.615894436836, 0.633134663105, -0.047882635146, 0.896494269371, -0.335032731295, 0.591713368893, -0.813962459564, -0.234443649650, 0.146907240152, 0.018037064001, 0.657617092133, -0.906032204628, -0.641798138618, -0.392618119717, 1.392969965935, -1.822752475739, 0.051352694631, -0.487717121840, 0.199637815356, -0.413531333208, 0.040428701788, 0.342444121838, -0.115325331688, 0.023663889617, -1.045971274376, -0.049563318491, -0.855870485306, 0.180359184742, 1.554334878922, -0.133681178093, 0.012857615948, 0.222729399800, -0.312678992748, -0.127303391695, 0.554085314274, -0.397183239460, 0.551073014736, -0.067519523203, 0.021029237658, 0.011846823618, 0.180583655834, -0.048569973558, -1.551162719727, -0.004001750145, -0.058362554759, -0.334413141012, 0.446884810925, -0.091184847057, 0.384878277779, 0.213568910956, 0.499835997820, 0.002903535962, 0.558406233788, -0.921640157700, -0.272573798895, -0.588257193565, -1.355523347855, -1.190011739731, 0.081441827118, -1.300077080727, 0.550847709179, 0.429509431124, 0.379847079515, -0.155014306307, 0.257605820894, 0.077640831470, -0.231501340866, 0.512960314751, 0.513070344925, -0.208998858929, 1.029372334480, 0.159245356917, 0.005362110678, 0.801572918892, -1.136477470398, 0.549797832966, 0.673236668110, 0.235053181648, -0.831375837326, -0.037185501307};
