//Numpy array shape [64, 64]
//Min -0.694158136845
//Max 0.935728251934
//Number of zeros 0

#ifndef W4_H_
#define W4_H_

#ifndef __SYNTHESIS__
static model_default_t w4[4096];
#else
static model_default_t w4[4096] = {-0.0534, -0.0397, 0.1099, -0.0158, 0.0566, -0.0437, 0.0358, -0.0059, -0.6221, -0.2195, 0.4332, -0.0006, 0.3444, -0.1331, 0.1521, -0.0344, -0.0523, 0.0716, -0.2648, -0.0769, 0.2784, 0.2660, -0.2132, -0.2374, 0.0886, -0.0982, -0.0739, 0.1106, 0.0018, -0.0760, -0.0053, 0.0679, 0.1407, 0.0560, 0.0461, -0.0170, -0.2511, 0.0659, 0.0694, 0.2679, 0.0927, -0.0927, 0.1240, 0.4282, -0.0301, 0.1632, 0.1904, -0.1315, 0.0587, -0.2357, 0.0185, -0.3366, 0.1879, 0.1159, -0.1981, -0.3543, -0.1159, 0.0307, -0.0788, -0.2831, -0.1851, 0.1895, -0.3243, 0.3904, -0.1878, -0.1079, -0.1429, 0.5340, -0.0829, 0.1090, 0.2121, 0.2711, 0.3211, -0.0637, -0.1077, 0.0669, 0.1128, -0.1656, -0.3322, -0.0264, -0.2436, 0.2626, 0.1408, 0.4959, -0.0949, 0.1264, 0.1735, -0.0783, 0.3522, -0.0700, 0.1972, 0.2484, -0.0054, -0.2077, -0.0105, 0.0167, 0.0166, -0.1010, -0.0805, 0.0269, -0.0435, 0.0031, 0.0847, 0.2070, 0.1682, 0.1907, 0.2724, 0.1629, -0.0407, 0.0695, 0.2821, 0.4767, 0.0565, -0.0772, -0.0068, -0.2022, 0.0934, -0.3273, 0.1991, 0.0005, -0.2960, 0.2465, 0.1172, 0.0186, -0.1771, -0.0736, -0.3273, 0.0503, 0.2298, -0.0562, -0.0488, 0.4234, 0.1469, 0.4721, -0.1163, -0.0246, 0.5444, 0.5231, -0.0111, 0.2546, -0.2656, 0.5268, 0.1256, 0.1316, 0.0220, 0.0356, -0.1533, 0.3506, -0.0230, 0.2739, 0.0583, -0.2664, 0.0767, -0.2063, 0.1404, -0.0833, 0.0089, 0.6262, 0.0010, 0.0015, 0.1593, 0.0828, 0.1407, -0.1682, 0.4241, -0.0906, -0.2426, -0.2010, -0.0727, 0.7379, -0.0940, 0.3023, -0.1466, 0.1056, -0.2008, 0.1068, -0.2655, 0.3513, 0.0013, 0.1606, -0.2098, 0.0079, 0.2976, -0.0369, 0.3285, -0.1661, -0.0504, 0.0927, 0.2675, 0.0833, 0.1854, -0.1491, -0.2523, -0.1016, 0.2331, -0.5422, -0.0648, -0.1108, -0.0440, 0.0698, -0.2619, 0.0534, 0.0626, 0.0813, -0.1038, 0.7284, 0.1494, -0.2388, 0.2461, 0.0001, -0.3014, -0.1291, 0.2294, 0.0220, -0.0640, -0.1027, 0.1555, -0.0526, -0.0390, -0.5675, 0.0361, 0.1720, -0.0096, -0.0480, -0.1178, -0.0712, -0.0640, 0.2181, 0.0023, 0.0553, -0.0754, -0.4586, -0.4780, -0.0005, 0.1317, 0.2088, 0.2108, 0.0767, -0.1380, -0.5248, 0.1428, -0.0817, -0.3229, 0.0155, 0.1266, -0.1672, 0.1227, 0.0108, 0.1942, -0.2877, -0.0391, -0.4407, 0.1972, -0.0043, 0.2043, 0.0150, 0.0731, -0.0539, 0.1923, -0.4871, -0.2450, -0.2084, 0.0662, 0.0563, -0.0488, 0.1965, -0.2580, 0.1426, -0.3573, 0.2192, -0.2479, 0.2790, -0.0364, 0.0337, 0.2978, 0.0924, -0.3395, -0.2177, 0.0369, 0.3849, 0.1183, 0.0873, -0.4720, 0.0701, 0.0177, 0.0652, -0.0856, -0.6539, -0.3055, 0.0322, -0.4143, -0.0485, 0.4631, -0.2708, 0.1911, -0.1263, 0.1775, 0.0956, 0.2711, -0.0991, -0.1930, 0.0615, -0.2463, 0.0190, 0.0930, -0.0399, 0.1322, 0.1908, -0.0181, 0.1750, 0.0495, 0.2967, 0.1906, 0.2417, -0.0086, 0.1972, 0.1055, -0.0261, -0.1350, -0.2250, 0.0649, 0.0173, -0.0392, -0.4717, 0.1161, 0.0713, -0.3269, -0.2753, -0.4132, -0.2890, 0.0182, 0.2266, 0.1920, -0.0231, 0.0658, 0.0811, 0.1485, 0.0365, -0.3738, 0.0619, 0.2510, 0.3703, 0.0121, -0.4227, -0.0480, -0.0395, 0.0557, -0.5309, 0.1223, 0.0521, 0.3023, -0.2915, 0.2523, 0.0993, -0.1872, -0.3161, -0.4740, 0.3401, -0.0207, -0.1091, -0.3492, 0.0714, -0.1855, 0.0196, -0.0192, 0.3379, -0.3414, -0.3325, -0.0663, -0.0018, -0.3427, -0.5136, -0.0375, -0.0613, -0.1210, -0.3789, 0.1415, -0.3462, -0.2487, -0.2587, 0.0727, 0.0439, -0.0075, 0.1914, 0.1327, 0.2696, 0.0496, -0.2145, 0.5719, -0.0341, -0.1017, -0.0424, -0.1127, 0.0760, 0.1331, 0.0863, -0.1462, 0.0857, 0.3337, -0.6217, 0.0118, 0.0795, -0.1308, -0.0877, 0.3317, 0.0323, 0.3046, -0.0199, 0.1452, -0.0550, 0.2155, 0.2238, 0.3559, -0.0582, 0.2597, -0.0296, 0.1062, -0.3034, 0.1432, -0.0082, -0.1754, 0.4793, -0.4390, 0.0013, 0.1369, -0.0149, 0.1021, -0.0553, 0.2452, -0.0200, 0.1914, -0.2304, 0.0264, -0.1696, 0.5216, -0.1959, 0.0863, -0.5296, 0.0453, -0.0148, -0.3034, -0.2060, -0.0250, -0.2331, 0.0065, -0.0464, -0.2544, 0.0712, 0.1647, -0.3396, 0.0074, 0.0062, -0.1291, -0.4215, 0.1612, 0.0250, -0.1785, 0.0956, -0.0471, -0.1292, 0.0492, -0.2644, 0.2208, 0.1534, 0.2104, -0.4486, 0.1068, -0.1320, 0.0220, 0.2088, 0.2437, 0.1298, 0.0934, 0.0230, -0.5617, -0.2525, -0.1572, -0.1514, 0.0615, 0.0472, -0.1583, 0.0100, -0.2512, 0.0950, 0.1750, -0.1066, -0.2900, 0.1352, 0.1440, -0.3258, 0.2829, 0.2129, -0.1982, -0.1049, -0.1057, 0.0635, 0.0217, -0.6087, -0.1473, 0.1397, 0.0510, 0.0335, 0.2515, 0.2684, -0.0496, 0.1833, 0.1648, 0.1212, -0.1977, 0.3912, -0.2553, -0.1433, 0.3963, -0.0736, -0.2825, 0.0899, -0.1708, -0.5571, 0.1855, 0.0903, -0.0517, -0.3655, -0.1280, -0.2905, 0.1516, 0.1736, 0.2780, -0.1921, -0.0724, -0.1241, 0.0824, -0.0101, 0.2076, 0.0260, 0.1679, 0.3541, -0.0764, 0.0938, -0.0788, -0.1214, -0.3549, -0.3999, -0.0385, -0.1081, -0.1381, 0.0869, -0.0107, 0.1972, 0.3974, 0.1508, 0.2654, 0.0070, -0.0088, 0.0819, 0.1703, -0.0003, 0.0975, 0.0570, 0.1009, -0.0819, 0.0746, -0.1972, -0.4859, 0.4479, -0.0791, -0.4435, 0.2858, 0.1066, -0.3928, 0.3146, 0.0329, 0.1154, 0.3600, 0.0541, -0.2570, -0.0251, -0.1197, 0.1851, 0.0621, 0.5699, -0.1811, 0.2652, -0.1848, 0.1920, 0.9245, 0.3191, -0.0737, 0.1278, -0.2688, 0.0750, -0.3180, -0.0244, -0.1437, 0.1961, -0.0869, 0.4573, -0.4106, -0.1219, -0.0780, -0.4663, 0.3755, -0.4334, -0.0159, -0.1886, 0.1147, 0.0139, -0.3237, -0.1870, -0.0857, -0.0631, 0.0428, 0.3771, 0.1939, -0.0862, -0.0327, -0.5527, -0.3507, 0.1040, 0.0114, -0.2062, 0.0263, -0.2238, -0.0205, 0.5713, 0.0320, 0.5079, 0.3201, 0.1381, -0.1192, -0.0548, 0.1869, 0.2002, -0.0204, -0.0409, 0.0732, -0.2894, -0.1309, -0.3441, -0.0154, -0.0720, -0.1639, -0.0658, -0.1324, 0.5485, 0.1184, -0.1142, 0.5287, 0.0114, 0.1880, -0.2077, 0.1498, -0.1030, 0.3535, -0.3305, 0.1002, -0.2348, 0.0566, 0.0177, 0.0343, 0.2608, 0.2014, 0.0204, 0.0875, 0.0354, 0.0262, 0.1886, 0.0728, 0.2413, -0.1063, -0.4829, -0.0390, 0.1671, -0.1202, 0.0326, 0.0780, 0.3103, 0.0903, -0.0178, 0.2391, 0.2864, 0.0705, -0.0851, -0.1195, -0.0204, -0.0725, -0.1035, 0.5053, 0.4434, 0.2998, 0.2350, 0.0034, -0.0603, 0.0009, 0.0681, 0.1438, -0.0221, -0.0862, 0.2147, 0.0107, 0.3451, -0.1894, 0.0156, -0.0177, 0.0671, 0.1165, -0.2461, -0.2670, 0.2819, -0.3125, -0.0913, 0.3966, -0.0304, 0.0739, -0.2578, 0.1019, -0.0184, 0.4313, 0.0042, 0.1116, 0.3555, -0.1804, -0.2247, 0.2074, -0.0360, 0.1992, 0.0300, 0.0239, 0.2446, -0.0210, -0.1566, -0.1276, 0.4133, -0.2627, -0.3183, -0.1192, -0.0239, -0.0112, 0.2698, 0.0862, 0.1054, 0.1359, -0.1008, 0.3252, 0.4389, 0.1794, -0.0111, 0.0031, -0.0133, -0.0063, 0.0561, 0.2010, 0.1449, 0.1190, -0.0728, 0.0740, -0.0106, 0.1375, 0.1619, 0.1888, 0.0731, 0.0757, 0.3589, -0.0602, 0.0831, 0.1504, 0.4436, -0.2893, -0.0361, 0.0870, 0.3244, 0.0603, 0.1160, -0.0158, 0.0254, -0.0256, 0.1015, -0.2459, 0.1401, -0.4043, 0.1800, -0.2287, -0.0727, -0.3528, 0.1292, -0.4780, 0.1592, 0.2149, 0.0370, 0.0009, -0.0568, -0.0884, 0.2020, 0.1165, -0.0600, 0.3119, 0.3066, -0.0408, -0.0465, -0.1686, -0.1635, 0.1964, -0.1198, 0.1626, 0.0344, 0.3700, 0.0739, -0.3804, 0.5313, 0.1154, 0.0915, 0.3218, -0.1233, 0.0482, 0.1944, -0.1056, 0.1512, 0.0648, -0.3633, 0.2004, -0.0605, -0.1119, -0.3676, -0.0573, 0.0671, -0.1240, 0.1342, 0.1534, 0.1237, 0.0700, -0.0545, -0.4675, 0.2167, -0.0383, -0.0803, 0.1955, -0.2739, 0.2256, -0.0728, 0.1037, -0.1064, -0.1244, 0.3023, 0.3314, 0.1373, 0.1882, 0.2374, 0.1431, 0.2175, 0.3102, -0.0025, 0.0220, -0.1405, -0.1810, -0.1268, 0.2813, 0.0798, -0.0178, 0.4335, -0.3379, 0.0568, 0.1950, 0.0841, -0.1742, 0.1105, -0.1249, 0.4342, -0.3043, -0.0720, 0.1163, -0.1473, 0.1067, 0.0940, 0.1530, -0.0374, 0.1699, 0.0635, -0.2155, -0.2020, -0.0694, 0.0100, -0.0964, 0.2069, -0.0317, 0.1533, 0.0561, 0.4914, -0.3288, 0.1053, 0.3651, -0.1680, -0.3035, -0.1061, -0.1407, 0.1622, 0.2432, -0.1635, 0.1373, 0.1264, 0.0010, 0.1572, -0.1950, 0.1974, 0.1727, 0.1677, 0.0089, 0.0762, -0.2059, 0.1466, -0.3418, 0.1169, -0.3460, 0.0597, -0.0162, -0.0474, -0.0197, -0.0202, -0.3256, 0.2242, -0.3443, -0.4035, -0.0264, -0.5433, 0.0130, -0.0276, 0.0818, 0.0984, -0.4905, -0.0483, 0.0131, 0.1973, 0.2112, 0.4710, 0.4132, 0.0155, -0.1717, -0.0190, -0.2915, -0.0712, 0.1180, -0.0984, 0.2685, -0.0991, -0.3434, -0.0004, -0.1475, -0.1205, 0.0174, 0.0086, -0.0167, 0.0222, 0.2096, 0.1021, 0.1294, 0.3102, 0.1642, -0.3176, -0.1736, -0.2271, -0.1867, -0.1643, 0.3235, 0.0032, 0.0332, -0.2719, -0.0326, -0.3246, 0.3359, 0.0957, -0.2258, 0.0212, -0.0237, 0.0683, 0.0816, 0.3518, 0.1891, 0.0328, 0.0331, -0.2103, 0.0115, -0.1838, 0.3190, -0.0304, 0.3871, 0.3865, -0.1388, 0.2282, -0.3531, -0.0869, 0.1186, 0.0490, 0.2275, -0.2768, -0.3179, 0.5662, -0.3466, 0.0122, 0.3202, -0.0197, -0.0077, -0.0786, -0.0017, -0.4794, 0.1029, -0.1529, -0.1398, -0.1386, -0.0654, -0.3681, 0.0602, -0.6196, -0.0603, 0.2608, 0.0505, 0.2165, 0.0250, 0.0590, 0.3042, 0.2198, 0.0773, 0.2886, 0.7800, 0.1595, 0.1380, 0.0582, 0.1308, 0.1164, -0.1042, -0.0923, 0.2477, -0.5036, -0.1376, -0.0572, -0.3375, -0.0439, -0.2139, -0.2228, 0.0897, -0.0015, 0.2411, 0.1366, 0.2356, 0.0465, -0.1114, -0.2997, 0.0869, -0.3985, 0.2755, 0.4555, -0.0033, 0.1746, -0.0492, 0.2064, 0.0184, 0.0061, 0.2291, 0.0349, 0.1211, -0.0689, -0.1452, -0.3989, 0.1576, 0.1194, 0.3110, 0.2815, 0.3644, -0.3410, 0.1446, -0.2341, -0.0633, 0.0217, 0.0128, 0.0061, 0.0878, -0.5893, 0.0801, 0.1654, -0.1364, 0.0772, -0.0862, 0.1588, 0.0134, 0.1428, -0.0039, 0.2264, 0.4614, -0.0020, 0.1226, -0.0245, 0.1442, -0.1037, -0.3079, 0.1625, -0.2124, 0.0052, 0.1183, 0.2107, 0.0704, 0.0648, -0.0232, -0.3338, 0.0550, 0.0926, 0.0777, 0.2243, -0.0489, 0.0393, -0.1794, -0.0164, 0.1911, 0.0661, -0.2502, -0.2547, 0.0713, -0.2785, 0.0347, -0.1187, -0.3144, -0.3096, -0.3071, 0.1495, 0.2553, 0.1917, 0.0759, 0.6360, 0.3186, -0.2087, -0.1314, -0.1064, -0.3762, 0.1025, 0.0726, 0.0714, 0.1984, 0.0055, 0.1806, 0.0781, -0.0576, 0.0595, -0.0730, 0.1021, 0.0921, -0.2253, 0.1504, -0.3155, -0.0054, -0.0121, 0.1153, -0.0930, 0.2061, -0.0792, -0.3983, 0.0022, 0.1193, -0.0091, 0.1445, -0.0168, 0.1792, 0.3340, -0.0603, -0.3684, 0.2656, 0.0132, 0.1067, 0.1037, -0.0996, -0.2331, 0.0995, 0.4508, 0.2207, -0.0795, -0.1584, 0.1129, -0.1694, 0.1553, 0.3691, -0.2978, 0.0770, 0.0561, -0.0174, 0.1258, 0.1429, 0.2708, 0.2153, -0.2289, -0.0652, 0.3690, -0.0389, -0.2821, 0.0475, -0.0696, -0.0581, -0.0712, -0.0198, 0.3264, -0.2578, 0.2103, -0.0870, -0.2651, -0.2061, 0.2009, -0.3162, 0.3668, 0.1581, -0.0718, -0.1954, 0.1558, 0.1025, 0.0495, 0.2612, -0.2283, -0.0480, 0.0781, -0.1137, 0.0362, 0.2202, -0.3491, -0.0883, -0.4055, -0.3885, 0.6256, -0.0184, 0.0774, 0.3453, 0.1488, 0.5102, -0.2290, -0.0524, 0.0513, 0.0433, -0.4142, -0.1051, 0.0787, 0.0681, -0.2014, 0.2057, 0.4301, 0.0412, -0.0281, 0.2121, 0.0485, -0.0211, 0.1234, 0.0865, -0.0159, -0.3041, -0.1046, -0.1732, 0.0063, -0.0552, -0.0972, -0.0892, 0.0340, 0.2684, -0.2501, 0.1789, 0.0114, -0.0028, 0.0259, -0.1728, 0.1168, -0.1178, 0.0717, 0.1653, 0.2735, -0.1661, 0.2344, 0.0639, 0.0399, -0.0571, -0.2999, 0.2737, 0.1301, -0.3345, 0.0658, 0.0745, 0.1735, -0.1823, 0.0563, -0.1664, 0.1263, -0.3446, -0.1329, 0.0852, -0.2690, 0.3621, -0.0697, 0.1642, -0.0420, -0.1364, -0.3309, 0.0338, 0.2770, 0.3669, -0.3303, 0.1024, -0.2971, 0.3876, -0.0651, 0.0758, -0.0542, 0.3249, 0.2451, 0.2149, 0.0818, 0.0441, 0.3223, -0.0667, 0.0369, -0.1554, -0.2675, 0.3666, 0.0619, -0.3368, 0.0076, -0.0291, -0.1541, -0.4525, -0.0243, 0.0520, 0.1038, 0.2995, -0.1008, 0.3508, 0.1357, -0.0914, -0.0148, 0.0630, 0.0079, 0.3115, -0.0192, 0.0953, -0.4192, 0.1084, 0.1412, -0.0159, -0.2349, -0.2863, 0.0328, 0.0354, 0.1257, -0.2963, 0.1019, 0.1579, 0.1488, 0.1748, -0.0631, 0.2074, -0.3806, 0.0376, -0.0506, 0.2177, 0.0099, -0.0848, 0.0270, 0.1361, -0.1950, -0.0623, 0.3688, 0.1366, 0.0441, 0.4359, 0.0362, -0.4915, -0.4089, 0.1786, -0.0304, 0.1144, 0.0971, -0.4298, 0.1807, -0.1992, -0.4527, 0.0713, 0.0873, 0.1695, -0.0326, -0.2960, 0.2439, -0.1768, 0.1046, 0.1375, 0.0678, 0.2112, -0.6863, -0.6194, 0.0935, -0.2706, -0.1975, 0.1122, -0.1366, 0.0095, -0.5631, 0.0909, 0.0833, -0.5824, 0.1318, 0.0797, -0.1230, 0.1093, -0.0514, 0.2103, -0.1779, -0.1453, 0.0797, 0.3828, 0.0057, 0.3349, 0.0922, -0.1340, 0.2178, -0.0963, -0.1221, 0.4443, -0.0305, -0.1257, 0.1826, -0.3148, -0.2838, -0.1345, 0.0993, 0.0364, 0.0325, -0.1161, -0.2434, -0.2201, 0.3018, 0.2038, 0.0131, -0.0546, -0.1249, -0.0464, 0.4828, 0.1153, 0.0341, 0.0868, -0.2429, 0.1479, -0.1646, 0.1846, 0.0175, -0.0673, -0.4833, -0.0382, -0.3629, -0.3599, 0.2316, -0.0016, 0.1847, 0.2264, 0.0809, 0.2635, -0.0454, 0.1028, 0.2836, -0.0117, 0.1740, 0.0499, -0.3405, 0.0614, -0.2502, -0.0183, -0.2102, 0.2136, 0.0679, -0.4670, 0.0133, 0.0867, -0.1384, -0.0096, 0.0036, -0.2371, -0.0044, 0.2725, 0.2072, 0.1381, -0.1034, 0.1228, -0.1633, 0.0571, 0.1169, -0.0152, -0.0457, 0.2072, 0.1199, 0.0839, -0.2421, 0.0489, 0.0407, -0.0058, -0.1219, 0.2020, -0.1251, -0.1526, -0.0702, 0.4530, 0.0349, 0.1571, -0.0278, -0.1198, 0.3965, -0.0033, -0.0981, -0.0352, -0.1390, 0.1306, 0.0252, 0.3143, -0.1492, -0.1282, 0.2184, -0.1243, 0.2109, 0.2330, -0.2269, 0.0349, -0.1121, -0.3509, 0.1507, -0.0066, 0.3515, -0.2598, -0.3424, 0.5870, -0.2165, -0.0720, 0.1789, -0.3931, 0.1055, 0.0158, 0.3200, 0.0764, -0.0482, -0.0206, -0.0143, -0.3381, -0.0257, 0.3885, 0.2022, -0.0685, -0.0540, 0.3427, -0.1288, -0.3236, -0.1129, 0.2040, 0.1534, 0.1116, 0.0191, -0.1384, 0.0790, -0.0521, 0.0352, 0.2561, 0.1786, 0.1511, -0.2155, -0.2394, -0.2639, 0.3543, 0.1680, 0.1080, 0.0098, 0.1143, 0.5372, 0.1032, 0.1592, -0.1846, 0.2008, 0.2348, 0.0007, 0.1146, -0.1498, 0.1141, 0.0265, 0.0846, 0.2209, 0.3366, -0.2085, -0.2094, -0.3987, -0.2122, -0.0619, 0.0906, -0.0037, -0.1365, 0.0887, 0.2500, 0.1945, -0.1908, 0.1493, -0.3396, 0.2197, 0.1944, -0.1320, -0.1244, 0.2697, 0.5365, -0.2627, 0.1154, -0.1389, 0.4219, -0.0958, -0.0642, -0.1337, 0.0400, 0.0178, -0.2013, -0.1044, -0.0675, -0.0331, -0.3076, 0.0625, -0.1226, 0.3862, 0.2028, 0.4011, 0.1573, -0.1801, 0.0306, -0.2847, 0.0849, -0.0379, 0.0413, 0.1575, -0.1360, -0.1792, 0.1295, -0.1215, 0.0837, 0.0843, 0.1387, -0.3197, 0.2160, -0.0661, -0.2501, 0.2840, 0.3664, 0.1312, 0.1945, -0.0335, -0.2660, 0.2029, -0.2426, 0.2373, 0.0061, 0.4127, -0.2456, -0.3556, -0.1022, -0.0274, 0.0731, -0.1228, -0.2790, -0.0693, 0.1683, 0.0528, 0.4416, 0.2127, -0.0289, 0.1028, 0.5393, 0.1794, 0.3723, -0.0126, -0.5213, 0.2013, 0.2938, -0.2550, 0.1751, 0.0517, -0.4077, 0.2202, 0.0517, 0.1023, -0.0454, 0.1278, -0.2083, -0.2852, -0.4656, -0.0873, 0.0306, -0.0265, 0.0275, 0.0472, -0.1045, -0.0696, -0.0540, -0.4168, 0.2436, 0.0455, 0.2120, -0.2431, 0.0441, -0.0061, 0.0348, -0.0132, -0.1130, -0.0064, 0.1526, 0.2036, -0.5075, 0.2549, -0.0873, -0.3248, 0.0168, 0.0405, 0.0380, 0.0223, -0.0883, -0.1251, -0.1372, -0.0626, 0.2520, 0.1445, 0.0977, -0.1426, 0.1874, -0.1245, 0.1858, 0.0746, -0.1144, -0.6150, 0.1930, -0.6016, -0.5915, -0.5958, -0.0749, -0.0336, 0.0338, 0.1065, -0.0287, -0.1540, 0.2333, 0.2474, -0.2161, -0.3204, 0.1296, -0.0153, -0.0624, -0.0389, -0.2470, 0.0503, 0.0486, -0.1187, 0.4806, 0.0107, -0.3011, 0.1517, -0.0322, -0.2040, 0.3336, 0.1981, 0.1128, 0.0569, 0.0901, -0.1076, 0.2657, 0.2120, 0.2535, -0.0833, -0.2236, 0.1154, -0.1575, -0.1407, 0.0650, -0.0024, 0.3398, -0.3022, 0.0003, 0.2385, -0.4555, -0.2981, 0.1182, -0.3888, -0.2870, 0.2411, -0.2792, 0.1858, 0.0451, 0.1844, -0.2450, 0.0927, 0.0898, 0.3082, -0.1794, -0.5529, -0.2202, 0.0030, 0.2893, -0.1162, 0.4534, -0.2913, -0.3667, 0.2921, -0.3364, 0.4888, 0.2650, 0.0151, -0.1263, -0.1424, 0.6993, -0.2748, -0.0115, -0.0169, 0.0444, -0.2702, -0.0623, -0.0173, -0.1564, 0.0392, 0.0593, 0.2873, -0.0217, 0.1999, 0.0268, -0.3714, 0.1455, -0.0491, 0.3487, 0.2808, -0.0135, -0.1021, -0.1075, 0.3506, 0.3335, -0.2536, 0.2976, -0.1391, -0.0769, 0.0280, -0.1324, 0.0782, 0.0002, 0.2753, -0.1144, 0.1534, -0.1251, 0.1429, 0.0881, 0.6152, -0.2301, 0.4419, 0.2799, 0.0322, 0.0249, -0.3430, 0.0655, -0.0114, -0.3833, -0.0285, -0.0265, 0.0338, 0.0727, -0.0667, -0.1233, 0.0246, 0.5069, 0.1397, 0.0584, 0.1060, 0.0753, 0.1139, -0.1016, -0.0186, -0.0343, -0.0573, 0.0255, 0.0453, 0.1748, 0.6974, 0.1189, 0.3141, -0.2194, 0.2011, -0.0236, -0.0308, -0.1107, -0.1330, -0.0521, -0.0545, -0.1456, 0.0032, -0.0210, 0.2726, -0.1453, 0.0238, -0.2093, 0.1479, 0.6125, 0.0505, 0.0588, 0.3413, 0.1566, -0.2745, 0.6631, 0.0558, -0.0975, 0.2013, -0.0019, 0.0347, 0.3376, 0.1686, 0.2166, 0.1855, -0.0190, 0.1723, -0.0459, 0.1654, 0.0679, 0.2517, -0.3074, -0.0096, 0.3816, -0.0560, -0.1659, -0.0204, 0.4923, -0.3118, 0.5235, -0.0201, 0.0638, 0.0510, -0.0546, 0.3582, 0.2746, 0.1567, 0.0664, 0.0226, 0.4976, 0.5046, 0.1858, 0.1105, 0.1836, -0.1707, -0.1323, 0.4345, 0.1938, 0.0079, 0.0575, 0.2189, -0.0428, -0.1011, 0.4270, -0.1821, 0.0366, 0.1636, 0.0690, 0.5080, 0.0187, 0.0527, -0.1854, -0.1036, -0.0690, 0.1542, 0.0071, 0.0573, 0.2236, 0.0335, 0.4002, 0.1341, 0.1275, -0.1388, -0.1366, -0.1383, -0.0732, -0.1439, 0.0175, 0.7341, 0.0427, 0.5654, 0.3946, 0.0881, -0.0694, 0.4827, -0.1465, 0.0320, 0.3999, 0.1008, -0.0518, -0.2095, -0.1436, -0.0818, 0.0780, -0.0620, 0.0773, 0.1165, 0.1406, -0.3732, 0.2501, 0.0166, -0.2617, 0.0906, -0.3049, -0.2669, -0.1691, -0.1867, -0.1456, 0.0053, -0.0503, -0.0958, 0.1985, 0.2821, -0.1037, -0.4957, 0.1075, -0.1918, -0.1581, 0.2274, -0.0555, 0.0920, 0.1427, 0.1056, 0.1482, 0.0252, -0.1221, 0.2166, 0.3854, -0.2856, 0.0322, -0.0216, -0.0508, 0.1058, 0.2191, -0.0942, 0.0707, 0.0395, -0.0662, -0.1956, 0.2576, 0.1088, -0.0375, -0.1860, 0.1111, -0.4027, 0.1520, 0.0824, 0.0018, -0.3305, -0.1829, -0.0816, -0.1243, -0.1966, -0.0864, -0.1016, 0.1181, -0.6942, 0.1651, 0.1235, 0.3156, -0.1116, -0.0140, 0.1732, 0.1712, 0.0158, 0.1496, -0.1781, -0.0002, -0.4068, 0.0934, -0.3283, 0.2958, 0.1062, 0.2295, 0.1301, -0.0537, -0.0994, -0.5351, -0.4022, 0.2622, -0.0207, 0.0234, 0.2541, -0.3130, -0.0012, 0.1462, -0.1160, -0.0621, -0.0384, 0.4747, 0.1705, 0.0362, 0.1071, 0.1410, -0.1402, 0.2640, -0.0449, 0.0673, 0.1382, -0.1105, 0.0133, -0.3144, -0.0381, 0.1724, 0.2965, 0.1614, -0.0258, -0.0127, -0.0698, -0.3868, -0.0106, 0.0840, -0.0817, 0.1740, -0.1592, 0.0608, 0.0248, -0.2931, 0.2742, 0.3426, 0.3124, 0.4062, 0.2276, 0.4962, 0.1583, -0.0411, -0.2060, 0.1930, -0.4057, -0.0002, -0.0188, -0.3477, -0.0389, 0.3198, -0.0896, -0.0342, 0.0234, 0.4665, -0.1991, 0.1912, 0.0674, 0.0008, -0.4858, 0.0646, -0.4154, 0.1227, 0.4058, -0.1698, -0.0004, -0.0042, 0.3491, 0.0565, -0.0745, 0.0622, 0.1679, 0.2743, 0.0059, 0.1538, -0.0827, 0.3045, 0.0160, -0.0043, 0.2652, 0.2179, -0.4717, -0.2423, -0.2306, 0.0629, 0.0243, 0.2376, -0.1502, -0.2503, -0.4171, 0.1666, 0.1284, -0.1067, 0.2335, -0.2846, 0.0470, 0.0830, -0.0151, -0.2071, 0.0857, 0.3452, 0.0784, 0.0324, 0.1950, 0.4010, -0.2880, -0.0282, -0.4171, 0.1342, 0.1378, 0.2026, -0.3270, -0.3040, -0.3505, 0.0443, 0.1830, 0.3262, 0.3488, -0.0157, 0.0729, 0.1433, -0.1887, -0.3615, -0.3072, 0.1468, 0.0367, 0.0078, 0.0563, -0.4747, 0.1600, -0.0908, 0.3924, 0.0620, 0.0665, 0.1609, 0.2364, 0.0388, 0.0186, 0.0714, -0.1759, -0.1689, -0.0946, 0.1282, 0.1622, -0.2372, 0.0592, -0.2803, 0.0366, -0.2273, -0.0782, 0.3076, -0.1897, 0.0576, -0.0106, 0.0121, -0.2800, -0.0608, 0.1033, -0.2652, -0.4338, 0.2234, -0.2177, -0.6493, 0.1149, 0.4650, 0.2889, 0.1412, 0.2311, -0.4830, 0.1029, 0.1362, -0.1061, 0.0652, 0.0363, -0.0591, 0.0651, 0.1939, 0.0198, 0.2890, -0.0047, 0.4481, -0.1307, -0.2579, 0.0334, 0.3493, 0.0968, -0.1383, 0.2836, -0.2893, 0.2152, -0.1526, -0.0894, 0.0803, 0.1678, -0.0129, 0.1654, 0.0655, -0.1338, -0.0058, 0.1925, -0.0863, 0.1736, 0.0232, 0.2892, -0.4373, 0.0907, 0.3044, 0.0003, -0.0687, -0.1025, -0.0949, -0.1276, 0.0103, -0.1975, 0.2818, 0.1534, 0.0338, 0.3028, -0.0783, -0.0191, 0.1660, 0.1330, -0.2427, -0.0808, 0.1485, 0.0183, -0.1538, -0.1130, -0.3602, -0.1535, 0.4079, 0.0172, 0.0749, -0.1309, -0.1048, -0.0462, 0.4944, -0.1297, -0.0187, -0.0414, 0.0353, -0.4367, 0.1899, -0.0460, 0.2673, -0.1662, -0.0699, -0.2547, 0.5187, -0.2298, 0.0124, -0.0911, 0.2972, -0.0097, 0.3820, 0.3512, -0.1439, 0.2452, -0.1838, 0.0230, 0.1226, -0.1957, 0.3673, 0.1056, -0.1416, 0.0553, 0.1550, -0.2954, -0.0448, 0.1447, 0.2136, -0.1112, 0.3654, 0.0238, 0.0941, -0.1615, 0.0367, 0.0763, 0.2426, 0.1640, 0.2255, -0.0500, -0.1840, -0.3116, 0.1052, 0.1144, 0.1592, -0.0114, -0.2962, 0.0947, -0.0766, 0.3862, 0.1863, -0.0671, 0.4946, 0.0985, 0.1537, -0.0222, -0.1200, 0.1182, -0.2456, -0.1503, 0.1945, -0.2285, 0.1092, 0.1402, -0.2582, -0.1130, -0.0914, -0.0953, 0.1896, 0.2067, -0.1090, -0.0079, 0.0421, -0.1885, -0.1724, -0.0069, -0.1241, -0.2768, -0.1325, -0.5047, 0.2492, 0.3152, -0.0245, -0.0276, -0.1847, -0.0356, 0.1467, -0.0342, 0.1229, 0.1151, 0.3084, -0.0762, -0.0776, 0.3152, 0.0436, 0.1322, -0.0434, -0.0879, -0.1667, 0.0949, 0.1037, 0.2390, -0.3030, 0.1685, 0.1944, 0.1360, -0.5126, -0.0453, 0.0872, 0.0786, 0.1975, 0.1747, -0.0069, 0.1650, 0.3632, 0.3980, -0.1723, -0.2489, 0.0833, -0.3436, -0.0657, 0.0808, -0.4559, 0.0962, 0.3049, -0.0357, -0.0204, 0.2067, 0.0225, -0.1918, 0.0636, 0.0525, 0.1409, 0.5296, -0.1831, -0.1484, 0.1556, 0.0507, 0.1085, 0.0798, -0.2434, -0.0782, 0.1028, 0.0094, -0.2035, -0.3267, -0.1315, 0.1322, -0.1645, -0.0670, -0.0962, 0.4953, -0.2999, 0.4561, 0.3467, -0.1730, 0.1684, 0.1032, -0.0417, 0.1557, 0.0566, 0.2004, 0.0325, -0.0371, 0.1951, -0.0406, 0.1776, 0.1790, -0.3632, 0.5337, 0.0317, 0.1540, 0.1408, 0.0778, 0.3151, 0.4533, -0.1226, 0.0117, -0.1309, 0.3583, -0.1370, 0.0781, 0.2039, 0.0168, -0.1538, -0.1251, 0.2091, -0.1080, 0.0271, 0.0307, -0.2541, -0.5371, 0.0539, -0.1778, 0.1242, 0.0748, 0.3129, -0.2422, -0.0114, 0.3196, -0.1806, -0.4501, 0.0724, -0.2737, -0.0924, 0.3969, -0.1728, 0.0304, 0.0886, 0.0079, -0.0458, -0.3049, 0.1952, 0.2017, 0.0520, -0.3752, 0.1547, -0.1969, 0.2440, 0.0593, 0.3700, 0.1294, -0.0129, -0.2570, -0.1381, -0.2347, 0.1865, -0.0205, 0.1256, -0.1868, 0.0492, -0.2494, 0.2035, 0.0055, -0.0760, -0.1844, -0.2165, -0.1414, -0.2033, 0.2689, -0.1458, 0.0365, 0.2601, -0.2801, 0.4301, 0.0736, -0.2267, -0.2481, -0.0557, 0.2728, -0.3892, 0.0631, 0.1152, 0.2459, 0.0064, -0.0024, 0.1237, -0.1045, 0.1477, -0.0285, -0.1375, 0.0304, -0.2648, 0.2265, -0.0684, 0.1660, 0.0531, -0.1040, -0.2623, 0.0991, 0.2708, 0.1375, -0.3434, -0.4784, 0.0360, -0.0044, 0.0877, -0.0714, -0.0123, 0.1673, -0.4109, 0.1662, 0.0137, -0.3670, 0.2910, -0.0381, 0.0899, -0.0085, -0.0680, 0.0095, 0.1049, 0.0647, -0.0055, 0.0035, 0.0252, 0.0678, -0.3718, 0.0452, 0.4189, -0.0248, -0.0606, 0.0709, -0.1831, 0.3294, 0.0141, -0.0981, -0.0446, 0.1761, 0.1010, 0.1683, 0.1544, -0.3648, -0.3305, 0.5914, 0.0263, -0.0906, 0.2878, 0.1116, 0.5328, -0.3187, -0.0490, -0.2424, 0.1857, -0.1035, 0.2795, -0.0598, 0.1765, -0.1987, 0.0385, 0.1643, -0.0340, 0.3115, 0.4288, -0.3073, -0.0435, -0.3132, 0.0910, -0.0793, -0.5024, -0.3419, -0.3113, 0.3396, 0.1703, 0.1079, 0.1172, 0.3233, 0.1814, -0.1619, -0.0116, 0.0820, 0.0536, 0.0429, -0.0805, 0.0614, 0.0991, 0.0094, 0.0782, 0.1010, -0.0954, 0.2867, -0.1452, 0.2629, -0.1563, -0.4070, 0.1718, -0.2066, -0.2534, -0.0573, -0.0750, 0.2752, 0.3848, 0.0884, 0.0580, -0.1100, -0.0780, -0.2214, 0.0528, 0.1578, -0.6088, 0.0382, 0.1937, 0.3291, 0.0797, 0.1939, -0.0509, -0.0826, -0.1409, -0.0157, -0.0226, 0.0577, -0.1794, 0.1101, 0.2557, -0.0277, -0.1556, -0.0431, -0.4604, 0.0643, 0.3033, -0.1385, 0.0084, -0.3045, -0.1371, -0.0670, -0.1611, -0.1265, -0.1344, 0.1254, -0.1432, 0.6330, 0.5942, -0.2352, 0.0238, -0.0781, -0.0458, 0.0280, 0.2144, -0.0648, 0.0993, -0.0366, 0.2866, -0.0947, -0.0373, 0.0813, -0.0309, 0.4604, 0.0123, -0.0395, 0.3626, 0.1519, -0.0429, 0.3361, 0.2689, -0.1226, -0.0556, 0.0788, -0.1683, 0.0532, -0.0150, -0.0344, 0.1288, -0.2995, 0.2369, 0.0913, -0.2702, -0.2868, 0.1890, 0.0748, 0.0524, 0.0612, 0.2503, 0.0316, -0.1991, 0.2148, 0.1354, -0.2142, -0.1707, -0.1265, 0.0005, 0.1731, -0.0675, 0.1327, -0.3417, 0.2685, -0.0133, -0.1552, -0.0099, -0.0027, 0.1213, -0.1915, -0.2301, 0.0579, 0.1211, -0.3275, -0.4339, -0.2075, 0.3409, -0.1108, -0.0986, -0.0404, 0.0353, -0.0092, -0.0300, -0.0009, 0.0001, 0.2361, 0.2484, 0.2564, -0.1670, -0.3395, 0.1684, 0.1228, -0.1882, -0.1028, 0.0760, -0.2449, -0.3451, -0.2307, -0.0597, 0.0125, 0.1219, 0.0712, -0.3976, -0.0739, -0.0812, 0.3408, -0.2254, 0.0428, 0.2037, 0.1914, 0.4812, 0.1907, 0.1328, -0.1246, -0.1804, -0.0077, -0.1190, 0.0892, -0.1648, -0.0394, 0.0106, 0.3420, -0.1846, -0.2190, -0.1926, 0.2009, 0.1925, 0.1176, -0.2024, -0.2019, -0.1365, 0.1051, -0.1051, 0.2733, -0.1300, 0.0094, -0.0689, 0.2244, 0.3522, -0.2488, 0.1112, -0.1149, -0.0397, 0.0495, 0.1717, -0.2247, 0.0264, -0.2340, 0.0451, 0.0593, -0.0203, 0.0958, -0.3045, 0.4268, -0.0136, 0.1045, 0.2164, 0.1695, -0.0376, 0.1749, 0.1018, -0.0435, 0.2290, 0.0635, 0.0049, -0.1621, 0.3323, -0.5848, -0.0102, 0.3681, -0.2807, 0.0830, 0.1452, -0.4310, 0.0483, -0.1456, -0.0671, 0.0298, 0.2151, 0.0795, 0.0406, 0.1000, -0.1841, -0.2652, 0.1745, -0.0103, 0.1579, 0.0951, 0.1005, -0.3366, -0.1488, -0.2605, 0.1242, -0.2658, -0.2146, 0.1357, 0.0941, -0.3215, 0.0007, 0.0982, -0.3432, 0.0110, 0.0364, -0.4058, 0.1500, 0.2334, -0.3630, 0.0398, -0.3907, 0.1687, -0.1204, 0.2806, 0.0929, 0.0853, -0.0128, 0.0094, -0.5111, -0.0807, -0.0315, 0.1433, 0.1716, 0.0207, 0.3077, 0.2138, -0.3379, 0.1743, 0.0016, 0.3352, 0.0913, 0.1354, 0.5090, 0.0655, 0.1274, 0.0046, -0.1182, 0.1016, 0.0207, -0.1245, -0.3452, -0.0339, -0.1860, -0.0934, -0.2079, 0.3059, 0.4896, -0.0265, -0.0412, -0.0370, -0.0800, -0.1749, 0.3082, 0.2610, 0.1493, 0.1182, -0.0591, -0.2985, 0.0741, -0.2332, -0.0785, 0.1585, -0.0035, -0.0935, 0.1320, -0.2092, 0.1642, -0.0587, 0.3740, 0.1349, -0.1255, -0.3255, -0.3079, 0.0723, -0.0350, 0.2909, 0.0787, 0.2478, -0.2115, -0.4513, -0.1925, -0.4083, 0.0874, 0.1127, -0.3050, -0.2445, 0.2217, 0.0043, 0.1486, -0.1708, -0.0853, 0.1761, 0.5326, 0.3214, 0.1081, 0.1354, -0.5511, -0.0720, -0.1124, 0.2916, -0.3366, -0.0690, 0.0484, 0.2813, 0.1162, 0.0371, 0.0509, -0.2106, -0.1522, 0.1905, -0.1852, -0.0826, -0.0354, 0.0463, -0.0282, 0.1011, -0.3226, -0.2209, -0.1492, 0.7584, 0.1032, 0.1332, -0.1105, -0.2116, -0.0632, 0.0602, -0.3453, -0.0323, -0.0278, -0.0446, -0.0438, 0.3676, 0.1039, -0.2687, 0.3038, -0.2782, -0.1689, -0.0616, 0.1814, -0.0301, 0.1016, -0.2537, 0.1699, 0.1323, 0.1822, 0.1415, -0.3042, 0.3329, 0.2357, 0.2055, 0.0558, 0.2077, -0.1046, 0.1377, -0.0949, -0.0862, 0.4160, -0.4887, 0.0384, -0.0273, -0.2100, 0.0920, -0.0228, 0.2496, 0.0504, 0.2572, -0.3058, -0.0398, 0.0296, 0.1202, 0.0523, -0.0321, 0.1125, -0.1322, -0.3593, 0.3295, 0.0779, 0.2615, -0.1628, -0.1192, 0.1124, -0.1497, -0.3814, 0.0854, -0.2361, 0.2027, 0.0290, -0.2045, -0.1227, -0.0955, 0.0617, -0.1650, 0.0641, 0.1304, -0.2606, 0.0764, -0.2352, -0.2292, 0.2635, 0.0292, 0.1500, 0.2003, -0.0110, -0.0409, 0.1350, 0.1838, 0.1938, 0.1575, 0.2506, 0.2205, 0.0475, -0.1972, 0.1890, 0.1668, -0.3830, -0.1735, 0.0309, 0.0396, -0.2179, -0.2790, -0.0903, -0.1663, 0.2923, -0.0806, -0.3964, 0.0137, 0.1075, -0.5045, -0.0271, 0.2768, -0.1446, -0.0027, -0.0074, -0.0410, -0.0494, 0.1412, 0.2595, -0.0703, -0.1897, 0.0440, -0.0652, 0.2629, -0.1082, 0.0085, -0.0978, -0.1305, -0.3319, 0.1137, 0.1880, 0.3922, 0.0087, -0.6153, 0.0445, 0.0509, 0.0406, -0.2628, 0.0365, 0.0398, -0.2582, 0.0306, -0.1909, -0.1679, 0.0752, -0.4078, -0.1219, 0.1337, 0.1681, 0.0873, -0.0017, 0.0889, -0.1145, -0.1805, 0.1346, 0.2116, -0.1258, -0.0336, 0.0387, -0.0540, 0.0564, 0.0221, -0.0784, -0.5244, -0.1365, -0.5103, -0.2729, -0.0716, 0.0330, -0.0047, -0.0466, 0.1807, 0.3198, -0.3412, 0.2220, 0.3806, -0.2699, -0.0334, -0.0107, 0.2857, 0.0844, 0.2438, -0.0159, 0.0191, -0.0129, 0.0844, 0.2186, -0.0136, 0.0192, 0.0625, -0.0445, 0.1331, 0.3390, -0.2791, -0.0287, -0.3506, -0.1336, 0.0633, 0.1961, 0.2868, 0.1144, -0.0922, 0.1497, 0.1184, -0.0307, -0.2380, -0.2228, 0.2585, -0.1700, 0.0143, 0.0251, 0.0916, 0.0400, -0.0117, -0.2377, -0.1318, -0.4051, -0.0037, -0.1287, 0.2064, 0.2787, -0.2681, 0.0011, 0.0805, -0.1215, -0.0038, 0.3734, -0.2992, -0.0439, -0.0036, -0.1826, 0.0418, 0.1381, -0.2661, -0.0945, 0.2384, 0.0842, -0.0356, 0.1667, -0.0484, 0.0472, 0.0170, 0.1598, 0.1223, 0.3657, 0.0231, -0.1063, -0.5275, 0.1597, -0.2550, 0.2104, -0.1856, -0.0194, 0.0606, -0.1685, 0.1293, 0.4762, -0.1855, -0.0256, -0.1319, 0.0385, 0.4615, 0.1372, 0.1769, 0.0082, 0.1596, -0.1714, 0.2732, 0.2201, 0.0261, 0.0929, 0.0275, -0.4814, 0.1820, 0.0095, -0.1050, -0.0174, -0.1127, -0.4699, -0.2382, 0.1566, 0.0794, -0.0383, 0.0808, -0.0168, -0.1883, -0.0775, 0.1115, -0.0068, -0.1229, 0.1397, -0.2008, 0.0009, 0.1649, -0.3261, 0.3184, -0.3000, -0.2103, 0.0648, 0.1709, 0.0330, 0.5646, -0.1913, 0.0959, 0.1918, 0.2051, 0.2295, 0.2123, 0.1791, 0.3634, -0.1379, -0.1252, 0.1222, -0.0607, -0.1826, -0.1757, -0.0006, 0.0798, 0.2254, 0.4262, -0.0623, -0.4160, -0.0066, -0.4204, 0.1310, 0.2164, 0.0367, -0.0613, -0.3673, -0.0354, 0.0933, -0.1469, 0.0854, 0.2638, -0.0105, 0.1299, -0.5436, 0.0601, -0.1542, 0.0646, 0.1123, 0.3484, -0.0446, 0.1221, 0.1642, -0.0053, -0.1722, -0.1840, 0.4530, 0.1058, -0.0997, -0.2433, -0.0155, -0.0752, 0.0559, 0.3330, 0.2894, -0.0035, -0.0639, 0.2248, -0.6296, 0.2078, 0.0158, 0.2799, 0.1856, -0.1069, 0.2947, -0.0161, -0.2101, 0.0494, 0.0269, 0.3912, 0.1536, 0.0611, -0.1603, -0.1564, 0.0187, -0.0420, 0.4364, 0.0510, -0.0983, 0.1457, -0.0314, -0.1859, 0.4611, 0.3030, -0.0648, 0.3117, 0.0650, 0.3675, 0.1188, 0.1692, 0.1400, 0.1236, -0.1849, 0.0577, -0.1078, -0.1872, 0.1379, 0.1868, 0.2166, 0.0388, 0.3624, -0.1003, -0.0250, -0.3188, -0.0736, -0.2991, 0.0122, 0.0941, -0.1401, 0.0456, 0.3497, 0.2577, -0.1709, -0.1716, 0.0594, 0.4295, 0.0478, -0.1035, -0.1864, 0.1635, -0.0462, -0.0874, 0.0462, -0.2601, 0.2098, -0.0685, -0.0530, 0.2471, -0.1817, 0.1042, 0.1121, -0.1092, -0.1012, -0.5701, 0.1452, -0.0710, 0.3250, 0.0997, 0.2721, -0.0143, -0.0780, 0.1997, -0.2546, 0.0607, 0.3582, 0.0074, -0.4112, -0.3036, -0.0057, -0.0860, 0.0883, 0.1681, -0.0875, -0.0692, 0.0136, 0.2287, 0.0009, 0.1108, 0.2512, 0.0704, -0.1021, -0.1613, 0.0958, -0.2199, -0.2550, -0.0856, 0.0494, 0.3061, 0.1459, 0.0551, 0.0200, -0.0828, -0.0158, 0.0253, -0.0523, 0.0387, 0.1575, -0.1974, -0.0889, -0.5627, 0.1325, 0.1907, 0.0071, -0.1858, -0.0905, 0.2263, -0.0478, 0.3563, -0.2984, 0.0957, 0.0067, -0.3518, 0.1448, 0.1972, -0.0047, -0.0517, -0.2019, -0.1719, -0.1554, 0.3225, -0.3707, 0.0047, -0.3094, -0.6869, -0.0015, -0.0135, 0.0870, 0.1370, -0.0136, 0.1120, 0.0615, -0.0525, 0.1433, -0.2584, -0.0108, -0.3209, 0.1430, 0.0476, -0.0992, -0.0039, 0.0319, -0.5511, 0.0685, -0.0685, -0.3908, 0.0529, -0.5353, -0.2318, 0.0584, 0.1879, 0.3302, 0.1456, -0.1996, -0.0168, -0.3133, -0.0656, 0.0413, -0.0446, 0.1026, -0.3952, 0.0361, -0.5295, 0.1605, -0.1168, -0.4907, -0.0691, 0.0762, -0.1786, -0.2889, -0.3371, -0.3649, 0.1625, 0.0094, -0.3718, -0.0885, 0.1985, -0.3279, 0.0554, 0.3905, -0.1586, -0.1218, -0.2195, -0.0311, 0.1749, 0.0113, -0.1811, 0.3020, 0.1408, -0.1738, -0.0789, 0.1718, 0.1230, 0.3790, 0.4097, 0.0468, -0.0707, -0.0518, -0.1136, -0.0691, -0.3935, -0.1706, 0.0376, 0.1911, 0.1073, -0.1801, 0.1246, 0.0158, 0.0958, 0.2358, -0.2076, -0.0864, 0.1773, -0.0762, 0.0347, -0.2934, 0.3657, -0.0072, 0.2531, -0.0596, -0.1708, 0.0892, 0.0590, -0.3981, -0.0276, 0.1577, -0.0870, 0.1457, -0.1671, 0.0934, 0.3197, 0.1933, 0.2101, -0.2970, 0.4413, 0.1481, 0.1988, -0.4886, -0.0823, -0.0568, -0.1086, 0.2079, 0.0561, -0.0155, -0.0434, 0.3327, -0.0354, 0.0334, 0.1099, -0.1502, -0.0022, -0.2216, 0.0042, 0.1436, -0.0072, 0.0343, 0.1509, -0.1156, -0.2138, 0.1023, 0.2424, 0.2330, 0.1298, -0.2899, -0.6779, 0.0202, 0.2292, 0.2124, -0.2759, -0.2428, 0.0714, -0.4850, -0.0259, -0.2541, -0.1247, 0.1907, -0.3154, 0.1222, 0.1011, -0.0853, 0.0597, 0.0639, -0.1821, -0.4033, 0.1547, 0.2630, 0.3623, -0.4955, 0.0084, 0.1485, 0.1441, 0.0569, -0.0216, 0.1793, -0.3682, -0.1096, -0.2134, -0.3093, -0.1739, 0.3053, -0.0160, -0.4100, -0.0124, 0.2064, -0.2620, -0.2033, 0.1400, 0.1220, 0.0410, -0.0768, -0.1683, 0.1468, -0.3049, -0.1871, -0.0291, -0.0668, -0.0138, 0.0499, -0.1121, -0.2700, -0.2270, 0.0550, 0.1230, -0.1267, -0.0817, -0.0398, -0.2707, -0.1367, -0.4002, 0.1267, 0.1119, -0.0554, 0.1372, -0.0657, 0.1706, -0.0356, 0.3024, -0.0316, -0.1549, -0.0785, -0.3210, -0.4938, 0.1495, 0.2180, 0.0578, 0.2372, -0.0445, -0.0772, -0.3203, 0.1787, 0.0960, -0.1786, 0.1563, 0.1115, -0.0310, -0.0527, -0.0371, -0.0452, -0.1854, -0.0738, -0.2820, -0.3083, -0.0728, -0.1761, 0.2583, -0.0066, 0.2113, -0.0504, -0.3658, 0.0894, -0.1246, 0.0490, 0.1830, -0.5945, -0.2275, -0.0393, -0.0916, -0.0390, 0.1194, 0.1818, -0.6910, 0.2293, -0.0306, -0.1106, -0.3949, 0.3089, 0.0606, -0.3601, -0.0676, 0.1569, -0.0095, 0.1226, -0.0942, 0.0313, -0.0641, 0.1043, 0.0270, -0.0732, -0.0109, -0.0405, 0.1680, -0.1614, 0.3276, -0.4024, -0.0103, -0.0436, -0.0293, 0.1819, 0.1150, 0.2338, 0.0721, 0.2583, -0.3662, 0.1401, -0.4879, 0.1419, -0.3789, 0.0747, -0.1205, 0.0192, -0.2954, -0.6101, 0.0379, 0.2525, -0.3817, -0.0842, 0.0066, -0.2808, 0.1421, -0.0233, 0.1000, 0.0962, 0.2010, -0.2867, 0.0037, 0.1701, 0.1884, -0.0035, -0.1696, -0.1188, -0.1355, 0.1445, -0.1152, 0.1069, -0.2352, -0.3790, -0.1489, -0.0148, -0.0151, 0.3184, 0.1057, -0.4968, -0.3684, 0.2098, -0.3688, -0.0116, 0.0789, 0.0752, -0.0553, -0.3089, 0.2533, 0.2087, -0.2986, 0.2550, 0.6890, -0.1071, 0.0727, -0.4537, 0.2533, -0.4619, 0.0808, 0.1886, 0.0819, 0.2360, 0.0798, 0.3582, 0.0918, -0.0387, -0.1273, -0.0781, 0.1703, 0.1347, -0.5622, 0.0615, -0.4060, -0.2059, 0.3003, 0.1492, -0.3221, -0.4089, -0.0871, -0.3746, 0.0685, 0.1479, 0.0253, 0.0400, -0.3620, -0.2092, -0.0633, 0.3710, -0.2177, -0.3684, -0.0646, -0.0217, 0.1238, 0.2908, 0.1048, 0.2511, 0.1841, -0.1651, -0.3598, -0.0075, -0.1769, 0.1729, 0.1296, 0.1472, 0.3008, -0.2700, 0.2469, -0.4413, -0.0006, 0.1602, 0.2040, 0.1701, -0.2482, 0.0531, 0.1731, -0.2073, -0.1690, 0.0633, -0.1035, -0.2042, 0.1131, 0.1924, -0.1929, 0.0915, 0.1244, -0.2595, 0.1003, -0.3505, -0.1577, -0.0008, -0.3131, 0.1808, 0.1292, -0.1144, 0.0542, -0.2597, 0.0363, -0.0128, 0.2976, -0.0672, 0.2312, -0.0906, 0.3981, 0.2311, 0.1346, 0.1146, -0.0794, -0.0924, 0.2775, 0.1813, 0.3092, 0.0097, -0.4012, 0.9357, -0.2736, -0.1792, 0.2174, 0.0776, 0.2773, -0.0081, 0.1803, 0.1351, -0.0811, -0.1988, 0.3291, 0.0373, 0.3358, 0.1227, -0.1627, 0.0674, 0.0621, 0.2534, -0.3244, 0.0625, 0.1719, 0.2169, 0.1428, 0.0565, -0.2172, 0.0021, -0.0750, 0.1786, -0.0382, 0.1594, -0.3038, -0.0059, 0.5281, -0.3747, 0.0691, 0.0824, 0.1709, -0.1857, 0.0985, -0.2562, 0.5632, -0.1898, 0.0505, -0.1603, -0.0603, 0.2275, 0.0171, 0.0561, -0.0372, -0.1295, 0.0535, 0.0544, -0.0054, 0.5206, 0.0419, -0.1726, 0.0757, 0.0591, -0.5303, 0.0173, -0.1089, -0.0237, 0.0110, -0.3121, -0.0868, -0.3360, 0.2272, -0.0049, 0.2824, -0.3546, -0.0824, 0.0381, 0.1003, 0.0750, -0.0319, 0.0319, -0.2377, -0.2492, 0.3578, 0.0862, 0.1339, -0.2134, -0.3629, 0.1528, 0.2352, 0.1291, -0.4390, -0.0362, 0.2283, -0.2237, -0.0933, -0.0699, -0.0293, -0.2537, -0.0463, -0.0262, 0.0074, 0.4243, 0.1450, -0.0896, 0.1583, -0.4292, -0.1741, 0.1269, -0.1619, -0.0862, -0.1329, 0.1230, 0.2476, 0.0450, 0.0575, 0.1211, -0.2013, -0.0624, -0.0805, -0.0988, -0.1052, 0.1213, 0.1021};
#endif

#endif
