//Numpy array shape [64, 10]
//Min -1.378137230873
//Max 0.984433948994
//Number of zeros 0

#ifndef W6_H_
#define W6_H_

#ifndef __SYNTHESIS__
static model_default_t w6[640];
#else
static model_default_t w6[640] = {0.2266, -0.6787, 0.1441, -0.3660, -0.8023, -0.9007, 0.2476, -0.0956, -0.6670, 0.5242, -0.0661, -0.4441, 0.3364, 0.2957, 0.1273, 0.1853, 0.4771, -0.0010, -0.5321, 0.3754, -0.7295, 0.2243, 0.0193, 0.5162, -0.5152, -0.7226, -0.6169, 0.1758, -0.2783, -0.8036, -0.2027, 0.0912, 0.2634, 0.0588, -0.6276, -0.0853, 0.1728, -0.7116, 0.3316, -0.7450, -0.0984, 0.4011, -0.9856, 0.1131, -0.1543, -0.4674, 0.1618, -0.3105, 0.2766, 0.2884, -0.0771, -0.3501, 0.3114, -0.7799, 0.3000, -0.5268, -0.5609, -0.7663, 0.0609, 0.2588, -0.1287, 0.3038, -0.7748, 0.1693, -0.6820, 0.1873, 0.4811, -0.6556, -0.3941, -0.7201, 0.1688, -0.3544, 0.1186, 0.4225, -0.6648, -0.2520, -0.3847, -0.7320, -0.7626, 0.1280, 0.0865, -0.5100, -0.8253, -0.9102, 0.1965, -0.2688, -0.3494, -0.4276, -0.3412, 0.1940, 0.2702, -0.6392, -0.1309, -0.4543, 0.2118, 0.1841, -0.8046, -0.4627, -0.2631, -0.5966, -0.8126, 0.1980, 0.6440, 0.2642, 0.6272, -0.1879, 0.2095, -0.5631, -0.1919, 0.5623, -0.7468, 0.2108, -0.0256, 0.1234, 0.4477, 0.1804, -0.6121, 0.1897, -0.5817, 0.3125, 0.2952, 0.5024, 0.3746, -0.3456, -0.4130, 0.2473, -0.7579, 0.2955, -0.6291, 0.3249, 0.0807, 0.3019, -0.5256, 0.1631, -0.2080, -0.6927, 0.2799, -0.0664, 0.4608, -0.5568, 0.3160, 0.1810, -0.2393, 0.3179, 0.3747, 0.3472, -0.1383, -0.6396, -0.6089, 0.0072, 0.3323, -0.2577, -0.0359, -0.1889, 0.3119, 0.1137, -0.3273, -0.8825, -0.5747, 0.2302, -0.4230, -0.4323, 0.2045, 0.1089, -0.1876, 0.2319, -0.4324, 0.2889, -0.7782, 0.3482, 0.2205, 0.1293, -0.4701, -0.4638, -0.1056, 0.0538, 0.4801, -0.7682, -0.6122, -0.4819, 0.3529, 0.1794, -0.0741, 0.2246, -0.1049, -0.0432, -0.5462, 0.3681, -0.1577, 0.1208, -0.6375, 0.2077, -0.0016, 0.2907, -0.1444, 0.1382, 0.2389, -0.3044, -0.4908, 0.2824, 0.2600, -0.6034, -0.1162, -0.7481, -0.2115, 0.1523, 0.3429, 0.2909, -0.4502, -0.5558, 0.2053, -0.0399, 0.2415, 0.2031, 0.1783, -0.3842, 0.5704, -0.3134, 0.3198, -0.7536, 0.5904, 0.3368, 0.3892, 0.1719, -0.1249, -0.1497, -0.3296, -0.0454, 0.3233, -0.0382, -0.1201, 0.0993, -0.5751, -0.1036, 0.2007, -0.1133, -0.2636, -0.5626, -0.1329, 0.2227, -0.1251, 0.0558, -0.0671, -0.1128, 0.1957, 0.2166, -0.0181, -0.4974, 0.2259, -0.5696, -0.7054, 0.1567, 0.0950, -0.6092, -0.2125, 0.1740, -0.3747, 0.1716, 0.4425, 0.2790, 0.2922, 0.1777, 0.3805, -0.8052, -0.5255, -0.3819, -0.3027, -0.0672, 0.2175, -0.6261, -0.5799, -0.2775, 0.1472, 0.3696, -0.2912, -0.2239, -0.0379, 0.1539, -0.5430, -0.7994, -0.2802, 0.3159, -0.4024, 0.1234, 0.3970, -0.0531, -0.8216, -0.4857, -0.4765, -0.7513, 0.2359, 0.4412, 0.2450, 0.0032, 0.0686, 0.0408, 0.4512, -0.7370, 0.1480, -0.7126, 0.4266, -0.3585, 0.1711, -0.1175, -0.4299, -0.6734, 0.3159, 0.2508, -0.2444, -0.4737, -1.3781, 0.3202, -0.6468, -0.4673, 0.3276, -0.0020, 0.3677, -0.5660, 0.0697, 0.0265, -0.4429, 0.1743, 0.0982, 0.1034, 0.2773, 0.1361, -0.9323, 0.0867, -0.4623, -0.5198, -0.2835, 0.3186, -0.0179, 0.2505, 0.2579, -0.2292, -0.6077, -0.4376, -0.4467, 0.3511, -0.4234, 0.2253, -0.4690, 0.0373, 0.1455, -0.4484, 0.0684, -0.1272, -0.0328, 0.3549, 0.4650, -0.6877, -0.1190, 0.3429, 0.2008, -0.0729, -0.0737, -0.9551, -0.4932, 0.1141, -0.6167, -0.4091, 0.2109, 0.1602, 0.3388, 0.0560, 0.0831, -0.9516, 0.2509, 0.1546, 0.2531, -0.7413, 0.0165, -0.1230, 0.2442, -0.0414, 0.1982, 0.0336, -0.8019, -0.6622, -0.6179, 0.2763, 0.2429, 0.1683, 0.9844, -0.0203, 0.2284, -0.4393, -0.7580, 0.1647, 0.1320, -0.1020, -0.6197, 0.2867, 0.4840, 0.3101, -0.8009, -0.0111, -0.2180, -0.9517, 0.3771, 0.2277, -0.7402, 0.3703, -0.6448, -0.3410, -0.8133, -0.7438, -0.0603, -0.8003, 0.1400, 0.1367, -0.0133, -0.0294, -0.1139, -0.9880, -0.4407, 0.3573, 0.1586, 0.2620, 0.1277, -0.6265, 0.3838, -0.5348, -0.1980, 0.4040, -1.2197, 0.1291, -0.3666, 0.0975, 0.1503, -0.5327, -0.7051, 0.1228, -0.9002, 0.0860, -0.4211, 0.1218, 0.1156, 0.2912, -0.3184, 0.4499, 0.1885, -0.1833, -0.7030, 0.2523, 0.2049, 0.1920, -0.0503, 0.2264, -0.7420, -1.1410, -0.5698, -0.6956, -0.4354, 0.0585, 0.2960, -0.2779, -0.4051, 0.2348, 0.2169, 0.2478, -0.6526, 0.2964, 0.0969, 0.3535, 0.2471, -0.4546, 0.3056, 0.2374, 0.0621, 0.1875, -0.3344, 0.3761, 0.3261, -0.5777, 0.1416, -0.4167, -0.2547, 0.1945, 0.6774, -0.8510, 0.3023, -0.7135, -0.1033, 0.2445, -0.1809, 0.1517, -0.3661, -0.0737, 0.2272, -0.9201, -0.3109, 0.3949, 0.2662, 0.1320, -0.2765, -0.4055, 0.2217, 0.2957, -0.4916, 0.2073, 0.2660, -0.2173, -0.7555, -0.5209, 0.0413, -0.7997, -0.4976, 0.2763, -0.7660, -0.6758, -0.5226, -0.5350, -0.5556, -0.5768, 0.1781, -0.0520, 0.1808, 0.1468, -0.2914, 0.3991, -0.2109, 0.2551, -0.6045, 0.2030, 0.2490, -0.4393, -0.5774, 0.0722, 0.2440, -0.4898, -0.3256, -1.0232, 0.3699, -0.3934, -0.0655, 0.2525, 0.2424, 0.0952, 0.4050, 0.2913, -0.3592, 0.1860, -0.2580, 0.3316, 0.1502, 0.3853, -0.3731, 0.1977, -1.0254, 0.1628, 0.4796, 0.1482, -0.5398, 0.1576, 0.3452, -0.4292, -1.0145, 0.2545, -0.4063, 0.0430, -0.0335, -0.5078, 0.0751, -0.1132, 0.2157, -0.0427, 0.0781, 0.2332, -0.2390, 0.2386, 0.2479, 0.1451, 0.2455, -0.5968, -0.0227, -0.7712, -0.7571, 0.4188, 0.1799, 0.2131, 0.2975, 0.5263, -0.1626, -0.5347, -0.2027, -0.0151, 0.2127, -0.3852, 0.2135, -0.4473, 0.3007, -0.6524, 0.3247, -0.4579, 0.1922, 0.2058, -0.6744, 0.5818, -0.5110, 0.2763, -1.1184, -0.2126, -0.7726, 0.2187, -0.1225, 0.1133, 0.0321, -0.2876, -0.7416, -0.0339, -0.8705, 0.2243, -0.4124, -0.7024, -0.2408, -0.3559, 0.1696, -0.2316, -0.0804, 0.1473, 0.2276, 0.0394, 0.2543, -0.6437, 0.2796, 0.2931, 0.3604, -0.9607, 0.1826, -0.6701, -0.0009, -0.5627, 0.2800, -0.1385, 0.2581, -0.3908, 0.2312, -0.2793};
#endif

#endif
