//Numpy array shape [256, 10]
//Min -1.046203017235
//Max 0.266603440046
//Number of zeros 0

#ifndef W6_H_
#define W6_H_

#ifndef __SYNTHESIS__
static model_default_t w6[2560];
#else
static model_default_t w6[2560] = {-0.6118, 0.2666, -0.1512, -0.0953, -0.5067, -0.3766, -0.6538, -0.0264, -0.2550, -0.3203, -0.3547, 0.0390, 0.0847, -0.3386, -0.2282, -0.0280, -0.0272, -0.2927, -0.0542, -0.3982, -0.3121, 0.1014, -0.0118, -0.3008, 0.0114, -0.3073, -0.0014, 0.1107, -0.4349, -0.2351, -0.4469, 0.1429, 0.0201, -0.2609, -0.1888, -0.4163, 0.0679, 0.1440, -0.4780, -0.0543, 0.1192, -0.2898, 0.0434, -0.3452, -0.3643, -0.0660, -0.4083, 0.0179, 0.0232, -0.0591, -0.0616, -0.3580, -0.0606, -0.2285, -0.1502, 0.0724, 0.0901, 0.0649, -0.4052, -0.1991, 0.0356, 0.0655, -0.1234, -0.0815, -0.5024, 0.0215, 0.0720, -0.3845, -0.3463, -0.3783, -0.4154, -0.3766, -0.1683, -0.2771, 0.1045, -0.0226, 0.0577, -0.2619, 0.0463, 0.0567, -0.3461, 0.1016, -0.4397, -0.4027, 0.0660, -0.5668, -0.3968, 0.1381, -0.3565, -0.1378, 0.1212, -0.3550, -0.2788, 0.0911, 0.0993, -0.0306, -0.1277, -0.1690, -0.5788, -0.4091, -0.6328, 0.0944, -0.1042, 0.0623, -0.3264, -0.3527, -0.5299, 0.0225, -0.3627, -0.2121, 0.1690, -0.0372, -0.3505, -0.5551, 0.0764, -0.4700, 0.0616, -0.4593, -0.4241, 0.0552, -0.1340, -0.4524, -0.4548, 0.2081, -0.2616, -0.1427, -0.4336, -0.2208, -0.1362, -0.3038, -0.4118, 0.0190, -0.1830, 0.0781, -0.1138, -0.2054, -0.4921, -0.3221, -0.4785, 0.1791, -0.5301, -0.3930, -0.4650, 0.1208, -0.1222, 0.1190, -0.3189, -0.4347, -0.0405, 0.0121, -0.1717, -0.3236, 0.0618, 0.0706, 0.1062, 0.0510, -0.0925, -0.3007, -0.3373, -0.3915, 0.0120, -0.3467, -0.2910, -0.1388, 0.0253, -0.4972, -0.1670, 0.0305, 0.0528, 0.0709, -0.2151, -0.0950, -0.0015, 0.0718, -0.5314, 0.0514, -0.3715, -0.2862, -0.0449, -0.0222, 0.1146, -0.4026, -0.0093, -0.1099, -0.6367, -0.4541, -0.3967, 0.0418, -0.0297, -0.1083, 0.0634, -0.3398, -0.0112, 0.1416, -0.2099, -0.0303, 0.1146, 0.0351, -0.3390, -0.3112, -0.3467, -0.1229, 0.1406, -0.1135, -0.2147, -0.4118, 0.1178, 0.0949, -0.3115, -0.5315, -0.4279, -0.1106, -0.0374, -0.3683, -0.3708, 0.1016, 0.0778, -0.0580, -0.1265, 0.0433, -0.4263, -0.0105, 0.0036, -0.3994, 0.0192, -0.3102, -0.2926, -0.3010, -0.3970, -0.2912, -0.6235, 0.0796, 0.0730, 0.1136, -0.1737, -0.0551, -0.2712, 0.1023, -0.0389, -0.4014, -0.0118, -0.3296, -0.1744, 0.0148, -0.5277, 0.0945, -0.3302, 0.0341, -0.0466, -0.1081, -0.0609, -0.4862, -0.4479, -0.2633, -0.1095, 0.0096, -0.1183, -0.2326, -0.0506, -0.1022, -0.2205, 0.0773, -0.4606, -0.3001, -0.4982, 0.0994, -0.0453, -0.2787, 0.0238, -0.4016, -0.0915, -0.0009, -0.0645, -0.0992, 0.0645, -0.3725, -0.7355, -0.1200, 0.0416, 0.0397, 0.0362, 0.0990, -0.5387, -0.2882, -0.1732, 0.0045, 0.0185, -0.3816, -0.2350, -0.3085, -0.0067, -0.4555, -0.0401, -0.4304, 0.1100, -0.5713, -0.2177, 0.1204, -0.3151, 0.0222, 0.0211, -0.5564, 0.0509, -0.0968, -0.1672, -0.2241, -0.0151, -0.3873, -0.3840, -0.1150, -0.2098, 0.0882, -0.5607, -0.1931, 0.1106, -0.3376, -0.3845, 0.0523, 0.0375, 0.0291, 0.0581, 0.0654, 0.0195, -0.1588, 0.0156, -0.3480, -0.0248, 0.0848, -0.0292, -0.0814, -0.0918, -0.3899, 0.0340, -0.1256, -0.0552, -0.4536, 0.0459, -0.4172, -0.1342, -0.1111, -0.3318, -0.3679, -0.5059, -0.0020, -0.1806, 0.0617, 0.0338, -0.4979, 0.0742, -0.0173, -0.1975, -0.3722, -0.0541, 0.2392, 0.0364, -0.1291, -0.0250, -0.5307, -0.2581, -0.5835, -0.1465, 0.1646, -0.4728, -0.3481, -0.4623, 0.0090, -0.0605, 0.0741, -0.1442, -0.3430, -0.4057, -0.0138, 0.0223, 0.0417, -0.3866, 0.0179, -0.3139, 0.0192, 0.0164, 0.0250, -0.3484, -0.3706, 0.1919, -0.1531, -0.0535, -0.4728, -0.6327, -0.0591, -0.1161, 0.0202, 0.0731, 0.0395, 0.0137, 0.0147, -0.5656, -0.0401, -0.1673, -0.1925, -0.1298, -0.4993, 0.0411, -0.0667, -0.0315, -0.0304, -0.0889, -0.3355, -0.2480, -0.1125, -0.0047, -0.4340, -0.3907, 0.0722, 0.0196, -0.4171, -0.2376, 0.0295, -0.2500, 0.0310, 0.0841, -0.3089, -0.4119, -0.0127, -0.2910, 0.1353, -0.0781, -0.3625, -0.1168, 0.0297, 0.1775, -0.3298, -0.7449, -0.5999, -0.2905, -0.1085, 0.1269, 0.1435, -0.1054, -0.4358, -0.4665, 0.0477, 0.0897, 0.1031, 0.0614, 0.1613, -0.1291, -0.1638, -0.1283, 0.1494, 0.0343, -0.5195, -0.3743, 0.0397, -0.1074, -0.5875, 0.0846, -0.4448, -0.0157, -0.0214, -0.2976, -0.0138, -0.6539, -0.1841, -0.3314, 0.0388, 0.0496, -0.3358, -0.9001, -0.0108, -0.0951, 0.0623, -0.4132, 0.1304, 0.0017, -0.1624, -0.3489, -0.3284, -0.2624, -0.0063, -0.3896, -0.5715, 0.0717, -0.4884, -0.3779, -0.1112, -0.4392, -0.0200, 0.0973, -0.0832, -0.3108, -0.3728, -0.1404, -0.2515, -0.0328, -0.4287, -0.0427, -0.4212, -0.1474, -0.2686, -0.0750, -0.2046, 0.0422, -0.4992, -0.4590, -0.3692, -0.2494, 0.0647, 0.0351, -0.3348, -0.1327, -0.1675, -0.2479, -0.4503, -0.0757, -0.5086, 0.0387, -0.0900, -0.3771, 0.0548, -0.1580, -0.4069, -0.0389, -0.4896, -0.0939, 0.0798, -0.3286, -0.0493, -0.5875, 0.0613, -0.0176, -0.0232, 0.0893, -0.6757, -0.2996, -0.2274, -0.4408, 0.0649, -0.1491, 0.1852, -0.1186, -0.1570, 0.0450, -0.2422, -0.0556, 0.0228, -0.4390, 0.0169, -0.2511, -0.1542, -0.0036, 0.0347, -0.1934, -0.0201, -0.3681, -0.5676, 0.0444, -0.4725, -0.0732, -0.6679, -0.3970, -0.1168, 0.1342, -0.1308, -0.0724, -0.2607, -0.0273, -0.3136, 0.0334, 0.0573, -0.0554, -0.5098, 0.0072, 0.0185, 0.0131, 0.1166, -0.3464, -0.0646, -0.0900, 0.0286, -0.0942, -0.3766, -0.2472, -0.3213, -0.0590, 0.1719, -0.3242, -0.0517, -0.4397, -0.5171, 0.1024, -0.2771, 0.0623, 0.1225, -0.3991, -0.1210, -0.1965, 0.0161, -0.2710, 0.0118, -0.3028, 0.1222, 0.0071, -0.5566, 0.0728, -0.2076, -0.5533, 0.0793, -0.1342, 0.0307, -0.2174, -0.3352, -0.1737, -0.5828, -0.0667, 0.0662, -0.3317, 0.0328, 0.0947, -0.4457, -0.0390, 0.0563, 0.1660, -0.1533, -0.0928, -0.0290, 0.0689, -0.2683, 0.0363, -0.4869, -0.4837, -0.4976, -0.4443, 0.2324, -0.2665, 0.0517, -0.1095, 0.1472, 0.0002, -0.1593, -0.4224, 0.1573, 0.0704, -0.4884, 0.0257, -0.0601, -0.4762, -0.2258, -0.1548, -0.0310, 0.0401, -0.1351, -0.3305, 0.1591, 0.1202, -0.1383, -0.6077, -0.0684, -0.4085, -0.0890, -0.4006, -0.2023, -0.0898, -0.4526, -0.2445, -0.0486, -0.4300, -0.0161, -0.5262, 0.0303, 0.0856, 0.0623, 0.1999, -0.3473, -0.1550, 0.0793, -0.0951, -0.2877, -0.6069, -0.0498, -0.2177, 0.1062, 0.0176, -0.5065, 0.1041, -0.4018, -0.1074, -0.2032, -0.1680, -0.4434, -0.4833, -0.5351, -0.1260, -0.3361, -0.3872, 0.0608, -0.2375, 0.1169, 0.0660, -0.5250, 0.0780, 0.0080, -0.6088, -0.3291, -0.0898, 0.0670, -0.0369, -0.2272, -0.1205, 0.0735, 0.0502, -0.3064, 0.0163, -0.2495, 0.1031, -0.3755, 0.1088, -0.3219, -0.2535, 0.1252, -0.0086, 0.0032, -0.2150, -0.0771, 0.0267, -0.1921, 0.0794, -0.1525, -0.3194, -0.4597, -0.3955, -0.1882, -0.0004, -0.0218, -0.3861, -0.4546, 0.0112, -0.3270, -0.0471, -0.1003, -0.0048, -0.1596, -0.0848, -0.2602, -0.0262, -0.2404, -0.0298, -0.0709, -0.0056, -0.3437, 0.0259, -0.0174, -0.0671, 0.0381, -0.2717, 0.2451, -0.1604, -0.2049, -0.7435, -0.3624, -0.2955, 0.1070, 0.0308, 0.1839, 0.0100, -0.1671, -0.1557, -0.0554, 0.0368, 0.0047, -0.3430, -0.3589, 0.0326, -0.2105, -0.2664, 0.0641, -0.4195, 0.0196, -0.6579, 0.0426, -0.1306, 0.0504, -0.0620, -0.4551, 0.1161, 0.0195, -0.0261, -0.1969, -0.2605, -0.3023, 0.0174, -0.0276, 0.1582, -0.4474, -0.2164, 0.0534, -0.0496, -0.0048, -0.4899, -0.0156, -0.4487, 0.0733, -0.1747, 0.0402, 0.0663, 0.1789, -0.4648, 0.1363, 0.0595, 0.0837, -0.2821, -0.1333, -0.3426, -0.1485, -0.0547, 0.0040, 0.0449, -0.0679, -0.5843, 0.0850, -0.2726, -0.1297, 0.0474, -0.2640, 0.0914, 0.1084, -0.5139, -0.4162, -0.4661, -0.1289, -0.0758, 0.0055, -0.2785, -0.3581, 0.0525, -0.3322, 0.1246, -0.1322, -0.6013, 0.0348, -0.0312, 0.0626, 0.0019, -0.4946, -0.0094, -0.1399, -0.1484, -0.4086, -0.3726, 0.1097, -0.0469, -0.2166, -0.6493, 0.0150, -0.4152, 0.1011, 0.0546, 0.0740, 0.0614, -0.2338, 0.0900, 0.1059, 0.2307, 0.0805, -0.3864, -0.4313, -0.3781, -0.4529, -0.3733, -0.2760, -0.0425, -0.0003, -0.2366, 0.2045, -0.0603, -0.1135, -0.0238, -0.2817, -0.3896, -0.0035, -0.1804, -0.2542, 0.0251, -0.5132, -0.2933, -0.0254, -0.3823, 0.0347, -0.2490, -0.3279, -0.0030, 0.0074, -0.0354, 0.0847, -0.3752, -0.2920, -0.0337, -0.0522, 0.0317, -0.3420, 0.0549, -0.3008, -0.0997, -0.4662, -0.4678, 0.1579, 0.0957, 0.0162, -0.0452, -0.3319, -0.2842, 0.0626, 0.1745, -0.4132, -0.1703, 0.0545, -0.2782, -0.1823, 0.2029, 0.0161, -0.5804, 0.0492, -0.3522, 0.0140, 0.0358, -0.4900, -0.1841, -0.2395, 0.0972, -0.4225, 0.0459, -0.6839, -0.5032, -0.0396, -0.3705, -0.2830, -0.2455, 0.2397, -0.2664, -0.3127, -0.1198, -0.3482, -0.3547, 0.0076, 0.0031, 0.0200, 0.0010, -0.4385, -0.0972, 0.0707, 0.0203, 0.0675, 0.0758, -0.0609, -0.4594, -0.2615, -0.3751, 0.0303, -0.4013, 0.0569, -0.2519, 0.0398, -0.3845, -0.4608, -0.0026, 0.0525, 0.0664, -0.2660, -0.4411, -0.2735, 0.1500, -0.0080, -0.0434, -0.1460, 0.1759, -0.2933, -0.8576, 0.1031, -0.2340, -0.2765, -0.2430, -0.4142, -0.0762, -0.2753, -0.0356, 0.0414, -0.7124, -0.0452, -0.2658, -0.0482, -0.0660, -0.1370, -0.5614, 0.1620, -0.2116, -0.0061, 0.0715, 0.0259, -0.2096, -0.0544, -0.0575, 0.0766, -0.4287, 0.0902, -0.3094, -0.3810, 0.0497, 0.0940, 0.0110, -0.4096, 0.0345, -0.1517, 0.0355, 0.0757, 0.0121, -0.4256, -0.0507, -0.4091, -0.0759, -0.4202, 0.0386, -0.1164, 0.0319, 0.0850, -0.2714, -0.7004, 0.0118, -0.2786, 0.0350, -0.2622, -0.3756, -0.4622, 0.0408, -0.3619, -0.4666, -0.2990, -0.4148, 0.0154, -0.0269, 0.0011, -0.0189, -0.1942, -0.0710, -0.0148, -0.0378, 0.0968, -0.4834, 0.1296, -0.4598, -0.3542, -0.4362, 0.1357, -0.0869, -0.4367, -0.0680, -0.3444, -0.0296, -0.0875, -0.0143, -0.4118, -0.0334, -0.0144, -0.0284, -0.2338, 0.0860, 0.1142, -0.0297, 0.0388, -0.0670, -0.4040, -0.3687, -0.3166, 0.0699, -0.1176, -0.4783, -0.2230, -0.4217, -0.3550, 0.1558, -0.7581, -0.4344, -0.4181, -0.1389, 0.1319, -0.5787, -0.0998, -0.4185, 0.0994, -0.0307, -0.6779, -0.2611, -0.1099, -0.5321, 0.1133, -0.0763, 0.2128, -0.4554, 0.0114, -0.5180, -0.0050, -0.3630, -0.0859, -0.0148, -0.4381, -0.1749, -0.1512, -0.1185, -0.0754, -0.6134, 0.0643, 0.0007, 0.0089, -0.3303, -0.0494, -0.0474, -0.2419, -0.3211, -0.0470, 0.0388, -0.4771, -0.0360, -0.3924, -0.2864, 0.0604, 0.0402, 0.1128, 0.0698, -0.3994, -0.1419, 0.0637, 0.0284, 0.0339, -0.1557, 0.0870, 0.0757, 0.1150, -0.1606, -0.2491, -0.3633, 0.0455, -0.0256, -0.2966, 0.0791, 0.0375, -0.0161, -0.2023, -0.0942, -0.0819, -0.3429, -0.0709, -0.1012, -0.2450, 0.1066, -0.1549, 0.0223, -0.0057, -0.3955, -0.2976, -0.1949, -0.3339, -0.3546, -0.4260, -0.3235, -0.0742, -0.3882, -0.6357, -0.1503, -0.3954, 0.1316, -0.6799, 0.0307, -0.4137, -0.3982, -0.2476, 0.0423, 0.1276, -0.2289, -0.2467, 0.0792, -0.3970, 0.0342, -0.5514, -0.3267, -0.6780, -0.1170, -0.2879, 0.0027, 0.1175, 0.0965, -0.3875, -0.2880, 0.0437, 0.1248, 0.1410, -0.1831, 0.0279, -0.4871, -0.3417, -0.6370, 0.1180, -0.3104, -0.2253, 0.0879, -0.3863, 0.1034, -0.3181, 0.0196, 0.0494, 0.0787, -0.0323, 0.0331, 0.0357, -0.0603, -0.4292, -0.5066, 0.1712, -0.1138, 0.1403, 0.0626, 0.0182, 0.0082, -0.1783, -0.2597, -0.0741, -0.4451, 0.0111, -0.3460, 0.0135, -0.0337, -0.4454, 0.0253, 0.0354, -0.2840, -0.0189, 0.1302, -0.5205, -0.2522, -0.3729, 0.0380, -0.4308, -0.3837, -0.7560, -0.6227, -0.1456, -0.0702, 0.1921, -0.5929, 0.0656, -0.7025, 0.0512, -0.1465, -0.3752, -0.5739, -0.1910, 0.0741, -0.3166, -0.1231, -0.3995, -0.1388, -0.3679, -0.0693, 0.0474, 0.0713, 0.0226, -0.3225, 0.0427, -0.5468, 0.0409, 0.0571, -0.3629, -0.2228, -0.3027, -0.2138, -0.4506, 0.0635, -0.4095, 0.0138, -0.4193, 0.0158, -0.3147, -0.1865, -0.1356, -0.0149, -0.0926, 0.0401, 0.1454, 0.0508, 0.1085, -0.4603, 0.0378, -0.2495, 0.0972, 0.1193, 0.1363, -0.3691, -0.3107, 0.1262, -0.4197, 0.0884, -0.0048, -0.0777, 0.0353, -0.2303, 0.2374, -0.0386, -0.1471, -0.1634, 0.1018, -0.0315, 0.1768, -0.4127, -0.1265, -0.4770, 0.0752, 0.0092, -0.1488, -0.4231, 0.0664, -0.0557, 0.0607, 0.0743, -0.2548, -0.4205, -0.2705, -0.0456, -0.3384, 0.0279, 0.0309, -0.0428, 0.1276, -0.0345, -0.0173, -0.7286, -0.0895, -0.2094, -0.0100, -0.1211, -0.0072, -0.4278, -0.3105, 0.0044, 0.0494, -0.6174, -0.0117, -0.3146, 0.0742, -0.0955, -0.3810, -0.5397, 0.1038, -0.5812, 0.0409, 0.0504, -0.3308, 0.0556, -0.1112, -0.2839, -0.4650, -0.0080, -0.3391, 0.0299, -0.6673, 0.0653, -0.3338, -0.0962, 0.1114, -0.5803, -0.0215, -0.5248, 0.0829, 0.1090, -0.0987, -0.2567, -0.5175, -0.1040, -0.4107, 0.0096, 0.1648, 0.0994, -0.1057, 0.0835, 0.0681, 0.0423, -0.1177, 0.0086, 0.0596, -0.4381, 0.0062, 0.0726, -0.2204, -0.2514, -0.1285, 0.0611, 0.0844, -0.0020, 0.0253, -0.2838, 0.0519, 0.0530, -0.3557, 0.0287, -0.2814, -0.3002, 0.0891, -0.3448, -0.1722, 0.0588, -0.0698, -0.1503, 0.0291, -0.5034, 0.0183, -0.4595, 0.0268, 0.0191, 0.0797, -0.4173, 0.0005, -0.0387, -0.0759, 0.0282, 0.0041, -0.2230, -0.0547, 0.0424, 0.1237, -0.0251, 0.0321, -0.0034, -0.0000, 0.0075, -0.2783, -0.2992, -0.5203, 0.0542, -0.1934, 0.0455, 0.0813, -0.3161, 0.0958, -0.3982, 0.0146, -0.3243, 0.0542, -0.0637, 0.0823, 0.0627, 0.1030, -0.1675, -0.3766, -0.3703, -0.1667, -0.0349, 0.0567, -0.0168, 0.0442, -0.0064, -0.3812, -0.5291, -0.0949, -0.2157, 0.0253, -0.4163, -0.4571, -0.4167, -0.1062, 0.0096, -0.0141, -0.5244, 0.0109, 0.0140, -0.0298, -0.6937, -0.1158, -0.5704, 0.0153, -0.0492, -0.1241, -0.6281, -0.4820, -0.1820, -0.0721, 0.1498, 0.1677, -0.0927, -0.4804, -0.4056, -0.5289, -0.1116, 0.1302, -0.3366, -0.1096, -0.4028, -0.4589, 0.0663, -0.5294, 0.1526, -0.5569, 0.0502, -0.2223, -0.2113, -0.6704, -0.3874, -0.0858, -0.4120, -0.4890, 0.1006, -0.4328, -0.5867, -0.5920, 0.0061, -0.0710, -0.6155, -0.3217, 0.0434, -0.1804, 0.0239, -0.5152, -0.3237, 0.1372, 0.0202, -0.2253, -0.5275, 0.0943, 0.0218, -0.0409, -0.3347, -0.4946, -0.3490, 0.0510, -0.0751, -0.5195, 0.0294, -0.3264, 0.0218, -0.0157, -0.1053, -0.4025, -0.1927, -0.2476, -0.0751, -0.4413, -0.3785, -0.0141, -0.0303, -0.4338, 0.0562, -0.0630, -0.2508, 0.0950, -0.6222, -0.1568, -0.1420, -0.2969, -0.0110, -0.3212, 0.0348, -0.3502, -0.5301, -0.3694, 0.0032, 0.0108, -0.3096, -0.4761, -0.4181, -0.1503, 0.1491, 0.1118, 0.0496, -0.6167, -0.2530, -0.2200, -0.7557, 0.0079, -0.1759, -0.1098, -0.0700, -0.0530, -0.3068, -0.4310, 0.0325, -0.0684, -0.7415, -0.1586, -0.6286, -0.3323, 0.0748, -0.3102, -0.4870, -0.4380, 0.1117, -0.0101, -0.0708, 0.0355, -0.1944, 0.1441, -0.6518, 0.1323, -0.0170, -0.4046, -0.0980, -0.2220, -0.3219, 0.0443, -0.6768, -0.4033, -0.2402, -0.5038, -0.0003, 0.0518, -0.1155, 0.0553, 0.0331, 0.1951, -0.2999, -0.3236, 0.0110, 0.0942, 0.0207, -0.2064, -0.0355, -0.2648, -0.3964, -0.4625, -0.3633, -0.1823, -0.3793, 0.1006, -0.3039, -0.0704, 0.0567, 0.1182, -0.0734, -0.5057, -0.6690, -0.2612, -0.0271, 0.0667, 0.0876, 0.0556, -0.1457, -0.1462, -0.0007, -0.4142, 0.0131, -0.0515, -0.3086, -0.3056, 0.0726, -0.1067, -0.4059, 0.0006, -0.2671, -0.0431, -0.2702, -0.2711, 0.0624, 0.0349, -0.4865, 0.1167, 0.0691, 0.0372, 0.1337, -0.4165, -0.0113, -0.0413, -0.3444, -0.4201, 0.0202, 0.0996, -0.0343, 0.0375, -0.0441, 0.0426, -0.0326, -0.2291, 0.0243, -0.2487, -0.4378, 0.1078, -0.4149, 0.0245, 0.0134, -0.8080, -0.4117, -0.2679, -0.1366, 0.0387, -0.0525, -0.2403, -0.3900, -0.0508, -0.1587, 0.0949, -0.1916, -0.4408, -0.2546, -0.0451, 0.1396, -0.0774, 0.0218, -0.5640, -0.1287, -0.6245, -0.5922, -0.5542, -0.0560, -0.1063, 0.0698, 0.1634, -0.2946, -0.0736, -0.2194, -0.3561, -0.2655, 0.1296, -0.0468, -0.1343, 0.0975, -0.4992, 0.0213, -0.0249, -0.1975, -0.3918, 0.0960, -0.3780, -0.1498, -0.4251, 0.1023, 0.0864, -0.2062, -0.4324, -0.0080, -0.9646, 0.1396, -0.3333, 0.0244, 0.1222, -0.1414, -0.1106, -0.3417, -0.0247, 0.0963, 0.0104, -0.2578, -0.5517, -0.3593, -0.2278, 0.0371, -0.1469, -0.0119, -0.5595, 0.0838, -0.5264, 0.0928, -0.2049, -0.0228, 0.0609, -0.2068, -0.2303, -0.0138, -0.0251, -0.3110, -0.0363, 0.0502, 0.1165, 0.0526, -0.3165, -0.5166, 0.0364, -0.3075, 0.0788, -0.2619, 0.0899, -0.5236, -0.6405, 0.0639, -0.1878, -0.2912, 0.0285, -0.0639, -0.0189, 0.0522, -0.3048, -0.3154, -0.0527, -0.1232, -0.0251, -0.0323, -0.4796, -0.0032, 0.0348, -0.2473, 0.1113, -0.4280, -0.2279, -0.0191, -0.5088, 0.0786, 0.1093, -0.3586, -0.1844, -0.0521, -0.3333, -0.0010, 0.0385, -0.3509, -0.0192, 0.0768, -0.4213, -0.0199, -0.0032, -0.2078, -0.2815, 0.1091, 0.1444, -0.1420, 0.0888, -0.1469, -0.4323, -0.0159, 0.0787, 0.1282, 0.2340, -0.3640, -0.0244, -0.0956, -0.4140, -0.0764, -0.1187, -0.1954, -0.0218, -0.7058, -0.0628, -0.0267, 0.1592, -0.3222, 0.0553, -0.2593, -0.0235, 0.0648, -0.2325, -0.2386, -0.1170, 0.0323, -0.0837, -0.0999, -0.5735, -0.3078, 0.0653, 0.0321, -0.4949, -0.1171, -0.2476, 0.0100, 0.0671, 0.0781, -0.0278, -0.0757, -0.1571, -0.1867, -0.6250, -0.4948, -0.0028, -0.4144, -0.0831, -0.1148, 0.2165, -0.3727, -0.0189, 0.0166, -0.2122, -0.3040, 0.0694, 0.0025, 0.1073, -0.0009, -0.1664, 0.0300, 0.0106, -0.1635, -0.4306, -0.0395, 0.1251, 0.0324, 0.1379, -0.4480, 0.0706, -0.3185, 0.0266, -0.2436, -0.1048, -0.2183, -0.3623, -0.1699, -0.6708, 0.0711, -0.2983, 0.1094, -0.5684, -0.5666, 0.0507, -0.6129, -0.0816, -0.4119, -0.0281, -0.0137, -0.1961, -0.5661, -0.0864, 0.0168, -0.0086, -0.0947, -0.4248, -0.4364, 0.0773, -0.2995, 0.0914, 0.0607, 0.0325, 0.0231, -0.0129, -0.1445, 0.0564, 0.0294, 0.0933, -0.5538, 0.0329, -0.1545, 0.0022, -0.3200, -0.3895, -0.6840, -0.1214, -0.3478, 0.0470, -0.0171, 0.0752, -0.4929, -0.4485, 0.0169, 0.1438, -0.1083, -0.7155, -0.4358, -0.7522, 0.0688, -0.3070, 0.0492, -0.5401, -0.5300, -0.0947, -0.4115, -0.2506, -0.5841, -0.2822, -0.2812, -0.0186, 0.0220, -0.5273, -0.0074, 0.0418, -0.3225, -0.1879, -0.0223, -0.2641, -0.4903, 0.0239, 0.0623, -0.6361, 0.0300, -0.4776, 0.1251, -0.0323, 0.0509, -0.1993, -0.3562, -0.5606, -0.3735, -0.4425, -0.0805, -0.0456, -0.3335, -0.4785, 0.0401, -0.2621, -0.0280, 0.0053, 0.0400, -0.4006, -0.4381, 0.0986, -0.4252, 0.0068, -0.2948, 0.0977, 0.0272, 0.0837, -0.0180, -0.4817, -0.2090, -0.3002, 0.0121, -0.1122, -0.4156, 0.0025, -0.2346, -0.4030, 0.0790, -0.2802, -0.2920, -0.0004, -0.4966, 0.1150, -0.5140, 0.1742, -0.4471, 0.0621, -0.0325, -0.0309, -0.0442, -0.1606, -0.3725, 0.0060, -0.4877, -0.2887, 0.1269, -0.0481, -0.4589, -0.0049, -0.2972, 0.0452, -0.2672, 0.0947, 0.0343, -0.0989, -0.4680, -0.0081, -0.2469, 0.0950, -0.3673, -0.0373, -0.5122, -0.1112, 0.0461, 0.2202, 0.0579, 0.0082, -0.2564, 0.0049, -0.2810, -0.3187, -0.0326, -0.0780, 0.1367, -0.2768, -0.1452, -0.2173, -0.1268, 0.0292, -0.4608, -0.3378, 0.0663, -0.5540, -0.4069, -0.4194, 0.0359, -0.1113, 0.0060, -0.2867, -0.4122, 0.0308, -0.5294, -0.1910, -0.5007, 0.0056, -0.3163, -0.0448, -0.2772, -0.4506, -0.0892, -0.1746, -0.3967, 0.0990, -0.4010, -0.2862, 0.0627, -0.3177, -0.0653, -0.2234, 0.0891, -0.1789, -0.4289, -0.2757, 0.0820, -0.3119, -0.0828, -0.2319, 0.0662, -0.3876, -0.1389, -0.4637, 0.1732, -0.2450, -0.4685, -0.4630, 0.1054, -0.1313, -0.2907, -0.1315, -0.2261, 0.0215, 0.0728, -0.5778, 0.0465, -0.2726, -0.2485, -0.2478, 0.0335, -0.5217, -0.0976, 0.0338, -0.0834, -0.2259, -0.0476, 0.0052, -0.2289, 0.0960, -0.0628, -0.4515, -0.3343, -0.2963, 0.0424, -0.2189, -0.2173, -0.0157, -0.0525, -0.0424, 0.0693, 0.0379, 0.0774, -0.2692, 0.0627, -0.4522, 0.0594, -0.0460, -0.2454, -0.2400, -0.4310, -0.0724, -0.1904, 0.1051, -0.2671, 0.0718, -0.0750, 0.0026, -0.4853, 0.0883, 0.0800, -0.3094, -0.3122, -0.0284, -0.2430, -0.3498, 0.0384, 0.0254, -0.3799, -0.5714, -0.5768, -0.1539, 0.0484, -0.1674, 0.0241, 0.0678, 0.0331, 0.0471, -0.2534, -0.1400, 0.0332, -0.2486, -0.0559, -0.6085, -0.4243, -0.2423, -0.0043, 0.1091, -0.0208, 0.1302, -0.3023, -0.2471, -0.1655, -0.4375, -0.2632, -0.3857, -0.0501, -0.2724, 0.0536, 0.1573, 0.0593, -0.3488, 0.0295, 0.0287, 0.1047, -0.0788, 0.0413, -0.3503, -0.1329, -0.2585, -0.0149, -0.0933, -0.0239, -0.2134, -0.2084, 0.1405, 0.0715, -0.5147, -0.5331, -0.1420, 0.0279, -0.1090, -0.2668, -0.4838, -0.4263, -0.3389, -0.0893, 0.1130, -0.3777, 0.0752, -0.2871, -0.1672, 0.0299, -0.1379, -0.2420, -0.1324, -0.1420, -0.0496, -0.2195, 0.0466, 0.0811, -0.1673, -0.2525, -0.6411, 0.0016, -0.3738, 0.0365, -0.2476, 0.0506, 0.0900, 0.1181, 0.1158, -0.3377, -0.1658, -0.5483, 0.0452, -0.2149, -0.0745, 0.1382, -0.5017, -0.4931, -0.0106, -0.2723, 0.0214, -0.2256, -0.6341, -0.6502, -0.3414, -0.2481, 0.0638, 0.0371, -0.2409, -0.0356, 0.1605, -0.3536, 0.1169, -0.4497, -0.1962, -0.0782, 0.0797, -0.4129, 0.0329, 0.0870, -0.0826, 0.0857, -0.3740, -0.3263, 0.0127, -0.1137, 0.0886, -0.1194, -0.4901, -0.4227, -0.1330, -0.2152, -0.4276, 0.0476, -0.3817, 0.0648, -0.2125, 0.0490, -0.1522, -0.4022, -0.5034, -0.5111, 0.0676, 0.0110, -0.3065, -0.2643, -0.4858, -0.2693, 0.0843, -0.1353, 0.1331, -0.0557, -0.5165, -0.2558, -0.0949, 0.0102, -0.0827, -0.1517, 0.0332, -0.4476, -0.0355, 0.0829, 0.0988, -0.1586, 0.0161, -0.1766, -0.0863, -0.2340, -0.4310, 0.0501, 0.0050, -0.4636, -0.0020, -0.0590, 0.0220, -0.4020, -0.4713, -0.6913, 0.1011, -0.0078, 0.0145, 0.0380, -0.4192, -0.3098, -0.4838, -0.0448, -0.3198, 0.0309, -0.3004, 0.0010, -0.2289, -0.9058, -0.0251, -0.4671, 0.0319, 0.0611, -0.0959, -0.6987, -0.1206, -0.3998, 0.0266, -0.2283, -0.1114, -0.0276, 0.0915, -0.2821, 0.1452, -0.6968, 0.0371, -0.1080, -0.0143, -0.2108, -0.6060, 0.0142, -0.1697, -0.0789, 0.0956, -0.1681, 0.0617, -0.3849, 0.0350, -0.2219, 0.0603, -0.0265, 0.0026, -0.2808, 0.0947, 0.0314, -0.2528, -0.0260, -0.3951, 0.0331, 0.1458, -0.0060, -0.3708, -0.1207, 0.0184, -0.2246, -0.3315, -0.2520, -0.5161, 0.1427, -0.5790, -0.3568, -0.1399, 0.0515, 0.0193, -0.3887, -0.2821, -0.3056, 0.0067, -0.0929, -0.4701, 0.1252, -0.1631, -0.0131, 0.2134, -0.2687, 0.0977, -0.1429, -0.2519, -0.5404, -0.2149, -0.2791, 0.1726, -0.3781, -0.2374, -1.0462, 0.1935, -0.2663, -0.2959, 0.1287, -0.4317, 0.0144, -0.0425, -0.3876, -0.0298, -0.0161, -0.0448, -0.0217, -0.0727, 0.0667, -0.4346, -0.0226, -0.0381, -0.3986, -0.4288, -0.5893, 0.0666, -0.2753, -0.0237, -0.6893, -0.0049, -0.5070, 0.0765, 0.0204, -0.4517, -0.3008, 0.0064, -0.4310, 0.0124, -0.2343, 0.0255, 0.0111, -0.0379, -0.5160, -0.3354, -0.4538, -0.1839, -0.2751, -0.4846, -0.0253, -0.3893, -0.0588, 0.0607, -0.4405, 0.0355, -0.4289, -0.0490, 0.0321, 0.0280, -0.3046, -0.3700, 0.0815, -0.1954, -0.0583, -0.5151, -0.1055, 0.0665, -0.0471, 0.0625, 0.0338, 0.1065, -0.3207, -0.3845, 0.0968, -0.3286, 0.0394, 0.1054, -0.0280, 0.0377, -0.3003, -0.0884, -0.3928, -0.3112, 0.0400, 0.0620, -0.3436, -0.1570, -0.0249, -0.2922, 0.0706, -0.3356, -0.3789, 0.0392, -0.6704, 0.0414, 0.0738, -0.1254, -0.1936, -0.3533, -0.2993, -0.2804, 0.0834, 0.0865, -0.2752, 0.0446, -0.5018, 0.0716, -0.2072, -0.0316, -0.0293, -0.4115, -0.1984, -0.3372, -0.0566, 0.0170, -0.0619, -0.4087, 0.0175, -0.2586, -0.1148, -0.0990, 0.0491, -0.2133, -0.3831, 0.0542, 0.1024, -0.1836, 0.0081, -0.3979, -0.4224, -0.0907, -0.4292, -0.6950, 0.1560, -0.6317, -0.3793, -0.1386, -0.6463, -0.0723};
#endif

#endif
