//Numpy array shape (10, 32)
//Min -0.780374884605
//Max 0.646854102612

weight_default_t w1[10][32] = {0.469886034727, 0, 0, 0, 0, 0, 0, 0.485931366682, 0, 0.0105694588274, -0.372760951519, 0, 0.0936330631375, 0, -0.0137981586158, 0, 0, 0, -0.158450946212, 0, 0, 0, 0, 0, 0.152280181646, 0.411959022284, 0, 0, 0.16480627656, 0.0976520776749, 0, -0.1764690727, 0, 0.642921924591, -0.422784358263, -0.158862888813, 0.300285577774, 0, 0.0195394605398, 0, 0, 0, 0, 0, 0, 0.062592022121, 0, -0.287731796503, 0.386802703142, 0, -0.427033543587, 0, 0, 0.24760761857, 0, -0.295301884413, -0.65853947401, 0, 0.480021834373, 0, -0.233451142907, 0, 0, 0, -0.400389879942, 0.438910186291, -0.306240767241, -0.323651224375, -0.392225533724, 0.3572678864, -0.397361218929, 0.394868463278, 0, 0, 0, 0, 0.644771695137, 0, 0, 0, 0.264412999153, 0.0641430318356, 0, 0, 0.264521747828, 0.063338264823, 0, 0.148377254605, 0, 0, 0.258876770735, 0, 0, 0.365797281265, 0, 0, 0, 0, 0, 0, 0, 0, 0.188863113523, 0.0728542357683, 0.404284179211, 0, 0, 0.0706231668591, 0.171757608652, 0.0327457301319, 0, 0.285122692585, 0, -0.153103038669, -0.618405401707, -0.498597204685, -0.120579503477, -0.585806488991, 0.310296028852, 0, -0.61884611845, 0.646854102612, -0.12144652009, 0, 0, 0, 0, 0.426330417395, 0.0677106902003, 0.307132989168, -0.408271700144, 0, 0.373969048262, 0, 0.268711477518, 0, 0.580298185349, 0, 0, -0.355630248785, 0.379427969456, 0.0594677887857, 0, -0.307702571154, 0, 0.323285609484, 0, 0.137764915824, 0, -0.0766139179468, -0.541784107685, -0.363497048616, 0.0167881250381, 0, 0, 0, -0.0440296866, 0.0679265484214, 0, -0.0125775840133, 0.15372492373, -0.456968694925, 0, 0.108014553785, -0.332670778036, -0.0228065475821, 0.110137924552, 0, 0, 0.278278380632, 0, 0, 0, -0.412107855082, -0.564781546593, -0.257253676653, 0.397280603647, 0.505163490772, -0.187055394053, 0.484979391098, 0.26713809371, 0, 0, 0.377275258303, 0, 0, 0.195471301675, -0.431639403105, 0, 0, -0.710084378719, 0.322846531868, -0.367289185524, 0.381537139416, -0.60257935524, -0.478854894638, 0, 0.319222390652, 0.385795325041, -0.115412861109, 0.402388989925, 0, 0, 0, -0.00471964431927, 0.0807521864772, 0, -0.172515034676, 0, 0, -0.0264383982867, 0.409555137157, -0.0810084193945, 0, 0, 0.0681896284223, 0.46504843235, 0, -0.22361548245, 0.403856545687, 0.330072641373, -0.321361631155, 0, -0.356280982494, 0.324613630772, 0, 0, -0.571761250496, 0.151520609856, 0, 0, -0.679587125778, -0.0962254032493, 0, 0, -0.124097146094, -0.170083731413, 0, 0, 0.328040361404, -0.0466306358576, 0.306923151016, 0, 0.48392868042, -0.215632915497, 0, 0, -0.421781778336, 0, 0, 0, 0, 0.119063258171, 0, -0.39615136385, 0.0605220645666, 0.423658758402, 0, 0, -0.501381456852, 0.0550600588322, 0.0405263975263, 0.205968305469, -0.035626064986, -0.312921822071, 0, 0.390530824661, -0.024772150442, 0.412245184183, 0, 0, 0, 0.307958126068, 0, 0, 0.0704858377576, 0, 0.306565761566, 0, -0.543242454529, -0.220428451896, -0.706516087055, -0.128503292799, -0.351199686527, 0.201777845621, 0, -0.327868074179, 0, 0, 0, 0, 0, 0, 0, 0, -0.655940413475, 0, -0.31935557723, 0, -0.392601639032, -0.624195575714, 0.115053512156, -0.346742898226, 0, 0, 0.459005326033, 0.110334888101, -0.151589557528, 0, 0, -0.00381595967337, 0.334656924009, 0, 0.338534146547, 0, 0, 0, 0, 0, 0};