//Numpy array shape [32, 32]
//Min -0.408655583858
//Max 0.408189147711
//Number of zeros 0

#ifndef W10_H_
#define W10_H_

hls_init_on_powerup static const model_default_t w10[1024] = {-0.636070, -0.077830, -0.141351, 0.272582, -0.503433, 0.150174, 0.129140, 0.053257, 0.155762, -0.113184, 0.001216, 0.091618, -0.156007, -0.597684, -0.010121, 0.369795, 0.020369, 0.439951, -0.138175, 0.004438, 0.131625, 0.088912, 0.631017, 0.018699, -0.046971, -0.393545, 0.190267, -0.036996, 0.361692, 0.092391, 0.223578, 0.138916, 0.156539, 0.296624, -0.267292, -0.000898, -0.274410, -0.210128, -0.080915, -0.193234, 0.090517, 0.008744, -0.007044, 0.273469, -0.472365, 0.526897, 0.556891, -0.619783, 0.027520, -1.082908, 0.301570, 0.100221, -0.005143, -0.649077, 0.001867, -0.249468, -0.044302, 0.001573, 0.169149, -0.011188, 0.051890, -0.027936, -0.318579, 0.293083, 0.990438, 0.020738, 0.110054, -0.249490, 0.061302, 0.034374, -0.010280, -0.238449, -0.656640, 0.055394, 0.330461, -0.123189, -0.174355, 0.197387, -0.190727, 0.616292, -0.429883, 0.249252, 0.100208, -0.113701, -0.191982, -0.000449, -0.007888, -0.024176, -0.015958, -0.007662, 0.659152, -0.192885, -0.294070, -0.091564, -0.497284, -0.125078, -0.505730, -0.461351, -0.035900, 0.001434, 0.323589, -0.680616, 0.093882, -0.264748, 0.026031, -0.052257, -0.002364, 0.000910, 0.353329, -0.111419, 0.100283, -0.538523, 0.465087, 0.182772, -0.122856, -0.002235, 0.418523, -0.311383, -0.242587, 0.005083, 0.007890, -0.099864, -0.719653, -0.000710, 0.001565, 0.177456, 0.006201, 0.030188, -0.216316, -0.443495, -0.001838, -0.425909, -0.450938, 0.382535, -0.058423, -0.004911, -0.178845, 0.001497, 0.555705, 0.162793, 0.154587, -0.096173, -0.080951, 0.403398, 0.250820, 0.154477, -0.423218, 0.375809, 0.192343, 0.001196, 0.228465, 0.126137, 0.406991, 0.104415, 0.420482, -0.000448, 0.000154, 0.004214, 0.025570, 0.002719, -0.196405, 0.355367, -0.552677, 0.194099, -0.013501, -0.100360, 0.028762, -0.587739, -0.662044, 0.166577, 0.169209, -0.000030, -0.543781, -0.588930, -0.694647, -0.262447, 0.183054, -0.030621, 0.201356, 0.119745, 0.000624, 0.316988, -0.873565, 0.268130, 0.257851, -0.344702, 1.144968, 0.368801, -0.611569, -0.294853, -0.169188, -0.014316, 0.000680, -0.057813, -0.005152, 0.277721, -0.402075, -0.001409, -0.381417, 0.360354, -0.231463, 0.147729, -0.046871, 0.342937, -0.382604, -0.045197, -0.948863, -0.452403, -0.625819, -1.222624, -0.002205, 0.007181, 0.061396, 0.415697, 0.035630, -0.945729, 0.164440, -0.283042, 0.042372, 0.926260, -0.000781, 0.039017, -0.430401, -1.018128, -0.172855, -0.135349, 0.087576, -0.355255, -0.305872, -0.208123, -0.636804, 0.006869, 0.114478, 0.222109, -0.594586, 0.002984, -0.040242, -0.342948, -0.227783, 0.101988, 0.136154, -0.192002, -0.002844, 0.439619, -0.029052, 0.136468, 0.007020, -0.225431, -0.112528, -0.639578, 0.052383, 0.064132, -0.447879, 0.254959, 0.333754, -0.394533, -0.831421, 0.527178, 0.687771, -0.796851, -0.364868, -0.012985, 0.090167, 0.714942, -0.104008, 0.196794, -0.089821, -1.108681, 0.328203, -0.433356, -0.103509, -0.003081, -0.008497, 0.095151, 0.479382, -0.119946, -0.002378, -0.942736, -0.194834, 0.260797, 0.241689, -0.647954, -0.003198, 0.243439, 0.885140, -0.501324, 0.455137, -0.025347, 0.453350, 0.000354, 0.374158, 0.271517, -0.342872, 0.000796, 0.006543, 0.000501, -0.445170, 0.056010, -0.017781, -0.393986, -0.331317, 0.157346, -0.360387, -0.146729, -0.036757, -0.114485, 0.182699, -0.046602, -0.069104, -0.082036, -0.249796, -0.356428, 0.280275, -0.000787, 0.363905, -0.120521, -0.477683, -0.001645, -0.186257, 0.175022, -0.127276, 0.003535, 0.214045, 0.308339, 0.047805, -0.152186, 0.379435, -0.425481, 0.167525, 0.002418, -0.153714, -0.297918, -0.001636, -0.070921, 0.285630, 0.200108, 0.000949, 0.320295, -0.104884, -0.057525, 0.185794, -0.119719, -0.508074, -0.000400, -0.174842, 0.136993, 0.419488, -0.293112, 0.003377, -0.494480, -0.014716, 0.213286, -0.001845, -0.156328, 0.068172, 0.001322, 0.269820, -0.000069, 0.114903, -0.048180, 0.000193, 0.280599, -0.077155, -0.401321, 0.076912, -0.288257, 0.287337, -0.420576, -0.118168, -0.463439, 0.076099, -0.224196, -0.146779, -0.256928, 0.301379, -0.271958, 0.000466, -0.153293, -0.346888, 0.031901, -0.000820, 0.008863, 0.008648, 0.040138, -0.321181, -0.247682, -0.366609, 0.000537, -0.096347, -0.002324, -0.000915, -0.123511, -0.195062, 0.099203, 0.231556, -0.330910, 0.004091, -0.376194, 0.033051, -0.420200, 0.474846, 0.309577, -0.348255, 0.157774, 0.154617, -0.368592, 0.287914, -0.004111, -0.106758, 0.216119, 0.004615, 0.171613, -0.491675, 0.273462, -0.132933, -0.261936, 0.182061, 0.131629, -0.000771, 0.019991, 0.000063, 0.229073, 0.001828, -0.043982, -0.030502, -0.038708, -0.073774, -0.483500, -0.002483, -0.158180, 0.049631, -0.185183, -0.038845, -0.302086, 0.118464, -0.065158, 0.251993, -0.002379, -0.000012, -0.000055, 0.196913, -0.008280, -0.239423, -0.036763, -0.259205, -0.065626, -0.015736, -0.249073, 0.047872, 0.037557, 0.063753, 0.216416, 0.571256, -0.186512, 0.016790, -0.224797, -0.008567, 0.077563, -0.343994, 0.127475, 0.107897, -0.479129, -0.159178, -0.231743, 0.270130, -0.859038, 0.531833, 0.001763, -0.194996, 0.070825, 0.001463, -0.905524, -0.006903, 0.001019, -1.162801, 0.573873, 0.270716, -0.099290, -0.591675, 0.219939, 0.209214, 0.413666, -0.000291, 0.312817, 0.269322, -0.155083, 0.242017, -0.116870, 0.054979, 0.005221, -0.125868, -0.452163, -0.136914, 0.008089, 0.031751, 0.279985, 0.000242, 0.223580, 0.285073, -0.055937, 0.347654, 0.098442, 0.609205, 0.195839, -0.151990, -0.407547, -0.515727, 0.223292, 0.021093, -0.247367, -0.185142, 0.382922, -0.079709, 0.770203, 0.772080, -0.125016, -0.073221, 0.250165, 0.003977, -0.062378, 0.177825, 0.264822, 0.523423, 0.493175, -0.423046, 0.213422, -0.073004, -0.116883, 0.001714, 0.956998, 0.134850, 0.444929, 0.039289, 0.478354, 0.168162, -0.424641, -0.075907, -0.048212, -0.671097, -0.001107, 0.063178, -0.030550, 0.062260, 0.073945, 0.003341, 0.733206, -0.371343, 0.261622, -0.107082, -0.100818, 0.190530, -0.029760, -0.119666, 0.587968, -0.007436, 0.254645, -0.090377, 0.154463, -0.126911, -0.136880, -0.009453, -0.535782, 0.130131, 0.323041, -0.007390, -0.016695, -0.022882, -0.371027, 0.203011, -0.418283, 0.539773, 0.187623, -0.029921, 0.543548, 0.581751, 0.077868, 0.932015, 0.206112, 0.149850, 0.013539, 0.006625, 0.162527, 0.485187, -0.223570, -0.045340, -0.320509, 0.194034, -0.121656, 0.323433, 0.002392, -0.085433, 0.170259, -0.597365, -0.046169, -0.154136, -0.309632, -0.759143, 0.095862, -0.306472, 0.922320, 0.170432, 1.129393, -0.256402, 0.338210, -0.351248, -0.533288, -0.544654, 0.247096, 0.256741, -0.353638, 0.322015, 0.004713, 0.650425, 0.139558, 0.050156, 0.673289, 0.391408, -0.473069, 0.000487, 0.436000, 0.170981, 0.056919, -0.344422, -0.196699, -0.003634, -0.061137, -0.001329, 0.226103, -0.025434, 0.749266, 0.669954, 0.035527, -0.367916, 0.029913, -0.140728, 0.492556, -0.005912, -0.003795, 0.026341, 0.847684, -0.020821, -0.945605, 0.965152, -0.208097, -0.269563, 0.558995, 0.013731, 0.501641, 0.375308, -0.514740, -0.531215, -0.479944, -0.275777, 0.293066, -0.796668, -0.593131, -0.458781, -0.153038, -0.752897, 0.546632, -0.012538, 0.000398, 0.524634, 0.832768, 0.785509, -0.766549, 0.885099, 0.550552, 0.899368, 0.004599, 0.279782, 0.028736, -1.125060, 0.088671, 0.001210, -0.098724, -0.643025, -0.893746, -0.117447, 0.671537, -0.205645, 0.012086, -0.005639, -0.011940, -0.070877, -0.367609, -0.345288, -0.001007, 0.405765, 0.005579, 0.010251, -0.058565, -0.063733, -0.236542, -0.002941, -0.616428, -0.141823, 0.396215, 0.441571, -0.637817, -0.034398, -0.536328, 0.170005, -0.459368, 0.493542, -0.018237, -0.524332, 0.070541, 0.283171, -0.296731, -0.750928, -0.009978, -0.486898, -0.002563, 0.434977, 0.288682, -0.465875, -0.241961, -0.369889, -0.423574, 0.662351, -0.007129, -0.285579, -0.058800, -0.048450, -0.001799, -0.000763, 0.126922, 0.078663, 0.535323, 0.529810, -0.000879, -0.208572, 0.038648, -0.425305, 0.504722, -0.344097, 0.024212, -0.254959, 0.151857, 0.210527, 0.012226, 0.321003, -0.023051, 0.353561, -0.000921, -0.367901, 0.468487, -0.034444, -0.409218, -0.093072, 0.078494, -0.088068, 0.222044, -0.166684, 0.120344, 0.270981, 0.075909, 0.000534, -0.145866, -0.000527, 0.003875, -0.000823, -0.006980, 0.000977, -0.095619, -0.192323, 0.000951, 0.180800, -0.121483, -0.305930, -0.310954, -0.253315, 0.323742, -0.002897, -0.522187, 0.000402, 0.037432, 0.377223, 0.250275, -0.229871, 0.344359, -0.279063, -0.096584, -0.174635, 0.451223, 0.073304, 0.128274, 0.029718, 0.360770, -0.621542, -0.081915, -0.041123, 0.250774, 0.680136, -0.445780, -0.543387, -0.356055, -0.041176, 0.193042, -0.937570, -0.043011, -0.114648, 0.000141, -0.623518, -0.007969, -0.091274, 0.143272, 0.058079, -0.172016, -0.120370, -0.803863, 0.135287, -0.053923, -0.084413, 0.000415, -0.253817, -0.213136, 0.069225, 0.144025, 0.697825, -0.445970, -0.428959, -0.283257, 0.093495, -0.171516, -0.213541, 0.286841, -0.068681, -0.798905, -0.094525, -0.084132, -0.288695, 0.159364, -0.068729, 0.193237, -0.050085, -0.000155, -0.198686, 0.353084, 0.011549, -0.082162, 0.201975, -0.212312, -0.116500, 0.327712, 0.371303, 0.182586, -0.194580, -0.593194, 0.072964, -0.163706, 0.007458, 0.034643, 0.391196, -0.173857, 0.099375, -0.124085, -0.768715, 0.003993, -0.023411, -0.071504, 0.263106, 0.224890, 0.485770, 0.335628, 0.002803, -0.002939, -0.107024, 0.152953, 0.003400, 0.004346, 0.371136, -0.147511, -0.110979, -0.582125, 0.546606, -0.014619, -0.021679, 0.156474, -0.151196, 0.001741, 0.033801, -0.348639, -0.138268, 0.557154, -0.124849, 0.036524, -0.153542, 0.993078, 0.142668, -0.416851, -0.002543, -0.009376, -0.154377, 0.037871, 0.223232, -0.042786, -0.189179, 0.224056, 0.005493, -0.566940, 0.426849, 0.221000, -0.499488, 0.156049, 0.211038, 1.009884, 0.318608, -0.868485, -0.005730, 0.878859, -0.042667, 0.148788, -0.185248, 0.001287, 0.004406, 0.270472, -0.239153, -0.100821, -0.222994, 0.875253, 0.415115, 0.332281, -0.102609, 0.163081, -0.197773, 0.020555, 0.152220, 0.650628, 0.330060, -0.059755, 0.397779, -0.216009, -0.144416, 0.287864, -0.411465, -0.238325, 0.009669, -0.305118, 0.000685, -0.180279, -0.082027, -0.384729, -0.104100, 0.112739, 0.465711, -0.022195, 0.084889, -0.468768, 0.525950, -0.445964, -0.317286, -0.187398, 0.104572, -0.088055, -0.184166, -0.330501, -0.064782, 0.407813, -0.687893, 0.590744, -0.741242, 0.301079, -0.004521, -0.140809, -0.632445, 0.087952, -0.433499, 0.391690, 0.554097, 0.311982, -0.446297, -0.052793, 0.155136, 0.314227, -0.000690, 0.368205, -0.002747, 0.673972, -0.121047, 0.000754, 0.496573, 0.299608, 0.105208, -0.366105, 0.469231, 0.345544, -0.441709, -0.181970, -0.197446, 0.049090, -0.294886, -0.001396, 0.018892, -0.126288, 0.074343, 0.110805, -0.369197, 0.078052, -0.011420, 0.217498, 0.099592, -0.129252, -0.291889, 0.004877, 0.211074, 0.007933, -0.068393, 0.126749, -0.002301, -0.059477, -0.142588, -0.029902, -0.102728, 0.000647, -0.130693, -0.262213, 0.286440, -0.085883, 0.303110, 0.001366, -0.030378, -0.581757};

#endif
