//Numpy array shape [32, 5]
//Min -0.326538652182
//Max 0.330949991941
//Number of zeros 0

#ifndef W14_H_
#define W14_H_

hls_init_on_powerup static const model_default_t w14[160] = {0.376604, -0.449807, -0.273193, 0.347288, 1.123757, 0.189589, -0.138901, -0.721246, 0.604426, -1.463987, -0.205802, 0.394160, 0.295116, -0.047010, -0.050554, -0.438210, 0.034290, 0.766173, 1.483764, 0.194298, 0.240405, 0.574100, 0.430133, 0.494535, -0.228298, -0.535213, -0.023897, -0.454585, -0.965545, -0.744277, 0.009097, -0.629047, 0.895352, -0.015239, -0.600523, 0.099869, -0.079357, 0.425303, -0.094308, 0.209535, -0.000853, -0.399101, -0.249848, 0.204553, -0.259465, 0.000369, -0.296556, 0.645798, -0.420618, -0.215826, -0.337021, 0.707414, -0.379833, 0.641167, -0.113574, 0.770280, 0.422181, -0.590413, 0.212340, 0.573285, -0.454514, 0.677859, 0.446133, -0.507137, 0.299789, -0.271030, 1.821995, -0.235929, -0.173420, -1.971746, 0.761589, 0.284925, -0.786565, 1.011570, 1.261482, 1.143030, -1.684766, 1.061793, -0.944104, -0.299360, -0.037392, 0.477316, -1.206285, 1.104299, -0.034621, 0.316884, 0.925488, -1.102709, -1.836589, 0.009490, -2.004776, 0.697532, -0.236809, 0.482033, 1.035207, -1.353052, -1.034030, -1.481055, 0.998353, -0.174065, -0.318731, 1.113262, 0.522644, 0.711319, -0.747920, 1.453893, -0.442132, -0.885206, 0.037773, -1.009081, 0.074747, 0.695185, -0.148285, 0.203249, -0.734709, 0.464777, 0.078515, -0.107284, 0.051903, 0.054128, 1.606788, -0.070358, 0.355523, 0.649394, -0.984851, 0.159951, -0.329145, -0.750994, 0.413072, -0.103706, 0.599919, -0.746036, 1.202666, -0.974797, -0.026070, 0.866002, -0.330267, -0.988225, 0.708135, 0.270810, 0.696625, 0.058670, -0.836315, 0.476472, -0.934763, -0.007136, 0.675764, -0.733066, -0.474936, -0.417733, -0.417601, -0.188624, -0.630150, 1.015525, -0.635759, -0.637082, 0.245752, -0.532834, 0.133466, 1.139035};

#endif
