//Numpy array shape [64, 32]
//Min -0.345565289259
//Max 0.323780745268
//Number of zeros 0

#ifndef W6_H_
#define W6_H_

hls_init_on_powerup static const model_default_t w6[2048] = {0.001873, -0.029961, -0.043606, -0.003844, -0.074229, -0.147103, 0.113568, -0.144204, 0.145262, 0.141653, -0.408994, 0.094199, -0.113491, -0.096155, 0.005859, -0.022298, -0.004113, -0.123209, -0.021483, -0.181254, -0.283534, 0.000765, -0.065719, -0.086559, -0.089675, 0.093380, 0.263901, 0.094911, 0.140220, 0.017184, -0.284894, 0.114343, -0.387175, -0.001906, 0.173230, -0.005500, -0.201606, 0.143766, -0.001059, 0.245819, 0.009042, 0.054383, -0.188129, -0.444449, -0.000170, 0.056477, 0.159552, -0.294231, 0.002052, 0.001226, -0.028496, -0.344833, -0.009413, -0.054426, 0.001975, -0.293679, 0.359587, -0.000648, -0.217682, 0.054806, -0.081480, 0.172556, 0.088938, 0.251633, -0.028283, 0.030643, 0.140381, 0.212292, -0.454330, -0.150171, -0.403544, -0.094144, 0.284535, -0.240479, -0.008241, -0.211521, -0.226506, -0.044860, -0.108611, 0.000482, 0.318607, -0.397791, 0.092331, 0.351267, 0.014655, -0.001175, 0.325119, 0.046953, -0.128432, -0.008919, 0.083693, 0.332229, -0.537337, 0.010264, -0.180748, 0.070106, -0.013303, -0.006895, 0.024897, 0.238003, 0.046593, 0.037635, -0.348962, -0.259798, -0.024303, -0.001609, 0.135544, -0.469842, -0.015754, -0.415629, 0.527388, -0.191088, -0.015844, 0.523153, 0.402562, -0.115888, 0.542751, 0.002464, 0.006821, 0.001186, -0.094595, -0.286274, -0.241786, 0.438654, -0.358322, 0.212789, -0.013738, 0.221086, -0.425948, 0.170436, -0.085466, -0.261671, 0.001394, -0.012013, 0.033827, 0.110216, -0.325277, 0.336077, -0.229402, -0.468173, 0.004533, -0.016208, 0.001041, 0.181588, -0.023750, -0.132669, -0.278873, 0.255617, 0.127410, 0.199269, 0.541400, 0.000847, -0.001878, 0.097304, -0.122611, 0.000122, -0.399775, -0.009316, -0.281145, 0.445490, -0.481153, -0.422745, -0.015042, -0.154964, -0.100738, -0.106595, 0.107062, 0.435791, 0.121083, -0.280393, 0.387617, 0.041484, -0.138599, -0.054276, 0.007424, -0.135537, -0.117416, 0.002092, 0.000076, 0.001109, 0.120894, 0.001546, -0.494536, 0.104505, 0.023846, 0.022423, 0.000344, 0.006164, -0.235792, -0.114341, 0.130415, 0.237684, 0.002421, -0.013962, -0.142805, 0.056521, -0.467761, -0.147038, -0.177316, 0.000743, 0.075731, -0.002426, 0.228815, 0.420304, -0.187569, 0.252870, -0.532091, 0.000552, 0.004095, 0.003843, 0.511245, 0.002499, -0.147672, -0.004298, 0.002440, -0.000269, 0.005590, 0.000949, 0.001071, 0.129248, 0.181408, 0.082879, 0.001844, 0.002266, 0.001270, 0.092884, -0.000376, 0.141156, -0.057075, -0.000235, 0.002895, -0.002266, 0.223025, -0.138376, -0.004893, 0.055558, 0.045677, 0.035441, 0.163006, 0.006752, 0.077834, -0.271837, 0.212998, 0.478388, 0.016625, 0.186410, -0.375760, 0.031454, -0.082768, -0.001626, -0.309746, -0.019094, 0.066024, 0.043005, 0.002531, -0.000749, 0.158711, -0.175578, 0.173861, 0.298880, 0.116628, 0.287420, -0.004120, -0.072026, -0.001576, -0.194143, 0.208781, -0.067225, -0.087018, 0.086076, 0.062996, 0.310607, 0.029206, 0.071727, -0.017163, 0.503737, -0.086485, -0.001504, 0.436318, 0.054816, 0.317608, 0.001851, 0.040232, -0.003021, 0.002780, -0.207309, -0.269740, 0.317429, 0.225749, -0.000081, 0.290847, -0.175167, -0.240554, -0.301721, -0.296328, -0.000855, 0.251945, -0.063510, 0.152526, -0.256374, -0.000600, 0.046491, -0.001342, 0.175959, 0.015430, -0.271768, 0.251989, 0.001315, 0.129071, 0.062250, 0.002215, 0.017797, -0.121365, -0.402238, -0.128077, -0.061733, -0.196213, -0.120723, -0.290942, 0.002501, 0.032903, 0.003879, -0.000183, 0.006347, 0.341189, 0.004869, 0.014779, 0.126027, -0.000434, 0.019123, 0.001142, -0.005357, -0.006252, 0.102365, 0.000725, 0.180905, -0.005415, 0.087192, 0.004544, -0.005918, 0.219642, 0.403367, 0.297557, 0.003841, -0.006492, -0.000126, 0.211585, 0.109808, 0.064438, -0.072211, -0.147687, 0.000313, -0.004613, 0.318913, -0.002497, 0.010837, 0.000777, -0.002117, -0.010697, 0.000954, -0.120581, -0.003243, -0.019338, -0.004417, 0.137283, 0.287338, -0.194565, 0.208437, 0.101006, 0.107476, 0.199884, 0.264767, -0.011361, -0.410666, 0.178361, 0.004835, -0.007321, 0.118504, -0.023087, -0.005630, 0.162159, 0.230153, -0.002616, -0.075026, 0.037227, -0.520513, -0.042992, 0.237378, -0.110216, 0.009019, -0.475762, -0.054917, -0.088115, 0.295698, -0.482467, 0.007597, -0.202544, 0.011259, -0.011079, 0.074515, 0.000023, 0.050940, 0.423097, -0.158576, -0.018760, -0.400526, -0.102868, 0.751011, 0.025597, 0.001882, 0.053539, -0.185385, 0.073208, -0.015062, -0.002666, 0.004951, 0.001478, 0.004023, -0.456337, 0.238134, -0.103556, -0.111358, -0.093769, -0.029487, -0.039183, -0.220945, 0.101176, 0.000385, -0.473325, -0.082550, 0.002648, 0.465986, -0.198135, 0.068778, 0.748571, -0.291448, 0.144320, 0.521794, 0.479810, 0.169036, -0.015308, -0.199601, -0.115335, 0.103236, -0.448827, 0.540357, -0.001331, -0.362192, -0.609242, -0.318626, -0.033747, -0.206762, 0.002652, -0.000796, -0.026017, -0.000505, -0.047158, 0.313040, 0.007789, -0.323813, 0.406588, -0.327778, 0.283540, 0.362962, 0.037461, 0.122369, 0.135789, 0.083054, 0.016256, 0.150358, 0.107064, -0.268085, -0.078574, -0.000549, -0.287983, 0.000519, -0.293628, 0.398977, 0.312011, 0.001153, -0.311529, 0.051486, 0.015100, 0.372017, -0.002881, 0.485428, 0.243792, 0.305980, 0.634760, 0.244002, -0.125509, -0.574883, -0.033201, 0.038718, -0.093506, 0.239780, -0.330526, -0.384968, -0.312647, 0.001009, -0.508064, 0.303235, -0.426196, 0.359297, 0.069709, 0.067925, -0.091652, 0.152160, 0.454108, -0.252143, -0.098925, 0.230444, -0.058223, 0.016668, -0.166445, -0.412938, 0.034799, 0.129695, -0.038215, -0.026474, 0.234543, 0.366908, 0.000309, -0.025680, 0.099186, 0.394218, 0.050223, -0.031553, 0.252581, -0.492477, 0.382285, -0.022358, 0.122398, -0.165112, -0.402944, 0.256171, -0.047374, 0.001577, 0.005023, -0.028153, -0.006318, 0.361810, 0.218412, -0.073343, -0.097756, -0.289507, -0.015844, 0.081193, 0.020568, 0.415454, 0.260789, -0.348239, -0.034332, 0.000523, -0.287704, 0.183967, -0.329918, -0.408374, -0.084127, 0.049590, 0.212500, 0.280261, 0.343148, 0.000619, -0.032442, 0.021736, 0.223908, -0.001939, -0.275410, -0.559746, 0.013525, 0.004336, -0.184403, 0.066493, -0.103536, 0.032142, -0.011306, -0.186565, -0.355453, -0.227269, 0.001958, -0.312663, 0.000773, -0.062086, 0.314392, 0.362901, -0.213133, 0.383368, 0.313831, 0.002077, -0.032835, 0.003836, 0.461468, -0.052879, 0.146992, -0.157929, -0.276795, 0.207555, -0.055353, 0.001718, 0.245543, 0.036703, -0.290351, -0.122515, -0.175361, 0.139266, -0.001350, 0.374192, -0.371459, -0.053833, -0.074703, 0.001351, 0.119385, -0.001071, -0.000181, 0.001028, 0.412406, -0.002105, -0.323628, 0.451226, -0.067565, -0.329307, 0.000089, 0.114479, -0.001110, -0.493955, 0.001055, 0.003234, 0.134492, 0.005119, -0.018771, -0.136243, -0.002512, -0.091099, 0.320635, -0.807930, -0.115537, 0.013139, -0.011694, -0.005127, 0.613716, -0.150137, 0.360688, -0.085948, 0.326859, -0.093199, 0.005611, -0.096588, -0.250925, 0.000368, -0.087349, 0.171341, 0.005113, -0.332115, -0.056990, -0.000139, 0.003885, -0.203106, 0.010494, 0.064681, 0.033405, -0.045937, 0.094469, 0.000723, -0.117627, 0.005675, 0.141888, 0.108132, -0.051743, -0.039374, -0.015185, 0.048802, -0.148085, 0.333273, 0.253140, 0.123787, -0.063909, -0.001473, -0.329823, 0.035666, -0.360346, -0.328827, -0.225084, -0.047819, 0.298700, 0.001309, 0.404851, 0.001056, 0.315000, 0.291473, -0.070698, -0.191012, -0.439113, -0.043899, -0.073139, -0.051905, -0.226576, -0.000185, -0.411099, 0.002264, 0.048942, 0.188808, 0.356890, -0.000131, 0.280595, 0.268914, -0.315474, 0.047778, -0.002315, 0.001826, 0.001630, -0.126865, 0.003673, -0.023207, 0.302361, -0.022403, -0.053532, 0.146864, 0.119599, -0.296902, 0.055153, 0.196168, -0.000891, 0.087399, -0.007324, 0.003474, 0.001188, 0.001582, 0.027276, 0.012105, 0.022360, 0.504768, 0.076192, 0.039623, -0.001069, -0.361526, 0.093019, 0.001725, 0.223077, -0.368424, 0.001862, 0.002569, -0.152377, -0.099639, -0.442461, -0.175016, 0.019480, 0.109022, 0.342864, -0.001012, -0.085853, -0.009969, -0.041443, 0.000029, 0.137454, 0.363061, 0.016961, -0.012125, 0.102526, -0.001717, 0.000226, 0.096018, 0.002299, 0.069314, -0.308743, 0.280847, -0.107516, -0.160344, -0.522956, 0.393428, 0.629433, 0.359488, 0.235127, -0.403699, 0.124106, 0.006255, -0.138083, 0.001011, 0.017292, 0.296670, -0.558363, 0.156847, -0.524568, -0.056767, 0.571508, 0.009793, 0.083508, -0.167668, 0.135197, -0.272110, -0.744926, 0.240756, -0.726022, 0.276489, 0.610311, 0.196776, -0.128979, -0.004156, -0.415714, -0.830846, -0.000873, 0.402287, -0.118050, -0.254087, -0.319258, 0.161776, 0.040652, 0.528643, -0.444749, 0.585236, 0.000147, 0.000332, 0.619595, 0.059182, 0.412926, 0.780756, -0.495954, -0.407897, -0.179572, 0.409196, -0.641407, -0.016991, 0.753871, 0.141475, -0.603859, 0.158856, -0.245179, -0.360232, -0.311686, 0.115910, 0.203330, -0.015114, 0.000994, 0.036153, -0.001697, 0.014114, 0.145637, 0.000601, -0.474219, 0.113499, 0.054963, 0.020482, 0.187403, 0.001788, -0.168361, 0.396696, 0.389956, -0.314329, 0.135105, 0.410945, 0.051077, -0.007238, -0.150432, 0.254563, 0.728544, -0.356048, 0.142408, 0.099053, 0.200603, 0.017294, 0.317544, 0.013994, -0.003890, 0.577367, -0.866362, -0.176430, 0.292408, 0.089914, 0.002562, 0.000701, -0.000406, -0.163517, 0.603968, -0.647264, 0.131724, 0.007860, 0.256576, -0.218182, -0.709801, -0.018643, -0.256185, 0.107813, -0.016013, -0.013726, 0.425369, 0.194300, 0.096841, -0.078776, -0.056562, -0.378878, -0.212367, -0.183216, -0.553154, 0.235514, -0.002792, -0.002887, -0.040510, -0.151281, 0.127118, -0.208891, 0.009898, 0.321500, 0.132348, 0.133613, 0.121926, -0.179640, 0.212741, 0.000057, 0.057750, -0.224699, 0.142406, 0.032983, 0.006242, -0.000807, -0.418214, -0.371580, 0.146584, 0.498816, 0.003144, 0.064978, -0.073138, 0.012639, -0.020854, 0.023025, 0.277712, -0.106420, -0.064682, 0.039314, -0.452905, -0.106374, 0.023326, 0.132986, 0.031798, 0.003023, -0.437535, -0.259014, 0.696885, 0.383287, -0.163835, -0.128542, -0.072749, 0.281211, 0.208706, -0.437721, 0.274215, 0.000979, -0.274170, -0.258151, 0.245294, -0.095918, -0.637160, -0.164266, 0.084661, 0.098284, 0.063415, -0.114705, 0.203220, 0.012126, -0.070987, 0.099052, 0.305815, 0.150662, 0.000696, -0.002941, 0.414949, -0.174375, -0.101997, -0.137797, -0.007372, 0.000017, 0.227826, -0.045684, 0.048970, -0.039216, -0.000233, -0.201208, -0.197567, 0.268309, 0.002213, -0.168611, -0.159943, -0.049053, -0.222810, -0.263614, 0.247626, 0.019152, 0.033206, -0.132279, 0.100447, 0.081036, 0.229533, 0.001936, 0.003970, 0.254967, -0.188361, -0.131801, -0.055257, 0.001088, -0.000414, -0.343863, -0.049187, 0.000091, 0.004267, 0.431163, -0.081449, 0.174001, -0.217016, -0.229362, 0.163434, 0.001846, -0.022473, -0.000653, 0.284874, -0.092614, 0.350823, 0.215187, -0.024428, 0.022392, -0.183738, 0.003198, 0.120426, 0.099681, 0.321732, -0.333689, 0.102179, 0.001362, -0.001027, -0.001900, -0.220281, -0.000760, -0.001592, -0.000206, 0.002858, 0.000473, 0.323774, 0.032987, 0.101831, -0.051264, -0.002711, -0.000383, 0.424685, -0.145377, -0.016836, -0.134256, 0.245805, -0.000960, -0.015500, 0.000183, 0.002510, -0.080221, 0.002729, -0.040579, -0.309422, 0.042695, -0.124353, -0.014013, 0.458407, 0.312235, 0.190568, 0.001542, -0.010545, 0.000268, 0.059785, -0.002446, 0.183213, -0.000733, -0.150281, 0.343218, 0.047703, -0.230993, -0.181083, 0.082453, -0.026859, 0.284944, 0.001345, 0.001606, -0.023486, -0.199383, -0.065091, 0.043381, 0.002661, 0.007133, 0.060733, -0.086952, -0.048560, 0.055440, 0.326177, 0.001756, -0.002310, 0.555164, -0.658930, -0.333300, -0.510598, 0.584648, 0.503147, -0.419563, 0.243075, -0.593078, -0.499236, -0.134154, 0.029500, -0.223735, 0.331032, 0.175293, -0.086223, -0.339576, -0.211202, 0.713250, -0.260553, 0.311766, -1.400923, -0.326621, 0.210825, -0.473112, -0.371474, 0.459349, 0.097180, 0.135460, 0.004467, -0.736430, 0.437131, -0.559765, -0.527675, -0.009335, 0.368161, -0.145512, 0.438185, -0.389597, -0.244689, -0.475891, -0.032367, 0.902538, -0.091962, 0.309334, -1.237476, 0.036265, -0.941865, 0.072482, 0.047895, 0.199971, 0.647867, 0.373203, 0.600353, -0.315173, -0.020640, 0.189184, 0.380186, 0.149667, 0.369911, -0.716364, 0.559944, -0.000136, -0.327531, 0.001248, -0.276088, 0.076027, -0.001734, 0.071327, -0.061375, 0.023262, -0.197994, 0.024398, -0.094030, 0.249236, 0.000533, -0.131180, -0.157548, 0.153117, 0.354257, 0.001184, -0.086773, -0.108185, 0.065859, 0.000916, -0.000256, -0.149186, -0.000710, 0.001062, 0.264670, -0.106399, -0.192301, 0.000005, 0.039486, -0.230704, 0.235190, 0.251230, -0.002015, 0.011696, -0.001659, -0.073957, 0.154359, 0.150828, -0.252080, 0.001194, 0.000155, -0.091641, 0.041239, -0.045589, 0.469223, -0.000689, 0.000852, -0.010086, -0.417681, -0.001370, 0.267040, 0.317130, 0.278769, -0.000017, 0.006639, 0.065037, 0.173112, 0.001243, -0.138026, -0.017371, 0.037673, 0.000751, 0.057235, -0.044413, -0.107844, 0.000825, -0.047871, -0.113907, -0.162185, 0.027563, -0.003074, -0.163970, -0.476778, 0.033221, -0.323783, -0.255642, -0.133925, -0.445843, 0.000884, -0.306929, 0.080736, -0.001104, -0.009222, 0.116633, 0.274362, -0.034357, -0.459866, -0.000279, -0.019003, 0.485394, 0.001788, -0.253220, -0.451029, -0.000859, -0.000037, 0.390927, 0.295439, 0.054803, 0.002511, -0.384324, 0.311550, -0.000755, -0.056032, 0.255768, -0.093060, -0.055370, -0.065219, -0.000643, -0.067140, 0.364909, -0.000518, -0.012949, -0.324828, 0.584148, -0.119599, 0.345837, 0.296456, 0.243982, 0.000565, -0.017802, -0.296727, -0.402974, 0.054540, 0.000570, 0.115908, -0.004907, 0.001761, 0.318033, 0.116643, 0.173219, -0.116956, -0.313286, 0.204869, -0.045205, 0.000841, -0.234594, -0.099786, -0.154755, -0.038829, -0.037357, 0.224742, -0.518035, -0.061305, -0.124883, -0.000241, -0.286172, -0.210710, 0.001476, -0.041297, -0.069100, 0.119250, -0.913140, -0.017919, 0.551999, 0.023918, -0.278449, 0.463680, 0.358065, 0.565114, -0.011960, -0.506896, 0.255714, -0.000528, -0.029785, 0.400964, -0.009670, -0.126842, 0.024359, 0.126517, 0.020945, -0.600763, 0.404135, -0.080573, -0.000283, -0.030972, -0.003376, 0.002188, -0.001446, 0.249860, -0.241677, -0.001051, 0.001953, -0.297368, 0.142223, 0.263743, -0.235523, -0.058971, 0.101206, 0.130955, 0.377214, -0.000628, -0.217137, 0.077947, -0.212141, -0.012938, 0.098213, 0.011516, 0.145007, -0.073053, -0.161979, -0.069496, 0.164790, -0.083326, -0.006195, -0.005007, 0.121262, -0.154998, 0.025345, -0.030444, -0.142557, -0.002712, 0.002416, 0.059696, 0.191830, 0.053269, 0.110643, 0.039423, 0.062928, 0.127031, 0.060329, -0.069282, 0.191816, 0.000301, -0.128145, -0.191057, -0.028874, -0.097710, -0.187227, -0.000496, 0.038593, -0.038851, 0.212646, -0.097399, -0.024147, -0.013231, 0.235944, 0.095315, -0.103863, -0.106223, -0.000427, -0.103279, -0.088287, 0.000767, -0.092380, 0.000382, -0.228538, -0.000655, -0.046174, -0.002026, 0.066695, 0.003088, 0.131110, 0.133407, 0.026157, -0.416286, 0.163622, -0.085563, 0.105903, -0.109684, 0.000082, -0.047233, 0.103694, -0.001990, -0.208562, -0.366105, 0.078942, -0.045843, -0.155964, 0.031447, -0.153923, -0.046510, 0.002057, 0.020657, -0.003028, 0.108595, 0.004726, 0.193145, -0.000192, 0.009500, -0.000290, -0.102045, -0.000274, 0.087799, 0.060575, 0.111670, 0.000953, 0.000043, 0.140982, -0.070111, -0.046544, -0.000568, 0.209216, -0.006046, 0.001376, 0.000156, 0.180328, 0.099031, 0.117099, -0.215553, -0.074052, -0.057597, -0.027494, -0.020767, -0.000303, -0.088508, -0.020871, -0.037102, 0.172966, -0.156033, 0.030243, -0.021060, -0.000502, -0.000068, -0.149590, -0.001479, 0.040750, 0.004161, 0.215750, 0.001036, 0.045311, -0.021626, -0.065796, -0.000004, -0.353387, -0.149946, -0.175848, -0.000185, 0.252963, 0.024211, 0.103848, 0.370262, -0.120503, 0.060781, 0.347018, 0.061010, -0.295480, 0.102194, -0.000701, 0.096444, -0.000325, 0.263402, 0.070996, 0.130835, 0.055028, -0.223376, -0.097215, 0.080360, -0.013170, 0.140436, 0.007180, 0.066666, 0.336264, -0.202250, 0.350887, -0.060448, 0.014615, -0.001642, 0.099087, 0.073486, 0.177295, -0.000580, -0.127585, 0.043021, 0.097014, 0.490102, -0.127413, 0.033274, -0.124277, -0.000765, -0.050986, -0.050282, 0.004276, -0.020921, 0.076384, -0.217677, 0.138674, 0.000147, 0.046500, -0.047142, -0.045448, -0.000591, 0.060765, -0.055131, -0.000252, -0.149378, 0.000580, -0.055419, -0.002177, -0.272317, 0.080895, -0.113760, -0.000455, -0.001955, 0.001118, 0.000571, 0.000134, 0.007311, -0.233602, 0.007265, 0.000213, 0.000963, 0.002757, 0.538840, 0.028358, 0.243939, -0.156527, 0.086112, 0.000938, 0.215559, -0.041844, 0.071168, -0.245059, -0.098612, -0.001615, -0.096792, -0.241650, 0.000069, 0.138419, -0.064856, -0.000094, 0.302142, -0.000782, 0.009552, 0.055319, 0.126834, 0.001674, 0.243605, -0.211211, -0.242119, -0.001760, -0.002236, -0.010743, -0.016862, -0.179108, -0.253326, 0.046498, -0.000041, -0.164523, 0.324822, -0.000297, -0.340683, -0.000364, -0.003685, -0.001203, 0.128645, -0.196206, -0.187357, 0.001582, 0.129673, 0.002152, 0.028187, 0.403767, 0.017388, 0.070142, 0.091527, -0.255219, 0.000174, 0.491084, -0.122572, -0.120881, -0.534997, -0.127488, -0.014600, 0.157503, -0.001280, 0.111797, -0.278002, -0.632874, 0.550864, -0.209435, -0.620934, 0.620495, 0.226847, 0.040522, -0.080884, -0.082218, -0.426618, 0.542377, -0.000238, -0.360733, -0.277334, -0.109664, 0.026623, 0.008923, 0.406227, -0.120714, -0.541485, 0.346829, 0.269402, -0.330332, 0.835160, 0.043104, 0.193141, 0.238572, 0.232256, -0.158423, -0.237927, 0.000959, -0.369279, 0.122761, -0.066138, -0.304210, 0.425505, -0.384254, -0.008197, 0.126933, -0.193462, 0.458132, 0.001580, -0.568186, 0.168233, 0.250135, 0.033562, 0.260420, -0.042438, -0.130098, -0.142008, -0.081471, 0.081391, 0.312989, -0.225235, -0.003745, -0.067322, 0.079716, -0.130238, 0.020828, 0.386363, 0.167672, 0.119650, 0.086062, -0.162789, -0.330433, -0.497404, 0.345136, -0.055762, 0.257759, 0.131729, -0.063920, 0.002906, 0.176980, 0.038702, -0.286208, -0.139292, 0.021927, -0.266245, 0.024163, -0.266369, 0.205074, -0.528333, -0.090672, -0.100952, -0.382982, 0.100635, -0.173706, 0.033041, -0.181299, 0.181937, -0.088446, 0.192222, 0.261204, 0.292369, 0.109190, 0.103874, 0.306986, 0.304311, 0.014022, 0.063651, -0.127459, -0.210050, -0.151765, -0.263874, 0.211123, -0.068176, 0.002541, 0.002330, 0.000457, -0.003201, 0.241225, -0.099531, 0.203893, -0.000382, -0.000596, -0.234364, 0.432130, -0.515215, 0.433222, 0.290686, 0.270899, -0.004959, -0.240332, 0.059454, -0.206801, -0.072949, -0.000332, -0.301213, -0.039944, -0.002530, -0.016082, -0.149688, -0.020816, 0.063374, -0.434679, 0.067310, 0.086592, -0.215714, 0.058442, -0.269737, -0.122324, 0.009829, 0.306686, 0.000670, -0.136648, 0.025562, -0.314164, -0.101639, -0.053046, -0.077529, 0.178446, -0.050992, 0.165920, -0.003196, 0.110336, 0.230189, -0.126490, -0.017481, -0.030810, -0.007530, -0.001311, 0.195841, -0.197127, 0.132426, 0.157940, -0.214017, -0.027580, -0.415078, 0.121722, 0.023349, 0.023200, 0.220431, -0.246113, 0.140830, 0.001134, 0.239087, 0.035262, 0.083659, 0.160952, -0.136194, -0.039509, -0.025696, -0.027241, -0.167776, 0.113513, -0.094635, 0.057151, 0.138700, 0.009224, -0.069998, 0.102456, 0.312794, -0.408178, -0.249143, 0.008517, 0.001119, -0.000313, 0.221992, 0.003214, 0.180596, -0.117142, -0.135934, -0.088472, 0.506047, 0.025668, -0.059161, 0.038511, 0.066263, 0.000144, 0.149932, 0.010707, -0.152330, -0.157164, 0.043878, 0.001321, -0.048865, 0.146179, 0.242864, -0.156388, 0.118144, 0.057132, 0.316477, 0.004923, 0.231742, -0.036455, 0.477024, -0.155315, 0.101145, 0.004243, -0.000313, -0.194744, 0.094341, 0.193129, -0.267629, -0.452692, -0.097527, 0.152751, -0.053570, 0.416010, 0.025080, 0.005522, -0.121778, -0.128338, 0.001171, 0.000111, -0.293744, -0.079024, -0.222097, -0.039567, -0.018963, -0.436408, -0.306577, -0.194524, -0.020909, -0.145424, -0.000185, 0.090108, -0.008634, -0.129357, 0.124680, -0.150997, 0.006609, -0.313401, -0.175485, 0.000868, 0.460973, -0.217984, 0.349382, -0.442993, -0.282796, 0.000483, -0.223733, -0.030664, -0.001519, 0.335748, -0.229255, -0.018812, -0.055702, 0.155235, -0.618441, 0.004352, -0.081347, 0.000608, 0.002519, -0.161198, -0.664315, -0.001453, -0.274690, 0.083853, 0.178057, 0.046043, 0.093950, 0.000942, 0.203833, -0.006514, 0.002437, 0.164370, 0.102687, 0.203471, -0.095932, 0.020099, 0.254916, 0.000295, 0.187693, 0.087788, 0.232663, 0.031678, 0.002063, -0.173528, 0.398711, -0.000467, 0.275390, 0.000447, -0.443581, 0.195375, 0.038812, -0.001069, -0.470579, -0.001527, -0.168470, -0.196018, -0.001314, 0.038321, 0.348577, -0.119271, -0.093707, -0.060449, 0.049690, 0.393751, 0.323690, -0.237524, 0.568609, 0.003249, -0.039164, -0.240781, -0.000417, 0.001808, 0.000295, 0.033803, -0.000959, 0.290231, 0.059933, 0.475269, -0.441671, -0.249852, -0.203269, 0.067809, 0.173336, 0.161718, -0.168605, 0.041838, -0.223045, -0.473659, -0.154394, -0.693353, 0.137961, -0.172106, -0.350056, -0.526824, -0.297801, 0.597021, -0.243773, -0.165200, -0.190433, -0.002818, -0.181457, -0.093844, -0.251956, -0.416019, -0.334871, 0.121080, 0.215863, 0.271158, -0.043681, -0.374344, -0.407822, -0.141576, -0.002417, -0.002106, -0.004450, -0.238632, 0.240722, 0.001693, -0.276907, -0.030477, -0.001326, 0.001602, 0.098440, -0.001398, 0.042421, 0.006992, -0.000986, -0.035257, -0.003488, 0.050491, -0.438955, 0.372970, -0.001615, 0.151277, -0.049032, 0.010575, 0.382248, 0.227049, -0.540285, 0.032465, 0.147963, -0.177775, -0.001602, -0.432058, 0.572050, -0.073121, -0.024725, -0.126836, -0.001864, -0.181019, 0.001702, 0.106766, 0.004472, -0.001572, 0.206896, -0.034286, -0.242164, 0.002869, -0.004548, 0.201660, 0.242828, 0.011031};

#endif
