//Numpy array shape (18, 6)
//Min -0.499527573586
//Max 0.493460178375
//Number of zeros 0

model_default_t w2[108] = {0.374830842018, 0.101664304733, 0.445979714394, 0.043223738670, -0.476643800735, 0.416180253029, 0.081171989441, 0.364347219467, 0.353318572044, -0.128661036491, -0.253546237946, -0.490260958672, -0.022931456566, -0.007472515106, -0.045700073242, 0.358616113663, -0.261371374130, -0.265596270561, -0.005949258804, 0.264538168907, 0.350660562515, 0.195434451103, -0.366375923157, 0.191598176956, 0.253496885300, 0.258509874344, 0.445080995560, -0.360809803009, 0.245632767677, 0.227160811424, 0.424677610397, -0.232787847519, 0.411081910133, 0.466700673103, -0.264266371727, 0.074416279793, 0.168621659279, 0.270994544029, -0.029290437698, 0.230718970299, 0.217839121819, 0.203125238419, 0.420168638229, 0.145876169205, 0.392614126205, 0.005256891251, 0.457700014114, -0.336731314659, 0.404628276825, -0.421453118324, -0.268175244331, -0.114259362221, 0.031560540199, 0.118596196175, 0.409434914589, -0.124403595924, -0.486067295074, 0.016633272171, 0.493460178375, -0.334095716476, -0.162063598633, -0.499527573586, -0.421405673027, 0.154540538788, -0.246316194534, 0.226147294044, -0.175979375839, -0.102709054947, -0.438477277756, 0.402951717377, -0.393414020538, 0.231507062912, -0.034878015518, -0.006111741066, -0.459978699684, -0.375832080841, 0.480255603790, -0.371627569199, 0.356984972954, 0.074619889259, 0.310548901558, 0.001026034355, 0.163312911987, 0.179216504097, 0.287921786308, 0.076480984688, -0.161610126495, 0.266117215157, -0.404474258423, 0.414313197136, 0.292876362801, 0.044926404953, -0.104119896889, 0.363499641418, -0.002314925194, -0.317607522011, -0.227926492691, -0.489380478859, 0.004779100418, -0.226382613182, 0.026154398918, 0.476022839546, 0.197826504707, -0.067425012589, 0.259950757027, 0.398084640503, -0.040777921677, -0.010715603828};
