//Numpy array shape (4, 21)
//Min -3.200368642807
//Max 2.030719280243
//Number of zeros 0

bias_default_t w4[84] = {-0.067652940750, 0.245544224977, -0.037785246968, -0.155186533928, -0.119441740215, -0.004467933439, 0.005690977909, -0.234024822712, 0.623693406582, 0.666139066219, 0.082160346210, -0.254227906466, 0.026400445029, -0.037148971111, -0.175449967384, -0.054970491678, -0.245490610600, 0.037296593189, 0.160074084997, 0.096144303679, -0.018104650080, -0.291397839785, -0.610705256462, 0.300073266029, 0.075123749673, -0.125032365322, 0.202115058899, 0.013119646348, -0.378207206726, -1.107740879059, 0.150945842266, 0.411686122417, -0.353206574917, 0.158205702901, -0.007685337681, -0.647879123688, -0.549035966396, 0.588768184185, -0.284291237593, 0.463811039925, 0.015180516057, -0.008572645485, -0.300519406796, 0.104248695076, -0.012173675932, -0.692284941673, 0.022754181176, -0.141635134816, 0.012909902260, -0.024816021323, -0.364158630371, 0.411825269461, -0.399312168360, -0.144406914711, -0.196745306253, 0.008527610451, -0.661737143993, 0.344713598490, -1.032220125198, 0.741946816444, 0.388349324465, 1.275718808174, -0.079808704555, 0.513534963131, -0.293299049139, -0.824914097786, -0.850444316864, 0.089393824339, -0.141236633062, -0.032053146511, 0.027245279402, -0.563850522041, 1.288727521896, -0.736299693584, 0.010010291822, -0.779960215092, 0.047942828387, 1.114425182343, -1.083954095840, -3.200368642807, -0.182441666722, -1.246036648750, 2.030719280243, -0.071835912764};
