//Numpy array shape (784, 16)
//Min -1.584362030029
//Max 1.306461572647
//Number of zeros 0

weight_default_t w1[12544] = {-0.085042111576, 0.037089921534, 0.086258947849, -0.028648845851, 0.078338205814, 0.065319970250, 0.037265487015, -0.009934388101, 0.038030833006, -0.067234627903, 0.070413574576, -0.033291865140, 0.068932496011, -0.040921814740, 0.046680931002, -0.019140493125, 0.053681984544, -0.063666999340, -0.016116566956, -0.045175105333, 0.009518049657, 0.023962326348, -0.058940358460, -0.014312565327, 0.069501206279, -0.021098062396, -0.069934286177, 0.037598803639, 0.071518376470, -0.072503969073, 0.069753035903, 0.008153162897, 0.054470859468, -0.020779263228, 0.147407203913, 0.372846812010, 0.336687982082, 0.501032114029, 0.655885815620, 0.551784634590, 0.595913410187, 0.513074159622, 0.392085582018, 0.089925564826, 0.015548817813, 0.249026730657, 0.603259921074, 0.652056932449, 0.486899226904, 0.257230013609, 0.099303133786, 0.142898276448, 0.031315118074, -0.086139351130, 0.029991485178, -0.035607974976, -0.010691992939, 0.022308878601, 0.027303850278, 0.025358621031, 0.164335981011, 0.280155539513, 0.447665572166, 0.648061871529, 0.625681817532, 0.696741044521, 0.832758724689, 0.685469567776, 0.871926486492, 0.482791453600, 0.625477254391, 0.602201282978, 0.431330382824, 0.564234495163, 0.603285431862, 0.873861312866, 1.001737952232, 1.178255796432, 0.815984308720, 0.644556105137, 0.421076595783, 0.080610498786, -0.009076274931, 0.085869625211, 0.082252919674, -0.063687026501, 0.075299121439, -0.024746561423, 0.042286437005, 0.459478676319, 0.600281059742, 0.539937973022, 0.506582260132, 0.466478914022, 0.434728115797, 0.446199119091, 0.321991890669, 0.155464231968, 0.298823893070, 0.240093275905, 0.196962907910, 0.405479490757, 0.406479388475, 0.565870583057, 0.368436425924, 0.459533333778, 0.532819092274, 0.353317141533, 0.234148785472, 0.062279425561, -0.033569328487, 0.004816643894, -0.047402057797, 0.068119913340, 0.067699767649, 0.106180228293, 0.270954757929, 0.421165049076, 0.622210502625, 0.274098098278, 0.454607248306, 0.201432675123, 0.219126790762, 0.068000726402, 0.240795105696, 0.099791720510, 0.025327064097, -0.189133048058, -0.005459929351, 0.082349568605, -0.025632206351, -0.038465864956, -0.026794947684, 0.023585312068, 0.126481890678, 0.219635576010, 0.208531513810, 0.014474951662, -0.086802974343, -0.045593779534, -0.033943854272, -0.059161931276, 0.093010328710, 0.020724898204, 0.312435239553, 0.488520234823, 0.517245590687, 0.393835783005, 0.562708795071, 0.423442572355, 0.094110362232, -0.065624102950, -0.003919105977, -0.144829675555, -0.095577441156, 0.020560858771, -0.117516726255, 0.052526786923, -0.128336608410, -0.181813433766, -0.062257237732, -0.066860660911, -0.243546336889, 0.228824064136, 0.290176212788, 0.094314903021, -0.062411434948, -0.057762209326, 0.080918505788, 0.055703874677, 0.283453732729, 0.314948022366, 0.242000505328, 0.366828620434, 0.366995096207, 0.411592185497, 0.191167816520, 0.155034244061, -0.032060343772, 0.018700782210, 0.069842673838, -0.039092071354, -0.052980519831, 0.123367786407, 0.053648855537, 0.039077881724, -0.099568083882, -0.154368147254, -0.236191555858, -0.042129103094, -0.064908154309, 0.053042225540, 0.071282275021, 0.019053434953, 0.127766728401, -0.057795610279, 0.052177745849, 0.123257018626, 0.549296617508, 0.407277345657, 0.182112753391, 0.175623998046, 0.084683515131, 0.080599881709, -0.010788901709, 0.002119636629, -0.100452341139, 0.040385492146, -0.069875739515, -0.025217503309, -0.016194609925, 0.065546818078, -0.002816594206, 0.043885398656, -0.164997622371, -0.139327079058, -0.049708377570, 0.049335576594, -0.093492843211, -0.146369636059, 0.023102635518, 0.003233527299, 0.166634857655, -0.162175357342, -0.090733177960, 0.337487548590, 0.610743284225, 0.476535409689, 0.349680274725, 0.185493484139, 0.065265022218, 0.044679291546, 0.087532244623, 0.079702630639, 0.092411182821, -0.044522713870, -0.079492434859, -0.033674951643, -0.037675030529, -0.112972691655, -0.162091910839, -0.144639566541, -0.125722974539, -0.102394759655, -0.115666829050, -0.085629068315, -0.124967500567, -0.120030678809, -0.297187477350, -0.025877181441, 0.092786327004, -0.083777710795, 0.081228390336, 0.515143096447, 0.617929339409, 0.487058430910, 0.252551376820, 0.150602325797, -0.013345174491, 0.133024156094, -0.014977368526, 0.085186563432, 0.055647537112, -0.014951162972, 0.037088792771, 0.095243088901, 0.039022907615, 0.017426529899, -0.109466105700, -0.040364779532, -0.066575936973, -0.047084067017, -0.081884056330, -0.070984423161, -0.149821281433, -0.128798112273, -0.195410937071, -0.143949061632, -0.208158269525, -0.018093733117, 0.078363075852, 0.576918482780, 0.637279212475, 0.316317200661, 0.009198176675, 0.130084484816, 0.147117525339, 0.087110795081, -0.036043826491, 0.109713159502, 0.074711211026, 0.018878383562, -0.025481915101, 0.051487699151, -0.111602269113, -0.212470889091, -0.120805889368, -0.007888869382, 0.028333738446, 0.021131545305, -0.062955230474, -0.181713536382, -0.079648800194, -0.058252543211, -0.366568952799, -0.199691981077, -0.343332469463, -0.011477663182, 0.079161681235, 0.408685863018, 0.727130413055, 0.452108025551, 0.209776192904, 0.026043333113, 0.006519444752, 0.101280882955, 0.024005075917, 0.059827085584, 0.074671499431, 0.008322466165, 0.064821317792, -0.145025059581, -0.235705360770, -0.082398258150, 0.032993558794, 0.249714314938, 0.175426587462, 0.053348012269, 0.068802118301, 0.009399186820, -0.018390299752, -0.059348966926, -0.338242799044, -0.219350159168, -0.327040374279, -0.048424504697, 0.086983434856, 0.467505693436, 0.836661398411, 0.452657133341, 0.316876590252, -0.122303947806, -0.062954261899, 0.208353415132, 0.129022553563, -0.047286625952, -0.019577950239, 0.055503901094, -0.052707213908, -0.260225057602, -0.000317907135, 0.031015278772, 0.170362308621, 0.227269589901, 0.138694897294, 0.057410214096, -0.076348625124, 0.056187391281, 0.050567813218, 0.038704875857, -0.147665500641, -0.274718523026, -0.314226478338, -0.083449207246, -0.052614621818, 0.226474642754, 0.689948499203, 0.191878512502, 0.369180768728, 0.025530466810, -0.007318091579, 0.159131646156, 0.029815837741, -0.080033361912, -0.016215648502, -0.031302362680, -0.267456531525, -0.158872231841, 0.019720468670, 0.124303191900, 0.194698974490, 0.196564733982, 0.151954770088, 0.004560579546, 0.097568839788, 0.245508253574, 0.069561898708, 0.147501632571, 0.092521809042, -0.212272986770, -0.325771659613, 0.035560104996, -0.076787717640, 0.030475404114, 0.460068732500, 0.458345562220, 0.349638223648, 0.109874852002, -0.042661115527, 0.048247933388, 0.040215887129, -0.042476467788, -0.041067022830, 0.038082648069, -0.094580672681, -0.098985053599, -0.114135004580, 0.056542668492, 0.269406199455, 0.247006967664, 0.149570271373, 0.199729114771, 0.179739832878, 0.179404601455, 0.313715696335, 0.108612090349, -0.111245460808, -0.195071563125, -0.405917406082, -0.114471510053, -0.037161633372, 0.006714846939, 0.142558395863, 0.193135231733, -0.132589206100, -0.131338924170, 0.075768530369, -0.039419274777, -0.107210718095, -0.187371134758, 0.079610064626, 0.101544775069, 0.059112261981, -0.146000921726, -0.112934052944, 0.194918021560, 0.225882411003, 0.309161603451, 0.148004546762, 0.214537054300, 0.269316136837, 0.238871753216, 0.430029809475, 0.064398027956, -0.414595961571, -0.201821178198, -0.254441916943, -0.044669535011, 0.132145583630, -0.035248506814, 0.018750313669, 0.161443188787, -0.114871263504, -0.289458692074, 0.129523128271, 0.128279358149, 0.131412148476, 0.050596423447, 0.094528466463, 0.160328224301, 0.096094004810, -0.057921711355, 0.041142221540, 0.192713707685, 0.176173582673, 0.241034716368, 0.122371815145, 0.105082586408, 0.237686842680, 0.196650415659, 0.020389018580, -0.111862979829, -0.080146826804, -0.133400291204, -0.300460338593, -0.171709939837, -0.080241739750, -0.038020230830, 0.040353227407, -0.055300418288, -0.157064020634, -0.277166455984, -0.094512753189, 0.064523302019, 0.160239487886, 0.107465468347, 0.159748613834, 0.121515937150, -0.216172322631, 0.082998558879, 0.054185267538, 0.236745685339, 0.175306677818, 0.139144748449, 0.215293079615, 0.029109854251, 0.157888203859, 0.063651144505, -0.120607078075, -0.028063230217, 0.049907773733, 0.209589987993, -0.050030201674, -0.162680149078, 0.131242752075, 0.017286034301, 0.289882808924, 0.048870515078, -0.067344516516, -0.170631811023, -0.143080458045, 0.045172657818, -0.026549231261, -0.208021715283, -0.075423449278, -0.016672780737, -0.051474984735, 0.052593760192, 0.084690667689, 0.059530794621, 0.082356855273, 0.094166524708, 0.069246381521, 0.049735024571, 0.067857965827, -0.043233606964, -0.085653051734, -0.237349346280, -0.037914514542, 0.224537864327, 0.108555376530, -0.028402935714, 0.020263813436, 0.061095617712, 0.029455590993, 0.097090221941, 0.002071314026, -0.094200745225, -0.038001671433, -0.144819259644, -0.241212785244, -0.360534638166, -0.173695638776, 0.027415689081, -0.065736897290, -0.057975735515, 0.087281554937, 0.020700074732, -0.117026157677, -0.066117078066, -0.029592659324, -0.049148362130, -0.193963646889, -0.204358801246, -0.334703117609, -0.258392632008, 0.008133438416, 0.121938042343, 0.195527255535, -0.024469390512, 0.018410317600, 0.076703943312, 0.031773120165, 0.104376122355, 0.067933283746, 0.058893814683, -0.236952155828, -0.213306576014, -0.430690079927, -0.295616567135, -0.316475152969, -0.277410626411, -0.054336667061, -0.071140028536, 0.069414377213, -0.071589894593, -0.088168039918, -0.085432484746, -0.125942766666, -0.272979170084, -0.376800537109, -0.489555597305, -0.459047377110, -0.351007968187, 0.049502372742, -0.027508424595, 0.078423410654, 0.027548328042, -0.081735245883, 0.011970684864, -0.081864446402, 0.023965563625, -0.078645855188, 0.045476470143, -0.137139171362, -0.279594004154, -0.174062103033, -0.143345236778, -0.186646118760, -0.090459361672, 0.015103337355, -0.024668186903, 0.076978847384, -0.085655868053, 0.040305882692, -0.033236052841, -0.283155947924, -0.463587701321, -0.439614683390, -0.432096987963, -0.506860315800, -0.338409245014, 0.132154256105, 0.022276692092, 0.091831251979, 0.033356577158, -0.058963611722, -0.018738172948, -0.055441420525, -0.105116002262, -0.254573822021, -0.330671399832, -0.316318511963, -0.053949594498, -0.039388630539, 0.026662103832, 0.003140756162, -0.084522202611, -0.138843134046, -0.194230794907, -0.197516620159, -0.102607376873, -0.092024601996, -0.391649186611, -0.480509668589, -0.224113687873, -0.390852898359, -0.398965775967, -0.288486361504, -0.267358958721, 0.004922828637, 0.071035414934, -0.013638094068, -0.003040261567, -0.034377641976, 0.069909900427, -0.207637310028, -0.325192362070, -0.275127232075, -0.185835868120, 0.000908715825, 0.160518765450, 0.059646788985, -0.082351341844, 0.104802951217, -0.095792248845, -0.213369250298, -0.270584076643, -0.214804336429, -0.343844443560, -0.319848597050, -0.180570885539, -0.189896509051, -0.130803868175, -0.055665850639, -0.124577425420, 0.061719588935, 0.002912089461, 0.257269084454, 0.108098968863, 0.064955085516, 0.045960962772, -0.000333726406, -0.034370869398, -0.137850537896, -0.260851651430, -0.085809573531, 0.100895181298, 0.338524192572, 0.277453690767, 0.252661138773, 0.147707343102, 0.125336140394, 0.078326754272, -0.045357745141, -0.098497956991, -0.042804021388, -0.012580253184, 0.013615994714, 0.233132272959, 0.008502724580, 0.100580945611, 0.326877802610, 0.333990156651, 0.135245278478, 0.190411999822, 0.170736894011, 0.050589986145, 0.021333873272, -0.010346934199, 0.066575512290, -0.032096654177, -0.112871333957, 0.055717308074, 0.044235784560, 0.467516601086, 0.412264466286, 0.305252790451, 0.270591497421, 0.157627359033, 0.206398770213, 0.182446390390, 0.226751744747, 0.231357812881, 0.118423938751, 0.158121943474, 0.108929924667, 0.126038625836, 0.245836690068, 0.230826139450, 0.318024635315, 0.315051048994, 0.209971278906, 0.208657443523, 0.113082304597, 0.051212888211, 0.112792909145, 0.037008628249, 0.004116646945, 0.059593409300, -0.021454356611, -0.027899427339, 0.173390462995, 0.486766099930, 0.651722311974, 0.870075225830, 0.745774030685, 0.870097815990, 0.709733009338, 0.638686537743, 0.502532124519, 0.763339519501, 0.661953985691, 0.635541558266, 0.494078844786, 0.454593330622, 0.421107709408, 0.404644578695, 0.215481191874, 0.199957042933, 0.096433788538, 0.109514728189, -0.022316323593, -0.040863782167, 0.057835727930, 0.059764906764, -0.040476627648, -0.053101718426, 0.035710513592, 0.083096817136, 0.029318461195, 0.244057044387, 0.413272231817, 0.672781586647, 0.824501156807, 0.741280257702, 0.739846587181, 0.792757630348, 0.854495823383, 1.058671951294, 0.828788280487, 0.788742303848, 0.906517982483, 0.875544369221, 0.716254413128, 0.318903923035, 0.244064897299, 0.199583023787, 0.158679023385, 0.103556051850, -0.017055377364, -0.057100716978, -0.016588158906, -0.045003917068, 0.043145254254, 0.003020666540, -0.040561489761, -0.010561168194, 0.006968937814, 0.034395873547, -0.036745041609, -0.018755815923, 0.053877100348, 0.030182965100, -0.058252524585, 0.083469584584, 0.058526113629, -0.048761032522, -0.048199463636, -0.056835137308, -0.030263472348, -0.001946762204, 0.051203161478, 0.074433013797, -0.042801059783, -0.067346766591, 0.008753880858, 0.074695676565, -0.080930463970, -0.053050760180, -0.006829231977, 0.041928425431, 0.027460530400, -0.020641006529, -0.085219681263, 0.012587778270, -0.038833864033, -0.050576772541, -0.242021739483, -0.276075631380, -0.284066617489, -0.281771421432, -0.307969897985, -0.302201539278, -0.490400403738, -0.338020801544, -0.286558955908, -0.132779285312, 0.016539828852, -0.134878903627, -0.322259008884, -0.399131655693, -0.336694628000, -0.134110540152, -0.033194217831, 0.002635446144, 0.038266129792, 0.025075994432, 0.015476860106, -0.018742911518, -0.019859574735, 0.036179319024, 0.012896987610, -0.069179810584, -0.069174073637, -0.267201751471, -0.301597923040, -0.498760849237, -0.477332741022, -0.171257197857, -0.330628991127, -0.441297799349, -0.191347971559, -0.016841817647, -0.327366828918, -0.207998231053, -0.141193509102, -0.102567993104, -0.361692368984, -0.352885454893, -0.392116427422, -0.407013028860, -0.495104759932, -0.247622892261, 0.008586081676, 0.084517590702, 0.059771135449, -0.013700999320, -0.011643029749, -0.071799054742, -0.076026707888, -0.094332538545, -0.099046327174, -0.001180373249, -0.007215432823, -0.121205002069, 0.106616355479, 0.282111555338, 0.256599873304, 0.591863930225, 0.489272683859, 0.143546208739, 0.131133034825, 0.162622421980, 0.103807687759, 0.088581547141, -0.153261527419, -0.090924993157, 0.031520515680, -0.005714678206, -0.036664728075, -0.121313154697, 0.041423574090, 0.231579288840, 0.018264770508, -0.018165782094, -0.063787952065, 0.065431289375, 0.039907634258, 0.138770073652, 0.242434963584, 0.359728842974, 0.385428845882, 0.493310511112, 0.392318725586, 0.269968390465, 0.264057129622, 0.150217384100, 0.223628267646, 0.160420075059, 0.137702539563, -0.004164463375, 0.153416335583, 0.097904160619, 0.110810905695, 0.009721989743, 0.059498470277, -0.092376649380, 0.069303862751, -0.369262427092, 0.139957875013, 0.229610547423, 0.033817488700, 0.081118084490, -0.068975947797, -0.043708875775, 0.075544491410, 0.217446953058, 0.276584982872, 0.312913417816, 0.288635224104, 0.253417402506, 0.046955972910, 0.030847312883, 0.145357608795, 0.078368157148, 0.150472551584, -0.029610102996, 0.024778019637, 0.068942211568, 0.096420332789, 0.014696790837, 0.009671708569, 0.028262352571, -0.089909568429, -0.084822610021, -0.133087784052, -0.030610574409, 0.072624027729, 0.266537159681, -0.126727953553, -0.081596538424, 0.085504457355, 0.109269022942, 0.075473085046, 0.557219088078, 0.569517254829, 0.320826172829, 0.197590827942, 0.101395323873, -0.047051627189, 0.106115065515, 0.048006474972, 0.022391708568, 0.041108902544, 0.000484008255, -0.003543223487, -0.074185431004, 0.035301215947, -0.077412948012, -0.080628529191, -0.036419518292, -0.010542225093, -0.035171166062, 0.021734293550, 0.018543587998, -0.057948186994, 0.128434598446, -0.094367057085, -0.052290923893, -0.065711639822, 0.205714836717, 0.144248247147, 0.714208424091, 0.683026790619, 0.394854128361, 0.223064422607, 0.122616656125, 0.067526318133, 0.127437382936, 0.048031147569, 0.064730353653, 0.020373044536, 0.200471043587, 0.098255276680, -0.072429873049, 0.006939355284, -0.087773263454, -0.085068941116, 0.042841330171, 0.000288755633, -0.114713340998, 0.048080194741, -0.111439891160, -0.199928507209, 0.095108054578, -0.070807009935, 0.074327208102, 0.007907039486, 0.054800234735, 0.097681969404, 0.644034504890, 0.590534627438, 0.382191896439, 0.255436599255, 0.235008418560, 0.184183478355, 0.118967652321, 0.212046369910, 0.097964853048, 0.079243153334, 0.087601386011, 0.076315246522, 0.028923457488, -0.003703637747, 0.012830562890, 0.002022557659, 0.088131405413, -0.056567545980, -0.094412356615, -0.016092138365, -0.170683801174, -0.449865639210, -0.151447996497, -0.190827891231, -0.080291628838, 0.037745613605, 0.036389213055, 0.090265169740, 0.451479554176, 0.395916938782, 0.147497847676, 0.071697548032, 0.061076879501, -0.048248253763, -0.087025620043, -0.244227319956, -0.316373318434, -0.280044019222, -0.413093417883, -0.218548610806, 0.020345192403, 0.074906975031, -0.000309136667, -0.019403439015, -0.117927417159, -0.021746888757, -0.110128730536, 0.132649809122, -0.062328789383, -0.715152084827, -0.259778678417, -0.029059313238, 0.034697927535, -0.067458666861, 0.011631940491, 0.155225411057, 0.482827454805, -0.106538981199, -0.315919667482, -0.365848034620, -0.618957519531, -0.726152658463, -0.851646780968, -0.787409842014, -0.797746539116, -0.512635648251, -0.420047134161, -0.248700827360, -0.182398051023, 0.002458868548, 0.037170749158, 0.026794916019, -0.028735434636, -0.026906853542, -0.044828310609, 0.046021509916, -0.170785039663, -0.372114181519, 0.127363041043, 0.002102367813, -0.032587684691, -0.022239606827, -0.005006236490, -0.033020343632, 0.229587793350, -0.642631113529, -0.865759789944, -1.141965746880, -1.200878977776, -1.056187152863, -0.781920731068, -0.443349838257, -0.155900284648, -0.049732677639, -0.169479072094, -0.188354060054, -0.135604560375, -0.020428737625, 0.060935445130, -0.005577169359, 0.078308470547, -0.033275470138, -0.180392086506, -0.374848991632, -0.508837103844, -0.033388316631, 0.076945006847, 0.020084256306, -0.041802302003, -0.073675125837, 0.010306829587, 0.017201540992, -0.052331618965, -0.762119054794, -1.071776866913, -1.105449080467, -0.665093421936, -0.188968345523, -0.067169450223, 0.110493578017, 0.111793488264, 0.106927156448, 0.022858232260, -0.060084238648, -0.121679946780, 0.045624569058, -0.069140546024, 0.014735244215, -0.067260086536, -0.178286850452, -0.230604559183, -0.521333575249, -0.416543066502, 0.289747208357, 0.661745488644, 0.228363379836, 0.005330388900, 0.082756310701, -0.036253828555, -0.026684755459, -0.010660519823, -0.517974257469, -0.472131907940, -0.225677907467, 0.002730638022, 0.077102832496, 0.204682439566, 0.202707067132, 0.080590061843, 0.040453013033, 0.084246352315, -0.044031757861, -0.101499490440, 0.004056662321, 0.017303768545, -0.013720307499, -0.039535615593, 0.086742445827, 0.007206683513, -0.195725828409, 0.076721325517, 0.536332309246, 0.740175426006, 0.485933899879, 0.024276237935, -0.082193210721, 0.105250656605, 0.123823970556, 0.376319289207, 0.360997051001, 0.179376557469, 0.190390005708, 0.140758469701, 0.198249191046, 0.109219208360, -0.009555166587, -0.035426523536, 0.120759852231, 0.025972615927, 0.039086356759, -0.114809356630, -0.003366803750, 0.063339531422, -0.010338113643, 0.119588918984, 0.043939247727, 0.082997769117, 0.051234841347, 0.328819006681, 0.362985849380, 0.342427581549, 0.721046388149, 0.149886667728, -0.063947491348, 0.105295851827, 0.310054689646, 0.527397274971, 0.566922545433, 0.470435917377, 0.375666022301, 0.058711014688, 0.062958896160, 0.020488208160, -0.019415138289, 0.033264871687, 0.120610870421, 0.054551124573, 0.011857111938, 0.117266252637, 0.114026680589, 0.111106269062, 0.053836643696, 0.144580051303, 0.021142790094, 0.116631396115, 0.055054791272, 0.341426134109, 0.520528137684, 0.466642886400, 0.898119926453, 0.231539055705, 0.042861655354, 0.026053737849, 0.354089140892, 0.489971905947, 0.239173948765, 0.257845103741, 0.132068514824, 0.137462496758, 0.047715529799, 0.115413486958, -0.034680373967, 0.023895472288, 0.162396222353, 0.118453517556, 0.059919692576, 0.056816805154, 0.105820953846, 0.127975881100, 0.121662005782, 0.201376706362, 0.102541558444, 0.235111609101, 0.167097687721, 0.158773437142, 0.351521670818, 0.575843811035, 0.778595030308, 0.091140262783, 0.028438881040, 0.172793179750, 0.472376525402, 0.458053022623, 0.134864598513, 0.058065954596, 0.037866335362, -0.047214340419, -0.047940429300, -0.042346861213, -0.066347971559, 0.011348782107, 0.021800363436, 0.137585043907, -0.014302806929, 0.047922782600, 0.070832237601, 0.065322466195, 0.072716139257, 0.064869843423, -0.015572878532, 0.044889669865, 0.092565156519, 0.093383170664, -0.032110467553, 0.379795521498, 0.591993629932, 0.158357203007, 0.050591658801, 0.089077636600, 0.483351230621, 0.733179986477, 0.101386353374, 0.128820136189, 0.100044623017, 0.032730590552, -0.016829896718, -0.005958470050, -0.096900448203, -0.160475268960, 0.017970668152, 0.093309767544, 0.018251793459, -0.055047564209, 0.120583698153, 0.086995787919, 0.024860646576, 0.036011684686, 0.011834339239, 0.159372165799, -0.014390371740, 0.034391403198, 0.119751445949, 0.453244328499, 0.519049882889, 0.108853787184, -0.022584164515, 0.085564471781, 0.434088736773, 0.626598238945, 0.207447737455, 0.266292244196, 0.023734761402, 0.055618096143, -0.040980394930, -0.069425247610, -0.044989537448, -0.068970836699, -0.151973560452, -0.080325566232, 0.070053234696, 0.042758878320, 0.056084208190, 0.106576688588, 0.113868862391, 0.008478055708, -0.064676448703, 0.175033777952, -0.033757828176, -0.081966407597, 0.186956256628, 0.485600203276, 0.618816852570, -0.004728825297, -0.001813836396, 0.036141708493, 0.418239086866, 0.670931875706, 0.233256980777, 0.200663298368, 0.046392824501, 0.014536676928, 0.133380904794, 0.067069649696, -0.017719550058, 0.034486766905, -0.071636952460, -0.037518355995, -0.002615527250, 0.078362040222, -0.077450029552, -0.043912068009, -0.015129540116, -0.056161060929, 0.106013394892, 0.043179526925, -0.084672816098, -0.123125545681, 0.390502542257, 0.515930891037, 0.587961554527, 0.074799068272, -0.014554254711, 0.164892539382, 0.704955279827, 0.484567910433, 0.122896209359, -0.125517979264, -0.048667807132, -0.146419137716, 0.005432693288, -0.040862035006, -0.058112349361, -0.051889434457, -0.006276587956, -0.078648671508, -0.076232619584, 0.020815923810, -0.025335866958, 0.011344717816, 0.086970008910, 0.101192861795, -0.067241959274, -0.085652954876, -0.001352118794, 0.119410663843, 0.491189122200, 0.499501883984, 0.287435501814, -0.057540547103, -0.026076607406, 0.058224033564, 0.642950713634, 0.717526853085, 0.172483488917, -0.009454031475, 0.034031517804, 0.039163764566, -0.043130438775, -0.041218798608, -0.021483967081, 0.079149641097, -0.080669648945, -0.024469556287, 0.022682227194, 0.038631897420, -0.021878872067, -0.017799925059, -0.013459930196, 0.067874975502, 0.000002897452, -0.030424198136, 0.067889623344, 0.205053761601, 0.448367029428, 0.440241485834, 0.132213518023, -0.032444283366, -0.065444782376, 0.072104021907, 0.575688302517, 0.760636210442, 0.277741342783, 0.098714642227, 0.048782672733, 0.271379739046, 0.096629366279, 0.019597975537, 0.093673899770, 0.084240496159, -0.013264571317, 0.065368041396, 0.012855499983, -0.062158279121, 0.003306611441, -0.064456328750, 0.085738293827, 0.074542231858, -0.099640972912, 0.038031693548, 0.197436958551, 0.302839457989, 0.417543143034, 0.145641699433, 0.097916491330, 0.082621052861, 0.077328830957, -0.069655358791, 0.201713800430, 0.402802586555, 0.316773355007, 0.182845994830, -0.002815994434, 0.181869670749, 0.120065234601, 0.106268420815, 0.051697306335, 0.148874193430, 0.044445838779, 0.141062304378, 0.133209034801, 0.093459822237, 0.129435390234, 0.114020518959, 0.298851937056, 0.022722331807, 0.061763886362, 0.092588849366, 0.223867461085, 0.212335139513, 0.169991672039, -0.036805976182, 0.068743854761, -0.048488643020, 0.009570620954, 0.005958996713, 0.064491614699, 0.002175164875, 0.264255225658, 0.191498786211, 0.336671590805, 0.319003343582, 0.068793229759, 0.080349415541, 0.124539770186, 0.241660848260, 0.123058192432, 0.144672960043, 0.101944237947, 0.002501945011, 0.128840297461, 0.065479449928, 0.017206128687, -0.116705365479, -0.290763437748, -0.428507953882, -0.264696061611, -0.044112492353, -0.098533175886, -0.012997075915, -0.049677040428, 0.038115590811, 0.020870648324, 0.066396787763, 0.069007664919, -0.026844654232, -0.031083181500, -0.002626442583, 0.054013982415, -0.014422431588, -0.076766945422, -0.149914294481, -0.203435868025, -0.332596898079, -0.291869938374, -0.271953642368, -0.203860253096, -0.313620567322, -0.165110155940, -0.224239364266, -0.137987300754, -0.309522360563, -0.297582477331, -0.275065809488, -0.011455954984, -0.124190747738, 0.059650592506, 0.063753858209, 0.010591417551, 0.043435782194, 0.045411646366, -0.049824234098, -0.064831778407, 0.083287179470, 0.032681703568, 0.059374295175, -0.065473981202, -0.068586580455, -0.092199012637, -0.135028615594, -0.036282785237, -0.060691401362, -0.114381007850, -0.004417842720, 0.052352104336, -0.056373618543, 0.081276580691, 0.068760566413, -0.010911012068, -0.029830226675, -0.011968709528, -0.002849952085, -0.081643708050, -0.040425673127, 0.000722959638, -0.057018660009, -0.078989297152, 0.028061337769, -0.056087471545, 0.059108674526, -0.062881290913, -0.076408937573, 0.013935640454, -0.005317017436, -0.065616719425, 0.062737092376, 0.061707064509, -0.059245675802, -0.082875408232, 0.040707156062, -0.045725662261, 0.096745789051, 0.030634772032, 0.051211763173, -0.017176806927, -0.073461234570, -0.020238399506, -0.058510124683, 0.053062945604, -0.067532695830, 0.040380910039, -0.028160076588, -0.023553587496, 0.060477703810, -0.003812134266, -0.038930326700, -0.068220138550, -0.013366468251, 0.028004869819, 0.011075504124, 0.081448167562, 0.043627522886, -0.126563295722, -0.113151252270, -0.108644582331, -0.110552020371, -0.206371605396, -0.243517264724, -0.191562950611, -0.139101579785, -0.090174704790, 0.279343336821, 0.264451235533, 0.211391746998, -0.037617329508, -0.011074562557, -0.103739276528, -0.031739491969, -0.036938086152, -0.012084817514, 0.059786617756, -0.054612923414, -0.058343291283, 0.030434824526, 0.045747667551, -0.004394091666, -0.035116747022, -0.007942222059, 0.000426618848, -0.051421128213, -0.116053104401, -0.106586724520, -0.131591394544, -0.036137823015, -0.160005301237, -0.254883795977, -0.031827460974, -0.094174556434, 0.037838697433, 0.226379454136, 0.311949282885, 0.250874429941, 0.080141454935, 0.010304819793, -0.089507073164, -0.114658810198, -0.149323061109, 0.000650070840, 0.062581159174, 0.076045274734, -0.030184950680, 0.014366701245, -0.044788561761, 0.061072885990, 0.015054821037, 0.080792352557, -0.006985312328, 0.192661508918, 0.304496467113, 0.275227278471, 0.105288818479, 0.265506386757, 0.178283900023, 0.271903514862, 0.321165144444, 0.331563025713, 0.062467288226, 0.158531144261, 0.220622509718, 0.051275882870, 0.076953589916, -0.222466200590, 0.122380919755, 0.032905790955, 0.083861142397, -0.030876457691, -0.101083584130, 0.015521826223, 0.018689077348, 0.083900257945, -0.048539765179, 0.078437380493, 0.183222830296, 0.247347250581, 0.462294250727, 0.392442047596, 0.349612742662, 0.388772785664, 0.430913984776, 0.195271357894, 0.252845346928, 0.254904538393, 0.167325332761, 0.153856962919, 0.105831958354, 0.025483800098, 0.072108916938, -0.136712253094, 0.017113450915, -0.060235451907, -0.030216952786, -0.083626866341, 0.101869978011, -0.131592974067, 0.000056450372, 0.003522133222, 0.066680431366, -0.069342643023, 0.085038766265, -0.006777219474, 0.244835883379, 0.238526865840, 0.339428395033, 0.389384686947, 0.207398146391, 0.219404354692, 0.020908325911, -0.077911593020, 0.120411500335, 0.078146547079, 0.174676477909, 0.105402186513, 0.032714720815, 0.248325377703, 0.167964398861, -0.043112616986, 0.002460410120, 0.088358983397, 0.041495487094, -0.017021862790, 0.026166114956, -0.021875521168, 0.156286686659, 0.206864714622, 0.071703001857, 0.071538515389, 0.070865571499, 0.069507271051, 0.229325726628, 0.494052529335, 0.530676364899, 0.175826668739, -0.029708202928, -0.030757144094, 0.029621670023, 0.116538204253, 0.171966671944, 0.047535348684, 0.157045543194, 0.170529633760, 0.231696516275, 0.074830971658, 0.146913230419, 0.031406152993, 0.044720616192, -0.089501284063, -0.140456721187, -0.171016722918, -0.130203634501, -0.019534593448, 0.151249065995, 0.371990978718, 0.441588997841, -0.094764657319, 0.054865218699, 0.259110301733, 0.407835841179, 0.591261267662, 0.523678302765, 0.047779280692, -0.035881381482, -0.201341435313, -0.025212254375, -0.028212517500, 0.032354928553, -0.002183679957, 0.188572376966, 0.167734131217, 0.103537820280, 0.060878347605, -0.018603617325, 0.075904943049, 0.031355503947, -0.060026448220, -0.088495738804, -0.205304846168, -0.085318781435, -0.150947213173, -0.074947610497, 0.054258499295, 0.415277183056, -0.089149944484, 0.010082494467, 0.387069195509, 0.419599562883, 0.415759980679, 0.570323109627, 0.077497214079, -0.089611329138, 0.192899584770, 0.042342308909, -0.055568914860, 0.197516947985, -0.002179916482, 0.158278837800, 0.203202471137, 0.249538078904, 0.102022215724, 0.014314641245, 0.006381439045, 0.084236510098, 0.108919240534, 0.041325133294, -0.075596235693, -0.010445939377, -0.477987259626, -0.352726042271, 0.065244227648, 0.223180383444, 0.139493808150, 0.012434907258, 0.401147246361, 0.698485612869, 0.680030047894, 0.463029652834, 0.273763924837, 0.188271522522, 0.251036286354, 0.147346422076, 0.172798886895, 0.089655585587, -0.019854050130, -0.117374911904, -0.181701660156, 0.117357254028, 0.262574940920, 0.176305919886, 0.183373883367, 0.107464671135, 0.149790450931, 0.035435449332, 0.126795083284, -0.080790370703, -0.590050339699, -0.633270025253, -0.013357580639, 0.360147714615, 0.103154681623, 0.031815063208, 0.388105630875, 0.600904643536, 0.616227686405, 0.282599955797, 0.244945451617, 0.369180083275, 0.133866310120, 0.057758968323, -0.068717420101, -0.163189053535, -0.310348927975, -0.453122913837, -0.353828430176, -0.098649501801, -0.024736465886, 0.259126573801, 0.130805194378, 0.168293759227, 0.244165852666, 0.236986204982, 0.194533392787, 0.010470882058, -0.551340937614, -0.502079069614, 0.330262213945, 0.339132785797, 0.169788807631, -0.006248029415, 0.169857427478, 0.309407681227, 0.366325259209, 0.071288518608, -0.080279074609, -0.024759056047, -0.021277213469, -0.223868489265, -0.337473869324, -0.227217555046, -0.110634833574, -0.233764171600, -0.251240462065, -0.014440505765, 0.090783476830, -0.017658624798, 0.142030000687, 0.253389894962, 0.297931671143, 0.458999484777, 0.124671116471, -0.104880191386, -0.495921522379, -0.219731271267, 0.148569136858, 0.126302674413, 0.132214263082, 0.084849886596, 0.152743950486, 0.296547085047, -0.020236214623, -0.225711658597, -0.272986650467, -0.618922114372, -0.514541447163, -0.421089410782, -0.334058254957, -0.180280983448, -0.119077131152, -0.169849529862, -0.244655624032, 0.205408915877, 0.131857410073, 0.105360060930, 0.040405575186, 0.117833234370, 0.064158409834, 0.002166076796, -0.370474398136, -0.579364418983, -0.520218849182, -0.211062788963, 0.122596792877, 0.037186663598, 0.012352764606, -0.042069282383, 0.006845173426, 0.332923650742, -0.115762621164, -0.533740758896, -0.542873442173, -0.697707235813, -0.448947906494, -0.295183777809, -0.192640393972, -0.305095463991, -0.076528467238, -0.349963128567, -0.079003028572, 0.223837733269, 0.057231456041, 0.116998262703, 0.105058662593, 0.110008157790, -0.110601127148, -0.306948065758, -0.320791572332, -0.567963480949, -0.469871908426, -0.191851630807, 0.132133647799, 0.325299024582, 0.013730577193, 0.078647345304, -0.085769556463, 0.233513146639, -0.165415599942, -0.471735298634, -0.712984442711, -0.499868452549, -0.241086542606, -0.071081966162, -0.133628159761, -0.222481533885, -0.103483915329, -0.106347039342, 0.111500583589, 0.141169697046, 0.003590316046, 0.112156458199, 0.102880716324, -0.066891856492, -0.117734238505, -0.335683405399, -0.247014150023, -0.307581126690, -0.190923705697, -0.034143477678, 0.316588461399, 0.527396678925, 0.019785534590, 0.010043822229, -0.001324767945, 0.204790249467, 0.068571291864, -0.468890845776, -0.227584868670, -0.113180585206, -0.201240852475, -0.054407622665, -0.086521454155, -0.117121547461, -0.130978435278, -0.066650904715, 0.117352806032, 0.243675887585, 0.171322673559, -0.014949678443, -0.079692460597, -0.197191923857, -0.178245916963, -0.206353291869, -0.146125644445, -0.109930686653, -0.018516179174, 0.188445627689, 0.325693309307, 0.713937103748, 0.163005322218, -0.000399634242, 0.059785000980, 0.313439637423, 0.201518222690, -0.045674476773, 0.063851267099, 0.087032742798, -0.042548816651, -0.099520541728, 0.008565641008, 0.014578508213, -0.015646638349, 0.063739567995, 0.115148842335, 0.111672922969, 0.040669649839, 0.013701211661, -0.044704459608, -0.059702634811, -0.114598430693, -0.103666789830, 0.033400330693, 0.134248659015, 0.112178690732, 0.407888561487, 0.495111852884, 0.711247026920, 0.259846568108, -0.044934086502, 0.104388706386, 0.330429166555, 0.359941482544, 0.224731028080, 0.042354833335, 0.000960495614, -0.015876572579, -0.075848661363, 0.025923129171, 0.011907582171, 0.071056053042, 0.163522750139, 0.144493594766, 0.138766691089, -0.002886423608, -0.038113422692, -0.057991903275, 0.010024615563, 0.034939296544, -0.123272277415, -0.035941425711, 0.000680486148, 0.212418153882, 0.313664942980, 0.628644466400, 0.830362617970, 0.329563289881, 0.079693324864, 0.109400019050, 0.311857312918, 0.375933080912, 0.263615548611, 0.030011869967, -0.040333490819, -0.014485517517, -0.058335408568, -0.078908048570, 0.061175372452, -0.024658264592, -0.066211856902, 0.148112848401, 0.105360187590, 0.064523451030, 0.058287531137, 0.138235121965, 0.090801686049, 0.038086924702, 0.073910512030, -0.009057972580, 0.087179355323, 0.211416497827, 0.377758920193, 0.577256262302, 0.546755433083, 0.189473554492, 0.083771094680, 0.246465176344, 0.168637141585, 0.474807441235, 0.170546859503, -0.129939123988, -0.016542207450, 0.014073511586, -0.024238826707, 0.115661785007, 0.012680127285, -0.113535217941, -0.090702407062, -0.000521085341, -0.144825100899, -0.105565287173, 0.101279281080, 0.054175775498, 0.103746220469, 0.119819946587, -0.000305170252, -0.033821336925, 0.069945693016, 0.109978765249, 0.296143800020, 0.608766555786, 0.605594098568, 0.234157487750, -0.062926247716, 0.156668707728, 0.096606627107, 0.521746635437, 0.332450389862, -0.096345737576, 0.075758211315, 0.289481669664, -0.011463034898, 0.147381216288, 0.095168963075, 0.008434943855, -0.063637070358, -0.101202622056, -0.166455820203, -0.192036658525, -0.141945928335, -0.135173887014, -0.010549515486, 0.024087904021, 0.009329533204, 0.005377257708, -0.071396425366, 0.139856487513, 0.470102578402, 0.612593293190, 0.535698652267, 0.103455744684, 0.069028288126, 0.151153385639, 0.390548110008, 0.516664326191, 0.200421109796, 0.015255178325, 0.104577623308, 0.100122645497, 0.102339945734, -0.041550226510, 0.026240469888, -0.146239727736, -0.107631459832, -0.087226949632, -0.054673817009, -0.147897511721, -0.048277258873, -0.132773041725, 0.042061738670, 0.141500234604, 0.070995159447, 0.048157170415, 0.030778164044, 0.181625813246, 0.360328584909, 0.698702454567, 0.236443445086, -0.068024627864, 0.021393641829, 0.127708733082, 0.449135899544, 0.569945216179, 0.390019208193, 0.293540418148, 0.160187453032, 0.138350486755, 0.016279479489, 0.024419073015, 0.055387854576, -0.058080516756, 0.010945385322, -0.055081527680, 0.154781550169, 0.008873936720, 0.026755115017, -0.108291350305, -0.070978261530, 0.044563911855, -0.029308749363, 0.121489509940, 0.051276482642, 0.089420504868, 0.404760122299, 0.575172543526, 0.142150238156, -0.076026730239, -0.024579856545, -0.052344013005, 0.455926597118, 0.321421086788, 0.398242443800, 0.318513989449, 0.040620379150, 0.164032220840, 0.067757584155, 0.068128831685, -0.135286495090, 0.015029544011, 0.061214145273, 0.071217045188, -0.011056124233, 0.050772074610, 0.110906280577, -0.012317874469, 0.045804142952, -0.034800924361, -0.168053299189, 0.106097020209, 0.118012763560, 0.144094660878, 0.274125725031, 0.262718766928, 0.259793728590, 0.011606626213, -0.006295591593, -0.085008233786, 0.213134050369, 0.389826148748, 0.520717203617, 0.508741438389, 0.250203996897, 0.136616721749, 0.007740687579, -0.047002643347, 0.089004904032, 0.029996464029, -0.055010557175, -0.020850315690, -0.016812389717, 0.012229396030, 0.012737472542, -0.057347577065, -0.111865051091, -0.124131128192, -0.126746907830, 0.187721297145, 0.138924509287, 0.193621993065, 0.462769895792, 0.233548581600, 0.121075227857, 0.072595804930, 0.023946382105, -0.066941305995, 0.030717372894, 0.158082753420, 0.391399770975, 0.478495001793, 0.471073031425, 0.442927420139, 0.433943897486, 0.293265223503, 0.093741953373, -0.007489848416, 0.129386231303, 0.094670757651, 0.261463999748, 0.147908613086, 0.186553403735, 0.169398874044, 0.245843142271, 0.279157131910, 0.394361585379, 0.315244495869, 0.075999356806, 0.074287414551, 0.187572836876, 0.074128493667, -0.028994163498, 0.017274610698, -0.081009685993, -0.057194497436, 0.049099445343, -0.009853648953, 0.049079578370, 0.352263838053, 0.510982513428, 0.823108196259, 0.926877021790, 0.788394093513, 0.656184434891, 0.596735775471, 0.530394315720, 0.450021058321, 0.537802517414, 0.447143942118, 0.524852395058, 0.567958116531, 0.563704311848, 0.491870671511, 0.482450693846, 0.237629801035, 0.215018555522, -0.001093207160, -0.084771625698, 0.058234028518, 0.033867128193, 0.042103827000, 0.080830335617, -0.068858072162, -0.023326583207, 0.062211692333, 0.123450286686, 0.142721757293, 0.350715965033, 0.534715533257, 0.653874397278, 0.791270852089, 0.723144054413, 0.838191390038, 0.731686830521, 0.828740060329, 0.871684551239, 0.787885367870, 0.873252511024, 0.981626510620, 0.745756387711, 0.289284467697, 0.121062487364, -0.033598031849, -0.089586123824, 0.028073379770, -0.079811647534, -0.005953051150, 0.028667762876, 0.017530433834, -0.006744965911, 0.054972171783, 0.044863387942, 0.054862082005, -0.051020044833, -0.045907951891, -0.047378644347, 0.067127630115, -0.012987747788, -0.019600711763, 0.045892506838, -0.069705180824, -0.086434900761, 0.031945161521, 0.009145654738, 0.018584705889, 0.005955383182, -0.070504516363, 0.008745662868, -0.041847530752, -0.038992043585, 0.054866164923, -0.058743275702, 0.018105842173, -0.010297298431, 0.041375428438, 0.007657326758, 0.050486505032, 0.032200634480, -0.046868626028, -0.068430885673, 0.042838349938, 0.054682694376, -0.026079669595, 0.046766906977, 0.019445072860, 0.075131610036, -0.060225512832, -0.084841899574, 0.021760804579, 0.050016541034, 0.102942295372, 0.016703907400, 0.009036149830, -0.023941310123, 0.086861573160, 0.030850062147, -0.021678842604, 0.025750096887, 0.064174078405, 0.029669083655, -0.001160841202, -0.059819888324, -0.053237911314, 0.050129964948, -0.020744554698, -0.052163943648, 0.070597648621, -0.076463177800, 0.088470727205, 0.001914093969, 0.033828236163, 0.035047836602, 0.037007313222, -0.117996454239, -0.303754776716, -0.349883675575, -0.231585100293, -0.293142765760, -0.325534671545, -0.265731394291, -0.346366822720, -0.286297619343, -0.303206026554, -0.295684009790, -0.189858108759, -0.240063533187, -0.173453867435, -0.005038578529, 0.063981510699, 0.036068428308, -0.058494269848, -0.075129091740, 0.011910513043, -0.038258679211, -0.048584550619, 0.028773397207, 0.060051169246, 0.099786162376, 0.129797622561, 0.024110401049, 0.097601793706, -0.085961252451, 0.018530406058, 0.097000718117, 0.167971655726, 0.206209570169, 0.139154389501, 0.208647459745, 0.091219335794, 0.130775153637, 0.166936412454, 0.170492306352, 0.014750915579, 0.121382571757, 0.001872976311, -0.230206817389, -0.294953227043, -0.154460355639, -0.018672654405, 0.050220631063, -0.006603591144, 0.045311957598, 0.070751689374, -0.045350782573, 0.166149646044, 0.279360711575, 0.261481255293, 0.222421497107, 0.128319725394, 0.089648932219, 0.200226932764, 0.144894346595, 0.279672920704, 0.149188593030, 0.191241070628, 0.098217688501, 0.157789796591, 0.104440510273, 0.224290728569, 0.270140558481, 0.085089236498, -0.046802394092, -0.044078286737, 0.059534743428, -0.084993012249, 0.092503108084, 0.009892742150, 0.229024499655, -0.056711800396, 0.077320367098, 0.013364173472, -0.049074474722, 0.348908185959, 0.266424477100, 0.308751344681, 0.143107652664, 0.115236662328, 0.157341152430, 0.061140060425, -0.006922550034, 0.130564287305, -0.040056400001, -0.040024202317, -0.149823859334, -0.119486220181, -0.172796800733, -0.179693564773, -0.108292557299, -0.154440194368, -0.242803901434, -0.106882184744, 0.050791818649, -0.042716007680, 0.080092564225, 0.377048552036, 0.217755675316, -0.058754421771, -0.029733322561, 0.084652848542, 0.273506283760, 0.490652173758, 0.184971630573, 0.214046597481, 0.018447443843, 0.013015798293, 0.079726710916, 0.169565334916, 0.016467655078, 0.101153850555, 0.030056186020, 0.111025534570, 0.075040452182, -0.027148244902, -0.019937328994, -0.002612623386, 0.091101229191, -0.117792092264, -0.022729853168, 0.099055521190, 0.156260728836, -0.016954815015, 0.219137117267, 0.176837176085, 0.090314604342, 0.196634531021, -0.067981958389, 0.293849706650, 0.457377344370, 0.456393450499, 0.030822357163, -0.124668717384, 0.070856787264, -0.017811251804, 0.089968666434, 0.027760526165, 0.141393199563, 0.099553190172, 0.285809725523, 0.281091660261, 0.346186131239, 0.128604948521, 0.063719958067, 0.142448887229, 0.217953249812, 0.176809459925, 0.101402767003, 0.014409755357, -0.075034484267, 0.088371537626, 0.238820821047, 0.150991857052, 0.013072724454, 0.155362725258, 0.084018453956, 0.258220136166, 0.571963906288, 0.378946244717, 0.005137976725, -0.158978596330, -0.091097451746, -0.022558525205, 0.071151293814, -0.003681806847, 0.202415302396, 0.185520261526, 0.361058145761, 0.180476799607, 0.312709629536, 0.248145535588, 0.422139406204, 0.286012023687, 0.238003775477, 0.082605026662, 0.204868420959, 0.035118728876, 0.076549127698, 0.089644216001, 0.322610914707, 0.100032024086, -0.046842701733, 0.019921116531, 0.135724380612, 0.397455424070, 0.734187662601, 0.311214655638, 0.023835282773, 0.024035094306, 0.023840073496, 0.146457701921, 0.024667093530, -0.017806921154, 0.100151158869, 0.008346581832, 0.019654594362, 0.151627540588, 0.202330633998, 0.320226132870, 0.252250075340, 0.270769894123, 0.212344735861, 0.235785037279, 0.174144119024, -0.016992773861, 0.014333830215, 0.023902939633, 0.467919588089, 0.378993064165, 0.120838761330, 0.013151567429, -0.020668704063, 0.480589359999, 0.644305527210, 0.339631408453, -0.041590526700, 0.030883610249, 0.050919551402, 0.156979724765, 0.133961960673, 0.241970568895, 0.003060865216, 0.020682526752, -0.084136657417, 0.157638788223, 0.330701887608, 0.237554222345, 0.375255435705, 0.211854159832, 0.140924379230, 0.094154186547, 0.139819651842, 0.051883425564, -0.031030552462, 0.081364311278, 0.329316169024, 0.361692339182, 0.356830716133, -0.050401061773, 0.032346703112, 0.392142713070, 0.718040823936, 0.226179361343, -0.025341447443, -0.053039100021, 0.206667304039, 0.134129375219, 0.097232513130, -0.080284833908, 0.022149709985, 0.160730481148, 0.085049152374, 0.174191623926, 0.099320359528, 0.073421478271, 0.007830489427, 0.008316420019, -0.060147266835, -0.072044789791, 0.079193733633, 0.065177321434, 0.081661611795, 0.090616747737, 0.020144751295, 0.048879425973, 0.143498688936, -0.123644478619, 0.018976461142, 0.391595572233, 0.597544908524, 0.215025216341, 0.231645375490, 0.243259757757, 0.095733858645, -0.015120246448, 0.043393798172, 0.009227688424, 0.040999043733, 0.019411634654, -0.037110131234, -0.166089057922, -0.114650867879, -0.082351163030, -0.101246640086, -0.034213423729, 0.022790620103, -0.160274356604, 0.021871998906, -0.051408812404, 0.003520998172, 0.087009817362, -0.033948156983, -0.297002106905, -0.092534936965, 0.005344449077, -0.063419431448, 0.354268640280, 0.535467505455, 0.093921899796, 0.141852200031, 0.027020201087, -0.050910405815, -0.040110871196, -0.051771342754, -0.063133314252, -0.078833520412, -0.106037415564, -0.116853803396, -0.096583254635, -0.078700020909, -0.280591845512, -0.095272198319, -0.058146350086, -0.030437160283, 0.013432349078, -0.083958178759, -0.066921204329, 0.066190667450, -0.087929494679, 0.005111805163, -0.157097086310, -0.243254765868, -0.030628660694, -0.043373540044, 0.039436534047, 0.402506679296, 0.012157192454, 0.186439365149, 0.075975567102, -0.032083380967, 0.039511758834, -0.008382164873, 0.065117359161, -0.023628693074, -0.218772396445, -0.072174444795, -0.071541123092, -0.084668405354, -0.104422971606, -0.110345132649, -0.005530806724, 0.062744572759, 0.032741338015, 0.048072125763, 0.036728631705, -0.055650055408, 0.088722698390, 0.227263912559, -0.153863936663, -0.175142377615, -0.007767518051, 0.071813568473, 0.056365955621, 0.152245089412, -0.094482883811, 0.123812571168, 0.035823311657, 0.016860306263, -0.076438002288, -0.085342071950, -0.081453301013, -0.094735898077, -0.074379354715, -0.167702019215, -0.161226779222, -0.249938607216, -0.116799600422, -0.258183240891, 0.049593590200, 0.111998595297, 0.098243661225, 0.110313303769, 0.034589618444, 0.022594630718, 0.054505880922, 0.116898991168, -0.073684893548, -0.146299481392, 0.081454671919, 0.064385019243, -0.054650899023, 0.324126809835, 0.008455015719, 0.122323669493, -0.037919733673, -0.111693575978, -0.023022120818, 0.084595531225, -0.033583160490, -0.088324606419, -0.016033202410, -0.172833219171, -0.284525662661, -0.225891590118, -0.220877394080, -0.045483361930, -0.068908520043, -0.009631078690, -0.004944787826, -0.070935837924, -0.133735343814, -0.109918870032, -0.119624711573, 0.048635147512, -0.296732962132, -0.433392137289, -0.008461473510, 0.058220297098, 0.148092031479, 0.259746313095, 0.239550530910, 0.089614644647, 0.007365983911, 0.030559211969, -0.108340427279, 0.020234206691, -0.039255984128, -0.043685302138, -0.148245036602, -0.096707440913, -0.289753109217, -0.283871382475, -0.068738162518, -0.112040944397, 0.095487751067, 0.016718439758, 0.027640892193, 0.033034175634, -0.088004283607, 0.002603350207, -0.116595923901, -0.067839346826, -0.266722768545, -0.330513447523, 0.062730580568, 0.099045760930, 0.163896605372, 0.343935191631, 0.080511875451, -0.036288004369, 0.036708045751, 0.008893978782, -0.016894420609, 0.098390541971, -0.060907308012, -0.034103460610, -0.140624120831, -0.297405809164, -0.153398662806, -0.153557896614, -0.076094955206, 0.006455852184, 0.039650343359, -0.017036862671, 0.040194436908, 0.003454627935, 0.055231984705, 0.102505497634, -0.135510072112, -0.056083880365, -0.122283831239, -0.097536772490, -0.102882884443, -0.065718740225, 0.296318411827, 0.421259760857, 0.247465416789, 0.180542156100, -0.005382807925, 0.080509789288, 0.047796789557, -0.030643031001, -0.048260752112, -0.136881589890, -0.185552716255, 0.040697611868, -0.030653554946, -0.087103359401, -0.090802215040, -0.141571372747, 0.052053853869, -0.000506670505, 0.059108816087, 0.062534123659, 0.057059813291, -0.024459563196, -0.181403964758, -0.051301755011, -0.146750509739, -0.147183179855, -0.056539267302, 0.035200968385, 0.208506837487, 0.333815038204, 0.054547913373, 0.122362121940, 0.264669567347, 0.035199671984, -0.112967342138, 0.102213628590, 0.013615773059, -0.020639702678, -0.090882092714, 0.017578504980, 0.097947187722, -0.074233628809, -0.164734631777, -0.159305602312, -0.125329419971, -0.189624786377, 0.042834252119, -0.083370678127, -0.152620643377, -0.103691354394, -0.207123741508, 0.062482509762, 0.005866944790, -0.033690281212, 0.007105596829, -0.050669312477, 0.047739781439, 0.411276489496, 0.058899212629, 0.021946953610, -0.093205556273, 0.037906885147, 0.023046327755, -0.096872575581, -0.185418337584, -0.098500981927, -0.051450643688, 0.051464132965, -0.079847887158, -0.165409982204, -0.096915252507, 0.002519923961, -0.109717771411, -0.197840556502, -0.107159249485, -0.164031177759, -0.185290873051, -0.161295011640, -0.233210086823, -0.264176666737, -0.060603011400, 0.123695015907, 0.067213952541, 0.021424960345, 0.091168753803, 0.256631702185, 0.132254362106, -0.012797745876, -0.066206671298, -0.057246498764, 0.070256933570, 0.029607230797, 0.153496012092, -0.044173218310, -0.107895523310, 0.003410710720, 0.030610172078, 0.082341045141, 0.000078887504, 0.098107822239, 0.053166076541, -0.173001453280, -0.187708005309, -0.162822812796, -0.259321540594, -0.083844438195, -0.051431130618, -0.127642139792, -0.233310580254, 0.029342532158, 0.030911441892, -0.011555545032, 0.049274384975, 0.322001874447, 0.318803936243, 0.116458840668, -0.009690694511, 0.016861921176, 0.085259661078, -0.015418486670, -0.004206174053, 0.236204728484, 0.058845989406, -0.105387397110, -0.022319173440, 0.084205120802, 0.079930491745, -0.013695832342, -0.048934694380, -0.163944542408, -0.338112294674, -0.312476158142, -0.168935671449, 0.051778946072, 0.065121434629, 0.193865850568, -0.107750654221, -0.105588838458, -0.006306804717, 0.047566518188, 0.046963274479, 0.160567834973, 0.453166842461, 0.847331464291, 0.662162184715, 0.272286802530, 0.071635603905, 0.055769089609, -0.206125676632, 0.088264212012, 0.002286190633, 0.129574447870, 0.111352272332, -0.049831118435, -0.053828250617, -0.142937466502, -0.045141071081, -0.152822092175, -0.187615171075, 0.029079366475, -0.004386384506, 0.129425972700, 0.187303736806, 0.174400418997, -0.122061319649, 0.051260437816, 0.025638066232, -0.073862604797, -0.019287757576, 0.036475505680, 0.272343724966, 0.651426553726, 0.856472611427, 0.566725373268, 0.439237058163, 0.476285606623, 0.295262157917, 0.161662057042, 0.328704386950, 0.317287683487, 0.040283825248, 0.167401999235, 0.125921651721, 0.222213402390, 0.221841424704, 0.338344156742, 0.677937209606, 0.471299141645, 0.629387915134, 0.425987035036, 0.483400106430, 0.447758316994, -0.033463627100, -0.009859976359, -0.052397076041, 0.060835853219, 0.020893320441, -0.013464130461, -0.056028556079, 0.380881786346, 0.534798741341, 0.635235190392, 0.779510319233, 0.639539897442, 0.594718813896, 0.499139904976, 0.465801298618, 0.626511991024, 0.898612916470, 0.836105644703, 0.611649692059, 0.647613346577, 0.669923782349, 0.731573641300, 0.889647781849, 0.753491818905, 0.509371995926, 0.545802056789, 0.283165156841, -0.022022029385, 0.034509964287, -0.082584895194, -0.016941152513, 0.020597666502, -0.030544467270, -0.047710698098, -0.009608760476, 0.068523891270, 0.299834519625, 0.380342036486, 0.671482145786, 0.718784034252, 0.771452963352, 0.862672448158, 0.813732743263, 0.939661622047, 1.056952595711, 0.794215500355, 0.725762128830, 0.821510732174, 0.944534659386, 0.577351093292, 0.436727076769, 0.244818195701, 0.174936220050, 0.005543675739, 0.099956236780, -0.083581522107, -0.043071895838, 0.026321753860, -0.070249766111, 0.064474835992, 0.044941946864, -0.058336563408, -0.024454481900, -0.067436851561, -0.058842200786, -0.042075976729, -0.032476510853, -0.034551929682, -0.068015001714, -0.006100513041, 0.039174154401, 0.022213326767, 0.105803161860, 0.009226037189, -0.033411696553, -0.068599909544, -0.047306418419, 0.077354684472, -0.077993564308, 0.029781699181, -0.054862715304, -0.066785812378, -0.045346524566, 0.069292262197, 0.051551446319, 0.085565924644, 0.082656085491, 0.026359930634, -0.027177534997, -0.071540117264, 0.045700922608, 0.056354425848, -0.050069224089, 0.080101042986, 0.026501407847, 0.195299178362, 0.116789035499, 0.076575450599, 0.118514306843, 0.128149271011, 0.106975100935, -0.101840920746, 0.270316094160, 0.178210794926, 0.179538488388, -0.031879786402, 0.092711225152, 0.108958266675, 0.063957422972, 0.011148327030, 0.091066621244, -0.073997184634, -0.029382705688, 0.068814158440, -0.005239732563, -0.047858722508, 0.024088837206, 0.090726301074, 0.073892466724, -0.052955966443, -0.077427014709, 0.201566398144, 0.199920728803, 0.425309956074, 0.619535207748, 0.660714983940, 0.612946212292, 0.649710118771, 0.632992804050, 0.550365447998, 0.592504262924, 0.693755030632, 0.521586120129, 0.463806748390, 0.289887577295, 0.225175797939, -0.061761524528, 0.079049892724, -0.014098604210, -0.040500491858, 0.064398862422, 0.017949089408, -0.060941964388, 0.028653264046, -0.042973861098, 0.108691498637, -0.012955741957, 0.024625850841, 0.009932688437, 0.120621204376, 0.060294155031, 0.136594027281, 0.294935613871, 0.172798395157, -0.169014677405, 0.137304425240, 0.137068495154, -0.135342612863, -0.095584899187, 0.034325025976, -0.134307295084, -0.065237864852, 0.065427444875, -0.231548279524, 0.028238408267, 0.098497234285, -0.031412612647, -0.073306530714, -0.079937048256, 0.090639747679, 0.059615686536, 0.053442433476, -0.073049440980, 0.092816509306, -0.059276681393, 0.030934149399, -0.076733879745, -0.037436723709, -0.091123454273, -0.033680006862, -0.054936517030, 0.105933032930, -0.068287976086, 0.157910391688, -0.125854223967, 0.091896407306, 0.054001383483, 0.137992575765, 0.198734864593, 0.138959720731, 0.060372907668, 0.070463813841, -0.002773106331, -0.122790083289, 0.055880662054, 0.140176743269, 0.034028496593, 0.136707320809, 0.090116135776, -0.012348331511, -0.070396564901, 0.193933025002, 0.152849689126, -0.008435265161, -0.134443476796, -0.160397186875, -0.115411944687, -0.041054844856, -0.053046148270, -0.022169735283, 0.038825374097, 0.066850081086, -0.071603149176, 0.047823768109, -0.029305966571, 0.101786792278, -0.031058069319, -0.047059699893, -0.142587408423, 0.029235128313, 0.165487304330, 0.146303579211, 0.191128224134, 0.189085766673, 0.261774510145, 0.301634520292, -0.027494536713, -0.058105390519, -0.017465176061, 0.102220065892, -0.080581359565, 0.067907802761, -0.128702178597, -0.242358043790, -0.012645493262, -0.082635186613, -0.090108960867, -0.108435399830, -0.040094170719, 0.015432159416, -0.151805594563, -0.068674005568, -0.096077218652, -0.152203112841, -0.056060552597, -0.176039665937, 0.003791285446, -0.085621796548, -0.066141106188, -0.108560375869, 0.172602862120, 0.485135912895, 0.371201604605, 0.399349659681, 0.265736132860, -0.010682120919, 0.054984662682, 0.024650676176, -0.111606970429, -0.293487757444, -0.100354030728, -0.068233735859, 0.186120525002, 0.091952860355, -0.088566914201, 0.094444662333, -0.078430935740, -0.076715633273, -0.013386104256, -0.142886683345, -0.186992064118, -0.055745609105, -0.148063540459, -0.003729966469, -0.039569128305, 0.028190957382, 0.095240347087, 0.195007339120, 0.006907112896, 0.422045588493, 0.385280162096, 0.240107223392, 0.291620880365, -0.037366468459, 0.119278453290, 0.138506695628, -0.185554355383, -0.156807616353, -0.048909217119, -0.009534178302, -0.022328212857, 0.072455219924, -0.012731796131, 0.212918266654, 0.064459860325, 0.006527971476, 0.081877350807, -0.001126825809, -0.102594137192, -0.127884194255, 0.065097808838, 0.017927244306, 0.091325864196, 0.079209089279, 0.023426635191, 0.099215917289, 0.304908633232, 0.451819419861, 0.836393952370, 0.563969194889, 0.141696959734, 0.085099816322, 0.048814505339, 0.269753962755, -0.012040260248, -0.161341160536, -0.009831923991, 0.198627546430, 0.037045277655, 0.085852079093, 0.094466261566, 0.095639824867, 0.131017759442, 0.063781499863, -0.017533110455, 0.016785236076, -0.085503801703, 0.036630801857, 0.163097038865, -0.020249960944, -0.089702881873, -0.007464685477, 0.086521245539, 0.084792427719, 0.224837318063, 0.621786057949, 1.247725486755, 0.751545727253, 0.041983526200, 0.008241741918, 0.164434760809, 0.094248309731, -0.204955697060, -0.009334838949, 0.183556765318, 0.331119149923, 0.077953077853, 0.170578256249, 0.158667445183, 0.258340239525, 0.247671023011, 0.221290513873, 0.111882098019, 0.134113565087, 0.043558154255, -0.060699742287, -0.078500762582, -0.112558670342, -0.177277162671, -0.012270203792, -0.130456745625, -0.062134854496, -0.096797391772, 0.409256935120, 1.010832071304, 0.745981693268, 0.147002771497, -0.027155801654, 0.106746278703, 0.084516972303, -0.065369583666, 0.141978010535, 0.276893377304, 0.222750157118, 0.277026385069, 0.032528899610, 0.079631134868, -0.069742895663, 0.028601480648, 0.032822676003, -0.049542766064, -0.025474250317, -0.213835060596, -0.233561113477, -0.228421032429, -0.197381570935, -0.209857255220, -0.372908353806, -0.330639332533, -0.277248293161, -0.400609940290, -0.245890632272, 0.501045227051, 0.747104108334, 0.131078004837, 0.067537553608, 0.004314833321, 0.130694106221, -0.046806789935, 0.119017682970, 0.161675855517, -0.044006802142, 0.057493418455, -0.002551806858, -0.037772778422, -0.117000885308, -0.261739313602, -0.321065098047, -0.276132434607, -0.078104406595, -0.332805395126, -0.354050546885, -0.307011336088, -0.264805495739, -0.294165462255, -0.253370523453, -0.196799069643, -0.429493963718, -0.571484684944, -0.343557566404, 0.292799413204, 0.504092454910, 0.079401031137, 0.030861014500, 0.074469298124, 0.202144011855, -0.048483043909, -0.128493174911, -0.175096094608, -0.304535984993, -0.417358338833, -0.272367864847, -0.290914297104, -0.330168128014, -0.312279254198, -0.162480235100, -0.067306064069, 0.035519011319, -0.113304413855, -0.228478193283, -0.012587303296, -0.043616514653, -0.075702920556, -0.039361726493, -0.038542732596, -0.215877085924, -0.228264629841, -0.122733443975, 0.308568209410, 0.673715472221, 0.142446413636, 0.019194886088, 0.025232758373, 0.067724511027, 0.023001335561, -0.396851956844, -0.744540035725, -0.717145204544, -0.652818560600, -0.595130085945, -0.412686854601, -0.307365179062, -0.242403969169, -0.114450037479, 0.155175417662, 0.209408685565, -0.046613622457, -0.197012588382, -0.172547683120, -0.137458205223, -0.066977478564, -0.055255122483, -0.115740649402, -0.116929657757, -0.365586757660, -0.288252055645, 0.241044476628, 0.856504142284, 0.257202208042, -0.018733475357, -0.007062446326, -0.064549013972, 0.021736277267, -0.446318477392, -0.766824305058, -0.577505767345, -0.472513228655, -0.345229953527, -0.126285359263, -0.107606545091, 0.018627870828, 0.162709459662, 0.288156986237, 0.209007710218, -0.113478913903, -0.117221087217, -0.032606318593, -0.027289697900, -0.010316804983, -0.153470352292, -0.105002567172, -0.117942705750, -0.189797684550, 0.020947920159, 0.446038842201, 0.782033383846, 0.180172190070, -0.045150518417, -0.038273841143, -0.135624438524, 0.044219959527, -0.322915434837, -0.293020218611, -0.151656851172, -0.128938898444, -0.082769483328, 0.053216803819, 0.107784859836, 0.058476425707, 0.120370343328, 0.406593114138, 0.307158321142, 0.040837779641, 0.014988979325, 0.012265425175, -0.013086730614, -0.115200370550, -0.052665717900, -0.012838381343, 0.003992738202, 0.077051103115, 0.244880780578, 0.732340037823, 0.889791786671, 0.321759581566, 0.082620963454, 0.047800824046, -0.180669799447, -0.020836118609, -0.084086984396, -0.137872084975, 0.122520938516, -0.087494164705, -0.014561061747, 0.020509283990, 0.041893746704, 0.089689441025, 0.056118924171, 0.280541896820, 0.146901234984, -0.052596244961, 0.048227690160, -0.039509002119, -0.040230013430, 0.027187403291, -0.011421066709, 0.035407986492, -0.001777637168, 0.079301320016, 0.173056870699, 0.659451603889, 0.714176595211, 0.345268189907, 0.038737259805, 0.099389545619, -0.284284591675, 0.070708692074, 0.137586683035, 0.126871883869, 0.089131757617, 0.149446308613, -0.048353359103, 0.007787358481, -0.025333616883, -0.103880584240, 0.197879716754, 0.159219682217, 0.205179736018, 0.029511295259, -0.010024553165, 0.017129825428, -0.083949372172, -0.073203057051, 0.019399072975, 0.093045935035, -0.060378830880, 0.006084956229, 0.408648759127, 0.730734169483, 0.727196395397, 0.289106756449, -0.040471438318, 0.142477139831, -0.074888482690, -0.145321846008, 0.191303730011, -0.032766986638, 0.072999559343, 0.158180281520, 0.141642495990, 0.266152083874, 0.122066594660, 0.086237974465, 0.128866150975, 0.224396094680, 0.176826342940, 0.231690853834, 0.091080747545, 0.016251144931, 0.050148647279, -0.018159586936, 0.022334180772, 0.049450669438, -0.012361717410, 0.047377172858, 0.494813770056, 0.705097675323, 0.816516995430, 0.101433560252, 0.075383514166, 0.069954805076, -0.058706682175, 0.023346178234, 0.114566959441, 0.134647145867, 0.173991948366, 0.293077886105, 0.155318692327, 0.254046648741, 0.190741688013, 0.247967049479, 0.164067059755, 0.007453030907, -0.023884514347, 0.109080940485, 0.142615586519, 0.093011416495, 0.103736750782, 0.134739130735, 0.110306896269, -0.011099190451, 0.191296666861, 0.135127246380, 0.492538899183, 0.667868256569, 0.612442493439, 0.029449597001, 0.093606211245, 0.045280795544, -0.054643895477, 0.047907546163, 0.206928014755, 0.253325700760, 0.224671691656, 0.110505253077, 0.080285519361, 0.188359409571, 0.049449697137, 0.122568994761, 0.057195976377, 0.040099058300, 0.113864682615, 0.017131341621, 0.104481965303, 0.269048601389, 0.160698667169, 0.082113616168, 0.047998361290, 0.255716443062, 0.255620926619, 0.392772972584, 0.673601150513, 0.473191946745, 0.397945821285, 0.058624416590, 0.023334309459, 0.118658401072, 0.083638101816, 0.286308854818, 0.295986026525, 0.285953253508, 0.088465526700, 0.030626969412, 0.039697781205, 0.073864109814, 0.016165563837, 0.111845634878, 0.033523157239, -0.016581226140, 0.081585772336, 0.072356328368, -0.064416199923, 0.084374599159, 0.123892366886, 0.120739780366, 0.258407503366, 0.203429445624, 0.258475273848, 0.357986956835, 0.344933867455, 0.362608820200, 0.206194579601, 0.002636067569, 0.050696119666, 0.028988540173, -0.023470534012, -0.001907896134, 0.085406705737, 0.114335849881, 0.014258706942, -0.066242292523, 0.087370157242, 0.099656678736, 0.112029254436, 0.072086215019, 0.185871556401, 0.156948074698, 0.038718983531, 0.161407202482, 0.215935468674, -0.026843274012, 0.113075315952, 0.206080138683, 0.279760867357, 0.249262183905, 0.284916996956, 0.174041047692, 0.148223593831, 0.201083093882, 0.238771408796, 0.016330540180, 0.075143828988, 0.006753787398, -0.031337041408, -0.344816744328, -0.336546272039, -0.016674216837, -0.066842302680, -0.129762679338, 0.071411281824, 0.089399322867, -0.060803059489, 0.098232969642, 0.226102501154, 0.133408501744, 0.144097656012, 0.019422039390, 0.086197949946, 0.054388742894, 0.209078237414, 0.300688982010, 0.119033589959, 0.037642505020, -0.011405732483, 0.178575083613, 0.203384667635, 0.212133184075, 0.054727926850, -0.056752432138, 0.021490782499, -0.048423498869, -0.029750864953, -0.130924493074, -0.253811657429, -0.333808213472, -0.220565497875, -0.082673400640, -0.131791383028, -0.066441267729, 0.017110560089, 0.139437407255, 0.129775106907, 0.141673922539, 0.211926192045, 0.075802132487, 0.088813416660, 0.111741684377, 0.030640196055, -0.152623370290, -0.360438585281, -0.223761022091, -0.303658038378, -0.023811256513, 0.080293208361, 0.004055975005, 0.125707596540, 0.053266957402, -0.068882495165, 0.070929124951, -0.006445907056, 0.070601224899, -0.007514529862, 0.050840675831, 0.078551530838, 0.024787345901, 0.209901779890, 0.159212529659, 0.160247251391, 0.169823631644, 0.092278592288, 0.095471814275, -0.111275941133, 0.063861556351, 0.054752800614, 0.109115272760, -0.167618736625, -0.098622411489, -0.241099923849, -0.202429279685, -0.123706787825, 0.080887123942, 0.018001466990, -0.000730731525, 0.001483574510, 0.068639218807, -0.013897292316, -0.017092540860, -0.061260104179, -0.077482782304, 0.032560754567, 0.171932309866, 0.136656790972, 0.208162456751, 0.360225141048, 0.314620643854, 0.406393200159, 0.325504094362, 0.444035887718, 0.485448688269, 0.516196846962, 0.585298717022, 0.629465997219, 0.224060013890, 0.219576269388, 0.110506370664, -0.066131964326, -0.071458712220, 0.041891854256, -0.057687893510, 0.016293928027, 0.085034206510, 0.031263358891, 0.039086550474, 0.050009801984, -0.056051731110, 0.076925754547, -0.036107048392, 0.083655297756, -0.079812616110, 0.013118155301, -0.060390137136, -0.012779287994, 0.049827635288, 0.076813086867, -0.029982522130, -0.002517730696, 0.025691082701, -0.009132903069, -0.008220719174, -0.027628585696, 0.023533619940, -0.064381495118, 0.005836248398, -0.008576393127, 0.056250274181, 0.042016819119, -0.011953398585, 0.006825700402, -0.021815173328, -0.022654131055, 0.059062361717, 0.075398445129, 0.073532551527, -0.040755227208, 0.034092724323, -0.066401265562, 0.114321015775, 0.195920258760, 0.335238844156, 0.449590772390, 0.386537998915, 0.521080613136, 0.601408004761, 0.539578080177, 0.443411648273, 0.381885468960, 0.285796940327, 0.171665281057, 0.345135480165, 0.576401174068, 0.576834321022, 0.451553314924, 0.343226879835, 0.211663767695, 0.103941291571, -0.083479911089, 0.082226455212, 0.073348537087, -0.037855658680, -0.043526865542, 0.008890613914, 0.017319345847, -0.017530901358, 0.040062841028, 0.275005400181, 0.553170621395, 0.740074336529, 0.823229551315, 0.996328711510, 1.096623897552, 0.855768024921, 0.839655518532, 0.697442889214, 0.638089358807, 0.640581488609, 0.651690363884, 0.511234581470, 0.485568225384, 0.715803027153, 0.817234992981, 1.028054833412, 0.752734243870, 0.587339699268, 0.382586807013, 0.108976036310, 0.085688918829, 0.005731627345, 0.023032084107, -0.058304905891, -0.027850411832, -0.041778169572, 0.069969765842, 0.265227794647, 0.511663615704, 0.594578623772, 0.345355182886, 0.305655062199, 0.273421972990, 0.101952895522, 0.085350461304, 0.163677573204, 0.094418786466, 0.023500502110, 0.079457014799, 0.062216464430, -0.164837017655, 0.058786936104, 0.020044276491, 0.216774597764, 0.394462913275, 0.402178645134, 0.262786865234, 0.262907713652, -0.033456191421, -0.014516748488, 0.009034566581, 0.073004782200, 0.034457132220, 0.015481287614, 0.201691463590, 0.222279503942, 0.349126935005, 0.192871332169, 0.249779790640, 0.361314237118, 0.401711940765, 0.183921545744, 0.164275720716, 0.200220569968, 0.087230503559, -0.035287246108, 0.074677281082, 0.207726165652, 0.114326231182, 0.245728731155, 0.242119237781, 0.126125112176, 0.101642057300, 0.100056037307, -0.164660245180, -0.057362575084, -0.158757895231, 0.026841180399, 0.031303249300, -0.003777511418, 0.206128031015, 0.021637286991, 0.164340019226, 0.002829011530, 0.212450265884, 0.063369266689, 0.128544494510, 0.020428940654, 0.157144904137, -0.153643116355, -0.058865744621, -0.109413444996, 0.000268100470, -0.107588708401, -0.257561713457, 0.019361767918, 0.105227790773, 0.065308630466, 0.081130571663, -0.078050941229, -0.161951020360, 0.104576833546, -0.077903479338, -0.157559707761, -0.129485413432, -0.029073338956, -0.007082849741, -0.045196704566, 0.138561829925, -0.069722071290, 0.147686526179, -0.149518996477, -0.047251474112, -0.100655235350, -0.236140146852, -0.188961699605, -0.209265232086, -0.044862885028, -0.049825821072, -0.070923529565, -0.028769489378, 0.026460619643, -0.056832235307, 0.081275105476, -0.041334331036, -0.088019378483, -0.098499245942, -0.102564148605, -0.208044469357, -0.162780106068, -0.425928264856, -0.201354533434, -0.198225766420, -0.125069260597, -0.012058332562, -0.010212143883, -0.052808526903, 0.024927014485, -0.020003395155, 0.034819155931, -0.281683236361, -0.191397100687, -0.250616401434, -0.109002746642, -0.082211203873, -0.033890206367, -0.065685741603, -0.027848962694, -0.029547555372, -0.087475232780, -0.059737000614, -0.023560771719, -0.069154061377, -0.217427209020, -0.039581496269, -0.078304179013, 0.067636087537, -0.042074672878, -0.351181864738, -0.186531648040, -0.023272188380, -0.098718836904, 0.042602330446, -0.026712954044, -0.039669610560, -0.068159349263, -0.172794610262, -0.337643712759, -0.210567027330, -0.318317174911, -0.288486927748, -0.199415147305, -0.168880820274, -0.119858875871, -0.101993061602, 0.039734497666, -0.068564340472, -0.069464534521, -0.127608314157, -0.139669403434, -0.138934701681, -0.086130872369, -0.105414614081, -0.009663839824, -0.209282219410, -0.016032658517, -0.289114922285, -0.294019579887, -0.132064402103, -0.171410351992, 0.053453661501, -0.010753325187, -0.012697457336, 0.163943588734, -0.161613091826, -0.262004017830, -0.165708482265, -0.141315102577, -0.214479729533, -0.024972701445, -0.040651258081, -0.063384346664, -0.085375159979, -0.011104598641, -0.045887012035, -0.141368553042, -0.078323870897, -0.175222545862, -0.113074347377, -0.088707402349, -0.028643690050, -0.133220657706, -0.265095710754, -0.176518335938, -0.582700490952, -0.520262062550, -0.264383316040, -0.139108553529, -0.003022507532, -0.074775584042, -0.225562348962, -0.096821136773, -0.028719982132, -0.109215930104, 0.037322372198, -0.048476427794, -0.053702067584, 0.026160903275, -0.034480433911, 0.017067741603, 0.040412314236, -0.103884071112, -0.294716745615, -0.238336116076, -0.244683191180, -0.060277100652, -0.105820618570, -0.154106095433, -0.207068189979, -0.144268184900, -0.176677152514, -0.272465139627, -0.553932785988, -0.647136092186, -0.382794797421, -0.044364504516, -0.034062486142, 0.050142243505, -0.065459303558, -0.050763487816, -0.090101972222, 0.118189789355, 0.063805282116, 0.001574948197, 0.019104849547, 0.021951930597, 0.015444885939, -0.099705241621, -0.195478364825, -0.302127897739, -0.327026247978, -0.368961900473, -0.152471363544, -0.134940847754, -0.118045337498, 0.053321581334, 0.076446324587, 0.090681202710, -0.142668843269, -0.249280482531, -0.481999337673, -0.630164086819, -0.430850952864, -0.018206899986, -0.044147018343, -0.056650690734, -0.156471014023, -0.191308543086, -0.014672139660, -0.052332285792, -0.013806796633, -0.072636336088, -0.066379718482, 0.040149569511, -0.010257539339, -0.001188472030, -0.031598765403, -0.046535633504, -0.164093405008, -0.121253460646, -0.165849894285, -0.074746616185, -0.049616657197, 0.196620017290, 0.027418378741, 0.184724614024, 0.091033384204, 0.096012391150, 0.049257133156, -0.294662743807, -0.268419027328, -0.107166737318, -0.013697033748, -0.013046244159, -0.086689978838, -0.042785774916, 0.059574410319, 0.001652759733, 0.108299180865, 0.049210458994, 0.142754152417, 0.043481048197, 0.120685860515, 0.099146530032, -0.018252467737, 0.146353334188, 0.197751671076, 0.097950361669, 0.021038567647, 0.055414598435, 0.010287320241, 0.063503459096, -0.062807917595, 0.023949224502, 0.107473641634, 0.142752006650, 0.038001440465, -0.107147641480, -0.110863722861, 0.075662225485, 0.037903338671, 0.034427911043, -0.063631139696, 0.009281604551, 0.236537322402, 0.093396864831, 0.192387059331, 0.105241425335, 0.178833514452, 0.270035147667, 0.175605833530, 0.195500701666, 0.103761881590, 0.212128773332, 0.229803934693, 0.095626890659, 0.078030936420, 0.002361409599, -0.009400906041, -0.056709833443, -0.106136307120, 0.002840399742, -0.028891867027, 0.031146550551, -0.101690292358, 0.444470018148, 0.181572079659, -0.036127220839, 0.017674384639, -0.051533784717, -0.033256091177, 0.225861430168, 0.240413725376, 0.139691159129, 0.129811555147, 0.108404517174, 0.163843527436, 0.139540925622, 0.105085603893, 0.116471171379, 0.040094412863, 0.227954149246, 0.266922831535, 0.071296870708, 0.131884545088, 0.060536157340, 0.026526186615, -0.059362992644, -0.177782744169, -0.180805295706, -0.059193138033, -0.122007586062, 0.004979353398, 0.736167788506, 0.464213222265, 0.086908295751, -0.039483115077, 0.005749127828, 0.087808847427, 0.145131722093, 0.142499938607, 0.116837143898, 0.060772541910, 0.090695500374, -0.004657729063, 0.046629626304, 0.220579400659, 0.219292163849, 0.049039445817, 0.235940888524, 0.210056036711, 0.127943485975, 0.258049190044, 0.118862219155, 0.059987045825, -0.072099208832, -0.056253969669, 0.126638054848, 0.174564123154, -0.052866358310, 0.061996053904, 0.828300416470, 0.482146024704, 0.061211504042, 0.016555227339, 0.023602237925, -0.041173961014, -0.017815941945, -0.005397084169, 0.020887304097, 0.122942343354, 0.076096378267, 0.114693962038, 0.079273082316, 0.215784087777, 0.096240617335, -0.008955405094, 0.132370054722, 0.202521368861, 0.188218370080, 0.167394578457, -0.012281298637, -0.068203344941, -0.054112408310, -0.074427314103, 0.095963276923, 0.019995016977, -0.113011732697, 0.037923328578, 0.720004856586, 0.257604330778, -0.003632458858, -0.001874297624, -0.073641330004, -0.037954494357, 0.241816312075, 0.070205889642, 0.033800523728, 0.037271998823, 0.118905395269, 0.156383097172, 0.135629534721, -0.022238509730, -0.009406833909, 0.094884321094, 0.026662610471, 0.254368841648, 0.160754561424, 0.111579127610, 0.152655571699, 0.141686335206, 0.050118289888, 0.024528510869, 0.099095091224, -0.021938133985, 0.182764485478, 0.387768089771, 0.789178371429, 0.206858009100, 0.227346867323, 0.061470687389, -0.111726857722, -0.183853954077, 0.031954418868, 0.165671691298, 0.043078914285, -0.035715840757, 0.083251848817, -0.152371928096, -0.057983446866, 0.043998021632, 0.158770009875, 0.072505429387, 0.088944382966, 0.108837172389, 0.220893427730, 0.199769467115, 0.030052941293, 0.191245704889, 0.232368439436, 0.212338626385, 0.291937381029, 0.142630800605, 0.307752847672, 0.591990053654, 0.735929489136, 0.360448658466, 0.126404255629, -0.085282221437, -0.071919508278, -0.035282924771, 0.080716870725, 0.248890772462, -0.011382676661, -0.075631879270, -0.049169532955, -0.170438900590, 0.027785826474, -0.021281149238, 0.185535565019, -0.063479006290, -0.053700540215, 0.006535454653, 0.143382534385, 0.233650267124, 0.138374656439, 0.229521945119, 0.150994047523, 0.156598925591, 0.033933777362, -0.081920646131, 0.086949065328, 0.667710781097, 0.648234426975, 0.335449039936, 0.076976694167, 0.075467221439, 0.115472249687, 0.011849532835, 0.116579897702, 0.228651016951, 0.116206906736, -0.185628488660, -0.113847173750, -0.019591992721, -0.078060075641, -0.072579503059, -0.063430875540, -0.123058713973, -0.088800579309, -0.084709398448, -0.080226138234, -0.030548298731, 0.062458351254, -0.036879774183, 0.022733164951, -0.078177295625, -0.169497191906, -0.002940388862, 0.108571149409, 0.661747813225, 0.555203318596, 0.240488111973, 0.073371857405, -0.031006248668, -0.038239099085, 0.054359599948, 0.270127594471, 0.258557468653, 0.157411605120, -0.058597423136, -0.019452389330, -0.059570007026, -0.081326246262, -0.049254331738, -0.158409208059, -0.078283414245, -0.198395043612, -0.222758322954, -0.198122426867, -0.226995736361, -0.219072207808, -0.209924206138, -0.066890828311, 0.016833543777, 0.114323392510, -0.014966048300, 0.051558710635, 0.318746715784, 0.229705035686, 0.221644982696, 0.064347572625, -0.074296891689, 0.042959347367, 0.027373284101, 0.214342013001, 0.115786097944, 0.055425040424, -0.235564976931, -0.016834100708, 0.030351294205, -0.112377211452, -0.225434556603, -0.102652773261, -0.215929612517, -0.121521048248, -0.131028711796, -0.121338613331, -0.133075252175, -0.058092921972, 0.025625109673, 0.211622416973, 0.132604718208, 0.310428291559, 0.290200829506, 0.200464054942, 0.404872030020, 0.196513995528, 0.221341982484, 0.036605544388, 0.069341704249, 0.005359679461, -0.061240296811, -0.206099733710, -0.073450453579, -0.056847732514, -0.084573812783, -0.089383751154, -0.037023678422, -0.157630756497, -0.065044157207, -0.079942375422, -0.153420954943, -0.169908970594, -0.105768054724, -0.116815157235, -0.013781048357, 0.079866021872, 0.255949974060, 0.302296996117, 0.361640453339, 0.460078567266, 0.404292136431, 0.506149053574, 0.380907922983, 0.153887972236, 0.115499742329, 0.027591317892, -0.033704444766, 0.002533920109, 0.107331395149, -0.051590371877, 0.096138492227, 0.259003341198, 0.374375879765, 0.186742454767, 0.225511401892, 0.124150834978, 0.300601243973, 0.277913361788, 0.276998907328, 0.336088091135, 0.344011098146, 0.239171445370, 0.368948549032, 0.233017593622, 0.274274259806, 0.395607292652, 0.674849987030, 0.628157377243, 0.404566496611, 0.252100646496, 0.057999096811, 0.070749938488, 0.046945694834, -0.030110865831, -0.036435406655, -0.028492711484, -0.014127723873, -0.009266000241, 0.207294970751, 0.256163120270, 0.354877233505, 0.267215549946, 0.284943670034, 0.317452907562, 0.363779634237, 0.369540393353, 0.456589549780, 0.216210171580, 0.421854257584, 0.351782381535, 0.184553295374, 0.229545086622, 0.145585641265, 0.188769474626, 0.299073338509, 0.238604620099, -0.085874021053, 0.149926632643, 0.147822156549, 0.023859687150, 0.056953534484, 0.008561529219, 0.081872329116, -0.040647860616, -0.037809941918, -0.003795847297, 0.002963051666, 0.050262898207, -0.023688433692, 0.064295418561, -0.057265996933, -0.033241041005, 0.066141560674, 0.024756278843, 0.137911558151, 0.118926674128, 0.175645068288, 0.092000879347, -0.045345224440, -0.134874269366, -0.032090581954, 0.006496587768, 0.004063431174, -0.086691029370, -0.128763884306, -0.075510621071, 0.006022222340, -0.059245489538, 0.072033300996, 0.068795442581, 0.046307295561, 0.053540900350, -0.076328434050, -0.026882667094, -0.079739302397, -0.072047218680, -0.042288541794, -0.074287906289, 0.016787409782, 0.075343057513, -0.014733627439, -0.065474018455, -0.047628030181, 0.084219932556, 0.090415045619, -0.021763477474, 0.020419374108, 0.061041176319, -0.023230135441, 0.035847097635, 0.033068791032, -0.080652132630, -0.060385633260, 0.074474230409, -0.008719980717, 0.080783486366, -0.025651779026, 0.064996436238, 0.063833758235, 0.004302948713, 0.084219217300, -0.074794292450, 0.057251945138, 0.010175161995, -0.078992545605, 0.001075181877, -0.164021790028, -0.165120571852, -0.158472374082, -0.125754728913, -0.242362737656, -0.147629365325, -0.092939883471, 0.005162120797, -0.077150397003, -0.222266480327, -0.283084154129, -0.263763606548, -0.322801887989, -0.110945746303, -0.151780351996, -0.039971213788, -0.020122416317, 0.017328791320, -0.018665440381, 0.047235369682, -0.032231669873, -0.006151825190, -0.056634139270, -0.088045082986, -0.031972676516, -0.064819641411, 0.012921703979, -0.077935799956, -0.300448507071, -0.497023582458, -0.517346560955, -0.618619918823, -0.757474482059, -0.480735570192, -0.505705475807, -0.636965274811, -0.747737348080, -0.753959238529, -0.820648491383, -0.567749500275, -0.535786330700, -0.614797294140, -0.504994690418, -0.351397633553, -0.168180927634, -0.032098721713, -0.021308109164, -0.075250707567, 0.001190051436, -0.038572274148, -0.078065067530, -0.134606018662, -0.118081323802, 0.013071192428, -0.359388381243, -0.496912091970, -0.504016578197, -0.540704846382, -0.483318626881, -0.568973064423, -0.893434405327, -1.004811525345, -0.880683124065, -0.680207669735, -0.584941864014, -0.566460251808, -0.389274150133, -0.282489597797, -0.287556827068, -0.192311093211, -0.145059734583, 0.015440607443, -0.033938720822, -0.083933345973, 0.010050941259, 0.061398193240, -0.007058605552, 0.019093632698, -0.038150850683, -0.026204049587, 0.001458894578, 0.062514223158, 0.147494673729, 0.189519509673, 0.092204369605, 0.076942436397, -0.092601396143, 0.022566597909, 0.006790166721, 0.033115882427, 0.005372189917, 0.090055108070, -0.042517755181, -0.047204341739, -0.096628412604, -0.072151981294, -0.037599187344, -0.174951434135, -0.094615802169, -0.144340038300, -0.021801216528, 0.147509112954, 0.031967606395, 0.001513161231, -0.008552774787, -0.058400385082, -0.059810202569, 0.033819038421, 0.141443789005, 0.213081300259, 0.148783400655, 0.092210695148, -0.146704271436, -0.138712540269, -0.156566619873, 0.124512657523, 0.128865078092, 0.147199019790, 0.146009251475, 0.155907422304, 0.050985340029, 0.136385262012, 0.015844848007, -0.032798141241, -0.027221728116, -0.014175524004, -0.092474751174, -0.100074253976, -0.204836025834, -0.060831334442, 0.002993443282, 0.066227637231, 0.010928533971, -0.116624064744, -0.163029164076, 0.076311439276, 0.215467602015, -0.016668802127, -0.157939359546, -0.125008732080, -0.177934616804, -0.162528619170, -0.089624494314, 0.031964536756, 0.093917325139, -0.053846817464, 0.058232966810, 0.083956442773, 0.137893676758, 0.104701176286, 0.053214754909, -0.002056408441, -0.034752219915, -0.012742951512, -0.075615197420, 0.186339214444, -0.155746012926, -0.022255243734, 0.121377803385, -0.017120860517, -0.027028523386, -0.137047350407, -0.147058919072, -0.007103042677, 0.287133693695, 0.077422298491, -0.136980623007, -0.168610617518, -0.110289826989, -0.020833278075, -0.041957043111, 0.025858087465, -0.124663084745, 0.038125935942, -0.099314883351, -0.031106384471, 0.138200864196, 0.163154110312, 0.057797115296, -0.020333509892, -0.005579553079, -0.016627144068, 0.069227121770, 0.005611915141, 0.031762696803, -0.265296787024, 0.037890970707, 0.038517244160, -0.002406232757, -0.195692703128, -0.222340971231, -0.213352859020, 0.014104500413, -0.063395321369, -0.065158247948, -0.095934487879, 0.009703800082, 0.017948336899, 0.133150950074, 0.009262990206, -0.008762135170, 0.011593212374, -0.093703150749, -0.045080594718, 0.003349426202, 0.044679325074, -0.073619142175, 0.008472749963, -0.054542385042, 0.103766180575, -0.076685242355, -0.166061446071, 0.030780039728, -0.075072340667, 0.149204730988, 0.044304735959, 0.052772600204, -0.147975116968, -0.172859340906, -0.250562459230, -0.125872895122, -0.101133659482, 0.014262998477, -0.038936667144, -0.027213968337, 0.043167043477, 0.043200418353, -0.006358845625, 0.016025541350, 0.201708719134, -0.183868870139, -0.225255191326, 0.085903778672, 0.138637110591, 0.074982546270, 0.061215374619, 0.094892866910, -0.010416693985, 0.063988216221, -0.027145424858, -0.121610932052, -0.175278902054, 0.001842393074, 0.145955950022, 0.020976461470, -0.230873927474, -0.245166331530, -0.306064724922, -0.098174437881, 0.060734007508, 0.076048105955, 0.005545955617, 0.030817851424, 0.025734672323, -0.025216754526, 0.087739974260, 0.193321257830, 0.028151877224, -0.302821040154, -0.350074917078, -0.119433306158, 0.122335053980, 0.125821068883, 0.082611925900, -0.007310433313, 0.040696118027, 0.119069457054, 0.049468126148, -0.351684629917, -0.324573576450, -0.021943179891, 0.115813337266, 0.014093962498, -0.161064237356, -0.190331369638, -0.079936578870, -0.194296553731, 0.134987831116, 0.097813867033, 0.038829632103, 0.132104814053, 0.083017498255, 0.072850339115, 0.025796761736, 0.155416116118, 0.044267851859, -0.238442882895, -0.206865787506, -0.037121020257, 0.050699062645, 0.045899242163, 0.055324174464, 0.068469077349, 0.048981186002, -0.044714462012, -0.004973427393, -0.232446834445, -0.306347787380, 0.182253867388, -0.061995044351, -0.055869337171, -0.082156613469, -0.111205630004, 0.006748539396, -0.095924131572, 0.073812983930, -0.011835493147, 0.034185931087, 0.008235434070, 0.118474766612, 0.002152356785, -0.113582849503, 0.117712683976, 0.087645478547, -0.203643947840, -0.142219156027, -0.012173476629, 0.067309238017, 0.055366300046, 0.241763114929, 0.156160235405, 0.137498423457, 0.247085556388, 0.380345135927, 0.028415258974, -0.099329642951, 0.064278371632, 0.094889201224, 0.062164038420, 0.050175163895, -0.149508908391, -0.153257787228, 0.010628309101, -0.097866676748, -0.006222778931, -0.008817133494, 0.001145779854, 0.041330792010, 0.021490683779, 0.074022121727, 0.086420230567, 0.050989404321, -0.092743374407, 0.052375376225, 0.114324674010, 0.003606322687, 0.052058089525, 0.018632730469, 0.113318324089, 0.200384274125, 0.265614211559, 0.077603086829, -0.369761705399, 0.129697605968, 0.249073997140, 0.118348754942, -0.041950538754, -0.024192897603, -0.227488115430, 0.055702984333, 0.195052847266, -0.048766292632, 0.038592323661, 0.090832963586, 0.011231547222, -0.034081559628, 0.033042378724, 0.083215691149, 0.099036328495, 0.077972017229, 0.016184087843, -0.089097343385, -0.047218460590, 0.077950946987, -0.045233916491, 0.073308072984, 0.026267103851, 0.147925287485, -0.014354102314, -0.286118865013, -0.172270074487, 0.118071496487, 0.172653943300, 0.041581019759, 0.031938929111, 0.056975655258, 0.076756343246, 0.186305940151, 0.324122160673, 0.023088734597, -0.032744403929, 0.088759571314, 0.099803701043, 0.086322978139, 0.036684766412, 0.088333763182, 0.166276127100, 0.064715154469, -0.076792865992, -0.049511276186, 0.114975817502, 0.035340607166, -0.042293470353, -0.008558321744, -0.062769204378, -0.104232981801, 0.017996937037, -0.145476564765, -0.267664998770, -0.075568713248, -0.041839405894, 0.038635656238, 0.035879082978, -0.064164787531, 0.004261973314, -0.008332775906, 0.073623657227, 0.012623853981, -0.008238273673, 0.097625620663, 0.171183049679, 0.074108883739, 0.017836092040, 0.148234456778, 0.211555004120, -0.056205600500, -0.052041221410, 0.078799009323, 0.136669352651, 0.024496452883, -0.010860176757, -0.053715083748, -0.077061854303, -0.055275980383, 0.013261810876, -0.012467017397, -0.128088623285, -0.041718360037, -0.025498088449, 0.063881233335, -0.054725762457, -0.014266889542, -0.082826040685, -0.061022229493, 0.012495081872, -0.098768763244, 0.050045497715, 0.043847542256, 0.094292417169, 0.083080254495, 0.120971560478, 0.172590345144, 0.166882976890, 0.016253408045, 0.061534505337, 0.029977798462, 0.071970120072, -0.007713777944, -0.031454939395, -0.086247041821, -0.092388644814, -0.078514046967, -0.141769483685, 0.001310541760, 0.096614733338, 0.117944017053, 0.064592137933, 0.043106101453, -0.008705912158, 0.018451176584, -0.020433055237, -0.290788888931, -0.053500849754, -0.150156661868, -0.006281834096, -0.038401849568, 0.137645706534, 0.215968593955, 0.151473701000, 0.148480519652, 0.072596803308, -0.065368629992, -0.100815571845, -0.088843263686, 0.058493282646, -0.103233076632, -0.192004963756, -0.137959077954, -0.116594694555, -0.174026757479, -0.160237833858, 0.043651882559, 0.018999256194, -0.025551851839, 0.110224433243, 0.001314858091, 0.018038742244, -0.011626320891, -0.153196856380, -0.023537557572, -0.101593129337, -0.028478633612, 0.119706340134, 0.049589511007, 0.076972514391, -0.011669121683, 0.008223680779, -0.117817640305, -0.099694870412, -0.017394984141, -0.079428628087, -0.064832650125, -0.025027994066, -0.122037872672, -0.063631772995, -0.132863655686, -0.124946080148, -0.098539471626, -0.069018840790, 0.078121811152, 0.059251368046, 0.063356570899, 0.147394374013, -0.028890760615, 0.044284507632, -0.001726553310, -0.046466469765, -0.171544492245, -0.188971370459, 0.018817828968, 0.161993145943, 0.116278320551, -0.076551795006, -0.043776195496, 0.009875028394, -0.049834959209, -0.047992791981, -0.106626659632, -0.057716134936, 0.039080064744, 0.096716478467, 0.061106659472, 0.142916172743, 0.018166102469, -0.021916618571, 0.012261660770, -0.027817737311, -0.006216704845, 0.259933739901, 0.162571534514, -0.059684701264, 0.004576559179, 0.071041077375, 0.048513885587, -0.100493021309, -0.156096443534, -0.152214020491, 0.097427763045, 0.093092292547, 0.036052446812, -0.079089090228, 0.069506570697, -0.012192154303, -0.021021613851, -0.035931330174, -0.091683410108, -0.113173678517, -0.068536989391, -0.007930319756, -0.127275392413, 0.039463158697, 0.004200685769, 0.006325196475, -0.015603929758, 0.063569121063, 0.014150439762, 0.360756099224, 0.154494866729, -0.086708046496, -0.039161164314, 0.009641046636, -0.073189772666, -0.108326673508, -0.089125588536, -0.358987987041, -0.030500929803, 0.041763290763, -0.079900100827, -0.090024560690, -0.104560486972, -0.030298691243, 0.163831219077, 0.027240321040, 0.064395166934, -0.044938787818, -0.104233361781, -0.139820843935, -0.061045762151, 0.107869841158, -0.071942284703, 0.013318450190, 0.033049009740, 0.179911971092, 0.178187847137, 0.345791280270, 0.286457061768, -0.146920964122, -0.017659081146, 0.060885325074, -0.061174292117, -0.156542047858, -0.138740971684, -0.703213095665, -0.416806817055, -0.218701392412, -0.110337883234, 0.115412153304, -0.000594003010, -0.016618179157, 0.109396360815, 0.195650190115, 0.126224830747, 0.051304258406, -0.066650189459, 0.033988665789, -0.000584204390, 0.087550647557, 0.020390644670, 0.183565467596, 0.297293782234, 0.285505563021, 0.488441824913, 0.297444552183, 0.219654023647, -0.143415659666, 0.004134751856, -0.047414239496, -0.052152507007, -0.028727615252, -0.213839858770, -0.497370034456, -0.566749870777, -0.338466793299, -0.202816277742, 0.046283155680, -0.065393038094, -0.103004552424, 0.007125178352, 0.028161283582, -0.032978001982, 0.058837171644, 0.040431980044, 0.048714984208, -0.017101110891, 0.062653176486, 0.150667250156, 0.273033946753, 0.423366010189, 0.301891028881, 0.619159877300, 0.207982763648, 0.120183035731, -0.017017090693, 0.006492614746, -0.054222185165, -0.017693184316, 0.093664921820, -0.084320344031, -0.185882329941, -0.186066091061, 0.034890212119, -0.035594806075, -0.156300365925, -0.294278323650, -0.158178552985, -0.296511381865, -0.263367950916, -0.194288104773, 0.026472279802, -0.059152938426, 0.127543777227, 0.005650179461, -0.133358478546, 0.110459454358, 0.143204510212, 0.246136069298, 0.016082867980, 0.250277996063, 0.016517506912, 0.036375928670, -0.139421716332, -0.015572004020, 0.019719168544, 0.032016932964, -0.078271768987, 0.080476500094, 0.162933245301, 0.024433970451, 0.074930034578, -0.098394066095, -0.003189065726, -0.073167949915, -0.240711599588, -0.137806430459, -0.033505659550, -0.223049193621, -0.108102075756, -0.205797553062, -0.271146595478, -0.187128752470, -0.131968259811, -0.019390664995, -0.022838365287, -0.024854905903, -0.183058425784, -0.121467433870, 0.032497182488, -0.001200638711, 0.051212519407, -0.056622061878, -0.076652497053, 0.013827033341, 0.050062090158, 0.000097848475, -0.040608651936, -0.147423803806, -0.192139431834, -0.266792148352, -0.311439633369, -0.259602069855, -0.287206530571, -0.245487987995, -0.243133917451, -0.393554806709, -0.124455407262, -0.224751949310, -0.272794425488, -0.248390823603, -0.158001974225, -0.005277060438, -0.075321048498, 0.004538624547, -0.149175807834, -0.183320552111, -0.047517623752, 0.073443114758, -0.047027945518, 0.077772349119, 0.025529563427, 0.009234972298, 0.044860705733, -0.052619762719, -0.038827233016, 0.026452906430, 0.018590755761, 0.004195563495, -0.048578519374, 0.044208422303, 0.055264845490, 0.026363193989, 0.120254062116, 0.084325864911, 0.023494645953, -0.019251456484, 0.046694323421, 0.080979555845, 0.085217788815, -0.053989630193, 0.010860003531, 0.027324423194, -0.081670269370, -0.019527457654, 0.034670695662, -0.046726796776, 0.029379710555, 0.033561006188, -0.064980067313, 0.039541393518, 0.022587336600, -0.086468413472, 0.079698666930, 0.076304912567, 0.036776609719, 0.076413102448, 0.024505240843, 0.060203466564, 0.031033502892, 0.046071559191, -0.031724326313, 0.005257538520, 0.055313602090, 0.071676887572, 0.119328029454, 0.159510314465, 0.088836774230, 0.018351649866, 0.009124857374, -0.038212820888, -0.067232333124, -0.044912260026, 0.066494256258, 0.055858120322, -0.085425458848, -0.010961465538, 0.081488594413, -0.044820297509, 0.038622632623, -0.007709629834, 0.022894680500, -0.066581495106, -0.041047986597, 0.046880200505, 0.142196163535, 0.331751912832, 0.167746663094, 0.312627017498, 0.304731070995, 0.291861504316, 0.055011291057, 0.002182770986, 0.034864276648, 0.056651469320, 0.124041207135, 0.041101884097, -0.206469327211, 0.001109369099, -0.023797402158, -0.026539102197, 0.041192337871, 0.094107188284, 0.014803521335, -0.079544588923, -0.008689090610, 0.049250617623, -0.066512942314, 0.145906448364, 0.032997086644, 0.138977438211, 0.349628001451, 0.289037674665, 0.305748134851, 0.254683703184, 0.363966643810, 0.384361773729, 0.236168816686, 0.067353613675, 0.145082309842, 0.112493611872, 0.271154612303, 0.316706836224, 0.252039283514, 0.065230898559, 0.189366251230, 0.245420113206, 0.212656095624, 0.285279422998, 0.161951482296, 0.191662058234, -0.077027283609, 0.043765515089, -0.007895745337, 0.072789147496, 0.138967752457, 0.285809248686, 0.116860359907, 0.083871640265, 0.262556403875, 0.533654093742, 0.329142600298, 0.301399946213, 0.251116484404, 0.437687337399, 0.313419997692, 0.172819182277, 0.134273648262, 0.091411821544, 0.109081804752, 0.096133328974, 0.071838714182, -0.006014572456, 0.023683989421, -0.109478905797, -0.010083985515, 0.002277066698, 0.196900039911, 0.385680854321, 0.154889464378, -0.019607869908, -0.012851469219, -0.003299742937, 0.117297224700, 0.228659480810, 0.036199927330, -0.020888626575, 0.272665470839, 0.127877473831, 0.297362506390, 0.095998264849, 0.216787517071, 0.363241642714, 0.393784105778, 0.309570610523, 0.229478567839, 0.192849159241, 0.173608556390, 0.108295291662, 0.099841348827, 0.085376843810, 0.136811360717, -0.025089081377, -0.033265370876, -0.115420252085, 0.100432842970, 0.569922864437, 0.099340148270, 0.040877304971, -0.016518041492, 0.051229946315, 0.116819776595, 0.095994316041, 0.062513194978, 0.261135011911, 0.118248492479, -0.015963057056, 0.126509100199, 0.077668175101, 0.150604903698, 0.164868339896, 0.259459376335, 0.356262832880, 0.270993411541, 0.360303193331, 0.332245439291, 0.265625417233, 0.278925597668, 0.162728518248, -0.025381591171, 0.167505547404, 0.073232345283, -0.185439378023, -0.124025605619, 0.205752640963, 0.274916291237, -0.012211837806, -0.075434662402, 0.120943278074, 0.194268941879, 0.186192244291, 0.347964972258, 0.142383143306, 0.304528832436, 0.018604025245, 0.327738702297, 0.057853557169, 0.194596067071, 0.151198282838, 0.078010268509, 0.158878937364, 0.172944337130, 0.337365627289, 0.316288828850, 0.224617585540, 0.180560156703, -0.030091123655, 0.090277239680, 0.027034061030, 0.057819642127, -0.199257746339, -0.103047735989, 0.063272461295, 0.057140395045, 0.142823919654, -0.024828536436, 0.133477315307, 0.492336899042, 0.206609740853, 0.254483848810, 0.075508646667, 0.060994856060, 0.085832044482, 0.233922705054, 0.095347687602, 0.068930983543, 0.073457643390, 0.147985890508, 0.156403213739, 0.202927753329, 0.239567101002, 0.449198931456, 0.208771198988, 0.097513332963, 0.181294113398, 0.087051831186, 0.034624647349, 0.187634110451, 0.133859574795, 0.069459781051, 0.156284689903, 0.195614337921, -0.044527448714, 0.016226371750, 0.172960937023, 0.228320151567, 0.285663008690, 0.217996150255, 0.278713494539, 0.040161479264, 0.016171077266, -0.048038836569, 0.125845044851, 0.063456661999, 0.050778668374, 0.184271812439, 0.187869220972, 0.158318132162, 0.014447880909, 0.128524422646, 0.222270891070, 0.119372949004, 0.173390388489, 0.162570551038, 0.006760670803, -0.001547115506, 0.244681790471, 0.165897399187, 0.191609993577, 0.370391339064, 0.106057487428, 0.002608689480, 0.345691651106, 0.324594676495, 0.123794212937, 0.091192312539, 0.219331905246, 0.092585556209, -0.136332392693, 0.073608107865, -0.038969490677, 0.074786238372, 0.005647426005, -0.124188914895, -0.094368234277, -0.244540065527, -0.330653846264, -0.073924452066, 0.127590715885, 0.243701145053, 0.138553664088, 0.109131366014, 0.243263736367, 0.241033166647, 0.332566380501, 0.131818130612, 0.132229700685, 0.194696083665, 0.113869585097, 0.112691238523, 0.271351933479, 0.213551342487, 0.049807708710, 0.016048908234, 0.011388334446, -0.143944710493, 0.003089110833, -0.040058623999, -0.094967372715, -0.172999233007, 0.003749830648, -0.215827047825, -0.166394621134, -0.249631389976, -0.459387689829, -0.293544709682, -0.006127669010, -0.023648893461, -0.027322461829, 0.040505927056, 0.091753020883, 0.294407457113, 0.294023811817, 0.148648723960, -0.052427824587, -0.045907735825, -0.048716071993, -0.007347787730, 0.165122762322, 0.243366509676, -0.250484108925, -0.218973353505, -0.154307767749, -0.314240068197, -0.235182866454, -0.214232355356, -0.287960469723, -0.153790861368, -0.240076139569, -0.247285619378, -0.203978538513, -0.196871265769, -0.315082073212, -0.092170625925, -0.019450981170, 0.063457690179, 0.166574716568, 0.187848985195, 0.091642759740, 0.026120100170, -0.034010309726, 0.203883543611, 0.036329563707, 0.069215528667, 0.023922596127, -0.084974803030, 0.156605377793, 0.422878175974, -0.123877838254, -0.363500595093, -0.282741576433, -0.397577255964, -0.119979277253, -0.155445188284, -0.140268862247, -0.113219849765, -0.057223498821, -0.038509722799, -0.032648544759, -0.013806339353, 0.004245261662, -0.137255355716, -0.120966404676, 0.008299633861, 0.151065528393, 0.063850425184, -0.040270593017, -0.014870238490, -0.232687443495, 0.011810283177, 0.108150035143, 0.243271216750, 0.111674547195, 0.032038155943, -0.031255826354, 0.093814179301, -0.249272570014, -0.267666906118, -0.209203913808, -0.208776384592, -0.087772503495, -0.158456549048, -0.184225365520, -0.006919101346, 0.005310046487, -0.104413308203, 0.088632866740, 0.014105809852, -0.062526069582, -0.174907505512, -0.025730298832, -0.077640548348, -0.049240272492, -0.055672742426, -0.011265020818, -0.209986194968, -0.232141911983, -0.017176765949, -0.034752529114, 0.290025144815, 0.101581163704, 0.089185930789, -0.056013278663, -0.007687385194, -0.262632071972, 0.070187412202, 0.093968525529, -0.037331648171, 0.055261071771, -0.016361795366, -0.049189124256, 0.065478906035, -0.090907514095, -0.201609477401, -0.033181790262, -0.071221172810, -0.067346319556, -0.131135731936, -0.071932911873, -0.068107485771, -0.114836901426, -0.081228241324, 0.025708898902, -0.067968241870, 0.011324334890, 0.041710022837, -0.048782937229, 0.406123578548, 0.192869320512, -0.032380349934, -0.000851042802, -0.072645880282, -0.278534173965, 0.203965067863, 0.047628674656, -0.061955492944, -0.084353350103, -0.015017361380, -0.025503523648, 0.044494800270, 0.039660833776, 0.004732733592, -0.017358621582, -0.183638408780, -0.065193727612, 0.069833651185, -0.011322422884, -0.106891743839, -0.130347192287, -0.199143826962, 0.019572813064, -0.050339724869, -0.044926647097, -0.154408231378, 0.302951157093, 0.512157618999, 0.182660788298, -0.041836690158, -0.054941259325, -0.061075586826, -0.302374780178, 0.250332623720, 0.104325860739, -0.064331457019, -0.122539550066, 0.001014331821, -0.010326807387, -0.061513993889, -0.023787051439, -0.031477667391, -0.107369981706, -0.124681584537, 0.001203796011, 0.039984803647, -0.044664181769, -0.163964360952, -0.198122918606, -0.072693243623, 0.033208400011, 0.006625221111, -0.160013183951, -0.019232692197, 0.459698945284, 0.396488130093, 0.124702490866, -0.010958989151, -0.035873837769, -0.191015243530, -0.268548369408, 0.298711359501, 0.205220714211, -0.013211815618, -0.033583234996, -0.043662134558, -0.136226147413, -0.060865517706, -0.054966613650, -0.177901655436, -0.224982917309, -0.239604353905, -0.081308647990, 0.000700551900, -0.039448216558, 0.003741240362, 0.043465640396, -0.037220079452, -0.075798854232, 0.143601417542, 0.150864735246, 0.256607502699, 0.508720099926, 0.604699492455, 0.052979391068, -0.035514827818, 0.059414554387, -0.063569046557, -0.168582141399, 0.182465016842, 0.292411029339, 0.125436410308, 0.062216263264, -0.006728276610, -0.026545381173, 0.054704334587, -0.040128666908, 0.017986061051, -0.138869881630, -0.078303098679, -0.111180745065, -0.065557986498, -0.032330024987, 0.134908914566, 0.022038510069, 0.041761510074, -0.038871519268, 0.066313892603, 0.060699753463, 0.296766400337, 0.344902694225, 0.541819095612, 0.090121373534, -0.065581180155, 0.068473473191, -0.043745715171, 0.171237453818, 0.332532674074, 0.287565499544, 0.280176669359, 0.217803552747, 0.148354902864, -0.011129148304, -0.001213808660, -0.080870375037, 0.053463637829, 0.003716042265, -0.083944939077, 0.130662128329, -0.063150569797, -0.017490213737, -0.123923264444, -0.079366646707, 0.011781522073, 0.046686772257, 0.054175850004, 0.187348172069, 0.294749587774, 0.358667910099, 0.422983050346, -0.031138878316, 0.031385630369, 0.038820534945, 0.143417209387, 0.243743509054, 0.294250845909, 0.100391849875, 0.070975415409, 