//Numpy array shape (16, 10)
//Min -2.450040817261
//Max 0.934008181095
//Number of zeros 0

#ifndef __SYNTHESIS__
weight_default_t w2[160];
#else
weight_default_t w2[160] = {-0.900072395802, -0.994035840034, -1.209190964699, 0.510442852974, -1.501448988914, -0.631830215454, 0.323863327503, 0.490135937929, -1.530036330223, -2.450040817261, 0.610607147217, -0.250685125589, -2.060446262360, -1.989220023155, 0.023341031745, 0.430677473545, -1.992965340614, -1.219454526901, 0.535695433617, -1.370462298393, 0.520099937916, -0.164357379079, -1.264867424965, -1.210054993629, -0.939902186394, 0.408729970455, -2.113479137421, -2.125382900238, 0.550554454327, 0.703869819641, -1.953157186508, 0.335457265377, 0.029444932938, 0.787772357464, 0.594197571278, -0.371979802847, 0.651933252811, 0.345491647720, 0.030682587996, 0.431443363428, -0.888625562191, -1.139630794525, -0.566484093666, -0.527631163597, -1.219161748886, -0.359506189823, -0.508216798306, 0.343849837780, -0.296584010124, 0.705547332764, 0.450200408697, 0.163809150457, -0.183003485203, -0.669272661209, -0.747460603714, 0.249620050192, 0.236193761230, 0.691276788712, -1.259148359299, 0.021154241636, 0.279336929321, -0.743119597435, -1.046283721924, 0.363962441683, 0.323082566261, 0.185174465179, -0.885387659073, -1.379433870316, -1.139643788338, 0.215949043632, 0.411003708839, -2.027097940445, 0.046865291893, -0.335702508688, 0.498102843761, -1.187509179115, 0.623052120209, 0.351290166378, 0.122382730246, -0.839728415012, -0.892263650894, -0.577071726322, -0.912268698215, 0.142520561814, 0.345746964216, -0.443843424320, -0.756967782974, 0.139204606414, 0.218399524689, 0.631619989872, 0.146896228194, 0.852509200573, 0.013152181171, -1.478979825974, 0.319240450859, 0.189403608441, 0.358100354671, -0.444247335196, -1.392100930214, -0.830982089043, 0.176049977541, 0.318829685450, -0.793052613735, -1.138073563576, -1.363918423653, -2.378504514694, -0.453875720501, 0.934008181095, -1.086622595787, -1.554072260857, 0.455143183470, 0.534529983997, 0.434142917395, 0.337101668119, 0.486301153898, 0.275482654572, -0.059013813734, -1.464407444000, -0.879143416882, 0.227105200291, 0.222394853830, -1.976374745369, 0.468552738428, -1.207860589027, -0.365562617779, 0.587433338165, -1.172295928001, -0.697128832340, -1.128363609314, -1.130947828293, 0.282570779324, -0.243755757809, 0.252729952335, -0.579495310783, 0.295851349831, 0.265831857920, 0.254936605692, -1.448810338974, -1.435081601143, 0.248835563660, 0.367093294859, 0.054760742933, 0.224984779954, 0.413765758276, 0.240954905748, -1.884581327438, 0.165072321892, 0.182009905577, -1.912509083748, 0.099584296346, 0.377267986536, 0.066580519080, 0.259680509567, 0.327526271343, -0.840186297894, 0.177327841520, 0.448594272137, 0.430442839861, -1.186338186264, -0.656472682953};
#endif
