//Numpy array shape (27, 64)
//Min -1.89650082588
//Max 1.71253538132

weight_default_t w1[27][64] = {-0.0959260314703, -0.0131575306877, 0.114418543875, 0.0653779357672, -0.0115428594872, 0.176927566528, 0.0081724440679, -0.0641942545772, 0, 7.15412315913e-05, 0, 0.114237718284, 0.355314671993, 0, 0.12872633338, 0.21991302073, 0, 0.00734611973166, 0.283546060324, 0.0637928918004, 0.00617740768939, -0.0528948567808, 0.00452583143488, 0, 0.0235034804791, -0.099910594523, 0.278193354607, -0.0366101525724, 0, 0.0381932593882, 0, 0.00389328366145, -0.0559657253325, 0.0779271349311, 0.0593882352114, 0, -0.323407143354, 0, -0.0271956324577, 0.00581975281239, 0, 0, 0, -0.18590131402, 0.114262714982, 0.0188629124314, 0.0237595029175, 0, -0.391686618328, -0.221826612949, 0.111740633845, 0, 0.035534452647, -0.0958058089018, 0.0646527186036, 0.0483912006021, 0.0150161990896, 0, -0.345372855663, -0.149861380458, 0, -0.12127123028, -0.0474766120315, 0.0557015426457, 0.080987483263, 0.0224678311497, -0.0310915708542, -0.0816838368773, 0.0453681387007, -0.0668838620186, -0.0300170220435, -0.142738431692, 0.0400303713977, 0, -0.229526624084, -0.196277916431, -0.0341803319752, 0.153415799141, 0.185137137771, 0, 0.0540388934314, -0.00138803618029, 0.0207171961665, -0.381500720978, -0.0205709785223, 0.180770382285, 0, 0, -0.00745459133759, 0.122889772058, 0, 0.0749014914036, 0.173107594252, 0.0492284931242, 0, -0.00536990724504, 0, 0.119145147502, 0.264693886042, -0.0586058460176, 0, -0.262187302113, 0.0899833366275, 0.105282187462, -0.198549792171, -0.0179814267904, 0, 0.131158679724, -0.0316738002002, -0.132206767797, 0, -0.0112260049209, -0.355296611786, -0.128123104572, 0, 0, 0, 0, 0.0899971053004, 0.0903603360057, 0.0864411219954, -0.118514686823, -0.0213399790227, 0.0412442907691, -0.0570848919451, 0.124932147563, 0, -0.191245466471, -0.172045409679, 0, -0.0127254324034, 0, 0, 0.0975489988923, 0.0935115963221, 0, -0.0226159859449, -0.135611414909, 0.0698456913233, -0.0706443339586, 0.0169907845557, 0, -0.168431177735, 0.0943878665566, 0.162245258689, 0.00586975133047, 0.0451625846326, 0, -0.000515751831699, 0, 0.0508877485991, 0.304604619741, -0.0135794747621, 0.360540986061, 0, -0.250399410725, -0.150926977396, 0, 0.146958142519, 0.0558295398951, -0.0407721996307, -0.170441865921, -0.376206189394, -0.0156303588301, -0.120512828231, 0.301139891148, 0.246262684464, -0.0702728182077, 0.059301123023, 0.0985631644726, 0.0268234293908, 0.145707532763, 0.22482535243, 0.294512122869, 0.0176256019622, 0, -0.32438197732, 0, 0.0961165726185, 0.0400656946003, -0.0447857938707, -0.480599611998, -0.1199336797, 0.443407535553, -0.040418073535, 0.353244423866, -0.351258844137, -0.439987629652, 0.0787686407566, 0.12467571348, 0.491386562586, 0, -0.131731882691, -0.0034848137293, 0, -0.0588532760739, -0.020076693967, 0, 0, 0.12325501442, 0.0312276817858, -0.158310756087, 0.19204120338, 0.0616795308888, -0.0293706078082, 0, 0.288187503815, 0.233310297132, 0, 0.13884074986, 0.147413089871, 0, -0.0523278862238, 0, 0.0346132479608, -0.163184091449, -0.0758358463645, 0, 0.295684874058, -0.12517568469, -0.174719527364, 0.0199829731137, 0.152732953429, -0.0563947483897, -0.249954387546, -0.242483392358, 0.200895369053, -0.139167681336, 0, -0.109244011343, 0, 0.0969313532114, 0.139571562409, 0.024903928861, 0.0330523848534, 0.0941866710782, -0.0681470036507, 0.0634113103151, 0.00671047810465, -0.574584722519, -0.0474047623575, -0.107701823115, -0.0253399964422, 0, 0.134516596794, 0.182169422507, -0.298350602388, 0, 0.0801399499178, 0, 0.236776560545, 0.205260917544, -0.00469876779243, -0.0744973048568, 0.243683993816, 0.148800700903, -0.112739562988, 0, -0.0394494645298, 0.0385669879615, 0.00386036420241, 0.0628021582961, -0.0164758823812, 0.00984939187765, -0.357650279999, 0, 0.0521305128932, -0.0744029954076, -0.0168302226812, 0.290607273579, 0.114124424756, 0.0947296544909, -0.0800027176738, -0.0305530466139, 0.0215762276202, 0, 0.0124660255387, -0.0111245531589, 0, 0.0346543677151, 0.0348268449306, 0.0651638135314, 0, 0.471422821283, -0.0207884330302, 0, 0.111275330186, 0.029121780768, 0, 0.109009772539, 0.0857162997127, -0.550401091576, 0, 0.0123486947268, -0.0290506426245, 0.0152697283775, 0.0648240447044, 0.0187111813575, 0.0268170721829, 0, -0.0197889599949, 0.0458760969341, -0.0249362811446, -0.0716069862247, -0.00616605812684, 0.0852551087737, -0.182544186711, 0, -0.220283672214, -0.00900309160352, -0.0876648426056, 0.00311010889709, 0.0323419012129, 0, -0.0561448037624, -0.0241514369845, 0, 0.0291571505368, 0.0808518975973, 0, -0.146804869175, -0.22586967051, 0.00628168182448, 0.082986138761, 0.0979016050696, -0.0856144800782, -0.0852172449231, 0.12363640964, -0.230631455779, -0.410062015057, 0, 0.140987589955, 0.0734783262014, -0.108245968819, 0.0198633279651, 0.345300018787, -0.0230759438127, 0, 0.100992999971, 0, 0, 0, 0, -0.117504432797, -0.0325248762965, 0, -0.0469981953502, -0.0496690943837, 0.345856904984, 0, 0.221190169454, 0.193072780967, 0.111349850893, 0.404432505369, 0.0205120202154, -0.180726736784, -0.311279088259, -0.206504642963, 0.0999167114496, 0.129170462489, -0.0954310968518, 0.165988996625, 0, -0.0888835266232, 0.170352861285, 0.0160278268158, 0.0331016294658, 0.084776557982, 0.00337862642482, -0.0677623078227, -0.0363652706146, 0, -0.0678058415651, -0.00929254293442, -0.111556746066, 0.0511453524232, -0.0909645631909, 0.0328188352287, -0.00579583412036, 0, -0.0872255712748, -0.118002481759, -0.0946018472314, -0.0221588220447, 0.0786876454949, -0.262260586023, 0.0766700357199, 0.0988551303744, -0.0426105931401, -0.0800166279078, 0.169048175216, -0.211845755577, 0.185738280416, -0.331470012665, 0.228467807174, 0.0216009169817, 0.0505482703447, 0.0605581328273, -0.0188788101077, 0, 0.131306841969, 0.0786958485842, 0.0763495117426, -0.0199690423906, -0.252786099911, -0.0860968083143, 0.0727338716388, 0.244305193424, -0.0167597811669, -0.0983586162329, 0.264551281929, 0, -0.130040735006, 0.0633020177484, -0.0162338204682, -0.108706086874, 0, -0.229443490505, -0.239806964993, 0, 0, 0, 0.0389539375901, 0.0836998596787, -0.047426123172, -0.136324420571, 0.0582971684635, -0.0171154439449, -0.0912774279714, -0.150784984231, -0.051511593163, -0.200786173344, -0.000102241901914, -0.0764700770378, 0.070836558938, 0, -0.0878719389439, -0.0364364273846, 0, 0, -0.131787523627, -0.135436281562, 0.0389731600881, 0, 0.057950746268, 0.134311631322, 0, -0.0266209859401, -0.2550547719, 0.0325664505363, 0, 0.031024068594, -0.0170150455087, 0, 0.0118986554444, 0.0954661667347, 0, 0.135321855545, -0.00109923793934, 0.0411533527076, 0, 0.0280738249421, -0.1252412498, -0.0317258276045, -0.0107613559812, 0.0142201660201, 0.0831280648708, 0.0589051283896, 0.0520143993199, -0.0384145863354, 0, 0.0193197559565, -0.0908233076334, 0.274477958679, 0.10289683193, 0.00293017318472, 0.0966202765703, -0.0171833559871, 0.0984609127045, 0.0323634035885, 0.0133391106501, -0.0734643638134, 0.124561943114, 0.00218775845133, -0.327082425356, -0.0514821894467, 0.0452562756836, 0.0201293621212, 0, 0.111177451909, 0, -0.0299980640411, 0.0207299347967, 0.108680516481, -0.0779082551599, -0.00233837775886, -0.0132731366903, 0.0889733582735, -0.00757843954489, 0.030434364453, 0.0328434258699, 0.0533467382193, 0.0297301094979, -0.00276263616979, 0.179453775287, -0.0258293841034, -0.0387841016054, -0.0278415568173, -0.019218403846, 0.0410874933004, -0.00902393832803, -0.015764458105, 0.134401530027, 0.00220393505879, -0.141266897321, 0, 0.00201646564528, -0.500736176968, 0, 0, 0.179710373282, 0.157009497285, -0.879683434963, 0, -0.103062957525, -0.517022252083, 0.0320264548063, 0.00990953948349, -0.170107394457, -0.0908638909459, 0, 0, -0.0018914854154, 0, 0.0121270576492, 0.0414110086858, 0.0968660786748, 0, 0.058041613549, -0.0114236269146, 0, 0.00268303253688, 0.0859670862556, -0.822519361973, 0, 0.174664035439, 0.100737087429, 0.19156999886, -0.0118843708187, 0.0433459356427, -0.115472622216, 0.021559715271, 0.103942863643, -0.0180216412991, 0.0210107266903, 0, -0.520333051682, -0.00335698598064, 0, 0.0232520028949, -0.0446955449879, 0, 0.0650276392698, 0.110975861549, -0.0212511364371, 0, -0.13014408946, 0, 0.0242988541722, 0, -0.0213289000094, 0, -1.14694607258, 0.00731694372371, 0.0189973339438, -0.681178927422, 0.0809482932091, 0.00366923445836, 0.145518377423, 0.0185026787221, 0.0289499238133, 0.205641046166, 0, 0.103435151279, 0, 0.147729173303, -0.0845675617456, -0.699369549751, 0, 0.0331850126386, 0.0907053425908, 0, 0.000955469557084, -0.0666015893221, -0.358212441206, 0.00976614281535, 0.0228158514947, -0.018517035991, 0.00100013613701, 0.0714999735355, -0.136473253369, -0.0458420068026, 0.0486834011972, -0.0024748579599, 0, 0, 0.131756693125, 0, 0.046245764941, -0.141814216971, 0, 0, -0.00554434163496, 0.0153989801183, -0.184349000454, 0, 0.00902611669153, 0, -0.0337387360632, 0, -0.661201834679, 0, 0, 0.0376108139753, 0.00992837361991, 0, 0.0954485163093, 0.0807271152735, 0.0628747418523, 0, 0.0383308157325, 0, 0.00903606973588, 0.0170290917158, 0.0812595933676, 0.00866219960153, -0.0123251723126, 0, 0.00262174685486, -0.17594756186, -0.156953632832, 0.0342389829457, 0.0131132621318, 0.000788231205661, -0.379298388958, 0.111678183079, 0.163951262832, 0.386573851109, 0.125899091363, 0.158467561007, -0.305811196566, -0.107172898948, 0.180104494095, 0.261464625597, 0, -0.0943268090487, -0.0171272475272, 0.32185408473, -0.126247882843, 0.0337397567928, -0.0748781338334, 0.0248457994312, 0.26887100935, -0.486488938332, -0.0239662565291, 0, -0.0535593107343, -0.0745799466968, -0.0152276968583, -0.067622423172, -0.174739733338, 0, 0.120461732149, -0.214455068111, -0.0925682708621, 0.227962061763, 0.105927199125, -0.128665626049, -0.00250329845585, 0.254398286343, -0.239978075027, 0.0628122240305, 0, 0, 0.302363723516, 0.267020881176, -0.0639136955142, 0.16350838542, 0.115882709622, 0.182913869619, 0.213806137443, 0, 0.247189849615, 0.29399740696, 0.342905521393, 0, 0, -0.490549653769, -0.230039834976, 0.0703551247716, 0.0660118460655, -0.265892624855, -0.0621780641377, 0.226139068604, 0.106909357011, 0.34859791398, 0, 0.0524528846145, 0.391253829002, 0, 1.05683410168, 0.323436528444, 0, 0.52403897047, 0.172995060682, 0.338003307581, -0.868493139744, -0.187469929457, -0.173362582922, 0.0238030795008, 0, 0, 0.144444644451, 0.314414381981, 1.71253538132, -0.713755428791, 1.63228845596, 0.165065199137, 0.292842805386, 0.0993534475565, 0, 0, -0.424836069345, 0.343532651663, 0, 0.0528508573771, -0.344862043858, -0.0924039855599, 0, -0.358602553606, 0, 0, -0.3101144135, -1.89650082588, 0.361163705587, -0.341065317392, 0, 0.0480203256011, -0.814115762711, -0.952485144138, 0, 0.593046188354, 0.125875979662, 0.212942525744, -0.179608121514, 0.305214554071, 0, 0, -0.307282209396, -1.77347815037, -1.06791234016, 0, 0, 0.0237937197089, -0.119581781328, 0, 0.155167862773, -0.8858756423, 0, 0.318974733353, -0.0618433058262, -0.387239634991, 0.597570836544, -0.10641181469, -0.279946178198, 0.0285176448524, 0.00402182666585, 0.242747858167, -0.268068313599, 0.0600928775966, -0.0941073447466, -0.164601385593, 0, -0.377744555473, -0.243991956115, -0.386408537626, -0.115953184664, 0.252466648817, 0.250875294209, -0.00550318136811, 0.159991562366, 0.364956319332, 0.183560192585, 0, -0.633591711521, -0.110957063735, -0.520236134529, 0.634702920914, -0.0676358640194, 0, 0.243456229568, -0.172834709287, -0.322641700506, 0.243766143918, -0.0506439656019, -0.00449399836361, -0.233848527074, -0.625367164612, -0.392958551645, -0.138419121504, 0, 0.19223074615, 0.0997742936015, 0, 0.0948323756456, 0.0988806039095, 0.305505126715, 0.0980805978179, -0.290709406137, 0, 0, 0.245871782303, 0.0892621949315, -0.278013497591, 0.00779775204137, 0.275055587292, 0.20277762413, 0.0339599102736, 0, 0.0834885537624, 0.261713713408, 0.281992077827, 0.276992172003, -0.037125967443, 0.241793736815, 0.300776571035, -0.0962524041533, 0.114609211683, -0.0528462193906, 0.167040839791, 0, -0.618837654591, 0.126925140619, 0.126355320215, 0.0923576280475, -0.0672849342227, -0.10621599108, 0.0426488593221, 0.0349581092596, 0.146193444729, -0.0830361172557, -0.305539727211, -0.584146559238, 0.0095263980329, -0.0974252149463, -0.0800843834877, -0.124103106558, -0.163201615214, 0, 0, 0.0623671151698, -0.0864666849375, -0.466007173061, 0.0284093692899, 0.0279178582132, 0.363556265831, 0.204385817051, 0, 0, -0.0789227411151, 0.00679827248678, 0.00578937353566, 0.110845372081, 0.0531822927296, 0, 0, 0.0428151339293, 0, 0.0155479237437, -0.0566932931542, 0.176512122154, 0, 0, -0.676893472672, 0.239759683609, 0, 0, 0.0148230306804, 0.0327245108783, -0.623803317547, 0.367054283619, 0, 0.122889496386, -0.110023610294, -0.0703192204237, 0, 0.2961987257, 0.0310520697385, 0, 0.129299849272, -0.0252858102322, 0.027501327917, 0.0382839664817, 0.0226629246026, 0.0138764409348, 0, 0.051797542721, 0.0995359569788, 0.0551709830761, -0.163083285093, -0.339044064283, 0.0110078137368, 0.0123907187954, 0.118644043803, -0.0574567094445, -0.37199357152, -0.0709898546338, -0.0747039616108, -0.0214044246823, 0.0395287536085, 0, 0.260190010071, 0.0127893304452, 0.0111822094768, 0.0359323173761, -0.00594562944025, 0, 0, 0, 0.124796323478, -0.128487795591, -0.00761038763449, 0, 0.0785812363029, 0, 0, -0.256741881371, 0.109042875469, -0.00459583243355, 0.0185873247683, 0, 0.0191124547273, -0.00866676680744, 0, 0.0511696413159, -0.0819374024868, -0.110889054835, -0.456631481647, 0, -0.353726148605, -0.0228569190949, -0.0386566109955, -0.00508496165276, 0.0179756172001, 0.158572614193, 0.04115158692, 0.0133696040139, 0, 0, 0.00444241706282, 0.27238085866, 0.191095948219, 0.0405217073858, 0.00225530425087, 0, 0.190747827291, 0.11737177521, 0.292601585388, -0.303807973862, 0.378697067499, -0.451828837395, 0.0585502758622, 0.0790663957596, 0, -0.308988124132, -0.575689017773, 0.079145938158, -0.0116669600829, 0.256310760975, 0.130185052752, 0.0561617314816, -0.0125286532566, 0, 0.0088683180511, -0.202958583832, 0.265367895365, 0.0653436109424, -0.0841958299279, 0, 0.0388650819659, 0.336242735386, -0.389178395271, 0.130131557584, 0.246876016259, 0, -0.103948205709, 0.0839381441474, 0.0340062193573, -0.127963632345, 0.0272089857608, 0.161455914378, -0.570381104946, 0.0124094290659, 0.721542000771, 0, 0.0479066185653, -0.468643128872, -0.102444238961, -0.0226803701371, 0.327294498682, -0.635180175304, 0.0729819834232, -0.0103334048763, 0, 0, 0, 0, 0, 0, 0, 0.0200248658657, 0, -0.0595275424421, 0.0409763343632, -0.305186927319, -0.636132538319, -0.0155136696994, -0.0156625080854, 0, -0.187603354454, 0.0193619653583, 0.0587418600917, 0, 0.0402943231165, 0, -0.156213492155, -0.172244399786, 0.185806021094, 0.118789568543, 0.224871307611, 0, 0.026063548401, -0.0115834949538, -0.105081051588, -0.0134934447706, 0, 0, 0, -0.981227457523, -0.211713343859, 0, 0.0871735364199, 0, 0.0176783148199, -0.0350468531251, 0, -0.225815817714, -0.00510086352006, -0.130448639393, 0.056400809437, 0, -0.00102738873102, 0.0613146908581, -0.0169578548521, 0.254210442305, 0.11581466347, 0, 0.694145739079, 0.242070347071, -0.0354389175773, 0.21592618525, 0.148068398237, 0.0869031250477, 0, 0.282631903887, -0.025726493448, -0.401910275221, -0.0623588263988, 0.222358107567, -0.00350027275272, -0.0271680578589, 0.0405451394618, -0.328678131104, 0.018936727196, -0.0370940640569, -0.00698357401416, 0.0584891811013, -0.0335642509162, 0.0434433370829, 0.0495133958757, -0.0525893941522, -0.0266430545598, 0.0105782765895, -0.156711146235, -0.00295269023627, -0.000493514293339, -0.174927681684, -0.310648471117, -0.0355776250362, -0.0548247434199, -0.0119103658944, -0.0236886441708, -0.127298682928, 0, 0.0474247634411, -0.00540035078302, 0.0295497179031, 0.0131865721196, 0, 0.0248689875007, 0.00290362141095, -0.0115927848965, 0, 0.0526220910251, -0.00435234745964, 0, 0.0516044683754, 0, 0.0574918091297, -0.160312727094, 0.0722894370556, 0.040147036314, -0.050060108304, 0, 0.0362109988928, 0.0852492600679, 0.0242288392037, -0.000822383968625, 0, 0, -0.00616100197658, -0.312311708927, -0.122736603022, -0.0071616359055, -0.222808465362, 0.015641964972, 0.0381441935897, 0.0195421874523, -0.210130393505, 0.001777434838, 0.0726065561175, 0.0183511301875, -0.086420878768, 0.0121465213597, 0.00708559527993, -0.251400917768, 0, -0.284241467714, 0, 0, 0, -0.0303883291781, 0.0857379287481, 0.200000941753, -0.0220252778381, -0.00166248367168, -0.129796430469, -0.502033054829, 0.138063505292, 0.0249484665692, -0.399854958057, -0.119513124228, -0.536602079868, -0.543320953846, -0.214303568006, -0.276599854231, -0.455887705088, 0.136978894472, -0.0812992677093, -0.276105105877, -0.236398264766, 0.0100609315559, 0.152959957719, -0.832091569901, -0.0379271619022, 0.093091070652, 0.0487150102854, 0, 0.128443673253, -0.202609792352, -0.260885834694, 0.157171070576, 0.17534185946, -0.687317609787, 0.101096123457, 0.0357986092567, 0.110114708543, -0.148008272052, 0, -0.183121949434, -0.235949575901, 0, 0, -0.0750252828002, -0.110165707767, 0.0362841077149, 0.0259423814714, 0.0189388133585, 0, 0, 0, -0.109171390533, -0.202815786004, 0.223818555474, -0.0703142657876, 0, -0.100492991507, 0.0929314345121, -0.652247667313, 0, 0, -0.0531041845679, -0.414099365473, -0.14592987299, 0.0326121225953, -0.0988237634301, -0.0850863605738, -0.154177606106, 0.0213466212153, 0.021064447239, 0.083133675158, 0, 0, -0.0309033300728, -0.060825381428, 0.113588899374, -0.0122910970822, -0.583301007748, 0.189097896218, 0.19972614944, -0.0893249809742, -0.0985123589635, 0.082230001688, 0.0568472854793, -0.155313938856, 0.0153133515269, -0.129410937428, 0.00839713588357, 0.024009488523, -0.16450278461, -0.0360994003713, 0.113648720086, 0, 0.167019143701, -0.181234493852, -0.126925259829, -0.127352133393, 0, -0.0912040695548, 0, -0.282456129789, 0, -0.127191260457, 0.146864280105, -0.838092029095, -0.00309450528584, -0.227149158716, 0.179284974933, 0.0947944894433, 0.00893698912114, 0.0316384360194, 0.00725157698616, -0.145666003227, 0, 0.0817444995046, 0.134642660618, 0.180140659213, 0, 0.00191341293976, -0.0724459886551, 0.130878016353, -0.0728225633502, 0.0512621700764, 0.0135482698679, 0.189667582512, 0, -0.0315993092954, 0.0985343828797, 0, 0.0858592614532, 0.0172939971089, 0.00884947739542, 0.25754326582, -0.0498174279928, -0.163795083761, 0.0497431159019, -0.176938593388, -0.0899773836136, -0.033815599978, 0, -0.0107201356441, 0.40452709794, -0.0327858738601, -0.126047894359, -0.0805152803659, -0.0497342348099, 0.351183235645, 0.195929333568, -0.474871665239, -0.0099217761308, 0, -0.00909369625151, -0.111123822629, -0.124555356801, 0.0403906852007, -0.0488450452685, -0.121460966766, 0.258873045444, -0.308029979467, -0.0229596700519, -0.124478623271, -0.00510917045176, -0.166734188795, -0.0149166388437, 0.164459571242, 0.226811125875, -0.106995522976, 0, 0.58701634407, -0.0220981892198, -0.0225581470877, 0.27048638463, 0, -0.0604340210557, -0.135812982917, -0.0223363637924, -0.0197114963084, -0.0290526580065, 0.0259676575661, 0.0142911085859, -0.270947039127, -0.0342385619879, -0.099601097405, -0.0456955991685, 0, 0.01015655417, -0.0214394591749, -0.116253368556, 0.0169599298388, -0.0344404950738, -0.010317068547, -0.00136702682357, -0.0203381814063, 0.0804061517119, 0.527081608772, 0.0468182824552, -0.203697100282, 0.0199663080275, 0.0333606302738, -0.217082574964, 0.127370834351, 0.0940869674087, 0.0662154629827, 0.0721289739013, -0.170007452369, -0.0648891925812, -0.00966943986714, 0.0235502365977, 0, -0.107489228249, -0.627270281315, -0.0153889302164, 0.0954503342509, 0.0406207926571, 0, 0.020013153553, 0.0548452585936, 0, 0.0234409719706, 0.0642867088318, 0.202151671052, -0.190004557371, -0.282595843077, 0.0402374118567, -0.0590432733297, 0.129320845008, 0.0766814127564, 0, -0.0361014567316, -0.110736615956, 0.10182838887, 0, -0.285715550184, 0.0146726481616, 0.207747831941, -0.147793471813, 0, 0.0279381591827, 0, 0.0158651396632, 0, 0, 0.0211251620203, 0.00263609271497, 0.197493061423, 0.142494648695, 0.16241902113, 0.0387091375887, -0.302093565464, -0.0109605835751, -0.0772756114602, 0.0857697948813, 0.0421619564295, 0, -0.0659860596061, 0.034719735384, 0.00201256223954, -0.111851140857, -0.100702248514, -0.154537528753, 0.027503464371, 0, 0.0971619561315, -0.00757464487106, 0, -0.0251931212842, -0.0796990990639, 0.0729312524199, 0.14818765223, 0.0341367721558, 0.188979849219, 0, 0.383843153715, -0.0806188136339, -0.15138655901, 0.223448753357, 0.204087615013, -0.00105655717198, -0.126163512468, 0, 0, -0.0709103122354, -0.0364928171039, 0.103437073529, 0, 0.163852453232, 0.213861823082, 0, -0.128189504147, 0, -0.0820875540376, -0.0213262625039, -0.0979837551713, 0.130877390504, -0.154269054532, 0.121932648122, 0, -0.0078979358077, 0, 0.0865707919002, 0, -0.00253985705785, 0.00773252965882, 0.00502515444532, 0, 0, 0.20520158112, 0.125892594457, 0.162615656853, -0.152748838067, -0.0370225310326, -0.128212377429, 0, -0.0747378021479, 0, 0.00846142135561, 0.175136044621, 0.0333732552826, 0.0168492179364, 0, -0.0238546058536, 0.0896887555718, 0.157645657659, -0.0021356632933, 0.307097792625, -0.0271623637527, -0.017452692613, 0.185393556952, -0.0445413291454, -0.0352534390986, 0.0102836173028, -0.0308734606951, 0.243428215384, 0.0179849714041, -0.0308745037764, 0.173659577966, 0.140456557274, -0.0855329185724, 0, 0.0671570450068, -0.0543169081211, 0.0260883513838, -0.00189981190488, 0.00374537473544, 0, 0.0430286563933, 0.0225178916007, -0.101422585547, -0.119075484574, 0, -0.0773576796055, -0.00615474209189, 0, -0.0162678658962, -0.006332998164, 0.00928144343197, 0, 0, -0.101592890918, -0.187262520194, 0.369609326124, 0, -0.0764330476522, -0.0480134114623, -0.00279537285678, 0, -0.0681313201785, -0.0398661158979, -0.0263303816319, -0.0150562068447, 0, -0.031480897218, 0, 0.0214413423091, 0.00623246235773, -0.0293837804347, 0.194128900766, -0.0386900417507, -0.0590905994177, 0, -0.0272500626743, -0.00851866137236, -0.0202922131866, -0.0315415300429, 0, -0.0265531018376, 0.355951815844, -0.622877597809, 0, -0.00795670505613, 0.0668288320303, -0.111640945077, -0.201969087124, 0.437990963459, 0, 0.157146856189, 0.185291171074, 0.142556890845, -0.308518141508, 0.0481391251087, 0.0684231445193, -0.246486604214, -0.237862765789, -0.0880925506353, 0, -0.326268434525, 0, 0, 0.0969920158386, 0.30822622776, 0.323958069086, 0.0970368906856, -0.00100593967363, -0.0779019594193, 0.144718244672, 0.00202312530018, 0.137927174568, 0.0112157519907, -0.0119837233797, -0.398307085037, 0, 0.0394561216235, 0, 0.132701173425, 0, -0.00905004236847, 0.248978987336, 0.0925179496408, 0, 0.00703459186479, -0.198611110449, 0, 0.10917981714, 0.297025293112, 0.0958839133382, 0, 0.16459338367, -0.0922568663955, 0.127533361316, 0.111961834133, 0.0734804868698, -0.00306959846057, 0.0118306130171, 0.0162886455655, 0, 0.116528652608, -0.0193310566247, 0.0828460603952, 0.0155187435448, 0.0909471586347, 0, -0.802394032478, 0.0627320930362, -0.0693654641509, -0.0196842029691, 0.038197375834, -0.188300311565, 0, 0.182028189301, 0, 0, -0.0588763169944, 0.040041692555, -0.0858838036656, 0.187170982361, 0.317359805107, 0.36960119009, -0.101285047829, -0.306969344616, -1.25262582302, -0.00780569575727, -0.0064565888606, 0.00162445846945, 0.042444743216, -0.210418656468, 0.00736912153661, -0.330190092325, -0.129337564111, 0.00854626577348, -0.0330084860325, -0.0603060126305, -0.0466015823185, -0.18483003974, -0.387955397367, -0.228744626045, 0, -0.265800625086, -0.216975942254, 0, -0.00122807128355, 0.0633222013712, -0.23491679132, -0.165933594108, 0, 0.228635936975, -0.0211264770478, 0.373185932636, 0.643272399902, -0.361444324255, 0, -0.0420770086348, -0.0603387691081, 0, 0.0290290601552, -0.0108087798581, -0.0664782300591, 0.147938832641, 0.0354168228805, -0.0365900993347, -0.0740582048893, 0.291794598103, -0.0972121283412, -0.00782051216811, 0, 0.145379513502, -0.0452469699085, 0.0353291593492, 0.000263861293206, -0.270471602678, 0, -0.28112372756, 0, -0.00938230380416, 0.0909675359726, -0.0575464442372, 0.0311286952347, 0.3372836411, -0.365478307009, -0.211860165, 0.0790583267808, 0.00554048689082, 0.0159562360495, -0.00110846653115, 0, -0.0539368204772, -0.426302731037, 0, 0, 0.0158263016492, 0.013689336367, 0.145668104291, 0.00492696790025, 0.390517175198, 0, 0, 0.024447735399, 0.0754427686334, 0.144634589553, 0, 0.0207497235388, 0.0199062526226, 0.198916479945, 0.0135070569813, 0.0788951516151, -0.100826352835, -0.526409387589, 0.0774385929108, -0.0516793988645, 0.00847529247403, -0.792348146439, -0.0119487196207, 0, 0.0971146225929, 0.155961766839, -0.383165597916, 0, 0, -0.397220909595, 0.491894036531, -0.182709589601, 0.0521399304271, 0, -0.110508948565, -0.24824911356, 0.00482660997659, -0.0015419392148, -1.0734269619, -0.00476739415899};