//Numpy array shape (64, 32)
//Min -1.30801343918
//Max 0.674185156822

weight_default_t w2[64][32] = {0.0255653578788, 0.0115138329566, 0.0394879281521, 0.0241249743849, 0.0021699864883, 0.0100818350911, -0.308624356985, -0.0776679813862, -0.361988633871, -0.00399393495172, 0.0393237359822, -0.0416859053075, -0.20670774579, 0.00530018517748, 0.0734636411071, 0.0187224969268, -0.0187802277505, -0.0261710267514, -0.157458916306, -0.0657275691628, 0, -0.420394062996, -0.0858367010951, -0.0899530500174, 0.102523900568, -0.00903607998043, 0.0183129385114, 0, -0.00388242769986, 0.0998970866203, -0.285512387753, 0, 0.0251513570547, 0.0985877811909, -0.151745855808, -0.0113839777187, -0.0316572673619, -0.248078212142, -0.0196203347296, -0.231093749404, 0, -0.159474864602, 0, 0.136737138033, 0.0679729878902, 0.0371432565153, -0.0386616922915, -0.100276783109, 0.04985576123, -0.0203208643943, -0.0100949006155, -0.260933369398, 0.00327224819921, -0.0695389732718, 0.0169156920165, -0.0894713997841, -0.0127023505047, 0, -0.0289068520069, -0.228375867009, 0.139789074659, 0.00777045730501, -0.103427022696, 0, 0.0712794288993, -0.243358597159, 0.0194372273982, 0.026693707332, -0.137847959995, -0.0566383562982, 0.101560182869, 0.0984022170305, -0.112283103168, -0.0514704845846, 0, -0.221866816282, 0, 0, -0.269660681486, 0.0370586104691, -0.128461286426, -0.139190599322, 0.073884986341, 0.0837957561016, 0, 0.170260056853, -0.0788926407695, -0.0236653536558, 0.0901143699884, 0, -0.182267427444, 0, -0.109898671508, 0.110756829381, -0.0353592783213, 0.000806013820693, -0.00549232633784, -0.752706289291, -0.00484196748585, -0.0496599525213, -0.110056765378, 0.0344026722014, -0.0560802072287, 0.0115759205073, 0.216860696673, 0, -0.0250525530428, 0, -0.0236092563719, -0.245019257069, -0.169417232275, 0, -0.275177001953, 0, 0, 0.0361334010959, 0.0468511804938, 0.194423750043, 0.0429126806557, 0.125385388732, 0, -0.283274203539, -0.0953612625599, -0.336630254984, -0.337189346552, 0, -0.0486721396446, 0.0808901190758, -0.0351733379066, 0.099319241941, -0.201342135668, -0.298948466778, -0.0145077640191, 0, 0, -0.0739092379808, -0.117594026029, 0, 0.0259612966329, -0.0511943772435, -0.416191339493, 0, -0.714551568031, -0.675840735435, 0.0843598395586, 0, 0.123856842518, -0.365503937006, 0.139569267631, -0.181925237179, -0.431883573532, -0.0273953191936, 0.172056138515, 0.354085236788, 0.0652981996536, -0.0166717320681, 0.115138493478, -0.299054056406, 0, -0.0875261351466, -0.000638698111288, 0.0517075285316, -0.0122023867443, 0.0703326687217, 0.0230812970549, 0.234825089574, -0.0851237773895, 0.136531338096, 0.249973013997, 0.204136893153, -0.0823458656669, -0.203173175454, -0.0177118498832, 0.109541364014, 0.0430990532041, -0.103305213153, -0.472624897957, -0.0916158035398, 0.00299721350893, 0.122840382159, 0.00543570052832, 0, 0.0333427190781, 0.198116362095, -0.0665757879615, 0.0711192190647, -0.154590249062, 0.00277161016129, 0, 0, 0.0730812102556, 0.0121392514557, -0.0180083550513, -0.00349381030537, 0, 0.204271361232, 0.030861441046, -0.13203895092, -0.619930207729, 0, -0.293515264988, 0, -0.0122059853747, 0.00875949114561, -0.130408123136, 0.0154311414808, 0.000504848954733, -0.000190358274267, -0.0482312776148, 0.136258453131, 0.00894743390381, 0, -0.0284202583134, 0.00582502689213, -0.485868781805, 0.0574969947338, 0.040725838393, 0, 0, -0.120944567025, -0.0443463027477, -0.014628957957, -0.42031827569, -0.160929068923, 0.0367336124182, 0.0109276864678, 0, 0, -0.044791828841, -0.0333696231246, -0.0989074409008, 0, -0.172814279795, -0.125115185976, 0.141919359565, -0.0867847278714, -0.199654966593, 0.0733684077859, -0.189130455256, -0.338058412075, -0.0432602092624, 0, 0, -0.0967774540186, 0.0725493431091, 0, -0.648661017418, 0, -0.105163455009, 0, 0.154912948608, 0, 0.00296196923591, -0.0435759350657, -0.0700843408704, -0.104163132608, 0.150100141764, -0.229046523571, 0.10557628423, 0, 0.019128492102, 0.0190607365221, 0.010232815519, -0.11578194052, 0.192353367805, 0.11868082732, 0.113577418029, 0.209161967039, -0.0459813475609, 0.00155050854664, -0.00813336763531, -0.061168551445, 0, -0.521485567093, 0.0490132980049, 0.217517182231, -0.179283022881, 0, 0.224713772535, 0, -0.275656461716, 0, -0.0178907215595, -0.0548532493412, 0.0279720742255, 0, 0.0171744357795, 0, 0.0506870932877, -0.0203316770494, 0.0198327153921, -0.315152198076, 0.189786791801, 0.0401921980083, -0.0622451305389, -0.0606212615967, 0, 0.177363485098, 0.0793621018529, -0.00103052321356, -0.0562529414892, 0, 0, -0.0406057238579, 0.00559521839023, 0.0713082104921, 0.0146699780598, 0, 0.0779408290982, -0.456018596888, 0.173353031278, -0.153999090195, -0.0356158278883, -0.0281181149185, -0.0276651494205, -0.070149935782, -0.0389855392277, -0.0252613853663, 0, -0.0189170707017, 0.148540630937, -0.216190844774, 0.187916755676, -0.0684825778008, -0.0617765337229, -0.0477338805795, 0.00354998023249, 0, 0.123222418129, -0.0119285266846, -0.108223773539, -0.123119600117, -0.0745329335332, -0.346559107304, 0.107058003545, 0.242352604866, -0.194044172764, -0.10005492717, -0.00869864411652, 0.180768251419, -0.117300845683, 0.26507127285, -0.0860786512494, 0.188520848751, 0, -0.0193007793278, -0.331054389477, -0.164638161659, -0.144262045622, -0.237825497985, -0.277020871639, 0, -0.0542149879038, -0.0380144715309, 0, 0.00518896011636, -0.0446358285844, -0.00311350706033, -0.0320261493325, 0.1912304461, 0.0237531624734, 0.0282291583717, -0.182661101222, -0.141776591539, 0, -0.100632339716, -0.0641702413559, -0.0601676516235, -0.260581016541, -0.114129349589, 0.0804362297058, 0.191461741924, 0, 0.211831450462, 0, 0.205074995756, -0.0269288644195, 0, -0.264286488295, -0.241291716695, 0, -0.0033332305029, 0.033750962466, 0.192131727934, -0.0939473584294, 0.0245013590902, 0.0195972509682, 0, 0, 0.119561724365, 0.00526852486655, 0.112082719803, -0.0430247522891, 0.0391146987677, -0.0734886080027, -0.56203186512, 0.100938282907, -0.205088466406, -0.0066438773647, -0.275155514479, -0.245358631015, 0, 0.122399091721, 0.206602826715, -0.217218011618, 0.151243403554, -0.0801949203014, 0, -0.0698201209307, 0.0236807800829, 0, -0.16754040122, 0.00455339020118, 0.183154582977, 0.0819082185626, -0.120376959443, 0.010230335407, -0.177956864238, 0, 0, -0.039446759969, 0.123319499195, 0.035854164511, 0.160563394427, -0.107874967158, -0.0640825033188, -0.0379480719566, 0, 0, -0.179351970553, -0.00946540944278, 0, 0.0972257405519, -0.036748688668, 0.00870380923152, 0.123739600182, -0.174761608243, -0.0149085978046, 0.018003616482, -0.0598816126585, 0, -0.139686942101, -0.203464716673, -0.0548152513802, 0.048039291054, 0.0612271353602, 0.0715294331312, 0, 0, -0.151009246707, 0.338545888662, -0.125273689628, -0.0391018912196, 0.176927864552, -0.0757399946451, -0.0808650255203, 0.155464440584, 0, -0.00013660066179, 0, -0.295660495758, -0.0932967290282, 0.0757301747799, 0, -0.183772787452, -0.279912590981, 0, 0.252490848303, -0.0434661433101, -0.172266378999, 0.174104809761, 0.161624759436, -0.038785699755, -0.0402729585767, -0.0303979273885, 0.0505436435342, 0.0839103162289, 0, 0.165571913123, 0.133811593056, 0.369989842176, 0, -0.0572001971304, -0.151327386498, -0.00320062949322, -0.0472977943718, 0.076306283474, 0.168540239334, 0.111158005893, -0.0878967344761, -0.0756641849875, 0, 0.0633385926485, -0.140678331256, 0.0106877982616, -0.0504336357117, 0, -0.149882689118, 0, 0.000525138690136, -0.0467345677316, 0.146114036441, -0.0325145684183, -0.0501200221479, -0.105798669159, 0.03027032502, -0.0920734480023, -0.0952757447958, 0.0249285846949, 0, -0.0811041891575, -0.0553958900273, -0.0603246800601, -0.0535966530442, 0.236405551434, -0.129107758403, 0, 0.110763587058, 0, 0.063037134707, -0.110497549176, -0.00414317008108, -0.019484244287, -0.191839158535, -0.052908424288, 0, -0.0955024734139, 0.0978411361575, -0.40134781599, -0.193602576852, 0, 0.149013087153, -0.169215887785, -0.0901402905583, 0.0590251423419, 0, -0.123809553683, -0.0081330453977, -0.0995268076658, -0.0500068999827, 0.0128603419289, -0.233706712723, 0.153489261866, 0, -0.174849182367, -0.406178832054, -0.00315596652217, 0.166848093271, 0, 0.116211041808, -0.0532732829452, 0.0372953787446, 0.075647637248, 0.121121175587, 0.00220171012916, -0.355035871267, -0.169845059514, -0.109506070614, -0.2752610147, 0, -0.168410465121, 0.0906844735146, 0, 0.0555358789861, -0.228518977761, 0.00153400551062, 0.192641273141, 0.0614701956511, 0.215528279543, -0.153948515654, 0, -0.17923784256, 0.00157859909814, 0.0336000025272, 0.000191223356524, 0.061337325722, -0.108177818358, -0.0439568087459, 0.0149678038433, -0.282212674618, 0.0495849885046, 0.223504185677, 0, 0.00731279049069, 0.217731609941, -0.114467345178, -0.0145780658349, -0.215328752995, -0.251811683178, 0, -0.159188598394, -0.0712885186076, -0.084662348032, 0, 0.263288229704, 0.219319984317, -0.0142142018303, 0.141268223524, -0.11435110867, 0.0964219942689, -0.0048191412352, -0.0870814248919, -0.369539499283, -0.0238096434623, -0.153680428863, -0.048211414367, -0.0224726144224, 0, 0.0326055400074, 0.0175961665809, -0.301272988319, -0.00502703525126, 0.0597241185606, -0.199819326401, 0.0416915528476, -0.238896042109, 0, 0, 0, -0.112119503319, -0.147249549627, -0.0244812257588, 0.0114338714629, -0.0544176027179, 0, 0.0249953754246, 0.039428498596, -0.328816324472, 0.0486821644008, -0.14174811542, 0, 0, 0, 0.0686634257436, 0.0747454240918, 0.150198236108, -0.00848852377385, -0.152905523777, -0.115721583366, 0, 0.0900416895747, 0.00438952818513, -0.142695978284, 0.208581268787, -0.0830501765013, 0, -0.725317418575, -0.14736123383, -0.296758711338, 0, 0.0504841022193, 0, -0.228179842234, 0, 0.253017127514, 0, -0.0086162565276, 0, -0.381962031126, -0.26087898016, -0.0563580803573, 0, 0, 0.0126519724727, -0.0367413088679, 0.0734335109591, 0.0162345264107, 0.0377616249025, 0, 0, 0, -0.0405379831791, 0.224401265383, -0.126804769039, 0, -0.103081688285, 0.066931411624, 0.0878638625145, -0.056479524821, 0.0835468620062, 0.0936824828386, -0.253220438957, -0.10229870677, -0.365974932909, 0, -0.103247463703, 0.10481376946, 0.203655675054, -0.639445543289, -0.287425875664, 0, 0, -0.20958173275, 0.149220854044, -0.0503032244742, 0.0381135381758, -0.140662953258, -0.00745630962774, -0.333669781685, 0.0209421776235, -0.0957368463278, 0.183673813939, 0.135715261102, -0.195755943656, -0.0897393524647, -0.0239097047597, -0.011311693117, -0.207488045096, 0, -0.153843045235, -0.336527436972, 0.0222573243082, -0.0891043245792, -0.511583387852, -0.00742572546005, 0.0513756908476, -0.15659956634, 0, 0, -0.0212526768446, 0.0746379047632, -0.0648245513439, -0.198918491602, -0.0198432654142, -0.00409889034927, 0.0285713970661, -1.13121068478, 0.0269587915391, 0.0920160189271, -0.0745000988245, 0.00253409496509, 0.0612999685109, 0.0762257874012, 0, -0.455351382494, 0.0283830258995, 0, 0, -0.165564492345, -0.00868548545986, 0.0517082624137, -0.0181494336575, -0.0890014842153, -0.112891018391, -0.0660241395235, 0.0955054759979, 0, 0.11888770014, -0.341517418623, -0.0916803702712, -0.163642644882, -0.429487138987, -0.121484681964, -0.101508639753, 0.204446792603, -0.392585009336, 0, -0.29474362731, -0.18445238471, -0.118697367609, 0, 0.252124339342, -0.0607218593359, 0.141107708216, 0.0350505113602, -0.0324467755854, -0.105549529195, 0.0798079520464, 0.0770477950573, 0, -0.0525663495064, -0.0754971504211, 0.0099970465526, 0, -0.231682687998, -0.266974300146, -0.377048254013, -0.0277455579489, -0.196199163795, -0.0969541072845, -0.222740903497, 0, 0.0710467547178, -0.038184992969, 0, -0.0237116701901, -0.222271293402, -0.45122513175, -0.435005187988, 0, -0.124955177307, -0.281814843416, -0.262582540512, 0, 0.113470196724, -0.0420374087989, 0.0368457399309, 0, 0, -0.255547583103, -0.0608426369727, 0.121014513075, 0.0725949108601, -0.279036521912, -0.0432490631938, -0.0188857000321, -0.203608125448, 0.00215562479571, -0.29317098856, -0.0934778153896, 0.123799905181, 0.0379426665604, -0.154221192002, -0.0529371760786, -0.0493346974254, -0.0414283201098, -0.0808714702725, 0.033104211092, 0, 0.0211066473275, 0.0249856319278, -0.0495203994215, -0.0569177269936, -0.0267276838422, 0, 0.212159857154, -0.0405550822616, 0, 0, 0, -0.134801581502, -0.0105727910995, 0.0345977991819, -0.0272788982838, 0.223606348038, 0, -0.156667232513, 0, -0.0050156856887, 0.122937761247, -0.105986848474, 0.0307153593749, -0.265156805515, -0.285458415747, -0.168581351638, -0.113766543567, 0, 0.00105313886888, -0.0818706899881, -0.00261063524522, 0.018801741302, -0.040382578969, -0.035083539784, -0.0863612443209, -0.00268978439271, 0, 0.024181317538, -0.0345480777323, -0.368079483509, -0.0572447068989, -0.104747772217, 0.00840928405523, -0.162967607379, -0.10444111377, -0.00399143854156, -0.540890395641, 0, 0, -0.31712141633, 0, -0.134276375175, -0.0967785492539, -0.0399833656847, 0.0887074843049, 0.0488321334124, 0.109346292913, 0.0111102629453, -0.0505105555058, 0, 0.136202260852, -0.00766514008865, 0, -0.209331780672, 0.0210488308221, -0.00709615228698, 0, -0.0314362943172, 0, 0.134046003222, -0.335400998592, 0.0783685296774, -0.327656120062, -0.212464660406, -0.0991205796599, 0.0238288901746, 0.16523386538, 0.0151847312227, 0.0443257838488, 0, 0.0838627293706, 0.000684764643665, 0, 0, 0.147064238787, -0.152716934681, -0.294302552938, 0.016156071797, 0, -0.129729181528, 0.0176180172712, 0.0352602303028, 0.00112998590339, -0.0129422685131, 0.0361193940043, -0.297646015882, 0.146305724978, -0.0156827289611, -0.188426747918, -0.503549039364, 0.010435600765, 0.132161483169, -0.205874323845, -0.191807106137, -0.00408594636247, 0, 0.115128189325, 0.125924542546, -0.0885425060987, -0.0978564172983, -0.0162894576788, -0.226182341576, -0.863527417183, 0.196803510189, -0.225730761886, -0.36102771759, -0.173193305731, -0.159014672041, 0.0225623734295, 0.250664144754, -0.113843739033, -0.206687107682, 0.207043856382, 0.182271271944, -0.380373209715, -0.00132289889734, -0.161480233073, 0.104460917413, 0, 0.0574558340013, -0.266044586897, -0.0276814512908, -0.127215817571, -0.0969653427601, -0.316767841578, 0.0548150539398, 0.146900907159, 0, -0.288291692734, -0.0832830071449, -0.148022532463, -0.0255740173161, 0.0994005799294, 0, 0.184327676892, 0.0314290449023, 0, -0.350787222385, 0, -0.205588445067, 0, -0.00136640085839, 0, -0.0829046666622, -0.00256747938693, 0.0996278449893, 0.0659214407206, -0.0305134598166, -0.115338079631, -0.199622884393, -0.0779885053635, 0.0421290583909, 0, -0.06387706846, -0.01987750642, 0.0376337990165, 0.0694298967719, 0.131589323282, 0, -0.0822781845927, 0, -0.0891102850437, -0.12900224328, 0.328265190125, 0, -0.0591580271721, -0.126573115587, 0.0383486226201, 0.19543877244, 0.455985575914, 0.147203221917, -0.109375625849, 0.095440775156, -0.17067246139, -0.454605340958, 0.298274219036, -0.260713607073, 0, 0, -0.730925142765, 0, 0.300787627697, 0.333295762539, -0.22330249846, 0.444886952639, 0, 0.0395173802972, -0.104163371027, -0.0564003922045, -0.565829694271, 0, -0.0988439098001, -0.0249405894428, 0.237552717328, 0.462214678526, 0, -0.109088353813, 0, -0.028061684221, -0.403455913067, -0.0229369699955, -0.215448841453, 0, -0.0996422991157, -0.166207134724, -0.0111086620018, -0.0346861258149, 0.0122693171725, -0.130024150014, 0.174508318305, 0, 0.201159715652, 0.0834401622415, -0.0490794032812, -0.0774665921926, -0.0180032290518, 0.0372368879616, -0.183653250337, 0.0826345309615, 0.00997568946332, -0.231904938817, -0.193976730108, -0.35107088089, -0.0458897091448, -0.0484640300274, -0.0565013587475, 0, -0.0190557911992, -0.0725027099252, 0, 0, -0.100812375546, 0.0645986646414, -0.0838246867061, -0.0519435591996, -0.259259164333, 0.0542772039771, -0.0596604309976, -0.0939774662256, 0, 0, 0.0756890028715, 0.178824603558, -0.0540453456342, -0.0370880737901, -0.0680603533983, 0, 0.0721759423614, 0, -0.0802881270647, 0, -0.0779813304543, -0.19975990057, -0.030405158177, -0.117564804852, 0, -0.47924014926, -0.0714266300201, -0.218104511499, 0.121273398399, -0.206091284752, 0.0311114732176, 0.116764955223, 0, 0.0374947935343, 0.129258826375, -0.0103146610782, 0, 0.0743589177728, 0.00135402183514, -0.101958714426, 0, -0.0950035974383, -0.286956101656, -0.180018872023, 0.0376479923725, -0.111205540597, 0.0978880375624, -0.130253314972, -0.0195951703936, -0.142486467957, -0.0854267850518, -0.158361911774, 0.0523776784539, -0.202392578125, -0.1152805686, -0.432805597782, -0.0484740175307, -0.420601159334, 0, 0.224074453115, 0.0298531018198, -0.372772067785, 0.074718862772, 0, -0.0906853303313, 0.0304229110479, -0.0355804301798, 0.199849128723, 0, -0.123458109796, -0.0639401748776, 0.135894179344, 0.165805771947, -0.156981527805, -0.308853030205, -0.00175377493724, 0, -0.234393551946, 0.113033480942, 0.109907381237, -0.320679992437, 0, 0.0374680869281, 0.0751029402018, 0, -0.112744279206, -0.254016518593, -0.0857732966542, -0.14902664721, 0.0763725042343, 0.305313289165, -0.0258996877819, 0, 0, -0.0441911742091, -0.102121435106, -0.00995544716716, -0.170847892761, -0.0164862573147, -0.109923169017, -0.018330026418, -0.0141892721877, 0.15036727488, -0.0584831796587, -0.157917201519, 0, -0.00394747406244, -0.0800849124789, 0, -0.0701267272234, 0.00801094714552, -0.0703496783972, 0.0350799672306, 0, 0.0728510022163, 0.0193507280201, 0.177386045456, 0.0848109200597, 0.126245453954, 0.0858999341726, -0.0466399937868, 0.0830894783139, -0.0593364983797, 0.0788147225976, 0.0681090578437, -0.0170253291726, -0.00610161107033, 0.0132605256513, -0.00580514315516, -0.236790776253, -0.167232036591, -0.158339157701, -0.0433326289058, -0.138568729162, -0.0147719951347, 0.0248571522534, -0.114779479802, 0.0979214385152, -0.0136411832646, -0.0611314177513, 0, 0.205535575747, 0, 0, 0, -0.0115402266383, -0.0853780955076, 0.0303062275052, 0, 0, 0.132334202528, 0.0237593762577, 0.0456088744104, 0.118762403727, -0.17259439826, 0, 0.282182753086, -0.116382837296, 0, -0.140917822719, 0.0115575511009, 0.0670801177621, 0, 0.110057629645, 0.00366959813982, 0.0498653054237, -0.101338475943, 0, 0.030263543129, -0.142111510038, -0.242734000087, 0, 0, -0.119982220232, 0.154733166099, 0.184143677354, -0.0999216362834, -0.116534993052, -0.113771006465, 0.0434416569769, -0.159515082836, 0.0447304658592, 0, 0.0615898035467, -0.0517427325249, 0.00738109927624, 0, 0, -0.00845981761813, -0.222391247749, 0.106444992125, 0, -1.30801343918, 0, 0, 0.223937302828, -0.000188995283679, 0.00354242115282, -0.664935529232, -0.0753613859415, -0.0263961702585, -0.693501830101, 0.0247292499989, 0, -0.089354686439, 0.371007621288, -0.0451066046953, 0.0617334730923, 0.0167450997978, -0.0294887684286, -0.0484370030463, -0.0782209038734, 0.336553007364, -0.992737293243, 0, -0.49377784133, -0.54783052206, -0.154702723026, -0.0361056625843, -0.0587465241551, 0, 0.0245855338871, 0, 0.0768348947167, -0.00170439435169, 0, -0.202491030097, -0.0133833764121, -0.153716608882, -0.076883725822, -0.108237072825, 0, 0.142259061337, 0.0102563332766, 0, -0.0489259883761, -0.0650314614177, 0.118979051709, -0.0721120163798, -0.147800281644, 0.0696732625365, -0.0243882797658, 0, -0.0313916243613, 0.0446787849069, 0.0313455723226, -0.00425993837416, -0.133239448071, 0, -0.136417642236, 0, -0.0783171206713, 0, -0.0785243883729, -0.0600390769541, -0.0610591396689, -0.116877175868, 0.0138633232564, -0.134911224246, 0, 0.10832426697, -0.0348557122052, -0.141044303775, -0.188827484846, -0.0415340997279, -0.296997696161, 0, 0.107849173248, 0.0213416088372, 0, 0.0369502753019, 0.116529107094, -0.0294507853687, 0.045888774097, 0.01985482499, -0.00472969794646, -0.0463594384491, -0.0110572725534, 0, 0.0992771908641, 0.0157241523266, 0.059116024524, 0.0831514149904, -0.166297242045, 0.0673591867089, -0.329035311937, -0.095585949719, 0.568921387196, 0, 0, 0, 0.259274512529, 0, -0.029352158308, -0.25644505024, -0.078640781343, 0, 0, -0.0320413187146, 0.04753825441, -0.0731475278735, 0.221298515797, 0.059169780463, 0, -0.0706320330501, -0.127066448331, 0.0937284380198, 0.174057051539, 0.24887445569, -0.569396972656, -0.16182115674, -0.309170842171, -0.184880003333, 0.00837508402765, 0.109531514347, 0.0681162178516, -0.368445515633, -0.00401544570923, 0, 0, -0.0031907686498, -0.0117292525247, -0.0137729216367, 0, -0.323599219322, 0, 0, -0.0211306270212, -0.0151079958305, -0.0102958586067, 0.140961661935, -0.107813797891, 0.0490314513445, -0.00546906981617, -0.0637663155794, 0, 0.0296101998538, -0.0252713635564, 0, -0.10187176615, 0.0152103789151, 0.0241903178394, 0.0307420939207, 0, 0.034169472754, 0, 0.0383396819234, -0.138742357492, 0.460816830397, -0.0789877772331, 0.511408627033, -0.0951269194484, 0, 0.133302688599, -0.161013811827, 0, -0.0376320183277, 0.0712159723043, -0.0899881720543, -0.428597390652, 0.290931850672, -0.186543852091, 0, 0, -0.0250181294978, 0, 0.0502703152597, 0.174027606845, -0.465907871723, -0.182039022446, 0, 0.146731719375, -0.120090901852, 0.00872718077153, 0, -0.139935865998, 0.0131586492062, -0.0559217110276, 0.147958084941, -0.078038148582, 0, -0.151781991124, 0.157154887915, 0.164609611034, -0.312418848276, 0.216156363487, 0, 0, 0.185527667403, 0.0312214959413, -0.309813171625, -0.369778186083, 0, -0.545540690422, 0.189628943801, -0.039754666388, 0.137342259288, -0.184988856316, 0.160392284393, 0.207083433867, -0.195567727089, 0.130102470517, 0.0816722735763, 0.298272967339, 0.0250462256372, -0.105474583805, -0.519212543964, -0.029212506488, -0.0544307082891, 0.149053111672, 0.0767630785704, 0.0402632169425, 0, 0, 0.251462101936, 0, 0.0499930493534, 0.311104804277, 0.0147124510258, 0, 0.0202421974391, 0, -0.212632670999, 0, 0.0950578972697, 0, 0, 0.104173205793, -0.501773416996, -0.646721661091, 0, 0.220220521092, -0.142744705081, -0.0346877686679, 0.0191696323454, 0.140876874328, -0.161416977644, 0.096758723259, -0.205092072487, -0.00470009678975, -0.0216412171721, 0.187222883105, 0, 0.0418402776122, 0.068733625114, -0.00818149186671, -0.363040149212, 0, -0.0195618886501, -0.296233266592, -0.323933809996, -0.21385794878, -0.303185164928, -0.386590301991, -0.0103744203225, 0, -0.101100608706, -0.0763436034322, -0.392625063658, -0.214353278279, 0.0138288009912, 0, -0.308549463749, 0, 0, -0.0680041760206, -0.391056984663, 0.0147479595616, 0.188059106469, -0.0451049990952, 0.0069287493825, 0, -0.0652238056064, -0.0596667975187, 0, -0.0110201463103, -0.0299607086927, 0, -0.251867115498, 0, 0, 0, -0.0353686660528, 0, 0.110613770783, -0.0699015110731, 0.0750108361244, 0.107574254274, -0.196118086576, 0, 0.174835830927, 0, 0, 0, 0.0103099411353, 0, 0.0234256666154, 0.0827768743038, 0.0494872331619, 0, -0.0757349431515, -0.244179949164, 0, -0.239842280746, 0.0429122745991, -0.0267858579755, -0.0342380777001, 0.167808055878, -0.0294466931373, 0.0255465265363, -0.0882386341691, 0.0168195702136, 0, 0.0387893915176, -0.0443062148988, -0.00882988143712, -0.0644363164902, 0.0888586863875, 0, 0, 0, -0.0287894196808, 0.00630409130827, -0.0665695145726, 0.0987921655178, 0.024694910273, -0.0526347532868, 0, -0.0713565722108, -0.190068304539, 0.0154204303399, 0, 0, 0, -0.0497020184994, 0.0263666287065, 0.0995050370693, -0.155577465892, -0.0202136393636, -0.0625617280602, 0.14004611969, -0.116557605565, 0, 0, 0, 0, 0.0262803956866, 0.347384214401, 0.298915296793, 0.0871650129557, -0.0853001251817, -0.0204497482628, 0, 0.0353840366006, 0, 0.179766595364, 0.0150359300897, -0.177082121372, 0.0451439134777, 0.145505383611, -0.267606973648, 0.0771448910236, -0.131934255362, 0.0248297993094, -0.181134775281, -0.0435829088092, -0.274910360575, 0.0185473002493, 0, 0.0172878075391, 0.0178033914417, 0.0792457684875, 0.168101921678, 0.00972371827811, 0.0564234033227, -0.390555113554, 0.0545923002064, 0.0757852941751, 0.0143058393151, -0.0727764815092, -0.136737450957, 0.126581147313, 0.12920448184, 0.0285523142666, -0.0423033237457, 0.0540693625808, -0.0718108043075, 0.21180331707, -0.0311986766756, -0.153129205108, -0.163197159767, -0.00569438235834, 0.027812410146, -0.128276214004, 0.115727439523, -0.0919318944216, -0.388980656862, 0.0547413416207, -0.132593169808, 0.125436544418, 0.141144096851, 0, -0.00571565004066, -0.217350423336, -0.0711383372545, -0.0722612664104, -0.114881016314, -0.165898963809, -0.155970856547, -0.0784029960632, -0.0415254272521, 0.00445109326392, -0.137962579727, -0.11166292429, 0.00317727052607, 0.00256844330579, -0.306750029325, 0, -0.167249321938, -0.109924726188, 0.00983534194529, -0.0460874512792, 0, -0.111260294914, -0.0510484836996, -0.0982571095228, -0.327052950859, -0.0775301456451, -0.13140180707, -0.0804924443364, 0.0375641025603, -0.0974581688643, 0, -0.0817756056786, -0.147603616118, -0.0792475268245, 0.104642786086, -0.139435827732, -0.0977694317698, -0.0941838771105, 0.0511075891554, 0, 0.128275632858, -0.232421651483, -0.0138066690415, -0.0608909241855, 0.231189191341, 0.12988768518, -0.0657732337713, 0.220543161035, -0.217304989696, -0.267956197262, 0, -0.0499225109816, -0.236576423049, -0.0828860029578, 0, -0.2650359869, -0.0881105735898, -0.0520946606994, -0.10129249841, 0, 0, 0, 0, 0.0678844451904, 0.0104263070971, -0.0119640966877, 0, 0.0599266551435, 0.0201880354434, -0.0875582024455, -0.0570456646383, 0.0116485534236, 0.159154772758, 0.00291271763854, 0.109094306827, -0.00159921590239, 0, -0.361607968807, -0.0116559043527, -0.249892100692, 0.0848134160042, 0.2198972404, -0.132959768176, 0, 0.106684722006, -0.0382936745882, -0.225556224585, 0, 0.0670299232006, -0.0129098976031, -0.191411614418, -0.0227170791477, 0, -0.541238546371, 0.135837048292, 0.0189250297844, -0.072979003191, 0.174062728882, -0.0757595300674, 0, 0.0688354447484, 0.306383520365, -0.0932899415493, 0.308891445398, -0.169528499246, 0.286122024059, -0.000748884514906, -0.0802234113216, -0.201304733753, -0.557250499725, 0.291333258152, -0.174441814423, -0.153304964304, 0, 0, 0.222840845585, 0.249376192689, 0.448774278164, -0.275880396366, 0.111697934568, -0.0630416274071, 0, 0.193477571011, -0.0577359199524, -0.450343370438, -0.0791508406401, -0.194795295596, 0, 0, 0, 0.0331620797515, -0.164075523615, 0.271356672049, 0, -0.240574911237, 0.233630776405, 0, 0.212778374553, -0.000435322901467, 0.26663351059, -0.290133118629, -0.294728308916, 0.255370289087, -0.242515385151, 0, -0.0875705853105, 0, 0.0891941636801, -0.113868974149, 0.265091001987, -0.179305031896, -0.111572623253, 0.0832649767399, 0.129001781344, 0.00720353098586, -0.186326786876, -0.294665843248, -0.262799739838, -0.0577915273607, -0.0518724657595, 0, 0.283695995808, -0.066994279623, 0, 0, 0, -0.00534739298746, -0.400198370218, 0, -0.404855102301, -0.249293401837, -0.399172782898, 0, 0.192242130637, -0.186312094331, 0, -0.033375646919, 0.245655864477, -0.0393679812551, 0.0490359775722, -0.397577047348, 0, 0, 0.174983024597, 0, 0.0923155248165, 0.00691358465701, -0.0903096795082, -0.0203869920224, 0.0309967901558, 0.0920846238732, 0.125423163176, -0.155916914344, -0.228477910161, -0.0558739081025, -0.159134611487, -0.1053962484, -0.0642983093858, -0.136835291982, -0.0051826108247, -0.0689569339156, 0.0321286544204, 0, -0.0359801985323, 0, 0.18726053834, -0.0791509747505, 0.0541798807681, -0.0522745400667, -0.397416174412, 0.233785301447, 0.167175501585, 0, -0.0243025142699, -0.0567026697099, 0.0202211588621, -0.111200034618, -0.029708283022, 0.136624231935, 0, 0, 0.171133205295, 0.173034563661, -0.127383723855, -0.0619054213166, -0.10553970933, 0.0446688905358, 0.140207245946, 0, 0.06273984164, 0.0772260650992, -0.0868247523904, 0, 0, 0, 0.00349434698001, 0.0188894197345, 0.169287323952, 0, 0.0201461333781, -0.115186937153, -0.327199935913, 0, -0.0417260304093, 0, 0.0232505779713, 0, -0.266984730959, 0, 0, 0, -0.234879314899, 0.279766440392, 0, 0, 0.0135421277955, -0.0357842855155, 0.0557915978134, 0.264858692884, -0.495651841164, 0, 0, 0, -0.0991599336267, 0.132059618831, 0.0410478822887, 0.158937111497, -0.0126968529075, -0.0775938928127, 0, -0.0853330865502, -0.342645734549, 0, -0.266404300928, -0.488728404045, -0.436429172754, 0, 0.351072013378, -0.0515681430697, -0.213979110122, 0.135612532496, 0.095359750092, -0.00210029631853, 0, -0.225389257073, 0, 0, -0.120162196457, 0.113814525306, -0.0710259750485, 0, 0.265210241079, 0, -0.119349420071, 0, -0.181086480618, -0.0362912751734, -0.147212475538, -0.0611630007625, -0.108852446079, 0.0540616624057, -0.105412758887, -0.141592636704, 0.130959570408, -0.149169668555, 0, 0.14751803875, 0, -0.0884202569723, -0.143412977457, 0.18574346602, 0, 0, 0, 0, 0.203402787447, 0.23549208045, 0.0612224899232, 0, -0.0590277016163, 0, 0.112590052187, 0.0731426998973, 0, 0, 0.654689669609, -0.335066556931, 0.212729230523, -0.61232316494, 0.206354007125, 0.00749974185601, -0.0447771139443, -0.238297522068, -0.482084363699, 0.140808075666, 0, -0.598246634007, 0.393727988005, 0.210990428925, -0.523573219776, 0, 0, -0.591311216354, 0.451925069094, 0.294978708029, 0.584663927555, 0, 0, -0.588502466679, -0.18611086905, -0.449271678925, 0, 0, -0.656167089939, -0.00987772364169, -0.551863849163, 0.0709492489696, 0.0845528170466, 0, 0.189456939697, 0.0737484097481, 0, -0.0854523852468, 0.010007828474, -0.000815014180262, -0.0378210358322, 0.11508077383, -0.401767879725, -0.241695448756, 0.0801973044872, 0.065259590745, 0, 0.114127479494, -0.0308042373508, -0.0806423053145, 0, 0, 0.000149444094859, -0.0201227739453, -0.182603374124, -0.644150257111, -0.19864602387, -0.38425090909, 0, 0.0666290000081, -0.22157202661};