//Numpy array shape (32, 32)
//Min -1.24518072605
//Max 0.723169624805

weight_default_t w3[32][32] = {-0.0575783923268, -0.0371820814908, -0.172926336527, -0.0847013369203, 0.0228050239384, 0.012377508916, -0.0264318715781, 0.118358977139, -0.204740896821, -0.103872448206, 0.171497553587, 0.0144892567769, -0.116579294205, -0.00844470225275, 0, -0.410648047924, -0.413217395544, -0.128446996212, -0.237000882626, -0.102629624307, -0.115614324808, -0.173993960023, 0, 0.00743215391412, 0, -0.0349090248346, -0.134299591184, 0, -0.157488584518, 0.0372954569757, 0.0594468191266, -0.179403692484, 0.0145103828982, 0.148856669664, -0.00579678546637, 0.378158211708, -0.334166318178, -0.779964625835, 0.113041713834, -0.725857853889, -0.0116626685485, 0, -0.778006792068, -0.0479176081717, 0.073295854032, -0.289900869131, 0.0596330799162, 0.0803254395723, 0.36803522706, 0.404274880886, 0.331202596426, 0, 0.0222220215946, 0, 0, -0.0402921065688, -0.630038321018, -0.528682589531, 0.0589793249965, 0, -0.238733962178, -0.617409229279, -0.364030659199, -0.140103846788, -0.105724535882, -0.92231720686, -0.236642897129, -0.0929624065757, 0.248888939619, 0.0952370613813, -0.12134192884, -0.115694843233, -0.451291412115, -0.100141055882, -0.00909579638392, -0.00233582314104, -0.0507769063115, 0, -0.0864383354783, -0.777503311634, -0.0803358033299, -0.217674672604, -0.0639437660575, -0.130323722959, -0.239741995931, -0.326963722706, 0.298868894577, 0, 0, 0, -0.183259174228, 0.0789556130767, 0.011779692024, 0.281670600176, 0.0268766041845, 0, 0, -0.358987718821, -0.383843034506, -0.510237276554, -0.788185656071, 0, 0.388402611017, -0.963733017445, -0.41351005435, -0.322684705257, -0.93060874939, -0.866212129593, 0.514552116394, 0, -0.159646049142, -0.136930763721, 0.723169624805, -0.418756753206, 0.42645278573, -0.0629144608974, 0.294938832521, 0.398370712996, -0.629727125168, -0.331043601036, -0.491816520691, -0.772106349468, -0.132394105196, -0.911125838757, -0.654843151569, -0.591035723686, -0.594396531582, -0.298723876476, 0.0286565814167, 0.221661642194, 0.1711550951, 0, -0.410752892494, -0.0595776624978, 0.146131902933, -0.375102132559, 0, 0.185567393899, -0.329730242491, 0, 0.0101736886427, -0.230749070644, 0.149790167809, 0.096494615078, 0, 0, 0, -0.0232486575842, 0.167069226503, -0.192120850086, 0, 0, -0.474189758301, -0.300621300936, 0.351638555527, -0.202311232686, 0, -0.85082423687, -0.731077253819, 0.139942869544, -0.278787344694, -0.37928044796, -0.195839673281, -0.0881252512336, 0.0955499857664, 0.190885022283, 0, 0.224692732096, -0.16640253365, -0.109365984797, 0, -0.0436497181654, -0.0142137603834, 0, -0.0957928523421, -0.784734070301, -0.105754427612, -0.144427210093, -0.121071852744, 0, -0.0763642117381, -0.120978035033, -0.178877145052, -0.0570369772613, 0, 0.0616674944758, -0.124897815287, 0.08514739573, 0.234958589077, 0.117060594261, 0.161353886127, -0.592944562435, -0.0678896680474, -0.409321337938, -0.228102177382, -0.356538295746, 0, 0, 0, 0, -0.711260914803, -0.317908912897, 0.190948963165, 0, -0.330271780491, 0.110671326518, -0.357236593962, -0.150090783834, 0, 0, 0, 0, -0.463614970446, 0.385775715113, 0.359087318182, -0.00479971012101, 0.473275601864, 0.555651903152, -0.0409855432808, 0.529473423958, 0, 0, 0.318419724703, -0.0373838804662, 0.345243275166, -0.249417945743, -0.199217110872, -0.175638273358, 0.13127207756, 0.115747779608, 0, 0.0137800155208, -0.170011520386, -0.127039536834, 0, 0, -0.0600519105792, -0.273495525122, -0.0519189424813, 0, 0.0445129349828, -0.119645804167, 0.030383804813, 0, -0.0149848945439, 0, 0.34688141942, -0.179259598255, -0.165017291903, 0, -0.072669878602, 0.149508371949, -0.176536992192, -0.267707049847, 0.0800858959556, -0.401107192039, 0.325851202011, -0.78505808115, -0.633074581623, -0.382485985756, -0.0465892702341, 0.287714451551, -0.512540876865, 0.151532620192, 0, 0, 0.271384567022, -0.00555289164186, -0.196299433708, 0.307225525379, -0.696821630001, 0, -0.260860621929, -0.8657528162, -0.142382383347, -0.415673911572, 0, 0, 0.196244359016, -0.226957499981, 0.333111196756, -0.0226099286228, 0, 0, 0.0473678633571, 0.0653627961874, 0.0989762619138, -0.731371939182, -0.285016000271, -0.521313905716, 0, 0, 0.187320917845, 0.0743316709995, 0, 0.17128649354, -0.254128456116, -0.136486768723, 0.408402979374, 0.240145400167, -0.169315695763, 0.129391685128, -0.28047016263, -0.666513383389, -0.0562920793891, -0.409773856401, 0, 0, -0.398535132408, -0.362512648106, 0, 0.276599913836, -0.0746053606272, 0.267619043589, -0.283727765083, 0.146949827671, 0.144834116101, 0.361161440611, -0.0600070692599, -0.848903477192, 0.0101172300056, 0.00635853921995, 0, -0.0884460359812, -0.147735282779, -0.165908843279, 0.188037589192, -0.153022482991, 0.00427864538506, -0.0950419530272, -0.398083776236, -0.152006357908, 0, -0.123120881617, 0.0750301852822, 0.0801560506225, -0.0527277700603, -0.0506804250181, 0.202923133969, 0.0375333540142, 0.181585162878, 0, 0, -0.0323232151568, 0, 0, -0.282448321581, 0, -0.00310801900923, -0.441987782717, -0.555035889149, 0, 0.0711036622524, 0.0890897288918, 0.374989956617, 0.233074352145, -0.21603551507, -0.569736838341, 0.205675393343, -0.169220253825, 0.289426267147, 0.0875065252185, -0.358254730701, -0.0745847299695, 0.143815562129, -0.418222039938, 0.0825357809663, 0.0881035327911, 0.0134526370093, 0, 0.136459872127, -0.0342517793179, 0, -0.260378956795, 0, -0.117268770933, -0.0435915701091, -0.205809473991, 0, -0.306421548128, -0.0578063726425, -0.247118204832, -0.372008293867, 0.0959725603461, -0.0492864064872, 0.298456817865, 0.323933571577, 0.196206644177, 0, 0, -0.264182925224, 0.0149085810408, 0, 0.252360314131, 0.445591241121, 0.221305042505, 0.19692106545, 0.0142212789506, -0.0454860217869, -0.0412441939116, 0, 0, 0.158711150289, -0.0522942058742, -0.214455574751, -0.326394498348, 0, 0, 0.414788424969, 0.133755907416, 0.217152446508, -0.0045969071798, 0.254148334265, 0.355718523264, 0, 0.210531339049, 0.00209702923894, 0.134352609515, 0.153978735209, 0.276206165552, -0.17528501153, -0.229693740606, 0.238615110517, -0.447301268578, 0.124983593822, 0.133303269744, 0, -0.0560261048377, 0.124005801976, 0, -0.101071856916, 0.0581317357719, 0, 0.127668216825, 0.279099225998, -0.029170140624, -0.104966901243, -0.345228552818, -0.69961810112, -0.136502623558, -0.237217441201, -0.212967395782, 0.328532189131, -0.291843593121, -0.0134666655213, -0.487606436014, -0.744179129601, -0.0226789247245, -0.00523054553196, -0.0808744803071, 0.059861138463, 0.205215275288, -0.684699237347, -0.354983866215, 0, -0.773950278759, 0.158614575863, 0.0726152509451, 0, -0.426660388708, 0, -0.2251663059, -0.0210207086056, 0.00865656044334, 0.0560138113797, 0.122993759811, 0.27586582303, 0.169773638248, -0.195680454373, 0.319101780653, -0.0333540029824, -0.340920001268, -0.0455412454903, -0.532387793064, 0.164494469762, -0.429627329111, -0.519357800484, -0.406611979008, -0.652170479298, 0.0959950014949, -0.085426852107, -0.289613008499, -0.181163176894, -0.292529821396, 0, 0.222931995988, -0.290149986744, 0.0407661385834, -0.335582822561, -0.31038865447, 0.0750937387347, 0.402736008167, 0, 0.0909746065736, -0.611807584763, 0, -0.17231361568, -0.271806508303, -0.263896912336, 0.134828969836, -0.198519453406, 0, 0.305668979883, 0, 0.029169620946, 0, -0.354716062546, 0, 0, 0, 0.0856105983257, 0, 0, 0.0827580913901, -0.0513029508293, 0, 0, -0.42236199975, 0.0553566925228, 0, 0, 0.147752314806, -0.442750662565, 0.00242997729219, 0, -0.428394794464, 0.198325768113, -0.0223294831812, 0.200302779675, 0.0031336825341, 0.0280619245023, 0.347943276167, 0.101739026606, -0.244474932551, -0.319267690182, -0.0325397774577, -0.25447332859, -0.152374222875, 0.288504004478, -0.311095297337, -0.117573395371, -0.467716187239, -0.390427827835, -0.00233212998137, -0.111852094531, 0, 0.211955368519, -0.160286024213, -0.0821924507618, -0.678804457188, 0.260278970003, -0.131136775017, 0.176907390356, -0.0137433363125, -0.222427070141, -0.147978931665, 0.298712730408, -0.150171115994, 0.139352858067, 0.0789223462343, 0.354712218046, -0.144095823169, 0.266582071781, 0.0984888002276, 0.360153794289, 0.0393531881273, -0.391396969557, -0.0771230235696, -0.176931321621, 0, -0.177657678723, -0.325275480747, -0.0566884875298, 0.0273346118629, -0.718173325062, 0.152048692107, 0, -0.0794594734907, 0, 0, -0.133052587509, 0.178312703967, -0.0922672152519, -0.0766372308135, -0.359681844711, -0.273188263178, 0.140900909901, 0.14463801682, -0.147562041879, 0.0519274771214, -0.276589423418, -0.519712567329, -0.219287052751, -0.516535282135, -0.15164861083, -0.00364601309411, -0.212096765637, -0.0526306666434, 0.180162832141, -0.00997834932059, 0.00908282864839, 0.124440662563, -0.143587559462, -0.0600110590458, 0.114496722817, 0.217491552234, -0.00961001496762, -0.544013857841, 0.443295896053, -0.475281894207, -0.174427449703, -0.0190393291414, -0.134602367878, -0.0627886578441, 0.00830572564155, 0.186082795262, -0.252024829388, 0, 0.244846701622, 0, 0.0215560551733, -0.168282583356, -0.0189727004617, -1.24518072605, 0, 0, 0.00739593617618, -0.0987847149372, 0, -0.406978666782, -0.332435339689, 0.545958817005, 0, 0.119255043566, -0.0682466775179, 0.138420820236, 0, 0.005734981969, -0.0129400482401, -0.97412198782, 0.215690657496, 0, 0.235453113914, 0.237339794636, -0.278606444597, -0.174293965101, 0, 0, 0.142748981714, 0.0547535531223, -0.167416721582, 0.106041803956, 0.240048378706, -0.42921975255, 0.0770277902484, 0.0692316070199, 0.0257682316005, 0.0140906805173, 0.174300596118, 0.167117476463, 0.0547270067036, -0.353400498629, 0, -0.118135377765, -0.758929312229, -0.316705435514, 0.00246238755062, 0, -0.363844633102, 0, 0, 0.0457197651267, -0.393593132496, -0.618822693825, -0.206210702658, -0.214662671089, 0.11861358583, 0.439827144146, -0.37684109807, 0.236056670547, -0.643825054169, -0.240362837911, 0.067609295249, 0, -0.14498500526, 0.0550333671272, -0.170147284865, 0, -0.151784852147, -0.0905337929726, -0.0989376083016, -0.13506436348, -0.129743635654, -0.30587092042, 0.293595641851, 0.0274167153984, -0.0622356645763, 0.0579383932054, -0.74176299572, 0.422976851463, 0.371056973934, 0.17568282783, 0.205866977572, -0.575708568096, 0.595319449902, 0, -0.519536793232, -0.549317717552, 0.398023992777, 0.445323616266, -0.468068361282, 0.585055112839, -0.715721786022, 0, 0.47288197279, 0, -0.337596237659, 0.173888072371, -0.470904439688, -0.273283332586, -0.129857972264, -0.695653855801, -0.364408224821, -0.0663765966892, -0.355682164431, 0.106152787805, 0.427862077951, -0.214343175292, 0.444745123386, 0.174139156938, -0.264218956232, 0.124579548836, 0.326533406973, 0.261404722929, 0.327454179525, 0, 0, -0.411539644003, -0.109323054552, -0.13947147131, 0.244614213705, -0.187745302916, -0.0837337076664, 0.220366701484, -0.272831737995, 0, 0.0203716680408, 0, 0.000164281125762, 0.179743498564, 0, -0.948679566383, 0.0368853658438, -0.231519073248, -0.0277306735516, 0.0166169889271, -0.119959622622, -0.458817660809, 0, -0.256709486246, 0.213884040713, 0.0220084767789, -0.262188047171, 0, 0, 0.210833862424, 0.0651253908873, -0.435040235519, -0.157078877091, 0.120283521712, -0.0326624028385, 0.0968922227621, -0.192528009415, -0.242760717869, 0.00410854071379, -0.37424197793, 0.00818541646004, -0.0326799415052, -0.0905524715781, -0.243729159236, -0.144364669919, -0.00322203198448, 0.14710535109, 0.112811818719, -0.0195121821016, 0, 0.140232130885, -0.0520231500268, 0.00728766713291, -0.310902059078, -0.18309007585, -0.11749881506, 0, -0.135145008564, 0, -0.27480635047, -0.150905430317, 0, -0.658726513386, 0, -0.0326441153884, 0.00327580515295, 0.171644106507, 0.237400949001, -0.455253988504, -0.363400548697, 0.239530414343, 0, 0.29257953167, 0.220316559076, -0.530661284924, -0.813866734505, 0.376480549574, -0.25292378664, 0.290509700775, -0.148654609919, 0.102949492633, -0.133408263326, 0.42523625493, 0.00283752870746, 0.356212586164, 0.0891652479768, 0, -0.119686275721, -0.616697907448, -0.454965591431, 0.394220352173, -0.480021983385, -0.433912575245, -0.827324390411, -0.758979916573, -0.00668773660436, 0.0651573613286, 0.0275678187609, 0.301049441099, 0.0769666284323, -0.0491435751319, -0.343194186687, 0, -0.124657072127, 0.193133950233, 0.122079074383, -0.151933208108, 0.0413171797991, 0.236358359456, -0.247395217419, 0.177607357502, 0, 0.414303213358, 0.156888872385, 0.349719136953, 0.0930062830448, 0.338998943567, -0.210938856006, 0, -0.398028731346, -0.0875467956066, -0.143264010549, 0.338434934616, -0.256109476089, -0.0701432973146, -0.297212392092, 0, 0, 0, -0.0678829476237, 0.163950592279, 0.0818405523896, -0.102205760777, -0.426229447126, 0.255439013243, -0.342250853777, 0.0120818940923, 0.0699322372675, -0.550745725632, -0.35932341218, 0.144912377, 0, 0.138489976525, 0.0698727741838, 0, 0.234083473682, 0, 0.36982601881, 0, -0.401526391506, -0.161706104875, 0, -0.253679960966, -0.324657469988, 0.0220575220883, -0.482945680618, -0.323697566986, 0, 0, 0, 0.079009398818, 0.00121911533643, 0.227070733905, 0.138607561588, 0, -0.0130190914497, -0.0112247634679, -0.346505731344, 0.109735123813, 0, -0.200287207961, -0.270627707243, -0.0909614488482, -0.0521285422146, 0, -0.0170595627278, 0, 0.0905162245035, -0.0744666829705, 0, 0, 0.130379259586, -0.219244912267, -0.0743687897921, -0.0952118039131, -0.148875266314, -0.0693496018648, -0.138927325606, 0, 0, -0.641570270061, -0.032642878592, 0.106730572879, -0.451447814703, 0, 0, -0.0214194022119, 0.0431646183133, 0, 0.239049226046, -0.497187286615, -0.305362522602, 0.309479534626, 0.370012074709, -0.159608334303, 0, 0, 0, -0.0762004852295, -0.704160511494, -0.225418955088, -0.123565912247, -0.079796820879, -0.0570452846587, 0.252016663551, 0.0909097418189, 0.124036416411, 0.134384721518, -0.319405168295, 0.417583912611, 0, 0.126158460975, 0.00864216405898, -0.434077978134, -0.412067472935, -0.871573626995, -0.518505215645, 0, 0.208402141929, 0.375632971525, -0.266525357962, 0.0695781633258, 0, -0.629190146923, 0.136556699872, 0.104119218886, -0.259078234434, 0.30987945199, -0.530190169811, 0, -0.179502591491, -0.550980627537, 0, 0, 0, -0.0861320793629, 0.383045375347, -0.160109058022, 0.403485685587, 0.0635984539986, 0, 0.172282502055, 0.282517671585, -0.0148500055075, 0.233238980174, 0, 0, -0.491237163544, -0.105502977967, -0.140920743346, 0.0378219150007, 0, -0.251283913851, 0.0176834911108, -0.253914833069, 0, 0.00151303666644, 0, -0.147850871086, 0, -0.166411906481, 0, -0.332132041454, -0.163856849074, -0.266287147999, 0.123455367982, -0.253704100847, -0.0935465022922, 0.085446998477, -0.0963725745678, 0.233989924192, 0, -0.431973606348, 0.0711031854153, 0, 0.0974011793733, 0, -0.777374982834};