//Numpy array shape (14, 4)
//Min -2.466705083847046
//Max 3.5146822929382324
//Number of zeros 0

weight_default_t w2[56] = {2.032714605331421, -1.4886707067489624, -2.466705083847046, 1.6794534921646118, 1.5699429512023926, -2.380587100982666, -1.7530847787857056, 1.5820599794387817, 0.8010467886924744, 0.24782811105251312, -0.32733869552612305, -0.7060357332229614, 0.06334730982780457, 0.6687144041061401, -0.4756256937980652, -0.3578619658946991, 1.0347583293914795, -0.32493409514427185, -0.0035437182523310184, -1.1532597541809082, -1.767579197883606, 0.10792382061481476, -0.0804322138428688, -1.9405813217163086, -1.7086567878723145, 3.5146822929382324, 1.859595537185669, -1.0079342126846313, -1.988356351852417, -1.7156935930252075, -2.3587260246276855, -2.3347949981689453, -2.0329723358154297, -2.398272752761841, -1.7987332344055176, -1.137315034866333, 0.47802960872650146, 0.4172419309616089, -0.10753578692674637, -1.1309620141983032, 0.2687910199165344, 0.43387624621391296, 0.055800385773181915, 0.1962762326002121, 1.3729736804962158, -0.4297473430633545, -0.2778320610523224, -1.1099122762680054, 1.9125382900238037, 0.0058996048755943775, 0.10933271795511246, 1.7595330476760864, 0.3200301229953766, 0.3024784326553345, -0.3333609104156494, -0.8056105971336365};
