//Numpy array shape (14, 4)
//Min -4.295455455780029
//Max 4.2412614822387695
//Number of zeros 0

weight_default_t w2[56] = {-0.2536274790763855, -0.7560821771621704, 0.8197305202484131, 0.8068968057632446, 1.1017109155654907, -1.5312777757644653, 2.7553229331970215, -1.855638027191162, 2.3425729274749756, 2.6336779594421387, -1.615179419517517, 0.513985276222229, -1.5043972730636597, -0.1248135045170784, -0.24190214276313782, -0.3871944546699524, -0.7142959237098694, 0.12657052278518677, 0.9896268248558044, 0.5172649025917053, -2.9477899074554443, -1.3745756149291992, -4.295455455780029, 0.5356906056404114, 0.27806052565574646, -0.05591197684407234, 0.5941792726516724, 0.03713459149003029, -0.7529475092887878, -0.9035755395889282, 0.8448150753974915, -0.7626664042472839, -1.5196490287780762, -1.743384599685669, -2.1952502727508545, -2.6689579486846924, 0.9349319338798523, 1.8353583812713623, 2.830639362335205, -0.2649758756160736, 0.5483999252319336, 1.372538685798645, 1.3369001150131226, 0.1191348284482956, -0.9762619733810425, 1.1805922985076904, -0.23651669919490814, 1.4364982843399048, 2.2594618797302246, -0.7591651678085327, 4.2412614822387695, -0.8655246496200562, -0.10812073200941086, 0.09392876923084259, -0.13659904897212982, -0.00037636555498465896};
