//Numpy array shape (21, 4)
//Min -1.8227524757385254
//Max 1.5543348789215088
//Number of zeros 0

weight_default_t w4[84] = {-0.67049640417099, -0.4877171218395233, 0.021029237657785416, -1.3000770807266235, 0.6171411275863647, 0.19963781535625458, 0.011846823617815971, 0.5508477091789246, -0.5910981893539429, -0.4135313332080841, 0.180583655834198, 0.4295094311237335, 0.6889249682426453, 0.04042870178818703, -0.048569973558187485, 0.37984707951545715, 0.6158944368362427, 0.34244412183761597, -1.5511627197265625, -0.155014306306839, 0.633134663105011, -0.11532533168792725, -0.004001750145107508, 0.25760582089424133, -0.04788263514637947, 0.02366388961672783, -0.058362554758787155, 0.0776408314704895, 0.8964942693710327, -1.0459712743759155, -0.3344131410121918, -0.23150134086608887, -0.33503273129463196, -0.049563318490982056, 0.44688481092453003, 0.5129603147506714, 0.5917133688926697, -0.8558704853057861, -0.09118484705686569, 0.5130703449249268, -0.813962459564209, 0.18035918474197388, 0.3848782777786255, -0.20899885892868042, -0.23444364964962006, 1.5543348789215088, 0.21356891095638275, 1.0293723344802856, 0.146907240152359, -0.13368117809295654, 0.4998359978199005, 0.1592453569173813, 0.018037064000964165, 0.012857615947723389, 0.0029035359621047974, 0.005362110678106546, 0.6576170921325684, 0.2227293998003006, 0.5584062337875366, 0.8015729188919067, -0.9060322046279907, -0.3126789927482605, -0.921640157699585, -1.1364774703979492, -0.6417981386184692, -0.12730339169502258, -0.2725737988948822, 0.5497978329658508, -0.3926181197166443, 0.5540853142738342, -0.5882571935653687, 0.6732366681098938, 1.3929699659347534, -0.39718323945999146, -1.3555233478546143, 0.2350531816482544, -1.8227524757385254, 0.5510730147361755, -1.190011739730835, -0.8313758373260498, 0.051352694630622864, -0.06751952320337296, 0.08144182711839676, -0.03718550130724907};
