//Numpy array shape (21, 4)
//Min -1.375999093055725
//Max 1.5654724836349487
//Number of zeros 0

weight_default_t w4[84] = {0.645216703414917, -0.10718747228384018, 0.5985079407691956, -0.6004626154899597, -0.3794128894805908, -0.38334453105926514, -0.1823582947254181, 0.1565539687871933, 0.6194186806678772, 0.28655558824539185, 0.08585905283689499, -0.5190271735191345, 0.48995622992515564, -0.17135654389858246, 0.2264113426208496, -0.2732026278972626, -0.02816852368414402, -0.0606226772069931, 0.089456707239151, -0.156410813331604, -0.7424957752227783, -0.48416867852211, -0.5829228162765503, 0.6136001944541931, -0.06943730264902115, 0.9768764972686768, -0.2673026919364929, -0.00708960834890604, 0.6922266483306885, 0.10608110576868057, 0.7919450998306274, -0.5168196558952332, -0.2942265272140503, -0.6729241013526917, -0.0779956579208374, 0.3193564713001251, 0.32907870411872864, 0.19325567781925201, 0.07879585027694702, -0.4214002192020416, 0.35799527168273926, 0.38207775354385376, -0.01991390250623226, -0.41401320695877075, -0.11526674777269363, -0.2862125039100647, 0.23271755874156952, 0.031771931797266006, -0.7224696278572083, -0.4921540319919586, -0.6071388125419617, 0.7128744125366211, 0.09270691871643066, 0.39048662781715393, -0.11035067588090897, -0.04183441027998924, -1.3254868984222412, -0.7907764315605164, -0.6426952481269836, 1.2856961488723755, 0.6875326037406921, -0.19739070534706116, 0.5564324259757996, -0.5037481188774109, -0.9085403680801392, -0.17434780299663544, -0.6822245717048645, 0.7564079761505127, -0.7719812393188477, -0.29481256008148193, -0.41891583800315857, 0.6469370126724243, -0.14393199980258942, -0.5399296283721924, -0.328823447227478, -0.10021739453077316, 1.5654724836349487, 0.8469602465629578, 1.1273330450057983, -1.375999093055725, -0.12547525763511658, 0.1297314316034317, -0.2851104736328125, 0.08814329653978348};
