//Numpy array shape (6, 7, 4)
//Min -0.157015085220
//Max 0.160996630788
//Number of zeros 0

weight_default_t w1[168] = {-0.023897008970, -0.032709948719, -0.005839719437, -0.024946086109, -0.018834026530, -0.067667894065, 0.099171906710, 0.043973237276, -0.093384034932, -0.009998304769, 0.076499290764, 0.103212319314, 0.030836787075, -0.011733092368, 0.000045600278, -0.049109436572, 0.016594495624, -0.083945699036, 0.086761273444, 0.038651265204, -0.015834357589, 0.043412558734, 0.003386688419, 0.057190503925, 0.000760145311, 0.007536427118, 0.140343114734, 0.018532495946, 0.033262990415, -0.016890723258, 0.091065935791, 0.078372165561, -0.020668026060, -0.002550160047, 0.110424958169, -0.009384501725, -0.079836227000, 0.068112969398, 0.000683691178, -0.089763849974, 0.058544281870, -0.147375971079, 0.021393209696, 0.000865484297, -0.136692985892, -0.104163900018, 0.059704761952, 0.068727701902, 0.019034406170, -0.091036386788, -0.022958444431, -0.085683502257, -0.116508208215, 0.156806319952, -0.072937354445, -0.113810800016, -0.044854674488, -0.134815797210, 0.095215961337, 0.055959582329, 0.003767357441, 0.097801156342, 0.118902996182, -0.020144857466, -0.002116470831, -0.034514263272, 0.128554850817, 0.040485572070, -0.064649656415, -0.004061841872, -0.150175407529, 0.058536615223, 0.124292790890, -0.031759873033, -0.092176571488, 0.023337405175, 0.003699261695, -0.021887026727, -0.049088533968, -0.108435675502, 0.056930243969, -0.055949304253, -0.114007025957, -0.145824193954, 0.058156296611, -0.046432666481, -0.117302007973, 0.016594834626, -0.049869526178, 0.041665624827, 0.018291670829, 0.076966345310, 0.046755783260, 0.000118032753, -0.079495429993, -0.090346410871, 0.030704364181, 0.025149891153, 0.094758994877, -0.030936947092, -0.027434850112, -0.057673539966, 0.021510107443, -0.140087559819, 0.079871252179, 0.064778111875, -0.023771829903, 0.137964218855, 0.024003738537, 0.008730463684, -0.138027936220, -0.157015085220, 0.016583248973, -0.064496144652, -0.086006291211, -0.074719920754, 0.118529781699, -0.022603210062, 0.027056034654, -0.022344777361, 0.044138036668, 0.089493095875, 0.102145835757, -0.023135602474, -0.002356942976, -0.068893827498, -0.063201881945, 0.129251614213, 0.004894043319, 0.114864043891, -0.004691770300, 0.106836728752, -0.048451777548, -0.020148899406, 0.002175877569, 0.087803266943, -0.027636557817, 0.022074401379, -0.056023340672, -0.063348539174, -0.029755931348, 0.050633437932, 0.025257345289, -0.045559272170, 0.041095629334, 0.160996630788, 0.057750795037, -0.085213243961, -0.080399364233, 0.091868333519, -0.101992301643, -0.030879767612, 0.148273095489, 0.041478954256, 0.123858809471, -0.078835271299, 0.000459797739, -0.025572717190, -0.151949197054, 0.081679411232, -0.122200757265, -0.008616255596, -0.069154359400, 0.006985587999, -0.026058651507, -0.000050869163, 0.053915675730, 0.077633909881};
