//Numpy array shape (400, 5)
//Min -0.085067555308
//Max 0.085065267980
//Number of zeros 0

weight_default_t w2[2000] = {0.010193394497, 0.001810820075, -0.081425040960, 0.002793066902, 0.033030442894, 0.075671412051, 0.060115396976, -0.059023752809, -0.018158473074, -0.055607743561, 0.084073074162, 0.045526713133, -0.076639764011, 0.021892413497, -0.001094528707, 0.053817182779, 0.046026900411, 0.014490814880, -0.079221442342, 0.020308241248, 0.024559885263, -0.000012296699, -0.016827546060, -0.042819164693, -0.051918916404, -0.071573898196, 0.039725273848, 0.073406256735, 0.045852050185, 0.009680384770, -0.005570381880, 0.029295034707, 0.008933247998, -0.041043013334, 0.038714408875, -0.036942347884, -0.055963110179, 0.003865815699, -0.059001680464, -0.081068515778, -0.005876213312, -0.053477853537, -0.023400768638, 0.042225375772, 0.030719865113, 0.033457808197, -0.061912801117, 0.043532267213, -0.005794718862, 0.040084376931, 0.008334839717, -0.014829577878, 0.071644283831, -0.048722535372, 0.078647620976, 0.030584413558, -0.076411172748, -0.023931600153, 0.072952665389, 0.010412836447, -0.080013111234, 0.044354528189, 0.011994445696, -0.009713562205, 0.003861069679, 0.039850711823, -0.039359319955, -0.021256737411, 0.061004772782, 0.034286044538, -0.074723102152, -0.037921581417, -0.052013501525, -0.043136641383, 0.064601354301, -0.013527700678, 0.053667426109, -0.006489806343, 0.006300792098, -0.001238280209, -0.038521230221, -0.040928415954, -0.079944811761, -0.017480731010, 0.073064126074, 0.038861706853, -0.071203790605, -0.064551569521, -0.063949011266, -0.007554211654, -0.007002793252, 0.028639569879, 0.052813038230, 0.018043793738, 0.048828601837, -0.054693073034, -0.026366513222, 0.084155999124, -0.076490990818, 0.054847761989, 0.059705883265, -0.000786588702, 0.060702443123, -0.055617138743, -0.083557181060, -0.032365795225, -0.078897729516, 0.033449172974, 0.026772759855, -0.024739913642, -0.068823158741, -0.022813651711, 0.007288389839, -0.044734686613, 0.084264419973, 0.030026352033, 0.051227211952, -0.052085582167, 0.077193222940, -0.023067701608, 0.033218704164, -0.026652958244, 0.068915940821, 0.056554093957, -0.010081918910, 0.077541552484, -0.019422009587, -0.005639716983, -0.032415390015, -0.082562930882, 0.022551529109, -0.081405840814, 0.051073849201, 0.062945269048, -0.084340699017, -0.029797760770, 0.023735776544, 0.002462395700, 0.057176172733, 0.016593419015, 0.021830700338, 0.040454491973, -0.050327003002, 0.062613166869, -0.047803651541, -0.059132069349, 0.010077791288, -0.008776137605, -0.035398356616, -0.024113979191, -0.076749175787, 0.001543366467, -0.011823529378, -0.018959805369, 0.000397318159, -0.051435906440, 0.061792071909, -0.045532658696, 0.046569168568, -0.059514917433, -0.029191009700, -0.056832417846, 0.019675686955, -0.041666839272, 0.034803748131, -0.031614258885, 0.063166551292, 0.028498113155, 0.055215686560, -0.078690320253, -0.063230410218, 0.028979785740, -0.079375535250, -0.003730945522, 0.076351515949, -0.071679927409, -0.046271391213, 0.070597313344, 0.027517452836, -0.030100557953, -0.058621391654, 0.037354081869, 0.033172681928, -0.067784085870, 0.062774322927, 0.054519534111, -0.024058293551, 0.079366199672, -0.002975859679, -0.022635336965, 0.031265087426, -0.056775491685, 0.016544505954, -0.039737254381, 0.028817430139, -0.069604158401, -0.030052656308, -0.020247936249, 0.003294185502, -0.023267839104, -0.031816918403, -0.008294882253, 0.081450082362, -0.012479545549, 0.050466537476, -0.058231875300, 0.037277474999, -0.064246334136, 0.018464922905, 0.051985174417, -0.063169397414, -0.058473803103, -0.024355579168, 0.083637289703, -0.005540236831, -0.005275145173, -0.041164875031, 0.078139774501, -0.035795636475, -0.052903272212, 0.055688351393, -0.061503913254, 0.062987558544, -0.072883620858, -0.054956063628, -0.030721802264, 0.044549375772, -0.003011026187, -0.062968991697, 0.059519216418, 0.026227205992, -0.011899465695, 0.013533050194, -0.014161685482, -0.051314786077, -0.069158621132, 0.082547731698, 0.033116087317, 0.056911975145, -0.030491333455, 0.018110491335, -0.065618969500, 0.024055503309, 0.026938825846, -0.047978188843, 0.036248624325, 0.070260457695, -0.002875001170, 0.081555016339, 0.043257534504, -0.024777840823, 0.057380244136, 0.066029734910, -0.048630468547, -0.035218019038, 0.050988033414, 0.061386946589, 0.065630100667, -0.054675318301, 0.049066603184, 0.010664718226, -0.031833682209, -0.027150236070, 0.010227279738, 0.017781384289, 0.020747750998, -0.036918871105, 0.009474979714, -0.020197987556, 0.056481882930, 0.051744505763, 0.059229850769, 0.036850281060, 0.018904738128, -0.073712132871, -0.012452865019, -0.031907126307, -0.041591227055, 0.075892157853, 0.057450130582, -0.046448238194, 0.080171398818, -0.006749860942, -0.069610640407, -0.037705257535, 0.053973868489, 0.018532089889, 0.068908788264, 0.016342349350, -0.061550553888, 0.078129135072, -0.046589508653, -0.057371154428, 0.008586326614, 0.029640078545, 0.074422471225, 0.081117384136, 0.078202463686, -0.003172592027, -0.068592190742, 0.038467898965, 0.028054520488, 0.005963884294, 0.026701644063, -0.000026938580, -0.080197066069, 0.064848504961, -0.043887309730, -0.064444757998, -0.074707612395, -0.085067555308, 0.081851325929, -0.007735313848, -0.050385620445, 0.050805091858, 0.063689939678, -0.047851596028, -0.024901274592, -0.062548235059, 0.055283725262, -0.009020524099, 0.013957278803, -0.062002912164, 0.044548884034, 0.050349816680, 0.032076723874, -0.074277542531, 0.008237259462, 0.006402134895, -0.077904574573, -0.049742363393, 0.053163230419, 0.002397188218, 0.068585507572, 0.036959320307, 0.053617268801, 0.048861309886, -0.060523867607, -0.013451324776, -0.071631960571, -0.019407927990, -0.013608084992, -0.084899775684, -0.015318348072, 0.012289689854, -0.000019985704, -0.031197216362, -0.078000545502, -0.010920690373, -0.030725952238, 0.079560391605, -0.002952218987, 0.045531764627, -0.064555056393, -0.073298595846, 0.082879953086, -0.028478667140, -0.076221726835, -0.070995867252, -0.042434994131, 0.012977087870, 0.074792243540, 0.034506998956, -0.002017871710, 0.074377246201, 0.078083358705, -0.018275298178, -0.032959930599, 0.023899905384, -0.037902172655, 0.056335821748, 0.013063767925, -0.029637679458, 0.073961578310, 0.046356663108, 0.011890115216, -0.013869607821, 0.080695308745, -0.025469146669, 0.072868920863, -0.041829708964, 0.002887987532, 0.005635276437, -0.083069585264, -0.057412553579, 0.016162030399, 0.033474549651, -0.010784352198, 0.004798345268, 0.062026932836, -0.077481359243, 0.056055709720, 0.038380041718, 0.060586556792, 0.002550476231, 0.000951402995, -0.041129939258, -0.051668956876, -0.020199060440, 0.005905121565, 0.062361039221, -0.005621112883, -0.003017836018, -0.024514131248, -0.052095413208, -0.027815692127, -0.025285195559, 0.083249159157, -0.022385872900, -0.000159421208, -0.055907856673, 0.084675140679, -0.073640093207, -0.063418321311, 0.057157099247, -0.081433549523, -0.059055097401, -0.060332193971, -0.034894924611, 0.074427090585, 0.064201571047, -0.006768420339, 0.006811469793, -0.050719492137, 0.019562184811, -0.014832073823, -0.076700590551, 0.050593435764, 0.057466283441, 0.035243645310, -0.045637093484, 0.072180069983, -0.062116310000, -0.022994589061, -0.038837861270, -0.053429517895, -0.004994310439, -0.025054685771, -0.054526507854, -0.051610026509, -0.010463589802, -0.048313960433, 0.017817124724, 0.051244288683, 0.066480912268, -0.018442794681, -0.024721764028, -0.059539347887, 0.002353028627, -0.023537784815, 0.003817193443, -0.075414903462, 0.013585330918, -0.065276451409, 0.022695384920, 0.053145572543, -0.038833878934, -0.048184685409, 0.035060644150, 0.013802105561, -0.052133608609, 0.073094792664, 0.015971556306, 0.084319628775, 0.020180210471, 0.054635286331, -0.079159907997, -0.067757867277, 0.027779765427, 0.048536747694, 0.068291254342, -0.034272275865, 0.044540911913, -0.076076634228, -0.010661104694, 0.016899257898, -0.014415139332, -0.021825619042, -0.073822908103, 0.000031656458, 0.011928232387, -0.033178362995, 0.054986059666, -0.028376232833, 0.057330787182, 0.065514735878, -0.022971648723, 0.048341855407, 0.034226909280, -0.010582501069, 0.000070486327, -0.080135121942, 0.026468783617, -0.060527790338, 0.022983543575, -0.024202041328, -0.009253660217, 0.063016705215, 0.057250291109, -0.040704205632, -0.050107765943, 0.029670387506, -0.062333457172, 0.076279379427, -0.081905059516, -0.026285532862, 0.010393137112, -0.056722242385, 0.032358027995, -0.061871182173, 0.022186331451, -0.035147402436, -0.012702273205, 0.049718260765, 0.068483807147, 0.058205947280, -0.052929989994, -0.082515858114, -0.039286021143, 0.024306707084, 0.002795525594, 0.050986573100, -0.048258788884, -0.076764553785, 0.083251751959, -0.026736252010, 0.043608933687, -0.020491965115, 0.079664908350, -0.048384800553, 0.071243353188, -0.023404855281, -0.034458372742, -0.073622666299, 0.021891117096, 0.022147931159, -0.055830717087, 0.042408838868, 0.077479295433, -0.055154792964, -0.031145678833, 0.000005536611, -0.015630975366, -0.041628930718, -0.079104103148, -0.054427295923, -0.080766998231, 0.062136963010, -0.038173567504, 0.040322631598, -0.001274184557, 0.045954838395, -0.084502905607, -0.031591858715, -0.073218964040, 0.047139465809, 0.062701545656, 0.083435975015, -0.000996702584, 0.011567475274, 0.004801549017, 0.054759025574, 0.000062369509, -0.025000818074, -0.041777800769, 0.039653480053, -0.059665091336, -0.055728778243, -0.002681278624, 0.040273576975, 0.050154536963, -0.050098143518, -0.042552996427, -0.075811043382, -0.010746011510, -0.040016926825, -0.045943237841, -0.006511278916, -0.056735683233, 0.079375095665, -0.019057594240, -0.029863173142, 0.083978392184, 0.046340435743, 0.077243350446, 0.045317977667, -0.017652586102, -0.034799221903, 0.018820784986, 0.033113241196, -0.048096455634, -0.027178276330, -0.074315287173, -0.027270488441, -0.043923482299, 0.004201650620, 0.001765639870, -0.016721211374, 0.031481347978, 0.021562531590, 0.035170033574, -0.030732024461, 0.022405304015, -0.037345655262, -0.035521209240, -0.066380269825, -0.056866176426, 0.060803204775, -0.052226997912, 0.061865683645, 0.065029136837, 0.019403256476, 0.078916005790, -0.017451390624, -0.076762489974, 0.020908989012, -0.045067034662, 0.005501918495, -0.034925419837, 0.063489325345, -0.077636487782, -0.006215147674, -0.078507736325, 0.006538860500, -0.055827021599, 0.076308734715, -0.042541164905, 0.021741956472, -0.042316909879, -0.049751199782, 0.008728193119, 0.052576020360, -0.000158100811, 0.000851654622, 0.067287720740, -0.016559287906, 0.035769969225, -0.023115105927, -0.026299286634, -0.067180819809, -0.066895946860, 0.038251265883, 0.083494059741, 0.017083123326, 0.060003116727, 0.064389862120, -0.061603806913, -0.030299805105, 0.043720513582, -0.077373415232, -0.003051929874, 0.024994745851, 0.003696755040, -0.055237054825, -0.000007451661, -0.065949499607, 0.038492441177, -0.063425734639, 0.029126606882, -0.010170990601, -0.021375976503, 0.023071147501, 0.043095558882, 0.004753068089, 0.074493505061, -0.042353209108, -0.061421997845, -0.076057478786, 0.068154506385, -0.011159332469, -0.073220551014, -0.018877446651, 0.024445019662, 0.055927351117, 0.041799247265, 0.033364914358, -0.013240100816, 0.080296136439, -0.060516763479, -0.007275798358, -0.081104256213, 0.018088355660, -0.037053409964, 0.025112688541, -0.073328867555, 0.058344349265, 0.079468153417, -0.001025379868, 0.036333985627, 0.038310378790, 0.014923952520, -0.001172290416, 0.035399697721, 0.016818583012, -0.065628305078, -0.014612179250, 0.032735884190, -0.082699745893, -0.058365523815, 0.027187630534, -0.083704419434, 0.023014076054, -0.056988265365, 0.083731092513, -0.051207378507, 0.071620754898, 0.077708117664, 0.041878476739, 0.081313006580, 0.040617361665, -0.040929265320, -0.033432554454, -0.032597173005, 0.055929139256, 0.039486259222, 0.000416831230, -0.021460197866, 0.045174568892, -0.000016513779, -0.016407571733, -0.020853199065, -0.050169851631, 0.015413551591, 0.064488120377, 0.025085307658, 0.056538224220, 0.082328625023, 0.063946820796, 0.051553145051, 0.070980049670, -0.082684919238, 0.014677071944, -0.036218378693, -0.023050975055, 0.070578329265, -0.039286267012, -0.048967558891, -0.007511266507, 0.012971865013, 0.016350895166, -0.020117938519, -0.000106272950, 0.059048905969, -0.039007153362, 0.064766757190, 0.016491755843, 0.005743719637, -0.085026197135, 0.016940221190, -0.074861690402, 0.047750771046, -0.071479186416, 0.031270168722, -0.056558795273, -0.071409031749, 0.017635568976, 0.013838926330, 0.021036654711, -0.006508425344, -0.018835224211, -0.061641260982, -0.061591956764, 0.058604046702, -0.009847054258, 0.018139742315, 0.035422965884, 0.047599077225, -0.049912191927, -0.040121484548, 0.044167205691, 0.000554488332, 0.000098591401, 0.066841639578, -0.039162918925, 0.059962123632, -0.023110833019, 0.025203883648, 0.077807880938, 0.008718783036, 0.074260421097, -0.072201915085, 0.031241690740, -0.059572339058, 0.027067892253, -0.029150769114, 0.045217826962, -0.024020899087, -0.077994786203, -0.023332670331, 0.050586625934, 0.007155918516, 0.031129037961, 0.058536037803, -0.049975268543, -0.011965187266, -0.047625318170, 0.000011287511, 0.020696274936, 0.061109606177, 0.031707547605, 0.077656157315, -0.084549836814, 0.081722326577, 0.049945130944, -0.020048044622, -0.027871150523, -0.049910124391, 0.004297740757, -0.006322599947, 0.060845434666, -0.071136064827, 0.069173760712, 0.026238955557, 0.082727663219, -0.016267992556, 0.008744055405, 0.062864594162, -0.061286676675, -0.046930089593, 0.038505226374, -0.080114163458, 0.060060530901, 0.002967708744, 0.017659626901, -0.054644446820, 0.065390832722, 0.068160124123, 0.051987782121, 0.042071655393, 0.006357222795, -0.057176962495, 0.041789934039, 0.081323869526, 0.036513023078, -0.028112996370, 0.066274635494, -0.000113331858, 0.045057907701, 0.043274521828, -0.058868069202, -0.002358452650, -0.082500167191, 0.018636323512, -0.060813821852, 0.055596545339, 0.003763117129, -0.040038608015, 0.021911084652, 0.013259546831, -0.029169246554, 0.070676825941, -0.010408418253, -0.036153666675, 0.019070789218, -0.060738459229, -0.061960231513, 0.061033532023, 0.029157996178, 0.017559997737, 0.021906748414, 0.051047474146, 0.014569003135, -0.025147642940, 0.027475893497, -0.007085755933, 0.043313682079, -0.001452663098, 0.045846194029, -0.013440730050, 0.041047781706, -0.010415727273, 0.021385595202, 0.024686314166, -0.002010644646, -0.004718132317, 0.083285503089, 0.047225624323, 0.000030637864, 0.065406568348, -0.083012022078, 0.038194179535, 0.039931595325, -0.028710640967, 0.066534079611, 0.085065267980, 0.056817144156, 0.017788670957, -0.020895957947, -0.083481237292, -0.067610315979, -0.061249058694, -0.068709120154, 0.011861169711, -0.078431025147, -0.026821445674, 0.020379230380, 0.074343450367, -0.084940940142, -0.059668082744, 0.062393732369, 0.005556426942, 0.029448159039, -0.049506276846, -0.052828773856, -0.004152402282, 0.000684836239, -0.050474364311, 0.076194830239, -0.052436944097, 0.066837020218, 0.070557482541, 0.006382122636, -0.055907383561, 0.032336518168, -0.043217994273, 0.012422965840, -0.001107500168, 0.075480006635, 0.061456486583, 0.005218774080, 0.062729470432, -0.016944393516, -0.013001704589, -0.016857564449, 0.028260134161, -0.047550965101, -0.063486665487, 0.058633551002, -0.000387922977, 0.018144741654, 0.019162714481, 0.059909641743, -0.039986018091, 0.038943126798, 0.041722550988, 0.077894143760, 0.066163726151, 0.060332626104, -0.051003541797, 0.064876221120, 0.004198387265, -0.021493583918, -0.049822393805, 0.012616271153, 0.073133088648, -0.006690994371, 0.009720230475, -0.064972475171, -0.054117910564, 0.044594198465, 0.048070728779, -0.031023362651, -0.045692596585, 0.000041239226, 0.069226197898, 0.020307213068, -0.072434119880, 0.034440323710, 0.078107394278, 0.000043582502, -0.063510477543, 0.053299784660, -0.072859317064, -0.005059354007, -0.039423428476, 0.058481931686, 0.011101001874, 0.070823095739, 0.076474793255, -0.059268839657, 0.059101387858, 0.063365094364, -0.046677879989, 0.017720229924, -0.073799736798, -0.063600622118, -0.007191413082, -0.011774966493, 0.000110831759, -0.060021013021, 0.071024633944, -0.053044687957, 0.037620171905, 0.033825702965, -0.015676707029, -0.007826903835, 0.032354250550, -0.045216832310, -0.056403748691, 0.049540981650, 0.021721161902, 0.054857641459, -0.017264761031, 0.058061957359, 0.077967919409, 0.001098350855, 0.068608827889, 0.049460053444, -0.012730846182, 0.017068542540, 0.040703549981, 0.075217835605, 0.027405135334, -0.083248190582, -0.063709579408, 0.075819842517, 0.045875340700, 0.038061425090, 0.026521146297, -0.065829269588, -0.079565018415, 0.002963223495, 0.064733497798, 0.049180850387, -0.006430625916, 0.018090456724, -0.034078806639, 0.061672277749, -0.081684455276, 0.060199573636, -0.011994758621, -0.061413303018, -0.000064589360, 0.016558840871, -0.060831435025, 0.040228486061, -0.064318418503, -0.004374429584, 0.052614763379, 0.043485239148, 0.007997291163, -0.025045435876, -0.036095749587, -0.036774069071, -0.020823091269, 0.041199997067, 0.003484436544, -0.073867358267, -0.059529498219, -0.066549248993, 0.072631858289, 0.020361058414, 0.050941884518, 0.009635353461, 0.065917454660, -0.017455212772, -0.003902070224, 0.030005251989, -0.027649722993, 0.029120042920, -0.028634887189, -0.025489360094, 0.081989936531, 0.082080535591, 0.073912657797, -0.083769723773, 0.018991440535, -0.006833441556, -0.068493954837, 0.037759751081, -0.000617445738, 0.081102766097, -0.079684920609, 0.014835337177, -0.077995195985, -0.005007341504, 0.065521873534, -0.000088833578, 0.064479552209, -0.027052532881, -0.013969125226, 0.050074994564, 0.069906868041, -0.070017434657, 0.052137777209, 0.083287514746, 0.032244175673, -0.074997693300, 0.072547905147, 0.065174035728, -0.047811228782, -0.071635268629, -0.048443194479, -0.028100401163, 0.030396912247, -0.057031974196, -0.017712235451, 0.064316369593, 0.053323209286, -0.002117828699, 0.029109679163, 0.020187847316, 0.063304640353, -0.033341251314, -0.080430254340, -0.010420190170, -0.038714699447, 0.028765030205, 0.046529397368, 0.025982633233, -0.033558752388, 0.043324187398, 0.085010923445, -0.041866149753, 0.070624269545, -0.073197796941, -0.005301713943, 0.039158314466, -0.054861575365, -0.069413721561, -0.027038697153, -0.080133154988, 0.016074813902, -0.054917097092, -0.053074028343, -0.013209046796, -0.024605207145, -0.043860405684, -0.025348875672, 0.001924791723, 0.062625356019, 0.075593136251, -0.071951054037, 0.084028892219, -0.045360229909, -0.024595979601, 0.027928799391, 0.025774814188, 0.046688362956, 0.013412566856, 0.045356169343, -0.071193650365, -0.068731568754, 0.000058720929, 0.036697424948, -0.083288095891, 0.000085610140, -0.072167374194, 0.084578372538, 0.058956295252, 0.073121376336, 0.053922310472, -0.021196506917, 0.075426049531, 0.079395912588, 0.007055961061, 0.058018624783, 0.061933498830, 0.030814137310, 0.053195834160, -0.068580567837, 0.049722805619, -0.084601990879, -0.008168207482, -0.072199545801, -0.010581733659, -0.040771495551, 0.050680205226, 0.033726163208, 0.001497016405, -0.009861918166, -0.009185770527, -0.045473005623, 0.084278918803, -0.034536235034, -0.039822053164, 0.034903846681, 0.077922232449, -0.066890291870, 0.068875648081, 0.020337417722, 0.035979814827, 0.027232125401, -0.010204399005, -0.023796357214, -0.022094264627, 0.078686155379, 0.019525453448, -0.030848724768, 0.021321445704, 0.053342714906, -0.082828275859, -0.021267227829, 0.000523434312, 0.073895521462, 0.023569069803, -0.020970746875, 0.057486578822, -0.084201574326, 0.046245142817, -0.049487717450, 0.068386398256, 0.066769413650, 0.060906916857, 0.008178660646, 0.011877560988, -0.004598535597, 0.038018763065, -0.078358307481, 0.008361825719, 0.000047838243, -0.036434952170, -0.037045832723, -0.027676258236, 0.007806712762, -0.081659905612, 0.070138804615, -0.032310601324, 0.018226116896, -0.004322379827, 0.029802946374, -0.071125887334, 0.038583382964, 0.043116092682, -0.042302250862, -0.016076050699, 0.023738831282, -0.043709572405, 0.048144146800, 0.018502481282, -0.072234585881, 0.014147685841, -0.032962158322, 0.063688956201, 0.054303765297, -0.008136952296, -0.046578008682, -0.049327656627, -0.004039712250, 0.047577947378, -0.078233636916, -0.055129274726, 0.030782442540, 0.042649507523, 0.064735464752, 0.066670335829, 0.076833747327, -0.006103068590, -0.034482754767, -0.002247967990, 0.078266791999, 0.070916958153, -0.079500824213, 0.039732024074, 0.037581950426, -0.000035882691, 0.006571069360, 0.067497037351, 0.066918127239, -0.074054986238, 0.085032097995, -0.047979630530, 0.034523144364, -0.008779319003, -0.073346644640, 0.066284738481, -0.068781450391, 0.025447882712, 0.003129125340, 0.029343739152, 0.077143274248, -0.083990283310, -0.069903358817, -0.062733195722, 0.037183657289, 0.015511854552, 0.043019816279, -0.032985098660, 0.013071680441, -0.075822778046, -0.008409129456, 0.009744660929, 0.062761701643, -0.059627015144, -0.060500059277, -0.036964934319, 0.047569423914, 0.078843049705, 0.072099037468, 0.068275503814, 0.042882621288, 0.079780749977, -0.017929986119, 0.035107076168, 0.029186300933, -0.047586686909, 0.052004039288, 0.060866951942, 0.066033206880, 0.083496697247, -0.074633054435, -0.051110830158, -0.019867606461, 0.067934609950, 0.061387751251, -0.060328725725, 0.047145679593, 0.046924784780, -0.079900376499, -0.011994408444, -0.064049936831, 0.028380364180, -0.018769167364, 0.035376720130, -0.004790313542, -0.013348149136, 0.019948065281, -0.000048816506, -0.031207354739, -0.060854412615, -0.039215300232, -0.036954302341, 0.043597951531, 0.000009806045, -0.068313285708, -0.065876431763, -0.065401755273, -0.004282213748, -0.059089124203, 0.033464476466, 0.001774439006, 0.013366298750, -0.047213047743, -0.039413787425, 0.066875584424, -0.081154599786, 0.055371716619, 0.000134248185, -0.047694385052, -0.036174397916, 0.008094580844, 0.082468546927, -0.005497679114, 0.067756898701, 0.051241055131, 0.031040167436, 0.036732114851, 0.068959824741, -0.053769957274, -0.017074696720, -0.029726464301, 0.004530645907, 0.060220032930, -0.002468773397, -0.074548669159, -0.009883904830, 0.058869764209, 0.035649716854, 0.069904036820, -0.001607255195, 0.001795084565, -0.067543372512, -0.063967943192, -0.043012943119, -0.081416800618, -0.033734008670, -0.022305592895, 0.043996036053, -0.071751989424, -0.000905872497, -0.042172398418, 0.000121857862, -0.026591636240, -0.049742922187, 0.045656070113, -0.051135566086, 0.062565200031, -0.014017382637, 0.062986545265, 0.049266934395, 0.035663843155, -0.054250121117, 0.005596794188, 0.025429666042, 0.016675494611, 0.032225742936, -0.044375110418, -0.018217377365, 0.076888523996, 0.048878163099, -0.076745890081, -0.057935640216, -0.010522352532, -0.080010101199, 0.062002092600, 0.073611952364, -0.024538803846, 0.048516184092, -0.006464198697, 0.033259980381, -0.053457248956, 0.012436451390, 0.046259149909, 0.057185262442, -0.010843629017, -0.012718955055, 0.018651001155, -0.024275194854, 0.059699237347, -0.060019217432, -0.046298190951, -0.016501583159, -0.020902320743, 0.079347066581, -0.021227955818, -0.026675444096, 0.035471782088, -0.005431689322, -0.063597381115, -0.022779334337, -0.062641151249, 0.056427791715, -0.034821107984, 0.059201717377, -0.018065065145, 0.014852659777, -0.082390442491, -0.000013364966, 0.051939576864, 0.078290604055, 0.024520762265, -0.015505864285, -0.034795735031, -0.025853171945, 0.018326111138, 0.005128584802, 0.007751459256, -0.051653448492, -0.059846647084, -0.022965535522, -0.084351763129, -0.015388569795, 0.041948765516, 0.060984626412, -0.039057534188, 0.057118341327, -0.081878915429, -0.073747292161, -0.074169784784, -0.007014625240, 0.033245056868, 0.010471479967, 0.004653625190, 0.063429273665, 0.031506069005, 0.077102951705, 0.012498000637, 0.033260762691, -0.077304080129, -0.064124166965, -0.036757197231, 0.040554150939, -0.015349587426, -0.031417798251, 0.081165216863, -0.053149785846, -0.069396458566, 0.050815314054, -0.044381882995, 0.012743810192, 0.073092393577, 0.082294218242, -0.024276558310, 0.000632436306, -0.058230161667, -0.000103216509, -0.036078840494, 0.005103908479, 0.000018599938, 0.001821325393, -0.077731549740, -0.047751143575, 0.073938407004, 0.047461211681, -0.017562150955, 0.016846172512, -0.030842345208, -0.066588856280, -0.060527317226, 0.032459676266, -0.047892149538, 0.000007320603, 0.038379341364, -0.073016345501, 0.050884753466, -0.069545164704, 0.074852742255, -0.007237204351, -0.069409675896, -0.074828796089, 0.054476946592, -0.012926729396, 0.010907636955, -0.047367490828, -0.043185081333, 0.059751212597, -0.069311968982, 0.000980572077, -0.021644562483, -0.017657294869, 0.007676133886, 0.081052638590, -0.028573852032, 0.074283815920, -0.073136411607, -0.063480496407, -0.036728952080, 0.007955105975, 0.059753477573, 0.016537696123, 0.031482942402, 0.061102110893, 0.005302622914, 0.058021470904, -0.015893071890, -0.046223115176, 0.072936125100, -0.037589360029, -0.064241729677, -0.019469559193, 0.021009668708, 0.026457197964, 0.051631063223, 0.072084911168, -0.009330527857, -0.000037169888, -0.037474539131, -0.084822140634, -0.023783389479, -0.008291268721, -0.008384475484, -0.006910458207, -0.073421224952, -0.014063673094, 0.027553111315, -0.063693843782, 0.000009865649, -0.011575715616, -0.041519477963, 0.082929722965, 0.027797088027, -0.063139356673, -0.044369678944, -0.051454715431, 0.049038976431, 0.001524844323, 0.073554657400, -0.057472430170, -0.063749618828, -0.079136081040, 0.058348387480, 0.072495795786, -0.022971071303, -0.085015356541, 0.057196617126, 0.009849572554, -0.010850565508, -0.000085060194, -0.006573423743, 0.033611506224, 0.000021334719, 0.043204814196, 0.066430605948, 0.080307938159, 0.078170157969, -0.001135849627, 0.072912506759, 0.030284132808, -0.036953866482, 0.067717082798, 0.012032995000, -0.081651523709, -0.064957521856, 0.025530137122, 0.025092385709, -0.078806400299, 0.065390326083, -0.069043532014, 0.016261406243, 0.026184916496, -0.052996370941, 0.037078559399, 0.001474836026, -0.005157433450, 0.058315902948, 0.032935053110, -0.003100880189, -0.017432421446, 0.021726138890, 0.007718527690, 0.059400454164, -0.082848280668, -0.061402697116, -0.079659499228, 0.077928386629, -0.025835104287, 0.025098375976, -0.034678392112, 0.059787780046, -0.078128412366, 0.011059047654, 0.041772395372, 0.014267938212, 0.063191942871, 0.031407125294, 0.080384604633, 0.053637877107, -0.062550850213, 0.048991531134, -0.015166586265, -0.045845244080, -0.022712066770, -0.006803750992, 0.004293821752, -0.067244172096, 0.001554788207, -0.010582538322, 0.046850457788, -0.084684148431, -0.072576530278, -0.012546936050, 0.042019248009, 0.036346085370, -0.042107131332, -0.002739959164, -0.054810661823, 0.082315661013, -0.012430751696, 0.049611017108, -0.055148001760, -0.058218285441, 0.024794258177, -0.054412595928, -0.042141094804, 0.031186971813, 0.079663895071, -0.001706958981, 0.072562240064, -0.063997410238, 0.049345433712, -0.028001438826, -0.067483760417, -0.061671949923, 0.051243036985, 0.052472576499, 0.064920179546, -0.034424014390, 0.008549841121, -0.001480021630, -0.001462721382, 0.059009194374, 0.067022226751, -0.078596331179, 0.010547811165, 0.030759815127, -0.021375313401, -0.068366289139, 0.004189141095, 0.042938575149, -0.044334929436, -0.034261394292, -0.017102099955, 0.031044421718, -0.019113719463, -0.038009561598, 0.079539977014, 0.035490505397, -0.033599324524, 0.044929340482, 0.044982522726, 0.075774557889, -0.059606328607, 0.015289395116, 0.050031155348, -0.077574044466, 0.038288757205, -0.050314158201, 0.073387674987, 0.077500395477, 0.066399253905, -0.032294724137, 0.075996048748, 0.054602146149, -0.009856173769, 0.024805985391, 0.020357988775, -0.042897358537, -0.001099505695, -0.082779526711, -0.021121844649, -0.031475611031, 0.032376676798, 0.056122288108, -0.039544217288, -0.078049518168, 0.008164824918, -0.078633002937, -0.038092751056, -0.076046615839, 0.051919698715, 0.073749370873, -0.054312802851, 0.084204174578, 0.042536869645, -0.065947823226, -0.057466380298, 0.034520953894, -0.001657218905, 0.014634558931, 0.022245101631, -0.060854539275, -0.025524895638, -0.054085288197, 0.070521555841, 0.070385716856, 0.062187626958, -0.077463105321, -0.065030492842, 0.075401641428, -0.006887309253, -0.037269961089, 0.070698566735, 0.084008447826, 0.035566180944, -0.025852903724, 0.020771622658, -0.080597341061, 0.033721745014, 0.027381949127, 0.060896515846, -0.065550088882, 0.003192805452, -0.011495331302, 0.021192789078, 0.050154268742, -0.003593184985, 0.024706445634, 0.006421275437, -0.015260225162, -0.005501627922, 0.044184267521, 0.032629609108, -0.048635609448, 0.049182072282, -0.025086298585, 0.061720054597, 0.082955636084, 0.063935615122, 0.082371033728, 0.033220089972, -0.050087157637, -0.027847405523, 0.064640380442, -0.058432094753, 0.030505109578, 0.081974498928, 0.026142016053, -0.000124018115, -0.040310744196, 0.054488703609, -0.081808798015, -0.032455343753, 0.042137488723, 0.018823802471, 0.038751780987, 0.051995247602, 0.078539140522, 0.078115008771, 0.006347335875, -0.046945907176, -0.013352239504, 0.082839690149, -0.001156823011, -0.011054465547, -0.082994200289, -0.000072787690, 0.064541839063, -0.049033157527, -0.058105304837, 0.060245499015, 0.035375475883, -0.081817284226, 0.060230106115, 0.023936472833, -0.078759633005, -0.019774049520, 0.009445289150, -0.084475234151, -0.034966673702, -0.012900361791, -0.080363132060, 0.043054461479, 0.073673732579, -0.024274680763, -0.000390195404, -0.006191879511, -0.047727193683, -0.065768994391, 0.077810771763, 0.019949883223, -0.030993385240, -0.000096406038, -0.019101843238, 0.038571432233, -0.069945417345, -0.061323489994, -0.000547529489, -0.020622462034, -0.011433640495, 0.033628687263, 0.000757620961, -0.008916357532, -0.060775376856, 0.028793834150, -0.049747753888, -0.078000091016, 0.078230656683, 0.052540436387, 0.018798470497, -0.002222941490, 0.046409353614, 0.033854447305, 0.052547305822, 0.037147462368, -0.024824857712, -0.066054351628, -0.038754489273, 0.059912413359, -0.084932453930, 0.079517863691, 0.027863800526, -0.004567839205, -0.077707245946, -0.056335076690, 0.066164486110, 0.068405993283, 0.035160019994, -0.062091678381, 0.022589109838, -0.031744133681, 0.020339548588, 0.029369592667, 0.084658898413, -0.000044719462, 0.006550446153, -0.000213229316, -0.021383121610, 0.065830402076, -0.036908503622, -0.030842281878, -0.047387417406, 0.044984325767, -0.004256695509, -0.016248010099, -0.060663260520, -0.016156762838, -0.082301162183, -0.057650417089, 0.002992049791, -0.058362986892, -0.056896630675, 0.079699747264, -0.023650769144, -0.061265740544, 0.053227052093, 0.080639369786, -0.082381606102, -0.014804819599, -0.036997538060, -0.066300325096, -0.035032685846, -0.072723291814, 0.031744673848, 0.083369247615, 0.051196366549, -0.042826265097, 0.029611624777, 0.001388446661, 0.012459972873, 0.000016044351, -0.079331427813, 0.031836368144, -0.068125598133, -0.027247756720, 0.037341549993, 0.029228858650, -0.065046638250, -0.049237754196, 0.011254021898, 0.079357139766, 0.004015326500, -0.082272730768, -0.049476131797, -0.006272569299, 0.025921270251, 0.047040119767, -0.018503554165, -0.078441992402, -0.013397226110, 0.071330539882, -0.074143230915, -0.073897361755, -0.033662632108, 0.014096440747, -0.067587479949, 0.083377011120, 0.018897309899, -0.066280625761, -0.037491634488, 0.049654141068, -0.070128604770, -0.002182849916, -0.053474921733, -0.004855044186, -0.026217415929, -0.038464408368, -0.045507136732, -0.008632222190, -0.067471086979, -0.041646067053, -0.003156133695, -0.041495855898, -0.016889072955, -0.030952295288, -0.044911433011, -0.014393085614, 0.006873391569, 0.038271561265, -0.035159524530, 0.043792963028, -0.025829076767, -0.019656814635, 0.047144696116, -0.076373465359, 0.064529769123, 0.005260832608, -0.057054318488, 0.003304445185, -0.051817618310, 0.036083795130, -0.065849997103, 0.028271339834, -0.004277013242, 0.047052040696, 0.045929923654, -0.040339875966, -0.062936738133, -0.054929055274, 0.061582911760, -0.037883941084, -0.076643995941, 0.049588620663, 0.070217438042, 0.029731854796, -0.077517062426, -0.063934497535, -0.048611655831, 0.080596782267, 0.053541496396, -0.061934236437, -0.050525818020, -0.008127370849, 0.036347635090, 0.046000346541, 0.039761602879, 0.061813991517, 0.060154229403, 0.038752213120, 0.035860717297, -0.060988083482, 0.002686814405, -0.011118905619, 0.084839545190, 0.060121566057, -0.010792138055, 0.008123384789, -0.023070920259, 0.084959097207, 0.075548283756, 0.036370031536, 0.025964483619, 0.072605915368, 0.033298760653, 0.015315747820, 0.038546621799, 0.020923525095, 0.048717558384, 0.019137606025, -0.054369896650, -0.000531533093, -0.015189154074, -0.014278406277, -0.034896574914, 0.026781655848, 0.083039872348, -0.061052430421, 0.033069178462, 0.053650468588, -0.059845983982, 0.065551243722};
